svm_type c_svc
kernel_type linear
nr_class 4
total_sv 72
rho 530029 -53722 -241277 -50475.2 -188.969 -55.8704
label 1 2 3 4
probA -0.000691467 -0.000278593 -0.00108917 -0.000952433 -1.09636 -1.10317
probB -0.119856 0.120964 -0.0281517 0.666738 -0.860369 0.419902
nr_sv 33 7 25 7
SV
0 1048576 0 1:128.5488 2:74.8416 3:45.9968 
0 1048576 0 1:126.0976 2:74.168 3:59.8064 
0 1048576 0 1:126.0816 2:74.2368 3:58.1504 
0 1048576 0 1:127.5568 2:73.8016 3:55.6944 
0 1048576 0 1:126.8544 2:74.6528 3:67.2448 
0 1048576 0 1:125.8128 2:73.128 3:66.6736 
1048576 0 0 1:122.8144 2:73.9872 3:111.976 
0 768968.6772319643 0 1:126.5488 2:73.6704 3:73.6624 
0 1048576 0 1:125.944 2:73.904 3:54.0192 
149675.0719491 0 0 1:125.4688 2:74.3792 3:68.0832 
1048576 0 0 1:124.2368 2:73.88 3:106.672 
911789.4693323271 0 0 1:124.92 2:73.288 3:75.7968 
0 1048576 0 1:124.664 2:71.6336 3:41.7088 
0 1048576 0 1:125.5488 2:72.1744 3:36.7296 
0 1048576 0 1:125.7664 2:72.3376 3:37.6208 
0 1048576 0 1:126.2544 2:73.8912 3:71.88 
0 1048576 719521.7545212039 1:126.704 2:73.8128 3:64.9424 
0 1048576 0 1:125.656 2:72.7904 3:56.0256 
0 1048576 0 1:125.808 2:72.2768 3:39.8016 
0 1048576 0 1:124.6256 2:71.6208 3:41.2704 
0 1048576 0 1:125.3456 2:72.024 3:46.4176 
0 1048576 0 1:125.2992 2:72.0752 3:44.3312 
0 1048576 0 1:125.144 2:71.9296 3:48.6016 
0 1048576 0 1:124.968 2:72.1248 3:46.2976 
0 1048576 0 1:124.848 2:72.0176 3:47.7936 
0 1048576 0 1:125.1056 2:72.1088 3:44.8256 
833585.4470204448 0 0 1:126.6272 2:76.4672 3:105.1808 
0 0 1048576 1:128.4096 2:76.0992 3:105.544 
0 0 1048576 1:126.9232 2:75.3648 3:104.9344 
0 0 1048576 1:128.5632 2:76.2272 3:84.2288 
0 0 376669.5734173217 1:126.4416 2:75.8976 3:102.6416 
0 238008.0261730462 243637.4132659486 1:129.0512 2:76.8688 3:66.9808 
0 1048576 0 1:125.9664 2:73.888 3:59.9248 
-0 1048576 0 1:125.52 2:74.376 3:55.3488 
-1048576 0 0 1:124.8336 2:74.76 3:103.8752 
-1048576 0 0.4316194386373164 1:125.1888 2:75.3456 3:108.2928 
-846473.988301846 0 0 1:122.6064 2:72.5376 3:111.1744 
-0 206570.3907010321 0 1:122.112 2:71.8928 3:100.8304 
-0 0 1.308982181870429 1:127.2576 2:78.2928 3:108.6672 
-1048576 544771.6492000762 3.00727882882892 1:125.2448 2:74.344 3:75.976 
-1048576 -0 0 1:126.6592 2:74.016 3:55.4336 
-121672.3521069611 -0 0 1:128.1184 2:74.7488 3:56.28 
-885304.3512980448 -0 0 1:125.8336 2:72.976 3:26.3056 
-1048576 -1048576 0 1:124.8656 2:74.3024 3:68.112 
-0 -336371.0086136729 0 1:125.5664 2:74.2144 3:55.8128 
-1048576 -0 0 1:124.8752 2:73.3904 3:53.7504 
-1048576 -0 0 1:127.0896 2:73.8368 3:48.9824 
-1048576 -0 0 1:126.2256 2:73.2704 3:27.1952 
-1048576 -0 0 1:125.0512 2:73.0704 3:67.2832 
-1048576 -414971.0312874464 0 1:125.0832 2:73.408 3:72.4416 
-1048576 -0 0 1:125.3344 2:71.7728 3:41.6224 
-1048576 -0 0 1:124.7664 2:72.6368 3:63.8112 
-1048576 -0 0 1:124.3712 2:71.176 3:40.9488 
-1048576 -0 0 1:126.0032 2:72.1584 3:40.4768 
-1048576 -0 0 1:126.4112 2:74.2128 3:58.2064 
-1048576 -0 0 1:125.7104 2:71.9888 3:42.2192 
-1048576 -0 0 1:125.7488 2:72.496 3:50.6928 
-1048576 -0 0 1:126.0208 2:73.1632 3:66.3968 
-1048576 -0 0 1:125.8672 2:72.2288 3:46.3488 
-1048576 -0 0.006147766952101294 1:129.2352 2:76.0032 3:66.4112 
-1048576 -0 0 1:126.104 2:72.392 3:44.7024 
-1048576 -0 0 1:126.496 2:72.5488 3:42.0112 
-1048576 -0 0 1:126.8336 2:73.7248 3:51.28 
-1048576 -0 0 1:125.6416 2:72.2368 3:52.2944 
-1048576 -0 0.05097758936166977 1:125.1984 2:72.5888 3:75.6192 
-1048576 -0 -0 1:127.9712 2:76.08 3:87.3072 
-1048576 -4.747880449336657 -0 1:126.3248 2:75.1504 3:87.9392 
-0 -0 -0.02537342043282008 1:129.9344 2:75.456 3:77.9072 
-1048576 -0 -0 1:128.5584 2:75.9136 3:88.408 
-0 -0 -0.03175193588095099 1:129.5936 2:76.4896 3:77.3024 
-1009493.594120148 -0 -0 1:127.8 2:75.3472 3:101.0592 
-330335.1470843246 -0 -0 1:128.1024 2:75.4848 3:97.632 
