svm_type c_svc
kernel_type linear
nr_class 5
total_sv 834
rho 750.934 -146.235 892.091 1678.71 -159.379 -48.2066 -22.4267 1420.75 1251.98 602.162
label 0 1 2 3 4
probA -0.258789 -0.0639267 -0.138327 -0.143113 -0.388322 -1.18009 -0.218005 -0.0625216 -0.178251 -0.301189
probB 0.0375336 0.016552 -0.247899 -0.00610979 0.568075 1.28594 -0.0073441 -0.0236366 0.0370684 0.0948573
nr_sv 227 19 332 188 68
SV
0 1024 1024 0 1:127.7088 2:75.1488 3:200 
0 1024 0 0 1:128.6064 2:75.7584 3:200 
0 1024 0 0 1:127.5504 2:75.9728 3:200 
0 1024 0 0 1:126.944 2:75.4976 3:200 
0 1024 0 0 1:126.7504 2:75.728 3:200 
0 1024 1024 0 1:127.9888 2:75.616 3:200 
0 1024 1024 0 1:124.8768 2:73.8784 3:200 
0 1024 0 0 1:126.3408 2:75.3824 3:200 
0 1024 542.3545728854782 0 1:124.4832 2:74.1072 3:200 
0 1024 1024 0 1:123.776 2:73.7312 3:200 
0 0 0 721.2605729118137 1:124.4624 2:74.12 3:200 
0 1024 0 0 1:127.2176 2:75.6224 3:200 
0 1024 0 0 1:127.8304 2:75.6464 3:200 
0 1024 0 1024 1:124.064 2:73.8304 3:200 
0 1024 1024 0 1:125.272 2:73.8928 3:200 
0 1024 0 0 1:126.584 2:75.0992 3:200 
0 1024 0 0 1:127.6432 2:76.0768 3:200 
0 1024 0 0 1:125.0816 2:74.872 3:200 
0 1024 0 0 1:126.3744 2:75.5504 3:200 
0 1024 1024 0 1:126.4448 2:74.856 3:200 
0 1024 0 0 1:125.5136 2:74.8032 3:200 
0 1024 1024 0 1:126.5808 2:74.7536 3:200 
0 1024 0 0 1:125.1232 2:74.0096 3:200 
0 1024 0 0 1:129.224 2:76.5952 3:200 
0 1024 1024 0 1:128.4 2:75.8352 3:200 
0 1024 0 0 1:127.9584 2:75.7536 3:200 
0 1024 0 0 1:124.8736 2:74.4 3:200 
0 1024 0 0 1:127.8096 2:76.0784 3:200 
0 1024 0 0 1:126.9424 2:75.7936 3:200 
0 1024 0 0 1:124.8848 2:74.2192 3:200 
0 1024 0 0 1:127.9648 2:75.864 3:200 
0 1024 1024 0 1:126.9376 2:74.7104 3:200 
0 0 1024 0 1:126.832 2:74.8256 3:200 
0 1024 0 0 1:130.448 2:78.0608 3:200 
0 1024 0 0 1:128.384 2:77.1152 3:200 
0 1024 0 0 1:129.6848 2:78.2768 3:200 
821.1154854561096 0 0 1024 1:120.7696 2:73.6976 3:200 
196.7724447671597 0 0 1024 1:120.4608 2:73.6176 3:200 
0 1024 0 0 1:128.0624 2:77.2704 3:200 
1024 916.6533718333784 0 1024 1:120.16 2:73.5728 3:200 
0 0 0 1024 1:120.5312 2:73.7088 3:200 
0 54.03038131538886 0 0 1:129.9792 2:78.6672 3:200 
0 0 0 1024 1:120.96 2:73.8352 3:200 
0 1024 0 0 1:129.6352 2:78.1728 3:200 
0 1024 0 0 1:129.64 2:78.4096 3:200 
1024 0 0 1024 1:120.5024 2:73.6896 3:200 
0 1024 0 0 1:129.1616 2:77.944 3:200 
0 1024 0 0 1:130.1248 2:78.4048 3:200 
0 1024 0 0 1:129.0416 2:77.696 3:200 
0 1024 0 0 1:129.7776 2:78.3472 3:200 
0 1024 0 0 1:127.2352 2:77.5088 3:200 
0 1024 0 0 1:127.9632 2:77.8272 3:200 
0 1024 0 0 1:127.4 2:77.376 3:200 
0 0 0 1024 1:121.9536 2:74.9152 3:200 
0 1024 0 0 1:128.4176 2:78.1616 3:200 
0 1024 0 0 1:127.848 2:77.2384 3:200 
0 1024 0 0 1:126.4064 2:76.4336 3:200 
0 1024 0 0 1:127.9328 2:76.9408 3:200 
0 1024 0 0 1:127.9376 2:76.296 3:200 
0 1024 0 0 1:127.6944 2:77.0992 3:200 
0 1024 0 0 1:128.0432 2:77.5088 3:200 
0 1024 0 0 1:128.9152 2:77.1904 3:200 
0 1024 0 0 1:127.9152 2:77.6 3:200 
0 1024 0 0 1:128.5264 2:77.2896 3:200 
0 1024 0 0 1:127.568 2:76.904 3:200 
0 1024 0 0 1:128.6768 2:77.7296 3:200 
0 1024 0 0 1:128.6576 2:76.672 3:200 
0 1024 0 0 1:125.6144 2:74.4656 3:200 
0 1024 0 0 1:124.6704 2:74.1376 3:200 
0 1024 0 0 1:127.3232 2:75.8528 3:200 
1024 0 0 1024 1:121.0416 2:72.2784 3:200 
0 1024 0 0 1:126.1664 2:75.0544 3:200 
0 1024 0 1024 1:121.5248 2:72.5728 3:200 
0 1024 0 0 1:124.4224 2:73.9456 3:200 
0 1024 0 0 1:127.1488 2:75.808 3:200 
0 1024 0 0 1:127.6304 2:76.0608 3:200 
0 1024 0 0 1:126.5664 2:75.3072 3:200 
144.1287167846528 1024 1024 1024 1:120.7648 2:72.1952 3:200 
0 1024 1024 1024 1:125.3088 2:74.3616 3:200 
0 1024 0 0 1:126.608 2:75.6624 3:200 
0 1024 0 0 1:127.9488 2:75.8272 3:200 
0 1024 0 0 1:127.9904 2:75.7456 3:200 
0 1024 0 0 1:125.7472 2:74.7616 3:200 
0 1024 0 0 1:127.248 2:75.9664 3:200 
0 1024 0 0 1:124.8624 2:74.2096 3:200 
0 1024 0 0 1:125.9968 2:74.7584 3:200 
0 1024 0 0 1:126.28 2:75.4656 3:200 
0 1024 0 0 1:127.5792 2:75.6208 3:200 
0 1024 0 0 1:126.6448 2:75.5056 3:200 
0 1024 0 0 1:125.9088 2:74.7632 3:200 
0 1024 0 0 1:124.7008 2:74.1232 3:200 
0 0 1024 0 1:124.6144 2:74.056 3:200 
0 1024 0 1024 1:124.8656 2:74.3632 3:200 
0 1024 0 0 1:126.7936 2:75.1696 3:200 
0 1024 0 0 1:125.4944 2:74.544 3:200 
0 1024 0 0 1:127.8656 2:75.7536 3:200 
0 1024 0 0 1:127.44 2:76.0608 3:200 
0 1024 0 0 1:127.4672 2:75.8784 3:200 
0 1024 0 0 1:127.648 2:75.8016 3:200 
0 1024 0 0 1:127.5152 2:76.0832 3:200 
0 1024 260.9665041479673 0 1:127.9856 2:75.7648 3:200 
0 1024 0 0 1:124.3824 2:74.44 3:200 
0 1024 0 0 1:125.0848 2:75.2224 3:200 
0 1024 0 0 1:127.0496 2:76.384 3:200 
0 1024 0 0 1:125.4848 2:74.7616 3:200 
0 1024 0 0 1:125.4784 2:74.4624 3:200 
0 1024 1024 1024 1:122.4176 2:72.936 3:200 
0 1024 0 1024 1:121.3536 2:72.5232 3:200 
0 1024 0 0 1:124.5392 2:74.432 3:200 
0 1024 0 0 1:124.2672 2:74.4848 3:200 
0 1024 0 0 1:126.6928 2:75.7504 3:200 
0 1024 0 1024 1:122.4544 2:73.5664 3:200 
0 0 0 1024 1:122.4992 2:73.3568 3:200 
0 0 0 1024 1:123.1664 2:74.0544 3:200 
0 1024 0 0 1:126.3888 2:75.5568 3:200 
0 1024 0 0 1:123.5136 2:74.3312 3:200 
0 1024 0 0 1:126.3424 2:75.552 3:200 
0 1024 0 0 1:128.1152 2:76.9584 3:200 
0 0 0 1024 1:121.928 2:73.0352 3:200 
0 1024 0 1024 1:122.464 2:73.3008 3:200 
0 1024 0 0 1:124.3024 2:74.8144 3:200 
0 1024 0 0 1:128.9072 2:76.176 3:200 
0 1024 0 0 1:127.048 2:75.4384 3:200 
0 1024 0 0 1:127.2864 2:76.0576 3:200 
0 1024 0 0 1:126.6096 2:75.5632 3:200 
0 1024 1024 0 1:127.7104 2:74.84 3:200 
0 1024 1024 0 1:125.8176 2:74.2112 3:200 
0 1024 0 0 1:126.104 2:74.5376 3:200 
0 1024 0 0 1:126.0224 2:74.96 3:200 
0 1024 1024 0 1:124.8592 2:73.8832 3:200 
0 1024 0 0 1:127.1904 2:75.5232 3:200 
0 1024 0 0 1:127.3392 2:75.4 3:200 
0 1024 0 0 1:127.0576 2:75.688 3:200 
0 1024 0 0 1:126.9776 2:75.5312 3:200 
0 1024 0 0 1:126.944 2:75.3936 3:200 
0 1024 0 0 1:125.6368 2:75.2736 3:200 
0 1024 0 0 1:127.32 2:76.0368 3:200 
0 1024 0 0 1:127.7024 2:76.0832 3:200 
0 1024 0 0 1:127.7696 2:76.1296 3:200 
0 1024 0 0 1:126.0448 2:74.992 3:200 
0 1024 1024 0 1:128.6768 2:75.7232 3:200 
0 1024 1024 0 1:128.9024 2:75.6336 3:200 
0 1024 0 0 1:129.3088 2:76.3936 3:200 
0 1024 0 0 1:124.6544 2:74.3392 3:200 
0 1024 0 0 1:126.864 2:75.1424 3:200 
0 1024 1024 0 1:128.2944 2:75.5504 3:200 
0 1024 0 0 1:128.0496 2:76.08 3:200 
0 1024 0 0 1:127.0592 2:75.5408 3:200 
0 1024 0 0 1:127.8192 2:76.1616 3:200 
0 0 1024 0 1:125.5808 2:74.4752 3:200 
0 1024 0 0 1:126.656 2:75.52 3:200 
0 1024 1024 0 1:127.6688 2:75.3568 3:200 
0 1024 0 0 1:128.0128 2:75.6192 3:200 
0 1024 1024 0 1:123.8768 2:73.672 3:200 
0 1024 194.5428817608263 0 1:124.2368 2:73.6688 3:200 
0 1024 0 0 1:127.8912 2:75.584 3:200 
0 0 1024 0 1:126.1648 2:74.176 3:200 
0 927.0736090434651 0 0 1:125.3104 2:74.504 3:200 
0 1024 0 0 1:127.4016 2:75.9536 3:200 
0 1024 0 1024 1:122.944 2:73.6096 3:200 
0 1024 0 0 1:124.6304 2:74.1568 3:200 
0 1024 0 0 1:125.9744 2:75.0944 3:200 
0 1024 0 0 1:125.4384 2:74.7312 3:200 
0 1024 0 0 1:123.9248 2:74.0544 3:200 
0 1024 0 0 1:126.1536 2:75.1344 3:200 
0 0 0 1024 1:122.7296 2:73.3936 3:200 
0 1024 0 1024 1:123.7312 2:73.8064 3:200 
0 1024 0 0 1:123.768 2:73.792 3:200 
0 1024 0 0 1:126.792 2:75.48 3:200 
0 1024 0 0 1:126.4176 2:75.2128 3:200 
0 1024 1024 1024 1:124.1184 2:73.9392 3:200 
0 1024 0 0 1:127.152 2:75.6272 3:200 
0 1024 0 0 1:125.6112 2:74.8176 3:200 
0 1024 0 0 1:126.768 2:75.48 3:200 
0 1024 0 0 1:126.36 2:75.1712 3:200 
0 1024 0 0 1:124.232 2:73.8896 3:200 
0 0 0 1024 1:123.7472 2:73.912 3:200 
0 1024 0 0 1:127.1296 2:75.7872 3:200 
0 1024 0 0 1:125.4784 2:74.632 3:200 
0 1024 0 0 1:125.5968 2:74.792 3:200 
0 1024 0 0 1:126.9776 2:75.7408 3:200 
0 1024 0 0 1:127.4272 2:76.128 3:200 
0 1024 0 1024 1:123.0176 2:73.7008 3:200 
0 1024 0 0 1:127.352 2:75.552 3:200 
0 1024 0 0 1:126.0832 2:75.0096 3:200 
0 1024 0 1024 1:123.7552 2:73.8304 3:200 
0 1024 0 1024 1:123.6048 2:73.7552 3:200 
0 1024 0 1024 1:123.3728 2:73.7104 3:200 
0 1024 0 0 1:127.0976 2:75.7264 3:200 
0 1024 0 1024 1:123.8784 2:73.8912 3:200 
0 0 0 1024 1:124.4064 2:74.0864 3:200 
0 1024 0 1024 1:122.3008 2:73.1952 3:200 
0 1024 0 0 1:127.9248 2:77.8368 3:200 
0 1024 0 0 1:127.696 2:75.904 3:200 
0 1024 0 0 1:129.056 2:78.112 3:200 
0 1024 0 0 1:127.4912 2:75.8224 3:200 
0 1024 0 0 1:127.4 2:75.9936 3:200 
0 1024 0 0 1:128.9664 2:76.9488 3:200 
0 1024 0 0 1:129.3792 2:77.9824 3:200 
0 1024 0 0 1:128.28 2:77.072 3:200 
0 1024 0 0 1:125.6656 2:75.3392 3:200 
0 1024 0 0 1:127.7056 2:76.6688 3:200 
0 1024 0 0 1:124.6224 2:74.1232 3:200 
0 1024 0 0 1:125.128 2:74.9536 3:200 
0 1024 0 0 1:126.6064 2:75.4416 3:200 
0 1024 0 0 1:125.592 2:75.2592 3:200 
0 1024 0 0 1:127.2592 2:75.5088 3:200 
0 1024 0 0 1:125.1792 2:74.2512 3:200 
0 1024 0 0 1:125.4928 2:75.0464 3:200 
0 1024 0 0 1:125.3184 2:74.3424 3:200 
0 1024 0 0 1:126.1376 2:74.752 3:200 
0 1024 0 0 1:125.5584 2:74.5952 3:200 
0 1024 0 0 1:125.7312 2:74.7056 3:200 
0 0 1024 0 1:125.1728 2:74.3072 3:200 
0 1024 0 0 1:124.792 2:74.184 3:200 
0 1024 0 0 1:126.5952 2:75.4576 3:200 
0 1024 0 0 1:126.3392 2:75.2704 3:200 
0 1024 0 0 1:126.4496 2:75.704 3:200 
0 1024 0 1024 1:123.832 2:73.9696 3:200 
0 1024 1024 1024 1:123.7296 2:73.56 3:200 
0 1024 0 0 1:127.032 2:75.3472 3:200 
0 1024 0 0 1:125.8336 2:75.2928 3:200 
0 0 0 1024 1:122.1888 2:72.6112 3:200 
0 1024 1024 579.1070465070991 1:125.6464 2:74.4288 3:200 
0 1024 0 0 1:125.5296 2:75.0448 3:200 
0 1024 0 0 1:125.9984 2:75.1136 3:200 
0 1024 0 0 1:126.0912 2:75.0688 3:200 
-0 0 0 222.8255574838034 1:117.9744 2:71.7744 3:200 
-1024 0 0 1024 1:120.6624 2:73.3232 3:200 
-0 0 0 1024 1:116.9104 2:70.92 3:200 
-0 0 0 1024 1:114.6768 2:69.4688 3:200 
-0 0 0 1024 1:117.6016 2:71.912 3:200 
-0 0 0 1024 1:116.1264 2:70.6576 3:200 
-0 0 0 1024 1:120.1712 2:72.7376 3:200 
-0 0 0 521.7176838739589 1:116.9392 2:72.0336 3:200 
-0 163.7703598643918 0 1024 1:119.6672 2:72.4208 3:200 
-0 0 0 1024 1:119.1808 2:72.584 3:200 
-0 0 0 1024 1:117.5696 2:71.1696 3:200 
-1024 1024 3.518725074487798 1024 1:121.6896 2:73.24 3:200 
-1024 0 0 1024 1:120.6448 2:72.7824 3:200 
-481.1124361244638 0 0 1024 1:120.0288 2:73.1792 3:200 
-0 0 0 1024 1:116.6656 2:71.2176 3:200 
-0 0 0 1024 1:118.8208 2:72.4272 3:200 
-680.904210883457 0 0 0 1:119.2496 2:74.016 3:200 
-0 0 0 1024 1:118.7168 2:73.3216 3:200 
-0 0 0 1024 1:118.0208 2:72.5584 3:200 
-1024 -0 1024 0 1:125.5888 2:76.2608 3:200 
-1024 -0 1024 0 1:123.6544 2:73.2608 3:200 
-1024 -0 0 0 1:124.536 2:75.0864 3:200 
-1024 -0 0 0 1:125.1296 2:74.392 3:200 
-1024 -0 0 0 1:126.6304 2:76.1536 3:200 
-0 -0 1024 0 1:125.3808 2:72.3168 3:200 
-0 -0 1024 0 1:126.6512 2:73.944 3:200 
-0 -0 1024 0 1:124.2608 2:72.7648 3:200 
-1024 -0 0 0 1:126.88 2:76.352 3:200 
-1024 -0 1024 0 1:125.0288 2:74.4176 3:200 
-0 -0 1024 0 1:125.1232 2:72.3328 3:200 
-0 -0 1024 0 1:124.9264 2:72.6048 3:200 
-0 -0 1024 0 1:125.6912 2:72.7136 3:200 
-1024 -0 34.42419594298752 1024 1:124.2416 2:74.2848 3:200 
-0 -0 1024 0 1:129.3728 2:75.192 3:200 
-1024 -0 0 0 1:126.992 2:76.1264 3:200 
-1024 -0 0 0 1:128.144 2:76.9936 3:200 
-0 -0 1024 0 1:127.5072 2:73.9968 3:200 
-1024 -0 0 0 1:126.1664 2:76.5264 3:200 
-1024 -0 0 0 1:130.3072 2:77.368 3:200 
-0 -0 1024 0 1:124.4992 2:73.3376 3:200 
-1024 -0 0 0 1:125.8624 2:74.8528 3:200 
-1024 -0 0 0 1:126.7376 2:76.552 3:200 
-0 -0 1024 0 1:125.8176 2:73.3472 3:200 
-1024 -0 1024 0 1:124.2032 2:72.7808 3:200 
-1024 -0 1024 0 1:126.1792 2:74.2928 3:200 
-1024 -0 0 0 1:126.8784 2:75.8448 3:200 
-1024 -0 0 0 1:127.7888 2:76.8592 3:200 
-1024 -0 1024 0 1:126.04 2:74.3056 3:200 
-1024 -0 1024 0 1:126.048 2:74.6096 3:200 
-1024 -0 0 0 1:125.2224 2:74.8832 3:200 
-0 -0 1024 0 1:124.9168 2:72.9552 3:200 
-0 -0 0 1024 1:122.8032 2:72.7808 3:200 
-1024 -0 0 0 1:126.7328 2:75.0544 3:200 
-0 -0 1024 0 1:122.9904 2:72.7744 3:200 
-1024 -0 0 0 1:129.9248 2:77.2 3:200 
-1024 -0 0 0 1:125.5152 2:74.6448 3:200 
-1024 -0 1024 0 1:128.4176 2:76.3072 3:200 
-0 -0 1024 0 1:126.1152 2:73.0016 3:200 
-0 -0 1024 0 1:124.8864 2:71.6128 3:200 
-1024 -0 1024 1024 1:123.0576 2:73.5344 3:200 
-1024 -0 0 0 1:124.6496 2:74.4832 3:200 
-1024 -0 0 0 1:126.1936 2:74.6608 3:200 
-0 -0 1024 0 1:123.7136 2:72.1984 3:200 
-0 -0 1024 0 1:122.0944 2:71.8704 3:200 
-1024 -0 1024 0 1:123.6016 2:72.176 3:200 
-1024 -0 1024 1024 1:123.2944 2:72.3632 3:200 
-0 -0 1024 0 1:124.136 2:73.1344 3:200 
-0 -0 1024 0 1:124.4096 2:73.9776 3:200 
-1024 -0 0 0 1:125.544 2:76.1024 3:200 
-1024 -0 0 0 1:125.8048 2:75.1584 3:200 
-0 -0 1024 0 1:129.4192 2:75.944 3:200 
-1024 -0 1024 0 1:126.0544 2:75.7216 3:200 
-1024 -0 0 0 1:127.6304 2:76.0752 3:200 
-0 -0 1024 0 1:125.0288 2:73.4048 3:200 
-1024 -0 1024 0 1:122.4256 2:71.776 3:200 
-0 -0 1024 0 1:123.8048 2:72.9152 3:200 
-0 -0 1024 0 1:129.3344 2:76.544 3:200 
-0 -0 1024 0 1:122.1408 2:71.1248 3:200 
-1024 -0 1024 0 1:127.4864 2:74.72 3:200 
-0 -0 1024 0 1:123.8752 2:72.2144 3:200 
-1024 -0 0 0 1:125.3536 2:74.1856 3:200 
-1024 -0 0 0 1:126.1728 2:75.8944 3:200 
-0 -0 1024 0 1:124.6128 2:72.6064 3:200 
-0 -0 1024 0 1:123.8736 2:73.2576 3:200 
-1024 -0 1024 0 1:127.0992 2:75.2208 3:200 
-1024 -0 0 0 1:126.9568 2:76.1248 3:200 
-0 -0 1024 0 1:123.8304 2:72.0144 3:200 
-0 -0 1024 0 1:127.0176 2:74.712 3:200 
-1024 -0 0 0 1:129.36 2:76.2224 3:200 
-0 -0 1024 0 1:125.8384 2:73.7152 3:200 
-0 -0 1024 1024 1:121.2288 2:71.1904 3:200 
-0 -0 1024 0 1:123.7504 2:72.272 3:200 
-0 -0 1024 0 1:124.192 2:72.0096 3:200 
-0 -732.3572651879527 1024 1024 1:120.6896 2:72.4192 3:200 
-0 -0 1024 0 1:131.1936 2:75.3008 3:200 
-0 -0 1024 0 1:124.304 2:73.5632 3:200 
-0 -0 1024 0 1:128.824 2:74.7264 3:200 
-0 -0 1024 0 1:129.5792 2:75.3488 3:200 
-0 -0 1024 0 1:126.592 2:74.0864 3:200 
-0 -0 1024 0 1:129.112 2:75.1904 3:200 
-0 -0 1024 0 1:128.5216 2:74.544 3:200 
-1024 -0 0 0 1:127.0368 2:74.4976 3:200 
-0 -0 1024 0 1:123.3088 2:72.6112 3:200 
-1024 -0 0 0 1:126.0544 2:74.9584 3:200 
-0 -0 1024 0 1:129.528 2:75.9088 3:200 
-1024 -0 1024 0 1:124.2256 2:72.9696 3:200 
-1024 -0 1024 0 1:123.2096 2:73.6448 3:200 
-0 -0 1024 0 1:130.2896 2:76.52 3:200 
-0 -0 1024 0 1:126.4864 2:74.4992 3:200 
-0 -0 1024 0 1:130.4544 2:75.9248 3:200 
-0 -0 1024 0 1:125.9776 2:74.0816 3:200 
-0 -0 1024 0 1:128.8064 2:75.6224 3:200 
-0 -0 1024 0 1:129.5808 2:75.0688 3:200 
-1024 -0 0 0 1:129.2864 2:76.4192 3:200 
-0 -0 1024 0 1:123.9008 2:73.448 3:200 
-1024 -0 0 0 1:124.7872 2:73.88 3:200 
-1024 -0 1024 1024 1:121.3648 2:72.2736 3:200 
-1024 -0 0 0 1:124.6976 2:74.0672 3:200 
-1024 -0 0 0 1:125.0336 2:75.4768 3:200 
-1024 -0 0 0 1:127.488 2:76.0336 3:200 
-1024 -0 0 0 1:127.2704 2:76.2144 3:200 
-1024 -0 0 0 1:127.0272 2:76.224 3:200 
-1024 -0 1024 0 1:128.024 2:75.4688 3:200 
-1024 -0 0 0 1:126.184 2:74.5648 3:200 
-0 -0 1024 0 1:125.376 2:74.0976 3:200 
-1024 -0 0 0 1:125.7264 2:75.408 3:200 
-1024 -0 0 0 1:127.3056 2:76.344 3:200 
-1024 -0 0 0 1:126.856 2:74.5776 3:200 
-1024 -0 0 0 1:126.8048 2:76.0368 3:200 
-1024 -0 0 0 1:128.2944 2:75.6208 3:200 
-1024 -0 0 1024 1:123.3472 2:74.6992 3:200 
-1024 -0 0 0 1:126.3696 2:76.3216 3:200 
-1024 -0 0 0 1:126.3696 2:75.6848 3:200 
-1024 -0 0 0 1:126.3936 2:76.04 3:200 
-1024 -0 0 0 1:127.5104 2:76.4144 3:200 
-1024 -0 0 0 1:126.8288 2:76.0064 3:200 
-1024 -0 1024 0 1:126.32 2:74.728 3:200 
-1024 -0 1024 0 1:126.8768 2:74.5376 3:200 
-1024 -0 0 0 1:126.2512 2:75.592 3:200 
-1024 -0 0 0 1:126.9168 2:75.8848 3:200 
-1024 -0 1024 0 1:126.8144 2:75.3488 3:200 
-1024 -0 0 0 1:125.4608 2:74.2112 3:200 
-0 -0 1024 0 1:124.4512 2:73.3392 3:200 
-1024 -0 0 0 1:127.4528 2:76.472 3:200 
-1024 -0 0 0 1:127.6192 2:76.4336 3:200 
-1024 -0 0 0 1:127.7088 2:76.5968 3:200 
-1024 -0 0 0 1:126.6944 2:75.88 3:200 
-1024 -0 1024 0 1:125.9984 2:74.3264 3:200 
-1024 -0 0 0 1:127.6416 2:76.4512 3:200 
-1024 -0 0 0 1:127.1936 2:75.4448 3:200 
-1024 -0 0 0 1:126.4128 2:75.8352 3:200 
-1024 -0 0 0 1:126.7152 2:75.0896 3:200 
-1024 -0 0 0 1:126.8912 2:76.1312 3:200 
-1024 -0 0 0 1:127.184 2:76.3568 3:200 
-1024 -0 0 0 1:128.3136 2:76.6928 3:200 
-0 -0 1024 0 1:126.9792 2:74.5008 3:200 
-0 -0 1024 0 1:126.7616 2:75.56 3:200 
-1024 -0 0 0 1:126.856 2:74.8624 3:200 
-0 -0 1024 0 1:125.2656 2:73.8896 3:200 
-1024 -0 0 0 1:126.8864 2:75.7088 3:200 
-1024 -0 0 0 1:128.2752 2:76.2048 3:200 
-1024 -0 0 0 1:131.4112 2:78.0624 3:200 
-1024 -0 0 0 1:126.7552 2:76.4352 3:200 
-1024 -322.0733975039537 1024 1024 1:120.9744 2:72.744 3:200 
-0 -0 1024 0 1:131.2784 2:75.4752 3:200 
-0 -0 1024 0 1:125.856 2:72.8672 3:200 
-1024 -0 0 0 1:127.3696 2:76.6976 3:200 
-1024 -0 0 0 1:127.808 2:76.7584 3:200 
-1024 -0 0 0 1:131.6992 2:77.3568 3:200 
-0 -0 1024 0 1:130.2816 2:77.4592 3:200 
-0 -0 1024 1024 1:121.8832 2:72.8288 3:200 
-1024 -0 0 0 1:127.7952 2:76.9728 3:200 
-1024 -0 0 0 1:124.7328 2:75.0128 3:200 
-0 -0 1024 0 1:124.0608 2:72.936 3:200 
-1024 -0 0 0 1:127.0176 2:75.0208 3:200 
-1024 -0 0 0 1:126.712 2:76.544 3:200 
-0 -0 1024 0 1:123.512 2:72.6688 3:200 
-1024 -0 0 0 1:131.4288 2:78.0032 3:200 
-1024 -0 0 0 1:126.608 2:75.5424 3:200 
-1024 -0 0 0 1:125.2544 2:74.7296 3:200 
-1024 -0 0 0 1:126.5632 2:75.4224 3:200 
-1024 -0 0 0 1:125.7728 2:74.2176 3:200 
-0 -0 1024 1024 1:121.824 2:71.5168 3:200 
-1024 -0 0 0 1:129.1696 2:75.4608 3:200 
-1024 -0 1024 0 1:123.224 2:72.3792 3:200 
-0 -0 1024 0 1:127.5472 2:73.8368 3:200 
-0 -0 1024 0 1:124.4288 2:72.5616 3:200 
-0 -0 1024 0 1:128.808 2:73.8464 3:200 
-0 -0 1024 0 1:124.4048 2:72.696 3:200 
-1024 -0 1024 0 1:125.8736 2:74.1408 3:200 
-1024 -0 0 0 1:125.9536 2:74.9392 3:200 
-1024 -0 0 0 1:126.576 2:76.472 3:200 
-1024 -0 0 0 1:128.0608 2:77.2544 3:200 
-0 -0 1024 0 1:125.8096 2:73.8256 3:200 
-0 -0 1024 0 1:124.696 2:73.8176 3:200 
-0 -0 1024 0 1:123.1152 2:70.7968 3:200 
-1024 -0 0 0 1:126.4672 2:76.2368 3:200 
-1024 -0 0 0 1:127.7616 2:76.6752 3:200 
-1024 -0 0 0 1:126.6912 2:75.7168 3:200 
-1024 -0 0 1024 1:125.3392 2:75.48 3:200 
-0 -0 1024 0 1:128.2752 2:72.4304 3:200 
-1024 -0 1024 1024 1:123.0064 2:73.2848 3:200 
-0 -0 1024 0 1:122.8176 2:72.936 3:200 
-0 -0 1024 0 1:121.7952 2:68.3008 3:200 
-1024 -0 0 0 1:125.2336 2:74.3664 3:200 
-0 -0 1024 0 1:122.6608 2:71.888 3:200 
-1024 -0 0 0 1:125.6496 2:73.8672 3:200 
-1024 -0 1024 1024 1:122.3264 2:72.928 3:200 
-1024 -0 1024 0 1:125.0048 2:74.2032 3:200 
-1024 -0 1024 0 1:128.176 2:75.7456 3:200 
-873.7573621922521 -0 1024 0 1:124.0176 2:72.296 3:200 
-0 -0 1024 0 1:121.3504 2:70.3392 3:200 
-0 -0 1024 0 1:126.0224 2:72.2144 3:200 
-0 -0 1024 0 1:123.5504 2:72.3616 3:200 
-1024 -0 0 0 1:125.472 2:74.8 3:200 
-0 -0 1024 0 1:125.68 2:73.7776 3:200 
-0 -0 1024 0 1:127.3088 2:72.8592 3:200 
-1024 -0 0 0 1:127.7856 2:75.616 3:200 
-0 -0 1024 0 1:123.3104 2:71.4016 3:200 
-0 -0 1024 0 1:125.56 2:72.0176 3:200 
-0 -0 1024 0 1:126.8048 2:73.8752 3:200 
-1024 -0 1024 0 1:125.5328 2:73.296 3:200 
-0 -0 1024 0 1:127.0208 2:74.1584 3:200 
-1024 -0 1024 0 1:126.8784 2:75.3696 3:200 
-0 -0 1024 0 1:126.2944 2:72.4512 3:200 
-0 -0 1024 0 1:123.0864 2:71.4736 3:200 
-0 -0 1024 0 1:125.7552 2:73.8832 3:200 
-0 -0 1024 0 1:124.0064 2:72.304 3:200 
-1024 -0 1024 0 1:128.4672 2:75.8688 3:200 
-1024 -0 0 0 1:125.0224 2:75.0688 3:200 
-1024 -0 0 0 1:124.728 2:74.2112 3:200 
-1024 -0 0 0 1:126.4912 2:74.9536 3:200 
-0 -0 1024 0 1:125.6672 2:71.7264 3:200 
-0 -0 1024 0 1:124.8848 2:72.8832 3:200 
-0 -0 1024 0 1:124.3776 2:70.6528 3:200 
-1024 -0 0 0 1:127.6944 2:75.6496 3:200 
-0 -0 1024 0 1:125.8688 2:73.7376 3:200 
-0 -0 1024 0 1:129.992 2:76.2736 3:200 
-1024 -0 1024 0 1:124.9232 2:74.84 3:200 
-1024 -0 0 0 1:128.6416 2:75.9008 3:200 
-0 -0 1024 0 1:126.7664 2:73.784 3:200 
-0 -0 1024 0 1:125.96 2:72.9024 3:200 
-1024 -0 1024 1024 1:120.7696 2:71.9104 3:200 
-0 -0 1024 0 1:123.5344 2:72.7152 3:200 
-1024 -0 1024 0 1:122.7552 2:71.9776 3:200 
-1024 -0 0 0 1:128.4512 2:77.3488 3:200 
-1024 -0 0 0 1:127.3408 2:76.5696 3:200 
-0 -0 0 1024 1:123.8512 2:73.3824 3:200 
-1024 -0 0 0 1:125.9392 2:75.6944 3:200 
-1024 -0 0 0 1:129.9904 2:78.3744 3:200 
-1024 -0 0 0 1:125.6576 2:75.1968 3:200 
-1024 -0 1024 0 1:123.7008 2:74.1664 3:200 
-1024 -0 0 0 1:126.2176 2:76.2624 3:200 
-1024 -0 0 0 1:126.176 2:76.048 3:200 
-1024 -0 0 0 1:128.176 2:76.7264 3:200 
-1024 -0 0 0 1:128.1792 2:76.888 3:200 
-1024 -0 0 0 1:126.9328 2:76.1824 3:200 
-1024 -0 1024 0 1:124.6144 2:75.072 3:200 
-1024 -0 0 0 1:124.7632 2:75.0944 3:200 
-1024 -0 0 0 1:129.4896 2:78.2096 3:200 
-1024 -0 1024 1024 1:124.3072 2:74.408 3:200 
-1024 -0 1024 0 1:127.192 2:75.9008 3:200 
-1024 -0 1024 1024 1:124.4736 2:74.9696 3:200 
-1024 -0 1024 0 1:127.4448 2:76.6752 3:200 
-1024 -0 0 0 1:126.272 2:75.1184 3:200 
-1024 -0 0 0 1:126.2752 2:76.0832 3:200 
-0 -0 1024 0 1:123.064 2:71.6384 3:200 
-1024 -0 0 0 1:127.1872 2:76.5712 3:200 
-1024 -0 0 0 1:129.5936 2:78.2816 3:200 
-1024 -0 0 0 1:125.568 2:75.8832 3:200 
-1024 -0 0 0 1:128.16 2:77.184 3:200 
-1024 -0 1024 0 1:125.7184 2:75.1872 3:200 
-1024 -0 0 0 1:126.6208 2:75.9904 3:200 
-1024 -0 0 0 1:125.6448 2:74.5888 3:200 
-1024 -0 0 0 1:127.6848 2:76.848 3:200 
-1024 -0 0 0 1:126.4752 2:76.1232 3:200 
-1024 -0 0 0 1:124.1136 2:74.0304 3:200 
-1024 -0 0 0 1:126.2816 2:76.3072 3:200 
-1024 -0 0 0 1:124.5568 2:75.1328 3:200 
-0 -0 1024 0 1:122.344 2:71.4128 3:200 
-1024 -0 1024 0 1:123.736 2:73.8176 3:200 
-1024 -0 0 0 1:125.4144 2:75.1456 3:200 
-1024 -0 0 0 1:126.3456 2:74.7536 3:200 
-0 -0 1024 0 1:124.44 2:71.672 3:200 
-1024 -0 0 0 1:129.0144 2:77.2784 3:200 
-1024 -0 0 0 1:127.2928 2:76.392 3:200 
-1024 -0 0 0 1:127.568 2:76.112 3:200 
-1024 -0 0 0 1:126.88 2:76.288 3:200 
-1024 -0 0 1024 1:123.2272 2:74.1344 3:200 
-1024 -0 0 0 1:127.4192 2:76.144 3:200 
-0 -0 1024 0 1:127.52 2:74.8688 3:200 
-0 -0 1024 0 1:124.784 2:73.3504 3:200 
-1024 -0 0 0 1:127.2896 2:76.424 3:200 
-0 -0 1024 0 1:126.7568 2:74.0576 3:200 
-1024 -0 1024 0 1:123.5696 2:73.3984 3:200 
-1024 -0 1024 0 1:127.0944 2:75.1296 3:200 
-1024 -0 0 0 1:126.4272 2:74.808 3:200 
-1024 -0 0 0 1:126.592 2:74.984 3:200 
-1024 -0 1024 0 1:123.9584 2:72.9712 3:200 
-1024 -0 1024 1024 1:123.4816 2:73.5072 3:200 
-0 -0 1024 0 1:125.088 2:73.0688 3:200 
-1024 -0 0 0 1:126.9424 2:74.9616 3:200 
-1024 -0 1024 0 1:128.1536 2:75.896 3:200 
-0 -0 1024 0 1:126.6784 2:74.1952 3:200 
-0 -0 1024 0 1:124.8688 2:72.672 3:200 
-0 -0 1024 0 1:123.88 2:72.216 3:200 
-1024 -0 0 0 1:128.2304 2:76.0256 3:200 
-1024 -0 0 0 1:128.8928 2:76.8608 3:200 
-1024 -0 1024 0 1:126.0624 2:73.888 3:200 
-1024 -0 1024 0 1:127.544 2:75.2752 3:200 
-1024 -0 0 0 1:127.44 2:76.5232 3:200 
-0 -0 1024 0 1:125.8608 2:74.1232 3:200 
-1024 -0 0 0 1:129.7168 2:77.5232 3:200 
-1024 -0 0 0 1:127.7712 2:75.336 3:200 
-1024 -0 0 0 1:127.8464 2:75.1984 3:200 
-1024 -0 1024 0 1:124.0192 2:73.4432 3:200 
-0 -0 1024 0 1:126.1808 2:73.6672 3:200 
-0 -0 1024 0 1:126.8208 2:75.0688 3:200 
-1024 -0 0 0 1:126.4384 2:74.9168 3:200 
-1024 -0 0 0 1:127.2448 2:75.544 3:200 
-1024 -0 0 0 1:127.1392 2:75.9424 3:200 
-1024 -0 0 0 1:125.872 2:75.5568 3:200 
-1024 -0 1024 0 1:125.0416 2:73.8432 3:200 
-1024 -0 1024 0 1:128.5904 2:75.8192 3:200 
-1024 -133.3396971724868 0 562.4947709488154 1:126.4592 2:77.9008 3:200 
-0 -0 1024 0 1:124.568 2:72.512 3:200 
-0 -0 1024 0 1:126.3344 2:72.5536 3:200 
-1024 -0 0 0 1:127.6528 2:75.6752 3:200 
-1024 -0 0 0 1:125.384 2:75.1072 3:200 
-0 -0 1024 0 1:124.872 2:73.1712 3:200 
-1024 -0 0 0 1:127.1824 2:76.8784 3:200 
-0 -0 1024 0 1:125.5456 2:72.64 3:200 
-0 -0 1024 0 1:126.3168 2:72.488 3:200 
-0 -0 1024 0 1:128.0368 2:75.3952 3:200 
-1024 -0 0 1024 1:125.3792 2:76.5856 3:200 
-0 -0 1024 0 1:128.3152 2:75.3696 3:200 
-0 -0 1024 0 1:124.6608 2:71.7648 3:200 
-0 -0 1024 0 1:126.3712 2:72.5808 3:200 
-1024 -0 0 0 1:126.5536 2:73.832 3:200 
-0 -0 1024 0 1:122.7184 2:71.9312 3:200 
-1024 -0 0 0 1:127.7008 2:75.6528 3:200 
-0 -0 1024 0 1:127.1888 2:73.6528 3:200 
-0 -0 1024 0 1:127.2128 2:74.7072 3:200 
-0 -0 1024 0 1:126.1632 2:73.76 3:200 
-0 -0 1024 0 1:129.4192 2:74.5664 3:200 
-1024 -0 0 0 1:129.512 2:76.9248 3:200 
-0 -0 1024 0 1:124.1296 2:71.9648 3:200 
-0 -0 1024 0 1:126.6 2:73.7296 3:200 
-0 -0 1024 0 1:126.7904 2:71.5552 3:200 
-1024 -0 1024 0 1:127.4736 2:75.4672 3:200 
-0 -0 1024 1024 1:121.8448 2:68.8992 3:200 
-0 -0 -1024 0 1:125.4304 2:72.776 3:200 
-0 -0 -1024 0 1:122.5104 2:70.224 3:200 
-0 -0 -1024 0 1:124.4288 2:71.4272 3:200 
-0 -0 -1024 0 1:125.5248 2:72.872 3:200 
-0 -0 -1024 0 1:124.816 2:71.8656 3:200 
-0 -0 -1024 0 1:123.6416 2:73.2096 3:200 
-0 -0 -1024 0 1:124.1248 2:73.3008 3:200 
-0 -0 -1024 0 1:125.864 2:73.2704 3:200 
-0 -0 -1024 0 1:124.1488 2:73.1632 3:200 
-0 -0 -1024 0 1:124.9792 2:73.352 3:200 
-0 -0 -1024 0 1:124.7632 2:72.6592 3:200 
-0 -0 -1024 0 1:126.992 2:73.8464 3:200 
-0 -0 -1024 0 1:124.3488 2:72.888 3:200 
-0 -0 -1024 0 1:124.1456 2:72.7008 3:200 
-0 -0 -1024 0 1:125.3456 2:72.5776 3:200 
-0 -0 -1024 0 1:124.0816 2:72.7632 3:200 
-0 -3.188306154865999 -0 1024 1:122.1216 2:72.6224 3:200 
-0 -0 -1024 0 1:124.5088 2:73.5952 3:200 
-1024 -0 -1024 0 1:127.1184 2:75.1824 3:200 
-0 -0 -1024 0 1:124.1696 2:72.368 3:200 
-0 -0 -1024 0 1:124.2064 2:73.4336 3:200 
-1024 -0 -1024 1024 1:123.6048 2:73.1728 3:200 
-0 -0 -1024 0 1:126.296 2:73.3312 3:200 
-0 -0 -1024 0 1:125.7584 2:73.8976 3:200 
-0 -0 -1024 0 1:126.944 2:74.7632 3:200 
-0 -0 -1024 0 1:125.608 2:72.7968 3:200 
-0 -0 -1024 0 1:124.5552 2:72.84 3:200 
-0 -0 -1024 0 1:125.92 2:73.7376 3:200 
-1024 -0 -1024 0 1:124.408 2:73.696 3:200 
-0 -0 -1024 0 1:123.8224 2:71.7872 3:200 
-0 -0 -1024 0 1:124.544 2:72.3056 3:200 
-0 -0 -1024 0 1:124.24 2:71.5968 3:200 
-0 -0 -1024 0 1:123.7728 2:71.4544 3:200 
-0 -0 -1024 0 1:128.3456 2:73.5024 3:200 
-0 -0 -1024 0 1:125.1632 2:72.816 3:200 
-0 -0 -1024 0 1:124.1344 2:73.6928 3:200 
-0 -0 -1024 0 1:124.904 2:73.3744 3:200 
-0 -0 -1024 0 1:124.0848 2:72.888 3:200 
-1024 -0 -1024 0 1:128.9072 2:75.6912 3:200 
-0 -0 -1024 0 1:125.032 2:73.6912 3:200 
-0 -0 -1024 0 1:126.0208 2:73.616 3:200 
-0 -0 -1024 0 1:124.4832 2:73.8192 3:200 
-0 -0 -1024 0 1:125.672 2:73.632 3:200 
-0 -0 -1024 0 1:123.4528 2:72.9904 3:200 
-0 -0 -1024 0 1:124.0896 2:72.4992 3:200 
-997.8639587942743 -0 -1024 0 1:127.4976 2:74.8912 3:200 
-0 -0 -1024 0 1:127.3824 2:74.8752 3:200 
-0 -0 -1024 0 1:125.4992 2:73.744 3:200 
-0 -0 -1024 0 1:124.384 2:72.9712 3:200 
-0 -0 -1024 0 1:125.4576 2:74.0448 3:200 
-0 -0 -1024 0 1:125.632 2:73.52 3:200 
-0 -0 -1024 0 1:128.8016 2:75.6064 3:200 
-0 -0 -1024 0 1:124.6928 2:73.1984 3:200 
-0 -0 -826.1997525738037 0 1:123.568 2:73.152 3:200 
-0 -0 -1024 0 1:125.0272 2:73.016 3:200 
-1024 -0 -1024 0 1:129.408 2:76.048 3:200 
-1024 -0 -0 0 1:123.8784 2:73.3664 3:200 
-0 -0 -1024 0 1:124.864 2:73.4288 3:200 
-0 -0 -1024 0 1:124.6704 2:73.5184 3:200 
-0 -0 -1024 0 1:125.7376 2:73.76 3:200 
-1024 -0 -1024 0 1:123.7488 2:73.2816 3:200 
-0 -0 -1024 0 1:124.7888 2:73.6256 3:200 
-0 -0 -1024 0 1:125.8256 2:73.4848 3:200 
-1024 -0 -1024 0 1:128.6032 2:75.7872 3:200 
-0 -0 -1024 0 1:125.0016 2:73.168 3:200 
-0 -0 -1024 0 1:124.5056 2:73.2768 3:200 
-0 -0 -1024 0 1:124.6352 2:72.928 3:200 
-1024 -0 -1024 0 1:125.4976 2:74.3152 3:200 
-0 -0 -1024 0 1:123.8064 2:72.9504 3:200 
-0 -0 -1024 0 1:128.624 2:75.5664 3:200 
-0 -0 -1024 0 1:125.608 2:73.184 3:200 
-0 -0 -1024 0 1:125.816 2:73.4896 3:200 
-0 -0 -1024 0 1:124.5472 2:73.3568 3:200 
-0 -0 -1024 0 1:124.6416 2:73.5408 3:200 
-0 -0 -1024 0 1:124.4 2:73.4 3:200 
-1024 -0 -0 0 1:128.7136 2:76.0176 3:200 
-1024 -0 -1024 0 1:128.784 2:75.8816 3:200 
-0 -0 -1024 0 1:126.9824 2:74.0848 3:200 
-0 -0 -1024 0 1:125.256 2:73.4688 3:200 
-0 -0 -1024 0 1:123.6944 2:73.1968 3:200 
-0 -0 -1024 0 1:123.9216 2:72.9952 3:200 
-1024 -0 -1024 0 1:128.7712 2:75.8608 3:200 
-0 -0 -1024 0 1:124.8752 2:73.7296 3:200 
-0 -0 -1024 0 1:125.8832 2:73.7344 3:200 
-0 -0 -1024 0 1:124.5328 2:72.8368 3:200 
-0 -0 -1024 0 1:124.2 2:73.472 3:200 
-0 -0 -1024 0 1:124.68 2:72.7248 3:200 
-0 -0 -1024 0 1:123.8976 2:73.2752 3:200 
-0 -0 -1024 0 1:126.1184 2:73.64 3:200 
-0 -0 -1024 0 1:124.5616 2:73 3:200 
-0 -0 -1024 0 1:124.8 2:73.776 3:200 
-0 -0 -1024 0 1:126.1904 2:74.5568 3:200 
-1024 -0 -1024 0 1:125.304 2:74.1728 3:200 
-0 -0 -1024 0 1:125.3104 2:73.4784 3:200 
-0 -0 -1024 0 1:125.0224 2:73.1664 3:200 
-0 -0 -1024 0 1:125.5872 2:74.0112 3:200 
-0 -0 -1024 0 1:124.8656 2:73.7184 3:200 
-0 -0 -1024 0 1:125.6368 2:73.6528 3:200 
-0 -0 -1024 0 1:125.2496 2:73.3008 3:200 
-1024 -0 -1024 615.7925629526753 1:125.0304 2:74.088 3:200 
-0 -0 -1024 0 1:125.1808 2:73.528 3:200 
-0 -0 -1024 0 1:125.536 2:73.7712 3:200 
-0 -0 -1024 0 1:125.0544 2:73.4512 3:200 
-0 -0 -1024 0 1:125.12 2:73.6432 3:200 
-1024 -0 -1024 0 1:125.0576 2:73.9968 3:200 
-0 -0 -1024 0 1:125.1376 2:73.4672 3:200 
-0 -0 -1024 0 1:125.0912 2:73.4672 3:200 
-0 -0 -1024 0 1:125.5472 2:74.144 3:200 
-0 -0 -1024 0 1:125.2208 2:73.1856 3:200 
-0 -0 -1024 0 1:125.6528 2:73.2784 3:200 
-0 -0 -1024 0 1:124.5392 2:73.1728 3:200 
-0 -0 -1024 0 1:124.9712 2:72.6528 3:200 
-0 -0 -1024 0 1:125.128 2:73.272 3:200 
-0 -0 -1024 0 1:124.784 2:73.2016 3:200 
-0 -0 -1024 0 1:125.6736 2:73.6864 3:200 
-0 -0 -1024 0 1:124.9808 2:73.6 3:200 
-0 -0 -1024 0 1:126.0784 2:73.8288 3:200 
-0 -0 -1024 0 1:124.192 2:72.8864 3:200 
-0 -0 -1024 0 1:126.32 2:73.9408 3:200 
-0 -0 -1024 0 1:125.9008 2:73.8192 3:200 
-0 -0 -1024 0 1:124.752 2:73.6224 3:200 
-0 -0 -1024 0 1:125.5776 2:73.272 3:200 
-1024 -0 -1024 0 1:125.112 2:73.9264 3:200 
-0 -0 -1024 0 1:125.1296 2:73.0704 3:200 
-1024 -0 -1024 1024 1:123.2528 2:73.2592 3:200 
-0 -0 -1024 0 1:124.7984 2:73.136 3:200 
-0 -0 -1024 0 1:123.704 2:72.7264 3:200 
-1024 -0 -1024 0 1:125.8432 2:74.4496 3:200 
-0 -0 -1024 0 1:128.8976 2:75.8096 3:200 
-1024 -0 -1024 0 1:128.8624 2:75.8768 3:200 
-0 -0 -0 1024 1:123.432 2:73.2352 3:200 
-0 -0 -1024 0 1:124.9248 2:73.2176 3:200 
-0 -0 -1024 0 1:124.1024 2:73.1488 3:200 
-0 -0 -1024 0 1:123.216 2:72.696 3:200 
-0 -0 -1024 0 1:125.1584 2:73.8256 3:200 
-0 -0 -1024 0 1:125.2944 2:74.2128 3:200 
-1024 -0 -0 0 1:124.5136 2:73.8928 3:200 
-0 -0 -1024 0 1:129.08 2:76.1136 3:200 
-0 -0 -1024 261.4501142222807 1:123.288 2:73.2112 3:200 
-0 -0 -1024 0 1:123.9328 2:73.0592 3:200 
-0 -0 -1024 0 1:127.6416 2:74.6224 3:200 
-0 -0 -1024 0 1:124.1968 2:73.6 3:200 
-0 -0 -1024 0 1:127.6512 2:74.8448 3:200 
-1024 -0 -1024 0 1:125.904 2:74.448 3:200 
-0 -0 -1024 0 1:124.9328 2:73.6352 3:200 
-1024 -0 -1024 0 1:124.6208 2:73.8736 3:200 
-0 -0 -1024 0 1:125.7808 2:73.1552 3:200 
-1024 -0 -0 1024 1:123.4752 2:73.3168 3:200 
-0 -0 -1024 0 1:124.6928 2:73.6896 3:200 
-0 -0 -1024 0 1:123.9776 2:73.3472 3:200 
-0 -0 -1024 1024 1:123.7008 2:73.2352 3:200 
-0 -0 -1024 0 1:125.4848 2:73.1104 3:200 
-0 -0 -1024 0 1:125.0608 2:73.3552 3:200 
-0 -0 -1024 0 1:126.312 2:73.968 3:200 
-1024 -0 -1024 1024 1:124.6576 2:74.0336 3:200 
-0 -0 -1024 0 1:125.7888 2:74.0288 3:200 
-0 -0 -1024 0 1:126.4 2:73.6064 3:200 
-0 -0 -1024 0 1:124.2896 2:73.1136 3:200 
-1024 -0 -1024 0 1:125.6032 2:74.6016 3:200 
-0 -0 -1024 0 1:126.4448 2:73.5504 3:200 
-0 -0 -1024 0 1:125.2432 2:73.728 3:200 
-0 -0 -1024 0 1:126.2448 2:73.112 3:200 
-1024 -0 -1024 1024 1:123.3728 2:73.3536 3:200 
-0 -0 -1024 0 1:127.384 2:73.9904 3:200 
-0 -0 -1024 0 1:124.2512 2:72.7904 3:200 
-1024 -0.3304189196217991 -0 1024 1:122.4832 2:72.9056 3:200 
-0 -0 -1024 0 1:124.0288 2:72.4928 3:200 
-0 -0 -1024 0 1:126.128 2:73.8 3:200 
-0 -0 -1024 0 1:126.2736 2:74.0496 3:200 
-0 -0 -1024 0 1:125.464 2:73.8528 3:200 
-0 -0 -1024 0 1:125.0416 2:73.888 3:200 
-1024 -0 -1024 0 1:127.5376 2:75.5824 3:200 
-0 -0 -1024 0 1:125.2256 2:73.6912 3:200 
-0 -0 -1024 0 1:125.072 2:73.616 3:200 
-0 -0 -1024 0 1:124.4992 2:73.5088 3:200 
-0 -0 -1024 0 1:128.8832 2:73.552 3:200 
-0 -0 -1024 0 1:128.8416 2:73.5616 3:200 
-0 -0 -1024 0 1:128.408 2:73.8016 3:200 
-0 -0 -1024 0 1:128.512 2:73.7344 3:200 
-0 -0 -1024 0 1:128.928 2:73.5696 3:200 
-0 -0 -232.2244433691776 0 1:129.24 2:73.5712 3:200 
-0 -0 -1024 0 1:129.0112 2:73.6192 3:200 
-0 -0 -1024 0 1:128.36 2:73.7984 3:200 
-0 -0 -1024 0 1:128.1856 2:73.7904 3:200 
-0 -0 -1024 0 1:128.736 2:73.6528 3:200 
-0 -0 -1024 0 1:128.6464 2:73.656 3:200 
-0 -0 -1024 0 1:124.2288 2:71.76 3:200 
-0 -0 -1024 0 1:125.0272 2:72.3552 3:200 
-1024 -0 -1024 -1024 1:124.8128 2:74.0592 3:200 
-0 -0 -151.9698015565889 -335.4748732279342 1:122.5648 2:73.52 3:200 
-0 -1024 -0 -0 1:116.9424 2:71.2016 3:200 
-0 -0 -1024 -1024 1:122.6912 2:71.6912 3:200 
-0 -1024 -0 -0 1:116.3584 2:70.4064 3:200 
-1005.799244571072 -0 -1024 -1024 1:123.2352 2:72.8 3:200 
-1024 -0 -1024 -0 1:121.864 2:73.3376 3:200 
-0 -0 -1024 -0 1:121.7664 2:72.4016 3:200 
-0 -1024 -0 -0 1:119.6352 2:73.0144 3:200 
-0 -1024 -0 -0 1:119.144 2:72.8176 3:200 
-1024 -0 -0 -0 1:122.4224 2:73.2944 3:200 
-1024 -0 -0 -0 1:122.304 2:73.4832 3:200 
-1024 -0 -0 -0 1:121.264 2:72.5088 3:200 
-1024 -0 -0 -0 1:121.6528 2:73.448 3:200 
-1024 -0 -0 -0 1:122.7152 2:73.2704 3:200 
-1024 -0 -0 -0 1:122.2736 2:73.3728 3:200 
-1024 -0 -0 -0 1:122.1408 2:73.6624 3:200 
-1024 -0 -410.5249693922243 -0 1:122.6416 2:73.1488 3:200 
-1024 -0 -0 -0 1:121.5264 2:73.0352 3:200 
-1024 -0 -0 -0 1:122.7568 2:73.1616 3:200 
-1024 -0 -1024 -0 1:122.464 2:73.3808 3:200 
-0 -701.9552117283479 -0 -0 1:118.8608 2:72.1344 3:200 
-1024 -0 -0 -1024 1:122.9456 2:73.4528 3:200 
-1024 -0 -1024 -1024 1:122.8912 2:73.4352 3:200 
-1024 -0 -0 -0 1:122.272 2:73.6912 3:200 
-0 -0 -1024 -1024 1:122.1824 2:72.2304 3:200 
-0 -1024 -0 -0 1:122.6032 2:74.8816 3:200 
-0 -0 -1024 -0 1:122.944 2:73.6064 3:200 
-1024 -0 -1024 -0 1:124.4912 2:74.2768 3:200 
-1024 -0 -1024 -0 1:122.2352 2:73.3744 3:200 
-978.6116701251143 -0 -0 -0 1:121.9472 2:73.5632 3:200 
-1024 -0 -0 -0 1:122.2208 2:73.3984 3:200 
-0 -0 -1024 -0 1:122.8256 2:73.5616 3:200 
-0 -0 -1024 -0 1:121.928 2:73.04 3:200 
-1024 -0 -0 -0 1:121.8208 2:73.512 3:200 
-0 -1024 -0 -0 1:119.5312 2:72.4048 3:200 
-1024 -0 -0 -0 1:122.0368 2:73.3568 3:200 
-1024 -0 -0 -0 1:122.7168 2:73.3264 3:200 
-1024 -0 -0 -0 1:122.1776 2:73.4544 3:200 
-0 -0 -1024 -0 1:122.5312 2:73.0448 3:200 
-0 -0 -0 -541.767803947025 1:122.0512 2:72.312 3:200 
-1024 -0 -0 -0 1:122.5472 2:73.424 3:200 
-1024 -0 -0 -0 1:122.7296 2:73.3984 3:200 
-0 -1024 -0 -0 1:116.7424 2:70.8752 3:200 
-0 -1024 -0 -0 1:116.856 2:71.2944 3:200 
-0 -0 -1024 -0 1:121.896 2:71.8544 3:200 
-0 -1024 -0 -0 1:118.9776 2:72.3456 3:200 
-1024 -0 -0 -0 1:122.3872 2:73.2528 3:200 
-1024 -0 -1024 -1024 1:124.152 2:73.6784 3:200 
-0 -0 -1024 -0 1:121.9632 2:73.5024 3:200 
-0 -1024 -0 -0 1:120.616 2:73.264 3:200 
-1024 -0 -0 -0 1:122.424 2:73.6704 3:200 
-0 -1024 -0 -0 1:118.3744 2:71.9296 3:200 
-0 -1024 -0 -0 1:118.7328 2:72.3024 3:200 
-1024 -0 -0 -0 1:122.1392 2:73.904 3:200 
-0 -1024 -0 -0 1:117.9856 2:71.624 3:200 
-0 -1024 -0 -0 1:117.1264 2:71.5584 3:200 
-0 -1024 -0 -0 1:118.1104 2:71.8768 3:200 
-1024 -0 -1024 -1024 1:126.6528 2:75.7856 3:200 
-309.8452214695799 -0 -0 -0 1:121.3504 2:73.2784 3:200 
-1024 -0 -1024 -0 1:123.1376 2:74.6208 3:200 
-1024 -42.58802962941979 -0 -0 1:122.4624 2:74.2608 3:200 
-0 -0 -1024 -1024 1:122.464 2:72.9168 3:200 
-0 -1024 -0 -0 1:118.1104 2:71.8816 3:200 
-0 -0 -1024 -0 1:122.6512 2:72.5456 3:200 
-30.11148325314479 -0 -0 -0 1:121.4032 2:73.0784 3:200 
-1024 -0 -1024 -0 1:123.0288 2:73.5456 3:200 
-1024 -0 -0 -0 1:123.0816 2:74.5568 3:200 
