svm_type c_svc
kernel_type linear
nr_class 4
total_sv 186
rho 0.77488 8.85557 -31.2863 -68.565 -140.338 -40.6223
label 1 2 3 4
probA -3.76148 -1.36425 -4.57553 -4.55201 -4.84981 -4.09278
probB 0.113855 -0.0703301 0.67219 -0.368398 0.155288 0.210269
nr_sv 48 52 46 40
SV
0.006916816654341128 0.002464509595281252 0 1:3400 2:0 3:0 4:0 5:0 6:0 7:0 8:0 9:0 10:0 11:0 12:0 13:0 14:0 15:0 16:0 17:0 18:0 19:0 20:0 21:0 22:0 23:0 24:0 25:0 26:0 27:0 28:0 29:0 30:0 31:0 32:0 33:0 34:0 35:0 36:0 37:0 38:0 39:0 40:0 41:0 42:0 43:0 44:0 45:0 46:0 47:0 48:0 49:0 50:0 51:0 52:0 53:0 54:0 55:0 56:0 57:0 58:0 59:0 60:0 61:0 62:0 63:0 64:0 65:0 66:0 67:0 68:0 69:0 70:0 71:0 72:0 73:0 74:0 75:0 76:0 77:0 78:0 79:0 80:0 81:0 82:0 83:0 84:0 85:0 86:0 87:0 88:0 89:0 90:0 91:0 92:0 93:0 94:0 95:0 96:0 97:0 98:0 99:0 100:0 101:0 102:0 103:0 104:0 105:0 106:0 107:0 108:0 109:0 110:0 111:0 112:0 113:0 114:0 115:0 116:0 117:0 118:0 119:0 120:0 121:0 122:0 123:0 124:0 125:0 126:0 127:0 128:0 129:0 130:0 131:0 132:0 133:0 134:0 135:0 136:0 137:0 138:0 139:0 140:0 141:0 142:0 143:0 144:0 145:0 146:0 147:0 148:0 149:0 150:0 151:0 152:0 153:0 154:0 155:0 156:0 157:0 158:0 159:0 160:0 161:0 162:0 163:0 164:0 165:0 166:0 167:0 168:0 169:0 170:0 171:0 172:0 173:0 174:0 175:0 176:0 177:0 178:0 179:0 180:0 181:0 182:0 183:0 184:0 185:0 186:0 187:0 188:0 189:0 190:0 191:0 192:0 193:0 194:0 195:0 196:0 197:0 198:0 199:0 200:0 201:0 202:0 203:0 204:0 205:0 206:0 207:0 208:0 209:0 210:0 211:0 212:0 213:0 214:0 215:0 216:0 217:0 218:0 219:0 220:0 221:0 222:0 223:0 224:0 225:0 226:0 227:0 228:0 229:0 230:0 231:0 232:0 233:0 234:0 235:0 236:0 237:0 238:0 239:0 240:0 241:0 242:0 243:0 244:0 245:0 246:0 247:0 248:0 249:0 250:0 251:0 252:0 253:0 254:0 255:0 256:0 257:126.11347 258:74.146939 259:200 260:255 261:3 262:0 263:0 264:0 265:0 266:0 267:0 268:0 269:0 270:0 271:0 272:0 273:0 274:0 275:0 276:0 277:0 278:4 279:3 280:1 281:0 282:0 283:1 284:0 285:1 286:0 287:0 288:0 289:0 290:0 291:0 292:0 293:1 294:0 295:0 296:0 297:0 298:0 299:1 300:0 301:1 302:1 303:0 304:0 305:0 306:0 307:0 308:0 309:0 310:0 311:0 312:0 313:0 314:0 315:0 316:1 317:2 318:2 319:1 320:0 321:0 322:0 323:0 324:1 325:0 326:0 327:0 328:1 329:2 330:2 331:1 332:0 333:0 334:2 335:2 336:0 337:0 338:0 339:0 340:0 341:0 342:0 343:0 344:0 345:0 346:0 347:0 348:0 349:0 350:0 351:0 352:1 353:1 354:0 355:0 356:0 357:0 358:0 359:0 360:0 361:0 362:2 363:1 364:0 365:0 366:0 367:0 368:0 369:0 370:0 371:0 372:1 373:0 374:0 375:0 376:0 377:1 378:0 379:1 380:1 381:0 382:2 383:0 384:0 385:0 386:0 387:0 388:1 389:1 390:0 391:0 392:0 393:0 394:1 395:1 396:2 397:0 398:0 399:1 400:0 401:0 402:1 403:1 404:0 405:0 406:1 407:0 408:0 409:0 410:0 411:0 412:0 413:0 414:1 415:1 416:0 417:1 418:1 419:1 420:1 421:1 422:0 423:0 424:0 425:0 426:1 427:0 428:0 429:0 430:2 431:2 432:1 433:0 434:0 435:2 436:0 437:0 438:1 439:0 440:0 441:0 442:1 443:0 444:0 445:0 446:0 447:0 448:0 449:0 450:0 451:1 452:1 453:0 454:0 455:0 456:0 457:0 458:0 459:0 460:0 461:0 462:0 463:1 464:0 465:0 466:2 467:3 468:1 469:0 470:2 471:0 472:0 473:1 474:0 475:0 476:0 477:0 478:0 479:0 480:0 481:0 482:0 483:0 484:0 485:1 486:0 487:1 488:1 489:0 490:0 491:1 492:0 493:0 494:0 495:0 496:0 497:0 498:0 499:0 500:1 501:0 502:0 503:1 504:0 505:0 506:0 507:0 508:0 509:0 510:0 511:0 512:0 513:0 514:0 515:0 516:0 517:0 518:0 519:0 520:1 521:0 522:0 523:0 524:0 525:0 526:0 527:0 528:0 529:1 530:0 531:0 532:1 533:0 534:0 535:0 536:0 537:0 538:0 539:0 540:0 541:1 542:0 543:0 544:0 545:0 546:0 547:0 548:0 
0.008386088091683635 0.005971119751016819 0.001841248195365547 1:3400 2:0 3:0 4:0 5:0 6:0 7:0 8:0 9:0 10:0 11:0 12:0 13:0 14:0 15:0 16:0 17:0 18:0 19:0 20:0 21:0 22:0 23:0 24:0 25:0 26:0 27:0 28:0 29:0 30:0 31:0 32:0 33:0 34:0 35:0 36:0 37:0 38:0 39:0 40:0 41:0 42:0 43:0 44:0 45:0 46:0 47:0 48:0 49:0 50:0 51:0 52:0 53:0 54:0 55:0 56:0 57:0 58:0 59:0 60:0 61:0 62:0 63:0 64:0 65:0 66:0 67:0 68:0 69:0 70:0 71:0 72:0 73:0 74:0 75:0 76:0 77:0 78:0 79:0 80:0 81:0 82:0 83:0 84:0 85:0 86:0 87:0 88:0 89:0 90:0 91:0 92:0 93:0 94:0 95:0 96:0 97:0 98:0 99:0 100:0 101:0 102:0 103:0 104:0 105:0 106:0 107:0 108:0 109:0 110:0 111:0 112:0 113:0 114:0 115:0 116:0 117:0 118:0 119:0 120:0 121:0 122:0 123:0 124:0 125:0 126:0 127:0 128:0 129:0 130:0 131:0 132:0 133:0 134:0 135:0 136:0 137:0 138:0 139:0 140:0 141:0 142:0 143:0 144:0 145:0 146:0 147:0 148:0 149:0 150:0 151:0 152:0 153:0 154:0 155:0 156:0 157:0 158:0 159:0 160:0 161:0 162:0 163:0 164:0 165:0 166:0 167:0 168:0 169:0 170:0 171:0 172:0 173:0 174:0 175:0 176:0 177:0 178:0 179:0 180:0 181:0 182:0 183:0 184:0 185:0 186:0 187:0 188:0 189:0 190:0 191:0 192:0 193:0 194:0 195:0 196:0 197:0 198:0 199:0 200:0 201:0 202:0 203:0 204:0 205:0 206:0 207:0 208:0 209:0 210:0 211:0 212:0 213:0 214:0 215:0 216:0 217:0 218:0 219:0 220:0 221:0 222:0 223:0 224:0 225:0 226:0 227:0 228:0 229:0 230:0 231:0 232:0 233:0 234:0 235:0 236:0 237:0 238:0 239:0 240:0 241:0 242:0 243:0 244:0 245:0 246:0 247:0 248:0 249:0 250:0 251:0 252:0 253:0 254:0 255:0 256:0 257:126.46204 258:74.65551 259:200 260:255 261:5 262:4 263:0 264:0 265:0 266:1 267:1 268:0 269:0 270:0 271:0 272:0 273:0 274:0 275:0 276:0 277:1 278:0 279:0 280:0 281:4 282:0 283:0 284:1 285:2 286:0 287:0 288:0 289:1 290:1 291:0 292:0 293:0 294:0 295:0 296:3 297:2 298:0 299:0 300:2 301:1 302:0 303:0 304:1 305:0 306:0 307:0 308:0 309:0 310:0 311:2 312:0 313:0 314:0 315:3 316:0 317:1 318:2 319:0 320:1 321:0 322:0 323:1 324:0 325:0 326:0 327:0 328:0 329:1 330:2 331:0 332:0 333:2 334:0 335:0 336:0 337:0 338:0 339:0 340:0 341:0 342:0 343:0 344:0 345:1 346:0 347:1 348:1 349:0 350:0 351:0 352:0 353:0 354:1 355:0 356:0 357:1 358:0 359:0 360:0 361:0 362:2 363:0 364:0 365:0 366:0 367:0 368:0 369:0 370:0 371:1 372:1 373:0 374:0 375:0 376:0 377:0 378:0 379:0 380:0 381:2 382:1 383:0 384:0 385:0 386:0 387:0 388:0 389:0 390:0 391:0 392:0 393:0 394:0 395:0 396:0 397:0 398:0 399:0 400:0 401:0 402:0 403:0 404:0 405:1 406:0 407:0 408:1 409:0 410:0 411:0 412:0 413:0 414:1 415:3 416:0 417:0 418:1 419:1 420:1 421:0 422:0 423:0 424:0 425:0 426:0 427:0 428:0 429:0 430:0 431:0 432:0 433:0 434:1 435:2 436:0 437:2 438:0 439:0 440:0 441:0 442:0 443:0 444:0 445:0 446:0 447:0 448:0 449:1 450:0 451:0 452:0 453:0 454:0 455:0 456:1 457:0 458:0 459:0 460:0 461:0 462:0 463:0 464:0 465:2 466:0 467:0 468:0 469:0 470:0 471:0 472:0 473:0 474:0 475:0 476:0 477:0 478:0 479:0 480:0 481:0 482:2 483:1 484:1 485:0 486:0 487:0 488:0 489:0 490:0 491:0 492:0 493:0 494:0 495:0 496:0 497:1 498:0 499:0 500:1 501:0 502:0 503:0 504:0 505:0 506:0 507:0 508:0 509:1 510:0 511:0 512:0 513:0 514:0 515:1 516:0 517:2 518:0 519:0 520:0 521:0 522:0 523:0 524:0 525:0 526:0 527:1 528:0 529:0 530:0 531:0 532:2 533:0 534:2 535:0 536:0 537:0 538:0 539:1 540:0 541:1 542:0 543:0 544:0 545:0 546:0 547:0 548:0 
0.00979361141247698 0.02480620162968842 0 1:3400 2:0 3:0 4:0 5:0 6:0 7:0 8:0 9:0 10:0 11:0 12:0 13:0 14:0 15:0 16:0 17:0 18:0 19:0 20:0 21:0 22:0 23:0 24:0 25:0 26:0 27:0 28:0 29:0 30:0 31:0 32:0 33:0 34:0 35:0 36:0 37:0 38:0 39:0 40:0 41:0 42:0 43:0 44:0 45:0 46:0 47:0 48:0 49:0 50:0 51:0 52:0 53:0 54:0 55:0 56:0 57:0 58:0 59:0 60:0 61:0 62:0 63:0 64:0 65:0 66:0 67:0 68:0 69:0 70:0 71:0 72:0 73:0 74:0 75:0 76:0 77:0 78:0 79:0 80:0 81:0 82:0 83:0 84:0 85:0 86:0 87:0 88:0 89:0 90:0 91:0 92:0 93:0 94:0 95:0 96:0 97:0 98:0 99:0 100:0 101:0 102:0 103:0 104:0 105:0 106:0 107:0 108:0 109:0 110:0 111:0 112:0 113:0 114:0 115:0 116:0 117:0 118:0 119:0 120:0 121:0 122:0 123:0 124:0 125:0 126:0 127:0 128:0 129:0 130:0 131:0 132:0 133:0 134:0 135:0 136:0 137:0 138:0 139:0 140:0 141:0 142:0 143:0 144:0 145:0 146:0 147:0 148:0 149:0 150:0 151:0 152:0 153:0 154:0 155:0 156:0 157:0 158:0 159:0 160:0 161:0 162:0 163:0 164:0 165:0 166:0 167:0 168:0 169:0 170:0 171:0 172:0 173:0 174:0 175:0 176:0 177:0 178:0 179:0 180:0 181:0 182:0 183:0 184:0 185:0 186:0 187:0 188:0 189:0 190:0 191:0 192:0 193:0 194:0 195:0 196:0 197:0 198:0 199:0 200:0 201:0 202:0 203:0 204:0 205:0 206:0 207:0 208:0 209:0 210:0 211:0 212:0 213:0 214:0 215:0 216:0 217:0 218:0 219:0 220:0 221:0 222:0 223:0 224:0 225:0 226:0 227:0 228:0 229:0 230:0 231:0 232:0 233:0 234:0 235:0 236:0 237:0 238:0 239:0 240:0 241:0 242:0 243:0 244:0 245:0 246:0 247:0 248:0 249:0 250:0 251:0 252:0 253:0 254:0 255:0 256:0 257:126.2849 258:74.329796 259:200 260:255 261:0 262:0 263:0 264:0 265:2 266:0 267:0 268:3 269:0 270:1 271:1 272:0 273:0 274:0 275:0 276:0 277:3 278:5 279:3 280:4 281:2 282:0 283:2 284:1 285:0 286:0 287:0 288:0 289:0 290:0 291:0 292:0 293:0 294:2 295:0 296:1 297:0 298:0 299:0 300:0 301:0 302:0 303:2 304:1 305:2 306:1 307:1 308:0 309:0 310:0 311:0 312:1 313:1 314:0 315:3 316:1 317:0 318:0 319:0 320:0 321:1 322:0 323:0 324:0 325:0 326:0 327:0 328:0 329:0 330:0 331:0 332:3 333:1 334:2 335:0 336:0 337:0 338:0 339:0 340:0 341:0 342:1 343:0 344:0 345:1 346:0 347:1 348:0 349:0 350:0 351:0 352:0 353:0 354:0 355:1 356:1 357:1 358:0 359:0 360:0 361:0 362:3 363:2 364:2 365:1 366:0 367:0 368:0 369:0 370:0 371:0 372:0 373:0 374:0 375:0 376:0 377:0 378:0 379:0 380:0 381:0 382:0 383:0 384:0 385:0 386:1 387:1 388:0 389:1 390:0 391:0 392:0 393:0 394:0 395:0 396:1 397:0 398:0 399:1 400:3 401:2 402:2 403:0 404:0 405:0 406:0 407:0 408:0 409:0 410:0 411:0 412:0 413:0 414:0 415:1 416:0 417:0 418:0 419:0 420:0 421:1 422:1 423:1 424:1 425:0 426:0 427:0 428:0 429:0 430:2 431:1 432:0 433:0 434:0 435:0 436:0 437:0 438:0 439:0 440:1 441:0 442:0 443:0 444:0 445:1 446:1 447:0 448:0 449:0 450:0 451:2 452:1 453:0 454:2 455:0 456:0 457:0 458:0 459:0 460:0 461:0 462:1 463:0 464:1 465:0 466:0 467:0 468:2 469:0 470:0 471:1 472:0 473:0 474:0 475:0 476:0 477:0 478:0 479:0 480:0 481:0 482:1 483:1 484:0 485:0 486:1 487:1 488:0 489:0 490:0 491:1 492:0 493:0 494:0 495:0 496:0 497:1 498:0 499:0 500:0 501:1 502:0 503:1 504:0 505:0 506:1 507:0 508:0 509:0 510:0 511:0 512:0 513:0 514:0 515:1 516:1 517:0 518:0 519:0 520:0 521:0 522:0 523:0 524:0 525:0 526:0 527:0 528:0 529:0 530:0 531:0 532:0 533:0 534:0 535:0 536:0 537:0 538:0 539:1 540:0 541:0 542:0 543:0 544:0 545:0 546:0 547:0 548:0 
0.01562130051885934 0 0 1:3400 2:0 3:0 4:0 5:0 6:0 7:0 8:0 9:0 10:0 11:0 12:0 13:0 14:0 15:0 16:0 17:0 18:0 19:0 20:0 21:0 22:0 23:0 24:0 25:0 26:0 27:0 28:0 29:0 30:0 31:0 32:0 33:0 34:0 35:0 36:0 37:0 38:0 39:0 40:0 41:0 42:0 43:0 44:0 45:0 46:0 47:0 48:0 49:0 50:0 51:0 52:0 53:0 54:0 55:0 56:0 57:0 58:0 59:0 60:0 61:0 62:0 63:0 64:0 65:0 66:0 67:0 68:0 69:0 70:0 71:0 72:0 73:0 74:0 75:0 76:0 77:0 78:0 79:0 80:0 81:0 82:0 83:0 84:0 85:0 86:0 87:0 88:0 89:0 90:0 91:0 92:0 93:0 94:0 95:0 96:0 97:0 98:0 99:0 100:0 101:0 102:0 103:0 104:0 105:0 106:0 107:0 108:0 109:0 110:0 111:0 112:0 113:0 114:0 115:0 116:0 117:0 118:0 119:0 120:0 121:0 122:0 123:0 124:0 125:0 126:0 127:0 128:0 129:0 130:0 131:0 132:0 133:0 134:0 135:0 136:0 137:0 138:0 139:0 140:0 141:0 142:0 143:0 144:0 145:0 146:0 147:0 148:0 149:0 150:0 151:0 152:0 153:0 154:0 155:0 156:0 157:0 158:0 159:0 160:0 161:0 162:0 163:0 164:0 165:0 166:0 167:0 168:0 169:0 170:0 171:0 172:0 173:0 174:0 175:0 176:0 177:0 178:0 179:0 180:0 181:0 182:0 183:0 184:0 185:0 186:0 187:0 188:0 189:0 190:0 191:0 192:0 193:0 194:0 195:0 196:0 197:0 198:0 199:0 200:0 201:0 202:0 203:0 204:0 205:0 206:0 207:0 208:0 209:0 210:0 211:0 212:0 213:0 214:0 215:0 216:0 217:0 218:0 219:0 220:0 221:0 222:0 223:0 224:0 225:0 226:0 227:0 228:0 229:0 230:0 231:0 232:0 233:0 234:0 235:0 236:0 237:0 238:0 239:0 240:0 241:0 242:0 243:0 244:0 245:0 246:0 247:0 248:0 249:0 250:0 251:0 252:0 253:0 254:0 255:0 256:0 257:126.2898 258:74.640816 259:200 260:255 261:0 262:0 263:0 264:0 265:0 266:0 267:2 268:0 269:0 270:0 271:0 272:0 273:0 274:0 275:0 276:1 277:0 278:0 279:1 280:0 281:1 282:1 283:0 284:1 285:0 286:0 287:0 288:0 289:0 290:0 291:0 292:0 293:0 294:0 295:0 296:1 297:0 298:1 299:0 300:0 301:0 302:1 303:1 304:1 305:0 306:0 307:0 308:0 309:0 310:0 311:1 312:0 313:0 314:1 315:0 316:0 317:2 318:1 319:0 320:0 321:0 322:1 323:0 324:0 325:0 326:0 327:0 328:2 329:0 330:0 331:0 332:3 333:0 334:0 335:0 336:2 337:0 338:1 339:0 340:0 341:0 342:0 343:0 344:0 345:2 346:0 347:0 348:0 349:2 350:1 351:0 352:1 353:0 354:0 355:0 356:0 357:0 358:0 359:0 360:0 361:0 362:1 363:0 364:0 365:0 366:0 367:0 368:0 369:0 370:0 371:0 372:1 373:1 374:0 375:0 376:0 377:0 378:0 379:0 380:0 381:0 382:0 383:1 384:0 385:0 386:0 387:0 388:0 389:0 390:0 391:0 392:0 393:0 394:0 395:0 396:0 397:0 398:0 399:1 400:0 401:0 402:1 403:0 404:0 405:0 406:0 407:1 408:0 409:0 410:0 411:0 412:0 413:0 414:0 415:0 416:1 417:0 418:0 419:0 420:0 421:0 422:1 423:0 424:0 425:0 426:0 427:1 428:0 429:0 430:0 431:0 432:0 433:1 434:0 435:1 436:1 437:0 438:0 439:0 440:0 441:0 442:0 443:0 444:0 445:0 446:0 447:0 448:0 449:0 450:1 451:0 452:0 453:0 454:0 455:0 456:0 457:0 458:0 459:1 460:0 461:0 462:0 463:1 464:1 465:0 466:0 467:0 468:0 469:0 470:0 471:2 472:0 473:0 474:0 475:0 476:0 477:0 478:0 479:0 480:0 481:2 482:0 483:0 484:0 485:0 486:0 487:0 488:0 489:0 490:0 491:0 492:0 493:0 494:0 495:0 496:1 497:0 498:1 499:1 500:0 501:0 502:0 503:0 504:1 505:0 506:1 507:0 508:0 509:0 510:0 511:0 512:0 513:0 514:0 515:0 516:0 517:0 518:0 519:0 520:1 521:1 522:0 523:0 524:0 525:0 526:0 527:0 528:0 529:0 530:0 531:0 532:0 533:0 534:0 535:0 536:1 537:0 538:0 539:0 540:0 541:1 542:1 543:0 544:0 545:0 546:0 547:0 548:0 
0.01355046861826313 0 0 1:3400 2:0 3:0 4:0 5:0 6:0 7:0 8:0 9:0 10:0 11:0 12:0 13:0 14:0 15:0 16:0 17:0 18:0 19:0 20:0 21:0 22:0 23:0 24:0 25:0 26:0 27:0 28:0 29:0 30:0 31:0 32:0 33:0 34:0 35:0 36:0 37:0 38:0 39:0 40:0 41:0 42:0 43:0 44:0 45:0 46:0 47:0 48:0 49:0 50:0 51:0 52:0 53:0 54:0 55:0 56:0 57:0 58:0 59:0 60:0 61:0 62:0 63:0 64:0 65:0 66:0 67:0 68:0 69:0 70:0 71:0 72:0 73:0 74:0 75:0 76:0 77:0 78:0 79:0 80:0 81:0 82:0 83:0 84:0 85:0 86:0 87:0 88:0 89:0 90:0 91:0 92:0 93:0 94:0 95:0 96:0 97:0 98:0 99:0 100:0 101:0 102:0 103:0 104:0 105:0 106:0 107:0 108:0 109:0 110:0 111:0 112:0 113:0 114:0 115:0 116:0 117:0 118:0 119:0 120:0 121:0 122:0 123:0 124:0 125:0 126:0 127:0 128:0 129:0 130:0 131:0 132:0 133:0 134:0 135:0 136:0 137:0 138:0 139:0 140:0 141:0 142:0 143:0 144:0 145:0 146:0 147:0 148:0 149:0 150:0 151:0 152:0 153:0 154:0 155:0 156:0 157:0 158:0 159:0 160:0 161:0 162:0 163:0 164:0 165:0 166:0 167:0 168:0 169:0 170:0 171:0 172:0 173:0 174:0 175:0 176:0 177:0 178:0 179:0 180:0 181:0 182:0 183:0 184:0 185:0 186:0 187:0 188:0 189:0 190:0 191:0 192:0 193:0 194:0 195:0 196:0 197:0 198:0 199:0 200:0 201:0 202:0 203:0 204:0 205:0 206:0 207:0 208:0 209:0 210:0 211:0 212:0 213:0 214:0 215:0 216:0 217:0 218:0 219:0 220:0 221:0 222:0 223:0 224:0 225:0 226:0 227:0 228:0 229:0 230:0 231:0 232:0 233:0 234:0 235:0 236:0 237:0 238:0 239:0 240:0 241:0 242:0 243:0 244:0 245:0 246:0 247:0 248:0 249:0 250:0 251:0 252:0 253:0 254:0 255:0 256:0 257:126.84082 258:74.118367 259:200 260:255 261:0 262:2 263:0 264:1 265:0 266:1 267:0 268:0 269:0 270:0 271:0 272:0 273:0 274:0 275:0 276:0 277:12 278:0 279:0 280:1 281:0 282:0 283:0 284:0 285:0 286:0 287:0 288:0 289:0 290:0 291:1 292:0 293:0 294:2 295:2 296:0 297:0 298:1 299:0 300:0 301:0 302:0 303:0 304:0 305:0 306:0 307:0 308:0 309:0 310:0 311:6 312:0 313:0 314:0 315:0 316:0 317:0 318:0 319:0 320:0 321:0 322:0 323:0 324:0 325:0 326:0 327:0 328:0 329:3 330:2 331:2 332:0 333:0 334:0 335:1 336:0 337:0 338:0 339:0 340:0 341:0 342:0 343:0 344:0 345:0 346:2 347:0 348:0 349:1 350:0 351:1 352:0 353:0 354:0 355:0 356:0 357:0 358:1 359:0 360:0 361:0 362:0 363:0 364:0 365:0 366:0 367:0 368:0 369:0 370:0 371:0 372:0 373:0 374:0 375:0 376:0 377:0 378:0 379:2 380:0 381:0 382:0 383:0 384:2 385:0 386:0 387:1 388:1 389:1 390:0 391:0 392:0 393:0 394:0 395:0 396:0 397:0 398:1 399:1 400:1 401:0 402:1 403:0 404:0 405:0 406:0 407:0 408:0 409:0 410:0 411:0 412:0 413:0 414:0 415:0 416:2 417:1 418:0 419:0 420:1 421:1 422:0 423:0 424:0 425:0 426:0 427:0 428:0 429:0 430:0 431:1 432:0 433:0 434:0 435:1 436:0 437:1 438:0 439:0 440:0 441:0 442:0 443:0 444:0 445:0 446:0 447:0 448:0 449:1 450:0 451:0 452:0 453:0 454:0 455:1 456:0 457:0 458:0 459:0 460:0 461:0 462:1 463:0 464:1 465:1 466:1 467:0 468:0 469:0 470:1 471:0 472:0 473:0 474:0 475:0 476:0 477:0 478:0 479:0 480:0 481:0 482:1 483:0 484:0 485:0 486:1 487:0 488:0 489:0 490:0 491:0 492:0 493:0 494:0 495:0 496:0 497:0 498:0 499:1 500:1 501:0 502:0 503:0 504:0 505:0 506:0 507:0 508:0 509:0 510:0 511:0 512:0 513:0 514:0 515:0 516:0 517:1 518:0 519:0 520:0 521:0 522:0 523:0 524:0 525:0 526:0 527:0 528:0 529:0 530:0 531:0 532:0 533:2 534:0 535:2 536:1 537:0 538:0 539:1 540:1 541:0 542:1 543:0 544:1 545:0 546:0 547:0 548:1 
0 0.02330335048401975 0.0008481946984064047 1:3400 2:0 3:0 4:0 5:0 6:0 7:0 8:0 9:0 10:0 11:0 12:0 13:0 14:0 15:0 16:0 17:0 18:0 19:0 20:0 21:0 22:0 23:0 24:0 25:0 26:0 27:0 28:0 29:0 30:0 31:0 32:0 33:0 34:0 35:0 36:0 37:0 38:0 39:0 40:0 41:0 42:0 43:0 44:0 45:0 46:0 47:0 48:0 49:0 50:0 51:0 52:0 53:0 54:0 55:0 56:0 57:0 58:0 59:0 60:0 61:0 62:0 63:0 64:0 65:0 66:0 67:0 68:0 69:0 70:0 71:0 72:0 73:0 74:0 75:0 76:0 77:0 78:0 79:0 80:0 81:0 82:0 83:0 84:0 85:0 86:0 87:0 88:0 89:0 90:0 91:0 92:0 93:0 94:0 95:0 96:0 97:0 98:0 99:0 100:0 101:0 102:0 103:0 104:0 105:0 106:0 107:0 108:0 109:0 110:0 111:0 112:0 113:0 114:0 115:0 116:0 117:0 118:0 119:0 120:0 121:0 122:0 123:0 124:0 125:0 126:0 127:0 128:0 129:0 130:0 131:0 132:0 133:0 134:0 135:0 136:0 137:0 138:0 139:0 140:0 141:0 142:0 143:0 144:0 145:0 146:0 147:0 148:0 149:0 150:0 151:0 152:0 153:0 154:0 155:0 156:0 157:0 158:0 159:0 160:0 161:0 162:0 163:0 164:0 165:0 166:0 167:0 168:0 169:0 170:0 171:0 172:0 173:0 174:0 175:0 176:0 177:0 178:0 179:0 180:0 181:0 182:0 183:0 184:0 185:0 186:0 187:0 188:0 189:0 190:0 191:0 192:0 193:0 194:0 195:0 196:0 197:0 198:0 199:0 200:0 201:0 202:0 203:0 204:0 205:0 206:0 207:0 208:0 209:0 210:0 211:0 212:0 213:0 214:0 215:0 216:0 217:0 218:0 219:0 220:0 221:0 222:0 223:0 224:0 225:0 226:0 227:0 228:0 229:0 230:0 231:0 232:0 233:0 234:0 235:0 236:0 237:0 238:0 239:0 240:0 241:0 242:0 243:0 244:0 245:0 246:0 247:0 248:0 249:0 250:0 251:0 252:0 253:0 254:0 255:0 256:0 257:127.07184 258:75.703673 259:200 260:255 261:0 262:0 263:3 264:0 265:1 266:0 267:1 268:0 269:1 270:0 271:1 272:0 273:0 274:0 275:0 276:0 277:0 278:0 279:11 280:0 281:0 282:3 283:0 284:1 285:0 286:1 287:0 288:0 289:0 290:0 291:1 292:0 293:0 294:0 295:1 296:0 297:0 298:4 299:0 300:0 301:2 302:1 303:0 304:1 305:0 306:0 307:1 308:0 309:0 310:0 311:0 312:0 313:0 314:4 315:0 316:0 317:3 318:0 319:0 320:0 321:0 322:0 323:0 324:0 325:0 326:0 327:1 328:0 329:1 330:1 331:0 332:0 333:2 334:0 335:0 336:0 337:0 338:0 339:0 340:0 341:1 342:0 343:1 344:0 345:0 346:0 347:0 348:0 349:0 350:0 351:0 352:2 353:1 354:0 355:1 356:0 357:0 358:0 359:0 360:0 361:0 362:0 363:2 364:1 365:1 366:1 367:0 368:0 369:0 370:0 371:0 372:1 373:0 374:0 375:0 376:0 377:0 378:0 379:1 380:0 381:0 382:1 383:0 384:0 385:0 386:0 387:1 388:0 389:1 390:1 391:0 392:0 393:0 394:0 395:0 396:2 397:0 398:1 399:0 400:0 401:1 402:0 403:1 404:0 405:0 406:1 407:0 408:0 409:0 410:0 411:0 412:0 413:2 414:0 415:0 416:0 417:0 418:0 419:0 420:0 421:1 422:1 423:0 424:0 425:0 426:0 427:0 428:0 429:1 430:0 431:0 432:0 433:0 434:0 435:1 436:0 437:0 438:1 439:0 440:1 441:0 442:0 443:0 444:0 445:0 446:0 447:0 448:0 449:0 450:0 451:0 452:0 453:0 454:0 455:0 456:0 457:0 458:0 459:0 460:0 461:0 462:0 463:0 464:1 465:0 466:0 467:0 468:0 469:0 470:1 471:1 472:0 473:0 474:0 475:0 476:0 477:0 478:0 479:0 480:0 481:0 482:0 483:0 484:0 485:0 486:1 487:1 488:0 489:0 490:0 491:0 492:0 493:0 494:0 495:0 496:0 497:0 498:0 499:0 500:0 501:0 502:1 503:1 504:0 505:0 506:1 507:0 508:0 509:0 510:0 511:0 512:1 513:0 514:0 515:0 516:0 517:0 518:0 519:1 520:0 521:0 522:0 523:0 524:0 525:0 526:0 527:0 528:0 529:0 530:0 531:0 532:0 533:0 534:2 535:0 536:0 537:0 538:1 539:0 540:1 541:0 542:0 543:0 544:0 545:1 546:0 547:0 548:0 
0 0.0006352777208013089 0.003080275960847986 1:3400 2:0 3:0 4:0 5:0 6:0 7:0 8:0 9:0 10:0 11:0 12:0 13:0 14:0 15:0 16:0 17:0 18:0 19:0 20:0 21:0 22:0 23:0 24:0 25:0 26:0 27:0 28:0 29:0 30:0 31:0 32:0 33:0 34:0 35:0 36:0 37:0 38:0 39:0 40:0 41:0 42:0 43:0 44:0 45:0 46:0 47:0 48:0 49:0 50:0 51:0 52:0 53:0 54:0 55:0 56:0 57:0 58:0 59:0 60:0 61:0 62:0 63:0 64:0 65:0 66:0 67:0 68:0 69:0 70:0 71:0 72:0 73:0 74:0 75:0 76:0 77:0 78:0 79:0 80:0 81:0 82:0 83:0 84:0 85:0 86:0 87:0 88:0 89:0 90:0 91:0 92:0 93:0 94:0 95:0 96:0 97:0 98:0 99:0 100:0 101:0 102:0 103:0 104:0 105:0 106:0 107:0 108:0 109:0 110:0 111:0 112:0 113:0 114:0 115:0 116:0 117:0 118:0 119:0 120:0 121:0 122:0 123:0 124:0 125:0 126:0 127:0 128:0 129:0 130:0 131:0 132:0 133:0 134:0 135:0 136:0 137:0 138:0 139:0 140:0 141:0 142:0 143:0 144:0 145:0 146:0 147:0 148:0 149:0 150:0 151:0 152:0 153:0 154:0 155:0 156:0 157:0 158:0 159:0 160:0 161:0 162:0 163:0 164:0 165:0 166:0 167:0 168:0 169:0 170:0 171:0 172:0 173:0 174:0 175:0 176:0 177:0 178:0 179:0 180:0 181:0 182:0 183:0 184:0 185:0 186:0 187:0 188:0 189:0 190:0 191:0 192:0 193:0 194:0 195:0 196:0 197:0 198:0 199:0 200:0 201:0 202:0 203:0 204:0 205:0 206:0 207:0 208:0 209:0 210:0 211:0 212:0 213:0 214:0 215:0 216:0 217:0 218:0 219:0 220:0 221:0 222:0 223:0 224:0 225:0 226:0 227:0 228:0 229:0 230:0 231:0 232:0 233:0 234:0 235:0 236:0 237:0 238:0 239:0 240:0 241:0 242:0 243:0 244:0 245:0 246:0 247:0 248:0 249:0 250:0 251:0 252:0 253:0 254:0 255:0 256:0 257:129.26531 258:75.802449 259:200 260:255 261:3 262:0 263:0 264:0 265:0 266:0 267:0 268:1 269:0 270:0 271:0 272:0 273:0 274:0 275:0 276:0 277:0 278:4 279:0 280:2 281:0 282:0 283:1 284:0 285:1 286:1 287:1 288:0 289:0 290:1 291:0 292:0 293:0 294:0 295:3 296:0 297:0 298:0 299:1 300:1 301:0 302:1 303:0 304:0 305:0 306:0 307:0 308:0 309:0 310:0 311:0 312:0 313:2 314:0 315:0 316:1 317:0 318:0 319:0 320:1 321:0 322:0 323:0 324:1 325:0 326:0 327:0 328:1 329:0 330:0 331:0 332:0 333:0 334:0 335:1 336:0 337:0 338:0 339:1 340:0 341:0 342:0 343:0 344:0 345:0 346:0 347:0 348:2 349:0 350:0 351:0 352:1 353:0 354:1 355:0 356:0 357:0 358:0 359:0 360:0 361:0 362:5 363:1 364:0 365:0 366:0 367:0 368:0 369:0 370:0 371:1 372:0 373:0 374:0 375:0 376:0 377:0 378:0 379:0 380:1 381:1 382:0 383:0 384:0 385:0 386:1 387:1 388:1 389:0 390:0 391:1 392:0 393:0 394:0 395:0 396:0 397:2 398:0 399:0 400:2 401:1 402:0 403:0 404:0 405:0 406:0 407:0 408:0 409:0 410:1 411:0 412:0 413:3 414:1 415:1 416:0 417:0 418:0 419:0 420:1 421:0 422:0 423:0 424:0 425:0 426:0 427:0 428:0 429:0 430:1 431:0 432:0 433:0 434:0 435:1 436:0 437:0 438:0 439:0 440:0 441:0 442:0 443:0 444:0 445:0 446:0 447:0 448:0 449:1 450:0 451:0 452:0 453:0 454:0 455:1 456:0 457:1 458:0 459:0 460:0 461:0 462:0 463:0 464:0 465:1 466:0 467:0 468:0 469:1 470:0 471:1 472:0 473:0 474:0 475:0 476:0 477:0 478:1 479:0 480:0 481:2 482:0 483:0 484:0 485:0 486:2 487:0 488:0 489:0 490:0 491:0 492:0 493:0 494:0 495:1 496:0 497:0 498:0 499:0 500:1 501:0 502:0 503:0 504:0 505:0 506:0 507:0 508:0 509:0 510:0 511:0 512:1 513:1 514:1 515:1 516:0 517:0 518:0 519:0 520:0 521:0 522:0 523:0 524:1 525:0 526:0 527:0 528:0 529:0 530:0 531:0 532:0 533:0 534:0 535:0 536:0 537:1 538:0 539:0 540:0 541:0 542:0 543:0 544:0 545:0 546:0 547:0 548:0 
0 0.007560858972935353 0 1:3400 2:0 3:0 4:0 5:0 6:0 7:0 8:0 9:0 10:0 11:0 12:0 13:0 14:0 15:0 16:0 17:0 18:0 19:0 20:0 21:0 22:0 23:0 24:0 25:0 26:0 27:0 28:0 29:0 30:0 31:0 32:0 33:0 34:0 35:0 36:0 37:0 38:0 39:0 40:0 41:0 42:0 43:0 44:0 45:0 46:0 47:0 48:0 49:0 50:0 51:0 52:0 53:0 54:0 55:0 56:0 57:0 58:0 59:0 60:0 61:0 62:0 63:0 64:0 65:0 66:0 67:0 68:0 69:0 70:0 71:0 72:0 73:0 74:0 75:0 76:0 77:0 78:0 79:0 80:0 81:0 82:0 83:0 84:0 85:0 86:0 87:0 88:0 89:0 90:0 91:0 92:0 93:0 94:0 95:0 96:0 97:0 98:0 99:0 100:0 101:0 102:0 103:0 104:0 105:0 106:0 107:0 108:0 109:0 110:0 111:0 112:0 113:0 114:0 115:0 116:0 117:0 118:0 119:0 120:0 121:0 122:0 123:0 124:0 125:0 126:0 127:0 128:0 129:0 130:0 131:0 132:0 133:0 134:0 135:0 136:0 137:0 138:0 139:0 140:0 141:0 142:0 143:0 144:0 145:0 146:0 147:0 148:0 149:0 150:0 151:0 152:0 153:0 154:0 155:0 156:0 157:0 158:0 159:0 160:0 161:0 162:0 163:0 164:0 165:0 166:0 167:0 168:0 169:0 170:0 171:0 172:0 173:0 174:0 175:0 176:0 177:0 178:0 179:0 180:0 181:0 182:0 183:0 184:0 185:0 186:0 187:0 188:0 189:0 190:0 191:0 192:0 193:0 194:0 195:0 196:0 197:0 198:0 199:0 200:0 201:0 202:0 203:0 204:0 205:0 206:0 207:0 208:0 209:0 210:0 211:0 212:0 213:0 214:0 215:0 216:0 217:0 218:0 219:0 220:0 221:0 222:0 223:0 224:0 225:0 226:0 227:0 228:0 229:0 230:0 231:0 232:0 233:0 234:0 235:0 236:0 237:0 238:0 239:0 240:0 241:0 242:0 243:0 244:0 245:0 246:0 247:0 248:0 249:0 250:0 251:0 252:0 253:0 254:0 255:0 256:0 257:123.77306 258:71.012245 259:200 260:255 261:0 262:2 263:3 264:1 265:0 266:0 267:0 268:0 269:0 270:0 271:0 272:1 273:0 274:0 275:0 276:0 277:8 278:0 279:0 280:1 281:0 282:1 283:0 284:1 285:0 286:0 287:0 288:1 289:0 290:1 291:0 292:0 293:0 294:0 295:1 296:0 297:0 298:1 299:1 300:0 301:0 302:1 303:0 304:0 305:0 306:0 307:0 308:0 309:0 310:0 311:0 312:0 313:0 314:1 315:0 316:1 317:0 318:1 319:1 320:0 321:0 322:0 323:0 324:0 325:0 326:0 327:0 328:0 329:1 330:1 331:1 332:0 333:0 334:0 335:0 336:0 337:0 338:0 339:0 340:0 341:0 342:0 343:0 344:0 345:0 346:0 347:0 348:0 349:0 350:0 351:2 352:0 353:0 354:0 355:0 356:0 357:0 358:1 359:1 360:0 361:0 362:0 363:1 364:0 365:0 366:3 367:0 368:0 369:0 370:0 371:0 372:0 373:0 374:0 375:0 376:0 377:0 378:0 379:3 380:0 381:0 382:0 383:0 384:0 385:0 386:1 387:1 388:0 389:0 390:0 391:0 392:0 393:0 394:0 395:0 396:0 397:1 398:0 399:0 400:0 401:0 402:1 403:0 404:1 405:0 406:0 407:0 408:0 409:0 410:0 411:0 412:0 413:1 414:0 415:1 416:1 417:0 418:0 419:0 420:0 421:0 422:0 423:0 424:0 425:1 426:0 427:0 428:0 429:0 430:0 431:0 432:0 433:0 434:1 435:1 436:0 437:0 438:0 439:0 440:0 441:0 442:0 443:0 444:0 445:0 446:0 447:1 448:0 449:0 450:0 451:0 452:0 453:0 454:0 455:0 456:0 457:0 458:0 459:0 460:0 461:0 462:0 463:0 464:1 465:0 466:0 467:0 468:1 469:0 470:0 471:0 472:0 473:0 474:0 475:0 476:0 477:0 478:0 479:0 480:0 481:0 482:2 483:1 484:1 485:1 486:0 487:0 488:1 489:1 490:1 491:0 492:0 493:0 494:0 495:0 496:1 497:0 498:1 499:0 500:0 501:1 502:0 503:1 504:0 505:0 506:0 507:0 508:0 509:0 510:0 511:0 512:0 513:1 514:0 515:0 516:0 517:1 518:0 519:0 520:0 521:1 522:0 523:0 524:0 525:0 526:0 527:0 528:0 529:0 530:0 531:0 532:1 533:0 534:0 535:0 536:0 537:0 538:0 539:1 540:0 541:0 542:0 543:0 544:0 545:0 546:0 547:0 548:0 
0 0.0001621223163093732 0 1:3400 2:0 3:0 4:0 5:0 6:0 7:0 8:0 9:0 10:0 11:0 12:0 13:0 14:0 15:0 16:0 17:0 18:0 19:0 20:0 21:0 22:0 23:0 24:0 25:0 26:0 27:0 28:0 29:0 30:0 31:0 32:0 33:0 34:0 35:0 36:0 37:0 38:0 39:0 40:0 41:0 42:0 43:0 44:0 45:0 46:0 47:0 48:0 49:0 50:0 51:0 52:0 53:0 54:0 55:0 56:0 57:0 58:0 59:0 60:0 61:0 62:0 63:0 64:0 65:0 66:0 67:0 68:0 69:0 70:0 71:0 72:0 73:0 74:0 75:0 76:0 77:0 78:0 79:0 80:0 81:0 82:0 83:0 84:0 85:0 86:0 87:0 88:0 89:0 90:0 91:0 92:0 93:0 94:0 95:0 96:0 97:0 98:0 99:0 100:0 101:0 102:0 103:0 104:0 105:0 106:0 107:0 108:0 109:0 110:0 111:0 112:0 113:0 114:0 115:0 116:0 117:0 118:0 119:0 120:0 121:0 122:0 123:0 124:0 125:0 126:0 127:0 128:0 129:0 130:0 131:0 132:0 133:0 134:0 135:0 136:0 137:0 138:0 139:0 140:0 141:0 142:0 143:0 144:0 145:0 146:0 147:0 148:0 149:0 150:0 151:0 152:0 153:0 154:0 155:0 156:0 157:0 158:0 159:0 160:0 161:0 162:0 163:0 164:0 165:0 166:0 167:0 168:0 169:0 170:0 171:0 172:0 173:0 174:0 175:0 176:0 177:0 178:0 179:0 180:0 181:0 182:0 183:0 184:0 185:0 186:0 187:0 188:0 189:0 190:0 191:0 192:0 193:0 194:0 195:0 196:0 197:0 198:0 199:0 200:0 201:0 202:0 203:0 204:0 205:0 206:0 207:0 208:0 209:0 210:0 211:0 212:0 213:0 214:0 215:0 216:0 217:0 218:0 219:0 220:0 221:0 222:0 223:0 224:0 225:0 226:0 227:0 228:0 229:0 230:0 231:0 232:0 233:0 234:0 235:0 236:0 237:0 238:0 239:0 240:0 241:0 242:0 243:0 244:0 245:0 246:0 247:0 248:0 249:0 250:0 251:0 252:0 253:0 254:0 255:0 256:0 257:125.53551 258:73.555102 259:200 260:255 261:0 262:2 263:0 264:0 265:2 266:0 267:0 268:0 269:0 270:2 271:0 272:0 273:0 274:0 275:0 276:0 277:4 278:1 279:0 280:0 281:1 282:0 283:1 284:1 285:0 286:0 287:0 288:0 289:0 290:0 291:0 292:0 293:0 294:0 295:1 296:0 297:2 298:0 299:0 300:2 301:0 302:1 303:0 304:0 305:1 306:0 307:0 308:0 309:0 310:0 311:1 312:0 313:0 314:3 315:0 316:0 317:0 318:0 319:0 320:1 321:0 322:0 323:0 324:0 325:1 326:0 327:0 328:0 329:1 330:1 331:0 332:0 333:0 334:1 335:1 336:0 337:1 338:0 339:0 340:1 341:0 342:0 343:0 344:0 345:0 346:0 347:3 348:3 349:0 350:0 351:0 352:0 353:0 354:1 355:0 356:0 357:0 358:1 359:0 360:0 361:0 362:0 363:0 364:1 365:1 366:3 367:0 368:0 369:0 370:0 371:0 372:0 373:0 374:0 375:0 376:0 377:0 378:0 379:0 380:1 381:0 382:0 383:0 384:0 385:2 386:0 387:0 388:0 389:1 390:0 391:0 392:0 393:0 394:0 395:0 396:0 397:2 398:1 399:0 400:0 401:0 402:0 403:1 404:1 405:2 406:0 407:0 408:1 409:0 410:0 411:0 412:0 413:3 414:0 415:0 416:4 417:0 418:2 419:0 420:1 421:0 422:1 423:1 424:0 425:0 426:0 427:1 428:0 429:0 430:0 431:3 432:0 433:2 434:0 435:1 436:0 437:0 438:0 439:0 440:1 441:1 442:0 443:0 444:0 445:0 446:0 447:2 448:0 449:1 450:1 451:0 452:1 453:0 454:0 455:0 456:0 457:0 458:0 459:0 460:0 461:0 462:0 463:0 464:2 465:3 466:0 467:2 468:0 469:0 470:3 471:2 472:0 473:0 474:0 475:0 476:0 477:0 478:0 479:0 480:0 481:0 482:0 483:2 484:0 485:0 486:0 487:1 488:0 489:2 490:0 491:1 492:0 493:0 494:0 495:0 496:1 497:1 498:1 499:0 500:1 501:1 502:2 503:1 504:0 505:0 506:0 507:1 508:0 509:0 510:0 511:1 512:0 513:0 514:0 515:0 516:2 517:0 518:1 519:0 520:1 521:1 522:1 523:0 524:0 525:0 526:1 527:0 528:0 529:0 530:0 531:0 532:0 533:2 534:0 535:0 536:0 537:0 538:0 539:0 540:0 541:0 542:0 543:1 544:0 545:0 546:0 547:0 548:0 
0.01432371797709904 0.01565508392788513 0.0005048413060906126 1:3400 2:0 3:0 4:0 5:0 6:0 7:0 8:0 9:0 10:0 11:0 12:0 13:0 14:0 15:0 16:0 17:0 18:0 19:0 20:0 21:0 22:0 23:0 24:0 25:0 26:0 27:0 28:0 29:0 30:0 31:0 32:0 33:0 34:0 35:0 36:0 37:0 38:0 39:0 40:0 41:0 42:0 43:0 44:0 45:0 46:0 47:0 48:0 49:0 50:0 51:0 52:0 53:0 54:0 55:0 56:0 57:0 58:0 59:0 60:0 61:0 62:0 63:0 64:0 65:0 66:0 67:0 68:0 69:0 70:0 71:0 72:0 73:0 74:0 75:0 76:0 77:0 78:0 79:0 80:0 81:0 82:0 83:0 84:0 85:0 86:0 87:0 88:0 89:0 90:0 91:0 92:0 93:0 94:0 95:0 96:0 97:0 98:0 99:0 100:0 101:0 102:0 103:0 104:0 105:0 106:0 107:0 108:0 109:0 110:0 111:0 112:0 113:0 114:0 115:0 116:0 117:0 118:0 119:0 120:0 121:0 122:0 123:0 124:0 125:0 126:0 127:0 128:0 129:0 130:0 131:0 132:0 133:0 134:0 135:0 136:0 137:0 138:0 139:0 140:0 141:0 142:0 143:0 144:0 145:0 146:0 147:0 148:0 149:0 150:0 151:0 152:0 153:0 154:0 155:0 156:0 157:0 158:0 159:0 160:0 161:0 162:0 163:0 164:0 165:0 166:0 167:0 168:0 169:0 170:0 171:0 172:0 173:0 174:0 175:0 176:0 177:0 178:0 179:0 180:0 181:0 182:0 183:0 184:0 185:0 186:0 187:0 188:0 189:0 190:0 191:0 192:0 193:0 194:0 195:0 196:0 197:0 198:0 199:0 200:0 201:0 202:0 203:0 204:0 205:0 206:0 207:0 208:0 209:0 210:0 211:0 212:0 213:0 214:0 215:0 216:0 217:0 218:0 219:0 220:0 221:0 222:0 223:0 224:0 225:0 226:0 227:0 228:0 229:0 230:0 231:0 232:0 233:0 234:0 235:0 236:0 237:0 238:0 239:0 240:0 241:0 242:0 243:0 244:0 245:0 246:0 247:0 248:0 249:0 250:0 251:0 252:0 253:0 254:0 255:0 256:0 257:125.32163 258:73.073469 259:200 260:255 261:0 262:0 263:1 264:0 265:1 266:0 267:0 268:1 269:0 270:0 271:0 272:0 273:0 274:0 275:0 276:0 277:24 278:0 279:0 280:0 281:0 282:0 283:2 284:0 285:0 286:2 287:0 288:0 289:0 290:0 291:0 292:1 293:0 294:1 295:6 296:2 297:0 298:0 299:1 300:0 301:0 302:1 303:0 304:0 305:0 306:1 307:0 308:0 309:0 310:0 311:0 312:2 313:3 314:0 315:0 316:0 317:0 318:1 319:0 320:0 321:0 322:0 323:0 324:0 325:0 326:0 327:0 328:0 329:2 330:0 331:1 332:0 333:0 334:0 335:2 336:0 337:0 338:1 339:0 340:0 341:1 342:0 343:0 344:0 345:0 346:0 347:2 348:0 349:1 350:0 351:0 352:1 353:1 354:0 355:0 356:1 357:0 358:0 359:0 360:0 361:0 362:0 363:2 364:3 365:0 366:0 367:0 368:1 369:0 370:1 371:0 372:0 373:0 374:0 375:0 376:0 377:0 378:0 379:0 380:2 381:0 382:1 383:0 384:1 385:0 386:0 387:1 388:0 389:0 390:0 391:0 392:1 393:0 394:0 395:0 396:0 397:0 398:2 399:0 400:0 401:0 402:0 403:0 404:0 405:1 406:0 407:0 408:0 409:0 410:1 411:0 412:0 413:1 414:0 415:1 416:0 417:1 418:0 419:0 420:0 421:0 422:0 423:1 424:0 425:0 426:0 427:1 428:0 429:0 430:2 431:1 432:0 433:2 434:0 435:0 436:1 437:0 438:0 439:0 440:0 441:0 442:0 443:1 444:0 445:0 446:0 447:1 448:2 449:0 450:0 451:0 452:0 453:1 454:0 455:0 456:0 457:0 458:1 459:0 460:0 461:0 462:0 463:0 464:1 465:2 466:1 467:0 468:0 469:0 470:0 471:0 472:0 473:0 474:0 475:1 476:0 477:0 478:0 479:0 480:0 481:2 482:1 483:0 484:1 485:0 486:0 487:0 488:0 489:0 490:1 491:1 492:0 493:0 494:0 495:0 496:0 497:0 498:2 499:0 500:1 501:0 502:0 503:1 504:0 505:0 506:0 507:0 508:0 509:1 510:0 511:0 512:0 513:0 514:0 515:0 516:2 517:0 518:0 519:1 520:1 521:1 522:0 523:0 524:0 525:0 526:0 527:1 528:0 529:0 530:0 531:0 532:0 533:0 534:0 535:0 536:1 537:0 538:0 539:0 540:0 541:0 542:0 543:0 544:0 545:0 546:0 547:0 548:0 
0 0.003818641031752994 0 1:3400 2:0 3:0 4:0 5:0 6:0 7:0 8:0 9:0 10:0 11:0 12:0 13:0 14:0 15:0 16:0 17:0 18:0 19:0 20:0 21:0 22:0 23:0 24:0 25:0 26:0 27:0 28:0 29:0 30:0 31:0 32:0 33:0 34:0 35:0 36:0 37:0 38:0 39:0 40:0 41:0 42:0 43:0 44:0 45:0 46:0 47:0 48:0 49:0 50:0 51:0 52:0 53:0 54:0 55:0 56:0 57:0 58:0 59:0 60:0 61:0 62:0 63:0 64:0 65:0 66:0 67:0 68:0 69:0 70:0 71:0 72:0 73:0 74:0 75:0 76:0 77:0 78:0 79:0 80:0 81:0 82:0 83:0 84:0 85:0 86:0 87:0 88:0 89:0 90:0 91:0 92:0 93:0 94:0 95:0 96:0 97:0 98:0 99:0 100:0 101:0 102:0 103:0 104:0 105:0 106:0 107:0 108:0 109:0 110:0 111:0 112:0 113:0 114:0 115:0 116:0 117:0 118:0 119:0 120:0 121:0 122:0 123:0 124:0 125:0 126:0 127:0 128:0 129:0 130:0 131:0 132:0 133:0 134:0 135:0 136:0 137:0 138:0 139:0 140:0 141:0 142:0 143:0 144:0 145:0 146:0 147:0 148:0 149:0 150:0 151:0 152:0 153:0 154:0 155:0 156:0 157:0 158:0 159:0 160:0 161:0 162:0 163:0 164:0 165:0 166:0 167:0 168:0 169:0 170:0 171:0 172:0 173:0 174:0 175:0 176:0 177:0 178:0 179:0 180:0 181:0 182:0 183:0 184:0 185:0 186:0 187:0 188:0 189:0 190:0 191:0 192:0 193:0 194:0 195:0 196:0 197:0 198:0 199:0 200:0 201:0 202:0 203:0 204:0 205:0 206:0 207:0 208:0 209:0 210:0 211:0 212:0 213:0 214:0 215:0 216:0 217:0 218:0 219:0 220:0 221:0 222:0 223:0 224:0 225:0 226:0 227:0 228:0 229:0 230:0 231:0 232:0 233:0 234:0 235:0 236:0 237:0 238:0 239:0 240:0 241:0 242:0 243:0 244:0 245:0 246:0 247:0 248:0 249:0 250:0 251:0 252:0 253:0 254:0 255:0 256:0 257:126.39347 258:73.940408 259:200 260:255 261:0 262:0 263:4 264:0 265:0 266:0 267:0 268:0 269:1 270:1 271:0 272:0 273:0 274:0 275:0 276:0 277:3 278:2 279:0 280:1 281:0 282:0 283:1 284:0 285:1 286:0 287:0 288:0 289:0 290:0 291:0 292:0 293:0 294:5 295:0 296:0 297:1 298:0 299:0 300:0 301:0 302:0 303:0 304:0 305:1 306:0 307:0 308:0 309:0 310:1 311:3 312:3 313:0 314:0 315:0 316:0 317:3 318:0 319:1 320:1 321:0 322:0 323:0 324:0 325:0 326:0 327:0 328:2 329:0 330:0 331:1 332:1 333:0 334:0 335:1 336:0 337:0 338:0 339:0 340:0 341:1 342:0 343:0 344:0 345:0 346:1 347:0 348:3 349:0 350:0 351:1 352:1 353:1 354:0 355:0 356:0 357:0 358:0 359:0 360:0 361:0 362:0 363:2 364:0 365:0 366:0 367:0 368:2 369:0 370:0 371:1 372:1 373:0 374:0 375:0 376:0 377:0 378:0 379:0 380:1 381:0 382:1 383:0 384:1 385:0 386:0 387:1 388:0 389:0 390:0 391:0 392:0 393:0 394:0 395:0 396:1 397:2 398:0 399:0 400:1 401:2 402:0 403:0 404:1 405:0 406:0 407:1 408:0 409:0 410:0 411:0 412:0 413:0 414:0 415:2 416:3 417:0 418:0 419:0 420:0 421:0 422:2 423:0 424:0 425:0 426:0 427:0 428:0 429:0 430:0 431:0 432:1 433:1 434:1 435:0 436:0 437:0 438:0 439:1 440:0 441:0 442:0 443:0 444:0 445:0 446:0 447:0 448:1 449:0 450:1 451:0 452:2 453:0 454:0 455:1 456:0 457:0 458:0 459:1 460:0 461:0 462:0 463:0 464:0 465:0 466:1 467:0 468:0 469:0 470:1 471:0 472:0 473:0 474:0 475:0 476:1 477:0 478:0 479:0 480:0 481:1 482:1 483:0 484:1 485:1 486:0 487:0 488:1 489:0 490:0 491:0 492:0 493:0 494:0 495:0 496:0 497:0 498:1 499:0 500:0 501:1 502:0 503:0 504:0 505:0 506:0 507:0 508:0 509:0 510:0 511:0 512:0 513:0 514:0 515:0 516:0 517:2 518:0 519:1 520:0 521:1 522:0 523:0 524:0 525:1 526:1 527:0 528:0 529:0 530:0 531:0 532:1 533:0 534:0 535:2 536:0 537:0 538:0 539:0 540:0 541:0 542:0 543:0 544:0 545:0 546:0 547:0 548:0 
0 0.001369725603141909 0.003321042408015629 1:3400 2:0 3:0 4:0 5:0 6:0 7:0 8:0 9:0 10:0 11:0 12:0 13:0 14:0 15:0 16:0 17:0 18:0 19:0 20:0 21:0 22:0 23:0 24:0 25:0 26:0 27:0 28:0 29:0 30:0 31:0 32:0 33:0 34:0 35:0 36:0 37:0 38:0 39:0 40:0 41:0 42:0 43:0 44:0 45:0 46:0 47:0 48:0 49:0 50:0 51:0 52:0 53:0 54:0 55:0 56:0 57:0 58:0 59:0 60:0 61:0 62:0 63:0 64:0 65:0 66:0 67:0 68:0 69:0 70:0 71:0 72:0 73:0 74:0 75:0 76:0 77:0 78:0 79:0 80:0 81:0 82:0 83:0 84:0 85:0 86:0 87:0 88:0 89:0 90:0 91:0 92:0 93:0 94:0 95:0 96:0 97:0 98:0 99:0 100:0 101:0 102:0 103:0 104:0 105:0 106:0 107:0 108:0 109:0 110:0 111:0 112:0 113:0 114:0 115:0 116:0 117:0 118:0 119:0 120:0 121:0 122:0 123:0 124:0 125:0 126:0 127:0 128:0 129:0 130:0 131:0 132:0 133:0 134:0 135:0 136:0 137:0 138:0 139:0 140:0 141:0 142:0 143:0 144:0 145:0 146:0 147:0 148:0 149:0 150:0 151:0 152:0 153:0 154:0 155:0 156:0 157:0 158:0 159:0 160:0 161:0 162:0 163:0 164:0 165:0 166:0 167:0 168:0 169:0 170:0 171:0 172:0 173:0 174:0 175:0 176:0 177:0 178:0 179:0 180:0 181:0 182:0 183:0 184:0 185:0 186:0 187:0 188:0 189:0 190:0 191:0 192:0 193:0 194:0 195:0 196:0 197:0 198:0 199:0 200:0 201:0 202:0 203:0 204:0 205:0 206:0 207:0 208:0 209:0 210:0 211:0 212:0 213:0 214:0 215:0 216:0 217:0 218:0 219:0 220:0 221:0 222:0 223:0 224:0 225:0 226:0 227:0 228:0 229:0 230:0 231:0 232:0 233:0 234:0 235:0 236:0 237:0 238:0 239:0 240:0 241:0 242:0 243:0 244:0 245:0 246:0 247:0 248:0 249:0 250:0 251:0 252:0 253:0 254:0 255:0 256:0 257:126.42041 258:73.534694 259:200 260:255 261:0 262:5 263:0 264:4 265:0 266:0 267:1 268:1 269:0 270:2 271:0 272:1 273:0 274:0 275:0 276:0 277:11 278:0 279:0 280:0 281:0 282:1 283:0 284:1 285:0 286:0 287:0 288:0 289:0 290:0 291:0 292:1 293:0 294:1 295:0 296:6 297:0 298:2 299:0 300:0 301:1 302:0 303:0 304:0 305:0 306:1 307:0 308:0 309:0 310:0 311:0 312:0 313:6 314:0 315:1 316:0 317:0 318:2 319:0 320:0 321:0 322:0 323:0 324:0 325:0 326:0 327:0 328:7 329:0 330:3 331:1 332:0 333:2 334:0 335:0 336:0 337:2 338:0 339:0 340:0 341:0 342:0 343:0 344:0 345:4 346:0 347:2 348:0 349:4 350:1 351:0 352:2 353:1 354:0 355:0 356:0 357:1 358:0 359:0 360:1 361:0 362:1 363:1 364:1 365:0 366:0 367:3 368:0 369:0 370:1 371:2 372:0 373:0 374:0 375:0 376:0 377:1 378:0 379:0 380:0 381:1 382:0 383:0 384:1 385:0 386:0 387:0 388:0 389:0 390:0 391:0 392:0 393:0 394:0 395:0 396:2 397:2 398:0 399:0 400:0 401:1 402:0 403:0 404:0 405:0 406:0 407:0 408:0 409:0 410:1 411:0 412:0 413:0 414:0 415:2 416:0 417:2 418:1 419:1 420:0 421:0 422:1 423:0 424:0 425:0 426:1 427:0 428:0 429:0 430:0 431:3 432:0 433:0 434:2 435:0 436:0 437:1 438:0 439:0 440:1 441:0 442:0 443:0 444:0 445:0 446:0 447:2 448:1 449:0 450:0 451:0 452:1 453:0 454:0 455:0 456:0 457:0 458:0 459:0 460:0 461:0 462:0 463:0 464:0 465:0 466:0 467:1 468:1 469:0 470:0 471:2 472:1 473:0 474:0 475:0 476:0 477:0 478:0 479:0 480:0 481:0 482:0 483:0 484:0 485:0 486:0 487:0 488:0 489:0 490:0 491:1 492:0 493:0 494:1 495:0 496:0 497:0 498:0 499:0 500:0 501:1 502:2 503:0 504:0 505:1 506:0 507:0 508:0 509:0 510:0 511:1 512:0 513:0 514:0 515:0 516:0 517:0 518:0 519:1 520:1 521:0 522:0 523:0 524:1 525:0 526:0 527:0 528:0 529:0 530:0 531:0 532:0 533:1 534:0 535:0 536:0 537:0 538:0 539:1 540:0 541:0 542:1 543:0 544:0 545:0 546:0 547:0 548:1 
0.0005567756325956533 0 0.001743226404944344 1:3400 2:0 3:0 4:0 5:0 6:0 7:0 8:0 9:0 10:0 11:0 12:0 13:0 14:0 15:0 16:0 17:0 18:0 19:0 20:0 21:0 22:0 23:0 24:0 25:0 26:0 27:0 28:0 29:0 30:0 31:0 32:0 33:0 34:0 35:0 36:0 37:0 38:0 39:0 40:0 41:0 42:0 43:0 44:0 45:0 46:0 47:0 48:0 49:0 50:0 51:0 52:0 53:0 54:0 55:0 56:0 57:0 58:0 59:0 60:0 61:0 62:0 63:0 64:0 65:0 66:0 67:0 68:0 69:0 70:0 71:0 72:0 73:0 74:0 75:0 76:0 77:0 78:0 79:0 80:0 81:0 82:0 83:0 84:0 85:0 86:0 87:0 88:0 89:0 90:0 91:0 92:0 93:0 94:0 95:0 96:0 97:0 98:0 99:0 100:0 101:0 102:0 103:0 104:0 105:0 106:0 107:0 108:0 109:0 110:0 111:0 112:0 113:0 114:0 115:0 116:0 117:0 118:0 119:0 120:0 121:0 122:0 123:0 124:0 125:0 126:0 127:0 128:0 129:0 130:0 131:0 132:0 133:0 134:0 135:0 136:0 137:0 138:0 139:0 140:0 141:0 142:0 143:0 144:0 145:0 146:0 147:0 148:0 149:0 150:0 151:0 152:0 153:0 154:0 155:0 156:0 157:0 158:0 159:0 160:0 161:0 162:0 163:0 164:0 165:0 166:0 167:0 168:0 169:0 170:0 171:0 172:0 173:0 174:0 175:0 176:0 177:0 178:0 179:0 180:0 181:0 182:0 183:0 184:0 185:0 186:0 187:0 188:0 189:0 190:0 191:0 192:0 193:0 194:0 195:0 196:0 197:0 198:0 199:0 200:0 201:0 202:0 203:0 204:0 205:0 206:0 207:0 208:0 209:0 210:0 211:0 212:0 213:0 214:0 215:0 216:0 217:0 218:0 219:0 220:0 221:0 222:0 223:0 224:0 225:0 226:0 227:0 228:0 229:0 230:0 231:0 232:0 233:0 234:0 235:0 236:0 237:0 238:0 239:0 240:0 241:0 242:0 243:0 244:0 245:0 246:0 247:0 248:0 249:0 250:0 251:0 252:0 253:0 254:0 255:0 256:0 257:124.74041 258:73.388571 259:200 260:255 261:0 262:15 263:0 264:4 265:2 266:3 267:0 268:1 269:0 270:0 271:0 272:0 273:1 274:1 275:0 276:1 277:16 278:9 279:2 280:1 281:0 282:3 283:2 284:0 285:0 286:0 287:0 288:0 289:0 290:1 291:1 292:0 293:0 294:0 295:0 296:0 297:2 298:0 299:0 300:1 301:0 302:1 303:1 304:0 305:2 306:1 307:0 308:0 309:0 310:0 311:0 312:0 313:5 314:2 315:2 316:0 317:0 318:0 319:1 320:0 321:0 322:1 323:0 324:0 325:0 326:0 327:1 328:0 329:0 330:0 331:2 332:3 333:2 334:0 335:0 336:0 337:0 338:0 339:0 340:0 341:0 342:0 343:0 344:0 345:1 346:0 347:0 348:0 349:0 350:1 351:2 352:0 353:0 354:2 355:0 356:0 357:0 358:0 359:0 360:0 361:0 362:4 363:0 364:0 365:1 366:0 367:5 368:0 369:0 370:0 371:0 372:0 373:0 374:0 375:0 376:0 377:0 378:0 379:4 380:1 381:0 382:1 383:5 384:5 385:1 386:0 387:0 388:0 389:0 390:0 391:0 392:0 393:1 394:0 395:0 396:0 397:3 398:2 399:0 400:3 401:1 402:0 403:0 404:0 405:1 406:0 407:0 408:0 409:0 410:0 411:0 412:0 413:0 414:0 415:2 416:0 417:0 418:0 419:0 420:0 421:0 422:0 423:1 424:0 425:1 426:0 427:0 428:0 429:0 430:2 431:1 432:0 433:1 434:0 435:0 436:1 437:1 438:0 439:0 440:1 441:1 442:1 443:0 444:0 445:0 446:0 447:2 448:1 449:0 450:0 451:0 452:0 453:0 454:0 455:0 456:1 457:1 458:0 459:1 460:1 461:0 462:0 463:0 464:0 465:0 466:0 467:0 468:0 469:0 470:1 471:0 472:1 473:1 474:0 475:0 476:1 477:1 478:0 479:0 480:0 481:0 482:1 483:0 484:0 485:0 486:0 487:0 488:0 489:1 490:0 491:1 492:0 493:1 494:0 495:0 496:0 497:0 498:0 499:0 500:0 501:0 502:0 503:0 504:1 505:1 506:1 507:0 508:0 509:0 510:0 511:1 512:0 513:0 514:0 515:0 516:2 517:1 518:0 519:1 520:0 521:0 522:1 523:0 524:0 525:0 526:0 527:0 528:0 529:0 530:0 531:0 532:1 533:0 534:1 535:0 536:0 537:0 538:0 539:0 540:0 541:0 542:0 543:0 544:0 545:0 546:0 547:0 548:0 
0 0.01775299831783081 0.002328145962350637 1:3400 2:0 3:0 4:0 5:0 6:0 7:0 8:0 9:0 10:0 11:0 12:0 13:0 14:0 15:0 16:0 17:0 18:0 19:0 20:0 21:0 22:0 23:0 24:0 25:0 26:0 27:0 28:0 29:0 30:0 31:0 32:0 33:0 34:0 35:0 36:0 37:0 38:0 39:0 40:0 41:0 42:0 43:0 44:0 45:0 46:0 47:0 48:0 49:0 50:0 51:0 52:0 53:0 54:0 55:0 56:0 57:0 58:0 59:0 60:0 61:0 62:0 63:0 64:0 65:0 66:0 67:0 68:0 69:0 70:0 71:0 72:0 73:0 74:0 75:0 76:0 77:0 78:0 79:0 80:0 81:0 82:0 83:0 84:0 85:0 86:0 87:0 88:0 89:0 90:0 91:0 92:0 93:0 94:0 95:0 96:0 97:0 98:0 99:0 100:0 101:0 102:0 103:0 104:0 105:0 106:0 107:0 108:0 109:0 110:0 111:0 112:0 113:0 114:0 115:0 116:0 117:0 118:0 119:0 120:0 121:0 122:0 123:0 124:0 125:0 126:0 127:0 128:0 129:0 130:0 131:0 132:0 133:0 134:0 135:0 136:0 137:0 138:0 139:0 140:0 141:0 142:0 143:0 144:0 145:0 146:0 147:0 148:0 149:0 150:0 151:0 152:0 153:0 154:0 155:0 156:0 157:0 158:0 159:0 160:0 161:0 162:0 163:0 164:0 165:0 166:0 167:0 168:0 169:0 170:0 171:0 172:0 173:0 174:0 175:0 176:0 177:0 178:0 179:0 180:0 181:0 182:0 183:0 184:0 185:0 186:0 187:0 188:0 189:0 190:0 191:0 192:0 193:0 194:0 195:0 196:0 197:0 198:0 199:0 200:0 201:0 202:0 203:0 204:0 205:0 206:0 207:0 208:0 209:0 210:0 211:0 212:0 213:0 214:0 215:0 216:0 217:0 218:0 219:0 220:0 221:0 222:0 223:0 224:0 225:0 226:0 227:0 228:0 229:0 230:0 231:0 232:0 233:0 234:0 235:0 236:0 237:0 238:0 239:0 240:0 241:0 242:0 243:0 244:0 245:0 246:0 247:0 248:0 249:0 250:0 251:0 252:0 253:0 254:0 255:0 256:0 257:126.04735 258:73.80898 259:200 260:255 261:5 262:3 263:0 264:0 265:0 266:2 267:2 268:0 269:0 270:1 271:1 272:0 273:0 274:1 275:0 276:0 277:5 278:2 279:0 280:0 281:0 282:2 283:0 284:0 285:0 286:2 287:0 288:0 289:0 290:0 291:0 292:0 293:0 294:0 295:0 296:7 297:3 298:0 299:0 300:1 301:0 302:0 303:0 304:0 305:0 306:0 307:0 308:0 309:0 310:0 311:1 312:0 313:1 314:2 315:3 316:0 317:0 318:1 319:2 320:0 321:0 322:0 323:1 324:0 325:0 326:0 327:0 328:1 329:0 330:0 331:2 332:0 333:3 334:0 335:0 336:1 337:0 338:0 339:0 340:0 341:0 342:0 343:0 344:0 345:0 346:0 347:0 348:0 349:1 350:1 351:1 352:1 353:0 354:0 355:0 356:0 357:1 358:0 359:0 360:0 361:0 362:0 363:2 364:0 365:2 366:1 367:1 368:1 369:0 370:1 371:1 372:0 373:0 374:0 375:1 376:0 377:0 378:0 379:2 380:1 381:1 382:0 383:0 384:0 385:0 386:2 387:0 388:1 389:0 390:1 391:0 392:0 393:0 394:0 395:0 396:0 397:1 398:2 399:0 400:0 401:0 402:0 403:0 404:1 405:1 406:0 407:0 408:0 409:0 410:0 411:0 412:0 413:0 414:0 415:3 416:0 417:2 418:1 419:1 420:0 421:0 422:1 423:0 424:1 425:0 426:0 427:0 428:0 429:0 430:1 431:1 432:2 433:0 434:0 435:0 436:0 437:0 438:0 439:0 440:0 441:0 442:0 443:1 444:0 445:0 446:0 447:0 448:0 449:3 450:2 451:1 452:0 453:1 454:0 455:0 456:0 457:0 458:0 459:0 460:0 461:0 462:0 463:0 464:1 465:0 466:1 467:0 468:0 469:2 470:1 471:0 472:0 473:0 474:0 475:0 476:1 477:0 478:0 479:0 480:0 481:2 482:0 483:0 484:2 485:0 486:1 487:1 488:0 489:0 490:0 491:0 492:1 493:0 494:0 495:0 496:0 497:0 498:0 499:0 500:0 501:0 502:0 503:1 504:0 505:0 506:0 507:0 508:0 509:0 510:0 511:0 512:0 513:0 514:0 515:0 516:0 517:0 518:0 519:1 520:0 521:1 522:0 523:1 524:0 525:0 526:0 527:0 528:0 529:1 530:0 531:0 532:0 533:0 534:0 535:0 536:0 537:1 538:0 539:0 540:0 541:0 542:0 543:0 544:0 545:0 546:0 547:0 548:0 
0 0.005078133470005369 0 1:3400 2:0 3:0 4:0 5:0 6:0 7:0 8:0 9:0 10:0 11:0 12:0 13:0 14:0 15:0 16:0 17:0 18:0 19:0 20:0 21:0 22:0 23:0 24:0 25:0 26:0 27:0 28:0 29:0 30:0 31:0 32:0 33:0 34:0 35:0 36:0 37:0 38:0 39:0 40:0 41:0 42:0 43:0 44:0 45:0 46:0 47:0 48:0 49:0 50:0 51:0 52:0 53:0 54:0 55:0 56:0 57:0 58:0 59:0 60:0 61:0 62:0 63:0 64:0 65:0 66:0 67:0 68:0 69:0 70:0 71:0 72:0 73:0 74:0 75:0 76:0 77:0 78:0 79:0 80:0 81:0 82:0 83:0 84:0 85:0 86:0 87:0 88:0 89:0 90:0 91:0 92:0 93:0 94:0 95:0 96:0 97:0 98:0 99:0 100:0 101:0 102:0 103:0 104:0 105:0 106:0 107:0 108:0 109:0 110:0 111:0 112:0 113:0 114:0 115:0 116:0 117:0 118:0 119:0 120:0 121:0 122:0 123:0 124:0 125:0 126:0 127:0 128:0 129:0 130:0 131:0 132:0 133:0 134:0 135:0 136:0 137:0 138:0 139:0 140:0 141:0 142:0 143:0 144:0 145:0 146:0 147:0 148:0 149:0 150:0 151:0 152:0 153:0 154:0 155:0 156:0 157:0 158:0 159:0 160:0 161:0 162:0 163:0 164:0 165:0 166:0 167:0 168:0 169:0 170:0 171:0 172:0 173:0 174:0 175:0 176:0 177:0 178:0 179:0 180:0 181:0 182:0 183:0 184:0 185:0 186:0 187:0 188:0 189:0 190:0 191:0 192:0 193:0 194:0 195:0 196:0 197:0 198:0 199:0 200:0 201:0 202:0 203:0 204:0 205:0 206:0 207:0 208:0 209:0 210:0 211:0 212:0 213:0 214:0 215:0 216:0 217:0 218:0 219:0 220:0 221:0 222:0 223:0 224:0 225:0 226:0 227:0 228:0 229:0 230:0 231:0 232:0 233:0 234:0 235:0 236:0 237:0 238:0 239:0 240:0 241:0 242:0 243:0 244:0 245:0 246:0 247:0 248:0 249:0 250:0 251:0 252:0 253:0 254:0 255:0 256:0 257:125.40898 258:73.533878 259:200 260:255 261:0 262:0 263:2 264:0 265:1 266:2 267:0 268:0 269:0 270:0 271:0 272:1 273:0 274:0 275:0 276:0 277:1 278:5 279:0 280:0 281:1 282:0 283:2 284:0 285:0 286:0 287:1 288:0 289:1 290:0 291:0 292:0 293:0 294:0 295:0 296:0 297:0 298:1 299:2 300:0 301:0 302:1 303:0 304:1 305:0 306:0 307:0 308:0 309:0 310:0 311:3 312:3 313:1 314:3 315:0 316:0 317:0 318:0 319:0 320:0 321:1 322:0 323:0 324:0 325:0 326:0 327:0 328:1 329:0 330:1 331:2 332:0 333:0 334:0 335:0 336:1 337:1 338:0 339:0 340:0 341:0 342:0 343:0 344:0 345:2 346:0 347:1 348:1 349:1 350:0 351:0 352:0 353:1 354:1 355:1 356:0 357:0 358:1 359:0 360:0 361:0 362:0 363:3 364:4 365:0 366:0 367:0 368:0 369:0 370:0 371:1 372:0 373:1 374:0 375:0 376:1 377:0 378:1 379:0 380:0 381:0 382:0 383:3 384:0 385:0 386:0 387:0 388:1 389:1 390:1 391:0 392:0 393:0 394:0 395:0 396:1 397:2 398:0 399:0 400:0 401:0 402:0 403:0 404:0 405:0 406:0 407:1 408:1 409:0 410:1 411:0 412:0 413:0 414:0 415:0 416:1 417:1 418:4 419:0 420:0 421:0 422:1 423:0 424:0 425:1 426:0 427:0 428:0 429:0 430:0 431:5 432:1 433:1 434:3 435:0 436:0 437:1 438:0 439:0 440:1 441:0 442:0 443:0 444:0 445:0 446:0 447:0 448:0 449:2 450:0 451:0 452:0 453:0 454:0 455:2 456:1 457:0 458:0 459:0 460:0 461:0 462:0 463:0 464:3 465:1 466:2 467:0 468:1 469:1 470:0 471:0 472:0 473:1 474:1 475:0 476:0 477:0 478:0 479:0 480:0 481:1 482:1 483:0 484:0 485:2 486:0 487:0 488:1 489:0 490:0 491:0 492:1 493:0 494:0 495:0 496:0 497:0 498:0 499:0 500:1 501:0 502:0 503:1 504:0 505:0 506:0 507:1 508:0 509:0 510:1 511:0 512:0 513:0 514:0 515:3 516:1 517:0 518:2 519:0 520:0 521:0 522:0 523:0 524:1 525:1 526:0 527:0 528:0 529:0 530:0 531:0 532:0 533:0 534:0 535:1 536:1 537:0 538:0 539:0 540:0 541:0 542:0 543:0 544:0 545:0 546:0 547:0 548:0 
0 0.01974847806098269 0 1:3400 2:0 3:0 4:0 5:0 6:0 7:0 8:0 9:0 10:0 11:0 12:0 13:0 14:0 15:0 16:0 17:0 18:0 19:0 20:0 21:0 22:0 23:0 24:0 25:0 26:0 27:0 28:0 29:0 30:0 31:0 32:0 33:0 34:0 35:0 36:0 37:0 38:0 39:0 40:0 41:0 42:0 43:0 44:0 45:0 46:0 47:0 48:0 49:0 50:0 51:0 52:0 53:0 54:0 55:0 56:0 57:0 58:0 59:0 60:0 61:0 62:0 63:0 64:0 65:0 66:0 67:0 68:0 69:0 70:0 71:0 72:0 73:0 74:0 75:0 76:0 77:0 78:0 79:0 80:0 81:0 82:0 83:0 84:0 85:0 86:0 87:0 88:0 89:0 90:0 91:0 92:0 93:0 94:0 95:0 96:0 97:0 98:0 99:0 100:0 101:0 102:0 103:0 104:0 105:0 106:0 107:0 108:0 109:0 110:0 111:0 112:0 113:0 114:0 115:0 116:0 117:0 118:0 119:0 120:0 121:0 122:0 123:0 124:0 125:0 126:0 127:0 128:0 129:0 130:0 131:0 132:0 133:0 134:0 135:0 136:0 137:0 138:0 139:0 140:0 141:0 142:0 143:0 144:0 145:0 146:0 147:0 148:0 149:0 150:0 151:0 152:0 153:0 154:0 155:0 156:0 157:0 158:0 159:0 160:0 161:0 162:0 163:0 164:0 165:0 166:0 167:0 168:0 169:0 170:0 171:0 172:0 173:0 174:0 175:0 176:0 177:0 178:0 179:0 180:0 181:0 182:0 183:0 184:0 185:0 186:0 187:0 188:0 189:0 190:0 191:0 192:0 193:0 194:0 195:0 196:0 197:0 198:0 199:0 200:0 201:0 202:0 203:0 204:0 205:0 206:0 207:0 208:0 209:0 210:0 211:0 212:0 213:0 214:0 215:0 216:0 217:0 218:0 219:0 220:0 221:0 222:0 223:0 224:0 225:0 226:0 227:0 228:0 229:0 230:0 231:0 232:0 233:0 234:0 235:0 236:0 237:0 238:0 239:0 240:0 241:0 242:0 243:0 244:0 245:0 246:0 247:0 248:0 249:0 250:0 251:0 252:0 253:0 254:0 255:0 256:0 257:124.66776 258:71.57551 259:200 260:255 261:2 262:1 263:1 264:0 265:0 266:0 267:0 268:0 269:0 270:0 271:0 272:0 273:0 274:0 275:0 276:0 277:0 278:0 279:0 280:0 281:0 282:1 283:0 284:0 285:0 286:1 287:1 288:1 289:0 290:0 291:0 292:0 293:0 294:3 295:3 296:2 297:1 298:0 299:0 300:0 301:0 302:0 303:0 304:0 305:0 306:0 307:0 308:0 309:0 310:0 311:0 312:0 313:0 314:0 315:0 316:1 317:1 318:0 319:0 320:0 321:1 322:0 323:0 324:0 325:0 326:0 327:0 328:1 329:2 330:1 331:0 332:0 333:0 334:0 335:0 336:0 337:1 338:0 339:0 340:0 341:0 342:0 343:0 344:0 345:0 346:0 347:0 348:0 349:1 350:0 351:0 352:0 353:0 354:0 355:0 356:0 357:0 358:0 359:0 360:0 361:0 362:0 363:0 364:0 365:0 366:1 367:0 368:0 369:1 370:0 371:1 372:0 373:1 374:0 375:0 376:0 377:0 378:0 379:0 380:1 381:1 382:0 383:0 384:0 385:0 386:0 387:0 388:0 389:0 390:0 391:0 392:0 393:0 394:0 395:0 396:0 397:0 398:0 399:0 400:1 401:0 402:1 403:1 404:0 405:0 406:0 407:0 408:0 409:0 410:0 411:0 412:0 413:0 414:1 415:1 416:0 417:0 418:0 419:0 420:0 421:0 422:0 423:0 424:0 425:0 426:0 427:0 428:0 429:0 430:0 431:0 432:1 433:0 434:0 435:0 436:0 437:0 438:0 439:1 440:0 441:0 442:0 443:0 444:0 445:0 446:0 447:1 448:0 449:0 450:0 451:0 452:0 453:0 454:1 455:0 456:0 457:0 458:0 459:0 460:0 461:0 462:0 463:0 464:0 465:0 466:0 467:0 468:0 469:0 470:0 471:0 472:0 473:0 474:0 475:1 476:0 477:0 478:0 479:0 480:0 481:0 482:0 483:0 484:0 485:0 486:0 487:0 488:0 489:0 490:0 491:0 492:0 493:0 494:0 495:0 496:0 497:0 498:1 499:0 500:0 501:1 502:0 503:0 504:0 505:0 506:0 507:0 508:0 509:0 510:0 511:0 512:0 513:0 514:0 515:0 516:0 517:0 518:0 519:0 520:1 521:0 522:0 523:0 524:0 525:0 526:0 527:0 528:0 529:0 530:0 531:0 532:0 533:0 534:1 535:0 536:0 537:0 538:0 539:0 540:1 541:1 542:0 543:0 544:0 545:1 546:0 547:0 548:0 
0 0.02006109108619538 0 1:3400 2:0 3:0 4:0 5:0 6:0 7:0 8:0 9:0 10:0 11:0 12:0 13:0 14:0 15:0 16:0 17:0 18:0 19:0 20:0 21:0 22:0 23:0 24:0 25:0 26:0 27:0 28:0 29:0 30:0 31:0 32:0 33:0 34:0 35:0 36:0 37:0 38:0 39:0 40:0 41:0 42:0 43:0 44:0 45:0 46:0 47:0 48:0 49:0 50:0 51:0 52:0 53:0 54:0 55:0 56:0 57:0 58:0 59:0 60:0 61:0 62:0 63:0 64:0 65:0 66:0 67:0 68:0 69:0 70:0 71:0 72:0 73:0 74:0 75:0 76:0 77:0 78:0 79:0 80:0 81:0 82:0 83:0 84:0 85:0 86:0 87:0 88:0 89:0 90:0 91:0 92:0 93:0 94:0 95:0 96:0 97:0 98:0 99:0 100:0 101:0 102:0 103:0 104:0 105:0 106:0 107:0 108:0 109:0 110:0 111:0 112:0 113:0 114:0 115:0 116:0 117:0 118:0 119:0 120:0 121:0 122:0 123:0 124:0 125:0 126:0 127:0 128:0 129:0 130:0 131:0 132:0 133:0 134:0 135:0 136:0 137:0 138:0 139:0 140:0 141:0 142:0 143:0 144:0 145:0 146:0 147:0 148:0 149:0 150:0 151:0 152:0 153:0 154:0 155:0 156:0 157:0 158:0 159:0 160:0 161:0 162:0 163:0 164:0 165:0 166:0 167:0 168:0 169:0 170:0 171:0 172:0 173:0 174:0 175:0 176:0 177:0 178:0 179:0 180:0 181:0 182:0 183:0 184:0 185:0 186:0 187:0 188:0 189:0 190:0 191:0 192:0 193:0 194:0 195:0 196:0 197:0 198:0 199:0 200:0 201:0 202:0 203:0 204:0 205:0 206:0 207:0 208:0 209:0 210:0 211:0 212:0 213:0 214:0 215:0 216:0 217:0 218:0 219:0 220:0 221:0 222:0 223:0 224:0 225:0 226:0 227:0 228:0 229:0 230:0 231:0 232:0 233:0 234:0 235:0 236:0 237:0 238:0 239:0 240:0 241:0 242:0 243:0 244:0 245:0 246:0 247:0 248:0 249:0 250:0 251:0 252:0 253:0 254:0 255:0 256:0 257:124.56408 258:71.840816 259:200 260:255 261:0 262:5 263:0 264:1 265:0 266:1 267:0 268:1 269:0 270:1 271:0 272:1 273:0 274:0 275:0 276:1 277:3 278:0 279:2 280:0 281:2 282:0 283:1 284:0 285:0 286:0 287:0 288:0 289:0 290:0 291:0 292:1 293:0 294:0 295:2 296:0 297:0 298:1 299:0 300:0 301:1 302:0 303:0 304:0 305:0 306:0 307:0 308:0 309:0 310:0 311:1 312:0 313:1 314:0 315:1 316:0 317:0 318:0 319:0 320:0 321:0 322:0 323:1 324:0 325:0 326:0 327:0 328:2 329:0 330:2 331:0 332:0 333:0 334:0 335:1 336:0 337:0 338:0 339:0 340:0 341:0 342:0 343:0 344:0 345:2 346:0 347:0 348:0 349:0 350:1 351:0 352:0 353:0 354:0 355:0 356:0 357:0 358:1 359:0 360:0 361:0 362:0 363:0 364:0 365:1 366:0 367:0 368:1 369:0 370:0 371:0 372:0 373:0 374:0 375:0 376:0 377:0 378:0 379:2 380:0 381:1 382:0 383:0 384:0 385:0 386:1 387:0 388:0 389:0 390:0 391:1 392:0 393:0 394:0 395:0 396:0 397:0 398:0 399:0 400:1 401:2 402:0 403:0 404:0 405:0 406:0 407:0 408:0 409:0 410:1 411:0 412:0 413:1 414:0 415:1 416:1 417:0 418:0 419:0 420:0 421:0 422:0 423:0 424:0 425:0 426:0 427:0 428:0 429:0 430:0 431:0 432:0 433:0 434:0 435:1 436:0 437:1 438:0 439:0 440:0 441:1 442:0 443:0 444:0 445:0 446:0 447:0 448:1 449:0 450:1 451:0 452:0 453:0 454:0 455:0 456:0 457:1 458:0 459:0 460:0 461:0 462:0 463:0 464:0 465:0 466:0 467:0 468:0 469:0 470:1 471:0 472:0 473:0 474:0 475:0 476:1 477:0 478:0 479:0 480:0 481:1 482:0 483:0 484:0 485:0 486:0 487:0 488:0 489:0 490:0 491:0 492:0 493:0 494:0 495:0 496:0 497:0 498:0 499:0 500:0 501:1 502:0 503:1 504:0 505:0 506:0 507:0 508:0 509:0 510:0 511:0 512:0 513:0 514:0 515:0 516:0 517:0 518:0 519:0 520:0 521:1 522:0 523:0 524:0 525:0 526:0 527:0 528:0 529:0 530:0 531:0 532:1 533:0 534:0 535:0 536:1 537:0 538:1 539:0 540:0 541:1 542:0 543:0 544:1 545:0 546:0 547:0 548:0 
0.002872173482946665 0 0 1:3400 2:0 3:0 4:0 5:0 6:0 7:0 8:0 9:0 10:0 11:0 12:0 13:0 14:0 15:0 16:0 17:0 18:0 19:0 20:0 21:0 22:0 23:0 24:0 25:0 26:0 27:0 28:0 29:0 30:0 31:0 32:0 33:0 34:0 35:0 36:0 37:0 38:0 39:0 40:0 41:0 42:0 43:0 44:0 45:0 46:0 47:0 48:0 49:0 50:0 51:0 52:0 53:0 54:0 55:0 56:0 57:0 58:0 59:0 60:0 61:0 62:0 63:0 64:0 65:0 66:0 67:0 68:0 69:0 70:0 71:0 72:0 73:0 74:0 75:0 76:0 77:0 78:0 79:0 80:0 81:0 82:0 83:0 84:0 85:0 86:0 87:0 88:0 89:0 90:0 91:0 92:0 93:0 94:0 95:0 96:0 97:0 98:0 99:0 100:0 101:0 102:0 103:0 104:0 105:0 106:0 107:0 108:0 109:0 110:0 111:0 112:0 113:0 114:0 115:0 116:0 117:0 118:0 119:0 120:0 121:0 122:0 123:0 124:0 125:0 126:0 127:0 128:0 129:0 130:0 131:0 132:0 133:0 134:0 135:0 136:0 137:0 138:0 139:0 140:0 141:0 142:0 143:0 144:0 145:0 146:0 147:0 148:0 149:0 150:0 151:0 152:0 153:0 154:0 155:0 156:0 157:0 158:0 159:0 160:0 161:0 162:0 163:0 164:0 165:0 166:0 167:0 168:0 169:0 170:0 171:0 172:0 173:0 174:0 175:0 176:0 177:0 178:0 179:0 180:0 181:0 182:0 183:0 184:0 185:0 186:0 187:0 188:0 189:0 190:0 191:0 192:0 193:0 194:0 195:0 196:0 197:0 198:0 199:0 200:0 201:0 202:0 203:0 204:0 205:0 206:0 207:0 208:0 209:0 210:0 211:0 212:0 213:0 214:0 215:0 216:0 217:0 218:0 219:0 220:0 221:0 222:0 223:0 224:0 225:0 226:0 227:0 228:0 229:0 230:0 231:0 232:0 233:0 234:0 235:0 236:0 237:0 238:0 239:0 240:0 241:0 242:0 243:0 244:0 245:0 246:0 247:0 248:0 249:0 250:0 251:0 252:0 253:0 254:0 255:0 256:0 257:126.35673 258:73.927347 259:200 260:255 261:1 262:3 263:0 264:0 265:2 266:1 267:0 268:0 269:0 270:1 271:1 272:0 273:0 274:0 275:0 276:0 277:6 278:0 279:0 280:0 281:0 282:0 283:1 284:1 285:0 286:0 287:0 288:0 289:0 290:0 291:0 292:0 293:0 294:3 295:0 296:1 297:0 298:0 299:0 300:0 301:1 302:1 303:0 304:0 305:0 306:0 307:1 308:1 309:0 310:1 311:3 312:0 313:0 314:1 315:0 316:0 317:0 318:0 319:0 320:2 321:0 322:0 323:0 324:0 325:0 326:0 327:0 328:0 329:0 330:0 331:0 332:0 333:1 334:0 335:0 336:2 337:0 338:0 339:0 340:0 341:0 342:0 343:0 344:0 345:2 346:3 347:0 348:4 349:2 350:0 351:0 352:0 353:0 354:0 355:0 356:1 357:0 358:0 359:0 360:0 361:0 362:2 363:0 364:0 365:0 366:0 367:2 368:1 369:0 370:0 371:0 372:0 373:0 374:0 375:0 376:0 377:0 378:0 379:2 380:0 381:0 382:1 383:0 384:0 385:0 386:1 387:0 388:1 389:0 390:1 391:0 392:0 393:1 394:0 395:0 396:0 397:1 398:0 399:2 400:0 401:1 402:1 403:1 404:0 405:0 406:0 407:0 408:0 409:1 410:1 411:0 412:1 413:2 414:0 415:0 416:0 417:0 418:2 419:1 420:0 421:0 422:1 423:0 424:0 425:0 426:0 427:0 428:0 429:0 430:0 431:0 432:0 433:0 434:2 435:0 436:1 437:1 438:0 439:0 440:0 441:0 442:0 443:0 444:0 445:0 446:0 447:0 448:2 449:2 450:0 451:1 452:0 453:0 454:1 455:2 456:0 457:0 458:0 459:0 460:0 461:0 462:0 463:0 464:0 465:0 466:0 467:0 468:1 469:0 470:0 471:0 472:0 473:0 474:0 475:0 476:0 477:0 478:0 479:0 480:0 481:1 482:1 483:0 484:0 485:0 486:1 487:2 488:0 489:0 490:0 491:0 492:1 493:0 494:0 495:0 496:0 497:0 498:1 499:0 500:2 501:3 502:0 503:0 504:0 505:0 506:0 507:0 508:0 509:0 510:0 511:0 512:0 513:0 514:0 515:0 516:1 517:0 518:0 519:0 520:1 521:0 522:1 523:1 524:0 525:0 526:0 527:0 528:0 529:0 530:0 531:0 532:0 533:1 534:0 535:0 536:0 537:1 538:0 539:0 540:0 541:0 542:1 543:1 544:0 545:0 546:0 547:0 548:0 
0 0.01190933625291036 0 1:3400 2:0 3:0 4:0 5:0 6:0 7:0 8:0 9:0 10:0 11:0 12:0 13:0 14:0 15:0 16:0 17:0 18:0 19:0 20:0 21:0 22:0 23:0 24:0 25:0 26:0 27:0 28:0 29:0 30:0 31:0 32:0 33:0 34:0 35:0 36:0 37:0 38:0 39:0 40:0 41:0 42:0 43:0 44:0 45:0 46:0 47:0 48:0 49:0 50:0 51:0 52:0 53:0 54:0 55:0 56:0 57:0 58:0 59:0 60:0 61:0 62:0 63:0 64:0 65:0 66:0 67:0 68:0 69:0 70:0 71:0 72:0 73:0 74:0 75:0 76:0 77:0 78:0 79:0 80:0 81:0 82:0 83:0 84:0 85:0 86:0 87:0 88:0 89:0 90:0 91:0 92:0 93:0 94:0 95:0 96:0 97:0 98:0 99:0 100:0 101:0 102:0 103:0 104:0 105:0 106:0 107:0 108:0 109:0 110:0 111:0 112:0 113:0 114:0 115:0 116:0 117:0 118:0 119:0 120:0 121:0 122:0 123:0 124:0 125:0 126:0 127:0 128:0 129:0 130:0 131:0 132:0 133:0 134:0 135:0 136:0 137:0 138:0 139:0 140:0 141:0 142:0 143:0 144:0 145:0 146:0 147:0 148:0 149:0 150:0 151:0 152:0 153:0 154:0 155:0 156:0 157:0 158:0 159:0 160:0 161:0 162:0 163:0 164:0 165:0 166:0 167:0 168:0 169:0 170:0 171:0 172:0 173:0 174:0 175:0 176:0 177:0 178:0 179:0 180:0 181:0 182:0 183:0 184:0 185:0 186:0 187:0 188:0 189:0 190:0 191:0 192:0 193:0 194:0 195:0 196:0 197:0 198:0 199:0 200:0 201:0 202:0 203:0 204:0 205:0 206:0 207:0 208:0 209:0 210:0 211:0 212:0 213:0 214:0 215:0 216:0 217:0 218:0 219:0 220:0 221:0 222:0 223:0 224:0 225:0 226:0 227:0 228:0 229:0 230:0 231:0 232:0 233:0 234:0 235:0 236:0 237:0 238:0 239:0 240:0 241:0 242:0 243:0 244:0 245:0 246:0 247:0 248:0 249:0 250:0 251:0 252:0 253:0 254:0 255:0 256:0 257:125.11347 258:71.93551 259:200 260:255 261:0 262:0 263:0 264:3 265:0 266:0 267:0 268:2 269:0 270:0 271:0 272:0 273:0 274:0 275:0 276:0 277:10 278:0 279:0 280:0 281:0 282:0 283:0 284:0 285:0 286:0 287:0 288:0 289:0 290:0 291:0 292:0 293:0 294:1 295:1 296:0 297:0 298:0 299:0 300:0 301:1 302:0 303:0 304:0 305:0 306:0 307:0 308:1 309:0 310:0 311:3 312:0 313:0 314:0 315:0 316:0 317:0 318:0 319:0 320:0 321:0 322:0 323:0 324:0 325:0 326:0 327:0 328:2 329:1 330:0 331:0 332:0 333:0 334:1 335:0 336:0 337:0 338:0 339:0 340:0 341:0 342:0 343:0 344:0 345:0 346:2 347:0 348:1 349:0 350:0 351:1 352:0 353:1 354:0 355:0 356:0 357:0 358:0 359:0 360:0 361:0 362:0 363:0 364:0 365:0 366:1 367:0 368:0 369:1 370:1 371:0 372:0 373:0 374:1 375:0 376:0 377:0 378:0 379:1 380:0 381:0 382:0 383:1 384:1 385:0 386:0 387:0 388:0 389:0 390:1 391:0 392:0 393:0 394:0 395:0 396:0 397:0 398:1 399:1 400:0 401:1 402:1 403:0 404:0 405:0 406:0 407:0 408:0 409:0 410:0 411:0 412:0 413:0 414:0 415:0 416:1 417:0 418:0 419:1 420:0 421:0 422:0 423:0 424:0 425:0 426:0 427:0 428:0 429:0 430:1 431:0 432:0 433:1 434:0 435:0 436:0 437:0 438:0 439:0 440:0 441:0 442:0 443:0 444:1 445:0 446:0 447:0 448:0 449:1 450:0 451:0 452:0 453:1 454:0 455:0 456:0 457:0 458:0 459:0 460:0 461:0 462:0 463:0 464:0 465:1 466:1 467:1 468:0 469:0 470:0 471:0 472:0 473:1 474:0 475:0 476:0 477:0 478:0 479:0 480:0 481:0 482:0 483:0 484:0 485:0 486:0 487:0 488:0 489:0 490:0 491:0 492:0 493:1 494:0 495:0 496:0 497:0 498:0 499:0 500:0 501:0 502:0 503:2 504:0 505:0 506:0 507:0 508:0 509:0 510:0 511:0 512:0 513:0 514:0 515:1 516:0 517:0 518:0 519:0 520:1 521:0 522:0 523:0 524:0 525:0 526:0 527:0 528:0 529:0 530:0 531:0 532:0 533:0 534:1 535:0 536:0 537:0 538:1 539:1 540:0 541:0 542:0 543:0 544:0 545:0 546:0 547:0 548:0 
0.002421821606945101 0.01177093121974019 0.001142072295442623 1:3400 2:0 3:0 4:0 5:0 6:0 7:0 8:0 9:0 10:0 11:0 12:0 13:0 14:0 15:0 16:0 17:0 18:0 19:0 20:0 21:0 22:0 23:0 24:0 25:0 26:0 27:0 28:0 29:0 30:0 31:0 32:0 33:0 34:0 35:0 36:0 37:0 38:0 39:0 40:0 41:0 42:0 43:0 44:0 45:0 46:0 47:0 48:0 49:0 50:0 51:0 52:0 53:0 54:0 55:0 56:0 57:0 58:0 59:0 60:0 61:0 62:0 63:0 64:0 65:0 66:0 67:0 68:0 69:0 70:0 71:0 72:0 73:0 74:0 75:0 76:0 77:0 78:0 79:0 80:0 81:0 82:0 83:0 84:0 85:0 86:0 87:0 88:0 89:0 90:0 91:0 92:0 93:0 94:0 95:0 96:0 97:0 98:0 99:0 100:0 101:0 102:0 103:0 104:0 105:0 106:0 107:0 108:0 109:0 110:0 111:0 112:0 113:0 114:0 115:0 116:0 117:0 118:0 119:0 120:0 121:0 122:0 123:0 124:0 125:0 126:0 127:0 128:0 129:0 130:0 131:0 132:0 133:0 134:0 135:0 136:0 137:0 138:0 139:0 140:0 141:0 142:0 143:0 144:0 145:0 146:0 147:0 148:0 149:0 150:0 151:0 152:0 153:0 154:0 155:0 156:0 157:0 158:0 159:0 160:0 161:0 162:0 163:0 164:0 165:0 166:0 167:0 168:0 169:0 170:0 171:0 172:0 173:0 174:0 175:0 176:0 177:0 178:0 179:0 180:0 181:0 182:0 183:0 184:0 185:0 186:0 187:0 188:0 189:0 190:0 191:0 192:0 193:0 194:0 195:0 196:0 197:0 198:0 199:0 200:0 201:0 202:0 203:0 204:0 205:0 206:0 207:0 208:0 209:0 210:0 211:0 212:0 213:0 214:0 215:0 216:0 217:0 218:0 219:0 220:0 221:0 222:0 223:0 224:0 225:0 226:0 227:0 228:0 229:0 230:0 231:0 232:0 233:0 234:0 235:0 236:0 237:0 238:0 239:0 240:0 241:0 242:0 243:0 244:0 245:0 246:0 247:0 248:0 249:0 250:0 251:0 252:0 253:0 254:0 255:0 256:0 257:127.8751 258:74.182041 259:200 260:255 261:0 262:0 263:0 264:1 265:0 266:0 267:1 268:1 269:0 270:0 271:0 272:1 273:0 274:0 275:1 276:0 277:4 278:0 279:0 280:4 281:0 282:2 283:0 284:0 285:0 286:0 287:0 288:0 289:0 290:1 291:0 292:0 293:1 294:0 295:2 296:3 297:1 298:1 299:0 300:0 301:0 302:0 303:0 304:0 305:0 306:0 307:0 308:0 309:0 310:0 311:2 312:1 313:2 314:1 315:0 316:0 317:0 318:0 319:0 320:0 321:0 322:0 323:0 324:0 325:0 326:0 327:0 328:1 329:1 330:2 331:1 332:0 333:0 334:0 335:0 336:0 337:0 338:0 339:0 340:0 341:0 342:0 343:0 344:0 345:0 346:1 347:0 348:0 349:0 350:0 351:1 352:1 353:1 354:0 355:1 356:1 357:0 358:1 359:1 360:0 361:0 362:0 363:0 364:0 365:0 366:0 367:1 368:1 369:1 370:0 371:1 372:0 373:0 374:0 375:0 376:1 377:0 378:0 379:0 380:1 381:2 382:0 383:0 384:0 385:1 386:1 387:0 388:0 389:0 390:0 391:0 392:0 393:0 394:0 395:0 396:1 397:1 398:0 399:0 400:0 401:0 402:1 403:0 404:1 405:0 406:0 407:0 408:0 409:0 410:0 411:0 412:0 413:1 414:1 415:0 416:0 417:0 418:0 419:0 420:0 421:0 422:1 423:0 424:0 425:1 426:0 427:0 428:0 429:0 430:0 431:1 432:0 433:0 434:0 435:0 436:0 437:1 438:1 439:0 440:0 441:0 442:0 443:0 444:0 445:0 446:0 447:1 448:1 449:0 450:0 451:0 452:1 453:0 454:0 455:0 456:1 457:0 458:0 459:0 460:0 461:0 462:0 463:0 464:1 465:0 466:0 467:0 468:0 469:0 470:0 471:0 472:0 473:0 474:0 475:1 476:0 477:0 478:0 479:0 480:0 481:0 482:0 483:0 484:0 485:0 486:0 487:1 488:0 489:1 490:0 491:0 492:0 493:0 494:1 495:0 496:0 497:0 498:1 499:0 500:1 501:1 502:1 503:1 504:0 505:0 506:0 507:0 508:0 509:0 510:0 511:0 512:0 513:0 514:0 515:0 516:0 517:0 518:1 519:0 520:1 521:1 522:0 523:0 524:0 525:0 526:0 527:0 528:0 529:0 530:0 531:0 532:0 533:0 534:1 535:0 536:2 537:1 538:0 539:0 540:0 541:0 542:0 543:0 544:0 545:0 546:0 547:0 548:0 
0.003185420373541246 0 0 1:3400 2:0 3:0 4:0 5:0 6:0 7:0 8:0 9:0 10:0 11:0 12:0 13:0 14:0 15:0 16:0 17:0 18:0 19:0 20:0 21:0 22:0 23:0 24:0 25:0 26:0 27:0 28:0 29:0 30:0 31:0 32:0 33:0 34:0 35:0 36:0 37:0 38:0 39:0 40:0 41:0 42:0 43:0 44:0 45:0 46:0 47:0 48:0 49:0 50:0 51:0 52:0 53:0 54:0 55:0 56:0 57:0 58:0 59:0 60:0 61:0 62:0 63:0 64:0 65:0 66:0 67:0 68:0 69:0 70:0 71:0 72:0 73:0 74:0 75:0 76:0 77:0 78:0 79:0 80:0 81:0 82:0 83:0 84:0 85:0 86:0 87:0 88:0 89:0 90:0 91:0 92:0 93:0 94:0 95:0 96:0 97:0 98:0 99:0 100:0 101:0 102:0 103:0 104:0 105:0 106:0 107:0 108:0 109:0 110:0 111:0 112:0 113:0 114:0 115:0 116:0 117:0 118:0 119:0 120:0 121:0 122:0 123:0 124:0 125:0 126:0 127:0 128:0 129:0 130:0 131:0 132:0 133:0 134:0 135:0 136:0 137:0 138:0 139:0 140:0 141:0 142:0 143:0 144:0 145:0 146:0 147:0 148:0 149:0 150:0 151:0 152:0 153:0 154:0 155:0 156:0 157:0 158:0 159:0 160:0 161:0 162:0 163:0 164:0 165:0 166:0 167:0 168:0 169:0 170:0 171:0 172:0 173:0 174:0 175:0 176:0 177:0 178:0 179:0 180:0 181:0 182:0 183:0 184:0 185:0 186:0 187:0 188:0 189:0 190:0 191:0 192:0 193:0 194:0 195:0 196:0 197:0 198:0 199:0 200:0 201:0 202:0 203:0 204:0 205:0 206:0 207:0 208:0 209:0 210:0 211:0 212:0 213:0 214:0 215:0 216:0 217:0 218:0 219:0 220:0 221:0 222:0 223:0 224:0 225:0 226:0 227:0 228:0 229:0 230:0 231:0 232:0 233:0 234:0 235:0 236:0 237:0 238:0 239:0 240:0 241:0 242:0 243:0 244:0 245:0 246:0 247:0 248:0 249:0 250:0 251:0 252:0 253:0 254:0 255:0 256:0 257:127.42531 258:74.476735 259:200 260:255 261:2 262:0 263:1 264:0 265:1 266:0 267:0 268:0 269:0 270:0 271:0 272:0 273:0 274:0 275:0 276:1 277:9 278:0 279:0 280:0 281:0 282:0 283:1 284:0 285:0 286:0 287:0 288:0 289:0 290:0 291:0 292:0 293:0 294:0 295:0 296:2 297:0 298:2 299:0 300:0 301:0 302:0 303:0 304:0 305:0 306:0 307:0 308:0 309:0 310:0 311:5 312:1 313:0 314:1 315:0 316:0 317:0 318:1 319:0 320:1 321:0 322:0 323:0 324:0 325:0 326:0 327:0 328:0 329:1 330:0 331:0 332:0 333:0 334:1 335:1 336:0 337:0 338:0 339:0 340:0 341:0 342:0 343:0 344:0 345:0 346:1 347:0 348:1 349:0 350:0 351:0 352:0 353:0 354:0 355:0 356:0 357:0 358:0 359:0 360:0 361:0 362:3 363:0 364:0 365:0 366:0 367:0 368:0 369:0 370:0 371:0 372:0 373:0 374:0 375:0 376:0 377:0 378:0 379:2 380:0 381:1 382:0 383:0 384:0 385:0 386:0 387:0 388:0 389:1 390:1 391:0 392:1 393:0 394:0 395:0 396:0 397:0 398:0 399:0 400:0 401:1 402:1 403:0 404:0 405:1 406:0 407:0 408:0 409:0 410:0 411:0 412:0 413:1 414:2 415:0 416:1 417:1 418:0 419:0 420:1 421:1 422:0 423:0 424:0 425:0 426:0 427:0 428:0 429:0 430:0 431:0 432:0 433:0 434:0 435:0 436:2 437:0 438:0 439:0 440:0 441:0 442:1 443:0 444:0 445:0 446:0 447:0 448:0 449:1 450:0 451:1 452:0 453:0 454:1 455:0 456:0 457:1 458:0 459:0 460:0 461:0 462:0 463:0 464:0 465:0 466:0 467:0 468:1 469:0 470:0 471:0 472:0 473:0 474:0 475:0 476:0 477:0 478:0 479:0 480:0 481:0 482:1 483:0 484:0 485:1 486:1 487:0 488:0 489:0 490:0 491:0 492:0 493:0 494:0 495:0 496:0 497:0 498:1 499:1 500:0 501:2 502:0 503:1 504:0 505:0 506:0 507:0 508:0 509:0 510:0 511:0 512:0 513:0 514:0 515:0 516:0 517:1 518:0 519:0 520:0 521:1 522:0 523:0 524:0 525:0 526:0 527:0 528:0 529:0 530:0 531:0 532:1 533:0 534:0 535:0 536:1 537:0 538:0 539:1 540:1 541:0 542:0 543:0 544:0 545:0 546:0 547:0 548:0 
0.005156812003340798 0.000776370137968935 0 1:3400 2:0 3:0 4:0 5:0 6:0 7:0 8:0 9:0 10:0 11:0 12:0 13:0 14:0 15:0 16:0 17:0 18:0 19:0 20:0 21:0 22:0 23:0 24:0 25:0 26:0 27:0 28:0 29:0 30:0 31:0 32:0 33:0 34:0 35:0 36:0 37:0 38:0 39:0 40:0 41:0 42:0 43:0 44:0 45:0 46:0 47:0 48:0 49:0 50:0 51:0 52:0 53:0 54:0 55:0 56:0 57:0 58:0 59:0 60:0 61:0 62:0 63:0 64:0 65:0 66:0 67:0 68:0 69:0 70:0 71:0 72:0 73:0 74:0 75:0 76:0 77:0 78:0 79:0 80:0 81:0 82:0 83:0 84:0 85:0 86:0 87:0 88:0 89:0 90:0 91:0 92:0 93:0 94:0 95:0 96:0 97:0 98:0 99:0 100:0 101:0 102:0 103:0 104:0 105:0 106:0 107:0 108:0 109:0 110:0 111:0 112:0 113:0 114:0 115:0 116:0 117:0 118:0 119:0 120:0 121:0 122:0 123:0 124:0 125:0 126:0 127:0 128:0 129:0 130:0 131:0 132:0 133:0 134:0 135:0 136:0 137:0 138:0 139:0 140:0 141:0 142:0 143:0 144:0 145:0 146:0 147:0 148:0 149:0 150:0 151:0 152:0 153:0 154:0 155:0 156:0 157:0 158:0 159:0 160:0 161:0 162:0 163:0 164:0 165:0 166:0 167:0 168:0 169:0 170:0 171:0 172:0 173:0 174:0 175:0 176:0 177:0 178:0 179:0 180:0 181:0 182:0 183:0 184:0 185:0 186:0 187:0 188:0 189:0 190:0 191:0 192:0 193:0 194:0 195:0 196:0 197:0 198:0 199:0 200:0 201:0 202:0 203:0 204:0 205:0 206:0 207:0 208:0 209:0 210:0 211:0 212:0 213:0 214:0 215:0 216:0 217:0 218:0 219:0 220:0 221:0 222:0 223:0 224:0 225:0 226:0 227:0 228:0 229:0 230:0 231:0 232:0 233:0 234:0 235:0 236:0 237:0 238:0 239:0 240:0 241:0 242:0 243:0 244:0 245:0 246:0 247:0 248:0 249:0 250:0 251:0 252:0 253:0 254:0 255:0 256:0 257:126.52408 258:74.770612 259:200 260:255 261:2 262:2 263:0 264:1 265:0 266:0 267:0 268:0 269:0 270:0 271:0 272:0 273:0 274:0 275:0 276:0 277:5 278:0 279:2 280:0 281:0 282:2 283:3 284:1 285:0 286:0 287:0 288:0 289:1 290:0 291:0 292:0 293:0 294:0 295:0 296:0 297:0 298:0 299:0 300:0 301:1 302:0 303:0 304:0 305:0 306:0 307:0 308:0 309:1 310:0 311:1 312:1 313:2 314:0 315:0 316:0 317:0 318:0 319:0 320:0 321:1 322:1 323:0 324:0 325:0 326:0 327:0 328:0 329:2 330:2 331:0 332:0 333:3 334:0 335:0 336:0 337:2 338:1 339:0 340:0 341:0 342:1 343:0 344:0 345:0 346:0 347:2 348:0 349:2 350:0 351:1 352:2 353:0 354:0 355:0 356:0 357:0 358:0 359:0 360:0 361:0 362:2 363:1 364:0 365:0 366:1 367:0 368:0 369:0 370:0 371:1 372:1 373:0 374:0 375:0 376:0 377:0 378:0 379:0 380:1 381:0 382:1 383:1 384:0 385:0 386:0 387:0 388:1 389:1 390:0 391:1 392:0 393:0 394:0 395:0 396:1 397:0 398:0 399:0 400:1 401:0 402:0 403:2 404:0 405:0 406:0 407:1 408:0 409:0 410:0 411:0 412:1 413:1 414:0 415:0 416:0 417:1 418:2 419:1 420:0 421:0 422:0 423:0 424:0 425:0 426:0 427:0 428:0 429:0 430:0 431:0 432:1 433:0 434:0 435:0 436:1 437:1 438:1 439:0 440:0 441:0 442:0 443:0 444:0 445:0 446:1 447:0 448:0 449:1 450:1 451:0 452:1 453:1 454:0 455:0 456:0 457:0 458:0 459:0 460:0 461:0 462:0 463:0 464:0 465:0 466:0 467:1 468:1 469:0 470:0 471:0 472:0 473:0 474:0 475:1 476:0 477:0 478:0 479:0 480:0 481:0 482:1 483:2 484:0 485:1 486:0 487:1 488:0 489:0 490:0 491:0 492:0 493:0 494:0 495:0 496:0 497:0 498:1 499:1 500:0 501:0 502:1 503:0 504:1 505:0 506:0 507:0 508:0 509:0 510:0 511:0 512:0 513:0 514:0 515:0 516:0 517:2 518:1 519:0 520:1 521:1 522:0 523:0 524:1 525:0 526:1 527:0 528:0 529:0 530:1 531:1 532:2 533:2 534:1 535:0 536:0 537:1 538:0 539:0 540:1 541:0 542:1 543:1 544:0 545:0 546:1 547:0 548:0 
0.003784567476431439 0.002639455350165533 0.002075305926157546 1:3400 2:0 3:0 4:0 5:0 6:0 7:0 8:0 9:0 10:0 11:0 12:0 13:0 14:0 15:0 16:0 17:0 18:0 19:0 20:0 21:0 22:0 23:0 24:0 25:0 26:0 27:0 28:0 29:0 30:0 31:0 32:0 33:0 34:0 35:0 36:0 37:0 38:0 39:0 40:0 41:0 42:0 43:0 44:0 45:0 46:0 47:0 48:0 49:0 50:0 51:0 52:0 53:0 54:0 55:0 56:0 57:0 58:0 59:0 60:0 61:0 62:0 63:0 64:0 65:0 66:0 67:0 68:0 69:0 70:0 71:0 72:0 73:0 74:0 75:0 76:0 77:0 78:0 79:0 80:0 81:0 82:0 83:0 84:0 85:0 86:0 87:0 88:0 89:0 90:0 91:0 92:0 93:0 94:0 95:0 96:0 97:0 98:0 99:0 100:0 101:0 102:0 103:0 104:0 105:0 106:0 107:0 108:0 109:0 110:0 111:0 112:0 113:0 114:0 115:0 116:0 117:0 118:0 119:0 120:0 121:0 122:0 123:0 124:0 125:0 126:0 127:0 128:0 129:0 130:0 131:0 132:0 133:0 134:0 135:0 136:0 137:0 138:0 139:0 140:0 141:0 142:0 143:0 144:0 145:0 146:0 147:0 148:0 149:0 150:0 151:0 152:0 153:0 154:0 155:0 156:0 157:0 158:0 159:0 160:0 161:0 162:0 163:0 164:0 165:0 166:0 167:0 168:0 169:0 170:0 171:0 172:0 173:0 174:0 175:0 176:0 177:0 178:0 179:0 180:0 181:0 182:0 183:0 184:0 185:0 186:0 187:0 188:0 189:0 190:0 191:0 192:0 193:0 194:0 195:0 196:0 197:0 198:0 199:0 200:0 201:0 202:0 203:0 204:0 205:0 206:0 207:0 208:0 209:0 210:0 211:0 212:0 213:0 214:0 215:0 216:0 217:0 218:0 219:0 220:0 221:0 222:0 223:0 224:0 225:0 226:0 227:0 228:0 229:0 230:0 231:0 232:0 233:0 234:0 235:0 236:0 237:0 238:0 239:0 240:0 241:0 242:0 243:0 244:0 245:0 246:0 247:0 248:0 249:0 250:0 251:0 252:0 253:0 254:0 255:0 256:0 257:125.65878 258:74.136327 259:200 260:255 261:0 262:0 263:0 264:1 265:3 266:2 267:2 268:0 269:0 270:1 271:0 272:0 273:1 274:0 275:0 276:1 277:4 278:2 279:0 280:0 281:1 282:4 283:0 284:0 285:0 286:0 287:0 288:2 289:2 290:1 291:0 292:0 293:0 294:3 295:0 296:0 297:0 298:0 299:2 300:2 301:0 302:0 303:0 304:0 305:0 306:1 307:0 308:0 309:0 310:0 311:8 312:8 313:0 314:0 315:0 316:0 317:1 318:0 319:0 320:0 321:0 322:1 323:0 324:0 325:0 326:0 327:1 328:0 329:0 330:2 331:1 332:0 333:0 334:0 335:0 336:0 337:1 338:0 339:0 340:0 341:0 342:0 343:0 344:0 345:1 346:0 347:0 348:0 349:0 350:0 351:0 352:0 353:2 354:2 355:0 356:0 357:0 358:0 359:0 360:1 361:0 362:2 363:0 364:0 365:4 366:0 367:0 368:0 369:0 370:2 371:2 372:0 373:0 374:0 375:1 376:1 377:0 378:0 379:0 380:0 381:0 382:2 383:3 384:2 385:0 386:0 387:2 388:2 389:0 390:0 391:1 392:0 393:1 394:0 395:0 396:1 397:0 398:0 399:2 400:0 401:0 402:2 403:0 404:1 405:1 406:0 407:0 408:0 409:0 410:1 411:0 412:0 413:2 414:0 415:0 416:0 417:3 418:0 419:0 420:2 421:2 422:2 423:0 424:0 425:1 426:0 427:0 428:0 429:0 430:3 431:1 432:0 433:0 434:0 435:2 436:0 437:0 438:3 439:2 440:0 441:0 442:1 443:0 444:0 445:0 446:0 447:0 448:1 449:0 450:2 451:0 452:0 453:1 454:0 455:1 456:1 457:1 458:0 459:1 460:0 461:1 462:0 463:0 464:0 465:0 466:0 467:1 468:0 469:1 470:0 471:0 472:0 473:0 474:1 475:0 476:0 477:0 478:0 479:0 480:0 481:0 482:0 483:0 484:1 485:1 486:0 487:0 488:0 489:0 490:0 491:0 492:1 493:0 494:1 495:1 496:0 497:0 498:0 499:0 500:2 501:3 502:1 503:0 504:0 505:0 506:0 507:0 508:0 509:1 510:0 511:1 512:0 513:0 514:0 515:0 516:2 517:1 518:0 519:1 520:0 521:0 522:3 523:0 524:0 525:1 526:0 527:0 528:0 529:0 530:0 531:0 532:2 533:0 534:0 535:0 536:0 537:1 538:1 539:0 540:0 541:0 542:1 543:1 544:0 545:0 546:0 547:0 548:0 
0.002807145891776873 0 0 1:3400 2:0 3:0 4:0 5:0 6:0 7:0 8:0 9:0 10:0 11:0 12:0 13:0 14:0 15:0 16:0 17:0 18:0 19:0 20:0 21:0 22:0 23:0 24:0 25:0 26:0 27:0 28:0 29:0 30:0 31:0 32:0 33:0 34:0 35:0 36:0 37:0 38:0 39:0 40:0 41:0 42:0 43:0 44:0 45:0 46:0 47:0 48:0 49:0 50:0 51:0 52:0 53:0 54:0 55:0 56:0 57:0 58:0 59:0 60:0 61:0 62:0 63:0 64:0 65:0 66:0 67:0 68:0 69:0 70:0 71:0 72:0 73:0 74:0 75:0 76:0 77:0 78:0 79:0 80:0 81:0 82:0 83:0 84:0 85:0 86:0 87:0 88:0 89:0 90:0 91:0 92:0 93:0 94:0 95:0 96:0 97:0 98:0 99:0 100:0 101:0 102:0 103:0 104:0 105:0 106:0 107:0 108:0 109:0 110:0 111:0 112:0 113:0 114:0 115:0 116:0 117:0 118:0 119:0 120:0 121:0 122:0 123:0 124:0 125:0 126:0 127:0 128:0 129:0 130:0 131:0 132:0 133:0 134:0 135:0 136:0 137:0 138:0 139:0 140:0 141:0 142:0 143:0 144:0 145:0 146:0 147:0 148:0 149:0 150:0 151:0 152:0 153:0 154:0 155:0 156:0 157:0 158:0 159:0 160:0 161:0 162:0 163:0 164:0 165:0 166:0 167:0 168:0 169:0 170:0 171:0 172:0 173:0 174:0 175:0 176:0 177:0 178:0 179:0 180:0 181:0 182:0 183:0 184:0 185:0 186:0 187:0 188:0 189:0 190:0 191:0 192:0 193:0 194:0 195:0 196:0 197:0 198:0 199:0 200:0 201:0 202:0 203:0 204:0 205:0 206:0 207:0 208:0 209:0 210:0 211:0 212:0 213:0 214:0 215:0 216:0 217:0 218:0 219:0 220:0 221:0 222:0 223:0 224:0 225:0 226:0 227:0 228:0 229:0 230:0 231:0 232:0 233:0 234:0 235:0 236:0 237:0 238:0 239:0 240:0 241:0 242:0 243:0 244:0 245:0 246:0 247:0 248:0 249:0 250:0 251:0 252:0 253:0 254:0 255:0 256:0 257:126.30776 258:74.570612 259:200 260:255 261:2 262:3 263:0 264:0 265:0 266:0 267:0 268:0 269:0 270:1 271:0 272:0 273:0 274:0 275:0 276:0 277:6 278:0 279:3 280:0 281:0 282:0 283:0 284:0 285:1 286:0 287:0 288:0 289:0 290:0 291:0 292:0 293:1 294:4 295:1 296:2 297:0 298:0 299:0 300:0 301:0 302:0 303:0 304:0 305:0 306:0 307:0 308:0 309:0 310:0 311:3 312:0 313:0 314:1 315:0 316:0 317:0 318:0 319:0 320:0 321:0 322:0 323:0 324:0 325:0 326:0 327:0 328:0 329:3 330:1 331:0 332:0 333:2 334:0 335:0 336:1 337:1 338:0 339:0 340:1 341:0 342:0 343:0 344:0 345:0 346:4 347:0 348:0 349:1 350:1 351:2 352:0 353:0 354:0 355:1 356:0 357:0 358:0 359:0 360:0 361:0 362:0 363:0 364:0 365:0 366:2 367:0 368:0 369:1 370:1 371:0 372:1 373:0 374:0 375:0 376:0 377:0 378:0 379:0 380:0 381:0 382:0 383:0 384:0 385:0 386:1 387:0 388:0 389:0 390:0 391:0 392:0 393:0 394:0 395:0 396:0 397:0 398:0 399:0 400:2 401:1 402:1 403:1 404:0 405:1 406:0 407:0 408:0 409:0 410:0 411:0 412:0 413:0 414:0 415:2 416:0 417:0 418:0 419:0 420:0 421:0 422:0 423:0 424:1 425:1 426:1 427:0 428:0 429:0 430:1 431:0 432:0 433:0 434:0 435:2 436:0 437:0 438:0 439:0 440:1 441:0 442:1 443:1 444:0 445:0 446:1 447:0 448:0 449:1 450:0 451:0 452:1 453:0 454:1 455:2 456:1 457:1 458:0 459:1 460:0 461:0 462:0 463:0 464:0 465:0 466:1 467:2 468:0 469:0 470:1 471:0 472:0 473:1 474:0 475:0 476:0 477:0 478:0 479:0 480:0 481:0 482:0 483:2 484:0 485:0 486:0 487:0 488:1 489:0 490:1 491:0 492:1 493:0 494:0 495:0 496:1 497:0 498:0 499:0 500:0 501:0 502:0 503:1 504:0 505:0 506:0 507:0 508:0 509:1 510:0 511:0 512:0 513:0 514:1 515:2 516:0 517:0 518:0 519:0 520:0 521:0 522:1 523:0 524:0 525:0 526:0 527:0 528:0 529:0 530:0 531:0 532:1 533:0 534:0 535:0 536:0 537:0 538:0 539:0 540:0 541:0 542:0 543:0 544:0 545:0 546:0 547:0 548:0 
0 0.003134949656157396 0.002858925562829327 1:3400 2:0 3:0 4:0 5:0 6:0 7:0 8:0 9:0 10:0 11:0 12:0 13:0 14:0 15:0 16:0 17:0 18:0 19:0 20:0 21:0 22:0 23:0 24:0 25:0 26:0 27:0 28:0 29:0 30:0 31:0 32:0 33:0 34:0 35:0 36:0 37:0 38:0 39:0 40:0 41:0 42:0 43:0 44:0 45:0 46:0 47:0 48:0 49:0 50:0 51:0 52:0 53:0 54:0 55:0 56:0 57:0 58:0 59:0 60:0 61:0 62:0 63:0 64:0 65:0 66:0 67:0 68:0 69:0 70:0 71:0 72:0 73:0 74:0 75:0 76:0 77:0 78:0 79:0 80:0 81:0 82:0 83:0 84:0 85:0 86:0 87:0 88:0 89:0 90:0 91:0 92:0 93:0 94:0 95:0 96:0 97:0 98:0 99:0 100:0 101:0 102:0 103:0 104:0 105:0 106:0 107:0 108:0 109:0 110:0 111:0 112:0 113:0 114:0 115:0 116:0 117:0 118:0 119:0 120:0 121:0 122:0 123:0 124:0 125:0 126:0 127:0 128:0 129:0 130:0 131:0 132:0 133:0 134:0 135:0 136:0 137:0 138:0 139:0 140:0 141:0 142:0 143:0 144:0 145:0 146:0 147:0 148:0 149:0 150:0 151:0 152:0 153:0 154:0 155:0 156:0 157:0 158:0 159:0 160:0 161:0 162:0 163:0 164:0 165:0 166:0 167:0 168:0 169:0 170:0 171:0 172:0 173:0 174:0 175:0 176:0 177:0 178:0 179:0 180:0 181:0 182:0 183:0 184:0 185:0 186:0 187:0 188:0 189:0 190:0 191:0 192:0 193:0 194:0 195:0 196:0 197:0 198:0 199:0 200:0 201:0 202:0 203:0 204:0 205:0 206:0 207:0 208:0 209:0 210:0 211:0 212:0 213:0 214:0 215:0 216:0 217:0 218:0 219:0 220:0 221:0 222:0 223:0 224:0 225:0 226:0 227:0 228:0 229:0 230:0 231:0 232:0 233:0 234:0 235:0 236:0 237:0 238:0 239:0 240:0 241:0 242:0 243:0 244:0 245:0 246:0 247:0 248:0 249:0 250:0 251:0 252:0 253:0 254:0 255:0 256:0 257:125.64 258:74.048163 259:200 260:255 261:0 262:1 263:4 264:0 265:2 266:0 267:0 268:0 269:0 270:1 271:0 272:0 273:0 274:1 275:0 276:0 277:0 278:2 279:1 280:0 281:0 282:0 283:3 284:0 285:0 286:0 287:0 288:1 289:0 290:0 291:0 292:0 293:0 294:4 295:0 296:4 297:0 298:0 299:0 300:1 301:0 302:0 303:1 304:0 305:0 306:0 307:0 308:0 309:0 310:0 311:6 312:0 313:0 314:0 315:0 316:1 317:0 318:0 319:0 320:0 321:0 322:0 323:0 324:0 325:0 326:1 327:0 328:0 329:4 330:0 331:0 332:0 333:1 334:0 335:0 336:3 337:0 338:0 339:1 340:0 341:0 342:1 343:1 344:0 345:0 346:4 347:0 348:0 349:1 350:1 351:0 352:2 353:1 354:0 355:0 356:1 357:0 358:0 359:0 360:0 361:0 362:0 363:0 364:1 365:0 366:1 367:0 368:0 369:0 370:2 371:0 372:1 373:1 374:0 375:0 376:0 377:0 378:0 379:0 380:0 381:2 382:0 383:0 384:1 385:0 386:0 387:1 388:0 389:0 390:0 391:1 392:0 393:0 394:0 395:0 396:1 397:3 398:0 399:1 400:0 401:0 402:2 403:0 404:1 405:0 406:0 407:0 408:0 409:1 410:0 411:0 412:0 413:0 414:2 415:0 416:3 417:0 418:0 419:0 420:0 421:2 422:0 423:0 424:0 425:1 426:0 427:0 428:0 429:0 430:1 431:0 432:1 433:0 434:1 435:0 436:0 437:0 438:1 439:0 440:1 441:0 442:0 443:0 444:0 445:0 446:0 447:0 448:0 449:2 450:1 451:0 452:0 453:0 454:0 455:0 456:0 457:0 458:0 459:0 460:0 461:0 462:0 463:0 464:2 465:0 466:0 467:0 468:0 469:0 470:0 471:0 472:0 473:1 474:0 475:0 476:0 477:0 478:0 479:0 480:0 481:0 482:1 483:0 484:1 485:1 486:1 487:0 488:0 489:0 490:0 491:0 492:0 493:0 494:0 495:0 496:0 497:0 498:1 499:2 500:0 501:0 502:0 503:1 504:0 505:0 506:0 507:0 508:0 509:0 510:0 511:0 512:0 513:1 514:0 515:0 516:0 517:0 518:1 519:1 520:0 521:0 522:0 523:0 524:0 525:0 526:1 527:0 528:1 529:0 530:0 531:0 532:1 533:0 534:1 535:0 536:1 537:2 538:0 539:0 540:0 541:0 542:0 543:0 544:0 545:0 546:0 547:0 548:0 
0.0001065993702555215 0.00924145914961034 0 1:3400 2:0 3:0 4:0 5:0 6:0 7:0 8:0 9:0 10:0 11:0 12:0 13:0 14:0 15:0 16:0 17:0 18:0 19:0 20:0 21:0 22:0 23:0 24:0 25:0 26:0 27:0 28:0 29:0 30:0 31:0 32:0 33:0 34:0 35:0 36:0 37:0 38:0 39:0 40:0 41:0 42:0 43:0 44:0 45:0 46:0 47:0 48:0 49:0 50:0 51:0 52:0 53:0 54:0 55:0 56:0 57:0 58:0 59:0 60:0 61:0 62:0 63:0 64:0 65:0 66:0 67:0 68:0 69:0 70:0 71:0 72:0 73:0 74:0 75:0 76:0 77:0 78:0 79:0 80:0 81:0 82:0 83:0 84:0 85:0 86:0 87:0 88:0 89:0 90:0 91:0 92:0 93:0 94:0 95:0 96:0 97:0 98:0 99:0 100:0 101:0 102:0 103:0 104:0 105:0 106:0 107:0 108:0 109:0 110:0 111:0 112:0 113:0 114:0 115:0 116:0 117:0 118:0 119:0 120:0 121:0 122:0 123:0 124:0 125:0 126:0 127:0 128:0 129:0 130:0 131:0 132:0 133:0 134:0 135:0 136:0 137:0 138:0 139:0 140:0 141:0 142:0 143:0 144:0 145:0 146:0 147:0 148:0 149:0 150:0 151:0 152:0 153:0 154:0 155:0 156:0 157:0 158:0 159:0 160:0 161:0 162:0 163:0 164:0 165:0 166:0 167:0 168:0 169:0 170:0 171:0 172:0 173:0 174:0 175:0 176:0 177:0 178:0 179:0 180:0 181:0 182:0 183:0 184:0 185:0 186:0 187:0 188:0 189:0 190:0 191:0 192:0 193:0 194:0 195:0 196:0 197:0 198:0 199:0 200:0 201:0 202:0 203:0 204:0 205:0 206:0 207:0 208:0 209:0 210:0 211:0 212:0 213:0 214:0 215:0 216:0 217:0 218:0 219:0 220:0 221:0 222:0 223:0 224:0 225:0 226:0 227:0 228:0 229:0 230:0 231:0 232:0 233:0 234:0 235:0 236:0 237:0 238:0 239:0 240:0 241:0 242:0 243:0 244:0 245:0 246:0 247:0 248:0 249:0 250:0 251:0 252:0 253:0 254:0 255:0 256:0 257:124.56653 258:72.560816 259:200 260:255 261:0 262:8 263:0 264:3 265:0 266:2 267:0 268:3 269:0 270:1 271:0 272:2 273:0 274:1 275:0 276:0 277:0 278:3 279:0 280:0 281:4 282:0 283:1 284:0 285:2 286:0 287:2 288:0 289:1 290:0 291:0 292:0 293:1 294:9 295:1 296:0 297:1 298:0 299:1 300:0 301:2 302:1 303:2 304:0 305:0 306:0 307:1 308:0 309:0 310:0 311:0 312:6 313:0 314:1 315:0 316:1 317:1 318:0 319:0 320:2 321:0 322:1 323:0 324:0 325:0 326:0 327:0 328:0 329:3 330:0 331:0 332:0 333:1 334:0 335:0 336:0 337:0 338:0 339:0 340:1 341:0 342:0 343:1 344:0 345:1 346:0 347:0 348:2 349:0 350:1 351:1 352:0 353:1 354:0 355:1 356:0 357:1 358:0 359:0 360:0 361:0 362:0 363:0 364:1 365:0 366:0 367:3 368:0 369:0 370:0 371:0 372:1 373:0 374:1 375:0 376:0 377:0 378:0 379:0 380:0 381:1 382:2 383:0 384:1 385:0 386:0 387:0 388:0 389:0 390:0 391:0 392:1 393:0 394:0 395:0 396:0 397:1 398:0 399:2 400:0 401:0 402:0 403:0 404:0 405:0 406:0 407:0 408:0 409:0 410:1 411:0 412:0 413:2 414:0 415:0 416:1 417:2 418:0 419:0 420:0 421:0 422:1 423:0 424:0 425:0 426:0 427:0 428:0 429:0 430:0 431:0 432:0 433:0 434:0 435:0 436:0 437:0 438:1 439:1 440:0 441:0 442:0 443:0 444:0 445:0 446:0 447:0 448:0 449:0 450:0 451:0 452:0 453:0 454:1 455:0 456:0 457:1 458:0 459:0 460:0 461:0 462:0 463:0 464:0 465:0 466:0 467:1 468:0 469:1 470:0 471:0 472:0 473:0 474:0 475:0 476:0 477:0 478:0 479:0 480:0 481:1 482:0 483:3 484:0 485:1 486:0 487:1 488:0 489:0 490:1 491:0 492:1 493:0 494:1 495:0 496:0 497:0 498:1 499:1 500:1 501:0 502:0 503:0 504:0 505:1 506:0 507:1 508:0 509:0 510:0 511:0 512:0 513:1 514:0 515:0 516:0 517:0 518:2 519:0 520:1 521:0 522:1 523:0 524:0 525:0 526:0 527:0 528:0 529:0 530:0 531:0 532:1 533:0 534:1 535:1 536:0 537:1 538:0 539:0 540:0 541:0 542:0 543:0 544:0 545:0 546:0 547:1 548:0 
0 0.008313963402733647 0.002358812503289621 1:3400 2:0 3:0 4:0 5:0 6:0 7:0 8:0 9:0 10:0 11:0 12:0 13:0 14:0 15:0 16:0 17:0 18:0 19:0 20:0 21:0 22:0 23:0 24:0 25:0 26:0 27:0 28:0 29:0 30:0 31:0 32:0 33:0 34:0 35:0 36:0 37:0 38:0 39:0 40:0 41:0 42:0 43:0 44:0 45:0 46:0 47:0 48:0 49:0 50:0 51:0 52:0 53:0 54:0 55:0 56:0 57:0 58:0 59:0 60:0 61:0 62:0 63:0 64:0 65:0 66:0 67:0 68:0 69:0 70:0 71:0 72:0 73:0 74:0 75:0 76:0 77:0 78:0 79:0 80:0 81:0 82:0 83:0 84:0 85:0 86:0 87:0 88:0 89:0 90:0 91:0 92:0 93:0 94:0 95:0 96:0 97:0 98:0 99:0 100:0 101:0 102:0 103:0 104:0 105:0 106:0 107:0 108:0 109:0 110:0 111:0 112:0 113:0 114:0 115:0 116:0 117:0 118:0 119:0 120:0 121:0 122:0 123:0 124:0 125:0 126:0 127:0 128:0 129:0 130:0 131:0 132:0 133:0 134:0 135:0 136:0 137:0 138:0 139:0 140:0 141:0 142:0 143:0 144:0 145:0 146:0 147:0 148:0 149:0 150:0 151:0 152:0 153:0 154:0 155:0 156:0 157:0 158:0 159:0 160:0 161:0 162:0 163:0 164:0 165:0 166:0 167:0 168:0 169:0 170:0 171:0 172:0 173:0 174:0 175:0 176:0 177:0 178:0 179:0 180:0 181:0 182:0 183:0 184:0 185:0 186:0 187:0 188:0 189:0 190:0 191:0 192:0 193:0 194:0 195:0 196:0 197:0 198:0 199:0 200:0 201:0 202:0 203:0 204:0 205:0 206:0 207:0 208:0 209:0 210:0 211:0 212:0 213:0 214:0 215:0 216:0 217:0 218:0 219:0 220:0 221:0 222:0 223:0 224:0 225:0 226:0 227:0 228:0 229:0 230:0 231:0 232:0 233:0 234:0 235:0 236:0 237:0 238:0 239:0 240:0 241:0 242:0 243:0 244:0 245:0 246:0 247:0 248:0 249:0 250:0 251:0 252:0 253:0 254:0 255:0 256:0 257:126.36 258:74.195918 259:200 260:255 261:4 262:1 263:0 264:0 265:0 266:0 267:0 268:0 269:0 270:0 271:0 272:0 273:0 274:0 275:0 276:0 277:8 278:2 279:0 280:0 281:2 282:1 283:0 284:0 285:0 286:1 287:1 288:0 289:0 290:1 291:0 292:0 293:0 294:0 295:0 296:4 297:1 298:2 299:0 300:1 301:0 302:0 303:1 304:0 305:0 306:0 307:0 308:0 309:0 310:0 311:0 312:0 313:2 314:0 315:0 316:0 317:0 318:0 319:0 320:0 321:1 322:0 323:1 324:0 325:0 326:0 327:0 328:2 329:3 330:0 331:0 332:2 333:0 334:0 335:2 336:0 337:1 338:0 339:0 340:0 341:0 342:0 343:0 344:0 345:1 346:0 347:0 348:0 349:2 350:0 351:0 352:3 353:0 354:1 355:0 356:0 357:0 358:0 359:0 360:0 361:0 362:0 363:1 364:1 365:2 366:0 367:1 368:2 369:1 370:0 371:1 372:0 373:0 374:0 375:0 376:0 377:0 378:0 379:2 380:2 381:0 382:0 383:2 384:1 385:0 386:0 387:0 388:1 389:0 390:0 391:0 392:0 393:0 394:0 395:0 396:2 397:0 398:1 399:1 400:0 401:0 402:0 403:0 404:1 405:0 406:0 407:1 408:0 409:1 410:0 411:0 412:0 413:0 414:0 415:0 416:2 417:1 418:3 419:0 420:0 421:1 422:0 423:1 424:0 425:0 426:0 427:0 428:0 429:0 430:2 431:0 432:0 433:1 434:0 435:0 436:0 437:0 438:0 439:1 440:0 441:1 442:0 443:1 444:0 445:0 446:0 447:0 448:1 449:0 450:0 451:1 452:0 453:0 454:0 455:0 456:0 457:0 458:0 459:0 460:0 461:0 462:0 463:1 464:1 465:0 466:0 467:0 468:3 469:1 470:0 471:0 472:1 473:0 474:0 475:1 476:0 477:0 478:0 479:0 480:0 481:0 482:0 483:0 484:0 485:0 486:0 487:0 488:0 489:0 490:0 491:0 492:1 493:0 494:0 495:0 496:0 497:1 498:1 499:0 500:1 501:1 502:0 503:0 504:0 505:0 506:0 507:0 508:0 509:0 510:0 511:1 512:0 513:0 514:0 515:0 516:0 517:0 518:2 519:1 520:0 521:1 522:1 523:0 524:0 525:0 526:0 527:0 528:0 529:0 530:0 531:0 532:0 533:2 534:0 535:0 536:0 537:0 538:0 539:1 540:0 541:0 542:0 543:0 544:0 545:0 546:0 547:0 548:0 
0.006645377544942658 0 0 1:3400 2:0 3:0 4:0 5:0 6:0 7:0 8:0 9:0 10:0 11:0 12:0 13:0 14:0 15:0 16:0 17:0 18:0 19:0 20:0 21:0 22:0 23:0 24:0 25:0 26:0 27:0 28:0 29:0 30:0 31:0 32:0 33:0 34:0 35:0 36:0 37:0 38:0 39:0 40:0 41:0 42:0 43:0 44:0 45:0 46:0 47:0 48:0 49:0 50:0 51:0 52:0 53:0 54:0 55:0 56:0 57:0 58:0 59:0 60:0 61:0 62:0 63:0 64:0 65:0 66:0 67:0 68:0 69:0 70:0 71:0 72:0 73:0 74:0 75:0 76:0 77:0 78:0 79:0 80:0 81:0 82:0 83:0 84:0 85:0 86:0 87:0 88:0 89:0 90:0 91:0 92:0 93:0 94:0 95:0 96:0 97:0 98:0 99:0 100:0 101:0 102:0 103:0 104:0 105:0 106:0 107:0 108:0 109:0 110:0 111:0 112:0 113:0 114:0 115:0 116:0 117:0 118:0 119:0 120:0 121:0 122:0 123:0 124:0 125:0 126:0 127:0 128:0 129:0 130:0 131:0 132:0 133:0 134:0 135:0 136:0 137:0 138:0 139:0 140:0 141:0 142:0 143:0 144:0 145:0 146:0 147:0 148:0 149:0 150:0 151:0 152:0 153:0 154:0 155:0 156:0 157:0 158:0 159:0 160:0 161:0 162:0 163:0 164:0 165:0 166:0 167:0 168:0 169:0 170:0 171:0 172:0 173:0 174:0 175:0 176:0 177:0 178:0 179:0 180:0 181:0 182:0 183:0 184:0 185:0 186:0 187:0 188:0 189:0 190:0 191:0 192:0 193:0 194:0 195:0 196:0 197:0 198:0 199:0 200:0 201:0 202:0 203:0 204:0 205:0 206:0 207:0 208:0 209:0 210:0 211:0 212:0 213:0 214:0 215:0 216:0 217:0 218:0 219:0 220:0 221:0 222:0 223:0 224:0 225:0 226:0 227:0 228:0 229:0 230:0 231:0 232:0 233:0 234:0 235:0 236:0 237:0 238:0 239:0 240:0 241:0 242:0 243:0 244:0 245:0 246:0 247:0 248:0 249:0 250:0 251:0 252:0 253:0 254:0 255:0 256:0 257:125.9502 258:74.488163 259:200 260:255 261:0 262:1 263:0 264:0 265:0 266:0 267:1 268:0 269:0 270:0 271:1 272:0 273:0 274:0 275:0 276:0 277:5 278:0 279:1 280:2 281:0 282:0 283:0 284:1 285:1 286:1 287:0 288:0 289:0 290:0 291:0 292:0 293:0 294:2 295:0 296:2 297:0 298:0 299:0 300:0 301:1 302:0 303:0 304:0 305:0 306:0 307:0 308:0 309:0 310:0 311:2 312:0 313:1 314:0 315:0 316:0 317:3 318:1 319:0 320:1 321:0 322:0 323:1 324:0 325:1 326:0 327:0 328:3 329:0 330:0 331:0 332:0 333:1 334:0 335:2 336:0 337:0 338:0 339:0 340:1 341:1 342:0 343:0 344:0 345:2 346:0 347:0 348:0 349:0 350:0 351:0 352:2 353:0 354:1 355:0 356:1 357:0 358:0 359:0 360:0 361:0 362:0 363:0 364:0 365:1 366:1 367:0 368:0 369:0 370:0 371:3 372:0 373:0 374:0 375:0 376:0 377:0 378:0 379:0 380:1 381:1 382:0 383:0 384:0 385:1 386:0 387:0 388:0 389:0 390:0 391:0 392:0 393:0 394:0 395:1 396:1 397:0 398:0 399:2 400:0 401:1 402:0 403:0 404:0 405:2 406:0 407:0 408:0 409:0 410:0 411:0 412:0 413:0 414:0 415:0 416:0 417:0 418:1 419:0 420:1 421:0 422:0 423:0 424:1 425:0 426:0 427:0 428:0 429:0 430:4 431:1 432:0 433:0 434:1 435:0 436:0 437:0 438:0 439:0 440:0 441:1 442:0 443:0 444:0 445:0 446:0 447:1 448:1 449:1 450:1 451:0 452:0 453:0 454:1 455:2 456:0 457:1 458:1 459:0 460:0 461:0 462:0 463:0 464:0 465:0 466:0 467:0 468:0 469:2 470:0 471:0 472:1 473:0 474:0 475:1 476:0 477:0 478:0 479:0 480:0 481:0 482:1 483:0 484:0 485:0 486:0 487:0 488:0 489:1 490:0 491:2 492:1 493:0 494:0 495:0 496:0 497:0 498:1 499:0 500:0 501:0 502:0 503:0 504:0 505:0 506:1 507:0 508:0 509:1 510:1 511:0 512:0 513:0 514:0 515:0 516:1 517:0 518:0 519:0 520:0 521:0 522:0 523:0 524:1 525:0 526:0 527:0 528:0 529:0 530:0 531:0 532:0 533:1 534:0 535:0 536:0 537:0 538:0 539:0 540:0 541:0 542:0 543:0 544:0 545:0 546:0 547:0 548:1 
0.0005477943638333442 0 0.001368967402539637 1:3400 2:0 3:0 4:0 5:0 6:0 7:0 8:0 9:0 10:0 11:0 12:0 13:0 14:0 15:0 16:0 17:0 18:0 19:0 20:0 21:0 22:0 23:0 24:0 25:0 26:0 27:0 28:0 29:0 30:0 31:0 32:0 33:0 34:0 35:0 36:0 37:0 38:0 39:0 40:0 41:0 42:0 43:0 44:0 45:0 46:0 47:0 48:0 49:0 50:0 51:0 52:0 53:0 54:0 55:0 56:0 57:0 58:0 59:0 60:0 61:0 62:0 63:0 64:0 65:0 66:0 67:0 68:0 69:0 70:0 71:0 72:0 73:0 74:0 75:0 76:0 77:0 78:0 79:0 80:0 81:0 82:0 83:0 84:0 85:0 86:0 87:0 88:0 89:0 90:0 91:0 92:0 93:0 94:0 95:0 96:0 97:0 98:0 99:0 100:0 101:0 102:0 103:0 104:0 105:0 106:0 107:0 108:0 109:0 110:0 111:0 112:0 113:0 114:0 115:0 116:0 117:0 118:0 119:0 120:0 121:0 122:0 123:0 124:0 125:0 126:0 127:0 128:0 129:0 130:0 131:0 132:0 133:0 134:0 135:0 136:0 137:0 138:0 139:0 140:0 141:0 142:0 143:0 144:0 145:0 146:0 147:0 148:0 149:0 150:0 151:0 152:0 153:0 154:0 155:0 156:0 157:0 158:0 159:0 160:0 161:0 162:0 163:0 164:0 165:0 166:0 167:0 168:0 169:0 170:0 171:0 172:0 173:0 174:0 175:0 176:0 177:0 178:0 179:0 180:0 181:0 182:0 183:0 184:0 185:0 186:0 187:0 188:0 189:0 190:0 191:0 192:0 193:0 194:0 195:0 196:0 197:0 198:0 199:0 200:0 201:0 202:0 203:0 204:0 205:0 206:0 207:0 208:0 209:0 210:0 211:0 212:0 213:0 214:0 215:0 216:0 217:0 218:0 219:0 220:0 221:0 222:0 223:0 224:0 225:0 226:0 227:0 228:0 229:0 230:0 231:0 232:0 233:0 234:0 235:0 236:0 237:0 238:0 239:0 240:0 241:0 242:0 243:0 244:0 245:0 246:0 247:0 248:0 249:0 250:0 251:0 252:0 253:0 254:0 255:0 256:0 257:126.11592 258:74.331429 259:200 260:255 261:23 262:17 263:0 264:0 265:0 266:2 267:2 268:0 269:2 270:0 271:0 272:0 273:0 274:0 275:0 276:0 277:0 278:0 279:3 280:0 281:0 282:0 283:2 284:3 285:0 286:0 287:0 288:0 289:0 290:0 291:1 292:0 293:0 294:0 295:0 296:0 297:0 298:0 299:3 300:0 301:1 302:1 303:0 304:0 305:0 306:0 307:0 308:1 309:2 310:1 311:6 312:5 313:0 314:0 315:0 316:0 317:0 318:2 319:0 320:0 321:0 322:1 323:0 324:0 325:0 326:1 327:1 328:0 329:1 330:0 331:0 332:0 333:0 334:0 335:0 336:0 337:1 338:0 339:0 340:0 341:0 342:0 343:1 344:0 345:0 346:3 347:0 348:0 349:0 350:0 351:1 352:0 353:0 354:0 355:1 356:0 357:0 358:0 359:0 360:1 361:0 362:2 363:9 364:1 365:4 366:0 367:0 368:1 369:0 370:0 371:0 372:1 373:0 374:0 375:0 376:0 377:0 378:0 379:0 380:0 381:0 382:0 383:0 384:0 385:4 386:0 387:0 388:0 389:1 390:0 391:0 392:0 393:0 394:0 395:0 396:0 397:3 398:0 399:0 400:4 401:3 402:2 403:1 404:0 405:0 406:2 407:0 408:0 409:0 410:0 411:0 412:0 413:1 414:0 415:2 416:2 417:0 418:0 419:1 420:0 421:0 422:2 423:0 424:1 425:0 426:0 427:0 428:0 429:0 430:0 431:1 432:0 433:0 434:0 435:0 436:0 437:3 438:0 439:0 440:0 441:2 442:1 443:1 444:0 445:0 446:0 447:0 448:3 449:0 450:2 451:3 452:1 453:0 454:0 455:1 456:0 457:0 458:0 459:1 460:0 461:0 462:0 463:0 464:2 465:2 466:2 467:0 468:0 469:0 470:0 471:0 472:0 473:0 474:0 475:1 476:1 477:0 478:0 479:0 480:0 481:0 482:0 483:2 484:0 485:1 486:1 487:0 488:0 489:0 490:0 491:1 492:0 493:0 494:0 495:1 496:0 497:0 498:4 499:0 500:3 501:0 502:0 503:1 504:1 505:0 506:0 507:0 508:0 509:1 510:0 511:0 512:1 513:1 514:0 515:2 516:1 517:1 518:0 519:0 520:1 521:0 522:0 523:0 524:1 525:0 526:0 527:0 528:0 529:0 530:0 531:0 532:1 533:0 534:0 535:0 536:0 537:0 538:1 539:1 540:0 541:0 542:0 543:1 544:0 545:0 546:1 547:1 548:0 
0.008233533122970794 0.009972137839824606 0 1:3400 2:0 3:0 4:0 5:0 6:0 7:0 8:0 9:0 10:0 11:0 12:0 13:0 14:0 15:0 16:0 17:0 18:0 19:0 20:0 21:0 22:0 23:0 24:0 25:0 26:0 27:0 28:0 29:0 30:0 31:0 32:0 33:0 34:0 35:0 36:0 37:0 38:0 39:0 40:0 41:0 42:0 43:0 44:0 45:0 46:0 47:0 48:0 49:0 50:0 51:0 52:0 53:0 54:0 55:0 56:0 57:0 58:0 59:0 60:0 61:0 62:0 63:0 64:0 65:0 66:0 67:0 68:0 69:0 70:0 71:0 72:0 73:0 74:0 75:0 76:0 77:0 78:0 79:0 80:0 81:0 82:0 83:0 84:0 85:0 86:0 87:0 88:0 89:0 90:0 91:0 92:0 93:0 94:0 95:0 96:0 97:0 98:0 99:0 100:0 101:0 102:0 103:0 104:0 105:0 106:0 107:0 108:0 109:0 110:0 111:0 112:0 113:0 114:0 115:0 116:0 117:0 118:0 119:0 120:0 121:0 122:0 123:0 124:0 125:0 126:0 127:0 128:0 129:0 130:0 131:0 132:0 133:0 134:0 135:0 136:0 137:0 138:0 139:0 140:0 141:0 142:0 143:0 144:0 145:0 146:0 147:0 148:0 149:0 150:0 151:0 152:0 153:0 154:0 155:0 156:0 157:0 158:0 159:0 160:0 161:0 162:0 163:0 164:0 165:0 166:0 167:0 168:0 169:0 170:0 171:0 172:0 173:0 174:0 175:0 176:0 177:0 178:0 179:0 180:0 181:0 182:0 183:0 184:0 185:0 186:0 187:0 188:0 189:0 190:0 191:0 192:0 193:0 194:0 195:0 196:0 197:0 198:0 199:0 200:0 201:0 202:0 203:0 204:0 205:0 206:0 207:0 208:0 209:0 210:0 211:0 212:0 213:0 214:0 215:0 216:0 217:0 218:0 219:0 220:0 221:0 222:0 223:0 224:0 225:0 226:0 227:0 228:0 229:0 230:0 231:0 232:0 233:0 234:0 235:0 236:0 237:0 238:0 239:0 240:0 241:0 242:0 243:0 244:0 245:0 246:0 247:0 248:0 249:0 250:0 251:0 252:0 253:0 254:0 255:0 256:0 257:125.77143 258:73.862041 259:200 260:255 261:5 262:0 263:0 264:5 265:0 266:0 267:1 268:1 269:0 270:0 271:0 272:0 273:0 274:0 275:0 276:0 277:5 278:5 279:0 280:0 281:3 282:0 283:0 284:0 285:0 286:2 287:0 288:0 289:1 290:0 291:0 292:1 293:0 294:0 295:8 296:6 297:1 298:2 299:2 300:1 301:0 302:0 303:0 304:0 305:0 306:1 307:0 308:0 309:0 310:0 311:0 312:1 313:0 314:0 315:2 316:0 317:0 318:0 319:0 320:0 321:1 322:0 323:0 324:1 325:0 326:1 327:0 328:0 329:0 330:0 331:0 332:1 333:3 334:2 335:2 336:1 337:0 338:0 339:0 340:0 341:0 342:0 343:0 344:1 345:0 346:3 347:2 348:0 349:1 350:3 351:1 352:0 353:0 354:0 355:1 356:0 357:1 358:0 359:0 360:0 361:0 362:2 363:0 364:0 365:0 366:0 367:0 368:0 369:0 370:0 371:0 372:0 373:1 374:0 375:0 376:0 377:0 378:0 379:0 380:0 381:0 382:0 383:2 384:0 385:2 386:2 387:1 388:0 389:0 390:0 391:0 392:0 393:0 394:0 395:0 396:0 397:0 398:2 399:0 400:0 401:0 402:1 403:0 404:0 405:1 406:1 407:1 408:0 409:0 410:0 411:0 412:0 413:0 414:0 415:0 416:0 417:0 418:1 419:2 420:0 421:0 422:1 423:0 424:0 425:0 426:1 427:0 428:0 429:0 430:1 431:0 432:1 433:3 434:0 435:0 436:1 437:1 438:0 439:0 440:1 441:1 442:0 443:0 444:0 445:0 446:0 447:1 448:0 449:1 450:1 451:0 452:1 453:0 454:0 455:0 456:0 457:0 458:0 459:0 460:1 461:0 462:0 463:0 464:0 465:1 466:0 467:0 468:0 469:1 470:0 471:1 472:1 473:0 474:0 475:0 476:0 477:0 478:0 479:0 480:0 481:0 482:1 483:1 484:0 485:0 486:0 487:0 488:0 489:0 490:0 491:0 492:1 493:0 494:0 495:0 496:0 497:0 498:0 499:1 500:0 501:0 502:2 503:0 504:0 505:0 506:0 507:2 508:0 509:1 510:0 511:0 512:0 513:0 514:0 515:0 516:0 517:0 518:0 519:0 520:0 521:0 522:1 523:0 524:0 525:0 526:1 527:1 528:0 529:0 530:0 531:0 532:1 533:0 534:0 535:0 536:2 537:0 538:0 539:0 540:0 541:0 542:1 543:0 544:0 545:0 546:0 547:0 548:0 
