svm_type c_svc
kernel_type linear
nr_class 4
total_sv 191
rho 48.4602 -37.7332 -58.489 -28.2384 -41.9919 -59.2486
label 1 2 3 4
probA -2.24953 -0.842742 -2.59171 -4.04073 -4.02151 -2.53447
probB -0.0697783 -0.114399 0.272081 -0.277215 0.340853 0.187428
nr_sv 63 39 52 37
SV
0 0.03827684015559348 0.003106547291231489 1:2400 2:0 3:0 4:0 5:0 6:0 7:0 8:0 9:0 10:0 11:0 12:0 13:0 14:0 15:0 16:0 17:0 18:0 19:0 20:0 21:0 22:0 23:0 24:0 25:0 26:0 27:0 28:0 29:0 30:0 31:0 32:0 33:0 34:0 35:0 36:0 37:0 38:0 39:0 40:0 41:0 42:0 43:0 44:0 45:0 46:0 47:0 48:0 49:0 50:0 51:0 52:0 53:0 54:0 55:0 56:0 57:0 58:0 59:0 60:0 61:0 62:0 63:0 64:0 65:0 66:0 67:0 68:0 69:0 70:0 71:0 72:0 73:0 74:0 75:0 76:0 77:0 78:0 79:0 80:0 81:0 82:0 83:0 84:0 85:0 86:0 87:0 88:0 89:0 90:0 91:0 92:0 93:0 94:0 95:0 96:0 97:0 98:0 99:0 100:0 101:0 102:0 103:0 104:0 105:0 106:0 107:0 108:0 109:0 110:0 111:0 112:0 113:0 114:0 115:0 116:0 117:0 118:0 119:0 120:0 121:0 122:0 123:0 124:0 125:0 126:0 127:0 128:0 129:0 130:0 131:0 132:0 133:0 134:0 135:0 136:0 137:0 138:0 139:0 140:0 141:0 142:0 143:0 144:0 145:0 146:0 147:0 148:0 149:0 150:0 151:0 152:0 153:0 154:0 155:0 156:0 157:0 158:0 159:0 160:0 161:0 162:0 163:0 164:0 165:0 166:0 167:0 168:0 169:0 170:0 171:0 172:0 173:0 174:0 175:0 176:0 177:0 178:0 179:0 180:0 181:0 182:0 183:0 184:0 185:0 186:0 187:0 188:0 189:0 190:0 191:0 192:0 193:0 194:0 195:0 196:0 197:0 198:0 199:0 200:0 201:0 202:0 203:0 204:0 205:0 206:0 207:0 208:0 209:0 210:0 211:0 212:0 213:0 214:0 215:0 216:0 217:0 218:0 219:0 220:0 221:0 222:0 223:0 224:0 225:0 226:0 227:0 228:0 229:0 230:0 231:0 232:0 233:0 234:0 235:0 236:0 237:0 238:0 239:0 240:0 241:0 242:0 243:0 244:0 245:0 246:0 247:0 248:0 249:0 250:0 251:0 252:0 253:0 254:0 255:0 256:0 257:128.5488 258:74.8416 259:200 260:255 261:0 262:2 263:0 264:0 265:0 266:0 267:1 268:0 269:0 270:0 271:0 272:1 273:0 274:0 275:0 276:0 277:0 278:0 279:1 280:0 281:0 282:0 283:0 284:1 285:1 286:1 287:0 288:1 289:0 290:0 291:0 292:0 293:0 294:0 295:0 296:3 297:0 298:0 299:0 300:0 301:0 302:0 303:0 304:0 305:0 306:0 307:0 308:0 309:0 310:0 311:0 312:2 313:0 314:0 315:0 316:0 317:0 318:0 319:0 320:0 321:0 322:0 323:0 324:1 325:1 326:0 327:0 328:0 329:0 330:0 331:0 332:0 333:0 334:0 335:1 336:1 337:0 338:0 339:0 340:0 341:0 342:0 343:0 344:0 345:0 346:0 347:0 348:1 349:0 350:0 351:0 352:1 353:0 354:0 355:0 356:1 357:0 358:0 359:0 360:0 361:0 362:0 363:1 364:1 365:0 366:0 367:0 368:0 369:0 370:0 371:1 372:1 373:0 374:1 375:0 376:0 377:0 378:0 379:0 380:0 381:1 382:0 383:0 384:0 385:0 386:1 387:0 388:1 389:0 390:0 391:0 392:1 393:0 394:0 395:0 396:0 397:0 398:0 399:1 400:0 401:0 402:0 403:0 
0 0.1217249857432869 0 1:2400 2:0 3:0 4:0 5:0 6:0 7:0 8:0 9:0 10:0 11:0 12:0 13:0 14:0 15:0 16:0 17:0 18:0 19:0 20:0 21:0 22:0 23:0 24:0 25:0 26:0 27:0 28:0 29:0 30:0 31:0 32:0 33:0 34:0 35:0 36:0 37:0 38:0 39:0 40:0 41:0 42:0 43:0 44:0 45:0 46:0 47:0 48:0 49:0 50:0 51:0 52:0 53:0 54:0 55:0 56:0 57:0 58:0 59:0 60:0 61:0 62:0 63:0 64:0 65:0 66:0 67:0 68:0 69:0 70:0 71:0 72:0 73:0 74:0 75:0 76:0 77:0 78:0 79:0 80:0 81:0 82:0 83:0 84:0 85:0 86:0 87:0 88:0 89:0 90:0 91:0 92:0 93:0 94:0 95:0 96:0 97:0 98:0 99:0 100:0 101:0 102:0 103:0 104:0 105:0 106:0 107:0 108:0 109:0 110:0 111:0 112:0 113:0 114:0 115:0 116:0 117:0 118:0 119:0 120:0 121:0 122:0 123:0 124:0 125:0 126:0 127:0 128:0 129:0 130:0 131:0 132:0 133:0 134:0 135:0 136:0 137:0 138:0 139:0 140:0 141:0 142:0 143:0 144:0 145:0 146:0 147:0 148:0 149:0 150:0 151:0 152:0 153:0 154:0 155:0 156:0 157:0 158:0 159:0 160:0 161:0 162:0 163:0 164:0 165:0 166:0 167:0 168:0 169:0 170:0 171:0 172:0 173:0 174:0 175:0 176:0 177:0 178:0 179:0 180:0 181:0 182:0 183:0 184:0 185:0 186:0 187:0 188:0 189:0 190:0 191:0 192:0 193:0 194:0 195:0 196:0 197:0 198:0 199:0 200:0 201:0 202:0 203:0 204:0 205:0 206:0 207:0 208:0 209:0 210:0 211:0 212:0 213:0 214:0 215:0 216:0 217:0 218:0 219:0 220:0 221:0 222:0 223:0 224:0 225:0 226:0 227:0 228:0 229:0 230:0 231:0 232:0 233:0 234:0 235:0 236:0 237:0 238:0 239:0 240:0 241:0 242:0 243:0 244:0 245:0 246:0 247:0 248:0 249:0 250:0 251:0 252:0 253:0 254:0 255:0 256:0 257:126.7712 258:73.36 259:200 260:255 261:1 262:0 263:0 264:0 265:1 266:0 267:0 268:0 269:0 270:0 271:0 272:0 273:1 274:0 275:0 276:0 277:0 278:0 279:0 280:0 281:0 282:0 283:0 284:0 285:0 286:1 287:0 288:0 289:0 290:1 291:1 292:0 293:0 294:0 295:0 296:0 297:1 298:3 299:0 300:0 301:0 302:0 303:0 304:0 305:0 306:0 307:1 308:0 309:0 310:1 311:1 312:0 313:0 314:0 315:0 316:0 317:0 318:0 319:0 320:1 321:0 322:0 323:1 324:0 325:1 326:0 327:0 328:0 329:0 330:1 331:0 332:0 333:1 334:0 335:0 336:1 337:0 338:0 339:0 340:1 341:0 342:0 343:0 344:0 345:0 346:1 347:1 348:1 349:0 350:1 351:0 352:0 353:1 354:0 355:0 356:3 357:0 358:0 359:1 360:0 361:0 362:0 363:0 364:0 365:0 366:0 367:0 368:0 369:0 370:0 371:0 372:0 373:0 374:0 375:0 376:0 377:0 378:0 379:0 380:1 381:0 382:1 383:0 384:0 385:0 386:0 387:0 388:0 389:0 390:0 391:0 392:1 393:0 394:0 395:1 396:0 397:0 398:1 399:0 400:0 401:0 402:0 403:0 
0.04798026412303271 0 0 1:2400 2:0 3:0 4:0 5:0 6:0 7:0 8:0 9:0 10:0 11:0 12:0 13:0 14:0 15:0 16:0 17:0 18:0 19:0 20:0 21:0 22:0 23:0 24:0 25:0 26:0 27:0 28:0 29:0 30:0 31:0 32:0 33:0 34:0 35:0 36:0 37:0 38:0 39:0 40:0 41:0 42:0 43:0 44:0 45:0 46:0 47:0 48:0 49:0 50:0 51:0 52:0 53:0 54:0 55:0 56:0 57:0 58:0 59:0 60:0 61:0 62:0 63:0 64:0 65:0 66:0 67:0 68:0 69:0 70:0 71:0 72:0 73:0 74:0 75:0 76:0 77:0 78:0 79:0 80:0 81:0 82:0 83:0 84:0 85:0 86:0 87:0 88:0 89:0 90:0 91:0 92:0 93:0 94:0 95:0 96:0 97:0 98:0 99:0 100:0 101:0 102:0 103:0 104:0 105:0 106:0 107:0 108:0 109:0 110:0 111:0 112:0 113:0 114:0 115:0 116:0 117:0 118:0 119:0 120:0 121:0 122:0 123:0 124:0 125:0 126:0 127:0 128:0 129:0 130:0 131:0 132:0 133:0 134:0 135:0 136:0 137:0 138:0 139:0 140:0 141:0 142:0 143:0 144:0 145:0 146:0 147:0 148:0 149:0 150:0 151:0 152:0 153:0 154:0 155:0 156:0 157:0 158:0 159:0 160:0 161:0 162:0 163:0 164:0 165:0 166:0 167:0 168:0 169:0 170:0 171:0 172:0 173:0 174:0 175:0 176:0 177:0 178:0 179:0 180:0 181:0 182:0 183:0 184:0 185:0 186:0 187:0 188:0 189:0 190:0 191:0 192:0 193:0 194:0 195:0 196:0 197:0 198:0 199:0 200:0 201:0 202:0 203:0 204:0 205:0 206:0 207:0 208:0 209:0 210:0 211:0 212:0 213:0 214:0 215:0 216:0 217:0 218:0 219:0 220:0 221:0 222:0 223:0 224:0 225:0 226:0 227:0 228:0 229:0 230:0 231:0 232:0 233:0 234:0 235:0 236:0 237:0 238:0 239:0 240:0 241:0 242:0 243:0 244:0 245:0 246:0 247:0 248:0 249:0 250:0 251:0 252:0 253:0 254:0 255:0 256:0 257:126.0816 258:74.2368 259:200 260:255 261:3 262:0 263:0 264:0 265:1 266:1 267:1 268:1 269:0 270:0 271:1 272:0 273:2 274:0 275:0 276:0 277:0 278:0 279:0 280:0 281:0 282:0 283:0 284:0 285:0 286:0 287:2 288:1 289:1 290:0 291:0 292:0 293:0 294:0 295:0 296:0 297:3 298:0 299:0 300:3 301:0 302:0 303:0 304:0 305:0 306:0 307:0 308:0 309:0 310:0 311:3 312:1 313:1 314:0 315:1 316:0 317:0 318:1 319:0 320:0 321:0 322:0 323:0 324:0 325:1 326:0 327:0 328:0 329:1 330:0 331:0 332:0 333:0 334:3 335:0 336:1 337:0 338:1 339:0 340:0 341:1 342:0 343:0 344:1 345:0 346:1 347:0 348:2 349:0 350:0 351:0 352:0 353:0 354:0 355:0 356:3 357:0 358:0 359:1 360:0 361:1 362:0 363:0 364:0 365:0 366:0 367:0 368:0 369:2 370:1 371:0 372:0 373:0 374:0 375:0 376:1 377:0 378:0 379:0 380:1 381:1 382:2 383:0 384:1 385:0 386:0 387:0 388:0 389:0 390:0 391:1 392:0 393:1 394:1 395:0 396:0 397:0 398:0 399:1 400:0 401:0 402:0 403:0 
0.01238992034432364 0 0 1:2400 2:0 3:0 4:0 5:0 6:0 7:0 8:0 9:0 10:0 11:0 12:0 13:0 14:0 15:0 16:0 17:0 18:0 19:0 20:0 21:0 22:0 23:0 24:0 25:0 26:0 27:0 28:0 29:0 30:0 31:0 32:0 33:0 34:0 35:0 36:0 37:0 38:0 39:0 40:0 41:0 42:0 43:0 44:0 45:0 46:0 47:0 48:0 49:0 50:0 51:0 52:0 53:0 54:0 55:0 56:0 57:0 58:0 59:0 60:0 61:0 62:0 63:0 64:0 65:0 66:0 67:0 68:0 69:0 70:0 71:0 72:0 73:0 74:0 75:0 76:0 77:0 78:0 79:0 80:0 81:0 82:0 83:0 84:0 85:0 86:0 87:0 88:0 89:0 90:0 91:0 92:0 93:0 94:0 95:0 96:0 97:0 98:0 99:0 100:0 101:0 102:0 103:0 104:0 105:0 106:0 107:0 108:0 109:0 110:0 111:0 112:0 113:0 114:0 115:0 116:0 117:0 118:0 119:0 120:0 121:0 122:0 123:0 124:0 125:0 126:0 127:0 128:0 129:0 130:0 131:0 132:0 133:0 134:0 135:0 136:0 137:0 138:0 139:0 140:0 141:0 142:0 143:0 144:0 145:0 146:0 147:0 148:0 149:0 150:0 151:0 152:0 153:0 154:0 155:0 156:0 157:0 158:0 159:0 160:0 161:0 162:0 163:0 164:0 165:0 166:0 167:0 168:0 169:0 170:0 171:0 172:0 173:0 174:0 175:0 176:0 177:0 178:0 179:0 180:0 181:0 182:0 183:0 184:0 185:0 186:0 187:0 188:0 189:0 190:0 191:0 192:0 193:0 194:0 195:0 196:0 197:0 198:0 199:0 200:0 201:0 202:0 203:0 204:0 205:0 206:0 207:0 208:0 209:0 210:0 211:0 212:0 213:0 214:0 215:0 216:0 217:0 218:0 219:0 220:0 221:0 222:0 223:0 224:0 225:0 226:0 227:0 228:0 229:0 230:0 231:0 232:0 233:0 234:0 235:0 236:0 237:0 238:0 239:0 240:0 241:0 242:0 243:0 244:0 245:0 246:0 247:0 248:0 249:0 250:0 251:0 252:0 253:0 254:0 255:0 256:0 257:126.4288 258:74.5296 259:200 260:255 261:1 262:1 263:0 264:0 265:0 266:0 267:0 268:0 269:0 270:0 271:0 272:0 273:0 274:0 275:0 276:0 277:0 278:0 279:0 280:0 281:0 282:0 283:0 284:1 285:0 286:0 287:0 288:0 289:0 290:1 291:0 292:0 293:0 294:0 295:0 296:2 297:0 298:0 299:0 300:0 301:0 302:0 303:0 304:0 305:0 306:0 307:0 308:0 309:0 310:0 311:1 312:1 313:0 314:0 315:0 316:1 317:0 318:0 319:0 320:0 321:0 322:0 323:2 324:0 325:0 326:0 327:0 328:0 329:0 330:0 331:0 332:0 333:0 334:0 335:1 336:0 337:0 338:0 339:0 340:1 341:0 342:0 343:0 344:1 345:0 346:0 347:0 348:0 349:0 350:0 351:0 352:0 353:1 354:0 355:0 356:0 357:1 358:0 359:0 360:0 361:0 362:1 363:0 364:0 365:0 366:0 367:0 368:1 369:0 370:2 371:2 372:0 373:0 374:0 375:0 376:0 377:0 378:0 379:0 380:1 381:0 382:0 383:0 384:0 385:1 386:1 387:0 388:0 389:1 390:0 391:0 392:0 393:0 394:0 395:0 396:0 397:0 398:0 399:0 400:0 401:0 402:0 403:0 
0.001273782652780615 0 0 1:2400 2:0 3:0 4:0 5:0 6:0 7:0 8:0 9:0 10:0 11:0 12:0 13:0 14:0 15:0 16:0 17:0 18:0 19:0 20:0 21:0 22:0 23:0 24:0 25:0 26:0 27:0 28:0 29:0 30:0 31:0 32:0 33:0 34:0 35:0 36:0 37:0 38:0 39:0 40:0 41:0 42:0 43:0 44:0 45:0 46:0 47:0 48:0 49:0 50:0 51:0 52:0 53:0 54:0 55:0 56:0 57:0 58:0 59:0 60:0 61:0 62:0 63:0 64:0 65:0 66:0 67:0 68:0 69:0 70:0 71:0 72:0 73:0 74:0 75:0 76:0 77:0 78:0 79:0 80:0 81:0 82:0 83:0 84:0 85:0 86:0 87:0 88:0 89:0 90:0 91:0 92:0 93:0 94:0 95:0 96:0 97:0 98:0 99:0 100:0 101:0 102:0 103:0 104:0 105:0 106:0 107:0 108:0 109:0 110:0 111:0 112:0 113:0 114:0 115:0 116:0 117:0 118:0 119:0 120:0 121:0 122:0 123:0 124:0 125:0 126:0 127:0 128:0 129:0 130:0 131:0 132:0 133:0 134:0 135:0 136:0 137:0 138:0 139:0 140:0 141:0 142:0 143:0 144:0 145:0 146:0 147:0 148:0 149:0 150:0 151:0 152:0 153:0 154:0 155:0 156:0 157:0 158:0 159:0 160:0 161:0 162:0 163:0 164:0 165:0 166:0 167:0 168:0 169:0 170:0 171:0 172:0 173:0 174:0 175:0 176:0 177:0 178:0 179:0 180:0 181:0 182:0 183:0 184:0 185:0 186:0 187:0 188:0 189:0 190:0 191:0 192:0 193:0 194:0 195:0 196:0 197:0 198:0 199:0 200:0 201:0 202:0 203:0 204:0 205:0 206:0 207:0 208:0 209:0 210:0 211:0 212:0 213:0 214:0 215:0 216:0 217:0 218:0 219:0 220:0 221:0 222:0 223:0 224:0 225:0 226:0 227:0 228:0 229:0 230:0 231:0 232:0 233:0 234:0 235:0 236:0 237:0 238:0 239:0 240:0 241:0 242:0 243:0 244:0 245:0 246:0 247:0 248:0 249:0 250:0 251:0 252:0 253:0 254:0 255:0 256:0 257:126.0336 258:74.3456 259:200 260:255 261:0 262:2 263:1 264:0 265:0 266:0 267:1 268:0 269:0 270:0 271:0 272:8 273:6 274:2 275:0 276:0 277:0 278:2 279:0 280:0 281:0 282:0 283:0 284:2 285:0 286:0 287:0 288:3 289:0 290:0 291:0 292:1 293:1 294:0 295:0 296:0 297:0 298:0 299:0 300:0 301:1 302:1 303:2 304:0 305:0 306:0 307:0 308:0 309:2 310:7 311:4 312:1 313:0 314:0 315:0 316:0 317:0 318:0 319:0 320:0 321:0 322:0 323:0 324:0 325:0 326:1 327:1 328:1 329:0 330:0 331:0 332:1 333:1 334:0 335:0 336:2 337:0 338:0 339:0 340:0 341:0 342:0 343:1 344:1 345:0 346:0 347:1 348:1 349:1 350:1 351:0 352:0 353:0 354:0 355:0 356:0 357:0 358:2 359:0 360:0 361:0 362:0 363:0 364:0 365:0 366:0 367:0 368:1 369:0 370:0 371:0 372:1 373:0 374:0 375:0 376:0 377:0 378:0 379:0 380:0 381:0 382:0 383:1 384:0 385:0 386:1 387:0 388:1 389:0 390:0 391:1 392:1 393:0 394:0 395:0 396:0 397:0 398:0 399:1 400:0 401:0 402:0 403:0 
0.008134352678799991 0.09409379740087406 0 1:2400 2:0 3:0 4:0 5:0 6:0 7:0 8:0 9:0 10:0 11:0 12:0 13:0 14:0 15:0 16:0 17:0 18:0 19:0 20:0 21:0 22:0 23:0 24:0 25:0 26:0 27:0 28:0 29:0 30:0 31:0 32:0 33:0 34:0 35:0 36:0 37:0 38:0 39:0 40:0 41:0 42:0 43:0 44:0 45:0 46:0 47:0 48:0 49:0 50:0 51:0 52:0 53:0 54:0 55:0 56:0 57:0 58:0 59:0 60:0 61:0 62:0 63:0 64:0 65:0 66:0 67:0 68:0 69:0 70:0 71:0 72:0 73:0 74:0 75:0 76:0 77:0 78:0 79:0 80:0 81:0 82:0 83:0 84:0 85:0 86:0 87:0 88:0 89:0 90:0 91:0 92:0 93:0 94:0 95:0 96:0 97:0 98:0 99:0 100:0 101:0 102:0 103:0 104:0 105:0 106:0 107:0 108:0 109:0 110:0 111:0 112:0 113:0 114:0 115:0 116:0 117:0 118:0 119:0 120:0 121:0 122:0 123:0 124:0 125:0 126:0 127:0 128:0 129:0 130:0 131:0 132:0 133:0 134:0 135:0 136:0 137:0 138:0 139:0 140:0 141:0 142:0 143:0 144:0 145:0 146:0 147:0 148:0 149:0 150:0 151:0 152:0 153:0 154:0 155:0 156:0 157:0 158:0 159:0 160:0 161:0 162:0 163:0 164:0 165:0 166:0 167:0 168:0 169:0 170:0 171:0 172:0 173:0 174:0 175:0 176:0 177:0 178:0 179:0 180:0 181:0 182:0 183:0 184:0 185:0 186:0 187:0 188:0 189:0 190:0 191:0 192:0 193:0 194:0 195:0 196:0 197:0 198:0 199:0 200:0 201:0 202:0 203:0 204:0 205:0 206:0 207:0 208:0 209:0 210:0 211:0 212:0 213:0 214:0 215:0 216:0 217:0 218:0 219:0 220:0 221:0 222:0 223:0 224:0 225:0 226:0 227:0 228:0 229:0 230:0 231:0 232:0 233:0 234:0 235:0 236:0 237:0 238:0 239:0 240:0 241:0 242:0 243:0 244:0 245:0 246:0 247:0 248:0 249:0 250:0 251:0 252:0 253:0 254:0 255:0 256:0 257:126.6352 258:74.3888 259:200 260:255 261:0 262:4 263:0 264:2 265:0 266:1 267:0 268:0 269:0 270:0 271:1 272:2 273:0 274:1 275:0 276:1 277:0 278:0 279:0 280:0 281:0 282:0 283:0 284:2 285:0 286:1 287:2 288:2 289:0 290:0 291:0 292:0 293:0 294:0 295:0 296:0 297:2 298:0 299:0 300:0 301:1 302:0 303:0 304:0 305:0 306:0 307:0 308:0 309:1 310:0 311:2 312:0 313:1 314:0 315:0 316:0 317:0 318:0 319:0 320:0 321:3 322:0 323:0 324:0 325:1 326:0 327:0 328:0 329:0 330:0 331:0 332:0 333:3 334:0 335:0 336:0 337:0 338:1 339:0 340:0 341:0 342:0 343:0 344:0 345:0 346:0 347:1 348:0 349:0 350:0 351:0 352:0 353:0 354:0 355:0 356:0 357:0 358:0 359:0 360:0 361:0 362:0 363:0 364:0 365:0 366:0 367:0 368:0 369:0 370:0 371:1 372:0 373:0 374:0 375:0 376:0 377:0 378:0 379:0 380:0 381:0 382:0 383:0 384:0 385:1 386:1 387:0 388:0 389:0 390:0 391:0 392:0 393:0 394:1 395:0 396:0 397:0 398:0 399:0 400:0 401:0 402:0 403:0 
0.03226165316929148 0 0 1:2400 2:0 3:0 4:0 5:0 6:0 7:0 8:0 9:0 10:0 11:0 12:0 13:0 14:0 15:0 16:0 17:0 18:0 19:0 20:0 21:0 22:0 23:0 24:0 25:0 26:0 27:0 28:0 29:0 30:0 31:0 32:0 33:0 34:0 35:0 36:0 37:0 38:0 39:0 40:0 41:0 42:0 43:0 44:0 45:0 46:0 47:0 48:0 49:0 50:0 51:0 52:0 53:0 54:0 55:0 56:0 57:0 58:0 59:0 60:0 61:0 62:0 63:0 64:0 65:0 66:0 67:0 68:0 69:0 70:0 71:0 72:0 73:0 74:0 75:0 76:0 77:0 78:0 79:0 80:0 81:0 82:0 83:0 84:0 85:0 86:0 87:0 88:0 89:0 90:0 91:0 92:0 93:0 94:0 95:0 96:0 97:0 98:0 99:0 100:0 101:0 102:0 103:0 104:0 105:0 106:0 107:0 108:0 109:0 110:0 111:0 112:0 113:0 114:0 115:0 116:0 117:0 118:0 119:0 120:0 121:0 122:0 123:0 124:0 125:0 126:0 127:0 128:0 129:0 130:0 131:0 132:0 133:0 134:0 135:0 136:0 137:0 138:0 139:0 140:0 141:0 142:0 143:0 144:0 145:0 146:0 147:0 148:0 149:0 150:0 151:0 152:0 153:0 154:0 155:0 156:0 157:0 158:0 159:0 160:0 161:0 162:0 163:0 164:0 165:0 166:0 167:0 168:0 169:0 170:0 171:0 172:0 173:0 174:0 175:0 176:0 177:0 178:0 179:0 180:0 181:0 182:0 183:0 184:0 185:0 186:0 187:0 188:0 189:0 190:0 191:0 192:0 193:0 194:0 195:0 196:0 197:0 198:0 199:0 200:0 201:0 202:0 203:0 204:0 205:0 206:0 207:0 208:0 209:0 210:0 211:0 212:0 213:0 214:0 215:0 216:0 217:0 218:0 219:0 220:0 221:0 222:0 223:0 224:0 225:0 226:0 227:0 228:0 229:0 230:0 231:0 232:0 233:0 234:0 235:0 236:0 237:0 238:0 239:0 240:0 241:0 242:0 243:0 244:0 245:0 246:0 247:0 248:0 249:0 250:0 251:0 252:0 253:0 254:0 255:0 256:0 257:126.3024 258:74.3056 259:200 260:255 261:0 262:1 263:2 264:0 265:0 266:0 267:0 268:0 269:0 270:0 271:0 272:0 273:0 274:1 275:0 276:3 277:0 278:0 279:1 280:0 281:0 282:0 283:1 284:2 285:4 286:0 287:0 288:2 289:0 290:1 291:1 292:0 293:0 294:0 295:0 296:0 297:1 298:1 299:0 300:0 301:1 302:0 303:0 304:0 305:0 306:0 307:0 308:0 309:0 310:0 311:1 312:0 313:0 314:1 315:1 316:0 317:0 318:1 319:0 320:0 321:1 322:1 323:0 324:1 325:0 326:0 327:0 328:0 329:0 330:0 331:0 332:0 333:0 334:0 335:0 336:0 337:1 338:0 339:0 340:0 341:0 342:0 343:0 344:2 345:0 346:0 347:0 348:1 349:0 350:0 351:1 352:0 353:0 354:0 355:0 356:1 357:0 358:1 359:1 360:1 361:1 362:0 363:0 364:0 365:1 366:0 367:0 368:0 369:1 370:0 371:1 372:1 373:0 374:0 375:0 376:0 377:0 378:0 379:0 380:0 381:1 382:3 383:0 384:1 385:1 386:0 387:0 388:0 389:0 390:0 391:0 392:0 393:0 394:1 395:1 396:1 397:0 398:0 399:0 400:0 401:0 402:0 403:0 
0 0.009078965532204488 0 1:2400 2:0 3:0 4:0 5:0 6:0 7:0 8:0 9:0 10:0 11:0 12:0 13:0 14:0 15:0 16:0 17:0 18:0 19:0 20:0 21:0 22:0 23:0 24:0 25:0 26:0 27:0 28:0 29:0 30:0 31:0 32:0 33:0 34:0 35:0 36:0 37:0 38:0 39:0 40:0 41:0 42:0 43:0 44:0 45:0 46:0 47:0 48:0 49:0 50:0 51:0 52:0 53:0 54:0 55:0 56:0 57:0 58:0 59:0 60:0 61:0 62:0 63:0 64:0 65:0 66:0 67:0 68:0 69:0 70:0 71:0 72:0 73:0 74:0 75:0 76:0 77:0 78:0 79:0 80:0 81:0 82:0 83:0 84:0 85:0 86:0 87:0 88:0 89:0 90:0 91:0 92:0 93:0 94:0 95:0 96:0 97:0 98:0 99:0 100:0 101:0 102:0 103:0 104:0 105:0 106:0 107:0 108:0 109:0 110:0 111:0 112:0 113:0 114:0 115:0 116:0 117:0 118:0 119:0 120:0 121:0 122:0 123:0 124:0 125:0 126:0 127:0 128:0 129:0 130:0 131:0 132:0 133:0 134:0 135:0 136:0 137:0 138:0 139:0 140:0 141:0 142:0 143:0 144:0 145:0 146:0 147:0 148:0 149:0 150:0 151:0 152:0 153:0 154:0 155:0 156:0 157:0 158:0 159:0 160:0 161:0 162:0 163:0 164:0 165:0 166:0 167:0 168:0 169:0 170:0 171:0 172:0 173:0 174:0 175:0 176:0 177:0 178:0 179:0 180:0 181:0 182:0 183:0 184:0 185:0 186:0 187:0 188:0 189:0 190:0 191:0 192:0 193:0 194:0 195:0 196:0 197:0 198:0 199:0 200:0 201:0 202:0 203:0 204:0 205:0 206:0 207:0 208:0 209:0 210:0 211:0 212:0 213:0 214:0 215:0 216:0 217:0 218:0 219:0 220:0 221:0 222:0 223:0 224:0 225:0 226:0 227:0 228:0 229:0 230:0 231:0 232:0 233:0 234:0 235:0 236:0 237:0 238:0 239:0 240:0 241:0 242:0 243:0 244:0 245:0 246:0 247:0 248:0 249:0 250:0 251:0 252:0 253:0 254:0 255:0 256:0 257:127.5568 258:73.8016 259:200 260:255 261:0 262:0 263:0 264:0 265:0 266:0 267:1 268:0 269:0 270:0 271:0 272:1 273:0 274:1 275:0 276:2 277:0 278:0 279:1 280:0 281:0 282:1 283:0 284:1 285:1 286:0 287:0 288:1 289:0 290:0 291:0 292:0 293:0 294:0 295:0 296:0 297:0 298:1 299:0 300:0 301:0 302:0 303:0 304:1 305:0 306:0 307:0 308:0 309:3 310:1 311:0 312:0 313:0 314:0 315:1 316:0 317:1 318:0 319:0 320:2 321:0 322:1 323:1 324:0 325:0 326:0 327:0 328:0 329:0 330:0 331:1 332:0 333:0 334:0 335:0 336:0 337:1 338:1 339:0 340:1 341:0 342:0 343:0 344:2 345:0 346:0 347:0 348:0 349:0 350:0 351:1 352:0 353:0 354:0 355:0 356:0 357:0 358:0 359:1 360:1 361:0 362:0 363:0 364:0 365:0 366:1 367:0 368:1 369:0 370:0 371:1 372:1 373:0 374:0 375:1 376:0 377:0 378:0 379:0 380:1 381:0 382:0 383:1 384:0 385:0 386:0 387:0 388:0 389:0 390:0 391:0 392:0 393:0 394:0 395:0 396:0 397:1 398:0 399:0 400:0 401:1 402:0 403:0 
0 0.03554689188370762 0 1:2400 2:0 3:0 4:0 5:0 6:0 7:0 8:0 9:0 10:0 11:0 12:0 13:0 14:0 15:0 16:0 17:0 18:0 19:0 20:0 21:0 22:0 23:0 24:0 25:0 26:0 27:0 28:0 29:0 30:0 31:0 32:0 33:0 34:0 35:0 36:0 37:0 38:0 39:0 40:0 41:0 42:0 43:0 44:0 45:0 46:0 47:0 48:0 49:0 50:0 51:0 52:0 53:0 54:0 55:0 56:0 57:0 58:0 59:0 60:0 61:0 62:0 63:0 64:0 65:0 66:0 67:0 68:0 69:0 70:0 71:0 72:0 73:0 74:0 75:0 76:0 77:0 78:0 79:0 80:0 81:0 82:0 83:0 84:0 85:0 86:0 87:0 88:0 89:0 90:0 91:0 92:0 93:0 94:0 95:0 96:0 97:0 98:0 99:0 100:0 101:0 102:0 103:0 104:0 105:0 106:0 107:0 108:0 109:0 110:0 111:0 112:0 113:0 114:0 115:0 116:0 117:0 118:0 119:0 120:0 121:0 122:0 123:0 124:0 125:0 126:0 127:0 128:0 129:0 130:0 131:0 132:0 133:0 134:0 135:0 136:0 137:0 138:0 139:0 140:0 141:0 142:0 143:0 144:0 145:0 146:0 147:0 148:0 149:0 150:0 151:0 152:0 153:0 154:0 155:0 156:0 157:0 158:0 159:0 160:0 161:0 162:0 163:0 164:0 165:0 166:0 167:0 168:0 169:0 170:0 171:0 172:0 173:0 174:0 175:0 176:0 177:0 178:0 179:0 180:0 181:0 182:0 183:0 184:0 185:0 186:0 187:0 188:0 189:0 190:0 191:0 192:0 193:0 194:0 195:0 196:0 197:0 198:0 199:0 200:0 201:0 202:0 203:0 204:0 205:0 206:0 207:0 208:0 209:0 210:0 211:0 212:0 213:0 214:0 215:0 216:0 217:0 218:0 219:0 220:0 221:0 222:0 223:0 224:0 225:0 226:0 227:0 228:0 229:0 230:0 231:0 232:0 233:0 234:0 235:0 236:0 237:0 238:0 239:0 240:0 241:0 242:0 243:0 244:0 245:0 246:0 247:0 248:0 249:0 250:0 251:0 252:0 253:0 254:0 255:0 256:0 257:126.8544 258:74.6528 259:200 260:255 261:1 262:0 263:1 264:0 265:0 266:1 267:0 268:0 269:0 270:0 271:0 272:3 273:0 274:0 275:2 276:0 277:1 278:0 279:1 280:0 281:0 282:0 283:0 284:0 285:3 286:1 287:0 288:0 289:0 290:0 291:0 292:0 293:0 294:1 295:0 296:0 297:0 298:0 299:1 300:0 301:1 302:0 303:1 304:0 305:1 306:0 307:0 308:0 309:0 310:0 311:0 312:0 313:1 314:1 315:0 316:0 317:0 318:0 319:0 320:0 321:1 322:0 323:0 324:1 325:0 326:0 327:0 328:0 329:0 330:0 331:0 332:2 333:0 334:2 335:0 336:0 337:0 338:1 339:1 340:0 341:1 342:0 343:0 344:0 345:0 346:0 347:0 348:1 349:0 350:0 351:0 352:0 353:0 354:0 355:0 356:1 357:0 358:0 359:0 360:0 361:0 362:0 363:0 364:0 365:0 366:0 367:0 368:0 369:0 370:1 371:0 372:0 373:0 374:0 375:0 376:0 377:0 378:0 379:0 380:0 381:1 382:0 383:0 384:1 385:0 386:1 387:0 388:0 389:0 390:0 391:0 392:0 393:0 394:0 395:0 396:0 397:0 398:0 399:0 400:0 401:0 402:0 403:0 
0 0.05307362933910585 0 1:2400 2:0 3:0 4:0 5:0 6:0 7:0 8:0 9:0 10:0 11:0 12:0 13:0 14:0 15:0 16:0 17:0 18:0 19:0 20:0 21:0 22:0 23:0 24:0 25:0 26:0 27:0 28:0 29:0 30:0 31:0 32:0 33:0 34:0 35:0 36:0 37:0 38:0 39:0 40:0 41:0 42:0 43:0 44:0 45:0 46:0 47:0 48:0 49:0 50:0 51:0 52:0 53:0 54:0 55:0 56:0 57:0 58:0 59:0 60:0 61:0 62:0 63:0 64:0 65:0 66:0 67:0 68:0 69:0 70:0 71:0 72:0 73:0 74:0 75:0 76:0 77:0 78:0 79:0 80:0 81:0 82:0 83:0 84:0 85:0 86:0 87:0 88:0 89:0 90:0 91:0 92:0 93:0 94:0 95:0 96:0 97:0 98:0 99:0 100:0 101:0 102:0 103:0 104:0 105:0 106:0 107:0 108:0 109:0 110:0 111:0 112:0 113:0 114:0 115:0 116:0 117:0 118:0 119:0 120:0 121:0 122:0 123:0 124:0 125:0 126:0 127:0 128:0 129:0 130:0 131:0 132:0 133:0 134:0 135:0 136:0 137:0 138:0 139:0 140:0 141:0 142:0 143:0 144:0 145:0 146:0 147:0 148:0 149:0 150:0 151:0 152:0 153:0 154:0 155:0 156:0 157:0 158:0 159:0 160:0 161:0 162:0 163:0 164:0 165:0 166:0 167:0 168:0 169:0 170:0 171:0 172:0 173:0 174:0 175:0 176:0 177:0 178:0 179:0 180:0 181:0 182:0 183:0 184:0 185:0 186:0 187:0 188:0 189:0 190:0 191:0 192:0 193:0 194:0 195:0 196:0 197:0 198:0 199:0 200:0 201:0 202:0 203:0 204:0 205:0 206:0 207:0 208:0 209:0 210:0 211:0 212:0 213:0 214:0 215:0 216:0 217:0 218:0 219:0 220:0 221:0 222:0 223:0 224:0 225:0 226:0 227:0 228:0 229:0 230:0 231:0 232:0 233:0 234:0 235:0 236:0 237:0 238:0 239:0 240:0 241:0 242:0 243:0 244:0 245:0 246:0 247:0 248:0 249:0 250:0 251:0 252:0 253:0 254:0 255:0 256:0 257:125.8128 258:73.128 259:200 260:255 261:0 262:0 263:0 264:0 265:0 266:1 267:1 268:0 269:0 270:0 271:0 272:4 273:0 274:0 275:0 276:3 277:1 278:0 279:0 280:1 281:0 282:0 283:0 284:0 285:1 286:2 287:0 288:0 289:0 290:0 291:0 292:0 293:0 294:0 295:1 296:1 297:0 298:2 299:1 300:2 301:0 302:0 303:0 304:0 305:0 306:1 307:0 308:0 309:1 310:2 311:1 312:0 313:1 314:0 315:0 316:0 317:0 318:0 319:1 320:3 321:0 322:0 323:1 324:1 325:1 326:0 327:0 328:0 329:0 330:0 331:0 332:3 333:1 334:0 335:0 336:1 337:1 338:0 339:0 340:0 341:0 342:1 343:0 344:0 345:1 346:1 347:2 348:1 349:0 350:0 351:0 352:0 353:0 354:0 355:0 356:3 357:0 358:1 359:1 360:0 361:1 362:0 363:0 364:1 365:1 366:0 367:0 368:0 369:1 370:0 371:0 372:1 373:2 374:0 375:0 376:0 377:0 378:0 379:0 380:0 381:1 382:0 383:0 384:0 385:1 386:1 387:0 388:0 389:1 390:0 391:0 392:1 393:0 394:0 395:0 396:0 397:1 398:0 399:0 400:0 401:0 402:0 403:0 
0.02006903681046769 0 0 1:2400 2:0 3:0 4:0 5:0 6:0 7:0 8:0 9:0 10:0 11:0 12:0 13:0 14:0 15:0 16:0 17:0 18:0 19:0 20:0 21:0 22:0 23:0 24:0 25:0 26:0 27:0 28:0 29:0 30:0 31:0 32:0 33:0 34:0 35:0 36:0 37:0 38:0 39:0 40:0 41:0 42:0 43:0 44:0 45:0 46:0 47:0 48:0 49:0 50:0 51:0 52:0 53:0 54:0 55:0 56:0 57:0 58:0 59:0 60:0 61:0 62:0 63:0 64:0 65:0 66:0 67:0 68:0 69:0 70:0 71:0 72:0 73:0 74:0 75:0 76:0 77:0 78:0 79:0 80:0 81:0 82:0 83:0 84:0 85:0 86:0 87:0 88:0 89:0 90:0 91:0 92:0 93:0 94:0 95:0 96:0 97:0 98:0 99:0 100:0 101:0 102:0 103:0 104:0 105:0 106:0 107:0 108:0 109:0 110:0 111:0 112:0 113:0 114:0 115:0 116:0 117:0 118:0 119:0 120:0 121:0 122:0 123:0 124:0 125:0 126:0 127:0 128:0 129:0 130:0 131:0 132:0 133:0 134:0 135:0 136:0 137:0 138:0 139:0 140:0 141:0 142:0 143:0 144:0 145:0 146:0 147:0 148:0 149:0 150:0 151:0 152:0 153:0 154:0 155:0 156:0 157:0 158:0 159:0 160:0 161:0 162:0 163:0 164:0 165:0 166:0 167:0 168:0 169:0 170:0 171:0 172:0 173:0 174:0 175:0 176:0 177:0 178:0 179:0 180:0 181:0 182:0 183:0 184:0 185:0 186:0 187:0 188:0 189:0 190:0 191:0 192:0 193:0 194:0 195:0 196:0 197:0 198:0 199:0 200:0 201:0 202:0 203:0 204:0 205:0 206:0 207:0 208:0 209:0 210:0 211:0 212:0 213:0 214:0 215:0 216:0 217:0 218:0 219:0 220:0 221:0 222:0 223:0 224:0 225:0 226:0 227:0 228:0 229:0 230:0 231:0 232:0 233:0 234:0 235:0 236:0 237:0 238:0 239:0 240:0 241:0 242:0 243:0 244:0 245:0 246:0 247:0 248:0 249:0 250:0 251:0 252:0 253:0 254:0 255:0 256:0 257:122.8144 258:73.9872 259:200 260:255 261:13 262:2 263:0 264:0 265:0 266:0 267:2 268:2 269:0 270:0 271:0 272:4 273:0 274:7 275:0 276:2 277:0 278:0 279:0 280:0 281:1 282:0 283:0 284:5 285:0 286:0 287:0 288:0 289:0 290:0 291:1 292:0 293:0 294:1 295:0 296:0 297:0 298:2 299:1 300:0 301:0 302:0 303:0 304:0 305:0 306:0 307:0 308:2 309:1 310:1 311:0 312:0 313:0 314:0 315:1 316:0 317:0 318:0 319:0 320:2 321:0 322:2 323:4 324:4 325:2 326:0 327:0 328:0 329:0 330:0 331:0 332:0 333:1 334:0 335:0 336:0 337:1 338:1 339:0 340:0 341:0 342:0 343:1 344:0 345:0 346:0 347:0 348:0 349:1 350:0 351:0 352:0 353:0 354:1 355:1 356:1 357:1 358:0 359:0 360:3 361:1 362:0 363:0 364:0 365:0 366:0 367:1 368:4 369:0 370:2 371:1 372:1 373:2 374:0 375:0 376:0 377:0 378:0 379:0 380:0 381:0 382:0 383:0 384:0 385:1 386:0 387:1 388:1 389:0 390:0 391:0 392:0 393:0 394:1 395:0 396:1 397:1 398:0 399:0 400:0 401:0 402:0 403:1 
0 0 0.03129732005834155 1:2400 2:0 3:0 4:0 5:0 6:0 7:0 8:0 9:0 10:0 11:0 12:0 13:0 14:0 15:0 16:0 17:0 18:0 19:0 20:0 21:0 22:0 23:0 24:0 25:0 26:0 27:0 28:0 29:0 30:0 31:0 32:0 33:0 34:0 35:0 36:0 37:0 38:0 39:0 40:0 41:0 42:0 43:0 44:0 45:0 46:0 47:0 48:0 49:0 50:0 51:0 52:0 53:0 54:0 55:0 56:0 57:0 58:0 59:0 60:0 61:0 62:0 63:0 64:0 65:0 66:0 67:0 68:0 69:0 70:0 71:0 72:0 73:0 74:0 75:0 76:0 77:0 78:0 79:0 80:0 81:0 82:0 83:0 84:0 85:0 86:0 87:0 88:0 89:0 90:0 91:0 92:0 93:0 94:0 95:0 96:0 97:0 98:0 99:0 100:0 101:0 102:0 103:0 104:0 105:0 106:0 107:0 108:0 109:0 110:0 111:0 112:0 113:0 114:0 115:0 116:0 117:0 118:0 119:0 120:0 121:0 122:0 123:0 124:0 125:0 126:0 127:0 128:0 129:0 130:0 131:0 132:0 133:0 134:0 135:0 136:0 137:0 138:0 139:0 140:0 141:0 142:0 143:0 144:0 145:0 146:0 147:0 148:0 149:0 150:0 151:0 152:0 153:0 154:0 155:0 156:0 157:0 158:0 159:0 160:0 161:0 162:0 163:0 164:0 165:0 166:0 167:0 168:0 169:0 170:0 171:0 172:0 173:0 174:0 175:0 176:0 177:0 178:0 179:0 180:0 181:0 182:0 183:0 184:0 185:0 186:0 187:0 188:0 189:0 190:0 191:0 192:0 193:0 194:0 195:0 196:0 197:0 198:0 199:0 200:0 201:0 202:0 203:0 204:0 205:0 206:0 207:0 208:0 209:0 210:0 211:0 212:0 213:0 214:0 215:0 216:0 217:0 218:0 219:0 220:0 221:0 222:0 223:0 224:0 225:0 226:0 227:0 228:0 229:0 230:0 231:0 232:0 233:0 234:0 235:0 236:0 237:0 238:0 239:0 240:0 241:0 242:0 243:0 244:0 245:0 246:0 247:0 248:0 249:0 250:0 251:0 252:0 253:0 254:0 255:0 256:0 257:126.7904 258:75.0048 259:200 260:255 261:11 262:6 263:2 264:0 265:0 266:0 267:0 268:0 269:0 270:0 271:0 272:10 273:8 274:6 275:1 276:0 277:0 278:0 279:1 280:0 281:0 282:0 283:0 284:3 285:1 286:0 287:0 288:1 289:0 290:2 291:0 292:1 293:0 294:0 295:0 296:0 297:0 298:0 299:1 300:1 301:0 302:0 303:0 304:0 305:1 306:1 307:0 308:0 309:0 310:0 311:0 312:0 313:2 314:0 315:2 316:0 317:2 318:0 319:0 320:0 321:0 322:0 323:0 324:1 325:0 326:0 327:0 328:1 329:1 330:1 331:0 332:0 333:0 334:2 335:2 336:1 337:1 338:0 339:0 340:0 341:0 342:0 343:0 344:2 345:2 346:1 347:1 348:0 349:1 350:0 351:1 352:0 353:0 354:0 355:0 356:3 357:5 358:3 359:1 360:0 361:0 362:1 363:0 364:0 365:0 366:0 367:0 368:1 369:0 370:1 371:0 372:0 373:0 374:0 375:0 376:0 377:0 378:0 379:0 380:0 381:0 382:0 383:0 384:0 385:0 386:1 387:0 388:0 389:0 390:0 391:0 392:1 393:0 394:0 395:0 396:0 397:0 398:0 399:0 400:0 401:1 402:0 403:0 
0 0.09437159408205296 0.01781656548222346 1:2400 2:0 3:0 4:0 5:0 6:0 7:0 8:0 9:0 10:0 11:0 12:0 13:0 14:0 15:0 16:0 17:0 18:0 19:0 20:0 21:0 22:0 23:0 24:0 25:0 26:0 27:0 28:0 29:0 30:0 31:0 32:0 33:0 34:0 35:0 36:0 37:0 38:0 39:0 40:0 41:0 42:0 43:0 44:0 45:0 46:0 47:0 48:0 49:0 50:0 51:0 52:0 53:0 54:0 55:0 56:0 57:0 58:0 59:0 60:0 61:0 62:0 63:0 64:0 65:0 66:0 67:0 68:0 69:0 70:0 71:0 72:0 73:0 74:0 75:0 76:0 77:0 78:0 79:0 80:0 81:0 82:0 83:0 84:0 85:0 86:0 87:0 88:0 89:0 90:0 91:0 92:0 93:0 94:0 95:0 96:0 97:0 98:0 99:0 100:0 101:0 102:0 103:0 104:0 105:0 106:0 107:0 108:0 109:0 110:0 111:0 112:0 113:0 114:0 115:0 116:0 117:0 118:0 119:0 120:0 121:0 122:0 123:0 124:0 125:0 126:0 127:0 128:0 129:0 130:0 131:0 132:0 133:0 134:0 135:0 136:0 137:0 138:0 139:0 140:0 141:0 142:0 143:0 144:0 145:0 146:0 147:0 148:0 149:0 150:0 151:0 152:0 153:0 154:0 155:0 156:0 157:0 158:0 159:0 160:0 161:0 162:0 163:0 164:0 165:0 166:0 167:0 168:0 169:0 170:0 171:0 172:0 173:0 174:0 175:0 176:0 177:0 178:0 179:0 180:0 181:0 182:0 183:0 184:0 185:0 186:0 187:0 188:0 189:0 190:0 191:0 192:0 193:0 194:0 195:0 196:0 197:0 198:0 199:0 200:0 201:0 202:0 203:0 204:0 205:0 206:0 207:0 208:0 209:0 210:0 211:0 212:0 213:0 214:0 215:0 216:0 217:0 218:0 219:0 220:0 221:0 222:0 223:0 224:0 225:0 226:0 227:0 228:0 229:0 230:0 231:0 232:0 233:0 234:0 235:0 236:0 237:0 238:0 239:0 240:0 241:0 242:0 243:0 244:0 245:0 246:0 247:0 248:0 249:0 250:0 251:0 252:0 253:0 254:0 255:0 256:0 257:126.5488 258:73.6704 259:200 260:255 261:3 262:2 263:2 264:0 265:0 266:0 267:2 268:0 269:0 270:0 271:0 272:6 273:0 274:1 275:0 276:0 277:0 278:0 279:0 280:0 281:1 282:0 283:0 284:1 285:2 286:0 287:0 288:0 289:0 290:0 291:0 292:0 293:0 294:1 295:0 296:8 297:0 298:0 299:0 300:0 301:1 302:0 303:0 304:1 305:0 306:0 307:0 308:0 309:0 310:2 311:1 312:0 313:0 314:1 315:1 316:0 317:0 318:0 319:0 320:0 321:0 322:1 323:0 324:0 325:2 326:0 327:0 328:0 329:1 330:0 331:0 332:2 333:0 334:0 335:0 336:1 337:0 338:1 339:0 340:0 341:0 342:0 343:0 344:0 345:1 346:0 347:1 348:0 349:0 350:0 351:0 352:0 353:0 354:1 355:0 356:0 357:1 358:0 359:1 360:1 361:0 362:0 363:0 364:0 365:0 366:0 367:0 368:2 369:0 370:0 371:0 372:0 373:0 374:0 375:0 376:0 377:1 378:0 379:0 380:0 381:0 382:0 383:0 384:0 385:1 386:0 387:0 388:1 389:0 390:0 391:0 392:0 393:0 394:2 395:0 396:1 397:0 398:0 399:0 400:0 401:0 402:0 403:0 
0 0.04398031314890444 0 1:2400 2:0 3:0 4:0 5:0 6:0 7:0 8:0 9:0 10:0 11:0 12:0 13:0 14:0 15:0 16:0 17:0 18:0 19:0 20:0 21:0 22:0 23:0 24:0 25:0 26:0 27:0 28:0 29:0 30:0 31:0 32:0 33:0 34:0 35:0 36:0 37:0 38:0 39:0 40:0 41:0 42:0 43:0 44:0 45:0 46:0 47:0 48:0 49:0 50:0 51:0 52:0 53:0 54:0 55:0 56:0 57:0 58:0 59:0 60:0 61:0 62:0 63:0 64:0 65:0 66:0 67:0 68:0 69:0 70:0 71:0 72:0 73:0 74:0 75:0 76:0 77:0 78:0 79:0 80:0 81:0 82:0 83:0 84:0 85:0 86:0 87:0 88:0 89:0 90:0 91:0 92:0 93:0 94:0 95:0 96:0 97:0 98:0 99:0 100:0 101:0 102:0 103:0 104:0 105:0 106:0 107:0 108:0 109:0 110:0 111:0 112:0 113:0 114:0 115:0 116:0 117:0 118:0 119:0 120:0 121:0 122:0 123:0 124:0 125:0 126:0 127:0 128:0 129:0 130:0 131:0 132:0 133:0 134:0 135:0 136:0 137:0 138:0 139:0 140:0 141:0 142:0 143:0 144:0 145:0 146:0 147:0 148:0 149:0 150:0 151:0 152:0 153:0 154:0 155:0 156:0 157:0 158:0 159:0 160:0 161:0 162:0 163:0 164:0 165:0 166:0 167:0 168:0 169:0 170:0 171:0 172:0 173:0 174:0 175:0 176:0 177:0 178:0 179:0 180:0 181:0 182:0 183:0 184:0 185:0 186:0 187:0 188:0 189:0 190:0 191:0 192:0 193:0 194:0 195:0 196:0 197:0 198:0 199:0 200:0 201:0 202:0 203:0 204:0 205:0 206:0 207:0 208:0 209:0 210:0 211:0 212:0 213:0 214:0 215:0 216:0 217:0 218:0 219:0 220:0 221:0 222:0 223:0 224:0 225:0 226:0 227:0 228:0 229:0 230:0 231:0 232:0 233:0 234:0 235:0 236:0 237:0 238:0 239:0 240:0 241:0 242:0 243:0 244:0 245:0 246:0 247:0 248:0 249:0 250:0 251:0 252:0 253:0 254:0 255:0 256:0 257:126.0736 258:74.0336 259:200 260:255 261:0 262:2 263:1 264:6 265:2 266:1 267:3 268:0 269:0 270:0 271:0 272:2 273:0 274:1 275:0 276:0 277:0 278:0 279:0 280:0 281:0 282:1 283:1 284:4 285:0 286:0 287:2 288:0 289:0 290:0 291:0 292:1 293:0 294:0 295:1 296:0 297:0 298:0 299:1 300:0 301:0 302:0 303:0 304:2 305:0 306:1 307:0 308:2 309:0 310:0 311:0 312:0 313:2 314:1 315:0 316:0 317:0 318:0 319:0 320:0 321:0 322:2 323:4 324:0 325:0 326:0 327:0 328:1 329:0 330:0 331:0 332:0 333:1 334:0 335:0 336:0 337:1 338:0 339:0 340:0 341:0 342:0 343:0 344:2 345:0 346:0 347:0 348:0 349:1 350:1 351:0 352:0 353:0 354:0 355:0 356:0 357:0 358:0 359:0 360:2 361:0 362:0 363:0 364:1 365:0 366:0 367:0 368:0 369:0 370:0 371:1 372:0 373:1 374:2 375:0 376:0 377:0 378:0 379:0 380:2 381:0 382:2 383:1 384:0 385:1 386:1 387:0 388:0 389:1 390:0 391:0 392:1 393:2 394:0 395:0 396:2 397:1 398:0 399:1 400:0 401:0 402:0 403:0 
0.03143599314277472 0 0 1:2400 2:0 3:0 4:0 5:0 6:0 7:0 8:0 9:0 10:0 11:0 12:0 13:0 14:0 15:0 16:0 17:0 18:0 19:0 20:0 21:0 22:0 23:0 24:0 25:0 26:0 27:0 28:0 29:0 30:0 31:0 32:0 33:0 34:0 35:0 36:0 37:0 38:0 39:0 40:0 41:0 42:0 43:0 44:0 45:0 46:0 47:0 48:0 49:0 50:0 51:0 52:0 53:0 54:0 55:0 56:0 57:0 58:0 59:0 60:0 61:0 62:0 63:0 64:0 65:0 66:0 67:0 68:0 69:0 70:0 71:0 72:0 73:0 74:0 75:0 76:0 77:0 78:0 79:0 80:0 81:0 82:0 83:0 84:0 85:0 86:0 87:0 88:0 89:0 90:0 91:0 92:0 93:0 94:0 95:0 96:0 97:0 98:0 99:0 100:0 101:0 102:0 103:0 104:0 105:0 106:0 107:0 108:0 109:0 110:0 111:0 112:0 113:0 114:0 115:0 116:0 117:0 118:0 119:0 120:0 121:0 122:0 123:0 124:0 125:0 126:0 127:0 128:0 129:0 130:0 131:0 132:0 133:0 134:0 135:0 136:0 137:0 138:0 139:0 140:0 141:0 142:0 143:0 144:0 145:0 146:0 147:0 148:0 149:0 150:0 151:0 152:0 153:0 154:0 155:0 156:0 157:0 158:0 159:0 160:0 161:0 162:0 163:0 164:0 165:0 166:0 167:0 168:0 169:0 170:0 171:0 172:0 173:0 174:0 175:0 176:0 177:0 178:0 179:0 180:0 181:0 182:0 183:0 184:0 185:0 186:0 187:0 188:0 189:0 190:0 191:0 192:0 193:0 194:0 195:0 196:0 197:0 198:0 199:0 200:0 201:0 202:0 203:0 204:0 205:0 206:0 207:0 208:0 209:0 210:0 211:0 212:0 213:0 214:0 215:0 216:0 217:0 218:0 219:0 220:0 221:0 222:0 223:0 224:0 225:0 226:0 227:0 228:0 229:0 230:0 231:0 232:0 233:0 234:0 235:0 236:0 237:0 238:0 239:0 240:0 241:0 242:0 243:0 244:0 245:0 246:0 247:0 248:0 249:0 250:0 251:0 252:0 253:0 254:0 255:0 256:0 257:125.4688 258:74.3792 259:200 260:255 261:4 262:5 263:3 264:0 265:0 266:0 267:0 268:0 269:1 270:1 271:1 272:3 273:0 274:2 275:0 276:1 277:3 278:0 279:0 280:0 281:0 282:0 283:0 284:0 285:0 286:2 287:0 288:0 289:0 290:1 291:0 292:0 293:0 294:0 295:0 296:0 297:0 298:0 299:0 300:0 301:0 302:2 303:0 304:1 305:0 306:0 307:0 308:1 309:1 310:0 311:2 312:0 313:0 314:2 315:0 316:0 317:0 318:0 319:0 320:0 321:0 322:2 323:0 324:1 325:0 326:0 327:0 328:0 329:0 330:0 331:0 332:1 333:0 334:0 335:2 336:0 337:0 338:1 339:0 340:0 341:0 342:0 343:0 344:2 345:0 346:0 347:2 348:1 349:0 350:0 351:0 352:0 353:0 354:0 355:0 356:0 357:0 358:2 359:1 360:0 361:0 362:0 363:0 364:0 365:0 366:0 367:0 368:2 369:0 370:0 371:0 372:1 373:1 374:1 375:0 376:0 377:0 378:0 379:0 380:0 381:0 382:0 383:3 384:1 385:0 386:0 387:0 388:0 389:0 390:0 391:0 392:0 393:0 394:0 395:2 396:0 397:1 398:0 399:0 400:0 401:1 402:0 403:0 
0 0.009606836748161113 0.01230047852941237 1:2400 2:0 3:0 4:0 5:0 6:0 7:0 8:0 9:0 10:0 11:0 12:0 13:0 14:0 15:0 16:0 17:0 18:0 19:0 20:0 21:0 22:0 23:0 24:0 25:0 26:0 27:0 28:0 29:0 30:0 31:0 32:0 33:0 34:0 35:0 36:0 37:0 38:0 39:0 40:0 41:0 42:0 43:0 44:0 45:0 46:0 47:0 48:0 49:0 50:0 51:0 52:0 53:0 54:0 55:0 56:0 57:0 58:0 59:0 60:0 61:0 62:0 63:0 64:0 65:0 66:0 67:0 68:0 69:0 70:0 71:0 72:0 73:0 74:0 75:0 76:0 77:0 78:0 79:0 80:0 81:0 82:0 83:0 84:0 85:0 86:0 87:0 88:0 89:0 90:0 91:0 92:0 93:0 94:0 95:0 96:0 97:0 98:0 99:0 100:0 101:0 102:0 103:0 104:0 105:0 106:0 107:0 108:0 109:0 110:0 111:0 112:0 113:0 114:0 115:0 116:0 117:0 118:0 119:0 120:0 121:0 122:0 123:0 124:0 125:0 126:0 127:0 128:0 129:0 130:0 131:0 132:0 133:0 134:0 135:0 136:0 137:0 138:0 139:0 140:0 141:0 142:0 143:0 144:0 145:0 146:0 147:0 148:0 149:0 150:0 151:0 152:0 153:0 154:0 155:0 156:0 157:0 158:0 159:0 160:0 161:0 162:0 163:0 164:0 165:0 166:0 167:0 168:0 169:0 170:0 171:0 172:0 173:0 174:0 175:0 176:0 177:0 178:0 179:0 180:0 181:0 182:0 183:0 184:0 185:0 186:0 187:0 188:0 189:0 190:0 191:0 192:0 193:0 194:0 195:0 196:0 197:0 198:0 199:0 200:0 201:0 202:0 203:0 204:0 205:0 206:0 207:0 208:0 209:0 210:0 211:0 212:0 213:0 214:0 215:0 216:0 217:0 218:0 219:0 220:0 221:0 222:0 223:0 224:0 225:0 226:0 227:0 228:0 229:0 230:0 231:0 232:0 233:0 234:0 235:0 236:0 237:0 238:0 239:0 240:0 241:0 242:0 243:0 244:0 245:0 246:0 247:0 248:0 249:0 250:0 251:0 252:0 253:0 254:0 255:0 256:0 257:127.04 258:74.5824 259:200 260:255 261:0 262:0 263:1 264:0 265:0 266:0 267:0 268:0 269:0 270:0 271:0 272:8 273:1 274:0 275:1 276:0 277:0 278:0 279:0 280:0 281:0 282:0 283:0 284:0 285:3 286:0 287:0 288:0 289:0 290:1 291:0 292:0 293:0 294:0 295:0 296:0 297:0 298:1 299:1 300:2 301:0 302:1 303:0 304:1 305:0 306:1 307:1 308:0 309:0 310:1 311:0 312:0 313:1 314:0 315:0 316:1 317:0 318:0 319:0 320:0 321:0 322:0 323:1 324:2 325:0 326:0 327:0 328:0 329:1 330:0 331:0 332:0 333:0 334:2 335:1 336:0 337:0 338:0 339:0 340:0 341:0 342:1 343:0 344:0 345:0 346:2 347:1 348:0 349:1 350:0 351:0 352:0 353:0 354:0 355:0 356:2 357:0 358:0 359:0 360:0 361:1 362:1 363:1 364:0 365:0 366:0 367:0 368:0 369:0 370:2 371:0 372:0 373:0 374:0 375:0 376:0 377:0 378:0 379:0 380:0 381:1 382:0 383:0 384:0 385:0 386:0 387:0 388:0 389:0 390:0 391:0 392:0 393:0 394:0 395:0 396:0 397:0 398:0 399:1 400:0 401:1 402:0 403:0 
0.05056831442844831 0.02938736092844222 0 1:2400 2:0 3:0 4:0 5:0 6:0 7:0 8:0 9:0 10:0 11:0 12:0 13:0 14:0 15:0 16:0 17:0 18:0 19:0 20:0 21:0 22:0 23:0 24:0 25:0 26:0 27:0 28:0 29:0 30:0 31:0 32:0 33:0 34:0 35:0 36:0 37:0 38:0 39:0 40:0 41:0 42:0 43:0 44:0 45:0 46:0 47:0 48:0 49:0 50:0 51:0 52:0 53:0 54:0 55:0 56:0 57:0 58:0 59:0 60:0 61:0 62:0 63:0 64:0 65:0 66:0 67:0 68:0 69:0 70:0 71:0 72:0 73:0 74:0 75:0 76:0 77:0 78:0 79:0 80:0 81:0 82:0 83:0 84:0 85:0 86:0 87:0 88:0 89:0 90:0 91:0 92:0 93:0 94:0 95:0 96:0 97:0 98:0 99:0 100:0 101:0 102:0 103:0 104:0 105:0 106:0 107:0 108:0 109:0 110:0 111:0 112:0 113:0 114:0 115:0 116:0 117:0 118:0 119:0 120:0 121:0 122:0 123:0 124:0 125:0 126:0 127:0 128:0 129:0 130:0 131:0 132:0 133:0 134:0 135:0 136:0 137:0 138:0 139:0 140:0 141:0 142:0 143:0 144:0 145:0 146:0 147:0 148:0 149:0 150:0 151:0 152:0 153:0 154:0 155:0 156:0 157:0 158:0 159:0 160:0 161:0 162:0 163:0 164:0 165:0 166:0 167:0 168:0 169:0 170:0 171:0 172:0 173:0 174:0 175:0 176:0 177:0 178:0 179:0 180:0 181:0 182:0 183:0 184:0 185:0 186:0 187:0 188:0 189:0 190:0 191:0 192:0 193:0 194:0 195:0 196:0 197:0 198:0 199:0 200:0 201:0 202:0 203:0 204:0 205:0 206:0 207:0 208:0 209:0 210:0 211:0 212:0 213:0 214:0 215:0 216:0 217:0 218:0 219:0 220:0 221:0 222:0 223:0 224:0 225:0 226:0 227:0 228:0 229:0 230:0 231:0 232:0 233:0 234:0 235:0 236:0 237:0 238:0 239:0 240:0 241:0 242:0 243:0 244:0 245:0 246:0 247:0 248:0 249:0 250:0 251:0 252:0 253:0 254:0 255:0 256:0 257:125.4064 258:73.5856 259:200 260:255 261:0 262:0 263:0 264:2 265:0 266:0 267:0 268:1 269:0 270:0 271:1 272:8 273:3 274:0 275:0 276:0 277:0 278:0 279:0 280:0 281:0 282:0 283:0 284:0 285:0 286:2 287:0 288:0 289:1 290:1 291:1 292:0 293:0 294:0 295:0 296:3 297:1 298:0 299:0 300:0 301:0 302:0 303:1 304:0 305:0 306:0 307:0 308:0 309:0 310:0 311:0 312:0 313:1 314:0 315:0 316:0 317:0 318:0 319:0 320:0 321:0 322:3 323:3 324:2 325:1 326:0 327:0 328:0 329:1 330:0 331:0 332:1 333:2 334:0 335:2 336:0 337:0 338:0 339:0 340:0 341:0 342:0 343:0 344:2 345:3 346:1 347:0 348:0 349:1 350:2 351:0 352:0 353:0 354:0 355:0 356:0 357:0 358:2 359:0 360:2 361:0 362:0 363:1 364:0 365:0 366:0 367:0 368:2 369:0 370:0 371:0 372:2 373:1 374:0 375:1 376:1 377:0 378:0 379:0 380:0 381:0 382:1 383:0 384:0 385:1 386:1 387:0 388:0 389:0 390:0 391:0 392:0 393:0 394:0 395:1 396:1 397:0 398:0 399:0 400:0 401:0 402:0 403:0 
0.005876735806010862 0.01797973595377695 0.0005416359015493507 1:2400 2:0 3:0 4:0 5:0 6:0 7:0 8:0 9:0 10:0 11:0 12:0 13:0 14:0 15:0 16:0 17:0 18:0 19:0 20:0 21:0 22:0 23:0 24:0 25:0 26:0 27:0 28:0 29:0 30:0 31:0 32:0 33:0 34:0 35:0 36:0 37:0 38:0 39:0 40:0 41:0 42:0 43:0 44:0 45:0 46:0 47:0 48:0 49:0 50:0 51:0 52:0 53:0 54:0 55:0 56:0 57:0 58:0 59:0 60:0 61:0 62:0 63:0 64:0 65:0 66:0 67:0 68:0 69:0 70:0 71:0 72:0 73:0 74:0 75:0 76:0 77:0 78:0 79:0 80:0 81:0 82:0 83:0 84:0 85:0 86:0 87:0 88:0 89:0 90:0 91:0 92:0 93:0 94:0 95:0 96:0 97:0 98:0 99:0 100:0 101:0 102:0 103:0 104:0 105:0 106:0 107:0 108:0 109:0 110:0 111:0 112:0 113:0 114:0 115:0 116:0 117:0 118:0 119:0 120:0 121:0 122:0 123:0 124:0 125:0 126:0 127:0 128:0 129:0 130:0 131:0 132:0 133:0 134:0 135:0 136:0 137:0 138:0 139:0 140:0 141:0 142:0 143:0 144:0 145:0 146:0 147:0 148:0 149:0 150:0 151:0 152:0 153:0 154:0 155:0 156:0 157:0 158:0 159:0 160:0 161:0 162:0 163:0 164:0 165:0 166:0 167:0 168:0 169:0 170:0 171:0 172:0 173:0 174:0 175:0 176:0 177:0 178:0 179:0 180:0 181:0 182:0 183:0 184:0 185:0 186:0 187:0 188:0 189:0 190:0 191:0 192:0 193:0 194:0 195:0 196:0 197:0 198:0 199:0 200:0 201:0 202:0 203:0 204:0 205:0 206:0 207:0 208:0 209:0 210:0 211:0 212:0 213:0 214:0 215:0 216:0 217:0 218:0 219:0 220:0 221:0 222:0 223:0 224:0 225:0 226:0 227:0 228:0 229:0 230:0 231:0 232:0 233:0 234:0 235:0 236:0 237:0 238:0 239:0 240:0 241:0 242:0 243:0 244:0 245:0 246:0 247:0 248:0 249:0 250:0 251:0 252:0 253:0 254:0 255:0 256:0 257:124.2368 258:73.88 259:200 260:255 261:2 262:6 263:0 264:0 265:0 266:0 267:0 268:0 269:0 270:2 271:1 272:1 273:0 274:0 275:1 276:0 277:2 278:0 279:1 280:1 281:0 282:0 283:0 284:0 285:0 286:0 287:0 288:0 289:1 290:0 291:0 292:1 293:0 294:0 295:0 296:7 297:2 298:1 299:0 300:0 301:0 302:0 303:0 304:0 305:0 306:0 307:0 308:0 309:3 310:3 311:0 312:2 313:0 314:0 315:0 316:1 317:0 318:0 319:0 320:0 321:0 322:3 323:4 324:0 325:0 326:0 327:0 328:1 329:1 330:0 331:0 332:1 333:0 334:0 335:0 336:0 337:1 338:0 339:0 340:0 341:0 342:0 343:0 344:0 345:0 346:0 347:0 348:1 349:1 350:2 351:1 352:1 353:0 354:0 355:0 356:3 357:0 358:1 359:0 360:0 361:1 362:1 363:1 364:0 365:0 366:0 367:0 368:2 369:1 370:0 371:1 372:0 373:1 374:1 375:0 376:0 377:1 378:0 379:1 380:0 381:0 382:1 383:0 384:1 385:0 386:0 387:0 388:0 389:0 390:0 391:0 392:1 393:0 394:0 395:0 396:1 397:0 398:0 399:0 400:1 401:0 402:0 403:0 
0.005094374013363546 0.002724655399045339 0 1:2400 2:0 3:0 4:0 5:0 6:0 7:0 8:0 9:0 10:0 11:0 12:0 13:0 14:0 15:0 16:0 17:0 18:0 19:0 20:0 21:0 22:0 23:0 24:0 25:0 26:0 27:0 28:0 29:0 30:0 31:0 32:0 33:0 34:0 35:0 36:0 37:0 38:0 39:0 40:0 41:0 42:0 43:0 44:0 45:0 46:0 47:0 48:0 49:0 50:0 51:0 52:0 53:0 54:0 55:0 56:0 57:0 58:0 59:0 60:0 61:0 62:0 63:0 64:0 65:0 66:0 67:0 68:0 69:0 70:0 71:0 72:0 73:0 74:0 75:0 76:0 77:0 78:0 79:0 80:0 81:0 82:0 83:0 84:0 85:0 86:0 87:0 88:0 89:0 90:0 91:0 92:0 93:0 94:0 95:0 96:0 97:0 98:0 99:0 100:0 101:0 102:0 103:0 104:0 105:0 106:0 107:0 108:0 109:0 110:0 111:0 112:0 113:0 114:0 115:0 116:0 117:0 118:0 119:0 120:0 121:0 122:0 123:0 124:0 125:0 126:0 127:0 128:0 129:0 130:0 131:0 132:0 133:0 134:0 135:0 136:0 137:0 138:0 139:0 140:0 141:0 142:0 143:0 144:0 145:0 146:0 147:0 148:0 149:0 150:0 151:0 152:0 153:0 154:0 155:0 156:0 157:0 158:0 159:0 160:0 161:0 162:0 163:0 164:0 165:0 166:0 167:0 168:0 169:0 170:0 171:0 172:0 173:0 174:0 175:0 176:0 177:0 178:0 179:0 180:0 181:0 182:0 183:0 184:0 185:0 186:0 187:0 188:0 189:0 190:0 191:0 192:0 193:0 194:0 195:0 196:0 197:0 198:0 199:0 200:0 201:0 202:0 203:0 204:0 205:0 206:0 207:0 208:0 209:0 210:0 211:0 212:0 213:0 214:0 215:0 216:0 217:0 218:0 219:0 220:0 221:0 222:0 223:0 224:0 225:0 226:0 227:0 228:0 229:0 230:0 231:0 232:0 233:0 234:0 235:0 236:0 237:0 238:0 239:0 240:0 241:0 242:0 243:0 244:0 245:0 246:0 247:0 248:0 249:0 250:0 251:0 252:0 253:0 254:0 255:0 256:0 257:125.776 258:73.2464 259:200 260:255 261:0 262:6 263:1 264:1 265:1 266:0 267:0 268:0 269:1 270:0 271:0 272:7 273:0 274:0 275:2 276:0 277:0 278:1 279:0 280:0 281:0 282:0 283:0 284:0 285:0 286:0 287:2 288:0 289:0 290:0 291:1 292:0 293:0 294:0 295:0 296:0 297:1 298:0 299:0 300:0 301:1 302:0 303:0 304:0 305:1 306:0 307:0 308:0 309:1 310:0 311:0 312:1 313:0 314:1 315:0 316:0 317:0 318:0 319:0 320:0 321:0 322:0 323:0 324:0 325:1 326:0 327:1 328:1 329:1 330:0 331:0 332:2 333:0 334:0 335:1 336:0 337:0 338:0 339:0 340:0 341:0 342:0 343:0 344:0 345:1 346:3 347:0 348:1 349:1 350:1 351:0 352:0 353:0 354:0 355:0 356:0 357:0 358:0 359:0 360:0 361:0 362:1 363:0 364:0 365:0 366:0 367:0 368:1 369:0 370:1 371:0 372:0 373:0 374:0 375:0 376:0 377:0 378:0 379:0 380:2 381:0 382:0 383:1 384:0 385:0 386:0 387:0 388:0 389:1 390:1 391:0 392:0 393:0 394:0 395:0 396:2 397:0 398:1 399:0 400:0 401:0 402:0 403:0 
0.006471380428335618 0.1120377384786219 0.007430652594382814 1:2400 2:0 3:0 4:0 5:0 6:0 7:0 8:0 9:0 10:0 11:0 12:0 13:0 14:0 15:0 16:0 17:0 18:0 19:0 20:0 21:0 22:0 23:0 24:0 25:0 26:0 27:0 28:0 29:0 30:0 31:0 32:0 33:0 34:0 35:0 36:0 37:0 38:0 39:0 40:0 41:0 42:0 43:0 44:0 45:0 46:0 47:0 48:0 49:0 50:0 51:0 52:0 53:0 54:0 55:0 56:0 57:0 58:0 59:0 60:0 61:0 62:0 63:0 64:0 65:0 66:0 67:0 68:0 69:0 70:0 71:0 72:0 73:0 74:0 75:0 76:0 77:0 78:0 79:0 80:0 81:0 82:0 83:0 84:0 85:0 86:0 87:0 88:0 89:0 90:0 91:0 92:0 93:0 94:0 95:0 96:0 97:0 98:0 99:0 100:0 101:0 102:0 103:0 104:0 105:0 106:0 107:0 108:0 109:0 110:0 111:0 112:0 113:0 114:0 115:0 116:0 117:0 118:0 119:0 120:0 121:0 122:0 123:0 124:0 125:0 126:0 127:0 128:0 129:0 130:0 131:0 132:0 133:0 134:0 135:0 136:0 137:0 138:0 139:0 140:0 141:0 142:0 143:0 144:0 145:0 146:0 147:0 148:0 149:0 150:0 151:0 152:0 153:0 154:0 155:0 156:0 157:0 158:0 159:0 160:0 161:0 162:0 163:0 164:0 165:0 166:0 167:0 168:0 169:0 170:0 171:0 172:0 173:0 174:0 175:0 176:0 177:0 178:0 179:0 180:0 181:0 182:0 183:0 184:0 185:0 186:0 187:0 188:0 189:0 190:0 191:0 192:0 193:0 194:0 195:0 196:0 197:0 198:0 199:0 200:0 201:0 202:0 203:0 204:0 205:0 206:0 207:0 208:0 209:0 210:0 211:0 212:0 213:0 214:0 215:0 216:0 217:0 218:0 219:0 220:0 221:0 222:0 223:0 224:0 225:0 226:0 227:0 228:0 229:0 230:0 231:0 232:0 233:0 234:0 235:0 236:0 237:0 238:0 239:0 240:0 241:0 242:0 243:0 244:0 245:0 246:0 247:0 248:0 249:0 250:0 251:0 252:0 253:0 254:0 255:0 256:0 257:124.92 258:73.288 259:200 260:255 261:0 262:2 263:0 264:0 265:1 266:1 267:0 268:1 269:0 270:0 271:1 272:11 273:0 274:0 275:4 276:0 277:0 278:1 279:0 280:0 281:0 282:1 283:0 284:2 285:3 286:0 287:0 288:1 289:2 290:0 291:0 292:0 293:0 294:0 295:0 296:0 297:0 298:4 299:0 300:2 301:1 302:0 303:0 304:0 305:1 306:0 307:0 308:1 309:0 310:1 311:0 312:0 313:1 314:0 315:0 316:0 317:1 318:0 319:0 320:1 321:0 322:1 323:2 324:0 325:0 326:0 327:0 328:0 329:0 330:0 331:0 332:0 333:1 334:2 335:0 336:1 337:0 338:0 339:0 340:0 341:0 342:0 343:0 344:0 345:0 346:0 347:2 348:0 349:0 350:0 351:0 352:0 353:0 354:0 355:0 356:0 357:0 358:0 359:0 360:1 361:1 362:0 363:0 364:0 365:0 366:0 367:0 368:0 369:0 370:0 371:0 372:0 373:0 374:0 375:0 376:0 377:0 378:0 379:0 380:1 381:0 382:0 383:0 384:0 385:1 386:0 387:0 388:0 389:0 390:0 391:0 392:0 393:0 394:3 395:0 396:0 397:0 398:0 399:0 400:0 401:0 402:0 403:1 
0.1019059769890483 0.2991131455815955 0 1:2400 2:0 3:0 4:0 5:0 6:0 7:0 8:0 9:0 10:0 11:0 12:0 13:0 14:0 15:0 16:0 17:0 18:0 19:0 20:0 21:0 22:0 23:0 24:0 25:0 26:0 27:0 28:0 29:0 30:0 31:0 32:0 33:0 34:0 35:0 36:0 37:0 38:0 39:0 40:0 41:0 42:0 43:0 44:0 45:0 46:0 47:0 48:0 49:0 50:0 51:0 52:0 53:0 54:0 55:0 56:0 57:0 58:0 59:0 60:0 61:0 62:0 63:0 64:0 65:0 66:0 67:0 68:0 69:0 70:0 71:0 72:0 73:0 74:0 75:0 76:0 77:0 78:0 79:0 80:0 81:0 82:0 83:0 84:0 85:0 86:0 87:0 88:0 89:0 90:0 91:0 92:0 93:0 94:0 95:0 96:0 97:0 98:0 99:0 100:0 101:0 102:0 103:0 104:0 105:0 106:0 107:0 108:0 109:0 110:0 111:0 112:0 113:0 114:0 115:0 116:0 117:0 118:0 119:0 120:0 121:0 122:0 123:0 124:0 125:0 126:0 127:0 128:0 129:0 130:0 131:0 132:0 133:0 134:0 135:0 136:0 137:0 138:0 139:0 140:0 141:0 142:0 143:0 144:0 145:0 146:0 147:0 148:0 149:0 150:0 151:0 152:0 153:0 154:0 155:0 156:0 157:0 158:0 159:0 160:0 161:0 162:0 163:0 164:0 165:0 166:0 167:0 168:0 169:0 170:0 171:0 172:0 173:0 174:0 175:0 176:0 177:0 178:0 179:0 180:0 181:0 182:0 183:0 184:0 185:0 186:0 187:0 188:0 189:0 190:0 191:0 192:0 193:0 194:0 195:0 196:0 197:0 198:0 199:0 200:0 201:0 202:0 203:0 204:0 205:0 206:0 207:0 208:0 209:0 210:0 211:0 212:0 213:0 214:0 215:0 216:0 217:0 218:0 219:0 220:0 221:0 222:0 223:0 224:0 225:0 226:0 227:0 228:0 229:0 230:0 231:0 232:0 233:0 234:0 235:0 236:0 237:0 238:0 239:0 240:0 241:0 242:0 243:0 244:0 245:0 246:0 247:0 248:0 249:0 250:0 251:0 252:0 253:0 254:0 255:0 256:0 257:124.664 258:71.6336 259:200 260:255 261:0 262:1 263:0 264:0 265:0 266:0 267:0 268:0 269:0 270:0 271:0 272:0 273:0 274:0 275:0 276:0 277:1 278:0 279:0 280:0 281:0 282:0 283:0 284:1 285:0 286:0 287:1 288:1 289:0 290:0 291:0 292:0 293:0 294:0 295:0 296:0 297:0 298:0 299:0 300:0 301:0 302:0 303:0 304:0 305:0 306:0 307:0 308:0 309:0 310:0 311:1 312:0 313:0 314:0 315:0 316:0 317:0 318:0 319:0 320:0 321:0 322:1 323:0 324:0 325:0 326:0 327:0 328:0 329:0 330:0 331:0 332:0 333:0 334:0 335:0 336:0 337:0 338:1 339:0 340:0 341:0 342:0 343:0 344:0 345:0 346:0 347:0 348:0 349:0 350:0 351:0 352:0 353:0 354:0 355:0 356:0 357:1 358:0 359:0 360:0 361:0 362:0 363:0 364:0 365:0 366:0 367:0 368:0 369:0 370:0 371:0 372:0 373:0 374:0 375:0 376:0 377:0 378:0 379:0 380:0 381:1 382:0 383:0 384:0 385:0 386:0 387:0 388:0 389:0 390:0 391:0 392:0 393:0 394:0 395:0 396:0 397:0 398:0 399:0 400:0 401:0 402:0 403:0 
0 0.2255630096056949 0 1:2400 2:0 3:0 4:0 5:0 6:0 7:0 8:0 9:0 10:0 11:0 12:0 13:0 14:0 15:0 16:0 17:0 18:0 19:0 20:0 21:0 22:0 23:0 24:0 25:0 26:0 27:0 28:0 29:0 30:0 31:0 32:0 33:0 34:0 35:0 36:0 37:0 38:0 39:0 40:0 41:0 42:0 43:0 44:0 45:0 46:0 47:0 48:0 49:0 50:0 51:0 52:0 53:0 54:0 55:0 56:0 57:0 58:0 59:0 60:0 61:0 62:0 63:0 64:0 65:0 66:0 67:0 68:0 69:0 70:0 71:0 72:0 73:0 74:0 75:0 76:0 77:0 78:0 79:0 80:0 81:0 82:0 83:0 84:0 85:0 86:0 87:0 88:0 89:0 90:0 91:0 92:0 93:0 94:0 95:0 96:0 97:0 98:0 99:0 100:0 101:0 102:0 103:0 104:0 105:0 106:0 107:0 108:0 109:0 110:0 111:0 112:0 113:0 114:0 115:0 116:0 117:0 118:0 119:0 120:0 121:0 122:0 123:0 124:0 125:0 126:0 127:0 128:0 129:0 130:0 131:0 132:0 133:0 134:0 135:0 136:0 137:0 138:0 139:0 140:0 141:0 142:0 143:0 144:0 145:0 146:0 147:0 148:0 149:0 150:0 151:0 152:0 153:0 154:0 155:0 156:0 157:0 158:0 159:0 160:0 161:0 162:0 163:0 164:0 165:0 166:0 167:0 168:0 169:0 170:0 171:0 172:0 173:0 174:0 175:0 176:0 177:0 178:0 179:0 180:0 181:0 182:0 183:0 184:0 185:0 186:0 187:0 188:0 189:0 190:0 191:0 192:0 193:0 194:0 195:0 196:0 197:0 198:0 199:0 200:0 201:0 202:0 203:0 204:0 205:0 206:0 207:0 208:0 209:0 210:0 211:0 212:0 213:0 214:0 215:0 216:0 217:0 218:0 219:0 220:0 221:0 222:0 223:0 224:0 225:0 226:0 227:0 228:0 229:0 230:0 231:0 232:0 233:0 234:0 235:0 236:0 237:0 238:0 239:0 240:0 241:0 242:0 243:0 244:0 245:0 246:0 247:0 248:0 249:0 250:0 251:0 252:0 253:0 254:0 255:0 256:0 257:125.5488 258:72.1744 259:200 260:255 261:5 262:1 263:1 264:0 265:0 266:0 267:0 268:1 269:0 270:0 271:0 272:4 273:3 274:0 275:1 276:0 277:0 278:0 279:0 280:1 281:0 282:0 283:0 284:0 285:0 286:3 287:1 288:0 289:1 290:0 291:0 292:0 293:0 294:0 295:0 296:0 297:0 298:3 299:0 300:1 301:0 302:1 303:1 304:0 305:0 306:0 307:0 308:0 309:2 310:3 311:0 312:0 313:1 314:0 315:0 316:0 317:0 318:0 319:0 320:0 321:0 322:0 323:1 324:0 325:1 326:1 327:0 328:0 329:0 330:1 331:0 332:2 333:0 334:0 335:0 336:0 337:0 338:0 339:0 340:0 341:0 342:0 343:0 344:1 345:0 346:1 347:0 348:1 349:0 350:0 351:0 352:0 353:1 354:0 355:0 356:1 357:1 358:0 359:0 360:0 361:0 362:0 363:0 364:0 365:0 366:0 367:0 368:0 369:1 370:1 371:0 372:0 373:0 374:0 375:0 376:0 377:0 378:0 379:0 380:1 381:0 382:1 383:0 384:1 385:0 386:0 387:1 388:0 389:0 390:0 391:0 392:0 393:0 394:0 395:1 396:0 397:0 398:0 399:0 400:0 401:0 402:1 403:0 
0 0.139478906400238 0 1:2400 2:0 3:0 4:0 5:0 6:0 7:0 8:0 9:0 10:0 11:0 12:0 13:0 14:0 15:0 16:0 17:0 18:0 19:0 20:0 21:0 22:0 23:0 24:0 25:0 26:0 27:0 28:0 29:0 30:0 31:0 32:0 33:0 34:0 35:0 36:0 37:0 38:0 39:0 40:0 41:0 42:0 43:0 44:0 45:0 46:0 47:0 48:0 49:0 50:0 51:0 52:0 53:0 54:0 55:0 56:0 57:0 58:0 59:0 60:0 61:0 62:0 63:0 64:0 65:0 66:0 67:0 68:0 69:0 70:0 71:0 72:0 73:0 74:0 75:0 76:0 77:0 78:0 79:0 80:0 81:0 82:0 83:0 84:0 85:0 86:0 87:0 88:0 89:0 90:0 91:0 92:0 93:0 94:0 95:0 96:0 97:0 98:0 99:0 100:0 101:0 102:0 103:0 104:0 105:0 106:0 107:0 108:0 109:0 110:0 111:0 112:0 113:0 114:0 115:0 116:0 117:0 118:0 119:0 120:0 121:0 122:0 123:0 124:0 125:0 126:0 127:0 128:0 129:0 130:0 131:0 132:0 133:0 134:0 135:0 136:0 137:0 138:0 139:0 140:0 141:0 142:0 143:0 144:0 145:0 146:0 147:0 148:0 149:0 150:0 151:0 152:0 153:0 154:0 155:0 156:0 157:0 158:0 159:0 160:0 161:0 162:0 163:0 164:0 165:0 166:0 167:0 168:0 169:0 170:0 171:0 172:0 173:0 174:0 175:0 176:0 177:0 178:0 179:0 180:0 181:0 182:0 183:0 184:0 185:0 186:0 187:0 188:0 189:0 190:0 191:0 192:0 193:0 194:0 195:0 196:0 197:0 198:0 199:0 200:0 201:0 202:0 203:0 204:0 205:0 206:0 207:0 208:0 209:0 210:0 211:0 212:0 213:0 214:0 215:0 216:0 217:0 218:0 219:0 220:0 221:0 222:0 223:0 224:0 225:0 226:0 227:0 228:0 229:0 230:0 231:0 232:0 233:0 234:0 235:0 236:0 237:0 238:0 239:0 240:0 241:0 242:0 243:0 244:0 245:0 246:0 247:0 248:0 249:0 250:0 251:0 252:0 253:0 254:0 255:0 256:0 257:125.7664 258:72.3376 259:200 260:255 261:3 262:1 263:2 264:0 265:0 266:0 267:0 268:1 269:1 270:1 271:0 272:0 273:0 274:4 275:3 276:2 277:0 278:0 279:0 280:1 281:0 282:0 283:0 284:0 285:0 286:0 287:2 288:1 289:0 290:1 291:0 292:0 293:0 294:0 295:0 296:2 297:0 298:0 299:0 300:0 301:1 302:1 303:0 304:0 305:0 306:0 307:1 308:0 309:1 310:0 311:0 312:0 313:0 314:0 315:0 316:0 317:1 318:0 319:0 320:1 321:0 322:0 323:0 324:0 325:0 326:0 327:0 328:0 329:0 330:0 331:0 332:0 333:1 334:0 335:2 336:0 337:0 338:1 339:0 340:1 341:0 342:0 343:0 344:0 345:1 346:1 347:0 348:0 349:0 350:0 351:1 352:0 353:0 354:0 355:0 356:0 357:0 358:1 359:0 360:0 361:1 362:0 363:0 364:0 365:0 366:0 367:0 368:0 369:1 370:0 371:0 372:0 373:1 374:0 375:1 376:0 377:0 378:1 379:0 380:0 381:0 382:0 383:0 384:0 385:0 386:0 387:0 388:1 389:0 390:0 391:1 392:0 393:0 394:0 395:0 396:1 397:0 398:0 399:0 400:0 401:0 402:0 403:0 
0.003941553775109415 0 0.01801333780991681 1:2400 2:0 3:0 4:0 5:0 6:0 7:0 8:0 9:0 10:0 11:0 12:0 13:0 14:0 15:0 16:0 17:0 18:0 19:0 20:0 21:0 22:0 23:0 24:0 25:0 26:0 27:0 28:0 29:0 30:0 31:0 32:0 33:0 34:0 35:0 36:0 37:0 38:0 39:0 40:0 41:0 42:0 43:0 44:0 45:0 46:0 47:0 48:0 49:0 50:0 51:0 52:0 53:0 54:0 55:0 56:0 57:0 58:0 59:0 60:0 61:0 62:0 63:0 64:0 65:0 66:0 67:0 68:0 69:0 70:0 71:0 72:0 73:0 74:0 75:0 76:0 77:0 78:0 79:0 80:0 81:0 82:0 83:0 84:0 85:0 86:0 87:0 88:0 89:0 90:0 91:0 92:0 93:0 94:0 95:0 96:0 97:0 98:0 99:0 100:0 101:0 102:0 103:0 104:0 105:0 106:0 107:0 108:0 109:0 110:0 111:0 112:0 113:0 114:0 115:0 116:0 117:0 118:0 119:0 120:0 121:0 122:0 123:0 124:0 125:0 126:0 127:0 128:0 129:0 130:0 131:0 132:0 133:0 134:0 135:0 136:0 137:0 138:0 139:0 140:0 141:0 142:0 143:0 144:0 145:0 146:0 147:0 148:0 149:0 150:0 151:0 152:0 153:0 154:0 155:0 156:0 157:0 158:0 159:0 160:0 161:0 162:0 163:0 164:0 165:0 166:0 167:0 168:0 169:0 170:0 171:0 172:0 173:0 174:0 175:0 176:0 177:0 178:0 179:0 180:0 181:0 182:0 183:0 184:0 185:0 186:0 187:0 188:0 189:0 190:0 191:0 192:0 193:0 194:0 195:0 196:0 197:0 198:0 199:0 200:0 201:0 202:0 203:0 204:0 205:0 206:0 207:0 208:0 209:0 210:0 211:0 212:0 213:0 214:0 215:0 216:0 217:0 218:0 219:0 220:0 221:0 222:0 223:0 224:0 225:0 226:0 227:0 228:0 229:0 230:0 231:0 232:0 233:0 234:0 235:0 236:0 237:0 238:0 239:0 240:0 241:0 242:0 243:0 244:0 245:0 246:0 247:0 248:0 249:0 250:0 251:0 252:0 253:0 254:0 255:0 256:0 257:125.3104 258:74.8064 259:200 260:255 261:4 262:0 263:0 264:0 265:2 266:0 267:1 268:0 269:1 270:1 271:0 272:0 273:0 274:0 275:4 276:2 277:0 278:0 279:0 280:1 281:0 282:0 283:0 284:0 285:0 286:3 287:0 288:0 289:0 290:1 291:0 292:1 293:0 294:1 295:0 296:9 297:0 298:4 299:4 300:0 301:3 302:0 303:0 304:0 305:1 306:0 307:0 308:4 309:0 310:0 311:1 312:1 313:0 314:0 315:1 316:0 317:0 318:0 319:0 320:0 321:2 322:0 323:0 324:0 325:0 326:0 327:0 328:0 329:0 330:1 331:0 332:4 333:0 334:0 335:1 336:0 337:1 338:2 339:0 340:0 341:0 342:0 343:0 344:2 345:1 346:0 347:1 348:0 349:1 350:2 351:0 352:0 353:0 354:0 355:0 356:2 357:2 358:2 359:0 360:0 361:0 362:1 363:0 364:0 365:1 366:0 367:0 368:1 369:0 370:0 371:0 372:0 373:0 374:0 375:0 376:0 377:0 378:0 379:0 380:3 381:0 382:1 383:0 384:0 385:0 386:0 387:0 388:0 389:0 390:1 391:0 392:1 393:0 394:0 395:0 396:0 397:0 398:0 399:0 400:0 401:0 402:0 403:0 
0.0244153507696952 0.04007649872983621 0 1:2400 2:0 3:0 4:0 5:0 6:0 7:0 8:0 9:0 10:0 11:0 12:0 13:0 14:0 15:0 16:0 17:0 18:0 19:0 20:0 21:0 22:0 23:0 24:0 25:0 26:0 27:0 28:0 29:0 30:0 31:0 32:0 33:0 34:0 35:0 36:0 37:0 38:0 39:0 40:0 41:0 42:0 43:0 44:0 45:0 46:0 47:0 48:0 49:0 50:0 51:0 52:0 53:0 54:0 55:0 56:0 57:0 58:0 59:0 60:0 61:0 62:0 63:0 64:0 65:0 66:0 67:0 68:0 69:0 70:0 71:0 72:0 73:0 74:0 75:0 76:0 77:0 78:0 79:0 80:0 81:0 82:0 83:0 84:0 85:0 86:0 87:0 88:0 89:0 90:0 91:0 92:0 93:0 94:0 95:0 96:0 97:0 98:0 99:0 100:0 101:0 102:0 103:0 104:0 105:0 106:0 107:0 108:0 109:0 110:0 111:0 112:0 113:0 114:0 115:0 116:0 117:0 118:0 119:0 120:0 121:0 122:0 123:0 124:0 125:0 126:0 127:0 128:0 129:0 130:0 131:0 132:0 133:0 134:0 135:0 136:0 137:0 138:0 139:0 140:0 141:0 142:0 143:0 144:0 145:0 146:0 147:0 148:0 149:0 150:0 151:0 152:0 153:0 154:0 155:0 156:0 157:0 158:0 159:0 160:0 161:0 162:0 163:0 164:0 165:0 166:0 167:0 168:0 169:0 170:0 171:0 172:0 173:0 174:0 175:0 176:0 177:0 178:0 179:0 180:0 181:0 182:0 183:0 184:0 185:0 186:0 187:0 188:0 189:0 190:0 191:0 192:0 193:0 194:0 195:0 196:0 197:0 198:0 199:0 200:0 201:0 202:0 203:0 204:0 205:0 206:0 207:0 208:0 209:0 210:0 211:0 212:0 213:0 214:0 215:0 216:0 217:0 218:0 219:0 220:0 221:0 222:0 223:0 224:0 225:0 226:0 227:0 228:0 229:0 230:0 231:0 232:0 233:0 234:0 235:0 236:0 237:0 238:0 239:0 240:0 241:0 242:0 243:0 244:0 245:0 246:0 247:0 248:0 249:0 250:0 251:0 252:0 253:0 254:0 255:0 256:0 257:125.6256 258:74.5232 259:200 260:255 261:1 262:0 263:0 264:0 265:2 266:0 267:1 268:0 269:0 270:0 271:0 272:0 273:0 274:0 275:5 276:0 277:0 278:0 279:0 280:0 281:1 282:0 283:0 284:0 285:3 286:3 287:2 288:0 289:0 290:0 291:0 292:0 293:0 294:1 295:0 296:3 297:0 298:1 299:2 300:1 301:0 302:1 303:0 304:0 305:0 306:0 307:1 308:1 309:3 310:0 311:0 312:0 313:0 314:0 315:0 316:0 317:0 318:0 319:0 320:0 321:0 322:1 323:2 324:1 325:0 326:0 327:0 328:0 329:1 330:1 331:0 332:3 333:0 334:0 335:1 336:0 337:0 338:1 339:1 340:0 341:0 342:0 343:0 344:0 345:3 346:0 347:0 348:0 349:0 350:0 351:0 352:0 353:1 354:0 355:0 356:0 357:0 358:0 359:0 360:2 361:0 362:0 363:0 364:0 365:1 366:0 367:0 368:0 369:1 370:0 371:0 372:0 373:0 374:2 375:1 376:0 377:0 378:0 379:0 380:0 381:0 382:0 383:0 384:1 385:0 386:0 387:0 388:0 389:0 390:0 391:0 392:1 393:0 394:0 395:0 396:0 397:0 398:0 399:0 400:0 401:0 402:0 403:0 
0 0.02418818514253561 0.0141934186044495 1:2400 2:0 3:0 4:0 5:0 6:0 7:0 8:0 9:0 10:0 11:0 12:0 13:0 14:0 15:0 16:0 17:0 18:0 19:0 20:0 21:0 22:0 23:0 24:0 25:0 26:0 27:0 28:0 29:0 30:0 31:0 32:0 33:0 34:0 35:0 36:0 37:0 38:0 39:0 40:0 41:0 42:0 43:0 44:0 45:0 46:0 47:0 48:0 49:0 50:0 51:0 52:0 53:0 54:0 55:0 56:0 57:0 58:0 59:0 60:0 61:0 62:0 63:0 64:0 65:0 66:0 67:0 68:0 69:0 70:0 71:0 72:0 73:0 74:0 75:0 76:0 77:0 78:0 79:0 80:0 81:0 82:0 83:0 84:0 85:0 86:0 87:0 88:0 89:0 90:0 91:0 92:0 93:0 94:0 95:0 96:0 97:0 98:0 99:0 100:0 101:0 102:0 103:0 104:0 105:0 106:0 107:0 108:0 109:0 110:0 111:0 112:0 113:0 114:0 115:0 116:0 117:0 118:0 119:0 120:0 121:0 122:0 123:0 124:0 125:0 126:0 127:0 128:0 129:0 130:0 131:0 132:0 133:0 134:0 135:0 136:0 137:0 138:0 139:0 140:0 141:0 142:0 143:0 144:0 145:0 146:0 147:0 148:0 149:0 150:0 151:0 152:0 153:0 154:0 155:0 156:0 157:0 158:0 159:0 160:0 161:0 162:0 163:0 164:0 165:0 166:0 167:0 168:0 169:0 170:0 171:0 172:0 173:0 174:0 175:0 176:0 177:0 178:0 179:0 180:0 181:0 182:0 183:0 184:0 185:0 186:0 187:0 188:0 189:0 190:0 191:0 192:0 193:0 194:0 195:0 196:0 197:0 198:0 199:0 200:0 201:0 202:0 203:0 204:0 205:0 206:0 207:0 208:0 209:0 210:0 211:0 212:0 213:0 214:0 215:0 216:0 217:0 218:0 219:0 220:0 221:0 222:0 223:0 224:0 225:0 226:0 227:0 228:0 229:0 230:0 231:0 232:0 233:0 234:0 235:0 236:0 237:0 238:0 239:0 240:0 241:0 242:0 243:0 244:0 245:0 246:0 247:0 248:0 249:0 250:0 251:0 252:0 253:0 254:0 255:0 256:0 257:126.704 258:73.8128 259:200 260:255 261:1 262:0 263:3 264:0 265:1 266:0 267:1 268:0 269:0 270:0 271:0 272:1 273:0 274:1 275:0 276:0 277:0 278:0 279:0 280:0 281:0 282:0 283:0 284:4 285:0 286:3 287:0 288:0 289:0 290:0 291:0 292:0 293:1 294:0 295:1 296:2 297:2 298:1 299:1 300:0 301:0 302:0 303:0 304:0 305:0 306:0 307:0 308:0 309:3 310:2 311:0 312:0 313:0 314:0 315:0 316:1 317:0 318:0 319:0 320:0 321:0 322:0 323:0 324:2 325:0 326:0 327:0 328:0 329:0 330:0 331:0 332:1 333:0 334:0 335:0 336:0 337:2 338:0 339:0 340:0 341:0 342:0 343:0 344:1 345:0 346:1 347:2 348:0 349:1 350:0 351:1 352:0 353:0 354:0 355:0 356:0 357:2 358:0 359:0 360:2 361:0 362:0 363:0 364:0 365:1 366:0 367:0 368:0 369:3 370:0 371:0 372:1 373:0 374:0 375:1 376:0 377:0 378:1 379:0 380:0 381:0 382:1 383:1 384:1 385:0 386:0 387:0 388:0 389:0 390:0 391:0 392:2 393:1 394:0 395:0 396:0 397:0 398:0 399:0 400:1 401:0 402:0 403:1 
0 0.07688769224619325 0.0178993731411321 1:2400 2:0 3:0 4:0 5:0 6:0 7:0 8:0 9:0 10:0 11:0 12:0 13:0 14:0 15:0 16:0 17:0 18:0 19:0 20:0 21:0 22:0 23:0 24:0 25:0 26:0 27:0 28:0 29:0 30:0 31:0 32:0 33:0 34:0 35:0 36:0 37:0 38:0 39:0 40:0 41:0 42:0 43:0 44:0 45:0 46:0 47:0 48:0 49:0 50:0 51:0 52:0 53:0 54:0 55:0 56:0 57:0 58:0 59:0 60:0 61:0 62:0 63:0 64:0 65:0 66:0 67:0 68:0 69:0 70:0 71:0 72:0 73:0 74:0 75:0 76:0 77:0 78:0 79:0 80:0 81:0 82:0 83:0 84:0 85:0 86:0 87:0 88:0 89:0 90:0 91:0 92:0 93:0 94:0 95:0 96:0 97:0 98:0 99:0 100:0 101:0 102:0 103:0 104:0 105:0 106:0 107:0 108:0 109:0 110:0 111:0 112:0 113:0 114:0 115:0 116:0 117:0 118:0 119:0 120:0 121:0 122:0 123:0 124:0 125:0 126:0 127:0 128:0 129:0 130:0 131:0 132:0 133:0 134:0 135:0 136:0 137:0 138:0 139:0 140:0 141:0 142:0 143:0 144:0 145:0 146:0 147:0 148:0 149:0 150:0 151:0 152:0 153:0 154:0 155:0 156:0 157:0 158:0 159:0 160:0 161:0 162:0 163:0 164:0 165:0 166:0 167:0 168:0 169:0 170:0 171:0 172:0 173:0 174:0 175:0 176:0 177:0 178:0 179:0 180:0 181:0 182:0 183:0 184:0 185:0 186:0 187:0 188:0 189:0 190:0 191:0 192:0 193:0 194:0 195:0 196:0 197:0 198:0 199:0 200:0 201:0 202:0 203:0 204:0 205:0 206:0 207:0 208:0 209:0 210:0 211:0 212:0 213:0 214:0 215:0 216:0 217:0 218:0 219:0 220:0 221:0 222:0 223:0 224:0 225:0 226:0 227:0 228:0 229:0 230:0 231:0 232:0 233:0 234:0 235:0 236:0 237:0 238:0 239:0 240:0 241:0 242:0 243:0 244:0 245:0 246:0 247:0 248:0 249:0 250:0 251:0 252:0 253:0 254:0 255:0 256:0 257:125.656 258:72.7904 259:200 260:255 261:0 262:4 263:3 264:1 265:0 266:0 267:0 268:0 269:0 270:0 271:0 272:9 273:0 274:0 275:0 276:0 277:0 278:0 279:1 280:1 281:1 282:0 283:1 284:0 285:5 286:0 287:0 288:0 289:0 290:0 291:0 292:0 293:1 294:0 295:0 296:0 297:2 298:0 299:1 300:0 301:0 302:0 303:0 304:0 305:0 306:0 307:0 308:0 309:2 310:1 311:0 312:0 313:0 314:0 315:0 316:0 317:0 318:0 319:0 320:0 321:1 322:0 323:2 324:0 325:0 326:0 327:1 328:0 329:0 330:0 331:0 332:0 333:1 334:0 335:0 336:0 337:0 338:0 339:1 340:0 341:0 342:0 343:0 344:1 345:0 346:0 347:0 348:2 349:0 350:1 351:0 352:0 353:1 354:0 355:1 356:0 357:0 358:1 359:0 360:0 361:1 362:0 363:0 364:0 365:0 366:0 367:0 368:0 369:0 370:1 371:1 372:0 373:1 374:1 375:0 376:0 377:0 378:0 379:0 380:0 381:0 382:1 383:0 384:1 385:1 386:0 387:0 388:0 389:0 390:0 391:0 392:0 393:1 394:0 395:0 396:0 397:0 398:0 399:1 400:0 401:1 402:0 403:0 
0.00856754763297461 0.06769054099736353 0 1:2400 2:0 3:0 4:0 5:0 6:0 7:0 8:0 9:0 10:0 11:0 12:0 13:0 14:0 15:0 16:0 17:0 18:0 19:0 20:0 21:0 22:0 23:0 24:0 25:0 26:0 27:0 28:0 29:0 30:0 31:0 32:0 33:0 34:0 35:0 36:0 37:0 38:0 39:0 40:0 41:0 42:0 43:0 44:0 45:0 46:0 47:0 48:0 49:0 50:0 51:0 52:0 53:0 54:0 55:0 56:0 57:0 58:0 59:0 60:0 61:0 62:0 63:0 64:0 65:0 66:0 67:0 68:0 69:0 70:0 71:0 72:0 73:0 74:0 75:0 76:0 77:0 78:0 79:0 80:0 81:0 82:0 83:0 84:0 85:0 86:0 87:0 88:0 89:0 90:0 91:0 92:0 93:0 94:0 95:0 96:0 97:0 98:0 99:0 100:0 101:0 102:0 103:0 104:0 105:0 106:0 107:0 108:0 109:0 110:0 111:0 112:0 113:0 114:0 115:0 116:0 117:0 118:0 119:0 120:0 121:0 122:0 123:0 124:0 125:0 126:0 127:0 128:0 129:0 130:0 131:0 132:0 133:0 134:0 135:0 136:0 137:0 138:0 139:0 140:0 141:0 142:0 143:0 144:0 145:0 146:0 147:0 148:0 149:0 150:0 151:0 152:0 153:0 154:0 155:0 156:0 157:0 158:0 159:0 160:0 161:0 162:0 163:0 164:0 165:0 166:0 167:0 168:0 169:0 170:0 171:0 172:0 173:0 174:0 175:0 176:0 177:0 178:0 179:0 180:0 181:0 182:0 183:0 184:0 185:0 186:0 187:0 188:0 189:0 190:0 191:0 192:0 193:0 194:0 195:0 196:0 197:0 198:0 199:0 200:0 201:0 202:0 203:0 204:0 205:0 206:0 207:0 208:0 209:0 210:0 211:0 212:0 213:0 214:0 215:0 216:0 217:0 218:0 219:0 220:0 221:0 222:0 223:0 224:0 225:0 226:0 227:0 228:0 229:0 230:0 231:0 232:0 233:0 234:0 235:0 236:0 237:0 238:0 239:0 240:0 241:0 242:0 243:0 244:0 245:0 246:0 247:0 248:0 249:0 250:0 251:0 252:0 253:0 254:0 255:0 256:0 257:125.808 258:72.2768 259:200 260:255 261:0 262:0 263:0 264:0 265:0 266:2 267:0 268:0 269:0 270:1 271:0 272:7 273:0 274:1 275:0 276:0 277:0 278:1 279:0 280:0 281:0 282:0 283:0 284:1 285:1 286:1 287:0 288:1 289:0 290:0 291:1 292:0 293:0 294:0 295:0 296:2 297:1 298:1 299:0 300:0 301:1 302:0 303:1 304:0 305:0 306:0 307:0 308:1 309:0 310:0 311:3 312:1 313:0 314:1 315:1 316:0 317:0 318:0 319:0 320:0 321:1 322:0 323:0 324:0 325:0 326:1 327:0 328:0 329:1 330:0 331:1 332:0 333:2 334:1 335:0 336:0 337:0 338:0 339:0 340:0 341:0 342:1 343:0 344:0 345:0 346:1 347:0 348:2 349:0 350:0 351:0 352:0 353:0 354:0 355:0 356:0 357:0 358:0 359:0 360:0 361:0 362:1 363:0 364:0 365:0 366:1 367:0 368:0 369:0 370:0 371:1 372:1 373:0 374:1 375:0 376:0 377:0 378:0 379:0 380:0 381:0 382:0 383:0 384:0 385:0 386:0 387:0 388:0 389:0 390:0 391:0 392:0 393:1 394:0 395:1 396:1 397:0 398:1 399:0 400:0 401:0 402:0 403:0 
0.02701244644062355 0.01622288396938044 0.0007418918572931145 1:2400 2:0 3:0 4:0 5:0 6:0 7:0 8:0 9:0 10:0 11:0 12:0 13:0 14:0 15:0 16:0 17:0 18:0 19:0 20:0 21:0 22:0 23:0 24:0 25:0 26:0 27:0 28:0 29:0 30:0 31:0 32:0 33:0 34:0 35:0 36:0 37:0 38:0 39:0 40:0 41:0 42:0 43:0 44:0 45:0 46:0 47:0 48:0 49:0 50:0 51:0 52:0 53:0 54:0 55:0 56:0 57:0 58:0 59:0 60:0 61:0 62:0 63:0 64:0 65:0 66:0 67:0 68:0 69:0 70:0 71:0 72:0 73:0 74:0 75:0 76:0 77:0 78:0 79:0 80:0 81:0 82:0 83:0 84:0 85:0 86:0 87:0 88:0 89:0 90:0 91:0 92:0 93:0 94:0 95:0 96:0 97:0 98:0 99:0 100:0 101:0 102:0 103:0 104:0 105:0 106:0 107:0 108:0 109:0 110:0 111:0 112:0 113:0 114:0 115:0 116:0 117:0 118:0 119:0 120:0 121:0 122:0 123:0 124:0 125:0 126:0 127:0 128:0 129:0 130:0 131:0 132:0 133:0 134:0 135:0 136:0 137:0 138:0 139:0 140:0 141:0 142:0 143:0 144:0 145:0 146:0 147:0 148:0 149:0 150:0 151:0 152:0 153:0 154:0 155:0 156:0 157:0 158:0 159:0 160:0 161:0 162:0 163:0 164:0 165:0 166:0 167:0 168:0 169:0 170:0 171:0 172:0 173:0 174:0 175:0 176:0 177:0 178:0 179:0 180:0 181:0 182:0 183:0 184:0 185:0 186:0 187:0 188:0 189:0 190:0 191:0 192:0 193:0 194:0 195:0 196:0 197:0 198:0 199:0 200:0 201:0 202:0 203:0 204:0 205:0 206:0 207:0 208:0 209:0 210:0 211:0 212:0 213:0 214:0 215:0 216:0 217:0 218:0 219:0 220:0 221:0 222:0 223:0 224:0 225:0 226:0 227:0 228:0 229:0 230:0 231:0 232:0 233:0 234:0 235:0 236:0 237:0 238:0 239:0 240:0 241:0 242:0 243:0 244:0 245:0 246:0 247:0 248:0 249:0 250:0 251:0 252:0 253:0 254:0 255:0 256:0 257:126.2656 258:74.0432 259:200 260:255 261:2 262:4 263:1 264:0 265:1 266:0 267:0 268:0 269:0 270:0 271:0 272:4 273:2 274:0 275:1 276:1 277:0 278:0 279:0 280:0 281:0 282:0 283:0 284:2 285:0 286:0 287:0 288:1 289:1 290:0 291:0 292:0 293:0 294:0 295:0 296:0 297:0 298:0 299:1 300:0 301:0 302:0 303:1 304:0 305:0 306:0 307:0 308:0 309:0 310:1 311:0 312:0 313:0 314:0 315:0 316:0 317:0 318:0 319:0 320:4 321:0 322:0 323:0 324:0 325:1 326:0 327:0 328:1 329:0 330:0 331:0 332:0 333:0 334:0 335:1 336:2 337:0 338:0 339:0 340:1 341:0 342:0 343:1 344:1 345:1 346:0 347:0 348:1 349:0 350:0 351:0 352:0 353:0 354:1 355:0 356:1 357:0 358:2 359:0 360:0 361:1 362:1 363:0 364:0 365:0 366:1 367:0 368:0 369:0 370:1 371:1 372:0 373:0 374:1 375:0 376:0 377:0 378:0 379:0 380:0 381:0 382:1 383:1 384:0 385:1 386:0 387:1 388:0 389:0 390:0 391:0 392:0 393:1 394:1 395:1 396:0 397:0 398:0 399:0 400:0 401:0 402:0 403:0 
0 0.05432330221000324 0 1:2400 2:0 3:0 4:0 5:0 6:0 7:0 8:0 9:0 10:0 11:0 12:0 13:0 14:0 15:0 16:0 17:0 18:0 19:0 20:0 21:0 22:0 23:0 24:0 25:0 26:0 27:0 28:0 29:0 30:0 31:0 32:0 33:0 34:0 35:0 36:0 37:0 38:0 39:0 40:0 41:0 42:0 43:0 44:0 45:0 46:0 47:0 48:0 49:0 50:0 51:0 52:0 53:0 54:0 55:0 56:0 57:0 58:0 59:0 60:0 61:0 62:0 63:0 64:0 65:0 66:0 67:0 68:0 69:0 70:0 71:0 72:0 73:0 74:0 75:0 76:0 77:0 78:0 79:0 80:0 81:0 82:0 83:0 84:0 85:0 86:0 87:0 88:0 89:0 90:0 91:0 92:0 93:0 94:0 95:0 96:0 97:0 98:0 99:0 100:0 101:0 102:0 103:0 104:0 105:0 106:0 107:0 108:0 109:0 110:0 111:0 112:0 113:0 114:0 115:0 116:0 117:0 118:0 119:0 120:0 121:0 122:0 123:0 124:0 125:0 126:0 127:0 128:0 129:0 130:0 131:0 132:0 133:0 134:0 135:0 136:0 137:0 138:0 139:0 140:0 141:0 142:0 143:0 144:0 145:0 146:0 147:0 148:0 149:0 150:0 151:0 152:0 153:0 154:0 155:0 156:0 157:0 158:0 159:0 160:0 161:0 162:0 163:0 164:0 165:0 166:0 167:0 168:0 169:0 170:0 171:0 172:0 173:0 174:0 175:0 176:0 177:0 178:0 179:0 180:0 181:0 182:0 183:0 184:0 185:0 186:0 187:0 188:0 189:0 190:0 191:0 192:0 193:0 194:0 195:0 196:0 197:0 198:0 199:0 200:0 201:0 202:0 203:0 204:0 205:0 206:0 207:0 208:0 209:0 210:0 211:0 212:0 213:0 214:0 215:0 216:0 217:0 218:0 219:0 220:0 221:0 222:0 223:0 224:0 225:0 226:0 227:0 228:0 229:0 230:0 231:0 232:0 233:0 234:0 235:0 236:0 237:0 238:0 239:0 240:0 241:0 242:0 243:0 244:0 245:0 246:0 247:0 248:0 249:0 250:0 251:0 252:0 253:0 254:0 255:0 256:0 257:124.6256 258:71.6208 259:200 260:255 261:0 262:2 263:2 264:0 265:0 266:0 267:0 268:0 269:1 270:1 271:0 272:3 273:0 274:1 275:1 276:0 277:0 278:0 279:0 280:0 281:0 282:0 283:0 284:1 285:0 286:0 287:0 288:0 289:0 290:0 291:0 292:0 293:0 294:0 295:0 296:0 297:1 298:0 299:0 300:0 301:0 302:1 303:0 304:0 305:0 306:0 307:0 308:0 309:1 310:1 311:0 312:1 313:0 314:0 315:0 316:0 317:0 318:0 319:0 320:0 321:0 322:0 323:0 324:1 325:0 326:0 327:0 328:0 329:0 330:0 331:0 332:0 333:0 334:0 335:0 336:0 337:1 338:0 339:1 340:0 341:0 342:0 343:0 344:2 345:0 346:1 347:1 348:0 349:1 350:1 351:1 352:0 353:0 354:0 355:0 356:0 357:0 358:0 359:0 360:0 361:0 362:0 363:1 364:0 365:0 366:0 367:0 368:0 369:0 370:0 371:0 372:0 373:0 374:0 375:0 376:0 377:0 378:0 379:0 380:0 381:0 382:0 383:1 384:0 385:1 386:1 387:0 388:0 389:0 390:0 391:0 392:1 393:0 394:0 395:0 396:0 397:0 398:0 399:0 400:0 401:0 402:0 403:0 
0.01942583960850112 0 0 1:2400 2:0 3:0 4:0 5:0 6:0 7:0 8:0 9:0 10:0 11:0 12:0 13:0 14:0 15:0 16:0 17:0 18:0 19:0 20:0 21:0 22:0 23:0 24:0 25:0 26:0 27:0 28:0 29:0 30:0 31:0 32:0 33:0 34:0 35:0 36:0 37:0 38:0 39:0 40:0 41:0 42:0 43:0 44:0 45:0 46:0 47:0 48:0 49:0 50:0 51:0 52:0 53:0 54:0 55:0 56:0 57:0 58:0 59:0 60:0 61:0 62:0 63:0 64:0 65:0 66:0 67:0 68:0 69:0 70:0 71:0 72:0 73:0 74:0 75:0 76:0 77:0 78:0 79:0 80:0 81:0 82:0 83:0 84:0 85:0 86:0 87:0 88:0 89:0 90:0 91:0 92:0 93:0 94:0 95:0 96:0 97:0 98:0 99:0 100:0 101:0 102:0 103:0 104:0 105:0 106:0 107:0 108:0 109:0 110:0 111:0 112:0 113:0 114:0 115:0 116:0 117:0 118:0 119:0 120:0 121:0 122:0 123:0 124:0 125:0 126:0 127:0 128:0 129:0 130:0 131:0 132:0 133:0 134:0 135:0 136:0 137:0 138:0 139:0 140:0 141:0 142:0 143:0 144:0 145:0 146:0 147:0 148:0 149:0 150:0 151:0 152:0 153:0 154:0 155:0 156:0 157:0 158:0 159:0 160:0 161:0 162:0 163:0 164:0 165:0 166:0 167:0 168:0 169:0 170:0 171:0 172:0 173:0 174:0 175:0 176:0 177:0 178:0 179:0 180:0 181:0 182:0 183:0 184:0 185:0 186:0 187:0 188:0 189:0 190:0 191:0 192:0 193:0 194:0 195:0 196:0 197:0 198:0 199:0 200:0 201:0 202:0 203:0 204:0 205:0 206:0 207:0 208:0 209:0 210:0 211:0 212:0 213:0 214:0 215:0 216:0 217:0 218:0 219:0 220:0 221:0 222:0 223:0 224:0 225:0 226:0 227:0 228:0 229:0 230:0 231:0 232:0 233:0 234:0 235:0 236:0 237:0 238:0 239:0 240:0 241:0 242:0 243:0 244:0 245:0 246:0 247:0 248:0 249:0 250:0 251:0 252:0 253:0 254:0 255:0 256:0 257:125.9696 258:74.6144 259:200 260:255 261:0 262:1 263:2 264:0 265:0 266:0 267:0 268:0 269:1 270:0 271:0 272:2 273:0 274:6 275:2 276:2 277:0 278:0 279:1 280:0 281:1 282:0 283:0 284:6 285:2 286:0 287:0 288:0 289:1 290:2 291:0 292:0 293:0 294:0 295:0 296:0 297:0 298:0 299:4 300:1 301:1 302:2 303:0 304:1 305:0 306:0 307:0 308:0 309:2 310:0 311:0 312:2 313:1 314:1 315:0 316:0 317:0 318:0 319:0 320:1 321:1 322:0 323:0 324:0 325:0 326:0 327:1 328:0 329:0 330:0 331:0 332:0 333:0 334:4 335:0 336:0 337:1 338:0 339:0 340:0 341:1 342:0 343:0 344:0 345:0 346:0 347:2 348:0 349:0 350:0 351:0 352:1 353:0 354:0 355:0 356:0 357:2 358:0 359:0 360:2 361:0 362:0 363:0 364:0 365:0 366:0 367:0 368:2 369:0 370:0 371:1 372:0 373:0 374:0 375:1 376:0 377:1 378:0 379:0 380:1 381:1 382:1 383:0 384:0 385:0 386:0 387:0 388:1 389:0 390:0 391:0 392:0 393:0 394:0 395:0 396:1 397:0 398:0 399:0 400:0 401:0 402:0 403:0 
0.001523839354795646 0 0 1:2400 2:0 3:0 4:0 5:0 6:0 7:0 8:0 9:0 10:0 11:0 12:0 13:0 14:0 15:0 16:0 17:0 18:0 19:0 20:0 21:0 22:0 23:0 24:0 25:0 26:0 27:0 28:0 29:0 30:0 31:0 32:0 33:0 34:0 35:0 36:0 37:0 38:0 39:0 40:0 41:0 42:0 43:0 44:0 45:0 46:0 47:0 48:0 49:0 50:0 51:0 52:0 53:0 54:0 55:0 56:0 57:0 58:0 59:0 60:0 61:0 62:0 63:0 64:0 65:0 66:0 67:0 68:0 69:0 70:0 71:0 72:0 73:0 74:0 75:0 76:0 77:0 78:0 79:0 80:0 81:0 82:0 83:0 84:0 85:0 86:0 87:0 88:0 89:0 90:0 91:0 92:0 93:0 94:0 95:0 96:0 97:0 98:0 99:0 100:0 101:0 102:0 103:0 104:0 105:0 106:0 107:0 108:0 109:0 110:0 111:0 112:0 113:0 114:0 115:0 116:0 117:0 118:0 119:0 120:0 121:0 122:0 123:0 124:0 125:0 126:0 127:0 128:0 129:0 130:0 131:0 132:0 133:0 134:0 135:0 136:0 137:0 138:0 139:0 140:0 141:0 142:0 143:0 144:0 145:0 146:0 147:0 148:0 149:0 150:0 151:0 152:0 153:0 154:0 155:0 156:0 157:0 158:0 159:0 160:0 161:0 162:0 163:0 164:0 165:0 166:0 167:0 168:0 169:0 170:0 171:0 172:0 173:0 174:0 175:0 176:0 177:0 178:0 179:0 180:0 181:0 182:0 183:0 184:0 185:0 186:0 187:0 188:0 189:0 190:0 191:0 192:0 193:0 194:0 195:0 196:0 197:0 198:0 199:0 200:0 201:0 202:0 203:0 204:0 205:0 206:0 207:0 208:0 209:0 210:0 211:0 212:0 213:0 214:0 215:0 216:0 217:0 218:0 219:0 220:0 221:0 222:0 223:0 224:0 225:0 226:0 227:0 228:0 229:0 230:0 231:0 232:0 233:0 234:0 235:0 236:0 237:0 238:0 239:0 240:0 241:0 242:0 243:0 244:0 245:0 246:0 247:0 248:0 249:0 250:0 251:0 252:0 253:0 254:0 255:0 256:0 257:126.6016 258:74.5808 259:200 260:255 261:0 262:0 263:4 264:2 265:0 266:0 267:2 268:1 269:0 270:0 271:0 272:0 273:5 274:3 275:0 276:0 277:0 278:0 279:0 280:0 281:1 282:1 283:0 284:5 285:1 286:0 287:3 288:0 289:0 290:0 291:0 292:1 293:1 294:0 295:1 296:0 297:0 298:1 299:0 300:1 301:0 302:1 303:0 304:0 305:0 306:0 307:0 308:0 309:2 310:1 311:1 312:0 313:0 314:2 315:0 316:0 317:1 318:0 319:0 320:1 321:2 322:0 323:0 324:1 325:0 326:3 327:0 328:0 329:0 330:0 331:0 332:1 333:2 334:0 335:0 336:0 337:1 338:0 339:0 340:0 341:0 342:0 343:0 344:0 345:0 346:0 347:1 348:2 349:0 350:0 351:1 352:0 353:0 354:0 355:0 356:0 357:3 358:2 359:0 360:0 361:0 362:1 363:0 364:0 365:0 366:0 367:0 368:0 369:0 370:1 371:0 372:0 373:1 374:0 375:0 376:0 377:0 378:0 379:0 380:0 381:0 382:0 383:0 384:0 385:0 386:0 387:1 388:0 389:1 390:0 391:0 392:0 393:3 394:0 395:1 396:0 397:0 398:1 399:0 400:0 401:1 402:0 403:0 
0.004747380688551607 0 0.001438810042113302 1:2400 2:0 3:0 4:0 5:0 6:0 7:0 8:0 9:0 10:0 11:0 12:0 13:0 14:0 15:0 16:0 17:0 18:0 19:0 20:0 21:0 22:0 23:0 24:0 25:0 26:0 27:0 28:0 29:0 30:0 31:0 32:0 33:0 34:0 35:0 36:0 37:0 38:0 39:0 40:0 41:0 42:0 43:0 44:0 45:0 46:0 47:0 48:0 49:0 50:0 51:0 52:0 53:0 54:0 55:0 56:0 57:0 58:0 59:0 60:0 61:0 62:0 63:0 64:0 65:0 66:0 67:0 68:0 69:0 70:0 71:0 72:0 73:0 74:0 75:0 76:0 77:0 78:0 79:0 80:0 81:0 82:0 83:0 84:0 85:0 86:0 87:0 88:0 89:0 90:0 91:0 92:0 93:0 94:0 95:0 96:0 97:0 98:0 99:0 100:0 101:0 102:0 103:0 104:0 105:0 106:0 107:0 108:0 109:0 110:0 111:0 112:0 113:0 114:0 115:0 116:0 117:0 118:0 119:0 120:0 121:0 122:0 123:0 124:0 125:0 126:0 127:0 128:0 129:0 130:0 131:0 132:0 133:0 134:0 135:0 136:0 137:0 138:0 139:0 140:0 141:0 142:0 143:0 144:0 145:0 146:0 147:0 148:0 149:0 150:0 151:0 152:0 153:0 154:0 155:0 156:0 157:0 158:0 159:0 160:0 161:0 162:0 163:0 164:0 165:0 166:0 167:0 168:0 169:0 170:0 171:0 172:0 173:0 174:0 175:0 176:0 177:0 178:0 179:0 180:0 181:0 182:0 183:0 184:0 185:0 186:0 187:0 188:0 189:0 190:0 191:0 192:0 193:0 194:0 195:0 196:0 197:0 198:0 199:0 200:0 201:0 202:0 203:0 204:0 205:0 206:0 207:0 208:0 209:0 210:0 211:0 212:0 213:0 214:0 215:0 216:0 217:0 218:0 219:0 220:0 221:0 222:0 223:0 224:0 225:0 226:0 227:0 228:0 229:0 230:0 231:0 232:0 233:0 234:0 235:0 236:0 237:0 238:0 239:0 240:0 241:0 242:0 243:0 244:0 245:0 246:0 247:0 248:0 249:0 250:0 251:0 252:0 253:0 254:0 255:0 256:0 257:125.408 258:73.776 259:200 260:255 261:1 262:1 263:1 264:1 265:2 266:0 267:0 268:1 269:0 270:1 271:0 272:3 273:0 274:0 275:1 276:1 277:0 278:0 279:0 280:0 281:0 282:0 283:0 284:0 285:0 286:2 287:3 288:0 289:0 290:1 291:0 292:0 293:0 294:1 295:0 296:0 297:3 298:0 299:0 300:0 301:0 302:0 303:0 304:0 305:0 306:0 307:0 308:3 309:3 310:1 311:0 312:0 313:0 314:0 315:0 316:0 317:0 318:0 319:0 320:0 321:0 322:0 323:3 324:0 325:0 326:2 327:0 328:0 329:0 330:0 331:0 332:0 333:2 334:1 335:1 336:0 337:0 338:1 339:0 340:0 341:0 342:0 343:0 344:5 345:0 346:0 347:0 348:0 349:0 350:0 351:0 352:0 353:1 354:0 355:0 356:0 357:0 358:0 359:0 360:0 361:1 362:0 363:0 364:0 365:1 366:0 367:1 368:0 369:0 370:0 371:0 372:2 373:0 374:2 375:0 376:1 377:0 378:1 379:0 380:1 381:0 382:1 383:0 384:0 385:0 386:0 387:0 388:1 389:0 390:0 391:0 392:0 393:0 394:0 395:0 396:1 397:2 398:0 399:1 400:0 401:1 402:0 403:1 
0.01660460362414778 0.01143907309843619 0 1:2400 2:0 3:0 4:0 5:0 6:0 7:0 8:0 9:0 10:0 11:0 12:0 13:0 14:0 15:0 16:0 17:0 18:0 19:0 20:0 21:0 22:0 23:0 24:0 25:0 26:0 27:0 28:0 29:0 30:0 31:0 32:0 33:0 34:0 35:0 36:0 37:0 38:0 39:0 40:0 41:0 42:0 43:0 44:0 45:0 46:0 47:0 48:0 49:0 50:0 51:0 52:0 53:0 54:0 55:0 56:0 57:0 58:0 59:0 60:0 61:0 62:0 63:0 64:0 65:0 66:0 67:0 68:0 69:0 70:0 71:0 72:0 73:0 74:0 75:0 76:0 77:0 78:0 79:0 80:0 81:0 82:0 83:0 84:0 85:0 86:0 87:0 88:0 89:0 90:0 91:0 92:0 93:0 94:0 95:0 96:0 97:0 98:0 99:0 100:0 101:0 102:0 103:0 104:0 105:0 106:0 107:0 108:0 109:0 110:0 111:0 112:0 113:0 114:0 115:0 116:0 117:0 118:0 119:0 120:0 121:0 122:0 123:0 124:0 125:0 126:0 127:0 128:0 129:0 130:0 131:0 132:0 133:0 134:0 135:0 136:0 137:0 138:0 139:0 140:0 141:0 142:0 143:0 144:0 145:0 146:0 147:0 148:0 149:0 150:0 151:0 152:0 153:0 154:0 155:0 156:0 157:0 158:0 159:0 160:0 161:0 162:0 163:0 164:0 165:0 166:0 167:0 168:0 169:0 170:0 171:0 172:0 173:0 174:0 175:0 176:0 177:0 178:0 179:0 180:0 181:0 182:0 183:0 184:0 185:0 186:0 187:0 188:0 189:0 190:0 191:0 192:0 193:0 194:0 195:0 196:0 197:0 198:0 199:0 200:0 201:0 202:0 203:0 204:0 205:0 206:0 207:0 208:0 209:0 210:0 211:0 212:0 213:0 214:0 215:0 216:0 217:0 218:0 219:0 220:0 221:0 222:0 223:0 224:0 225:0 226:0 227:0 228:0 229:0 230:0 231:0 232:0 233:0 234:0 235:0 236:0 237:0 238:0 239:0 240:0 241:0 242:0 243:0 244:0 245:0 246:0 247:0 248:0 249:0 250:0 251:0 252:0 253:0 254:0 255:0 256:0 257:125.8176 258:74.0096 259:200 260:255 261:0 262:1 263:0 264:2 265:0 266:1 267:0 268:0 269:0 270:0 271:0 272:7 273:1 274:0 275:0 276:2 277:1 278:2 279:1 280:0 281:0 282:0 283:1 284:1 285:0 286:0 287:0 288:1 289:0 290:0 291:0 292:0 293:1 294:0 295:1 296:0 297:0 298:0 299:0 300:0 301:1 302:2 303:1 304:0 305:0 306:0 307:0 308:6 309:2 310:2 311:0 312:0 313:2 314:0 315:0 316:0 317:0 318:0 319:0 320:0 321:0 322:1 323:0 324:0 325:2 326:1 327:0 328:1 329:0 330:1 331:0 332:0 333:0 334:0 335:1 336:0 337:0 338:0 339:0 340:0 341:0 342:0 343:0 344:0 345:2 346:2 347:1 348:0 349:1 350:0 351:0 352:0 353:0 354:0 355:0 356:1 357:3 358:0 359:0 360:0 361:0 362:0 363:0 364:1 365:0 366:0 367:0 368:1 369:0 370:0 371:2 372:0 373:0 374:0 375:0 376:0 377:1 378:0 379:0 380:0 381:0 382:0 383:0 384:0 385:0 386:1 387:1 388:0 389:0 390:1 391:0 392:0 393:2 394:1 395:0 396:0 397:0 398:0 399:0 400:0 401:0 402:0 403:0 
0 0.03036865654944782 0 1:2400 2:0 3:0 4:0 5:0 6:0 7:0 8:0 9:0 10:0 11:0 12:0 13:0 14:0 15:0 16:0 17:0 18:0 19:0 20:0 21:0 22:0 23:0 24:0 25:0 26:0 27:0 28:0 29:0 30:0 31:0 32:0 33:0 34:0 35:0 36:0 37:0 38:0 39:0 40:0 41:0 42:0 43:0 44:0 45:0 46:0 47:0 48:0 49:0 50:0 51:0 52:0 53:0 54:0 55:0 56:0 57:0 58:0 59:0 60:0 61:0 62:0 63:0 64:0 65:0 66:0 67:0 68:0 69:0 70:0 71:0 72:0 73:0 74:0 75:0 76:0 77:0 78:0 79:0 80:0 81:0 82:0 83:0 84:0 85:0 86:0 87:0 88:0 89:0 90:0 91:0 92:0 93:0 94:0 95:0 96:0 97:0 98:0 99:0 100:0 101:0 102:0 103:0 104:0 105:0 106:0 107:0 108:0 109:0 110:0 111:0 112:0 113:0 114:0 115:0 116:0 117:0 118:0 119:0 120:0 121:0 122:0 123:0 124:0 125:0 126:0 127:0 128:0 129:0 130:0 131:0 132:0 133:0 134:0 135:0 136:0 137:0 138:0 139:0 140:0 141:0 142:0 143:0 144:0 145:0 146:0 147:0 148:0 149:0 150:0 151:0 152:0 153:0 154:0 155:0 156:0 157:0 158:0 159:0 160:0 161:0 162:0 163:0 164:0 165:0 166:0 167:0 168:0 169:0 170:0 171:0 172:0 173:0 174:0 175:0 176:0 177:0 178:0 179:0 180:0 181:0 182:0 183:0 184:0 185:0 186:0 187:0 188:0 189:0 190:0 191:0 192:0 193:0 194:0 195:0 196:0 197:0 198:0 199:0 200:0 201:0 202:0 203:0 204:0 205:0 206:0 207:0 208:0 209:0 210:0 211:0 212:0 213:0 214:0 215:0 216:0 217:0 218:0 219:0 220:0 221:0 222:0 223:0 224:0 225:0 226:0 227:0 228:0 229:0 230:0 231:0 232:0 233:0 234:0 235:0 236:0 237:0 238:0 239:0 240:0 241:0 242:0 243:0 244:0 245:0 246:0 247:0 248:0 249:0 250:0 251:0 252:0 253:0 254:0 255:0 256:0 257:126.4384 258:74.4112 259:200 260:255 261:1 262:1 263:2 264:0 265:1 266:0 267:1 268:0 269:0 270:0 271:0 272:0 273:7 274:0 275:1 276:0 277:0 278:1 279:0 280:1 281:0 282:0 283:0 284:0 285:3 286:1 287:2 288:0 289:2 290:0 291:1 292:1 293:0 294:1 295:0 296:0 297:0 298:1 299:1 300:0 301:0 302:0 303:0 304:0 305:0 306:0 307:0 308:1 309:3 310:0 311:1 312:0 313:0 314:1 315:0 316:0 317:0 318:0 319:0 320:0 321:0 322:0 323:0 324:1 325:0 326:0 327:1 328:0 329:0 330:0 331:0 332:0 333:3 334:3 335:0 336:0 337:0 338:1 339:0 340:0 341:0 342:0 343:0 344:0 345:0 346:0 347:0 348:1 349:0 350:0 351:0 352:0 353:0 354:0 355:0 356:0 357:0 358:0 359:0 360:1 361:0 362:0 363:0 364:0 365:0 366:0 367:0 368:0 369:0 370:0 371:1 372:1 373:0 374:1 375:0 376:0 377:1 378:0 379:0 380:2 381:0 382:0 383:0 384:0 385:0 386:2 387:1 388:0 389:0 390:0 391:1 392:1 393:0 394:0 395:0 396:1 397:0 398:0 399:0 400:0 401:0 402:0 403:0 
0 0.01973524835382709 0 1:2400 2:0 3:0 4:0 5:0 6:0 7:0 8:0 9:0 10:0 11:0 12:0 13:0 14:0 15:0 16:0 17:0 18:0 19:0 20:0 21:0 22:0 23:0 24:0 25:0 26:0 27:0 28:0 29:0 30:0 31:0 32:0 33:0 34:0 35:0 36:0 37:0 38:0 39:0 40:0 41:0 42:0 43:0 44:0 45:0 46:0 47:0 48:0 49:0 50:0 51:0 52:0 53:0 54:0 55:0 56:0 57:0 58:0 59:0 60:0 61:0 62:0 63:0 64:0 65:0 66:0 67:0 68:0 69:0 70:0 71:0 72:0 73:0 74:0 75:0 76:0 77:0 78:0 79:0 80:0 81:0 82:0 83:0 84:0 85:0 86:0 87:0 88:0 89:0 90:0 91:0 92:0 93:0 94:0 95:0 96:0 97:0 98:0 99:0 100:0 101:0 102:0 103:0 104:0 105:0 106:0 107:0 108:0 109:0 110:0 111:0 112:0 113:0 114:0 115:0 116:0 117:0 118:0 119:0 120:0 121:0 122:0 123:0 124:0 125:0 126:0 127:0 128:0 129:0 130:0 131:0 132:0 133:0 134:0 135:0 136:0 137:0 138:0 139:0 140:0 141:0 142:0 143:0 144:0 145:0 146:0 147:0 148:0 149:0 150:0 151:0 152:0 153:0 154:0 155:0 156:0 157:0 158:0 159:0 160:0 161:0 162:0 163:0 164:0 165:0 166:0 167:0 168:0 169:0 170:0 171:0 172:0 173:0 174:0 175:0 176:0 177:0 178:0 179:0 180:0 181:0 182:0 183:0 184:0 185:0 186:0 187:0 188:0 189:0 190:0 191:0 192:0 193:0 194:0 195:0 196:0 197:0 198:0 199:0 200:0 201:0 202:0 203:0 204:0 205:0 206:0 207:0 208:0 209:0 210:0 211:0 212:0 213:0 214:0 215:0 216:0 217:0 218:0 219:0 220:0 221:0 222:0 223:0 224:0 225:0 226:0 227:0 228:0 229:0 230:0 231:0 232:0 233:0 234:0 235:0 236:0 237:0 238:0 239:0 240:0 241:0 242:0 243:0 244:0 245:0 246:0 247:0 248:0 249:0 250:0 251:0 252:0 253:0 254:0 255:0 256:0 257:125.3456 258:72.024 259:200 260:255 261:0 262:1 263:0 264:0 265:0 266:0 267:0 268:0 269:1 270:0 271:0 272:1 273:0 274:0 275:0 276:1 277:1 278:2 279:1 280:0 281:0 282:0 283:0 284:0 285:0 286:0 287:2 288:1 289:0 290:2 291:0 292:0 293:2 294:0 295:0 296:0 297:0 298:0 299:0 300:0 301:0 302:0 303:0 304:0 305:0 306:0 307:0 308:0 309:0 310:2 311:0 312:0 313:0 314:0 315:0 316:0 317:0 318:0 319:0 320:0 321:0 322:0 323:0 324:0 325:1 326:0 327:1 328:0 329:0 330:0 331:0 332:0 333:2 334:0 335:0 336:1 337:0 338:0 339:0 340:0 341:1 342:0 343:0 344:0 345:1 346:0 347:0 348:0 349:0 350:0 351:0 352:0 353:1 354:0 355:0 356:0 357:0 358:1 359:0 360:0 361:1 362:0 363:1 364:0 365:0 366:0 367:0 368:0 369:0 370:1 371:0 372:0 373:1 374:0 375:0 376:0 377:0 378:0 379:0 380:0 381:1 382:0 383:0 384:0 385:0 386:0 387:0 388:0 389:0 390:0 391:0 392:0 393:1 394:0 395:0 396:0 397:0 398:0 399:0 400:0 401:0 402:0 403:0 
0.0353474529469387 0.05844553684926735 0 1:2400 2:0 3:0 4:0 5:0 6:0 7:0 8:0 9:0 10:0 11:0 12:0 13:0 14:0 15:0 16:0 17:0 18:0 19:0 20:0 21:0 22:0 23:0 24:0 25:0 26:0 27:0 28:0 29:0 30:0 31:0 32:0 33:0 34:0 35:0 36:0 37:0 38:0 39:0 40:0 41:0 42:0 43:0 44:0 45:0 46:0 47:0 48:0 49:0 50:0 51:0 52:0 53:0 54:0 55:0 56:0 57:0 58:0 59:0 60:0 61:0 62:0 63:0 64:0 65:0 66:0 67:0 68:0 69:0 70:0 71:0 72:0 73:0 74:0 75:0 76:0 77:0 78:0 79:0 80:0 81:0 82:0 83:0 84:0 85:0 86:0 87:0 88:0 89:0 90:0 91:0 92:0 93:0 94:0 95:0 96:0 97:0 98:0 99:0 100:0 101:0 102:0 103:0 104:0 105:0 106:0 107:0 108:0 109:0 110:0 111:0 112:0 113:0 114:0 115:0 116:0 117:0 118:0 119:0 120:0 121:0 122:0 123:0 124:0 125:0 126:0 127:0 128:0 129:0 130:0 131:0 132:0 133:0 134:0 135:0 136:0 137:0 138:0 139:0 140:0 141:0 142:0 143:0 144:0 145:0 146:0 147:0 148:0 149:0 150:0 151:0 152:0 153:0 154:0 155:0 156:0 157:0 158:0 159:0 160:0 161:0 162:0 163:0 164:0 165:0 166:0 167:0 168:0 169:0 170:0 171:0 172:0 173:0 174:0 175:0 176:0 177:0 178:0 179:0 180:0 181:0 182:0 183:0 184:0 185:0 186:0 187:0 188:0 189:0 190:0 191:0 192:0 193:0 194:0 195:0 196:0 197:0 198:0 199:0 200:0 201:0 202:0 203:0 204:0 205:0 206:0 207:0 208:0 209:0 210:0 211:0 212:0 213:0 214:0 215:0 216:0 217:0 218:0 219:0 220:0 221:0 222:0 223:0 224:0 225:0 226:0 227:0 228:0 229:0 230:0 231:0 232:0 233:0 234:0 235:0 236:0 237:0 238:0 239:0 240:0 241:0 242:0 243:0 244:0 245:0 246:0 247:0 248:0 249:0 250:0 251:0 252:0 253:0 254:0 255:0 256:0 257:125.2992 258:72.0752 259:200 260:255 261:0 262:2 263:1 264:0 265:0 266:0 267:0 268:0 269:0 270:0 271:0 272:0 273:0 274:0 275:0 276:1 277:2 278:0 279:0 280:0 281:0 282:0 283:0 284:0 285:0 286:0 287:0 288:0 289:1 290:0 291:1 292:0 293:0 294:0 295:0 296:2 297:2 298:0 299:1 300:1 301:0 302:0 303:0 304:0 305:0 306:0 307:1 308:0 309:3 310:1 311:1 312:1 313:0 314:1 315:0 316:0 317:0 318:0 319:0 320:0 321:0 322:0 323:0 324:0 325:0 326:0 327:0 328:0 329:0 330:0 331:0 332:3 333:0 334:0 335:1 336:0 337:0 338:1 339:0 340:0 341:0 342:0 343:0 344:0 345:1 346:0 347:1 348:0 349:0 350:0 351:0 352:0 353:0 354:0 355:0 356:1 357:0 358:0 359:0 360:0 361:0 362:0 363:0 364:0 365:0 366:0 367:0 368:0 369:1 370:0 371:0 372:1 373:1 374:0 375:0 376:1 377:0 378:0 379:0 380:0 381:0 382:0 383:0 384:0 385:0 386:0 387:0 388:0 389:0 390:0 391:0 392:1 393:0 394:0 395:1 396:1 397:0 398:1 399:0 400:0 401:0 402:0 403:0 
0.04295482650478213 0.05139920695871567 0 1:2400 2:0 3:0 4:0 5:0 6:0 7:0 8:0 9:0 10:0 11:0 12:0 13:0 14:0 15:0 16:0 17:0 18:0 19:0 20:0 21:0 22:0 23:0 24:0 25:0 26:0 27:0 28:0 29:0 30:0 31:0 32:0 33:0 34:0 35:0 36:0 37:0 38:0 39:0 40:0 41:0 42:0 43:0 44:0 45:0 46:0 47:0 48:0 49:0 50:0 51:0 52:0 53:0 54:0 55:0 56:0 57:0 58:0 59:0 60:0 61:0 62:0 63:0 64:0 65:0 66:0 67:0 68:0 69:0 70:0 71:0 72:0 73:0 74:0 75:0 76:0 77:0 78:0 79:0 80:0 81:0 82:0 83:0 84:0 85:0 86:0 87:0 88:0 89:0 90:0 91:0 92:0 93:0 94:0 95:0 96:0 97:0 98:0 99:0 100:0 101:0 102:0 103:0 104:0 105:0 106:0 107:0 108:0 109:0 110:0 111:0 112:0 113:0 114:0 115:0 116:0 117:0 118:0 119:0 120:0 121:0 122:0 123:0 124:0 125:0 126:0 127:0 128:0 129:0 130:0 131:0 132:0 133:0 134:0 135:0 136:0 137:0 138:0 139:0 140:0 141:0 142:0 143:0 144:0 145:0 146:0 147:0 148:0 149:0 150:0 151:0 152:0 153:0 154:0 155:0 156:0 157:0 158:0 159:0 160:0 161:0 162:0 163:0 164:0 165:0 166:0 167:0 168:0 169:0 170:0 171:0 172:0 173:0 174:0 175:0 176:0 177:0 178:0 179:0 180:0 181:0 182:0 183:0 184:0 185:0 186:0 187:0 188:0 189:0 190:0 191:0 192:0 193:0 194:0 195:0 196:0 197:0 198:0 199:0 200:0 201:0 202:0 203:0 204:0 205:0 206:0 207:0 208:0 209:0 210:0 211:0 212:0 213:0 214:0 215:0 216:0 217:0 218:0 219:0 220:0 221:0 222:0 223:0 224:0 225:0 226:0 227:0 228:0 229:0 230:0 231:0 232:0 233:0 234:0 235:0 236:0 237:0 238:0 239:0 240:0 241:0 242:0 243:0 244:0 245:0 246:0 247:0 248:0 249:0 250:0 251:0 252:0 253:0 254:0 255:0 256:0 257:125.8016 258:73.8576 259:200 260:255 261:0 262:0 263:0 264:2 265:1 266:1 267:1 268:0 269:0 270:0 271:0 272:0 273:6 274:4 275:0 276:0 277:0 278:0 279:0 280:0 281:1 282:1 283:0 284:1 285:0 286:1 287:1 288:0 289:0 290:1 291:0 292:0 293:0 294:0 295:0 296:0 297:0 298:0 299:0 300:0 301:0 302:2 303:1 304:0 305:1 306:1 307:0 308:0 309:0 310:3 311:0 312:0 313:0 314:0 315:0 316:1 317:0 318:0 319:0 320:2 321:0 322:0 323:0 324:1 325:1 326:0 327:1 328:0 329:0 330:0 331:0 332:2 333:2 334:0 335:0 336:0 337:0 338:0 339:0 340:0 341:0 342:0 343:0 344:0 345:0 346:1 347:1 348:0 349:1 350:0 351:0 352:0 353:0 354:0 355:0 356:0 357:0 358:0 359:0 360:0 361:0 362:0 363:0 364:0 365:0 366:0 367:0 368:0 369:1 370:3 371:0 372:0 373:0 374:0 375:0 376:0 377:0 378:0 379:0 380:1 381:0 382:0 383:0 384:0 385:1 386:0 387:1 388:0 389:0 390:0 391:0 392:1 393:1 394:0 395:0 396:0 397:0 398:0 399:0 400:0 401:0 402:0 403:0 
0 0.0213545458896613 0 1:2400 2:0 3:0 4:0 5:0 6:0 7:0 8:0 9:0 10:0 11:0 12:0 13:0 14:0 15:0 16:0 17:0 18:0 19:0 20:0 21:0 22:0 23:0 24:0 25:0 26:0 27:0 28:0 29:0 30:0 31:0 32:0 33:0 34:0 35:0 36:0 37:0 38:0 39:0 40:0 41:0 42:0 43:0 44:0 45:0 46:0 47:0 48:0 49:0 50:0 51:0 52:0 53:0 54:0 55:0 56:0 57:0 58:0 59:0 60:0 61:0 62:0 63:0 64:0 65:0 66:0 67:0 68:0 69:0 70:0 71:0 72:0 73:0 74:0 75:0 76:0 77:0 78:0 79:0 80:0 81:0 82:0 83:0 84:0 85:0 86:0 87:0 88:0 89:0 90:0 91:0 92:0 93:0 94:0 95:0 96:0 97:0 98:0 99:0 100:0 101:0 102:0 103:0 104:0 105:0 106:0 107:0 108:0 109:0 110:0 111:0 112:0 113:0 114:0 115:0 116:0 117:0 118:0 119:0 120:0 121:0 122:0 123:0 124:0 125:0 126:0 127:0 128:0 129:0 130:0 131:0 132:0 133:0 134:0 135:0 136:0 137:0 138:0 139:0 140:0 141:0 142:0 143:0 144:0 145:0 146:0 147:0 148:0 149:0 150:0 151:0 152:0 153:0 154:0 155:0 156:0 157:0 158:0 159:0 160:0 161:0 162:0 163:0 164:0 165:0 166:0 167:0 168:0 169:0 170:0 171:0 172:0 173:0 174:0 175:0 176:0 177:0 178:0 179:0 180:0 181:0 182:0 183:0 184:0 185:0 186:0 187:0 188:0 189:0 190:0 191:0 192:0 193:0 194:0 195:0 196:0 197:0 198:0 199:0 200:0 201:0 202:0 203:0 204:0 205:0 206:0 207:0 208:0 209:0 210:0 211:0 212:0 213:0 214:0 215:0 216:0 217:0 218:0 219:0 220:0 221:0 222:0 223:0 224:0 225:0 226:0 227:0 228:0 229:0 230:0 231:0 232:0 233:0 234:0 235:0 236:0 237:0 238:0 239:0 240:0 241:0 242:0 243:0 244:0 245:0 246:0 247:0 248:0 249:0 250:0 251:0 252:0 253:0 254:0 255:0 256:0 257:126.5616 258:74.112 259:200 260:255 261:0 262:0 263:0 264:0 265:0 266:0 267:0 268:0 269:0 270:0 271:1 272:10 273:6 274:2 275:0 276:0 277:1 278:0 279:0 280:0 281:1 282:0 283:0 284:6 285:1 286:0 287:2 288:3 289:0 290:0 291:2 292:0 293:0 294:0 295:0 296:0 297:3 298:0 299:0 300:0 301:1 302:0 303:0 304:1 305:0 306:0 307:0 308:3 309:0 310:0 311:1 312:0 313:0 314:1 315:0 316:1 317:0 318:0 319:1 320:0 321:0 322:1 323:0 324:0 325:1 326:1 327:0 328:0 329:0 330:0 331:0 332:0 333:0 334:3 335:0 336:0 337:0 338:0 339:0 340:0 341:0 342:0 343:0 344:1 345:0 346:0 347:1 348:0 349:2 350:0 351:0 352:0 353:0 354:0 355:0 356:0 357:2 358:2 359:0 360:0 361:0 362:0 363:0 364:0 365:1 366:0 367:0 368:0 369:0 370:1 371:0 372:0 373:0 374:0 375:0 376:0 377:0 378:0 379:0 380:1 381:1 382:0 383:1 384:0 385:0 386:0 387:0 388:0 389:0 390:0 391:0 392:0 393:0 394:1 395:1 396:2 397:0 398:0 399:1 400:0 401:0 402:0 403:0 
0 0.01339499289574443 0 1:2400 2:0 3:0 4:0 5:0 6:0 7:0 8:0 9:0 10:0 11:0 12:0 13:0 14:0 15:0 16:0 17:0 18:0 19:0 20:0 21:0 22:0 23:0 24:0 25:0 26:0 27:0 28:0 29:0 30:0 31:0 32:0 33:0 34:0 35:0 36:0 37:0 38:0 39:0 40:0 41:0 42:0 43:0 44:0 45:0 46:0 47:0 48:0 49:0 50:0 51:0 52:0 53:0 54:0 55:0 56:0 57:0 58:0 59:0 60:0 61:0 62:0 63:0 64:0 65:0 66:0 67:0 68:0 69:0 70:0 71:0 72:0 73:0 74:0 75:0 76:0 77:0 78:0 79:0 80:0 81:0 82:0 83:0 84:0 85:0 86:0 87:0 88:0 89:0 90:0 91:0 92:0 93:0 94:0 95:0 96:0 97:0 98:0 99:0 100:0 101:0 102:0 103:0 104:0 105:0 106:0 107:0 108:0 109:0 110:0 111:0 112:0 113:0 114:0 115:0 116:0 117:0 118:0 119:0 120:0 121:0 122:0 123:0 124:0 125:0 126:0 127:0 128:0 129:0 130:0 131:0 132:0 133:0 134:0 135:0 136:0 137:0 138:0 139:0 140:0 141:0 142:0 143:0 144:0 145:0 146:0 147:0 148:0 149:0 150:0 151:0 152:0 153:0 154:0 155:0 156:0 157:0 158:0 159:0 160:0 161:0 162:0 163:0 164:0 165:0 166:0 167:0 168:0 169:0 170:0 171:0 172:0 173:0 174:0 175:0 176:0 177:0 178:0 179:0 180:0 181:0 182:0 183:0 184:0 185:0 186:0 187:0 188:0 189:0 190:0 191:0 192:0 193:0 194:0 195:0 196:0 197:0 198:0 199:0 200:0 201:0 202:0 203:0 204:0 205:0 206:0 207:0 208:0 209:0 210:0 211:0 212:0 213:0 214:0 215:0 216:0 217:0 218:0 219:0 220:0 221:0 222:0 223:0 224:0 225:0 226:0 227:0 228:0 229:0 230:0 231:0 232:0 233:0 234:0 235:0 236:0 237:0 238:0 239:0 240:0 241:0 242:0 243:0 244:0 245:0 246:0 247:0 248:0 249:0 250:0 251:0 252:0 253:0 254:0 255:0 256:0 257:125.144 258:71.9296 259:200 260:255 261:0 262:3 263:0 264:0 265:0 266:0 267:0 268:0 269:0 270:0 271:0 272:3 273:0 274:1 275:0 276:0 277:1 278:0 279:1 280:0 281:1 282:0 283:0 284:1 285:0 286:2 287:0 288:1 289:0 290:0 291:0 292:0 293:0 294:0 295:0 296:3 297:0 298:1 299:0 300:1 301:0 302:1 303:0 304:0 305:0 306:0 307:1 308:1 309:0 310:1 311:0 312:0 313:0 314:1 315:0 316:0 317:0 318:0 319:0 320:1 321:0 322:0 323:1 324:0 325:0 326:0 327:0 328:0 329:0 330:1 331:0 332:2 333:0 334:0 335:0 336:0 337:0 338:0 339:0 340:0 341:0 342:0 343:0 344:0 345:1 346:0 347:0 348:0 349:0 350:1 351:1 352:0 353:0 354:0 355:0 356:0 357:0 358:0 359:0 360:2 361:0 362:0 363:0 364:0 365:0 366:0 367:0 368:1 369:0 370:1 371:0 372:1 373:0 374:0 375:0 376:0 377:0 378:0 379:0 380:0 381:0 382:0 383:0 384:0 385:0 386:0 387:1 388:0 389:0 390:0 391:0 392:1 393:0 394:0 395:1 396:0 397:0 398:0 399:0 400:0 401:0 402:0 403:0 
0.01249839951228293 0 0 1:2400 2:0 3:0 4:0 5:0 6:0 7:0 8:0 9:0 10:0 11:0 12:0 13:0 14:0 15:0 16:0 17:0 18:0 19:0 20:0 21:0 22:0 23:0 24:0 25:0 26:0 27:0 28:0 29:0 30:0 31:0 32:0 33:0 34:0 35:0 36:0 37:0 38:0 39:0 40:0 41:0 42:0 43:0 44:0 45:0 46:0 47:0 48:0 49:0 50:0 51:0 52:0 53:0 54:0 55:0 56:0 57:0 58:0 59:0 60:0 61:0 62:0 63:0 64:0 65:0 66:0 67:0 68:0 69:0 70:0 71:0 72:0 73:0 74:0 75:0 76:0 77:0 78:0 79:0 80:0 81:0 82:0 83:0 84:0 85:0 86:0 87:0 88:0 89:0 90:0 91:0 92:0 93:0 94:0 95:0 96:0 97:0 98:0 99:0 100:0 101:0 102:0 103:0 104:0 105:0 106:0 107:0 108:0 109:0 110:0 111:0 112:0 113:0 114:0 115:0 116:0 117:0 118:0 119:0 120:0 121:0 122:0 123:0 124:0 125:0 126:0 127:0 128:0 129:0 130:0 131:0 132:0 133:0 134:0 135:0 136:0 137:0 138:0 139:0 140:0 141:0 142:0 143:0 144:0 145:0 146:0 147:0 148:0 149:0 150:0 151:0 152:0 153:0 154:0 155:0 156:0 157:0 158:0 159:0 160:0 161:0 162:0 163:0 164:0 165:0 166:0 167:0 168:0 169:0 170:0 171:0 172:0 173:0 174:0 175:0 176:0 177:0 178:0 179:0 180:0 181:0 182:0 183:0 184:0 185:0 186:0 187:0 188:0 189:0 190:0 191:0 192:0 193:0 194:0 195:0 196:0 197:0 198:0 199:0 200:0 201:0 202:0 203:0 204:0 205:0 206:0 207:0 208:0 209:0 210:0 211:0 212:0 213:0 214:0 215:0 216:0 217:0 218:0 219:0 220:0 221:0 222:0 223:0 224:0 225:0 226:0 227:0 228:0 229:0 230:0 231:0 232:0 233:0 234:0 235:0 236:0 237:0 238:0 239:0 240:0 241:0 242:0 243:0 244:0 245:0 246:0 247:0 248:0 249:0 250:0 251:0 252:0 253:0 254:0 255:0 256:0 257:125.6944 258:74.6096 259:200 260:255 261:0 262:1 263:0 264:1 265:2 266:1 267:0 268:0 269:0 270:1 271:0 272:0 273:0 274:2 275:0 276:2 277:2 278:1 279:1 280:0 281:0 282:0 283:0 284:1 285:3 286:1 287:1 288:0 289:0 290:3 291:0 292:1 293:0 294:0 295:0 296:0 297:0 298:3 299:0 300:1 301:0 302:0 303:0 304:0 305:0 306:0 307:0 308:0 309:0 310:1 311:2 312:2 313:0 314:0 315:0 316:0 317:0 318:0 319:0 320:0 321:3 322:2 323:0 324:1 325:0 326:1 327:0 328:0 329:0 330:0 331:0 332:3 333:0 334:0 335:1 336:0 337:0 338:0 339:0 340:0 341:1 342:0 343:0 344:0 345:0 346:0 347:2 348:0 349:0 350:0 351:1 352:1 353:0 354:0 355:0 356:0 357:1 358:2 359:0 360:0 361:3 362:1 363:0 364:0 365:1 366:0 367:0 368:1 369:0 370:0 371:1 372:0 373:0 374:0 375:0 376:1 377:0 378:0 379:0 380:3 381:1 382:0 383:1 384:3 385:0 386:0 387:1 388:0 389:0 390:0 391:0 392:0 393:0 394:0 395:0 396:1 397:1 398:0 399:0 400:1 401:0 402:0 403:0 
0 0.08400795440627419 0 1:2400 2:0 3:0 4:0 5:0 6:0 7:0 8:0 9:0 10:0 11:0 12:0 13:0 14:0 15:0 16:0 17:0 18:0 19:0 20:0 21:0 22:0 23:0 24:0 25:0 26:0 27:0 28:0 29:0 30:0 31:0 32:0 33:0 34:0 35:0 36:0 37:0 38:0 39:0 40:0 41:0 42:0 43:0 44:0 45:0 46:0 47:0 48:0 49:0 50:0 51:0 52:0 53:0 54:0 55:0 56:0 57:0 58:0 59:0 60:0 61:0 62:0 63:0 64:0 65:0 66:0 67:0 68:0 69:0 70:0 71:0 72:0 73:0 74:0 75:0 76:0 77:0 78:0 79:0 80:0 81:0 82:0 83:0 84:0 85:0 86:0 87:0 88:0 89:0 90:0 91:0 92:0 93:0 94:0 95:0 96:0 97:0 98:0 99:0 100:0 101:0 102:0 103:0 104:0 105:0 106:0 107:0 108:0 109:0 110:0 111:0 112:0 113:0 114:0 115:0 116:0 117:0 118:0 119:0 120:0 121:0 122:0 123:0 124:0 125:0 126:0 127:0 128:0 129:0 130:0 131:0 132:0 133:0 134:0 135:0 136:0 137:0 138:0 139:0 140:0 141:0 142:0 143:0 144:0 145:0 146:0 147:0 148:0 149:0 150:0 151:0 152:0 153:0 154:0 155:0 156:0 157:0 158:0 159:0 160:0 161:0 162:0 163:0 164:0 165:0 166:0 167:0 168:0 169:0 170:0 171:0 172:0 173:0 174:0 175:0 176:0 177:0 178:0 179:0 180:0 181:0 182:0 183:0 184:0 185:0 186:0 187:0 188:0 189:0 190:0 191:0 192:0 193:0 194:0 195:0 196:0 197:0 198:0 199:0 200:0 201:0 202:0 203:0 204:0 205:0 206:0 207:0 208:0 209:0 210:0 211:0 212:0 213:0 214:0 215:0 216:0 217:0 218:0 219:0 220:0 221:0 222:0 223:0 224:0 225:0 226:0 227:0 228:0 229:0 230:0 231:0 232:0 233:0 234:0 235:0 236:0 237:0 238:0 239:0 240:0 241:0 242:0 243:0 244:0 245:0 246:0 247:0 248:0 249:0 250:0 251:0 252:0 253:0 254:0 255:0 256:0 257:125.3808 258:73.8864 259:200 260:255 261:0 262:0 263:0 264:0 265:0 266:0 267:0 268:0 269:0 270:0 271:0 272:11 273:7 274:0 275:0 276:3 277:0 278:0 279:0 280:2 281:0 282:0 283:0 284:0 285:0 286:1 287:0 288:0 289:2 290:1 291:1 292:0 293:0 294:0 295:0 296:1 297:2 298:0 299:0 300:1 301:1 302:0 303:0 304:2 305:0 306:0 307:0 308:8 309:0 310:2 311:0 312:1 313:1 314:0 315:0 316:1 317:0 318:0 319:1 320:0 321:5 322:2 323:0 324:1 325:0 326:1 327:0 328:0 329:0 330:0 331:1 332:0 333:0 334:2 335:1 336:0 337:0 338:1 339:0 340:0 341:0 342:0 343:0 344:1 345:2 346:0 347:0 348:0 349:0 350:0 351:0 352:0 353:0 354:0 355:0 356:0 357:0 358:1 359:0 360:0 361:0 362:0 363:0 364:0 365:0 366:0 367:0 368:2 369:0 370:0 371:0 372:0 373:1 374:0 375:0 376:0 377:0 378:0 379:0 380:1 381:0 382:0 383:0 384:1 385:0 386:1 387:0 388:0 389:0 390:0 391:0 392:2 393:0 394:1 395:0 396:1 397:0 398:0 399:0 400:0 401:0 402:0 403:0 
