svm_type c_svc
kernel_type linear
nr_class 4
total_sv 101
rho 5.66535e+07 -3.76236e+07 -1.21485e+08 -2.2851e+07 -4.13888e+07 -7.88703e+07
label 1 2 3 4
probA -2.86287e-06 -1.29143e-06 -1.64146e-06 -5.51891e-06 -4.87417e-06 -2.47865e-06
probB 0.0312585 -0.0221445 0.0904514 -0.118311 -0.401516 -0.102319
nr_sv 44 11 31 15
SV
0 1048576 1048576 1:2400 2:0 3:0 4:0 5:0 6:0 7:0 8:0 9:0 10:0 11:0 12:0 13:0 14:0 15:0 16:0 17:0 18:0 19:0 20:0 21:0 22:0 23:0 24:0 25:0 26:0 27:0 28:0 29:0 30:0 31:0 32:0 33:0 34:0 35:0 36:0 37:0 38:0 39:0 40:0 41:0 42:0 43:0 44:0 45:0 46:0 47:0 48:0 49:0 50:0 51:0 52:0 53:0 54:0 55:0 56:0 57:0 58:0 59:0 60:0 61:0 62:0 63:0 64:0 65:0 66:0 67:0 68:0 69:0 70:0 71:0 72:0 73:0 74:0 75:0 76:0 77:0 78:0 79:0 80:0 81:0 82:0 83:0 84:0 85:0 86:0 87:0 88:0 89:0 90:0 91:0 92:0 93:0 94:0 95:0 96:0 97:0 98:0 99:0 100:0 101:0 102:0 103:0 104:0 105:0 106:0 107:0 108:0 109:0 110:0 111:0 112:0 113:0 114:0 115:0 116:0 117:0 118:0 119:0 120:0 121:0 122:0 123:0 124:0 125:0 126:0 127:0 128:0 129:0 130:0 131:0 132:0 133:0 134:0 135:0 136:0 137:0 138:0 139:0 140:0 141:0 142:0 143:0 144:0 145:0 146:0 147:0 148:0 149:0 150:0 151:0 152:0 153:0 154:0 155:0 156:0 157:0 158:0 159:0 160:0 161:0 162:0 163:0 164:0 165:0 166:0 167:0 168:0 169:0 170:0 171:0 172:0 173:0 174:0 175:0 176:0 177:0 178:0 179:0 180:0 181:0 182:0 183:0 184:0 185:0 186:0 187:0 188:0 189:0 190:0 191:0 192:0 193:0 194:0 195:0 196:0 197:0 198:0 199:0 200:0 201:0 202:0 203:0 204:0 205:0 206:0 207:0 208:0 209:0 210:0 211:0 212:0 213:0 214:0 215:0 216:0 217:0 218:0 219:0 220:0 221:0 222:0 223:0 224:0 225:0 226:0 227:0 228:0 229:0 230:0 231:0 232:0 233:0 234:0 235:0 236:0 237:0 238:0 239:0 240:0 241:0 242:0 243:0 244:0 245:0 246:0 247:0 248:0 249:0 250:0 251:0 252:0 253:0 254:0 255:0 256:0 257:128.5488 258:74.8416 259:200 
0 1048576 1048576 1:2400 2:0 3:0 4:0 5:0 6:0 7:0 8:0 9:0 10:0 11:0 12:0 13:0 14:0 15:0 16:0 17:0 18:0 19:0 20:0 21:0 22:0 23:0 24:0 25:0 26:0 27:0 28:0 29:0 30:0 31:0 32:0 33:0 34:0 35:0 36:0 37:0 38:0 39:0 40:0 41:0 42:0 43:0 44:0 45:0 46:0 47:0 48:0 49:0 50:0 51:0 52:0 53:0 54:0 55:0 56:0 57:0 58:0 59:0 60:0 61:0 62:0 63:0 64:0 65:0 66:0 67:0 68:0 69:0 70:0 71:0 72:0 73:0 74:0 75:0 76:0 77:0 78:0 79:0 80:0 81:0 82:0 83:0 84:0 85:0 86:0 87:0 88:0 89:0 90:0 91:0 92:0 93:0 94:0 95:0 96:0 97:0 98:0 99:0 100:0 101:0 102:0 103:0 104:0 105:0 106:0 107:0 108:0 109:0 110:0 111:0 112:0 113:0 114:0 115:0 116:0 117:0 118:0 119:0 120:0 121:0 122:0 123:0 124:0 125:0 126:0 127:0 128:0 129:0 130:0 131:0 132:0 133:0 134:0 135:0 136:0 137:0 138:0 139:0 140:0 141:0 142:0 143:0 144:0 145:0 146:0 147:0 148:0 149:0 150:0 151:0 152:0 153:0 154:0 155:0 156:0 157:0 158:0 159:0 160:0 161:0 162:0 163:0 164:0 165:0 166:0 167:0 168:0 169:0 170:0 171:0 172:0 173:0 174:0 175:0 176:0 177:0 178:0 179:0 180:0 181:0 182:0 183:0 184:0 185:0 186:0 187:0 188:0 189:0 190:0 191:0 192:0 193:0 194:0 195:0 196:0 197:0 198:0 199:0 200:0 201:0 202:0 203:0 204:0 205:0 206:0 207:0 208:0 209:0 210:0 211:0 212:0 213:0 214:0 215:0 216:0 217:0 218:0 219:0 220:0 221:0 222:0 223:0 224:0 225:0 226:0 227:0 228:0 229:0 230:0 231:0 232:0 233:0 234:0 235:0 236:0 237:0 238:0 239:0 240:0 241:0 242:0 243:0 244:0 245:0 246:0 247:0 248:0 249:0 250:0 251:0 252:0 253:0 254:0 255:0 256:0 257:126.7712 258:73.36 259:200 
0 281709.3114066876 0 1:2400 2:0 3:0 4:0 5:0 6:0 7:0 8:0 9:0 10:0 11:0 12:0 13:0 14:0 15:0 16:0 17:0 18:0 19:0 20:0 21:0 22:0 23:0 24:0 25:0 26:0 27:0 28:0 29:0 30:0 31:0 32:0 33:0 34:0 35:0 36:0 37:0 38:0 39:0 40:0 41:0 42:0 43:0 44:0 45:0 46:0 47:0 48:0 49:0 50:0 51:0 52:0 53:0 54:0 55:0 56:0 57:0 58:0 59:0 60:0 61:0 62:0 63:0 64:0 65:0 66:0 67:0 68:0 69:0 70:0 71:0 72:0 73:0 74:0 75:0 76:0 77:0 78:0 79:0 80:0 81:0 82:0 83:0 84:0 85:0 86:0 87:0 88:0 89:0 90:0 91:0 92:0 93:0 94:0 95:0 96:0 97:0 98:0 99:0 100:0 101:0 102:0 103:0 104:0 105:0 106:0 107:0 108:0 109:0 110:0 111:0 112:0 113:0 114:0 115:0 116:0 117:0 118:0 119:0 120:0 121:0 122:0 123:0 124:0 125:0 126:0 127:0 128:0 129:0 130:0 131:0 132:0 133:0 134:0 135:0 136:0 137:0 138:0 139:0 140:0 141:0 142:0 143:0 144:0 145:0 146:0 147:0 148:0 149:0 150:0 151:0 152:0 153:0 154:0 155:0 156:0 157:0 158:0 159:0 160:0 161:0 162:0 163:0 164:0 165:0 166:0 167:0 168:0 169:0 170:0 171:0 172:0 173:0 174:0 175:0 176:0 177:0 178:0 179:0 180:0 181:0 182:0 183:0 184:0 185:0 186:0 187:0 188:0 189:0 190:0 191:0 192:0 193:0 194:0 195:0 196:0 197:0 198:0 199:0 200:0 201:0 202:0 203:0 204:0 205:0 206:0 207:0 208:0 209:0 210:0 211:0 212:0 213:0 214:0 215:0 216:0 217:0 218:0 219:0 220:0 221:0 222:0 223:0 224:0 225:0 226:0 227:0 228:0 229:0 230:0 231:0 232:0 233:0 234:0 235:0 236:0 237:0 238:0 239:0 240:0 241:0 242:0 243:0 244:0 245:0 246:0 247:0 248:0 249:0 250:0 251:0 252:0 253:0 254:0 255:0 256:0 257:126.4288 258:74.5296 259:200 
0 1048576 1048576 1:2400 2:0 3:0 4:0 5:0 6:0 7:0 8:0 9:0 10:0 11:0 12:0 13:0 14:0 15:0 16:0 17:0 18:0 19:0 20:0 21:0 22:0 23:0 24:0 25:0 26:0 27:0 28:0 29:0 30:0 31:0 32:0 33:0 34:0 35:0 36:0 37:0 38:0 39:0 40:0 41:0 42:0 43:0 44:0 45:0 46:0 47:0 48:0 49:0 50:0 51:0 52:0 53:0 54:0 55:0 56:0 57:0 58:0 59:0 60:0 61:0 62:0 63:0 64:0 65:0 66:0 67:0 68:0 69:0 70:0 71:0 72:0 73:0 74:0 75:0 76:0 77:0 78:0 79:0 80:0 81:0 82:0 83:0 84:0 85:0 86:0 87:0 88:0 89:0 90:0 91:0 92:0 93:0 94:0 95:0 96:0 97:0 98:0 99:0 100:0 101:0 102:0 103:0 104:0 105:0 106:0 107:0 108:0 109:0 110:0 111:0 112:0 113:0 114:0 115:0 116:0 117:0 118:0 119:0 120:0 121:0 122:0 123:0 124:0 125:0 126:0 127:0 128:0 129:0 130:0 131:0 132:0 133:0 134:0 135:0 136:0 137:0 138:0 139:0 140:0 141:0 142:0 143:0 144:0 145:0 146:0 147:0 148:0 149:0 150:0 151:0 152:0 153:0 154:0 155:0 156:0 157:0 158:0 159:0 160:0 161:0 162:0 163:0 164:0 165:0 166:0 167:0 168:0 169:0 170:0 171:0 172:0 173:0 174:0 175:0 176:0 177:0 178:0 179:0 180:0 181:0 182:0 183:0 184:0 185:0 186:0 187:0 188:0 189:0 190:0 191:0 192:0 193:0 194:0 195:0 196:0 197:0 198:0 199:0 200:0 201:0 202:0 203:0 204:0 205:0 206:0 207:0 208:0 209:0 210:0 211:0 212:0 213:0 214:0 215:0 216:0 217:0 218:0 219:0 220:0 221:0 222:0 223:0 224:0 225:0 226:0 227:0 228:0 229:0 230:0 231:0 232:0 233:0 234:0 235:0 236:0 237:0 238:0 239:0 240:0 241:0 242:0 243:0 244:0 245:0 246:0 247:0 248:0 249:0 250:0 251:0 252:0 253:0 254:0 255:0 256:0 257:127.5568 258:73.8016 259:200 
0 0 1048576 1:2400 2:0 3:0 4:0 5:0 6:0 7:0 8:0 9:0 10:0 11:0 12:0 13:0 14:0 15:0 16:0 17:0 18:0 19:0 20:0 21:0 22:0 23:0 24:0 25:0 26:0 27:0 28:0 29:0 30:0 31:0 32:0 33:0 34:0 35:0 36:0 37:0 38:0 39:0 40:0 41:0 42:0 43:0 44:0 45:0 46:0 47:0 48:0 49:0 50:0 51:0 52:0 53:0 54:0 55:0 56:0 57:0 58:0 59:0 60:0 61:0 62:0 63:0 64:0 65:0 66:0 67:0 68:0 69:0 70:0 71:0 72:0 73:0 74:0 75:0 76:0 77:0 78:0 79:0 80:0 81:0 82:0 83:0 84:0 85:0 86:0 87:0 88:0 89:0 90:0 91:0 92:0 93:0 94:0 95:0 96:0 97:0 98:0 99:0 100:0 101:0 102:0 103:0 104:0 105:0 106:0 107:0 108:0 109:0 110:0 111:0 112:0 113:0 114:0 115:0 116:0 117:0 118:0 119:0 120:0 121:0 122:0 123:0 124:0 125:0 126:0 127:0 128:0 129:0 130:0 131:0 132:0 133:0 134:0 135:0 136:0 137:0 138:0 139:0 140:0 141:0 142:0 143:0 144:0 145:0 146:0 147:0 148:0 149:0 150:0 151:0 152:0 153:0 154:0 155:0 156:0 157:0 158:0 159:0 160:0 161:0 162:0 163:0 164:0 165:0 166:0 167:0 168:0 169:0 170:0 171:0 172:0 173:0 174:0 175:0 176:0 177:0 178:0 179:0 180:0 181:0 182:0 183:0 184:0 185:0 186:0 187:0 188:0 189:0 190:0 191:0 192:0 193:0 194:0 195:0 196:0 197:0 198:0 199:0 200:0 201:0 202:0 203:0 204:0 205:0 206:0 207:0 208:0 209:0 210:0 211:0 212:0 213:0 214:0 215:0 216:0 217:0 218:0 219:0 220:0 221:0 222:0 223:0 224:0 225:0 226:0 227:0 228:0 229:0 230:0 231:0 232:0 233:0 234:0 235:0 236:0 237:0 238:0 239:0 240:0 241:0 242:0 243:0 244:0 245:0 246:0 247:0 248:0 249:0 250:0 251:0 252:0 253:0 254:0 255:0 256:0 257:128.1056 258:75.4096 259:200 
0 0 1048576 1:2400 2:0 3:0 4:0 5:0 6:0 7:0 8:0 9:0 10:0 11:0 12:0 13:0 14:0 15:0 16:0 17:0 18:0 19:0 20:0 21:0 22:0 23:0 24:0 25:0 26:0 27:0 28:0 29:0 30:0 31:0 32:0 33:0 34:0 35:0 36:0 37:0 38:0 39:0 40:0 41:0 42:0 43:0 44:0 45:0 46:0 47:0 48:0 49:0 50:0 51:0 52:0 53:0 54:0 55:0 56:0 57:0 58:0 59:0 60:0 61:0 62:0 63:0 64:0 65:0 66:0 67:0 68:0 69:0 70:0 71:0 72:0 73:0 74:0 75:0 76:0 77:0 78:0 79:0 80:0 81:0 82:0 83:0 84:0 85:0 86:0 87:0 88:0 89:0 90:0 91:0 92:0 93:0 94:0 95:0 96:0 97:0 98:0 99:0 100:0 101:0 102:0 103:0 104:0 105:0 106:0 107:0 108:0 109:0 110:0 111:0 112:0 113:0 114:0 115:0 116:0 117:0 118:0 119:0 120:0 121:0 122:0 123:0 124:0 125:0 126:0 127:0 128:0 129:0 130:0 131:0 132:0 133:0 134:0 135:0 136:0 137:0 138:0 139:0 140:0 141:0 142:0 143:0 144:0 145:0 146:0 147:0 148:0 149:0 150:0 151:0 152:0 153:0 154:0 155:0 156:0 157:0 158:0 159:0 160:0 161:0 162:0 163:0 164:0 165:0 166:0 167:0 168:0 169:0 170:0 171:0 172:0 173:0 174:0 175:0 176:0 177:0 178:0 179:0 180:0 181:0 182:0 183:0 184:0 185:0 186:0 187:0 188:0 189:0 190:0 191:0 192:0 193:0 194:0 195:0 196:0 197:0 198:0 199:0 200:0 201:0 202:0 203:0 204:0 205:0 206:0 207:0 208:0 209:0 210:0 211:0 212:0 213:0 214:0 215:0 216:0 217:0 218:0 219:0 220:0 221:0 222:0 223:0 224:0 225:0 226:0 227:0 228:0 229:0 230:0 231:0 232:0 233:0 234:0 235:0 236:0 237:0 238:0 239:0 240:0 241:0 242:0 243:0 244:0 245:0 246:0 247:0 248:0 249:0 250:0 251:0 252:0 253:0 254:0 255:0 256:0 257:126.8544 258:74.6528 259:200 
0 1048576 0 1:2400 2:0 3:0 4:0 5:0 6:0 7:0 8:0 9:0 10:0 11:0 12:0 13:0 14:0 15:0 16:0 17:0 18:0 19:0 20:0 21:0 22:0 23:0 24:0 25:0 26:0 27:0 28:0 29:0 30:0 31:0 32:0 33:0 34:0 35:0 36:0 37:0 38:0 39:0 40:0 41:0 42:0 43:0 44:0 45:0 46:0 47:0 48:0 49:0 50:0 51:0 52:0 53:0 54:0 55:0 56:0 57:0 58:0 59:0 60:0 61:0 62:0 63:0 64:0 65:0 66:0 67:0 68:0 69:0 70:0 71:0 72:0 73:0 74:0 75:0 76:0 77:0 78:0 79:0 80:0 81:0 82:0 83:0 84:0 85:0 86:0 87:0 88:0 89:0 90:0 91:0 92:0 93:0 94:0 95:0 96:0 97:0 98:0 99:0 100:0 101:0 102:0 103:0 104:0 105:0 106:0 107:0 108:0 109:0 110:0 111:0 112:0 113:0 114:0 115:0 116:0 117:0 118:0 119:0 120:0 121:0 122:0 123:0 124:0 125:0 126:0 127:0 128:0 129:0 130:0 131:0 132:0 133:0 134:0 135:0 136:0 137:0 138:0 139:0 140:0 141:0 142:0 143:0 144:0 145:0 146:0 147:0 148:0 149:0 150:0 151:0 152:0 153:0 154:0 155:0 156:0 157:0 158:0 159:0 160:0 161:0 162:0 163:0 164:0 165:0 166:0 167:0 168:0 169:0 170:0 171:0 172:0 173:0 174:0 175:0 176:0 177:0 178:0 179:0 180:0 181:0 182:0 183:0 184:0 185:0 186:0 187:0 188:0 189:0 190:0 191:0 192:0 193:0 194:0 195:0 196:0 197:0 198:0 199:0 200:0 201:0 202:0 203:0 204:0 205:0 206:0 207:0 208:0 209:0 210:0 211:0 212:0 213:0 214:0 215:0 216:0 217:0 218:0 219:0 220:0 221:0 222:0 223:0 224:0 225:0 226:0 227:0 228:0 229:0 230:0 231:0 232:0 233:0 234:0 235:0 236:0 237:0 238:0 239:0 240:0 241:0 242:0 243:0 244:0 245:0 246:0 247:0 248:0 249:0 250:0 251:0 252:0 253:0 254:0 255:0 256:0 257:125.8128 258:73.128 259:200 
1048576 0 0 1:2400 2:0 3:0 4:0 5:0 6:0 7:0 8:0 9:0 10:0 11:0 12:0 13:0 14:0 15:0 16:0 17:0 18:0 19:0 20:0 21:0 22:0 23:0 24:0 25:0 26:0 27:0 28:0 29:0 30:0 31:0 32:0 33:0 34:0 35:0 36:0 37:0 38:0 39:0 40:0 41:0 42:0 43:0 44:0 45:0 46:0 47:0 48:0 49:0 50:0 51:0 52:0 53:0 54:0 55:0 56:0 57:0 58:0 59:0 60:0 61:0 62:0 63:0 64:0 65:0 66:0 67:0 68:0 69:0 70:0 71:0 72:0 73:0 74:0 75:0 76:0 77:0 78:0 79:0 80:0 81:0 82:0 83:0 84:0 85:0 86:0 87:0 88:0 89:0 90:0 91:0 92:0 93:0 94:0 95:0 96:0 97:0 98:0 99:0 100:0 101:0 102:0 103:0 104:0 105:0 106:0 107:0 108:0 109:0 110:0 111:0 112:0 113:0 114:0 115:0 116:0 117:0 118:0 119:0 120:0 121:0 122:0 123:0 124:0 125:0 126:0 127:0 128:0 129:0 130:0 131:0 132:0 133:0 134:0 135:0 136:0 137:0 138:0 139:0 140:0 141:0 142:0 143:0 144:0 145:0 146:0 147:0 148:0 149:0 150:0 151:0 152:0 153:0 154:0 155:0 156:0 157:0 158:0 159:0 160:0 161:0 162:0 163:0 164:0 165:0 166:0 167:0 168:0 169:0 170:0 171:0 172:0 173:0 174:0 175:0 176:0 177:0 178:0 179:0 180:0 181:0 182:0 183:0 184:0 185:0 186:0 187:0 188:0 189:0 190:0 191:0 192:0 193:0 194:0 195:0 196:0 197:0 198:0 199:0 200:0 201:0 202:0 203:0 204:0 205:0 206:0 207:0 208:0 209:0 210:0 211:0 212:0 213:0 214:0 215:0 216:0 217:0 218:0 219:0 220:0 221:0 222:0 223:0 224:0 225:0 226:0 227:0 228:0 229:0 230:0 231:0 232:0 233:0 234:0 235:0 236:0 237:0 238:0 239:0 240:0 241:0 242:0 243:0 244:0 245:0 246:0 247:0 248:0 249:0 250:0 251:0 252:0 253:0 254:0 255:0 256:0 257:122.8144 258:73.9872 259:200 
0 1048576 0 1:2400 2:0 3:0 4:0 5:0 6:0 7:0 8:0 9:0 10:0 11:0 12:0 13:0 14:0 15:0 16:0 17:0 18:0 19:0 20:0 21:0 22:0 23:0 24:0 25:0 26:0 27:0 28:0 29:0 30:0 31:0 32:0 33:0 34:0 35:0 36:0 37:0 38:0 39:0 40:0 41:0 42:0 43:0 44:0 45:0 46:0 47:0 48:0 49:0 50:0 51:0 52:0 53:0 54:0 55:0 56:0 57:0 58:0 59:0 60:0 61:0 62:0 63:0 64:0 65:0 66:0 67:0 68:0 69:0 70:0 71:0 72:0 73:0 74:0 75:0 76:0 77:0 78:0 79:0 80:0 81:0 82:0 83:0 84:0 85:0 86:0 87:0 88:0 89:0 90:0 91:0 92:0 93:0 94:0 95:0 96:0 97:0 98:0 99:0 100:0 101:0 102:0 103:0 104:0 105:0 106:0 107:0 108:0 109:0 110:0 111:0 112:0 113:0 114:0 115:0 116:0 117:0 118:0 119:0 120:0 121:0 122:0 123:0 124:0 125:0 126:0 127:0 128:0 129:0 130:0 131:0 132:0 133:0 134:0 135:0 136:0 137:0 138:0 139:0 140:0 141:0 142:0 143:0 144:0 145:0 146:0 147:0 148:0 149:0 150:0 151:0 152:0 153:0 154:0 155:0 156:0 157:0 158:0 159:0 160:0 161:0 162:0 163:0 164:0 165:0 166:0 167:0 168:0 169:0 170:0 171:0 172:0 173:0 174:0 175:0 176:0 177:0 178:0 179:0 180:0 181:0 182:0 183:0 184:0 185:0 186:0 187:0 188:0 189:0 190:0 191:0 192:0 193:0 194:0 195:0 196:0 197:0 198:0 199:0 200:0 201:0 202:0 203:0 204:0 205:0 206:0 207:0 208:0 209:0 210:0 211:0 212:0 213:0 214:0 215:0 216:0 217:0 218:0 219:0 220:0 221:0 222:0 223:0 224:0 225:0 226:0 227:0 228:0 229:0 230:0 231:0 232:0 233:0 234:0 235:0 236:0 237:0 238:0 239:0 240:0 241:0 242:0 243:0 244:0 245:0 246:0 247:0 248:0 249:0 250:0 251:0 252:0 253:0 254:0 255:0 256:0 257:126.7904 258:75.0048 259:200 
0 0 1048576 1:2400 2:0 3:0 4:0 5:0 6:0 7:0 8:0 9:0 10:0 11:0 12:0 13:0 14:0 15:0 16:0 17:0 18:0 19:0 20:0 21:0 22:0 23:0 24:0 25:0 26:0 27:0 28:0 29:0 30:0 31:0 32:0 33:0 34:0 35:0 36:0 37:0 38:0 39:0 40:0 41:0 42:0 43:0 44:0 45:0 46:0 47:0 48:0 49:0 50:0 51:0 52:0 53:0 54:0 55:0 56:0 57:0 58:0 59:0 60:0 61:0 62:0 63:0 64:0 65:0 66:0 67:0 68:0 69:0 70:0 71:0 72:0 73:0 74:0 75:0 76:0 77:0 78:0 79:0 80:0 81:0 82:0 83:0 84:0 85:0 86:0 87:0 88:0 89:0 90:0 91:0 92:0 93:0 94:0 95:0 96:0 97:0 98:0 99:0 100:0 101:0 102:0 103:0 104:0 105:0 106:0 107:0 108:0 109:0 110:0 111:0 112:0 113:0 114:0 115:0 116:0 117:0 118:0 119:0 120:0 121:0 122:0 123:0 124:0 125:0 126:0 127:0 128:0 129:0 130:0 131:0 132:0 133:0 134:0 135:0 136:0 137:0 138:0 139:0 140:0 141:0 142:0 143:0 144:0 145:0 146:0 147:0 148:0 149:0 150:0 151:0 152:0 153:0 154:0 155:0 156:0 157:0 158:0 159:0 160:0 161:0 162:0 163:0 164:0 165:0 166:0 167:0 168:0 169:0 170:0 171:0 172:0 173:0 174:0 175:0 176:0 177:0 178:0 179:0 180:0 181:0 182:0 183:0 184:0 185:0 186:0 187:0 188:0 189:0 190:0 191:0 192:0 193:0 194:0 195:0 196:0 197:0 198:0 199:0 200:0 201:0 202:0 203:0 204:0 205:0 206:0 207:0 208:0 209:0 210:0 211:0 212:0 213:0 214:0 215:0 216:0 217:0 218:0 219:0 220:0 221:0 222:0 223:0 224:0 225:0 226:0 227:0 228:0 229:0 230:0 231:0 232:0 233:0 234:0 235:0 236:0 237:0 238:0 239:0 240:0 241:0 242:0 243:0 244:0 245:0 246:0 247:0 248:0 249:0 250:0 251:0 252:0 253:0 254:0 255:0 256:0 257:126.5488 258:73.6704 259:200 
0 0 1048576 1:2400 2:0 3:0 4:0 5:0 6:0 7:0 8:0 9:0 10:0 11:0 12:0 13:0 14:0 15:0 16:0 17:0 18:0 19:0 20:0 21:0 22:0 23:0 24:0 25:0 26:0 27:0 28:0 29:0 30:0 31:0 32:0 33:0 34:0 35:0 36:0 37:0 38:0 39:0 40:0 41:0 42:0 43:0 44:0 45:0 46:0 47:0 48:0 49:0 50:0 51:0 52:0 53:0 54:0 55:0 56:0 57:0 58:0 59:0 60:0 61:0 62:0 63:0 64:0 65:0 66:0 67:0 68:0 69:0 70:0 71:0 72:0 73:0 74:0 75:0 76:0 77:0 78:0 79:0 80:0 81:0 82:0 83:0 84:0 85:0 86:0 87:0 88:0 89:0 90:0 91:0 92:0 93:0 94:0 95:0 96:0 97:0 98:0 99:0 100:0 101:0 102:0 103:0 104:0 105:0 106:0 107:0 108:0 109:0 110:0 111:0 112:0 113:0 114:0 115:0 116:0 117:0 118:0 119:0 120:0 121:0 122:0 123:0 124:0 125:0 126:0 127:0 128:0 129:0 130:0 131:0 132:0 133:0 134:0 135:0 136:0 137:0 138:0 139:0 140:0 141:0 142:0 143:0 144:0 145:0 146:0 147:0 148:0 149:0 150:0 151:0 152:0 153:0 154:0 155:0 156:0 157:0 158:0 159:0 160:0 161:0 162:0 163:0 164:0 165:0 166:0 167:0 168:0 169:0 170:0 171:0 172:0 173:0 174:0 175:0 176:0 177:0 178:0 179:0 180:0 181:0 182:0 183:0 184:0 185:0 186:0 187:0 188:0 189:0 190:0 191:0 192:0 193:0 194:0 195:0 196:0 197:0 198:0 199:0 200:0 201:0 202:0 203:0 204:0 205:0 206:0 207:0 208:0 209:0 210:0 211:0 212:0 213:0 214:0 215:0 216:0 217:0 218:0 219:0 220:0 221:0 222:0 223:0 224:0 225:0 226:0 227:0 228:0 229:0 230:0 231:0 232:0 233:0 234:0 235:0 236:0 237:0 238:0 239:0 240:0 241:0 242:0 243:0 244:0 245:0 246:0 247:0 248:0 249:0 250:0 251:0 252:0 253:0 254:0 255:0 256:0 257:125.944 258:73.904 259:200 
0 1048576 0 1:2400 2:0 3:0 4:0 5:0 6:0 7:0 8:0 9:0 10:0 11:0 12:0 13:0 14:0 15:0 16:0 17:0 18:0 19:0 20:0 21:0 22:0 23:0 24:0 25:0 26:0 27:0 28:0 29:0 30:0 31:0 32:0 33:0 34:0 35:0 36:0 37:0 38:0 39:0 40:0 41:0 42:0 43:0 44:0 45:0 46:0 47:0 48:0 49:0 50:0 51:0 52:0 53:0 54:0 55:0 56:0 57:0 58:0 59:0 60:0 61:0 62:0 63:0 64:0 65:0 66:0 67:0 68:0 69:0 70:0 71:0 72:0 73:0 74:0 75:0 76:0 77:0 78:0 79:0 80:0 81:0 82:0 83:0 84:0 85:0 86:0 87:0 88:0 89:0 90:0 91:0 92:0 93:0 94:0 95:0 96:0 97:0 98:0 99:0 100:0 101:0 102:0 103:0 104:0 105:0 106:0 107:0 108:0 109:0 110:0 111:0 112:0 113:0 114:0 115:0 116:0 117:0 118:0 119:0 120:0 121:0 122:0 123:0 124:0 125:0 126:0 127:0 128:0 129:0 130:0 131:0 132:0 133:0 134:0 135:0 136:0 137:0 138:0 139:0 140:0 141:0 142:0 143:0 144:0 145:0 146:0 147:0 148:0 149:0 150:0 151:0 152:0 153:0 154:0 155:0 156:0 157:0 158:0 159:0 160:0 161:0 162:0 163:0 164:0 165:0 166:0 167:0 168:0 169:0 170:0 171:0 172:0 173:0 174:0 175:0 176:0 177:0 178:0 179:0 180:0 181:0 182:0 183:0 184:0 185:0 186:0 187:0 188:0 189:0 190:0 191:0 192:0 193:0 194:0 195:0 196:0 197:0 198:0 199:0 200:0 201:0 202:0 203:0 204:0 205:0 206:0 207:0 208:0 209:0 210:0 211:0 212:0 213:0 214:0 215:0 216:0 217:0 218:0 219:0 220:0 221:0 222:0 223:0 224:0 225:0 226:0 227:0 228:0 229:0 230:0 231:0 232:0 233:0 234:0 235:0 236:0 237:0 238:0 239:0 240:0 241:0 242:0 243:0 244:0 245:0 246:0 247:0 248:0 249:0 250:0 251:0 252:0 253:0 254:0 255:0 256:0 257:127.04 258:74.5824 259:200 
1048576 0 0 1:2400 2:0 3:0 4:0 5:0 6:0 7:0 8:0 9:0 10:0 11:0 12:0 13:0 14:0 15:0 16:0 17:0 18:0 19:0 20:0 21:0 22:0 23:0 24:0 25:0 26:0 27:0 28:0 29:0 30:0 31:0 32:0 33:0 34:0 35:0 36:0 37:0 38:0 39:0 40:0 41:0 42:0 43:0 44:0 45:0 46:0 47:0 48:0 49:0 50:0 51:0 52:0 53:0 54:0 55:0 56:0 57:0 58:0 59:0 60:0 61:0 62:0 63:0 64:0 65:0 66:0 67:0 68:0 69:0 70:0 71:0 72:0 73:0 74:0 75:0 76:0 77:0 78:0 79:0 80:0 81:0 82:0 83:0 84:0 85:0 86:0 87:0 88:0 89:0 90:0 91:0 92:0 93:0 94:0 95:0 96:0 97:0 98:0 99:0 100:0 101:0 102:0 103:0 104:0 105:0 106:0 107:0 108:0 109:0 110:0 111:0 112:0 113:0 114:0 115:0 116:0 117:0 118:0 119:0 120:0 121:0 122:0 123:0 124:0 125:0 126:0 127:0 128:0 129:0 130:0 131:0 132:0 133:0 134:0 135:0 136:0 137:0 138:0 139:0 140:0 141:0 142:0 143:0 144:0 145:0 146:0 147:0 148:0 149:0 150:0 151:0 152:0 153:0 154:0 155:0 156:0 157:0 158:0 159:0 160:0 161:0 162:0 163:0 164:0 165:0 166:0 167:0 168:0 169:0 170:0 171:0 172:0 173:0 174:0 175:0 176:0 177:0 178:0 179:0 180:0 181:0 182:0 183:0 184:0 185:0 186:0 187:0 188:0 189:0 190:0 191:0 192:0 193:0 194:0 195:0 196:0 197:0 198:0 199:0 200:0 201:0 202:0 203:0 204:0 205:0 206:0 207:0 208:0 209:0 210:0 211:0 212:0 213:0 214:0 215:0 216:0 217:0 218:0 219:0 220:0 221:0 222:0 223:0 224:0 225:0 226:0 227:0 228:0 229:0 230:0 231:0 232:0 233:0 234:0 235:0 236:0 237:0 238:0 239:0 240:0 241:0 242:0 243:0 244:0 245:0 246:0 247:0 248:0 249:0 250:0 251:0 252:0 253:0 254:0 255:0 256:0 257:124.2368 258:73.88 259:200 
0 1048576 0 1:2400 2:0 3:0 4:0 5:0 6:0 7:0 8:0 9:0 10:0 11:0 12:0 13:0 14:0 15:0 16:0 17:0 18:0 19:0 20:0 21:0 22:0 23:0 24:0 25:0 26:0 27:0 28:0 29:0 30:0 31:0 32:0 33:0 34:0 35:0 36:0 37:0 38:0 39:0 40:0 41:0 42:0 43:0 44:0 45:0 46:0 47:0 48:0 49:0 50:0 51:0 52:0 53:0 54:0 55:0 56:0 57:0 58:0 59:0 60:0 61:0 62:0 63:0 64:0 65:0 66:0 67:0 68:0 69:0 70:0 71:0 72:0 73:0 74:0 75:0 76:0 77:0 78:0 79:0 80:0 81:0 82:0 83:0 84:0 85:0 86:0 87:0 88:0 89:0 90:0 91:0 92:0 93:0 94:0 95:0 96:0 97:0 98:0 99:0 100:0 101:0 102:0 103:0 104:0 105:0 106:0 107:0 108:0 109:0 110:0 111:0 112:0 113:0 114:0 115:0 116:0 117:0 118:0 119:0 120:0 121:0 122:0 123:0 124:0 125:0 126:0 127:0 128:0 129:0 130:0 131:0 132:0 133:0 134:0 135:0 136:0 137:0 138:0 139:0 140:0 141:0 142:0 143:0 144:0 145:0 146:0 147:0 148:0 149:0 150:0 151:0 152:0 153:0 154:0 155:0 156:0 157:0 158:0 159:0 160:0 161:0 162:0 163:0 164:0 165:0 166:0 167:0 168:0 169:0 170:0 171:0 172:0 173:0 174:0 175:0 176:0 177:0 178:0 179:0 180:0 181:0 182:0 183:0 184:0 185:0 186:0 187:0 188:0 189:0 190:0 191:0 192:0 193:0 194:0 195:0 196:0 197:0 198:0 199:0 200:0 201:0 202:0 203:0 204:0 205:0 206:0 207:0 208:0 209:0 210:0 211:0 212:0 213:0 214:0 215:0 216:0 217:0 218:0 219:0 220:0 221:0 222:0 223:0 224:0 225:0 226:0 227:0 228:0 229:0 230:0 231:0 232:0 233:0 234:0 235:0 236:0 237:0 238:0 239:0 240:0 241:0 242:0 243:0 244:0 245:0 246:0 247:0 248:0 249:0 250:0 251:0 252:0 253:0 254:0 255:0 256:0 257:125.7984 258:73.2432 259:200 
0 1048576 0 1:2400 2:0 3:0 4:0 5:0 6:0 7:0 8:0 9:0 10:0 11:0 12:0 13:0 14:0 15:0 16:0 17:0 18:0 19:0 20:0 21:0 22:0 23:0 24:0 25:0 26:0 27:0 28:0 29:0 30:0 31:0 32:0 33:0 34:0 35:0 36:0 37:0 38:0 39:0 40:0 41:0 42:0 43:0 44:0 45:0 46:0 47:0 48:0 49:0 50:0 51:0 52:0 53:0 54:0 55:0 56:0 57:0 58:0 59:0 60:0 61:0 62:0 63:0 64:0 65:0 66:0 67:0 68:0 69:0 70:0 71:0 72:0 73:0 74:0 75:0 76:0 77:0 78:0 79:0 80:0 81:0 82:0 83:0 84:0 85:0 86:0 87:0 88:0 89:0 90:0 91:0 92:0 93:0 94:0 95:0 96:0 97:0 98:0 99:0 100:0 101:0 102:0 103:0 104:0 105:0 106:0 107:0 108:0 109:0 110:0 111:0 112:0 113:0 114:0 115:0 116:0 117:0 118:0 119:0 120:0 121:0 122:0 123:0 124:0 125:0 126:0 127:0 128:0 129:0 130:0 131:0 132:0 133:0 134:0 135:0 136:0 137:0 138:0 139:0 140:0 141:0 142:0 143:0 144:0 145:0 146:0 147:0 148:0 149:0 150:0 151:0 152:0 153:0 154:0 155:0 156:0 157:0 158:0 159:0 160:0 161:0 162:0 163:0 164:0 165:0 166:0 167:0 168:0 169:0 170:0 171:0 172:0 173:0 174:0 175:0 176:0 177:0 178:0 179:0 180:0 181:0 182:0 183:0 184:0 185:0 186:0 187:0 188:0 189:0 190:0 191:0 192:0 193:0 194:0 195:0 196:0 197:0 198:0 199:0 200:0 201:0 202:0 203:0 204:0 205:0 206:0 207:0 208:0 209:0 210:0 211:0 212:0 213:0 214:0 215:0 216:0 217:0 218:0 219:0 220:0 221:0 222:0 223:0 224:0 225:0 226:0 227:0 228:0 229:0 230:0 231:0 232:0 233:0 234:0 235:0 236:0 237:0 238:0 239:0 240:0 241:0 242:0 243:0 244:0 245:0 246:0 247:0 248:0 249:0 250:0 251:0 252:0 253:0 254:0 255:0 256:0 257:125.776 258:73.2464 259:200 
0 1048576 0 1:2400 2:0 3:0 4:0 5:0 6:0 7:0 8:0 9:0 10:0 11:0 12:0 13:0 14:0 15:0 16:0 17:0 18:0 19:0 20:0 21:0 22:0 23:0 24:0 25:0 26:0 27:0 28:0 29:0 30:0 31:0 32:0 33:0 34:0 35:0 36:0 37:0 38:0 39:0 40:0 41:0 42:0 43:0 44:0 45:0 46:0 47:0 48:0 49:0 50:0 51:0 52:0 53:0 54:0 55:0 56:0 57:0 58:0 59:0 60:0 61:0 62:0 63:0 64:0 65:0 66:0 67:0 68:0 69:0 70:0 71:0 72:0 73:0 74:0 75:0 76:0 77:0 78:0 79:0 80:0 81:0 82:0 83:0 84:0 85:0 86:0 87:0 88:0 89:0 90:0 91:0 92:0 93:0 94:0 95:0 96:0 97:0 98:0 99:0 100:0 101:0 102:0 103:0 104:0 105:0 106:0 107:0 108:0 109:0 110:0 111:0 112:0 113:0 114:0 115:0 116:0 117:0 118:0 119:0 120:0 121:0 122:0 123:0 124:0 125:0 126:0 127:0 128:0 129:0 130:0 131:0 132:0 133:0 134:0 135:0 136:0 137:0 138:0 139:0 140:0 141:0 142:0 143:0 144:0 145:0 146:0 147:0 148:0 149:0 150:0 151:0 152:0 153:0 154:0 155:0 156:0 157:0 158:0 159:0 160:0 161:0 162:0 163:0 164:0 165:0 166:0 167:0 168:0 169:0 170:0 171:0 172:0 173:0 174:0 175:0 176:0 177:0 178:0 179:0 180:0 181:0 182:0 183:0 184:0 185:0 186:0 187:0 188:0 189:0 190:0 191:0 192:0 193:0 194:0 195:0 196:0 197:0 198:0 199:0 200:0 201:0 202:0 203:0 204:0 205:0 206:0 207:0 208:0 209:0 210:0 211:0 212:0 213:0 214:0 215:0 216:0 217:0 218:0 219:0 220:0 221:0 222:0 223:0 224:0 225:0 226:0 227:0 228:0 229:0 230:0 231:0 232:0 233:0 234:0 235:0 236:0 237:0 238:0 239:0 240:0 241:0 242:0 243:0 244:0 245:0 246:0 247:0 248:0 249:0 250:0 251:0 252:0 253:0 254:0 255:0 256:0 257:124.664 258:71.6336 259:200 
0 1048576 0 1:2400 2:0 3:0 4:0 5:0 6:0 7:0 8:0 9:0 10:0 11:0 12:0 13:0 14:0 15:0 16:0 17:0 18:0 19:0 20:0 21:0 22:0 23:0 24:0 25:0 26:0 27:0 28:0 29:0 30:0 31:0 32:0 33:0 34:0 35:0 36:0 37:0 38:0 39:0 40:0 41:0 42:0 43:0 44:0 45:0 46:0 47:0 48:0 49:0 50:0 51:0 52:0 53:0 54:0 55:0 56:0 57:0 58:0 59:0 60:0 61:0 62:0 63:0 64:0 65:0 66:0 67:0 68:0 69:0 70:0 71:0 72:0 73:0 74:0 75:0 76:0 77:0 78:0 79:0 80:0 81:0 82:0 83:0 84:0 85:0 86:0 87:0 88:0 89:0 90:0 91:0 92:0 93:0 94:0 95:0 96:0 97:0 98:0 99:0 100:0 101:0 102:0 103:0 104:0 105:0 106:0 107:0 108:0 109:0 110:0 111:0 112:0 113:0 114:0 115:0 116:0 117:0 118:0 119:0 120:0 121:0 122:0 123:0 124:0 125:0 126:0 127:0 128:0 129:0 130:0 131:0 132:0 133:0 134:0 135:0 136:0 137:0 138:0 139:0 140:0 141:0 142:0 143:0 144:0 145:0 146:0 147:0 148:0 149:0 150:0 151:0 152:0 153:0 154:0 155:0 156:0 157:0 158:0 159:0 160:0 161:0 162:0 163:0 164:0 165:0 166:0 167:0 168:0 169:0 170:0 171:0 172:0 173:0 174:0 175:0 176:0 177:0 178:0 179:0 180:0 181:0 182:0 183:0 184:0 185:0 186:0 187:0 188:0 189:0 190:0 191:0 192:0 193:0 194:0 195:0 196:0 197:0 198:0 199:0 200:0 201:0 202:0 203:0 204:0 205:0 206:0 207:0 208:0 209:0 210:0 211:0 212:0 213:0 214:0 215:0 216:0 217:0 218:0 219:0 220:0 221:0 222:0 223:0 224:0 225:0 226:0 227:0 228:0 229:0 230:0 231:0 232:0 233:0 234:0 235:0 236:0 237:0 238:0 239:0 240:0 241:0 242:0 243:0 244:0 245:0 246:0 247:0 248:0 249:0 250:0 251:0 252:0 253:0 254:0 255:0 256:0 257:125.5488 258:72.1744 259:200 
0 1048576 0 1:2400 2:0 3:0 4:0 5:0 6:0 7:0 8:0 9:0 10:0 11:0 12:0 13:0 14:0 15:0 16:0 17:0 18:0 19:0 20:0 21:0 22:0 23:0 24:0 25:0 26:0 27:0 28:0 29:0 30:0 31:0 32:0 33:0 34:0 35:0 36:0 37:0 38:0 39:0 40:0 41:0 42:0 43:0 44:0 45:0 46:0 47:0 48:0 49:0 50:0 51:0 52:0 53:0 54:0 55:0 56:0 57:0 58:0 59:0 60:0 61:0 62:0 63:0 64:0 65:0 66:0 67:0 68:0 69:0 70:0 71:0 72:0 73:0 74:0 75:0 76:0 77:0 78:0 79:0 80:0 81:0 82:0 83:0 84:0 85:0 86:0 87:0 88:0 89:0 90:0 91:0 92:0 93:0 94:0 95:0 96:0 97:0 98:0 99:0 100:0 101:0 102:0 103:0 104:0 105:0 106:0 107:0 108:0 109:0 110:0 111:0 112:0 113:0 114:0 115:0 116:0 117:0 118:0 119:0 120:0 121:0 122:0 123:0 124:0 125:0 126:0 127:0 128:0 129:0 130:0 131:0 132:0 133:0 134:0 135:0 136:0 137:0 138:0 139:0 140:0 141:0 142:0 143:0 144:0 145:0 146:0 147:0 148:0 149:0 150:0 151:0 152:0 153:0 154:0 155:0 156:0 157:0 158:0 159:0 160:0 161:0 162:0 163:0 164:0 165:0 166:0 167:0 168:0 169:0 170:0 171:0 172:0 173:0 174:0 175:0 176:0 177:0 178:0 179:0 180:0 181:0 182:0 183:0 184:0 185:0 186:0 187:0 188:0 189:0 190:0 191:0 192:0 193:0 194:0 195:0 196:0 197:0 198:0 199:0 200:0 201:0 202:0 203:0 204:0 205:0 206:0 207:0 208:0 209:0 210:0 211:0 212:0 213:0 214:0 215:0 216:0 217:0 218:0 219:0 220:0 221:0 222:0 223:0 224:0 225:0 226:0 227:0 228:0 229:0 230:0 231:0 232:0 233:0 234:0 235:0 236:0 237:0 238:0 239:0 240:0 241:0 242:0 243:0 244:0 245:0 246:0 247:0 248:0 249:0 250:0 251:0 252:0 253:0 254:0 255:0 256:0 257:125.7664 258:72.3376 259:200 
1048576 0 0 1:2400 2:0 3:0 4:0 5:0 6:0 7:0 8:0 9:0 10:0 11:0 12:0 13:0 14:0 15:0 16:0 17:0 18:0 19:0 20:0 21:0 22:0 23:0 24:0 25:0 26:0 27:0 28:0 29:0 30:0 31:0 32:0 33:0 34:0 35:0 36:0 37:0 38:0 39:0 40:0 41:0 42:0 43:0 44:0 45:0 46:0 47:0 48:0 49:0 50:0 51:0 52:0 53:0 54:0 55:0 56:0 57:0 58:0 59:0 60:0 61:0 62:0 63:0 64:0 65:0 66:0 67:0 68:0 69:0 70:0 71:0 72:0 73:0 74:0 75:0 76:0 77:0 78:0 79:0 80:0 81:0 82:0 83:0 84:0 85:0 86:0 87:0 88:0 89:0 90:0 91:0 92:0 93:0 94:0 95:0 96:0 97:0 98:0 99:0 100:0 101:0 102:0 103:0 104:0 105:0 106:0 107:0 108:0 109:0 110:0 111:0 112:0 113:0 114:0 115:0 116:0 117:0 118:0 119:0 120:0 121:0 122:0 123:0 124:0 125:0 126:0 127:0 128:0 129:0 130:0 131:0 132:0 133:0 134:0 135:0 136:0 137:0 138:0 139:0 140:0 141:0 142:0 143:0 144:0 145:0 146:0 147:0 148:0 149:0 150:0 151:0 152:0 153:0 154:0 155:0 156:0 157:0 158:0 159:0 160:0 161:0 162:0 163:0 164:0 165:0 166:0 167:0 168:0 169:0 170:0 171:0 172:0 173:0 174:0 175:0 176:0 177:0 178:0 179:0 180:0 181:0 182:0 183:0 184:0 185:0 186:0 187:0 188:0 189:0 190:0 191:0 192:0 193:0 194:0 195:0 196:0 197:0 198:0 199:0 200:0 201:0 202:0 203:0 204:0 205:0 206:0 207:0 208:0 209:0 210:0 211:0 212:0 213:0 214:0 215:0 216:0 217:0 218:0 219:0 220:0 221:0 222:0 223:0 224:0 225:0 226:0 227:0 228:0 229:0 230:0 231:0 232:0 233:0 234:0 235:0 236:0 237:0 238:0 239:0 240:0 241:0 242:0 243:0 244:0 245:0 246:0 247:0 248:0 249:0 250:0 251:0 252:0 253:0 254:0 255:0 256:0 257:125.3104 258:74.8064 259:200 
0 1048576 0 1:2400 2:0 3:0 4:0 5:0 6:0 7:0 8:0 9:0 10:0 11:0 12:0 13:0 14:0 15:0 16:0 17:0 18:0 19:0 20:0 21:0 22:0 23:0 24:0 25:0 26:0 27:0 28:0 29:0 30:0 31:0 32:0 33:0 34:0 35:0 36:0 37:0 38:0 39:0 40:0 41:0 42:0 43:0 44:0 45:0 46:0 47:0 48:0 49:0 50:0 51:0 52:0 53:0 54:0 55:0 56:0 57:0 58:0 59:0 60:0 61:0 62:0 63:0 64:0 65:0 66:0 67:0 68:0 69:0 70:0 71:0 72:0 73:0 74:0 75:0 76:0 77:0 78:0 79:0 80:0 81:0 82:0 83:0 84:0 85:0 86:0 87:0 88:0 89:0 90:0 91:0 92:0 93:0 94:0 95:0 96:0 97:0 98:0 99:0 100:0 101:0 102:0 103:0 104:0 105:0 106:0 107:0 108:0 109:0 110:0 111:0 112:0 113:0 114:0 115:0 116:0 117:0 118:0 119:0 120:0 121:0 122:0 123:0 124:0 125:0 126:0 127:0 128:0 129:0 130:0 131:0 132:0 133:0 134:0 135:0 136:0 137:0 138:0 139:0 140:0 141:0 142:0 143:0 144:0 145:0 146:0 147:0 148:0 149:0 150:0 151:0 152:0 153:0 154:0 155:0 156:0 157:0 158:0 159:0 160:0 161:0 162:0 163:0 164:0 165:0 166:0 167:0 168:0 169:0 170:0 171:0 172:0 173:0 174:0 175:0 176:0 177:0 178:0 179:0 180:0 181:0 182:0 183:0 184:0 185:0 186:0 187:0 188:0 189:0 190:0 191:0 192:0 193:0 194:0 195:0 196:0 197:0 198:0 199:0 200:0 201:0 202:0 203:0 204:0 205:0 206:0 207:0 208:0 209:0 210:0 211:0 212:0 213:0 214:0 215:0 216:0 217:0 218:0 219:0 220:0 221:0 222:0 223:0 224:0 225:0 226:0 227:0 228:0 229:0 230:0 231:0 232:0 233:0 234:0 235:0 236:0 237:0 238:0 239:0 240:0 241:0 242:0 243:0 244:0 245:0 246:0 247:0 248:0 249:0 250:0 251:0 252:0 253:0 254:0 255:0 256:0 257:126.2544 258:73.8912 259:200 
1048576 0 0 1:2400 2:0 3:0 4:0 5:0 6:0 7:0 8:0 9:0 10:0 11:0 12:0 13:0 14:0 15:0 16:0 17:0 18:0 19:0 20:0 21:0 22:0 23:0 24:0 25:0 26:0 27:0 28:0 29:0 30:0 31:0 32:0 33:0 34:0 35:0 36:0 37:0 38:0 39:0 40:0 41:0 42:0 43:0 44:0 45:0 46:0 47:0 48:0 49:0 50:0 51:0 52:0 53:0 54:0 55:0 56:0 57:0 58:0 59:0 60:0 61:0 62:0 63:0 64:0 65:0 66:0 67:0 68:0 69:0 70:0 71:0 72:0 73:0 74:0 75:0 76:0 77:0 78:0 79:0 80:0 81:0 82:0 83:0 84:0 85:0 86:0 87:0 88:0 89:0 90:0 91:0 92:0 93:0 94:0 95:0 96:0 97:0 98:0 99:0 100:0 101:0 102:0 103:0 104:0 105:0 106:0 107:0 108:0 109:0 110:0 111:0 112:0 113:0 114:0 115:0 116:0 117:0 118:0 119:0 120:0 121:0 122:0 123:0 124:0 125:0 126:0 127:0 128:0 129:0 130:0 131:0 132:0 133:0 134:0 135:0 136:0 137:0 138:0 139:0 140:0 141:0 142:0 143:0 144:0 145:0 146:0 147:0 148:0 149:0 150:0 151:0 152:0 153:0 154:0 155:0 156:0 157:0 158:0 159:0 160:0 161:0 162:0 163:0 164:0 165:0 166:0 167:0 168:0 169:0 170:0 171:0 172:0 173:0 174:0 175:0 176:0 177:0 178:0 179:0 180:0 181:0 182:0 183:0 184:0 185:0 186:0 187:0 188:0 189:0 190:0 191:0 192:0 193:0 194:0 195:0 196:0 197:0 198:0 199:0 200:0 201:0 202:0 203:0 204:0 205:0 206:0 207:0 208:0 209:0 210:0 211:0 212:0 213:0 214:0 215:0 216:0 217:0 218:0 219:0 220:0 221:0 222:0 223:0 224:0 225:0 226:0 227:0 228:0 229:0 230:0 231:0 232:0 233:0 234:0 235:0 236:0 237:0 238:0 239:0 240:0 241:0 242:0 243:0 244:0 245:0 246:0 247:0 248:0 249:0 250:0 251:0 252:0 253:0 254:0 255:0 256:0 257:125.6256 258:74.5232 259:200 
0 1048576 0 1:2400 2:0 3:0 4:0 5:0 6:0 7:0 8:0 9:0 10:0 11:0 12:0 13:0 14:0 15:0 16:0 17:0 18:0 19:0 20:0 21:0 22:0 23:0 24:0 25:0 26:0 27:0 28:0 29:0 30:0 31:0 32:0 33:0 34:0 35:0 36:0 37:0 38:0 39:0 40:0 41:0 42:0 43:0 44:0 45:0 46:0 47:0 48:0 49:0 50:0 51:0 52:0 53:0 54:0 55:0 56:0 57:0 58:0 59:0 60:0 61:0 62:0 63:0 64:0 65:0 66:0 67:0 68:0 69:0 70:0 71:0 72:0 73:0 74:0 75:0 76:0 77:0 78:0 79:0 80:0 81:0 82:0 83:0 84:0 85:0 86:0 87:0 88:0 89:0 90:0 91:0 92:0 93:0 94:0 95:0 96:0 97:0 98:0 99:0 100:0 101:0 102:0 103:0 104:0 105:0 106:0 107:0 108:0 109:0 110:0 111:0 112:0 113:0 114:0 115:0 116:0 117:0 118:0 119:0 120:0 121:0 122:0 123:0 124:0 125:0 126:0 127:0 128:0 129:0 130:0 131:0 132:0 133:0 134:0 135:0 136:0 137:0 138:0 139:0 140:0 141:0 142:0 143:0 144:0 145:0 146:0 147:0 148:0 149:0 150:0 151:0 152:0 153:0 154:0 155:0 156:0 157:0 158:0 159:0 160:0 161:0 162:0 163:0 164:0 165:0 166:0 167:0 168:0 169:0 170:0 171:0 172:0 173:0 174:0 175:0 176:0 177:0 178:0 179:0 180:0 181:0 182:0 183:0 184:0 185:0 186:0 187:0 188:0 189:0 190:0 191:0 192:0 193:0 194:0 195:0 196:0 197:0 198:0 199:0 200:0 201:0 202:0 203:0 204:0 205:0 206:0 207:0 208:0 209:0 210:0 211:0 212:0 213:0 214:0 215:0 216:0 217:0 218:0 219:0 220:0 221:0 222:0 223:0 224:0 225:0 226:0 227:0 228:0 229:0 230:0 231:0 232:0 233:0 234:0 235:0 236:0 237:0 238:0 239:0 240:0 241:0 242:0 243:0 244:0 245:0 246:0 247:0 248:0 249:0 250:0 251:0 252:0 253:0 254:0 255:0 256:0 257:125.656 258:72.7904 259:200 
0 1048576 0 1:2400 2:0 3:0 4:0 5:0 6:0 7:0 8:0 9:0 10:0 11:0 12:0 13:0 14:0 15:0 16:0 17:0 18:0 19:0 20:0 21:0 22:0 23:0 24:0 25:0 26:0 27:0 28:0 29:0 30:0 31:0 32:0 33:0 34:0 35:0 36:0 37:0 38:0 39:0 40:0 41:0 42:0 43:0 44:0 45:0 46:0 47:0 48:0 49:0 50:0 51:0 52:0 53:0 54:0 55:0 56:0 57:0 58:0 59:0 60:0 61:0 62:0 63:0 64:0 65:0 66:0 67:0 68:0 69:0 70:0 71:0 72:0 73:0 74:0 75:0 76:0 77:0 78:0 79:0 80:0 81:0 82:0 83:0 84:0 85:0 86:0 87:0 88:0 89:0 90:0 91:0 92:0 93:0 94:0 95:0 96:0 97:0 98:0 99:0 100:0 101:0 102:0 103:0 104:0 105:0 106:0 107:0 108:0 109:0 110:0 111:0 112:0 113:0 114:0 115:0 116:0 117:0 118:0 119:0 120:0 121:0 122:0 123:0 124:0 125:0 126:0 127:0 128:0 129:0 130:0 131:0 132:0 133:0 134:0 135:0 136:0 137:0 138:0 139:0 140:0 141:0 142:0 143:0 144:0 145:0 146:0 147:0 148:0 149:0 150:0 151:0 152:0 153:0 154:0 155:0 156:0 157:0 158:0 159:0 160:0 161:0 162:0 163:0 164:0 165:0 166:0 167:0 168:0 169:0 170:0 171:0 172:0 173:0 174:0 175:0 176:0 177:0 178:0 179:0 180:0 181:0 182:0 183:0 184:0 185:0 186:0 187:0 188:0 189:0 190:0 191:0 192:0 193:0 194:0 195:0 196:0 197:0 198:0 199:0 200:0 201:0 202:0 203:0 204:0 205:0 206:0 207:0 208:0 209:0 210:0 211:0 212:0 213:0 214:0 215:0 216:0 217:0 218:0 219:0 220:0 221:0 222:0 223:0 224:0 225:0 226:0 227:0 228:0 229:0 230:0 231:0 232:0 233:0 234:0 235:0 236:0 237:0 238:0 239:0 240:0 241:0 242:0 243:0 244:0 245:0 246:0 247:0 248:0 249:0 250:0 251:0 252:0 253:0 254:0 255:0 256:0 257:125.808 258:72.2768 259:200 
0 1048576 0 1:2400 2:0 3:0 4:0 5:0 6:0 7:0 8:0 9:0 10:0 11:0 12:0 13:0 14:0 15:0 16:0 17:0 18:0 19:0 20:0 21:0 22:0 23:0 24:0 25:0 26:0 27:0 28:0 29:0 30:0 31:0 32:0 33:0 34:0 35:0 36:0 37:0 38:0 39:0 40:0 41:0 42:0 43:0 44:0 45:0 46:0 47:0 48:0 49:0 50:0 51:0 52:0 53:0 54:0 55:0 56:0 57:0 58:0 59:0 60:0 61:0 62:0 63:0 64:0 65:0 66:0 67:0 68:0 69:0 70:0 71:0 72:0 73:0 74:0 75:0 76:0 77:0 78:0 79:0 80:0 81:0 82:0 83:0 84:0 85:0 86:0 87:0 88:0 89:0 90:0 91:0 92:0 93:0 94:0 95:0 96:0 97:0 98:0 99:0 100:0 101:0 102:0 103:0 104:0 105:0 106:0 107:0 108:0 109:0 110:0 111:0 112:0 113:0 114:0 115:0 116:0 117:0 118:0 119:0 120:0 121:0 122:0 123:0 124:0 125:0 126:0 127:0 128:0 129:0 130:0 131:0 132:0 133:0 134:0 135:0 136:0 137:0 138:0 139:0 140:0 141:0 142:0 143:0 144:0 145:0 146:0 147:0 148:0 149:0 150:0 151:0 152:0 153:0 154:0 155:0 156:0 157:0 158:0 159:0 160:0 161:0 162:0 163:0 164:0 165:0 166:0 167:0 168:0 169:0 170:0 171:0 172:0 173:0 174:0 175:0 176:0 177:0 178:0 179:0 180:0 181:0 182:0 183:0 184:0 185:0 186:0 187:0 188:0 189:0 190:0 191:0 192:0 193:0 194:0 195:0 196:0 197:0 198:0 199:0 200:0 201:0 202:0 203:0 204:0 205:0 206:0 207:0 208:0 209:0 210:0 211:0 212:0 213:0 214:0 215:0 216:0 217:0 218:0 219:0 220:0 221:0 222:0 223:0 224:0 225:0 226:0 227:0 228:0 229:0 230:0 231:0 232:0 233:0 234:0 235:0 236:0 237:0 238:0 239:0 240:0 241:0 242:0 243:0 244:0 245:0 246:0 247:0 248:0 249:0 250:0 251:0 252:0 253:0 254:0 255:0 256:0 257:126.2656 258:74.0432 259:200 
0 1048576 0 1:2400 2:0 3:0 4:0 5:0 6:0 7:0 8:0 9:0 10:0 11:0 12:0 13:0 14:0 15:0 16:0 17:0 18:0 19:0 20:0 21:0 22:0 23:0 24:0 25:0 26:0 27:0 28:0 29:0 30:0 31:0 32:0 33:0 34:0 35:0 36:0 37:0 38:0 39:0 40:0 41:0 42:0 43:0 44:0 45:0 46:0 47:0 48:0 49:0 50:0 51:0 52:0 53:0 54:0 55:0 56:0 57:0 58:0 59:0 60:0 61:0 62:0 63:0 64:0 65:0 66:0 67:0 68:0 69:0 70:0 71:0 72:0 73:0 74:0 75:0 76:0 77:0 78:0 79:0 80:0 81:0 82:0 83:0 84:0 85:0 86:0 87:0 88:0 89:0 90:0 91:0 92:0 93:0 94:0 95:0 96:0 97:0 98:0 99:0 100:0 101:0 102:0 103:0 104:0 105:0 106:0 107:0 108:0 109:0 110:0 111:0 112:0 113:0 114:0 115:0 116:0 117:0 118:0 119:0 120:0 121:0 122:0 123:0 124:0 125:0 126:0 127:0 128:0 129:0 130:0 131:0 132:0 133:0 134:0 135:0 136:0 137:0 138:0 139:0 140:0 141:0 142:0 143:0 144:0 145:0 146:0 147:0 148:0 149:0 150:0 151:0 152:0 153:0 154:0 155:0 156:0 157:0 158:0 159:0 160:0 161:0 162:0 163:0 164:0 165:0 166:0 167:0 168:0 169:0 170:0 171:0 172:0 173:0 174:0 175:0 176:0 177:0 178:0 179:0 180:0 181:0 182:0 183:0 184:0 185:0 186:0 187:0 188:0 189:0 190:0 191:0 192:0 193:0 194:0 195:0 196:0 197:0 198:0 199:0 200:0 201:0 202:0 203:0 204:0 205:0 206:0 207:0 208:0 209:0 210:0 211:0 212:0 213:0 214:0 215:0 216:0 217:0 218:0 219:0 220:0 221:0 222:0 223:0 224:0 225:0 226:0 227:0 228:0 229:0 230:0 231:0 232:0 233:0 234:0 235:0 236:0 237:0 238:0 239:0 240:0 241:0 242:0 243:0 244:0 245:0 246:0 247:0 248:0 249:0 250:0 251:0 252:0 253:0 254:0 255:0 256:0 257:124.6256 258:71.6208 259:200 
0 1048576 0 1:2400 2:0 3:0 4:0 5:0 6:0 7:0 8:0 9:0 10:0 11:0 12:0 13:0 14:0 15:0 16:0 17:0 18:0 19:0 20:0 21:0 22:0 23:0 24:0 25:0 26:0 27:0 28:0 29:0 30:0 31:0 32:0 33:0 34:0 35:0 36:0 37:0 38:0 39:0 40:0 41:0 42:0 43:0 44:0 45:0 46:0 47:0 48:0 49:0 50:0 51:0 52:0 53:0 54:0 55:0 56:0 57:0 58:0 59:0 60:0 61:0 62:0 63:0 64:0 65:0 66:0 67:0 68:0 69:0 70:0 71:0 72:0 73:0 74:0 75:0 76:0 77:0 78:0 79:0 80:0 81:0 82:0 83:0 84:0 85:0 86:0 87:0 88:0 89:0 90:0 91:0 92:0 93:0 94:0 95:0 96:0 97:0 98:0 99:0 100:0 101:0 102:0 103:0 104:0 105:0 106:0 107:0 108:0 109:0 110:0 111:0 112:0 113:0 114:0 115:0 116:0 117:0 118:0 119:0 120:0 121:0 122:0 123:0 124:0 125:0 126:0 127:0 128:0 129:0 130:0 131:0 132:0 133:0 134:0 135:0 136:0 137:0 138:0 139:0 140:0 141:0 142:0 143:0 144:0 145:0 146:0 147:0 148:0 149:0 150:0 151:0 152:0 153:0 154:0 155:0 156:0 157:0 158:0 159:0 160:0 161:0 162:0 163:0 164:0 165:0 166:0 167:0 168:0 169:0 170:0 171:0 172:0 173:0 174:0 175:0 176:0 177:0 178:0 179:0 180:0 181:0 182:0 183:0 184:0 185:0 186:0 187:0 188:0 189:0 190:0 191:0 192:0 193:0 194:0 195:0 196:0 197:0 198:0 199:0 200:0 201:0 202:0 203:0 204:0 205:0 206:0 207:0 208:0 209:0 210:0 211:0 212:0 213:0 214:0 215:0 216:0 217:0 218:0 219:0 220:0 221:0 222:0 223:0 224:0 225:0 226:0 227:0 228:0 229:0 230:0 231:0 232:0 233:0 234:0 235:0 236:0 237:0 238:0 239:0 240:0 241:0 242:0 243:0 244:0 245:0 246:0 247:0 248:0 249:0 250:0 251:0 252:0 253:0 254:0 255:0 256:0 257:126.6016 258:74.5808 259:200 
0 1048576 0 1:2400 2:0 3:0 4:0 5:0 6:0 7:0 8:0 9:0 10:0 11:0 12:0 13:0 14:0 15:0 16:0 17:0 18:0 19:0 20:0 21:0 22:0 23:0 24:0 25:0 26:0 27:0 28:0 29:0 30:0 31:0 32:0 33:0 34:0 35:0 36:0 37:0 38:0 39:0 40:0 41:0 42:0 43:0 44:0 45:0 46:0 47:0 48:0 49:0 50:0 51:0 52:0 53:0 54:0 55:0 56:0 57:0 58:0 59:0 60:0 61:0 62:0 63:0 64:0 65:0 66:0 67:0 68:0 69:0 70:0 71:0 72:0 73:0 74:0 75:0 76:0 77:0 78:0 79:0 80:0 81:0 82:0 83:0 84:0 85:0 86:0 87:0 88:0 89:0 90:0 91:0 92:0 93:0 94:0 95:0 96:0 97:0 98:0 99:0 100:0 101:0 102:0 103:0 104:0 105:0 106:0 107:0 108:0 109:0 110:0 111:0 112:0 113:0 114:0 115:0 116:0 117:0 118:0 119:0 120:0 121:0 122:0 123:0 124:0 125:0 126:0 127:0 128:0 129:0 130:0 131:0 132:0 133:0 134:0 135:0 136:0 137:0 138:0 139:0 140:0 141:0 142:0 143:0 144:0 145:0 146:0 147:0 148:0 149:0 150:0 151:0 152:0 153:0 154:0 155:0 156:0 157:0 158:0 159:0 160:0 161:0 162:0 163:0 164:0 165:0 166:0 167:0 168:0 169:0 170:0 171:0 172:0 173:0 174:0 175:0 176:0 177:0 178:0 179:0 180:0 181:0 182:0 183:0 184:0 185:0 186:0 187:0 188:0 189:0 190:0 191:0 192:0 193:0 194:0 195:0 196:0 197:0 198:0 199:0 200:0 201:0 202:0 203:0 204:0 205:0 206:0 207:0 208:0 209:0 210:0 211:0 212:0 213:0 214:0 215:0 216:0 217:0 218:0 219:0 220:0 221:0 222:0 223:0 224:0 225:0 226:0 227:0 228:0 229:0 230:0 231:0 232:0 233:0 234:0 235:0 236:0 237:0 238:0 239:0 240:0 241:0 242:0 243:0 244:0 245:0 246:0 247:0 248:0 249:0 250:0 251:0 252:0 253:0 254:0 255:0 256:0 257:125.408 258:73.776 259:200 
0 1048576 0 1:2400 2:0 3:0 4:0 5:0 6:0 7:0 8:0 9:0 10:0 11:0 12:0 13:0 14:0 15:0 16:0 17:0 18:0 19:0 20:0 21:0 22:0 23:0 24:0 25:0 26:0 27:0 28:0 29:0 30:0 31:0 32:0 33:0 34:0 35:0 36:0 37:0 38:0 39:0 40:0 41:0 42:0 43:0 44:0 45:0 46:0 47:0 48:0 49:0 50:0 51:0 52:0 53:0 54:0 55:0 56:0 57:0 58:0 59:0 60:0 61:0 62:0 63:0 64:0 65:0 66:0 67:0 68:0 69:0 70:0 71:0 72:0 73:0 74:0 75:0 76:0 77:0 78:0 79:0 80:0 81:0 82:0 83:0 84:0 85:0 86:0 87:0 88:0 89:0 90:0 91:0 92:0 93:0 94:0 95:0 96:0 97:0 98:0 99:0 100:0 101:0 102:0 103:0 104:0 105:0 106:0 107:0 108:0 109:0 110:0 111:0 112:0 113:0 114:0 115:0 116:0 117:0 118:0 119:0 120:0 121:0 122:0 123:0 124:0 125:0 126:0 127:0 128:0 129:0 130:0 131:0 132:0 133:0 134:0 135:0 136:0 137:0 138:0 139:0 140:0 141:0 142:0 143:0 144:0 145:0 146:0 147:0 148:0 149:0 150:0 151:0 152:0 153:0 154:0 155:0 156:0 157:0 158:0 159:0 160:0 161:0 162:0 163:0 164:0 165:0 166:0 167:0 168:0 169:0 170:0 171:0 172:0 173:0 174:0 175:0 176:0 177:0 178:0 179:0 180:0 181:0 182:0 183:0 184:0 185:0 186:0 187:0 188:0 189:0 190:0 191:0 192:0 193:0 194:0 195:0 196:0 197:0 198:0 199:0 200:0 201:0 202:0 203:0 204:0 205:0 206:0 207:0 208:0 209:0 210:0 211:0 212:0 213:0 214:0 215:0 216:0 217:0 218:0 219:0 220:0 221:0 222:0 223:0 224:0 225:0 226:0 227:0 228:0 229:0 230:0 231:0 232:0 233:0 234:0 235:0 236:0 237:0 238:0 239:0 240:0 241:0 242:0 243:0 244:0 245:0 246:0 247:0 248:0 249:0 250:0 251:0 252:0 253:0 254:0 255:0 256:0 257:125.3456 258:72.024 259:200 
0 1048576 0 1:2400 2:0 3:0 4:0 5:0 6:0 7:0 8:0 9:0 10:0 11:0 12:0 13:0 14:0 15:0 16:0 17:0 18:0 19:0 20:0 21:0 22:0 23:0 24:0 25:0 26:0 27:0 28:0 29:0 30:0 31:0 32:0 33:0 34:0 35:0 36:0 37:0 38:0 39:0 40:0 41:0 42:0 43:0 44:0 45:0 46:0 47:0 48:0 49:0 50:0 51:0 52:0 53:0 54:0 55:0 56:0 57:0 58:0 59:0 60:0 61:0 62:0 63:0 64:0 65:0 66:0 67:0 68:0 69:0 70:0 71:0 72:0 73:0 74:0 75:0 76:0 77:0 78:0 79:0 80:0 81:0 82:0 83:0 84:0 85:0 86:0 87:0 88:0 89:0 90:0 91:0 92:0 93:0 94:0 95:0 96:0 97:0 98:0 99:0 100:0 101:0 102:0 103:0 104:0 105:0 106:0 107:0 108:0 109:0 110:0 111:0 112:0 113:0 114:0 115:0 116:0 117:0 118:0 119:0 120:0 121:0 122:0 123:0 124:0 125:0 126:0 127:0 128:0 129:0 130:0 131:0 132:0 133:0 134:0 135:0 136:0 137:0 138:0 139:0 140:0 141:0 142:0 143:0 144:0 145:0 146:0 147:0 148:0 149:0 150:0 151:0 152:0 153:0 154:0 155:0 156:0 157:0 158:0 159:0 160:0 161:0 162:0 163:0 164:0 165:0 166:0 167:0 168:0 169:0 170:0 171:0 172:0 173:0 174:0 175:0 176:0 177:0 178:0 179:0 180:0 181:0 182:0 183:0 184:0 185:0 186:0 187:0 188:0 189:0 190:0 191:0 192:0 193:0 194:0 195:0 196:0 197:0 198:0 199:0 200:0 201:0 202:0 203:0 204:0 205:0 206:0 207:0 208:0 209:0 210:0 211:0 212:0 213:0 214:0 215:0 216:0 217:0 218:0 219:0 220:0 221:0 222:0 223:0 224:0 225:0 226:0 227:0 228:0 229:0 230:0 231:0 232:0 233:0 234:0 235:0 236:0 237:0 238:0 239:0 240:0 241:0 242:0 243:0 244:0 245:0 246:0 247:0 248:0 249:0 250:0 251:0 252:0 253:0 254:0 255:0 256:0 257:125.2992 258:72.0752 259:200 
0 1048576 0 1:2400 2:0 3:0 4:0 5:0 6:0 7:0 8:0 9:0 10:0 11:0 12:0 13:0 14:0 15:0 16:0 17:0 18:0 19:0 20:0 21:0 22:0 23:0 24:0 25:0 26:0 27:0 28:0 29:0 30:0 31:0 32:0 33:0 34:0 35:0 36:0 37:0 38:0 39:0 40:0 41:0 42:0 43:0 44:0 45:0 46:0 47:0 48:0 49:0 50:0 51:0 52:0 53:0 54:0 55:0 56:0 57:0 58:0 59:0 60:0 61:0 62:0 63:0 64:0 65:0 66:0 67:0 68:0 69:0 70:0 71:0 72:0 73:0 74:0 75:0 76:0 77:0 78:0 79:0 80:0 81:0 82:0 83:0 84:0 85:0 86:0 87:0 88:0 89:0 90:0 91:0 92:0 93:0 94:0 95:0 96:0 97:0 98:0 99:0 100:0 101:0 102:0 103:0 104:0 105:0 106:0 107:0 108:0 109:0 110:0 111:0 112:0 113:0 114:0 115:0 116:0 117:0 118:0 119:0 120:0 121:0 122:0 123:0 124:0 125:0 126:0 127:0 128:0 129:0 130:0 131:0 132:0 133:0 134:0 135:0 136:0 137:0 138:0 139:0 140:0 141:0 142:0 143:0 144:0 145:0 146:0 147:0 148:0 149:0 150:0 151:0 152:0 153:0 154:0 155:0 156:0 157:0 158:0 159:0 160:0 161:0 162:0 163:0 164:0 165:0 166:0 167:0 168:0 169:0 170:0 171:0 172:0 173:0 174:0 175:0 176:0 177:0 178:0 179:0 180:0 181:0 182:0 183:0 184:0 185:0 186:0 187:0 188:0 189:0 190:0 191:0 192:0 193:0 194:0 195:0 196:0 197:0 198:0 199:0 200:0 201:0 202:0 203:0 204:0 205:0 206:0 207:0 208:0 209:0 210:0 211:0 212:0 213:0 214:0 215:0 216:0 217:0 218:0 219:0 220:0 221:0 222:0 223:0 224:0 225:0 226:0 227:0 228:0 229:0 230:0 231:0 232:0 233:0 234:0 235:0 236:0 237:0 238:0 239:0 240:0 241:0 242:0 243:0 244:0 245:0 246:0 247:0 248:0 249:0 250:0 251:0 252:0 253:0 254:0 255:0 256:0 257:125.144 258:71.9296 259:200 
1048576 0 0 1:2400 2:0 3:0 4:0 5:0 6:0 7:0 8:0 9:0 10:0 11:0 12:0 13:0 14:0 15:0 16:0 17:0 18:0 19:0 20:0 21:0 22:0 23:0 24:0 25:0 26:0 27:0 28:0 29:0 30:0 31:0 32:0 33:0 34:0 35:0 36:0 37:0 38:0 39:0 40:0 41:0 42:0 43:0 44:0 45:0 46:0 47:0 48:0 49:0 50:0 51:0 52:0 53:0 54:0 55:0 56:0 57:0 58:0 59:0 60:0 61:0 62:0 63:0 64:0 65:0 66:0 67:0 68:0 69:0 70:0 71:0 72:0 73:0 74:0 75:0 76:0 77:0 78:0 79:0 80:0 81:0 82:0 83:0 84:0 85:0 86:0 87:0 88:0 89:0 90:0 91:0 92:0 93:0 94:0 95:0 96:0 97:0 98:0 99:0 100:0 101:0 102:0 103:0 104:0 105:0 106:0 107:0 108:0 109:0 110:0 111:0 112:0 113:0 114:0 115:0 116:0 117:0 118:0 119:0 120:0 121:0 122:0 123:0 124:0 125:0 126:0 127:0 128:0 129:0 130:0 131:0 132:0 133:0 134:0 135:0 136:0 137:0 138:0 139:0 140:0 141:0 142:0 143:0 144:0 145:0 146:0 147:0 148:0 149:0 150:0 151:0 152:0 153:0 154:0 155:0 156:0 157:0 158:0 159:0 160:0 161:0 162:0 163:0 164:0 165:0 166:0 167:0 168:0 169:0 170:0 171:0 172:0 173:0 174:0 175:0 176:0 177:0 178:0 179:0 180:0 181:0 182:0 183:0 184:0 185:0 186:0 187:0 188:0 189:0 190:0 191:0 192:0 193:0 194:0 195:0 196:0 197:0 198:0 199:0 200:0 201:0 202:0 203:0 204:0 205:0 206:0 207:0 208:0 209:0 210:0 211:0 212:0 213:0 214:0 215:0 216:0 217:0 218:0 219:0 220:0 221:0 222:0 223:0 224:0 225:0 226:0 227:0 228:0 229:0 230:0 231:0 232:0 233:0 234:0 235:0 236:0 237:0 238:0 239:0 240:0 241:0 242:0 243:0 244:0 245:0 246:0 247:0 248:0 249:0 250:0 251:0 252:0 253:0 254:0 255:0 256:0 257:125.6944 258:74.6096 259:200 
914255.2323524554 0 0 1:2400 2:0 3:0 4:0 5:0 6:0 7:0 8:0 9:0 10:0 11:0 12:0 13:0 14:0 15:0 16:0 17:0 18:0 19:0 20:0 21:0 22:0 23:0 24:0 25:0 26:0 27:0 28:0 29:0 30:0 31:0 32:0 33:0 34:0 35:0 36:0 37:0 38:0 39:0 40:0 41:0 42:0 43:0 44:0 45:0 46:0 47:0 48:0 49:0 50:0 51:0 52:0 53:0 54:0 55:0 56:0 57:0 58:0 59:0 60:0 61:0 62:0 63:0 64:0 65:0 66:0 67:0 68:0 69:0 70:0 71:0 72:0 73:0 74:0 75:0 76:0 77:0 78:0 79:0 80:0 81:0 82:0 83:0 84:0 85:0 86:0 87:0 88:0 89:0 90:0 91:0 92:0 93:0 94:0 95:0 96:0 97:0 98:0 99:0 100:0 101:0 102:0 103:0 104:0 105:0 106:0 107:0 108:0 109:0 110:0 111:0 112:0 113:0 114:0 115:0 116:0 117:0 118:0 119:0 120:0 121:0 122:0 123:0 124:0 125:0 126:0 127:0 128:0 129:0 130:0 131:0 132:0 133:0 134:0 135:0 136:0 137:0 138:0 139:0 140:0 141:0 142:0 143:0 144:0 145:0 146:0 147:0 148:0 149:0 150:0 151:0 152:0 153:0 154:0 155:0 156:0 157:0 158:0 159:0 160:0 161:0 162:0 163:0 164:0 165:0 166:0 167:0 168:0 169:0 170:0 171:0 172:0 173:0 174:0 175:0 176:0 177:0 178:0 179:0 180:0 181:0 182:0 183:0 184:0 185:0 186:0 187:0 188:0 189:0 190:0 191:0 192:0 193:0 194:0 195:0 196:0 197:0 198:0 199:0 200:0 201:0 202:0 203:0 204:0 205:0 206:0 207:0 208:0 209:0 210:0 211:0 212:0 213:0 214:0 215:0 216:0 217:0 218:0 219:0 220:0 221:0 222:0 223:0 224:0 225:0 226:0 227:0 228:0 229:0 230:0 231:0 232:0 233:0 234:0 235:0 236:0 237:0 238:0 239:0 240:0 241:0 242:0 243:0 244:0 245:0 246:0 247:0 248:0 249:0 250:0 251:0 252:0 253:0 254:0 255:0 256:0 257:125.9488 258:74.4704 259:200 
0 1048576 0 1:2400 2:0 3:0 4:0 5:0 6:0 7:0 8:0 9:0 10:0 11:0 12:0 13:0 14:0 15:0 16:0 17:0 18:0 19:0 20:0 21:0 22:0 23:0 24:0 25:0 26:0 27:0 28:0 29:0 30:0 31:0 32:0 33:0 34:0 35:0 36:0 37:0 38:0 39:0 40:0 41:0 42:0 43:0 44:0 45:0 46:0 47:0 48:0 49:0 50:0 51:0 52:0 53:0 54:0 55:0 56:0 57:0 58:0 59:0 60:0 61:0 62:0 63:0 64:0 65:0 66:0 67:0 68:0 69:0 70:0 71:0 72:0 73:0 74:0 75:0 76:0 77:0 78:0 79:0 80:0 81:0 82:0 83:0 84:0 85:0 86:0 87:0 88:0 89:0 90:0 91:0 92:0 93:0 94:0 95:0 96:0 97:0 98:0 99:0 100:0 101:0 102:0 103:0 104:0 105:0 106:0 107:0 108:0 109:0 110:0 111:0 112:0 113:0 114:0 115:0 116:0 117:0 118:0 119:0 120:0 121:0 122:0 123:0 124:0 125:0 126:0 127:0 128:0 129:0 130:0 131:0 132:0 133:0 134:0 135:0 136:0 137:0 138:0 139:0 140:0 141:0 142:0 143:0 144:0 145:0 146:0 147:0 148:0 149:0 150:0 151:0 152:0 153:0 154:0 155:0 156:0 157:0 158:0 159:0 160:0 161:0 162:0 163:0 164:0 165:0 166:0 167:0 168:0 169:0 170:0 171:0 172:0 173:0 174:0 175:0 176:0 177:0 178:0 179:0 180:0 181:0 182:0 183:0 184:0 185:0 186:0 187:0 188:0 189:0 190:0 191:0 192:0 193:0 194:0 195:0 196:0 197:0 198:0 199:0 200:0 201:0 202:0 203:0 204:0 205:0 206:0 207:0 208:0 209:0 210:0 211:0 212:0 213:0 214:0 215:0 216:0 217:0 218:0 219:0 220:0 221:0 222:0 223:0 224:0 225:0 226:0 227:0 228:0 229:0 230:0 231:0 232:0 233:0 234:0 235:0 236:0 237:0 238:0 239:0 240:0 241:0 242:0 243:0 244:0 245:0 246:0 247:0 248:0 249:0 250:0 251:0 252:0 253:0 254:0 255:0 256:0 257:125.0176 258:73.9312 259:200 
0 1048576 0 1:2400 2:0 3:0 4:0 5:0 6:0 7:0 8:0 9:0 10:0 11:0 12:0 13:0 14:0 15:0 16:0 17:0 18:0 19:0 20:0 21:0 22:0 23:0 24:0 25:0 26:0 27:0 28:0 29:0 30:0 31:0 32:0 33:0 34:0 35:0 36:0 37:0 38:0 39:0 40:0 41:0 42:0 43:0 44:0 45:0 46:0 47:0 48:0 49:0 50:0 51:0 52:0 53:0 54:0 55:0 56:0 57:0 58:0 59:0 60:0 61:0 62:0 63:0 64:0 65:0 66:0 67:0 68:0 69:0 70:0 71:0 72:0 73:0 74:0 75:0 76:0 77:0 78:0 79:0 80:0 81:0 82:0 83:0 84:0 85:0 86:0 87:0 88:0 89:0 90:0 91:0 92:0 93:0 94:0 95:0 96:0 97:0 98:0 99:0 100:0 101:0 102:0 103:0 104:0 105:0 106:0 107:0 108:0 109:0 110:0 111:0 112:0 113:0 114:0 115:0 116:0 117:0 118:0 119:0 120:0 121:0 122:0 123:0 124:0 125:0 126:0 127:0 128:0 129:0 130:0 131:0 132:0 133:0 134:0 135:0 136:0 137:0 138:0 139:0 140:0 141:0 142:0 143:0 144:0 145:0 146:0 147:0 148:0 149:0 150:0 151:0 152:0 153:0 154:0 155:0 156:0 157:0 158:0 159:0 160:0 161:0 162:0 163:0 164:0 165:0 166:0 167:0 168:0 169:0 170:0 171:0 172:0 173:0 174:0 175:0 176:0 177:0 178:0 179:0 180:0 181:0 182:0 183:0 184:0 185:0 186:0 187:0 188:0 189:0 190:0 191:0 192:0 193:0 194:0 195:0 196:0 197:0 198:0 199:0 200:0 201:0 202:0 203:0 204:0 205:0 206:0 207:0 208:0 209:0 210:0 211:0 212:0 213:0 214:0 215:0 216:0 217:0 218:0 219:0 220:0 221:0 222:0 223:0 224:0 225:0 226:0 227:0 228:0 229:0 230:0 231:0 232:0 233:0 234:0 235:0 236:0 237:0 238:0 239:0 240:0 241:0 242:0 243:0 244:0 245:0 246:0 247:0 248:0 249:0 250:0 251:0 252:0 253:0 254:0 255:0 256:0 257:124.848 258:72.0176 259:200 
0 1048576 1048576 1:2400 2:0 3:0 4:0 5:0 6:0 7:0 8:0 9:0 10:0 11:0 12:0 13:0 14:0 15:0 16:0 17:0 18:0 19:0 20:0 21:0 22:0 23:0 24:0 25:0 26:0 27:0 28:0 29:0 30:0 31:0 32:0 33:0 34:0 35:0 36:0 37:0 38:0 39:0 40:0 41:0 42:0 43:0 44:0 45:0 46:0 47:0 48:0 49:0 50:0 51:0 52:0 53:0 54:0 55:0 56:0 57:0 58:0 59:0 60:0 61:0 62:0 63:0 64:0 65:0 66:0 67:0 68:0 69:0 70:0 71:0 72:0 73:0 74:0 75:0 76:0 77:0 78:0 79:0 80:0 81:0 82:0 83:0 84:0 85:0 86:0 87:0 88:0 89:0 90:0 91:0 92:0 93:0 94:0 95:0 96:0 97:0 98:0 99:0 100:0 101:0 102:0 103:0 104:0 105:0 106:0 107:0 108:0 109:0 110:0 111:0 112:0 113:0 114:0 115:0 116:0 117:0 118:0 119:0 120:0 121:0 122:0 123:0 124:0 125:0 126:0 127:0 128:0 129:0 130:0 131:0 132:0 133:0 134:0 135:0 136:0 137:0 138:0 139:0 140:0 141:0 142:0 143:0 144:0 145:0 146:0 147:0 148:0 149:0 150:0 151:0 152:0 153:0 154:0 155:0 156:0 157:0 158:0 159:0 160:0 161:0 162:0 163:0 164:0 165:0 166:0 167:0 168:0 169:0 170:0 171:0 172:0 173:0 174:0 175:0 176:0 177:0 178:0 179:0 180:0 181:0 182:0 183:0 184:0 185:0 186:0 187:0 188:0 189:0 190:0 191:0 192:0 193:0 194:0 195:0 196:0 197:0 198:0 199:0 200:0 201:0 202:0 203:0 204:0 205:0 206:0 207:0 208:0 209:0 210:0 211:0 212:0 213:0 214:0 215:0 216:0 217:0 218:0 219:0 220:0 221:0 222:0 223:0 224:0 225:0 226:0 227:0 228:0 229:0 230:0 231:0 232:0 233:0 234:0 235:0 236:0 237:0 238:0 239:0 240:0 241:0 242:0 243:0 244:0 245:0 246:0 247:0 248:0 249:0 250:0 251:0 252:0 253:0 254:0 255:0 256:0 257:125.6864 258:73.6736 259:200 
0 1048576 0 1:2400 2:0 3:0 4:0 5:0 6:0 7:0 8:0 9:0 10:0 11:0 12:0 13:0 14:0 15:0 16:0 17:0 18:0 19:0 20:0 21:0 22:0 23:0 24:0 25:0 26:0 27:0 28:0 29:0 30:0 31:0 32:0 33:0 34:0 35:0 36:0 37:0 38:0 39:0 40:0 41:0 42:0 43:0 44:0 45:0 46:0 47:0 48:0 49:0 50:0 51:0 52:0 53:0 54:0 55:0 56:0 57:0 58:0 59:0 60:0 61:0 62:0 63:0 64:0 65:0 66:0 67:0 68:0 69:0 70:0 71:0 72:0 73:0 74:0 75:0 76:0 77:0 78:0 79:0 80:0 81:0 82:0 83:0 84:0 85:0 86:0 87:0 88:0 89:0 90:0 91:0 92:0 93:0 94:0 95:0 96:0 97:0 98:0 99:0 100:0 101:0 102:0 103:0 104:0 105:0 106:0 107:0 108:0 109:0 110:0 111:0 112:0 113:0 114:0 115:0 116:0 117:0 118:0 119:0 120:0 121:0 122:0 123:0 124:0 125:0 126:0 127:0 128:0 129:0 130:0 131:0 132:0 133:0 134:0 135:0 136:0 137:0 138:0 139:0 140:0 141:0 142:0 143:0 144:0 145:0 146:0 147:0 148:0 149:0 150:0 151:0 152:0 153:0 154:0 155:0 156:0 157:0 158:0 159:0 160:0 161:0 162:0 163:0 164:0 165:0 166:0 167:0 168:0 169:0 170:0 171:0 172:0 173:0 174:0 175:0 176:0 177:0 178:0 179:0 180:0 181:0 182:0 183:0 184:0 185:0 186:0 187:0 188:0 189:0 190:0 191:0 192:0 193:0 194:0 195:0 196:0 197:0 198:0 199:0 200:0 201:0 202:0 203:0 204:0 205:0 206:0 207:0 208:0 209:0 210:0 211:0 212:0 213:0 214:0 215:0 216:0 217:0 218:0 219:0 220:0 221:0 222:0 223:0 224:0 225:0 226:0 227:0 228:0 229:0 230:0 231:0 232:0 233:0 234:0 235:0 236:0 237:0 238:0 239:0 240:0 241:0 242:0 243:0 244:0 245:0 246:0 247:0 248:0 249:0 250:0 251:0 252:0 253:0 254:0 255:0 256:0 257:125.1056 258:72.1088 259:200 
0 0 1048576 1:2400 2:0 3:0 4:0 5:0 6:0 7:0 8:0 9:0 10:0 11:0 12:0 13:0 14:0 15:0 16:0 17:0 18:0 19:0 20:0 21:0 22:0 23:0 24:0 25:0 26:0 27:0 28:0 29:0 30:0 31:0 32:0 33:0 34:0 35:0 36:0 37:0 38:0 39:0 40:0 41:0 42:0 43:0 44:0 45:0 46:0 47:0 48:0 49:0 50:0 51:0 52:0 53:0 54:0 55:0 56:0 57:0 58:0 59:0 60:0 61:0 62:0 63:0 64:0 65:0 66:0 67:0 68:0 69:0 70:0 71:0 72:0 73:0 74:0 75:0 76:0 77:0 78:0 79:0 80:0 81:0 82:0 83:0 84:0 85:0 86:0 87:0 88:0 89:0 90:0 91:0 92:0 93:0 94:0 95:0 96:0 97:0 98:0 99:0 100:0 101:0 102:0 103:0 104:0 105:0 106:0 107:0 108:0 109:0 110:0 111:0 112:0 113:0 114:0 115:0 116:0 117:0 118:0 119:0 120:0 121:0 122:0 123:0 124:0 125:0 126:0 127:0 128:0 129:0 130:0 131:0 132:0 133:0 134:0 135:0 136:0 137:0 138:0 139:0 140:0 141:0 142:0 143:0 144:0 145:0 146:0 147:0 148:0 149:0 150:0 151:0 152:0 153:0 154:0 155:0 156:0 157:0 158:0 159:0 160:0 161:0 162:0 163:0 164:0 165:0 166:0 167:0 168:0 169:0 170:0 171:0 172:0 173:0 174:0 175:0 176:0 177:0 178:0 179:0 180:0 181:0 182:0 183:0 184:0 185:0 186:0 187:0 188:0 189:0 190:0 191:0 192:0 193:0 194:0 195:0 196:0 197:0 198:0 199:0 200:0 201:0 202:0 203:0 204:0 205:0 206:0 207:0 208:0 209:0 210:0 211:0 212:0 213:0 214:0 215:0 216:0 217:0 218:0 219:0 220:0 221:0 222:0 223:0 224:0 225:0 226:0 227:0 228:0 229:0 230:0 231:0 232:0 233:0 234:0 235:0 236:0 237:0 238:0 239:0 240:0 241:0 242:0 243:0 244:0 245:0 246:0 247:0 248:0 249:0 250:0 251:0 252:0 253:0 254:0 255:0 256:0 257:129.0496 258:77.192 259:200 
1048576 0 0 1:2400 2:0 3:0 4:0 5:0 6:0 7:0 8:0 9:0 10:0 11:0 12:0 13:0 14:0 15:0 16:0 17:0 18:0 19:0 20:0 21:0 22:0 23:0 24:0 25:0 26:0 27:0 28:0 29:0 30:0 31:0 32:0 33:0 34:0 35:0 36:0 37:0 38:0 39:0 40:0 41:0 42:0 43:0 44:0 45:0 46:0 47:0 48:0 49:0 50:0 51:0 52:0 53:0 54:0 55:0 56:0 57:0 58:0 59:0 60:0 61:0 62:0 63:0 64:0 65:0 66:0 67:0 68:0 69:0 70:0 71:0 72:0 73:0 74:0 75:0 76:0 77:0 78:0 79:0 80:0 81:0 82:0 83:0 84:0 85:0 86:0 87:0 88:0 89:0 90:0 91:0 92:0 93:0 94:0 95:0 96:0 97:0 98:0 99:0 100:0 101:0 102:0 103:0 104:0 105:0 106:0 107:0 108:0 109:0 110:0 111:0 112:0 113:0 114:0 115:0 116:0 117:0 118:0 119:0 120:0 121:0 122:0 123:0 124:0 125:0 126:0 127:0 128:0 129:0 130:0 131:0 132:0 133:0 134:0 135:0 136:0 137:0 138:0 139:0 140:0 141:0 142:0 143:0 144:0 145:0 146:0 147:0 148:0 149:0 150:0 151:0 152:0 153:0 154:0 155:0 156:0 157:0 158:0 159:0 160:0 161:0 162:0 163:0 164:0 165:0 166:0 167:0 168:0 169:0 170:0 171:0 172:0 173:0 174:0 175:0 176:0 177:0 178:0 179:0 180:0 181:0 182:0 183:0 184:0 185:0 186:0 187:0 188:0 189:0 190:0 191:0 192:0 193:0 194:0 195:0 196:0 197:0 198:0 199:0 200:0 201:0 202:0 203:0 204:0 205:0 206:0 207:0 208:0 209:0 210:0 211:0 212:0 213:0 214:0 215:0 216:0 217:0 218:0 219:0 220:0 221:0 222:0 223:0 224:0 225:0 226:0 227:0 228:0 229:0 230:0 231:0 232:0 233:0 234:0 235:0 236:0 237:0 238:0 239:0 240:0 241:0 242:0 243:0 244:0 245:0 246:0 247:0 248:0 249:0 250:0 251:0 252:0 253:0 254:0 255:0 256:0 257:126.6272 258:76.4672 259:200 
0 0 1048576 1:2400 2:0 3:0 4:0 5:0 6:0 7:0 8:0 9:0 10:0 11:0 12:0 13:0 14:0 15:0 16:0 17:0 18:0 19:0 20:0 21:0 22:0 23:0 24:0 25:0 26:0 27:0 28:0 29:0 30:0 31:0 32:0 33:0 34:0 35:0 36:0 37:0 38:0 39:0 40:0 41:0 42:0 43:0 44:0 45:0 46:0 47:0 48:0 49:0 50:0 51:0 52:0 53:0 54:0 55:0 56:0 57:0 58:0 59:0 60:0 61:0 62:0 63:0 64:0 65:0 66:0 67:0 68:0 69:0 70:0 71:0 72:0 73:0 74:0 75:0 76:0 77:0 78:0 79:0 80:0 81:0 82:0 83:0 84:0 85:0 86:0 87:0 88:0 89:0 90:0 91:0 92:0 93:0 94:0 95:0 96:0 97:0 98:0 99:0 100:0 101:0 102:0 103:0 104:0 105:0 106:0 107:0 108:0 109:0 110:0 111:0 112:0 113:0 114:0 115:0 116:0 117:0 118:0 119:0 120:0 121:0 122:0 123:0 124:0 125:0 126:0 127:0 128:0 129:0 130:0 131:0 132:0 133:0 134:0 135:0 136:0 137:0 138:0 139:0 140:0 141:0 142:0 143:0 144:0 145:0 146:0 147:0 148:0 149:0 150:0 151:0 152:0 153:0 154:0 155:0 156:0 157:0 158:0 159:0 160:0 161:0 162:0 163:0 164:0 165:0 166:0 167:0 168:0 169:0 170:0 171:0 172:0 173:0 174:0 175:0 176:0 177:0 178:0 179:0 180:0 181:0 182:0 183:0 184:0 185:0 186:0 187:0 188:0 189:0 190:0 191:0 192:0 193:0 194:0 195:0 196:0 197:0 198:0 199:0 200:0 201:0 202:0 203:0 204:0 205:0 206:0 207:0 208:0 209:0 210:0 211:0 212:0 213:0 214:0 215:0 216:0 217:0 218:0 219:0 220:0 221:0 222:0 223:0 224:0 225:0 226:0 227:0 228:0 229:0 230:0 231:0 232:0 233:0 234:0 235:0 236:0 237:0 238:0 239:0 240:0 241:0 242:0 243:0 244:0 245:0 246:0 247:0 248:0 249:0 250:0 251:0 252:0 253:0 254:0 255:0 256:0 257:128.8384 258:76.8656 259:200 
0 0 1048576 1:2400 2:0 3:0 4:0 5:0 6:0 7:0 8:0 9:0 10:0 11:0 12:0 13:0 14:0 15:0 16:0 17:0 18:0 19:0 20:0 21:0 22:0 23:0 24:0 25:0 26:0 27:0 28:0 29:0 30:0 31:0 32:0 33:0 34:0 35:0 36:0 37:0 38:0 39:0 40:0 41:0 42:0 43:0 44:0 45:0 46:0 47:0 48:0 49:0 50:0 51:0 52:0 53:0 54:0 55:0 56:0 57:0 58:0 59:0 60:0 61:0 62:0 63:0 64:0 65:0 66:0 67:0 68:0 69:0 70:0 71:0 72:0 73:0 74:0 75:0 76:0 77:0 78:0 79:0 80:0 81:0 82:0 83:0 84:0 85:0 86:0 87:0 88:0 89:0 90:0 91:0 92:0 93:0 94:0 95:0 96:0 97:0 98:0 99:0 100:0 101:0 102:0 103:0 104:0 105:0 106:0 107:0 108:0 109:0 110:0 111:0 112:0 113:0 114:0 115:0 116:0 117:0 118:0 119:0 120:0 121:0 122:0 123:0 124:0 125:0 126:0 127:0 128:0 129:0 130:0 131:0 132:0 133:0 134:0 135:0 136:0 137:0 138:0 139:0 140:0 141:0 142:0 143:0 144:0 145:0 146:0 147:0 148:0 149:0 150:0 151:0 152:0 153:0 154:0 155:0 156:0 157:0 158:0 159:0 160:0 161:0 162:0 163:0 164:0 165:0 166:0 167:0 168:0 169:0 170:0 171:0 172:0 173:0 174:0 175:0 176:0 177:0 178:0 179:0 180:0 181:0 182:0 183:0 184:0 185:0 186:0 187:0 188:0 189:0 190:0 191:0 192:0 193:0 194:0 195:0 196:0 197:0 198:0 199:0 200:0 201:0 202:0 203:0 204:0 205:0 206:0 207:0 208:0 209:0 210:0 211:0 212:0 213:0 214:0 215:0 216:0 217:0 218:0 219:0 220:0 221:0 222:0 223:0 224:0 225:0 226:0 227:0 228:0 229:0 230:0 231:0 232:0 233:0 234:0 235:0 236:0 237:0 238:0 239:0 240:0 241:0 242:0 243:0 244:0 245:0 246:0 247:0 248:0 249:0 250:0 251:0 252:0 253:0 254:0 255:0 256:0 257:127.5856 258:76.3024 259:200 
0 0 74898.71322943512 1:2400 2:0 3:0 4:0 5:0 6:0 7:0 8:0 9:0 10:0 11:0 12:0 13:0 14:0 15:0 16:0 17:0 18:0 19:0 20:0 21:0 22:0 23:0 24:0 25:0 26:0 27:0 28:0 29:0 30:0 31:0 32:0 33:0 34:0 35:0 36:0 37:0 38:0 39:0 40:0 41:0 42:0 43:0 44:0 45:0 46:0 47:0 48:0 49:0 50:0 51:0 52:0 53:0 54:0 55:0 56:0 57:0 58:0 59:0 60:0 61:0 62:0 63:0 64:0 65:0 66:0 67:0 68:0 69:0 70:0 71:0 72:0 73:0 74:0 75:0 76:0 77:0 78:0 79:0 80:0 81:0 82:0 83:0 84:0 85:0 86:0 87:0 88:0 89:0 90:0 91:0 92:0 93:0 94:0 95:0 96:0 97:0 98:0 99:0 100:0 101:0 102:0 103:0 104:0 105:0 106:0 107:0 108:0 109:0 110:0 111:0 112:0 113:0 114:0 115:0 116:0 117:0 118:0 119:0 120:0 121:0 122:0 123:0 124:0 125:0 126:0 127:0 128:0 129:0 130:0 131:0 132:0 133:0 134:0 135:0 136:0 137:0 138:0 139:0 140:0 141:0 142:0 143:0 144:0 145:0 146:0 147:0 148:0 149:0 150:0 151:0 152:0 153:0 154:0 155:0 156:0 157:0 158:0 159:0 160:0 161:0 162:0 163:0 164:0 165:0 166:0 167:0 168:0 169:0 170:0 171:0 172:0 173:0 174:0 175:0 176:0 177:0 178:0 179:0 180:0 181:0 182:0 183:0 184:0 185:0 186:0 187:0 188:0 189:0 190:0 191:0 192:0 193:0 194:0 195:0 196:0 197:0 198:0 199:0 200:0 201:0 202:0 203:0 204:0 205:0 206:0 207:0 208:0 209:0 210:0 211:0 212:0 213:0 214:0 215:0 216:0 217:0 218:0 219:0 220:0 221:0 222:0 223:0 224:0 225:0 226:0 227:0 228:0 229:0 230:0 231:0 232:0 233:0 234:0 235:0 236:0 237:0 238:0 239:0 240:0 241:0 242:0 243:0 244:0 245:0 246:0 247:0 248:0 249:0 250:0 251:0 252:0 253:0 254:0 255:0 256:0 257:126.9232 258:75.3648 259:200 
0 1048576 1048576 1:2400 2:0 3:0 4:0 5:0 6:0 7:0 8:0 9:0 10:0 11:0 12:0 13:0 14:0 15:0 16:0 17:0 18:0 19:0 20:0 21:0 22:0 23:0 24:0 25:0 26:0 27:0 28:0 29:0 30:0 31:0 32:0 33:0 34:0 35:0 36:0 37:0 38:0 39:0 40:0 41:0 42:0 43:0 44:0 45:0 46:0 47:0 48:0 49:0 50:0 51:0 52:0 53:0 54:0 55:0 56:0 57:0 58:0 59:0 60:0 61:0 62:0 63:0 64:0 65:0 66:0 67:0 68:0 69:0 70:0 71:0 72:0 73:0 74:0 75:0 76:0 77:0 78:0 79:0 80:0 81:0 82:0 83:0 84:0 85:0 86:0 87:0 88:0 89:0 90:0 91:0 92:0 93:0 94:0 95:0 96:0 97:0 98:0 99:0 100:0 101:0 102:0 103:0 104:0 105:0 106:0 107:0 108:0 109:0 110:0 111:0 112:0 113:0 114:0 115:0 116:0 117:0 118:0 119:0 120:0 121:0 122:0 123:0 124:0 125:0 126:0 127:0 128:0 129:0 130:0 131:0 132:0 133:0 134:0 135:0 136:0 137:0 138:0 139:0 140:0 141:0 142:0 143:0 144:0 145:0 146:0 147:0 148:0 149:0 150:0 151:0 152:0 153:0 154:0 155:0 156:0 157:0 158:0 159:0 160:0 161:0 162:0 163:0 164:0 165:0 166:0 167:0 168:0 169:0 170:0 171:0 172:0 173:0 174:0 175:0 176:0 177:0 178:0 179:0 180:0 181:0 182:0 183:0 184:0 185:0 186:0 187:0 188:0 189:0 190:0 191:0 192:0 193:0 194:0 195:0 196:0 197:0 198:0 199:0 200:0 201:0 202:0 203:0 204:0 205:0 206:0 207:0 208:0 209:0 210:0 211:0 212:0 213:0 214:0 215:0 216:0 217:0 218:0 219:0 220:0 221:0 222:0 223:0 224:0 225:0 226:0 227:0 228:0 229:0 230:0 231:0 232:0 233:0 234:0 235:0 236:0 237:0 238:0 239:0 240:0 241:0 242:0 243:0 244:0 245:0 246:0 247:0 248:0 249:0 250:0 251:0 252:0 253:0 254:0 255:0 256:0 257:128.5632 258:76.2272 259:200 
0 1017274.299447236 1048576 1:2400 2:0 3:0 4:0 5:0 6:0 7:0 8:0 9:0 10:0 11:0 12:0 13:0 14:0 15:0 16:0 17:0 18:0 19:0 20:0 21:0 22:0 23:0 24:0 25:0 26:0 27:0 28:0 29:0 30:0 31:0 32:0 33:0 34:0 35:0 36:0 37:0 38:0 39:0 40:0 41:0 42:0 43:0 44:0 45:0 46:0 47:0 48:0 49:0 50:0 51:0 52:0 53:0 54:0 55:0 56:0 57:0 58:0 59:0 60:0 61:0 62:0 63:0 64:0 65:0 66:0 67:0 68:0 69:0 70:0 71:0 72:0 73:0 74:0 75:0 76:0 77:0 78:0 79:0 80:0 81:0 82:0 83:0 84:0 85:0 86:0 87:0 88:0 89:0 90:0 91:0 92:0 93:0 94:0 95:0 96:0 97:0 98:0 99:0 100:0 101:0 102:0 103:0 104:0 105:0 106:0 107:0 108:0 109:0 110:0 111:0 112:0 113:0 114:0 115:0 116:0 117:0 118:0 119:0 120:0 121:0 122:0 123:0 124:0 125:0 126:0 127:0 128:0 129:0 130:0 131:0 132:0 133:0 134:0 135:0 136:0 137:0 138:0 139:0 140:0 141:0 142:0 143:0 144:0 145:0 146:0 147:0 148:0 149:0 150:0 151:0 152:0 153:0 154:0 155:0 156:0 157:0 158:0 159:0 160:0 161:0 162:0 163:0 164:0 165:0 166:0 167:0 168:0 169:0 170:0 171:0 172:0 173:0 174:0 175:0 176:0 177:0 178:0 179:0 180:0 181:0 182:0 183:0 184:0 185:0 186:0 187:0 188:0 189:0 190:0 191:0 192:0 193:0 194:0 195:0 196:0 197:0 198:0 199:0 200:0 201:0 202:0 203:0 204:0 205:0 206:0 207:0 208:0 209:0 210:0 211:0 212:0 213:0 214:0 215:0 216:0 217:0 218:0 219:0 220:0 221:0 222:0 223:0 224:0 225:0 226:0 227:0 228:0 229:0 230:0 231:0 232:0 233:0 234:0 235:0 236:0 237:0 238:0 239:0 240:0 241:0 242:0 243:0 244:0 245:0 246:0 247:0 248:0 249:0 250:0 251:0 252:0 253:0 254:0 255:0 256:0 257:129.0512 258:76.8688 259:200 
0 0 1048576 1:2400 2:0 3:0 4:0 5:0 6:0 7:0 8:0 9:0 10:0 11:0 12:0 13:0 14:0 15:0 16:0 17:0 18:0 19:0 20:0 21:0 22:0 23:0 24:0 25:0 26:0 27:0 28:0 29:0 30:0 31:0 32:0 33:0 34:0 35:0 36:0 37:0 38:0 39:0 40:0 41:0 42:0 43:0 44:0 45:0 46:0 47:0 48:0 49:0 50:0 51:0 52:0 53:0 54:0 55:0 56:0 57:0 58:0 59:0 60:0 61:0 62:0 63:0 64:0 65:0 66:0 67:0 68:0 69:0 70:0 71:0 72:0 73:0 74:0 75:0 76:0 77:0 78:0 79:0 80:0 81:0 82:0 83:0 84:0 85:0 86:0 87:0 88:0 89:0 90:0 91:0 92:0 93:0 94:0 95:0 96:0 97:0 98:0 99:0 100:0 101:0 102:0 103:0 104:0 105:0 106:0 107:0 108:0 109:0 110:0 111:0 112:0 113:0 114:0 115:0 116:0 117:0 118:0 119:0 120:0 121:0 122:0 123:0 124:0 125:0 126:0 127:0 128:0 129:0 130:0 131:0 132:0 133:0 134:0 135:0 136:0 137:0 138:0 139:0 140:0 141:0 142:0 143:0 144:0 145:0 146:0 147:0 148:0 149:0 150:0 151:0 152:0 153:0 154:0 155:0 156:0 157:0 158:0 159:0 160:0 161:0 162:0 163:0 164:0 165:0 166:0 167:0 168:0 169:0 170:0 171:0 172:0 173:0 174:0 175:0 176:0 177:0 178:0 179:0 180:0 181:0 182:0 183:0 184:0 185:0 186:0 187:0 188:0 189:0 190:0 191:0 192:0 193:0 194:0 195:0 196:0 197:0 198:0 199:0 200:0 201:0 202:0 203:0 204:0 205:0 206:0 207:0 208:0 209:0 210:0 211:0 212:0 213:0 214:0 215:0 216:0 217:0 218:0 219:0 220:0 221:0 222:0 223:0 224:0 225:0 226:0 227:0 228:0 229:0 230:0 231:0 232:0 233:0 234:0 235:0 236:0 237:0 238:0 239:0 240:0 241:0 242:0 243:0 244:0 245:0 246:0 247:0 248:0 249:0 250:0 251:0 252:0 253:0 254:0 255:0 256:0 257:126.5696 258:74.9088 259:200 
-1048576 1048576 0 1:2400 2:0 3:0 4:0 5:0 6:0 7:0 8:0 9:0 10:0 11:0 12:0 13:0 14:0 15:0 16:0 17:0 18:0 19:0 20:0 21:0 22:0 23:0 24:0 25:0 26:0 27:0 28:0 29:0 30:0 31:0 32:0 33:0 34:0 35:0 36:0 37:0 38:0 39:0 40:0 41:0 42:0 43:0 44:0 45:0 46:0 47:0 48:0 49:0 50:0 51:0 52:0 53:0 54:0 55:0 56:0 57:0 58:0 59:0 60:0 61:0 62:0 63:0 64:0 65:0 66:0 67:0 68:0 69:0 70:0 71:0 72:0 73:0 74:0 75:0 76:0 77:0 78:0 79:0 80:0 81:0 82:0 83:0 84:0 85:0 86:0 87:0 88:0 89:0 90:0 91:0 92:0 93:0 94:0 95:0 96:0 97:0 98:0 99:0 100:0 101:0 102:0 103:0 104:0 105:0 106:0 107:0 108:0 109:0 110:0 111:0 112:0 113:0 114:0 115:0 116:0 117:0 118:0 119:0 120:0 121:0 122:0 123:0 124:0 125:0 126:0 127:0 128:0 129:0 130:0 131:0 132:0 133:0 134:0 135:0 136:0 137:0 138:0 139:0 140:0 141:0 142:0 143:0 144:0 145:0 146:0 147:0 148:0 149:0 150:0 151:0 152:0 153:0 154:0 155:0 156:0 157:0 158:0 159:0 160:0 161:0 162:0 163:0 164:0 165:0 166:0 167:0 168:0 169:0 170:0 171:0 172:0 173:0 174:0 175:0 176:0 177:0 178:0 179:0 180:0 181:0 182:0 183:0 184:0 185:0 186:0 187:0 188:0 189:0 190:0 191:0 192:0 193:0 194:0 195:0 196:0 197:0 198:0 199:0 200:0 201:0 202:0 203:0 204:0 205:0 206:0 207:0 208:0 209:0 210:0 211:0 212:0 213:0 214:0 215:0 216:0 217:0 218:0 219:0 220:0 221:0 222:0 223:0 224:0 225:0 226:0 227:0 228:0 229:0 230:0 231:0 232:0 233:0 234:0 235:0 236:0 237:0 238:0 239:0 240:0 241:0 242:0 243:0 244:0 245:0 246:0 247:0 248:0 249:0 250:0 251:0 252:0 253:0 254:0 255:0 256:0 257:125.52 258:74.376 259:200 
-1048576 0 0 1:2400 2:0 3:0 4:0 5:0 6:0 7:0 8:0 9:0 10:0 11:0 12:0 13:0 14:0 15:0 16:0 17:0 18:0 19:0 20:0 21:0 22:0 23:0 24:0 25:0 26:0 27:0 28:0 29:0 30:0 31:0 32:0 33:0 34:0 35:0 36:0 37:0 38:0 39:0 40:0 41:0 42:0 43:0 44:0 45:0 46:0 47:0 48:0 49:0 50:0 51:0 52:0 53:0 54:0 55:0 56:0 57:0 58:0 59:0 60:0 61:0 62:0 63:0 64:0 65:0 66:0 67:0 68:0 69:0 70:0 71:0 72:0 73:0 74:0 75:0 76:0 77:0 78:0 79:0 80:0 81:0 82:0 83:0 84:0 85:0 86:0 87:0 88:0 89:0 90:0 91:0 92:0 93:0 94:0 95:0 96:0 97:0 98:0 99:0 100:0 101:0 102:0 103:0 104:0 105:0 106:0 107:0 108:0 109:0 110:0 111:0 112:0 113:0 114:0 115:0 116:0 117:0 118:0 119:0 120:0 121:0 122:0 123:0 124:0 125:0 126:0 127:0 128:0 129:0 130:0 131:0 132:0 133:0 134:0 135:0 136:0 137:0 138:0 139:0 140:0 141:0 142:0 143:0 144:0 145:0 146:0 147:0 148:0 149:0 150:0 151:0 152:0 153:0 154:0 155:0 156:0 157:0 158:0 159:0 160:0 161:0 162:0 163:0 164:0 165:0 166:0 167:0 168:0 169:0 170:0 171:0 172:0 173:0 174:0 175:0 176:0 177:0 178:0 179:0 180:0 181:0 182:0 183:0 184:0 185:0 186:0 187:0 188:0 189:0 190:0 191:0 192:0 193:0 194:0 195:0 196:0 197:0 198:0 199:0 200:0 201:0 202:0 203:0 204:0 205:0 206:0 207:0 208:0 209:0 210:0 211:0 212:0 213:0 214:0 215:0 216:0 217:0 218:0 219:0 220:0 221:0 222:0 223:0 224:0 225:0 226:0 227:0 228:0 229:0 230:0 231:0 232:0 233:0 234:0 235:0 236:0 237:0 238:0 239:0 240:0 241:0 242:0 243:0 244:0 245:0 246:0 247:0 248:0 249:0 250:0 251:0 252:0 253:0 254:0 255:0 256:0 257:124.5632 258:74.6832 259:200 
-1048576 0 0 1:2400 2:0 3:0 4:0 5:0 6:0 7:0 8:0 9:0 10:0 11:0 12:0 13:0 14:0 15:0 16:0 17:0 18:0 19:0 20:0 21:0 22:0 23:0 24:0 25:0 26:0 27:0 28:0 29:0 30:0 31:0 32:0 33:0 34:0 35:0 36:0 37:0 38:0 39:0 40:0 41:0 42:0 43:0 44:0 45:0 46:0 47:0 48:0 49:0 50:0 51:0 52:0 53:0 54:0 55:0 56:0 57:0 58:0 59:0 60:0 61:0 62:0 63:0 64:0 65:0 66:0 67:0 68:0 69:0 70:0 71:0 72:0 73:0 74:0 75:0 76:0 77:0 78:0 79:0 80:0 81:0 82:0 83:0 84:0 85:0 86:0 87:0 88:0 89:0 90:0 91:0 92:0 93:0 94:0 95:0 96:0 97:0 98:0 99:0 100:0 101:0 102:0 103:0 104:0 105:0 106:0 107:0 108:0 109:0 110:0 111:0 112:0 113:0 114:0 115:0 116:0 117:0 118:0 119:0 120:0 121:0 122:0 123:0 124:0 125:0 126:0 127:0 128:0 129:0 130:0 131:0 132:0 133:0 134:0 135:0 136:0 137:0 138:0 139:0 140:0 141:0 142:0 143:0 144:0 145:0 146:0 147:0 148:0 149:0 150:0 151:0 152:0 153:0 154:0 155:0 156:0 157:0 158:0 159:0 160:0 161:0 162:0 163:0 164:0 165:0 166:0 167:0 168:0 169:0 170:0 171:0 172:0 173:0 174:0 175:0 176:0 177:0 178:0 179:0 180:0 181:0 182:0 183:0 184:0 185:0 186:0 187:0 188:0 189:0 190:0 191:0 192:0 193:0 194:0 195:0 196:0 197:0 198:0 199:0 200:0 201:0 202:0 203:0 204:0 205:0 206:0 207:0 208:0 209:0 210:0 211:0 212:0 213:0 214:0 215:0 216:0 217:0 218:0 219:0 220:0 221:0 222:0 223:0 224:0 225:0 226:0 227:0 228:0 229:0 230:0 231:0 232:0 233:0 234:0 235:0 236:0 237:0 238:0 239:0 240:0 241:0 242:0 243:0 244:0 245:0 246:0 247:0 248:0 249:0 250:0 251:0 252:0 253:0 254:0 255:0 256:0 257:125.1888 258:75.3456 259:200 
-1026911.881674652 657581.4919679593 0 1:2400 2:0 3:0 4:0 5:0 6:0 7:0 8:0 9:0 10:0 11:0 12:0 13:0 14:0 15:0 16:0 17:0 18:0 19:0 20:0 21:0 22:0 23:0 24:0 25:0 26:0 27:0 28:0 29:0 30:0 31:0 32:0 33:0 34:0 35:0 36:0 37:0 38:0 39:0 40:0 41:0 42:0 43:0 44:0 45:0 46:0 47:0 48:0 49:0 50:0 51:0 52:0 53:0 54:0 55:0 56:0 57:0 58:0 59:0 60:0 61:0 62:0 63:0 64:0 65:0 66:0 67:0 68:0 69:0 70:0 71:0 72:0 73:0 74:0 75:0 76:0 77:0 78:0 79:0 80:0 81:0 82:0 83:0 84:0 85:0 86:0 87:0 88:0 89:0 90:0 91:0 92:0 93:0 94:0 95:0 96:0 97:0 98:0 99:0 100:0 101:0 102:0 103:0 104:0 105:0 106:0 107:0 108:0 109:0 110:0 111:0 112:0 113:0 114:0 115:0 116:0 117:0 118:0 119:0 120:0 121:0 122:0 123:0 124:0 125:0 126:0 127:0 128:0 129:0 130:0 131:0 132:0 133:0 134:0 135:0 136:0 137:0 138:0 139:0 140:0 141:0 142:0 143:0 144:0 145:0 146:0 147:0 148:0 149:0 150:0 151:0 152:0 153:0 154:0 155:0 156:0 157:0 158:0 159:0 160:0 161:0 162:0 163:0 164:0 165:0 166:0 167:0 168:0 169:0 170:0 171:0 172:0 173:0 174:0 175:0 176:0 177:0 178:0 179:0 180:0 181:0 182:0 183:0 184:0 185:0 186:0 187:0 188:0 189:0 190:0 191:0 192:0 193:0 194:0 195:0 196:0 197:0 198:0 199:0 200:0 201:0 202:0 203:0 204:0 205:0 206:0 207:0 208:0 209:0 210:0 211:0 212:0 213:0 214:0 215:0 216:0 217:0 218:0 219:0 220:0 221:0 222:0 223:0 224:0 225:0 226:0 227:0 228:0 229:0 230:0 231:0 232:0 233:0 234:0 235:0 236:0 237:0 238:0 239:0 240:0 241:0 242:0 243:0 244:0 245:0 246:0 247:0 248:0 249:0 250:0 251:0 252:0 253:0 254:0 255:0 256:0 257:124.28 258:74.608 259:200 
-194983.1137708419 0 0 1:2400 2:0 3:0 4:0 5:0 6:0 7:0 8:0 9:0 10:0 11:0 12:0 13:0 14:0 15:0 16:0 17:0 18:0 19:0 20:0 21:0 22:0 23:0 24:0 25:0 26:0 27:0 28:0 29:0 30:0 31:0 32:0 33:0 34:0 35:0 36:0 37:0 38:0 39:0 40:0 41:0 42:0 43:0 44:0 45:0 46:0 47:0 48:0 49:0 50:0 51:0 52:0 53:0 54:0 55:0 56:0 57:0 58:0 59:0 60:0 61:0 62:0 63:0 64:0 65:0 66:0 67:0 68:0 69:0 70:0 71:0 72:0 73:0 74:0 75:0 76:0 77:0 78:0 79:0 80:0 81:0 82:0 83:0 84:0 85:0 86:0 87:0 88:0 89:0 90:0 91:0 92:0 93:0 94:0 95:0 96:0 97:0 98:0 99:0 100:0 101:0 102:0 103:0 104:0 105:0 106:0 107:0 108:0 109:0 110:0 111:0 112:0 113:0 114:0 115:0 116:0 117:0 118:0 119:0 120:0 121:0 122:0 123:0 124:0 125:0 126:0 127:0 128:0 129:0 130:0 131:0 132:0 133:0 134:0 135:0 136:0 137:0 138:0 139:0 140:0 141:0 142:0 143:0 144:0 145:0 146:0 147:0 148:0 149:0 150:0 151:0 152:0 153:0 154:0 155:0 156:0 157:0 158:0 159:0 160:0 161:0 162:0 163:0 164:0 165:0 166:0 167:0 168:0 169:0 170:0 171:0 172:0 173:0 174:0 175:0 176:0 177:0 178:0 179:0 180:0 181:0 182:0 183:0 184:0 185:0 186:0 187:0 188:0 189:0 190:0 191:0 192:0 193:0 194:0 195:0 196:0 197:0 198:0 199:0 200:0 201:0 202:0 203:0 204:0 205:0 206:0 207:0 208:0 209:0 210:0 211:0 212:0 213:0 214:0 215:0 216:0 217:0 218:0 219:0 220:0 221:0 222:0 223:0 224:0 225:0 226:0 227:0 228:0 229:0 230:0 231:0 232:0 233:0 234:0 235:0 236:0 237:0 238:0 239:0 240:0 241:0 242:0 243:0 244:0 245:0 246:0 247:0 248:0 249:0 250:0 251:0 252:0 253:0 254:0 255:0 256:0 257:121.7696 258:71.4288 259:200 
-1048576 0 868820.1151209391 1:2400 2:0 3:0 4:0 5:0 6:0 7:0 8:0 9:0 10:0 11:0 12:0 13:0 14:0 15:0 16:0 17:0 18:0 19:0 20:0 21:0 22:0 23:0 24:0 25:0 26:0 27:0 28:0 29:0 30:0 31:0 32:0 33:0 34:0 35:0 36:0 37:0 38:0 39:0 40:0 41:0 42:0 43:0 44:0 45:0 46:0 47:0 48:0 49:0 50:0 51:0 52:0 53:0 54:0 55:0 56:0 57:0 58:0 59:0 60:0 61:0 62:0 63:0 64:0 65:0 66:0 67:0 68:0 69:0 70:0 71:0 72:0 73:0 74:0 75:0 76:0 77:0 78:0 79:0 80:0 81:0 82:0 83:0 84:0 85:0 86:0 87:0 88:0 89:0 90:0 91:0 92:0 93:0 94:0 95:0 96:0 97:0 98:0 99:0 100:0 101:0 102:0 103:0 104:0 105:0 106:0 107:0 108:0 109:0 110:0 111:0 112:0 113:0 114:0 115:0 116:0 117:0 118:0 119:0 120:0 121:0 122:0 123:0 124:0 125:0 126:0 127:0 128:0 129:0 130:0 131:0 132:0 133:0 134:0 135:0 136:0 137:0 138:0 139:0 140:0 141:0 142:0 143:0 144:0 145:0 146:0 147:0 148:0 149:0 150:0 151:0 152:0 153:0 154:0 155:0 156:0 157:0 158:0 159:0 160:0 161:0 162:0 163:0 164:0 165:0 166:0 167:0 168:0 169:0 170:0 171:0 172:0 173:0 174:0 175:0 176:0 177:0 178:0 179:0 180:0 181:0 182:0 183:0 184:0 185:0 186:0 187:0 188:0 189:0 190:0 191:0 192:0 193:0 194:0 195:0 196:0 197:0 198:0 199:0 200:0 201:0 202:0 203:0 204:0 205:0 206:0 207:0 208:0 209:0 210:0 211:0 212:0 213:0 214:0 215:0 216:0 217:0 218:0 219:0 220:0 221:0 222:0 223:0 224:0 225:0 226:0 227:0 228:0 229:0 230:0 231:0 232:0 233:0 234:0 235:0 236:0 237:0 238:0 239:0 240:0 241:0 242:0 243:0 244:0 245:0 246:0 247:0 248:0 249:0 250:0 251:0 252:0 253:0 254:0 255:0 256:0 257:125.6048 258:74.6144 259:200 
-0 0 119837.2595860686 1:2400 2:0 3:0 4:0 5:0 6:0 7:0 8:0 9:0 10:0 11:0 12:0 13:0 14:0 15:0 16:0 17:0 18:0 19:0 20:0 21:0 22:0 23:0 24:0 25:0 26:0 27:0 28:0 29:0 30:0 31:0 32:0 33:0 34:0 35:0 36:0 37:0 38:0 39:0 40:0 41:0 42:0 43:0 44:0 45:0 46:0 47:0 48:0 49:0 50:0 51:0 52:0 53:0 54:0 55:0 56:0 57:0 58:0 59:0 60:0 61:0 62:0 63:0 64:0 65:0 66:0 67:0 68:0 69:0 70:0 71:0 72:0 73:0 74:0 75:0 76:0 77:0 78:0 79:0 80:0 81:0 82:0 83:0 84:0 85:0 86:0 87:0 88:0 89:0 90:0 91:0 92:0 93:0 94:0 95:0 96:0 97:0 98:0 99:0 100:0 101:0 102:0 103:0 104:0 105:0 106:0 107:0 108:0 109:0 110:0 111:0 112:0 113:0 114:0 115:0 116:0 117:0 118:0 119:0 120:0 121:0 122:0 123:0 124:0 125:0 126:0 127:0 128:0 129:0 130:0 131:0 132:0 133:0 134:0 135:0 136:0 137:0 138:0 139:0 140:0 141:0 142:0 143:0 144:0 145:0 146:0 147:0 148:0 149:0 150:0 151:0 152:0 153:0 154:0 155:0 156:0 157:0 158:0 159:0 160:0 161:0 162:0 163:0 164:0 165:0 166:0 167:0 168:0 169:0 170:0 171:0 172:0 173:0 174:0 175:0 176:0 177:0 178:0 179:0 180:0 181:0 182:0 183:0 184:0 185:0 186:0 187:0 188:0 189:0 190:0 191:0 192:0 193:0 194:0 195:0 196:0 197:0 198:0 199:0 200:0 201:0 202:0 203:0 204:0 205:0 206:0 207:0 208:0 209:0 210:0 211:0 212:0 213:0 214:0 215:0 216:0 217:0 218:0 219:0 220:0 221:0 222:0 223:0 224:0 225:0 226:0 227:0 228:0 229:0 230:0 231:0 232:0 233:0 234:0 235:0 236:0 237:0 238:0 239:0 240:0 241:0 242:0 243:0 244:0 245:0 246:0 247:0 248:0 249:0 250:0 251:0 252:0 253:0 254:0 255:0 256:0 257:127.5392 258:79.2864 259:200 
-740936.2369069618 0 0 1:2400 2:0 3:0 4:0 5:0 6:0 7:0 8:0 9:0 10:0 11:0 12:0 13:0 14:0 15:0 16:0 17:0 18:0 19:0 20:0 21:0 22:0 23:0 24:0 25:0 26:0 27:0 28:0 29:0 30:0 31:0 32:0 33:0 34:0 35:0 36:0 37:0 38:0 39:0 40:0 41:0 42:0 43:0 44:0 45:0 46:0 47:0 48:0 49:0 50:0 51:0 52:0 53:0 54:0 55:0 56:0 57:0 58:0 59:0 60:0 61:0 62:0 63:0 64:0 65:0 66:0 67:0 68:0 69:0 70:0 71:0 72:0 73:0 74:0 75:0 76:0 77:0 78:0 79:0 80:0 81:0 82:0 83:0 84:0 85:0 86:0 87:0 88:0 89:0 90:0 91:0 92:0 93:0 94:0 95:0 96:0 97:0 98:0 99:0 100:0 101:0 102:0 103:0 104:0 105:0 106:0 107:0 108:0 109:0 110:0 111:0 112:0 113:0 114:0 115:0 116:0 117:0 118:0 119:0 120:0 121:0 122:0 123:0 124:0 125:0 126:0 127:0 128:0 129:0 130:0 131:0 132:0 133:0 134:0 135:0 136:0 137:0 138:0 139:0 140:0 141:0 142:0 143:0 144:0 145:0 146:0 147:0 148:0 149:0 150:0 151:0 152:0 153:0 154:0 155:0 156:0 157:0 158:0 159:0 160:0 161:0 162:0 163:0 164:0 165:0 166:0 167:0 168:0 169:0 170:0 171:0 172:0 173:0 174:0 175:0 176:0 177:0 178:0 179:0 180:0 181:0 182:0 183:0 184:0 185:0 186:0 187:0 188:0 189:0 190:0 191:0 192:0 193:0 194:0 195:0 196:0 197:0 198:0 199:0 200:0 201:0 202:0 203:0 204:0 205:0 206:0 207:0 208:0 209:0 210:0 211:0 212:0 213:0 214:0 215:0 216:0 217:0 218:0 219:0 220:0 221:0 222:0 223:0 224:0 225:0 226:0 227:0 228:0 229:0 230:0 231:0 232:0 233:0 234:0 235:0 236:0 237:0 238:0 239:0 240:0 241:0 242:0 243:0 244:0 245:0 246:0 247:0 248:0 249:0 250:0 251:0 252:0 253:0 254:0 255:0 256:0 257:125.6656 258:76.6944 259:200 
-0 0 59918.6252929926 1:2400 2:0 3:0 4:0 5:0 6:0 7:0 8:0 9:0 10:0 11:0 12:0 13:0 14:0 15:0 16:0 17:0 18:0 19:0 20:0 21:0 22:0 23:0 24:0 25:0 26:0 27:0 28:0 29:0 30:0 31:0 32:0 33:0 34:0 35:0 36:0 37:0 38:0 39:0 40:0 41:0 42:0 43:0 44:0 45:0 46:0 47:0 48:0 49:0 50:0 51:0 52:0 53:0 54:0 55:0 56:0 57:0 58:0 59:0 60:0 61:0 62:0 63:0 64:0 65:0 66:0 67:0 68:0 69:0 70:0 71:0 72:0 73:0 74:0 75:0 76:0 77:0 78:0 79:0 80:0 81:0 82:0 83:0 84:0 85:0 86:0 87:0 88:0 89:0 90:0 91:0 92:0 93:0 94:0 95:0 96:0 97:0 98:0 99:0 100:0 101:0 102:0 103:0 104:0 105:0 106:0 107:0 108:0 109:0 110:0 111:0 112:0 113:0 114:0 115:0 116:0 117:0 118:0 119:0 120:0 121:0 122:0 123:0 124:0 125:0 126:0 127:0 128:0 129:0 130:0 131:0 132:0 133:0 134:0 135:0 136:0 137:0 138:0 139:0 140:0 141:0 142:0 143:0 144:0 145:0 146:0 147:0 148:0 149:0 150:0 151:0 152:0 153:0 154:0 155:0 156:0 157:0 158:0 159:0 160:0 161:0 162:0 163:0 164:0 165:0 166:0 167:0 168:0 169:0 170:0 171:0 172:0 173:0 174:0 175:0 176:0 177:0 178:0 179:0 180:0 181:0 182:0 183:0 184:0 185:0 186:0 187:0 188:0 189:0 190:0 191:0 192:0 193:0 194:0 195:0 196:0 197:0 198:0 199:0 200:0 201:0 202:0 203:0 204:0 205:0 206:0 207:0 208:0 209:0 210:0 211:0 212:0 213:0 214:0 215:0 216:0 217:0 218:0 219:0 220:0 221:0 222:0 223:0 224:0 225:0 226:0 227:0 228:0 229:0 230:0 231:0 232:0 233:0 234:0 235:0 236:0 237:0 238:0 239:0 240:0 241:0 242:0 243:0 244:0 245:0 246:0 247:0 248:0 249:0 250:0 251:0 252:0 253:0 254:0 255:0 256:0 257:126.76 258:78.1696 259:200 
-0 8885.966188327669 0 1:2400 2:0 3:0 4:0 5:0 6:0 7:0 8:0 9:0 10:0 11:0 12:0 13:0 14:0 15:0 16:0 17:0 18:0 19:0 20:0 21:0 22:0 23:0 24:0 25:0 26:0 27:0 28:0 29:0 30:0 31:0 32:0 33:0 34:0 35:0 36:0 37:0 38:0 39:0 40:0 41:0 42:0 43:0 44:0 45:0 46:0 47:0 48:0 49:0 50:0 51:0 52:0 53:0 54:0 55:0 56:0 57:0 58:0 59:0 60:0 61:0 62:0 63:0 64:0 65:0 66:0 67:0 68:0 69:0 70:0 71:0 72:0 73:0 74:0 75:0 76:0 77:0 78:0 79:0 80:0 81:0 82:0 83:0 84:0 85:0 86:0 87:0 88:0 89:0 90:0 91:0 92:0 93:0 94:0 95:0 96:0 97:0 98:0 99:0 100:0 101:0 102:0 103:0 104:0 105:0 106:0 107:0 108:0 109:0 110:0 111:0 112:0 113:0 114:0 115:0 116:0 117:0 118:0 119:0 120:0 121:0 122:0 123:0 124:0 125:0 126:0 127:0 128:0 129:0 130:0 131:0 132:0 133:0 134:0 135:0 136:0 137:0 138:0 139:0 140:0 141:0 142:0 143:0 144:0 145:0 146:0 147:0 148:0 149:0 150:0 151:0 152:0 153:0 154:0 155:0 156:0 157:0 158:0 159:0 160:0 161:0 162:0 163:0 164:0 165:0 166:0 167:0 168:0 169:0 170:0 171:0 172:0 173:0 174:0 175:0 176:0 177:0 178:0 179:0 180:0 181:0 182:0 183:0 184:0 185:0 186:0 187:0 188:0 189:0 190:0 191:0 192:0 193:0 194:0 195:0 196:0 197:0 198:0 199:0 200:0 201:0 202:0 203:0 204:0 205:0 206:0 207:0 208:0 209:0 210:0 211:0 212:0 213:0 214:0 215:0 216:0 217:0 218:0 219:0 220:0 221:0 222:0 223:0 224:0 225:0 226:0 227:0 228:0 229:0 230:0 231:0 232:0 233:0 234:0 235:0 236:0 237:0 238:0 239:0 240:0 241:0 242:0 243:0 244:0 245:0 246:0 247:0 248:0 249:0 250:0 251:0 252:0 253:0 254:0 255:0 256:0 257:122.9136 258:72.5376 259:200 
-1048576 470972.2023465703 0 1:2400 2:0 3:0 4:0 5:0 6:0 7:0 8:0 9:0 10:0 11:0 12:0 13:0 14:0 15:0 16:0 17:0 18:0 19:0 20:0 21:0 22:0 23:0 24:0 25:0 26:0 27:0 28:0 29:0 30:0 31:0 32:0 33:0 34:0 35:0 36:0 37:0 38:0 39:0 40:0 41:0 42:0 43:0 44:0 45:0 46:0 47:0 48:0 49:0 50:0 51:0 52:0 53:0 54:0 55:0 56:0 57:0 58:0 59:0 60:0 61:0 62:0 63:0 64:0 65:0 66:0 67:0 68:0 69:0 70:0 71:0 72:0 73:0 74:0 75:0 76:0 77:0 78:0 79:0 80:0 81:0 82:0 83:0 84:0 85:0 86:0 87:0 88:0 89:0 90:0 91:0 92:0 93:0 94:0 95:0 96:0 97:0 98:0 99:0 100:0 101:0 102:0 103:0 104:0 105:0 106:0 107:0 108:0 109:0 110:0 111:0 112:0 113:0 114:0 115:0 116:0 117:0 118:0 119:0 120:0 121:0 122:0 123:0 124:0 125:0 126:0 127:0 128:0 129:0 130:0 131:0 132:0 133:0 134:0 135:0 136:0 137:0 138:0 139:0 140:0 141:0 142:0 143:0 144:0 145:0 146:0 147:0 148:0 149:0 150:0 151:0 152:0 153:0 154:0 155:0 156:0 157:0 158:0 159:0 160:0 161:0 162:0 163:0 164:0 165:0 166:0 167:0 168:0 169:0 170:0 171:0 172:0 173:0 174:0 175:0 176:0 177:0 178:0 179:0 180:0 181:0 182:0 183:0 184:0 185:0 186:0 187:0 188:0 189:0 190:0 191:0 192:0 193:0 194:0 195:0 196:0 197:0 198:0 199:0 200:0 201:0 202:0 203:0 204:0 205:0 206:0 207:0 208:0 209:0 210:0 211:0 212:0 213:0 214:0 215:0 216:0 217:0 218:0 219:0 220:0 221:0 222:0 223:0 224:0 225:0 226:0 227:0 228:0 229:0 230:0 231:0 232:0 233:0 234:0 235:0 236:0 237:0 238:0 239:0 240:0 241:0 242:0 243:0 244:0 245:0 246:0 247:0 248:0 249:0 250:0 251:0 252:0 253:0 254:0 255:0 256:0 257:125.2448 258:74.344 259:200 
-1048576 -0 0 1:2400 2:0 3:0 4:0 5:0 6:0 7:0 8:0 9:0 10:0 11:0 12:0 13:0 14:0 15:0 16:0 17:0 18:0 19:0 20:0 21:0 22:0 23:0 24:0 25:0 26:0 27:0 28:0 29:0 30:0 31:0 32:0 33:0 34:0 35:0 36:0 37:0 38:0 39:0 40:0 41:0 42:0 43:0 44:0 45:0 46:0 47:0 48:0 49:0 50:0 51:0 52:0 53:0 54:0 55:0 56:0 57:0 58:0 59:0 60:0 61:0 62:0 63:0 64:0 65:0 66:0 67:0 68:0 69:0 70:0 71:0 72:0 73:0 74:0 75:0 76:0 77:0 78:0 79:0 80:0 81:0 82:0 83:0 84:0 85:0 86:0 87:0 88:0 89:0 90:0 91:0 92:0 93:0 94:0 95:0 96:0 97:0 98:0 99:0 100:0 101:0 102:0 103:0 104:0 105:0 106:0 107:0 108:0 109:0 110:0 111:0 112:0 113:0 114:0 115:0 116:0 117:0 118:0 119:0 120:0 121:0 122:0 123:0 124:0 125:0 126:0 127:0 128:0 129:0 130:0 131:0 132:0 133:0 134:0 135:0 136:0 137:0 138:0 139:0 140:0 141:0 142:0 143:0 144:0 145:0 146:0 147:0 148:0 149:0 150:0 151:0 152:0 153:0 154:0 155:0 156:0 157:0 158:0 159:0 160:0 161:0 162:0 163:0 164:0 165:0 166:0 167:0 168:0 169:0 170:0 171:0 172:0 173:0 174:0 175:0 176:0 177:0 178:0 179:0 180:0 181:0 182:0 183:0 184:0 185:0 186:0 187:0 188:0 189:0 190:0 191:0 192:0 193:0 194:0 195:0 196:0 197:0 198:0 199:0 200:0 201:0 202:0 203:0 204:0 205:0 206:0 207:0 208:0 209:0 210:0 211:0 212:0 213:0 214:0 215:0 216:0 217:0 218:0 219:0 220:0 221:0 222:0 223:0 224:0 225:0 226:0 227:0 228:0 229:0 230:0 231:0 232:0 233:0 234:0 235:0 236:0 237:0 238:0 239:0 240:0 241:0 242:0 243:0 244:0 245:0 246:0 247:0 248:0 249:0 250:0 251:0 252:0 253:0 254:0 255:0 256:0 257:128.1184 258:74.7488 259:200 
-1048576 -0 951285.6489872757 1:2400 2:0 3:0 4:0 5:0 6:0 7:0 8:0 9:0 10:0 11:0 12:0 13:0 14:0 15:0 16:0 17:0 18:0 19:0 20:0 21:0 22:0 23:0 24:0 25:0 26:0 27:0 28:0 29:0 30:0 31:0 32:0 33:0 34:0 35:0 36:0 37:0 38:0 39:0 40:0 41:0 42:0 43:0 44:0 45:0 46:0 47:0 48:0 49:0 50:0 51:0 52:0 53:0 54:0 55:0 56:0 57:0 58:0 59:0 60:0 61:0 62:0 63:0 64:0 65:0 66:0 67:0 68:0 69:0 70:0 71:0 72:0 73:0 74:0 75:0 76:0 77:0 78:0 79:0 80:0 81:0 82:0 83:0 84:0 85:0 86:0 87:0 88:0 89:0 90:0 91:0 92:0 93:0 94:0 95:0 96:0 97:0 98:0 99:0 100:0 101:0 102:0 103:0 104:0 105:0 106:0 107:0 108:0 109:0 110:0 111:0 112:0 113:0 114:0 115:0 116:0 117:0 118:0 119:0 120:0 121:0 122:0 123:0 124:0 125:0 126:0 127:0 128:0 129:0 130:0 131:0 132:0 133:0 134:0 135:0 136:0 137:0 138:0 139:0 140:0 141:0 142:0 143:0 144:0 145:0 146:0 147:0 148:0 149:0 150:0 151:0 152:0 153:0 154:0 155:0 156:0 157:0 158:0 159:0 160:0 161:0 162:0 163:0 164:0 165:0 166:0 167:0 168:0 169:0 170:0 171:0 172:0 173:0 174:0 175:0 176:0 177:0 178:0 179:0 180:0 181:0 182:0 183:0 184:0 185:0 186:0 187:0 188:0 189:0 190:0 191:0 192:0 193:0 194:0 195:0 196:0 197:0 198:0 199:0 200:0 201:0 202:0 203:0 204:0 205:0 206:0 207:0 208:0 209:0 210:0 211:0 212:0 213:0 214:0 215:0 216:0 217:0 218:0 219:0 220:0 221:0 222:0 223:0 224:0 225:0 226:0 227:0 228:0 229:0 230:0 231:0 232:0 233:0 234:0 235:0 236:0 237:0 238:0 239:0 240:0 241:0 242:0 243:0 244:0 245:0 246:0 247:0 248:0 249:0 250:0 251:0 252:0 253:0 254:0 255:0 256:0 257:126.192 258:73.2432 259:200 
-1048576 -0 0 1:2400 2:0 3:0 4:0 5:0 6:0 7:0 8:0 9:0 10:0 11:0 12:0 13:0 14:0 15:0 16:0 17:0 18:0 19:0 20:0 21:0 22:0 23:0 24:0 25:0 26:0 27:0 28:0 29:0 30:0 31:0 32:0 33:0 34:0 35:0 36:0 37:0 38:0 39:0 40:0 41:0 42:0 43:0 44:0 45:0 46:0 47:0 48:0 49:0 50:0 51:0 52:0 53:0 54:0 55:0 56:0 57:0 58:0 59:0 60:0 61:0 62:0 63:0 64:0 65:0 66:0 67:0 68:0 69:0 70:0 71:0 72:0 73:0 74:0 75:0 76:0 77:0 78:0 79:0 80:0 81:0 82:0 83:0 84:0 85:0 86:0 87:0 88:0 89:0 90:0 91:0 92:0 93:0 94:0 95:0 96:0 97:0 98:0 99:0 100:0 101:0 102:0 103:0 104:0 105:0 106:0 107:0 108:0 109:0 110:0 111:0 112:0 113:0 114:0 115:0 116:0 117:0 118:0 119:0 120:0 121:0 122:0 123:0 124:0 125:0 126:0 127:0 128:0 129:0 130:0 131:0 132:0 133:0 134:0 135:0 136:0 137:0 138:0 139:0 140:0 141:0 142:0 143:0 144:0 145:0 146:0 147:0 148:0 149:0 150:0 151:0 152:0 153:0 154:0 155:0 156:0 157:0 158:0 159:0 160:0 161:0 162:0 163:0 164:0 165:0 166:0 167:0 168:0 169:0 170:0 171:0 172:0 173:0 174:0 175:0 176:0 177:0 178:0 179:0 180:0 181:0 182:0 183:0 184:0 185:0 186:0 187:0 188:0 189:0 190:0 191:0 192:0 193:0 194:0 195:0 196:0 197:0 198:0 199:0 200:0 201:0 202:0 203:0 204:0 205:0 206:0 207:0 208:0 209:0 210:0 211:0 212:0 213:0 214:0 215:0 216:0 217:0 218:0 219:0 220:0 221:0 222:0 223:0 224:0 225:0 226:0 227:0 228:0 229:0 230:0 231:0 232:0 233:0 234:0 235:0 236:0 237:0 238:0 239:0 240:0 241:0 242:0 243:0 244:0 245:0 246:0 247:0 248:0 249:0 250:0 251:0 252:0 253:0 254:0 255:0 256:0 257:126.4912 258:73.4832 259:200 
-1048576 -1048576 972905.5055396986 1:2400 2:0 3:0 4:0 5:0 6:0 7:0 8:0 9:0 10:0 11:0 12:0 13:0 14:0 15:0 16:0 17:0 18:0 19:0 20:0 21:0 22:0 23:0 24:0 25:0 26:0 27:0 28:0 29:0 30:0 31:0 32:0 33:0 34:0 35:0 36:0 37:0 38:0 39:0 40:0 41:0 42:0 43:0 44:0 45:0 46:0 47:0 48:0 49:0 50:0 51:0 52:0 53:0 54:0 55:0 56:0 57:0 58:0 59:0 60:0 61:0 62:0 63:0 64:0 65:0 66:0 67:0 68:0 69:0 70:0 71:0 72:0 73:0 74:0 75:0 76:0 77:0 78:0 79:0 80:0 81:0 82:0 83:0 84:0 85:0 86:0 87:0 88:0 89:0 90:0 91:0 92:0 93:0 94:0 95:0 96:0 97:0 98:0 99:0 100:0 101:0 102:0 103:0 104:0 105:0 106:0 107:0 108:0 109:0 110:0 111:0 112:0 113:0 114:0 115:0 116:0 117:0 118:0 119:0 120:0 121:0 122:0 123:0 124:0 125:0 126:0 127:0 128:0 129:0 130:0 131:0 132:0 133:0 134:0 135:0 136:0 137:0 138:0 139:0 140:0 141:0 142:0 143:0 144:0 145:0 146:0 147:0 148:0 149:0 150:0 151:0 152:0 153:0 154:0 155:0 156:0 157:0 158:0 159:0 160:0 161:0 162:0 163:0 164:0 165:0 166:0 167:0 168:0 169:0 170:0 171:0 172:0 173:0 174:0 175:0 176:0 177:0 178:0 179:0 180:0 181:0 182:0 183:0 184:0 185:0 186:0 187:0 188:0 189:0 190:0 191:0 192:0 193:0 194:0 195:0 196:0 197:0 198:0 199:0 200:0 201:0 202:0 203:0 204:0 205:0 206:0 207:0 208:0 209:0 210:0 211:0 212:0 213:0 214:0 215:0 216:0 217:0 218:0 219:0 220:0 221:0 222:0 223:0 224:0 225:0 226:0 227:0 228:0 229:0 230:0 231:0 232:0 233:0 234:0 235:0 236:0 237:0 238:0 239:0 240:0 241:0 242:0 243:0 244:0 245:0 246:0 247:0 248:0 249:0 250:0 251:0 252:0 253:0 254:0 255:0 256:0 257:124.8656 258:74.3024 259:200 
-0 -0 1048576 1:2400 2:0 3:0 4:0 5:0 6:0 7:0 8:0 9:0 10:0 11:0 12:0 13:0 14:0 15:0 16:0 17:0 18:0 19:0 20:0 21:0 22:0 23:0 24:0 25:0 26:0 27:0 28:0 29:0 30:0 31:0 32:0 33:0 34:0 35:0 36:0 37:0 38:0 39:0 40:0 41:0 42:0 43:0 44:0 45:0 46:0 47:0 48:0 49:0 50:0 51:0 52:0 53:0 54:0 55:0 56:0 57:0 58:0 59:0 60:0 61:0 62:0 63:0 64:0 65:0 66:0 67:0 68:0 69:0 70:0 71:0 72:0 73:0 74:0 75:0 76:0 77:0 78:0 79:0 80:0 81:0 82:0 83:0 84:0 85:0 86:0 87:0 88:0 89:0 90:0 91:0 92:0 93:0 94:0 95:0 96:0 97:0 98:0 99:0 100:0 101:0 102:0 103:0 104:0 105:0 106:0 107:0 108:0 109:0 110:0 111:0 112:0 113:0 114:0 115:0 116:0 117:0 118:0 119:0 120:0 121:0 122:0 123:0 124:0 125:0 126:0 127:0 128:0 129:0 130:0 131:0 132:0 133:0 134:0 135:0 136:0 137:0 138:0 139:0 140:0 141:0 142:0 143:0 144:0 145:0 146:0 147:0 148:0 149:0 150:0 151:0 152:0 153:0 154:0 155:0 156:0 157:0 158:0 159:0 160:0 161:0 162:0 163:0 164:0 165:0 166:0 167:0 168:0 169:0 170:0 171:0 172:0 173:0 174:0 175:0 176:0 177:0 178:0 179:0 180:0 181:0 182:0 183:0 184:0 185:0 186:0 187:0 188:0 189:0 190:0 191:0 192:0 193:0 194:0 195:0 196:0 197:0 198:0 199:0 200:0 201:0 202:0 203:0 204:0 205:0 206:0 207:0 208:0 209:0 210:0 211:0 212:0 213:0 214:0 215:0 216:0 217:0 218:0 219:0 220:0 221:0 222:0 223:0 224:0 225:0 226:0 227:0 228:0 229:0 230:0 231:0 232:0 233:0 234:0 235:0 236:0 237:0 238:0 239:0 240:0 241:0 242:0 243:0 244:0 245:0 246:0 247:0 248:0 249:0 250:0 251:0 252:0 253:0 254:0 255:0 256:0 257:128.7536 258:75.4976 259:200 
-1048576 -1048576 1048576 1:2400 2:0 3:0 4:0 5:0 6:0 7:0 8:0 9:0 10:0 11:0 12:0 13:0 14:0 15:0 16:0 17:0 18:0 19:0 20:0 21:0 22:0 23:0 24:0 25:0 26:0 27:0 28:0 29:0 30:0 31:0 32:0 33:0 34:0 35:0 36:0 37:0 38:0 39:0 40:0 41:0 42:0 43:0 44:0 45:0 46:0 47:0 48:0 49:0 50:0 51:0 52:0 53:0 54:0 55:0 56:0 57:0 58:0 59:0 60:0 61:0 62:0 63:0 64:0 65:0 66:0 67:0 68:0 69:0 70:0 71:0 72:0 73:0 74:0 75:0 76:0 77:0 78:0 79:0 80:0 81:0 82:0 83:0 84:0 85:0 86:0 87:0 88:0 89:0 90:0 91:0 92:0 93:0 94:0 95:0 96:0 97:0 98:0 99:0 100:0 101:0 102:0 103:0 104:0 105:0 106:0 107:0 108:0 109:0 110:0 111:0 112:0 113:0 114:0 115:0 116:0 117:0 118:0 119:0 120:0 121:0 122:0 123:0 124:0 125:0 126:0 127:0 128:0 129:0 130:0 131:0 132:0 133:0 134:0 135:0 136:0 137:0 138:0 139:0 140:0 141:0 142:0 143:0 144:0 145:0 146:0 147:0 148:0 149:0 150:0 151:0 152:0 153:0 154:0 155:0 156:0 157:0 158:0 159:0 160:0 161:0 162:0 163:0 164:0 165:0 166:0 167:0 168:0 169:0 170:0 171:0 172:0 173:0 174:0 175:0 176:0 177:0 178:0 179:0 180:0 181:0 182:0 183:0 184:0 185:0 186:0 187:0 188:0 189:0 190:0 191:0 192:0 193:0 194:0 195:0 196:0 197:0 198:0 199:0 200:0 201:0 202:0 203:0 204:0 205:0 206:0 207:0 208:0 209:0 210:0 211:0 212:0 213:0 214:0 215:0 216:0 217:0 218:0 219:0 220:0 221:0 222:0 223:0 224:0 225:0 226:0 227:0 228:0 229:0 230:0 231:0 232:0 233:0 234:0 235:0 236:0 237:0 238:0 239:0 240:0 241:0 242:0 243:0 244:0 245:0 246:0 247:0 248:0 249:0 250:0 251:0 252:0 253:0 254:0 255:0 256:0 257:125.5664 258:74.2144 259:200 
-1048576 -0 0 1:2400 2:0 3:0 4:0 5:0 6:0 7:0 8:0 9:0 10:0 11:0 12:0 13:0 14:0 15:0 16:0 17:0 18:0 19:0 20:0 21:0 22:0 23:0 24:0 25:0 26:0 27:0 28:0 29:0 30:0 31:0 32:0 33:0 34:0 35:0 36:0 37:0 38:0 39:0 40:0 41:0 42:0 43:0 44:0 45:0 46:0 47:0 48:0 49:0 50:0 51:0 52:0 53:0 54:0 55:0 56:0 57:0 58:0 59:0 60:0 61:0 62:0 63:0 64:0 65:0 66:0 67:0 68:0 69:0 70:0 71:0 72:0 73:0 74:0 75:0 76:0 77:0 78:0 79:0 80:0 81:0 82:0 83:0 84:0 85:0 86:0 87:0 88:0 89:0 90:0 91:0 92:0 93:0 94:0 95:0 96:0 97:0 98:0 99:0 100:0 101:0 102:0 103:0 104:0 105:0 106:0 107:0 108:0 109:0 110:0 111:0 112:0 113:0 114:0 115:0 116:0 117:0 118:0 119:0 120:0 121:0 122:0 123:0 124:0 125:0 126:0 127:0 128:0 129:0 130:0 131:0 132:0 133:0 134:0 135:0 136:0 137:0 138:0 139:0 140:0 141:0 142:0 143:0 144:0 145:0 146:0 147:0 148:0 149:0 150:0 151:0 152:0 153:0 154:0 155:0 156:0 157:0 158:0 159:0 160:0 161:0 162:0 163:0 164:0 165:0 166:0 167:0 168:0 169:0 170:0 171:0 172:0 173:0 174:0 175:0 176:0 177:0 178:0 179:0 180:0 181:0 182:0 183:0 184:0 185:0 186:0 187:0 188:0 189:0 190:0 191:0 192:0 193:0 194:0 195:0 196:0 197:0 198:0 199:0 200:0 201:0 202:0 203:0 204:0 205:0 206:0 207:0 208:0 209:0 210:0 211:0 212:0 213:0 214:0 215:0 216:0 217:0 218:0 219:0 220:0 221:0 222:0 223:0 224:0 225:0 226:0 227:0 228:0 229:0 230:0 231:0 232:0 233:0 234:0 235:0 236:0 237:0 238:0 239:0 240:0 241:0 242:0 243:0 244:0 245:0 246:0 247:0 248:0 249:0 250:0 251:0 252:0 253:0 254:0 255:0 256:0 257:124.8752 258:73.3904 259:200 
-1048576 -0 0 1:2400 2:0 3:0 4:0 5:0 6:0 7:0 8:0 9:0 10:0 11:0 12:0 13:0 14:0 15:0 16:0 17:0 18:0 19:0 20:0 21:0 22:0 23:0 24:0 25:0 26:0 27:0 28:0 29:0 30:0 31:0 32:0 33:0 34:0 35:0 36:0 37:0 38:0 39:0 40:0 41:0 42:0 43:0 44:0 45:0 46:0 47:0 48:0 49:0 50:0 51:0 52:0 53:0 54:0 55:0 56:0 57:0 58:0 59:0 60:0 61:0 62:0 63:0 64:0 65:0 66:0 67:0 68:0 69:0 70:0 71:0 72:0 73:0 74:0 75:0 76:0 77:0 78:0 79:0 80:0 81:0 82:0 83:0 84:0 85:0 86:0 87:0 88:0 89:0 90:0 91:0 92:0 93:0 94:0 95:0 96:0 97:0 98:0 99:0 100:0 101:0 102:0 103:0 104:0 105:0 106:0 107:0 108:0 109:0 110:0 111:0 112:0 113:0 114:0 115:0 116:0 117:0 118:0 119:0 120:0 121:0 122:0 123:0 124:0 125:0 126:0 127:0 128:0 129:0 130:0 131:0 132:0 133:0 134:0 135:0 136:0 137:0 138:0 139:0 140:0 141:0 142:0 143:0 144:0 145:0 146:0 147:0 148:0 149:0 150:0 151:0 152:0 153:0 154:0 155:0 156:0 157:0 158:0 159:0 160:0 161:0 162:0 163:0 164:0 165:0 166:0 167:0 168:0 169:0 170:0 171:0 172:0 173:0 174:0 175:0 176:0 177:0 178:0 179:0 180:0 181:0 182:0 183:0 184:0 185:0 186:0 187:0 188:0 189:0 190:0 191:0 192:0 193:0 194:0 195:0 196:0 197:0 198:0 199:0 200:0 201:0 202:0 203:0 204:0 205:0 206:0 207:0 208:0 209:0 210:0 211:0 212:0 213:0 214:0 215:0 216:0 217:0 218:0 219:0 220:0 221:0 222:0 223:0 224:0 225:0 226:0 227:0 228:0 229:0 230:0 231:0 232:0 233:0 234:0 235:0 236:0 237:0 238:0 239:0 240:0 241:0 242:0 243:0 244:0 245:0 246:0 247:0 248:0 249:0 250:0 251:0 252:0 253:0 254:0 255:0 256:0 257:127.0896 258:73.8368 259:200 
-1048576 -0 0 1:2400 2:0 3:0 4:0 5:0 6:0 7:0 8:0 9:0 10:0 11:0 12:0 13:0 14:0 15:0 16:0 17:0 18:0 19:0 20:0 21:0 22:0 23:0 24:0 25:0 26:0 27:0 28:0 29:0 30:0 31:0 32:0 33:0 34:0 35:0 36:0 37:0 38:0 39:0 40:0 41:0 42:0 43:0 44:0 45:0 46:0 47:0 48:0 49:0 50:0 51:0 52:0 53:0 54:0 55:0 56:0 57:0 58:0 59:0 60:0 61:0 62:0 63:0 64:0 65:0 66:0 67:0 68:0 69:0 70:0 71:0 72:0 73:0 74:0 75:0 76:0 77:0 78:0 79:0 80:0 81:0 82:0 83:0 84:0 85:0 86:0 87:0 88:0 89:0 90:0 91:0 92:0 93:0 94:0 95:0 96:0 97:0 98:0 99:0 100:0 101:0 102:0 103:0 104:0 105:0 106:0 107:0 108:0 109:0 110:0 111:0 112:0 113:0 114:0 115:0 116:0 117:0 118:0 119:0 120:0 121:0 122:0 123:0 124:0 125:0 126:0 127:0 128:0 129:0 130:0 131:0 132:0 133:0 134:0 135:0 136:0 137:0 138:0 139:0 140:0 141:0 142:0 143:0 144:0 145:0 146:0 147:0 148:0 149:0 150:0 151:0 152:0 153:0 154:0 155:0 156:0 157:0 158:0 159:0 160:0 161:0 162:0 163:0 164:0 165:0 166:0 167:0 168:0 169:0 170:0 171:0 172:0 173:0 174:0 175:0 176:0 177:0 178:0 179:0 180:0 181:0 182:0 183:0 184:0 185:0 186:0 187:0 188:0 189:0 190:0 191:0 192:0 193:0 194:0 195:0 196:0 197:0 198:0 199:0 200:0 201:0 202:0 203:0 204:0 205:0 206:0 207:0 208:0 209:0 210:0 211:0 212:0 213:0 214:0 215:0 216:0 217:0 218:0 219:0 220:0 221:0 222:0 223:0 224:0 225:0 226:0 227:0 228:0 229:0 230:0 231:0 232:0 233:0 234:0 235:0 236:0 237:0 238:0 239:0 240:0 241:0 242:0 243:0 244:0 245:0 246:0 247:0 248:0 249:0 250:0 251:0 252:0 253:0 254:0 255:0 256:0 257:126.4992 258:73.9104 259:200 
-1048576 -0 0 1:2400 2:0 3:0 4:0 5:0 6:0 7:0 8:0 9:0 10:0 11:0 12:0 13:0 14:0 15:0 16:0 17:0 18:0 19:0 20:0 21:0 22:0 23:0 24:0 25:0 26:0 27:0 28:0 29:0 30:0 31:0 32:0 33:0 34:0 35:0 36:0 37:0 38:0 39:0 40:0 41:0 42:0 43:0 44:0 45:0 46:0 47:0 48:0 49:0 50:0 51:0 52:0 53:0 54:0 55:0 56:0 57:0 58:0 59:0 60:0 61:0 62:0 63:0 64:0 65:0 66:0 67:0 68:0 69:0 70:0 71:0 72:0 73:0 74:0 75:0 76:0 77:0 78:0 79:0 80:0 81:0 82:0 83:0 84:0 85:0 86:0 87:0 88:0 89:0 90:0 91:0 92:0 93:0 94:0 95:0 96:0 97:0 98:0 99:0 100:0 101:0 102:0 103:0 104:0 105:0 106:0 107:0 108:0 109:0 110:0 111:0 112:0 113:0 114:0 115:0 116:0 117:0 118:0 119:0 120:0 121:0 122:0 123:0 124:0 125:0 126:0 127:0 128:0 129:0 130:0 131:0 132:0 133:0 134:0 135:0 136:0 137:0 138:0 139:0 140:0 141:0 142:0 143:0 144:0 145:0 146:0 147:0 148:0 149:0 150:0 151:0 152:0 153:0 154:0 155:0 156:0 157:0 158:0 159:0 160:0 161:0 162:0 163:0 164:0 165:0 166:0 167:0 168:0 169:0 170:0 171:0 172:0 173:0 174:0 175:0 176:0 177:0 178:0 179:0 180:0 181:0 182:0 183:0 184:0 185:0 186:0 187:0 188:0 189:0 190:0 191:0 192:0 193:0 194:0 195:0 196:0 197:0 198:0 199:0 200:0 201:0 202:0 203:0 204:0 205:0 206:0 207:0 208:0 209:0 210:0 211:0 212:0 213:0 214:0 215:0 216:0 217:0 218:0 219:0 220:0 221:0 222:0 223:0 224:0 225:0 226:0 227:0 228:0 229:0 230:0 231:0 232:0 233:0 234:0 235:0 236:0 237:0 238:0 239:0 240:0 241:0 242:0 243:0 244:0 245:0 246:0 247:0 248:0 249:0 250:0 251:0 252:0 253:0 254:0 255:0 256:0 257:126.2256 258:73.2704 259:200 
-1048576 -0 0 1:2400 2:0 3:0 4:0 5:0 6:0 7:0 8:0 9:0 10:0 11:0 12:0 13:0 14:0 15:0 16:0 17:0 18:0 19:0 20:0 21:0 22:0 23:0 24:0 25:0 26:0 27:0 28:0 29:0 30:0 31:0 32:0 33:0 34:0 35:0 36:0 37:0 38:0 39:0 40:0 41:0 42:0 43:0 44:0 45:0 46:0 47:0 48:0 49:0 50:0 51:0 52:0 53:0 54:0 55:0 56:0 57:0 58:0 59:0 60:0 61:0 62:0 63:0 64:0 65:0 66:0 67:0 68:0 69:0 70:0 71:0 72:0 73:0 74:0 75:0 76:0 77:0 78:0 79:0 80:0 81:0 82:0 83:0 84:0 85:0 86:0 87:0 88:0 89:0 90:0 91:0 92:0 93:0 94:0 95:0 96:0 97:0 98:0 99:0 100:0 101:0 102:0 103:0 104:0 105:0 106:0 107:0 108:0 109:0 110:0 111:0 112:0 113:0 114:0 115:0 116:0 117:0 118:0 119:0 120:0 121:0 122:0 123:0 124:0 125:0 126:0 127:0 128:0 129:0 130:0 131:0 132:0 133:0 134:0 135:0 136:0 137:0 138:0 139:0 140:0 141:0 142:0 143:0 144:0 145:0 146:0 147:0 148:0 149:0 150:0 151:0 152:0 153:0 154:0 155:0 156:0 157:0 158:0 159:0 160:0 161:0 162:0 163:0 164:0 165:0 166:0 167:0 168:0 169:0 170:0 171:0 172:0 173:0 174:0 175:0 176:0 177:0 178:0 179:0 180:0 181:0 182:0 183:0 184:0 185:0 186:0 187:0 188:0 189:0 190:0 191:0 192:0 193:0 194:0 195:0 196:0 197:0 198:0 199:0 200:0 201:0 202:0 203:0 204:0 205:0 206:0 207:0 208:0 209:0 210:0 211:0 212:0 213:0 214:0 215:0 216:0 217:0 218:0 219:0 220:0 221:0 222:0 223:0 224:0 225:0 226:0 227:0 228:0 229:0 230:0 231:0 232:0 233:0 234:0 235:0 236:0 237:0 238:0 239:0 240:0 241:0 242:0 243:0 244:0 245:0 246:0 247:0 248:0 249:0 250:0 251:0 252:0 253:0 254:0 255:0 256:0 257:125.0512 258:73.0704 259:200 
-1048576 -0 0 1:2400 2:0 3:0 4:0 5:0 6:0 7:0 8:0 9:0 10:0 11:0 12:0 13:0 14:0 15:0 16:0 17:0 18:0 19:0 20:0 21:0 22:0 23:0 24:0 25:0 26:0 27:0 28:0 29:0 30:0 31:0 32:0 33:0 34:0 35:0 36:0 37:0 38:0 39:0 40:0 41:0 42:0 43:0 44:0 45:0 46:0 47:0 48:0 49:0 50:0 51:0 52:0 53:0 54:0 55:0 56:0 57:0 58:0 59:0 60:0 61:0 62:0 63:0 64:0 65:0 66:0 67:0 68:0 69:0 70:0 71:0 72:0 73:0 74:0 75:0 76:0 77:0 78:0 79:0 80:0 81:0 82:0 83:0 84:0 85:0 86:0 87:0 88:0 89:0 90:0 91:0 92:0 93:0 94:0 95:0 96:0 97:0 98:0 99:0 100:0 101:0 102:0 103:0 104:0 105:0 106:0 107:0 108:0 109:0 110:0 111:0 112:0 113:0 114:0 115:0 116:0 117:0 118:0 119:0 120:0 121:0 122:0 123:0 124:0 125:0 126:0 127:0 128:0 129:0 130:0 131:0 132:0 133:0 134:0 135:0 136:0 137:0 138:0 139:0 140:0 141:0 142:0 143:0 144:0 145:0 146:0 147:0 148:0 149:0 150:0 151:0 152:0 153:0 154:0 155:0 156:0 157:0 158:0 159:0 160:0 161:0 162:0 163:0 164:0 165:0 166:0 167:0 168:0 169:0 170:0 171:0 172:0 173:0 174:0 175:0 176:0 177:0 178:0 179:0 180:0 181:0 182:0 183:0 184:0 185:0 186:0 187:0 188:0 189:0 190:0 191:0 192:0 193:0 194:0 195:0 196:0 197:0 198:0 199:0 200:0 201:0 202:0 203:0 204:0 205:0 206:0 207:0 208:0 209:0 210:0 211:0 212:0 213:0 214:0 215:0 216:0 217:0 218:0 219:0 220:0 221:0 222:0 223:0 224:0 225:0 226:0 227:0 228:0 229:0 230:0 231:0 232:0 233:0 234:0 235:0 236:0 237:0 238:0 239:0 240:0 241:0 242:0 243:0 244:0 245:0 246:0 247:0 248:0 249:0 250:0 251:0 252:0 253:0 254:0 255:0 256:0 257:125.0832 258:73.408 259:200 
