svm_type c_svc
kernel_type linear
nr_class 5
total_sv 1266
rho 46.4773 -12.3146 24.7666 49.8572 -32.7011 -36.5006 -22.0545 7.02774 54.1986 20.9966
label 1 2 3 4 5
probA -4.20311 -1.12716 -3.15296 -3.45891 -4.65496 -2.95712 -3.18631 -2.60305 -2.28062 -4.52851
probB 0.290982 -0.133899 -0.209443 -0.0226664 0.2627 -0.0772133 0.306666 -0.292158 -0.021111 0.652716
nr_sv 304 154 250 280 278
SV
0.0004169030587560857 0.00124345879154087 0.005568266470466729 3.505128655780525e-05 1:128.31852 2:75.92 3:200 4:255 5:0 6:0 7:0 8:0 9:0 10:0 11:0 12:0 13:0 14:4 15:6 16:1 17:1 18:0 19:0 20:2 21:0 22:0 23:0 24:0 25:1 26:4 27:0 28:0 29:0 30:0 31:0 32:2 33:2 34:0 35:0 36:0 37:2 38:3 39:1 40:3 41:0 42:1 43:0 44:0 45:1 46:0 47:0 48:0 49:6 50:5 51:1 52:0 53:1 54:2 55:0 56:0 57:0 58:0 59:0 60:2 61:3 62:1 63:0 64:0 65:0 66:4 67:3 68:2 69:0 70:0 71:0 72:0 73:0 74:0 75:0 76:7 77:3 78:4 79:1 80:7 81:1 82:0 83:0 84:0 85:1 86:4 87:1 88:1 89:0 90:1 91:1 92:0 93:3 94:0 95:7 96:0 97:5 98:2 99:0 100:0 101:0 102:0 103:0 104:0 105:0 106:0 107:0 108:4 109:2 110:0 111:0 112:0 113:2 114:6 115:0 116:0 117:0 118:0 119:0 120:4 121:2 122:0 123:0 124:0 125:3 126:3 127:5 128:3 129:0 130:0 131:0 132:0 133:0 134:3 135:0 136:1 137:0 138:5 139:6 140:7 141:5 142:0 143:0 144:0 145:1 146:6 147:1 148:3 149:0 150:1 151:0 152:0 153:0 154:1 155:0 156:0 157:0 158:0 159:0 160:1 161:0 162:0 163:0 164:4 165:0 166:1 167:2 168:0 169:0 170:0 171:0 172:0 173:0 174:2 175:0 176:2 177:1 178:0 179:0 180:0 181:0 182:0 183:1 184:1 185:0 186:4 187:1 188:2 189:1 190:3 191:0 192:0 193:0 194:0 195:0 196:2 197:2 198:1 199:1 200:1 201:1 202:0 203:10 204:0 205:0 206:7 207:1 208:0 209:0 210:0 211:1 212:0 213:0 214:0 215:1 216:0 217:0 218:0 219:1 220:0 221:0 222:0 223:0 224:0 225:0 226:3 227:0 228:0 229:2 230:4 231:0 232:2 233:1 234:1 235:1 236:3 237:0 238:1 239:3 240:0 241:0 242:0 243:0 244:0 245:0 246:1 247:3 248:5 249:0 250:0 251:0 252:0 253:1 254:0 255:0 256:0 257:0 258:0 259:1 260:1 261:0 262:3 263:1 264:0 265:0 266:0 267:1 268:0 269:0 270:0 271:0 272:0 273:1 274:5 275:2 276:3 277:0 278:0 279:0 280:0 281:0 282:0 283:1 284:0 285:1 286:3 287:3 288:1 289:3 290:3 291:2 292:0 293:3 294:0 295:4 296:0 297:0 298:0 299:0 300:1 301:0 302:2 303:0 304:2 305:2 306:0 307:0 308:2 309:1 310:0 311:0 312:3 313:2 314:0 315:0 316:0 317:0 318:0 319:2 320:0 321:0 322:0 323:0 324:0 325:0 326:0 327:0 328:0 329:2 330:0 331:0 332:0 333:0 334:0 335:0 336:0 337:0 338:4 339:0 340:0 341:1 342:0 343:1 344:0 345:0 346:0 347:0 348:0 349:0 350:1 351:2 352:0 353:0 354:2 355:0 356:1 357:1 358:4 359:0 360:3 361:0 362:0 363:0 364:0 365:0 366:0 367:0 368:0 369:0 370:1 371:0 372:1 373:3 374:0 375:0 376:0 377:0 378:0 379:0 380:1 381:3 382:0 383:3 384:1 385:0 386:0 387:0 388:1 389:0 390:1 391:0 392:1 393:0 394:0 395:0 396:1 397:2 398:0 399:0 400:0 401:0 402:1 403:0 404:1 405:2 406:3 407:0 408:0 409:1 410:0 411:0 412:0 413:1 414:0 415:1 416:1 417:0 418:2 419:2 420:0 421:0 422:2 423:0 424:3 425:0 426:0 427:2 428:0 429:0 430:0 431:0 432:2 433:0 434:2 435:0 436:0 437:0 438:0 439:1 440:0 441:0 442:0 443:0 444:0 445:0 446:2 447:0 448:0 449:2 450:0 451:0 452:3 453:0 454:0 455:0 456:1 457:0 458:0 459:0 460:1 461:0 462:0 463:0 464:0 465:1 466:0 467:0 468:0 469:0 470:0 471:0 472:0 473:0 474:0 475:2 476:2 477:1 478:1 479:3 480:1 481:2 482:0 483:0 484:0 485:0 486:0 487:0 
0.0003597553983923167 0.003563335541379974 0 0.001296477830648469 1:125.23556 2:74.904198 3:200 4:255 5:0 6:8 7:1 8:0 9:0 10:0 11:0 12:3 13:2 14:0 15:0 16:4 17:0 18:0 19:1 20:0 21:4 22:0 23:1 24:2 25:1 26:0 27:0 28:14 29:2 30:0 31:4 32:3 33:4 34:1 35:0 36:0 37:5 38:0 39:0 40:0 41:1 42:0 43:0 44:1 45:0 46:0 47:0 48:7 49:0 50:0 51:0 52:0 53:13 54:2 55:0 56:0 57:0 58:4 59:5 60:2 61:0 62:0 63:2 64:0 65:0 66:0 67:0 68:4 69:0 70:0 71:8 72:0 73:0 74:9 75:3 76:0 77:2 78:0 79:2 80:0 81:0 82:0 83:0 84:0 85:0 86:0 87:1 88:0 89:2 90:0 91:1 92:0 93:0 94:0 95:0 96:7 97:2 98:0 99:3 100:0 101:0 102:0 103:2 104:1 105:0 106:0 107:0 108:4 109:2 110:0 111:0 112:1 113:0 114:3 115:0 116:6 117:4 118:7 119:0 120:4 121:0 122:2 123:0 124:0 125:3 126:0 127:0 128:0 129:0 130:1 131:0 132:1 133:0 134:0 135:0 136:0 137:0 138:0 139:0 140:0 141:0 142:0 143:0 144:0 145:2 146:1 147:0 148:0 149:0 150:1 151:3 152:1 153:0 154:0 155:3 156:1 157:0 158:0 159:0 160:0 161:0 162:6 163:2 164:0 165:0 166:0 167:0 168:0 169:0 170:8 171:0 172:2 173:0 174:0 175:0 176:2 177:1 178:0 179:0 180:0 181:0 182:0 183:7 184:0 185:1 186:0 187:0 188:0 189:7 190:0 191:3 192:3 193:2 194:0 195:0 196:3 197:0 198:0 199:1 200:0 201:2 202:0 203:9 204:3 205:0 206:0 207:0 208:0 209:5 210:0 211:2 212:2 213:1 214:0 215:0 216:2 217:0 218:2 219:0 220:0 221:1 222:0 223:0 224:0 225:0 226:5 227:0 228:0 229:0 230:2 231:1 232:0 233:1 234:0 235:1 236:0 237:0 238:0 239:0 240:2 241:0 242:0 243:2 244:0 245:0 246:0 247:5 248:0 249:0 250:0 251:2 252:0 253:0 254:6 255:1 256:0 257:0 258:0 259:0 260:0 261:2 262:2 263:0 264:1 265:0 266:0 267:0 268:0 269:3 270:0 271:0 272:3 273:0 274:0 275:4 276:1 277:3 278:0 279:0 280:0 281:0 282:0 283:0 284:2 285:0 286:0 287:0 288:0 289:0 290:0 291:0 292:1 293:0 294:0 295:1 296:2 297:0 298:1 299:0 300:0 301:0 302:5 303:0 304:3 305:3 306:0 307:1 308:0 309:1 310:0 311:1 312:6 313:0 314:2 315:0 316:0 317:0 318:0 319:0 320:0 321:7 322:0 323:0 324:1 325:0 326:0 327:3 328:0 329:0 330:0 331:1 332:3 333:2 334:3 335:0 336:1 337:0 338:1 339:2 340:3 341:4 342:4 343:0 344:0 345:4 346:3 347:5 348:0 349:0 350:0 351:2 352:2 353:0 354:1 355:0 356:1 357:0 358:0 359:0 360:2 361:3 362:2 363:0 364:0 365:0 366:2 367:0 368:0 369:0 370:0 371:2 372:0 373:0 374:0 375:1 376:1 377:0 378:1 379:0 380:0 381:0 382:0 383:0 384:0 385:3 386:5 387:1 388:0 389:0 390:0 391:0 392:0 393:3 394:0 395:1 396:1 397:1 398:0 399:2 400:0 401:7 402:1 403:0 404:5 405:6 406:0 407:0 408:3 409:0 410:0 411:5 412:1 413:1 414:0 415:0 416:0 417:1 418:1 419:0 420:0 421:0 422:0 423:0 424:0 425:0 426:4 427:0 428:0 429:2 430:5 431:2 432:0 433:3 434:0 435:0 436:0 437:0 438:0 439:1 440:0 441:0 442:2 443:1 444:1 445:1 446:4 447:0 448:0 449:4 450:0 451:3 452:6 453:0 454:0 455:0 456:0 457:5 458:1 459:0 460:0 461:2 462:0 463:2 464:0 465:0 466:0 467:0 468:7 469:0 470:2 471:0 472:1 473:0 474:0 475:0 476:0 477:3 478:0 479:0 480:1 481:1 482:0 483:0 484:1 485:1 486:0 487:0 
0 0.002744256969366241 0 0 1:127.31358 2:75.917037 3:200 4:255 5:0 6:0 7:0 8:0 9:3 10:1 11:0 12:0 13:0 14:1 15:0 16:0 17:0 18:0 19:1 20:0 21:0 22:2 23:1 24:2 25:0 26:25 27:3 28:0 29:3 30:0 31:0 32:0 33:0 34:2 35:0 36:2 37:0 38:0 39:0 40:1 41:1 42:0 43:0 44:3 45:0 46:0 47:1 48:16 49:9 50:0 51:0 52:0 53:0 54:0 55:0 56:0 57:0 58:2 59:3 60:0 61:2 62:1 63:0 64:4 65:0 66:0 67:0 68:0 69:3 70:0 71:0 72:0 73:10 74:8 75:0 76:1 77:8 78:0 79:5 80:0 81:0 82:2 83:0 84:2 85:0 86:3 87:0 88:1 89:0 90:2 91:0 92:2 93:0 94:0 95:6 96:7 97:0 98:3 99:0 100:1 101:1 102:0 103:1 104:0 105:2 106:3 107:0 108:0 109:1 110:2 111:0 112:1 113:0 114:0 115:6 116:1 117:1 118:0 119:0 120:4 121:0 122:5 123:0 124:5 125:1 126:2 127:0 128:3 129:0 130:0 131:1 132:0 133:1 134:0 135:0 136:0 137:0 138:7 139:2 140:0 141:0 142:8 143:0 144:0 145:5 146:2 147:0 148:3 149:0 150:0 151:2 152:0 153:0 154:2 155:0 156:0 157:0 158:3 159:5 160:0 161:0 162:0 163:5 164:0 165:0 166:2 167:0 168:5 169:1 170:0 171:0 172:0 173:0 174:1 175:2 176:0 177:1 178:0 179:0 180:1 181:0 182:0 183:1 184:1 185:6 186:0 187:0 188:4 189:0 190:0 191:0 192:0 193:1 194:0 195:2 196:5 197:0 198:1 199:1 200:1 201:0 202:0 203:2 204:0 205:0 206:0 207:2 208:0 209:0 210:4 211:2 212:0 213:0 214:0 215:2 216:0 217:0 218:0 219:0 220:0 221:1 222:1 223:0 224:0 225:5 226:2 227:0 228:6 229:0 230:0 231:5 232:0 233:1 234:5 235:1 236:0 237:0 238:0 239:0 240:0 241:0 242:0 243:2 244:0 245:0 246:0 247:1 248:2 249:1 250:0 251:1 252:2 253:2 254:0 255:0 256:0 257:0 258:0 259:0 260:0 261:3 262:3 263:0 264:0 265:0 266:1 267:0 268:1 269:0 270:5 271:0 272:0 273:2 274:0 275:0 276:3 277:2 278:0 279:0 280:0 281:0 282:0 283:0 284:0 285:3 286:0 287:3 288:0 289:1 290:0 291:0 292:0 293:0 294:0 295:0 296:1 297:3 298:3 299:1 300:2 301:1 302:1 303:0 304:0 305:0 306:0 307:1 308:0 309:0 310:0 311:0 312:5 313:0 314:5 315:0 316:4 317:0 318:0 319:2 320:5 321:0 322:0 323:2 324:0 325:2 326:0 327:1 328:0 329:3 330:1 331:1 332:0 333:0 334:4 335:0 336:0 337:0 338:1 339:0 340:0 341:3 342:2 343:0 344:0 345:2 346:0 347:0 348:0 349:0 350:0 351:1 352:1 353:3 354:0 355:2 356:0 357:3 358:3 359:0 360:0 361:0 362:1 363:1 364:1 365:0 366:2 367:2 368:0 369:3 370:0 371:2 372:0 373:1 374:1 375:0 376:0 377:1 378:0 379:0 380:3 381:0 382:0 383:0 384:0 385:0 386:0 387:0 388:2 389:0 390:0 391:1 392:0 393:1 394:0 395:0 396:0 397:0 398:0 399:2 400:2 401:0 402:0 403:8 404:0 405:1 406:0 407:0 408:3 409:0 410:0 411:0 412:4 413:0 414:0 415:2 416:0 417:0 418:1 419:2 420:0 421:2 422:4 423:1 424:0 425:0 426:4 427:1 428:2 429:0 430:2 431:0 432:0 433:1 434:0 435:0 436:0 437:0 438:1 439:1 440:0 441:1 442:0 443:0 444:3 445:1 446:0 447:1 448:0 449:1 450:3 451:0 452:0 453:2 454:0 455:0 456:0 457:0 458:0 459:2 460:0 461:2 462:0 463:1 464:0 465:0 466:0 467:1 468:4 469:2 470:0 471:2 472:0 473:0 474:1 475:3 476:0 477:0 478:1 479:0 480:0 481:0 482:0 483:0 484:0 485:1 486:1 487:0 
0 0.002273508633227681 0.003074425307994089 0 1:125.41877 2:74.368395 3:200 4:255 5:21 6:12 7:0 8:0 9:6 10:0 11:3 12:1 13:2 14:0 15:0 16:0 17:0 18:0 19:0 20:0 21:0 22:1 23:2 24:0 25:3 26:5 27:14 28:0 29:0 30:1 31:6 32:8 33:4 34:2 35:2 36:0 37:0 38:1 39:0 40:0 41:0 42:0 43:0 44:1 45:0 46:0 47:0 48:0 49:0 50:1 51:3 52:1 53:0 54:0 55:4 56:0 57:3 58:1 59:0 60:0 61:0 62:0 63:0 64:2 65:0 66:0 67:1 68:0 69:0 70:15 71:6 72:0 73:3 74:4 75:1 76:3 77:1 78:0 79:1 80:0 81:0 82:0 83:0 84:0 85:0 86:2 87:0 88:0 89:0 90:0 91:0 92:0 93:0 94:0 95:0 96:0 97:4 98:0 99:0 100:1 101:3 102:1 103:0 104:2 105:0 106:0 107:1 108:1 109:0 110:1 111:0 112:1 113:0 114:4 115:0 116:0 117:3 118:2 119:4 120:8 121:0 122:1 123:1 124:0 125:0 126:0 127:1 128:0 129:0 130:1 131:0 132:1 133:0 134:0 135:0 136:9 137:0 138:0 139:4 140:1 141:3 142:0 143:0 144:2 145:0 146:0 147:0 148:3 149:0 150:2 151:0 152:0 153:2 154:2 155:0 156:0 157:0 158:9 159:0 160:0 161:11 162:2 163:0 164:3 165:1 166:0 167:0 168:0 169:1 170:2 171:0 172:4 173:0 174:0 175:0 176:0 177:0 178:0 179:0 180:2 181:0 182:0 183:6 184:0 185:0 186:0 187:0 188:0 189:0 190:1 191:1 192:0 193:0 194:3 195:0 196:0 197:2 198:0 199:0 200:0 201:0 202:6 203:4 204:0 205:0 206:7 207:2 208:0 209:3 210:0 211:0 212:2 213:0 214:1 215:0 216:1 217:4 218:0 219:0 220:1 221:0 222:0 223:0 224:0 225:0 226:4 227:9 228:0 229:1 230:3 231:0 232:0 233:0 234:0 235:2 236:0 237:0 238:2 239:0 240:1 241:0 242:0 243:0 244:1 245:1 246:0 247:4 248:0 249:3 250:0 251:6 252:3 253:0 254:2 255:6 256:0 257:0 258:2 259:3 260:0 261:0 262:0 263:0 264:1 265:0 266:1 267:0 268:0 269:0 270:3 271:3 272:0 273:1 274:0 275:0 276:0 277:0 278:0 279:0 280:2 281:3 282:1 283:0 284:0 285:0 286:0 287:1 288:0 289:2 290:0 291:0 292:0 293:4 294:0 295:0 296:0 297:2 298:0 299:0 300:3 301:1 302:0 303:4 304:0 305:0 306:0 307:0 308:0 309:0 310:0 311:0 312:2 313:0 314:2 315:4 316:3 317:0 318:0 319:0 320:4 321:1 322:0 323:0 324:4 325:0 326:0 327:0 328:0 329:0 330:0 331:0 332:1 333:0 334:0 335:0 336:2 337:0 338:0 339:1 340:3 341:0 342:0 343:1 344:2 345:4 346:0 347:0 348:0 349:1 350:1 351:0 352:0 353:2 354:0 355:0 356:0 357:0 358:4 359:0 360:1 361:1 362:3 363:3 364:0 365:0 366:0 367:2 368:0 369:1 370:2 371:1 372:0 373:0 374:0 375:1 376:0 377:1 378:0 379:0 380:6 381:0 382:0 383:0 384:6 385:0 386:0 387:0 388:0 389:2 390:1 391:0 392:1 393:0 394:0 395:2 396:0 397:0 398:1 399:1 400:1 401:2 402:0 403:0 404:1 405:5 406:0 407:0 408:0 409:0 410:2 411:0 412:0 413:0 414:2 415:0 416:1 417:0 418:0 419:1 420:1 421:0 422:1 423:0 424:3 425:1 426:1 427:0 428:0 429:4 430:1 431:0 432:0 433:1 434:0 435:1 436:2 437:0 438:2 439:0 440:0 441:1 442:0 443:0 444:0 445:0 446:1 447:3 448:0 449:0 450:3 451:0 452:1 453:0 454:1 455:1 456:0 457:1 458:1 459:2 460:0 461:1 462:0 463:0 464:0 465:1 466:0 467:0 468:2 469:2 470:1 471:2 472:1 473:0 474:1 475:0 476:1 477:3 478:0 479:1 480:2 481:0 482:0 483:0 484:0 485:0 486:0 487:0 
0.001309351928471472 0 0 0.00113102770851411 1:123.7437 2:74.081481 3:200 4:255 5:3 6:2 7:6 8:8 9:0 10:0 11:2 12:0 13:0 14:0 15:0 16:1 17:0 18:0 19:1 20:0 21:0 22:1 23:0 24:1 25:0 26:0 27:0 28:0 29:0 30:0 31:0 32:2 33:0 34:0 35:2 36:0 37:0 38:1 39:0 40:1 41:0 42:2 43:0 44:1 45:0 46:0 47:0 48:4 49:2 50:0 51:2 52:2 53:0 54:5 55:0 56:0 57:0 58:0 59:3 60:0 61:2 62:3 63:2 64:0 65:0 66:0 67:1 68:0 69:0 70:7 71:7 72:0 73:0 74:0 75:2 76:5 77:5 78:0 79:2 80:0 81:0 82:2 83:0 84:0 85:0 86:2 87:2 88:0 89:1 90:0 91:1 92:0 93:0 94:4 95:2 96:0 97:0 98:9 99:7 100:0 101:0 102:0 103:0 104:0 105:3 106:0 107:0 108:0 109:0 110:0 111:1 112:0 113:1 114:22 115:5 116:0 117:0 118:0 119:2 120:1 121:0 122:0 123:0 124:3 125:0 126:4 127:0 128:0 129:1 130:0 131:0 132:0 133:0 134:0 135:0 136:0 137:0 138:6 139:2 140:0 141:1 142:0 143:2 144:3 145:0 146:0 147:0 148:1 149:0 150:1 151:0 152:0 153:0 154:0 155:0 156:0 157:1 158:0 159:3 160:3 161:3 162:0 163:3 164:4 165:0 166:1 167:0 168:0 169:0 170:0 171:0 172:0 173:3 174:0 175:0 176:0 177:2 178:0 179:2 180:0 181:0 182:0 183:0 184:3 185:9 186:0 187:0 188:2 189:1 190:1 191:0 192:0 193:2 194:3 195:0 196:0 197:0 198:2 199:0 200:0 201:1 202:0 203:0 204:4 205:7 206:4 207:0 208:0 209:1 210:2 211:0 212:0 213:0 214:1 215:3 216:2 217:1 218:1 219:0 220:0 221:0 222:0 223:1 224:1 225:4 226:0 227:1 228:0 229:1 230:0 231:0 232:2 233:0 234:3 235:0 236:0 237:0 238:4 239:2 240:0 241:0 242:0 243:1 244:2 245:0 246:2 247:0 248:0 249:5 250:0 251:0 252:0 253:4 254:0 255:1 256:3 257:2 258:0 259:3 260:1 261:0 262:1 263:0 264:0 265:2 266:0 267:0 268:5 269:0 270:0 271:0 272:0 273:0 274:1 275:0 276:0 277:0 278:0 279:4 280:2 281:0 282:1 283:1 284:0 285:0 286:1 287:1 288:0 289:0 290:0 291:0 292:0 293:0 294:2 295:0 296:1 297:0 298:0 299:3 300:1 301:3 302:3 303:0 304:3 305:0 306:0 307:0 308:0 309:0 310:0 311:0 312:0 313:5 314:3 315:2 316:0 317:0 318:0 319:0 320:3 321:2 322:0 323:2 324:4 325:0 326:0 327:0 328:2 329:1 330:4 331:0 332:0 333:0 334:1 335:0 336:3 337:0 338:4 339:0 340:1 341:2 342:0 343:0 344:0 345:1 346:2 347:0 348:0 349:0 350:1 351:3 352:0 353:0 354:0 355:0 356:0 357:0 358:6 359:0 360:1 361:0 362:0 363:0 364:0 365:2 366:0 367:0 368:1 369:0 370:0 371:0 372:1 373:0 374:0 375:0 376:0 377:0 378:0 379:1 380:0 381:1 382:2 383:0 384:0 385:1 386:0 387:0 388:0 389:3 390:1 391:2 392:0 393:0 394:1 395:1 396:0 397:2 398:0 399:1 400:2 401:4 402:0 403:0 404:4 405:0 406:0 407:0 408:2 409:2 410:4 411:0 412:0 413:0 414:1 415:1 416:1 417:0 418:0 419:0 420:0 421:0 422:1 423:1 424:1 425:0 426:2 427:3 428:0 429:2 430:3 431:0 432:0 433:0 434:0 435:0 436:2 437:0 438:0 439:0 440:0 441:0 442:0 443:0 444:5 445:1 446:0 447:0 448:5 449:3 450:7 451:0 452:0 453:0 454:0 455:1 456:0 457:0 458:0 459:1 460:0 461:0 462:1 463:0 464:0 465:1 466:3 467:0 468:3 469:2 470:0 471:0 472:3 473:0 474:0 475:0 476:0 477:2 478:1 479:2 480:0 481:0 482:0 483:0 484:0 485:0 486:0 487:1 
0.0001093911087734956 0 0 0 1:128.03753 2:75.914074 3:200 4:255 5:0 6:0 7:7 8:4 9:1 10:3 11:0 12:0 13:3 14:5 15:0 16:0 17:0 18:0 19:0 20:0 21:0 22:0 23:3 24:2 25:1 26:6 27:4 28:2 29:5 30:0 31:0 32:4 33:8 34:1 35:1 36:0 37:0 38:3 39:0 40:0 41:2 42:2 43:4 44:0 45:0 46:0 47:0 48:14 49:2 50:0 51:0 52:0 53:11 54:0 55:0 56:2 57:0 58:0 59:0 60:0 61:0 62:2 63:1 64:0 65:1 66:2 67:5 68:1 69:0 70:0 71:0 72:0 73:1 74:9 75:6 76:0 77:3 78:3 79:0 80:0 81:0 82:0 83:0 84:0 85:0 86:0 87:2 88:0 89:0 90:0 91:3 92:2 93:5 94:0 95:0 96:1 97:0 98:2 99:0 100:0 101:3 102:2 103:0 104:0 105:3 106:2 107:1 108:1 109:0 110:0 111:4 112:1 113:0 114:0 115:9 116:2 117:0 118:0 119:1 120:0 121:0 122:0 123:0 124:0 125:2 126:3 127:1 128:0 129:0 130:2 131:2 132:1 133:0 134:1 135:0 136:0 137:0 138:0 139:0 140:0 141:0 142:0 143:0 144:0 145:0 146:5 147:2 148:1 149:1 150:6 151:4 152:4 153:0 154:0 155:2 156:0 157:0 158:0 159:0 160:5 161:2 162:0 163:0 164:0 165:0 166:0 167:3 168:2 169:3 170:0 171:0 172:3 173:1 174:3 175:0 176:1 177:0 178:1 179:0 180:2 181:5 182:0 183:5 184:0 185:0 186:0 187:0 188:2 189:0 190:0 191:0 192:0 193:2 194:0 195:0 196:0 197:0 198:0 199:1 200:0 201:0 202:3 203:0 204:5 205:0 206:2 207:1 208:0 209:3 210:0 211:0 212:0 213:0 214:2 215:0 216:0 217:1 218:0 219:0 220:2 221:0 222:2 223:2 224:2 225:3 226:8 227:0 228:0 229:0 230:0 231:0 232:0 233:0 234:0 235:0 236:0 237:1 238:7 239:0 240:0 241:0 242:1 243:1 244:0 245:3 246:0 247:2 248:0 249:0 250:0 251:0 252:0 253:0 254:1 255:0 256:0 257:4 258:0 259:0 260:0 261:0 262:0 263:0 264:1 265:0 266:0 267:0 268:0 269:0 270:0 271:0 272:0 273:0 274:2 275:0 276:0 277:0 278:3 279:1 280:1 281:2 282:0 283:0 284:2 285:2 286:0 287:0 288:1 289:0 290:4 291:6 292:1 293:0 294:1 295:0 296:3 297:0 298:0 299:0 300:2 301:0 302:1 303:0 304:0 305:1 306:1 307:0 308:0 309:1 310:0 311:0 312:6 313:0 314:0 315:2 316:6 317:0 318:0 319:0 320:0 321:0 322:0 323:0 324:2 325:1 326:0 327:1 328:1 329:2 330:1 331:0 332:0 333:0 334:0 335:0 336:1 337:3 338:3 339:5 340:0 341:0 342:2 343:2 344:1 345:1 346:0 347:0 348:1 349:0 350:0 351:0 352:0 353:1 354:0 355:2 356:0 357:0 358:0 359:0 360:1 361:0 362:3 363:0 364:0 365:2 366:0 367:0 368:0 369:1 370:1 371:0 372:0 373:0 374:2 375:0 376:0 377:2 378:0 379:0 380:0 381:2 382:0 383:3 384:0 385:1 386:0 387:0 388:2 389:3 390:2 391:2 392:0 393:0 394:0 395:1 396:1 397:2 398:1 399:0 400:0 401:0 402:0 403:0 404:0 405:2 406:3 407:2 408:0 409:1 410:0 411:0 412:1 413:1 414:0 415:0 416:2 417:2 418:0 419:0 420:1 421:0 422:0 423:0 424:0 425:3 426:1 427:0 428:0 429:0 430:3 431:3 432:2 433:1 434:0 435:0 436:1 437:0 438:1 439:0 440:0 441:2 442:0 443:1 444:3 445:0 446:4 447:2 448:0 449:1 450:0 451:2 452:0 453:0 454:0 455:0 456:0 457:0 458:0 459:0 460:0 461:1 462:1 463:0 464:0 465:0 466:1 467:0 468:1 469:0 470:1 471:0 472:0 473:1 474:0 475:0 476:1 477:1 478:0 479:0 480:0 481:1 482:0 483:1 484:1 485:2 486:2 487:0 
0 0 0 0.0008624214033755642 1:125.2879 2:74.293827 3:200 4:255 5:18 6:8 7:0 8:2 9:0 10:0 11:1 12:1 13:0 14:2 15:1 16:0 17:0 18:0 19:1 20:0 21:0 22:1 23:0 24:0 25:0 26:19 27:24 28:0 29:0 30:11 31:0 32:0 33:0 34:0 35:2 36:0 37:0 38:0 39:0 40:1 41:0 42:0 43:1 44:1 45:0 46:0 47:1 48:0 49:0 50:1 51:0 52:0 53:2 54:0 55:0 56:1 57:0 58:0 59:0 60:1 61:3 62:0 63:4 64:0 65:0 66:1 67:0 68:0 69:0 70:0 71:0 72:3 73:1 74:0 75:0 76:4 77:0 78:1 79:2 80:1 81:1 82:2 83:0 84:3 85:0 86:0 87:0 88:1 89:1 90:0 91:1 92:9 93:5 94:0 95:2 96:0 97:0 98:1 99:0 100:0 101:2 102:0 103:0 104:1 105:0 106:0 107:1 108:0 109:2 110:0 111:0 112:0 113:1 114:0 115:0 116:0 117:0 118:0 119:0 120:4 121:2 122:1 123:0 124:0 125:0 126:1 127:0 128:0 129:3 130:0 131:0 132:0 133:1 134:0 135:1 136:0 137:4 138:0 139:5 140:0 141:8 142:0 143:0 144:2 145:0 146:0 147:0 148:1 149:0 150:0 151:0 152:2 153:0 154:0 155:0 156:0 157:0 158:0 159:0 160:0 161:0 162:0 163:2 164:0 165:0 166:2 167:0 168:0 169:2 170:3 171:0 172:1 173:0 174:1 175:1 176:0 177:1 178:1 179:0 180:2 181:2 182:0 183:0 184:8 185:0 186:8 187:6 188:1 189:0 190:0 191:4 192:0 193:1 194:0 195:0 196:0 197:0 198:0 199:0 200:0 201:0 202:0 203:5 204:0 205:3 206:1 207:0 208:0 209:0 210:2 211:1 212:1 213:0 214:2 215:0 216:0 217:0 218:0 219:0 220:0 221:0 222:0 223:0 224:0 225:1 226:9 227:0 228:0 229:7 230:0 231:5 232:0 233:0 234:0 235:0 236:0 237:0 238:2 239:0 240:0 241:0 242:0 243:0 244:1 245:0 246:0 247:3 248:0 249:0 250:1 251:5 252:0 253:1 254:0 255:0 256:5 257:2 258:0 259:1 260:0 261:0 262:0 263:0 264:1 265:0 266:1 267:0 268:2 269:3 270:2 271:0 272:2 273:0 274:0 275:6 276:1 277:0 278:2 279:0 280:0 281:0 282:1 283:2 284:0 285:0 286:0 287:1 288:0 289:2 290:0 291:0 292:0 293:0 294:0 295:2 296:2 297:0 298:1 299:2 300:0 301:0 302:0 303:0 304:2 305:0 306:1 307:0 308:1 309:0 310:1 311:0 312:1 313:0 314:0 315:2 316:0 317:0 318:0 319:1 320:0 321:1 322:0 323:4 324:0 325:2 326:3 327:0 328:0 329:0 330:0 331:0 332:0 333:0 334:0 335:0 336:0 337:0 338:0 339:0 340:3 341:2 342:0 343:0 344:4 345:0 346:0 347:1 348:0 349:0 350:0 351:1 352:0 353:0 354:2 355:0 356:2 357:1 358:2 359:3 360:0 361:0 362:0 363:3 364:0 365:0 366:0 367:2 368:1 369:3 370:0 371:0 372:2 373:1 374:0 375:1 376:0 377:0 378:2 379:1 380:0 381:1 382:2 383:0 384:3 385:1 386:0 387:0 388:0 389:3 390:0 391:0 392:0 393:0 394:1 395:0 396:0 397:1 398:0 399:1 400:0 401:1 402:3 403:0 404:0 405:0 406:5 407:0 408:0 409:2 410:2 411:0 412:0 413:0 414:1 415:0 416:1 417:0 418:0 419:0 420:0 421:0 422:0 423:0 424:0 425:1 426:0 427:3 428:0 429:2 430:0 431:0 432:1 433:0 434:1 435:2 436:0 437:1 438:0 439:0 440:0 441:0 442:1 443:0 444:0 445:2 446:3 447:3 448:0 449:3 450:0 451:1 452:2 453:1 454:0 455:0 456:0 457:0 458:0 459:1 460:0 461:0 462:0 463:0 464:2 465:0 466:1 467:1 468:0 469:0 470:2 471:0 472:0 473:1 474:0 475:0 476:0 477:0 478:2 479:0 480:1 481:0 482:1 483:0 484:0 485:1 486:0 487:0 
0 0 0 9.136084637625747e-05 1:124.8316 2:74.100247 3:200 4:255 5:13 6:0 7:8 8:3 9:0 10:4 11:3 12:0 13:0 14:1 15:1 16:2 17:0 18:0 19:1 20:1 21:1 22:1 23:0 24:0 25:0 26:0 27:0 28:4 29:0 30:0 31:2 32:0 33:0 34:0 35:1 36:1 37:0 38:1 39:0 40:0 41:0 42:0 43:0 44:0 45:1 46:1 47:0 48:0 49:18 50:0 51:2 52:0 53:0 54:0 55:0 56:12 57:0 58:1 59:0 60:0 61:2 62:3 63:0 64:0 65:0 66:0 67:2 68:2 69:0 70:8 71:0 72:0 73:2 74:1 75:0 76:1 77:0 78:4 79:0 80:0 81:1 82:0 83:1 84:0 85:0 86:2 87:0 88:1 89:0 90:0 91:0 92:0 93:0 94:0 95:0 96:4 97:7 98:0 99:0 100:0 101:0 102:3 103:3 104:1 105:0 106:0 107:2 108:1 109:2 110:0 111:0 112:1 113:0 114:0 115:5 116:0 117:0 118:5 119:0 120:0 121:3 122:2 123:4 124:0 125:1 126:3 127:0 128:0 129:0 130:1 131:0 132:0 133:1 134:1 135:0 136:11 137:0 138:6 139:0 140:1 141:0 142:0 143:0 144:3 145:0 146:0 147:0 148:0 149:0 150:2 151:0 152:0 153:1 154:0 155:1 156:1 157:0 158:0 159:0 160:1 161:0 162:2 163:7 164:2 165:4 166:1 167:0 168:0 169:0 170:0 171:0 172:0 173:0 174:0 175:1 176:1 177:2 178:0 179:0 180:0 181:0 182:3 183:2 184:0 185:1 186:0 187:0 188:1 189:0 190:0 191:4 192:0 193:2 194:0 195:0 196:0 197:1 198:0 199:0 200:0 201:0 202:8 203:0 204:5 205:0 206:0 207:5 208:5 209:2 210:0 211:1 212:4 213:0 214:2 215:0 216:0 217:3 218:0 219:0 220:0 221:0 222:2 223:0 224:0 225:0 226:3 227:0 228:6 229:0 230:1 231:0 232:0 233:2 234:4 235:2 236:0 237:3 238:0 239:0 240:0 241:0 242:0 243:0 244:0 245:0 246:5 247:0 248:3 249:0 250:5 251:5 252:0 253:3 254:0 255:0 256:3 257:3 258:0 259:0 260:0 261:2 262:0 263:2 264:0 265:0 266:0 267:1 268:3 269:0 270:6 271:0 272:0 273:0 274:1 275:0 276:5 277:1 278:0 279:2 280:0 281:0 282:0 283:0 284:0 285:0 286:3 287:2 288:0 289:0 290:4 291:4 292:0 293:1 294:0 295:0 296:0 297:3 298:0 299:0 300:2 301:0 302:0 303:3 304:0 305:2 306:0 307:0 308:0 309:0 310:0 311:0 312:2 313:3 314:0 315:3 316:0 317:0 318:0 319:0 320:0 321:0 322:1 323:4 324:0 325:1 326:0 327:0 328:0 329:3 330:0 331:0 332:1 333:0 334:0 335:0 336:4 337:1 338:0 339:0 340:0 341:0 342:0 343:2 344:3 345:0 346:0 347:0 348:0 349:1 350:0 351:2 352:0 353:1 354:0 355:0 356:0 357:0 358:0 359:0 360:2 361:0 362:0 363:0 364:1 365:5 366:2 367:0 368:1 369:0 370:0 371:1 372:3 373:0 374:0 375:2 376:0 377:1 378:0 379:3 380:0 381:1 382:1 383:2 384:0 385:0 386:4 387:2 388:0 389:1 390:0 391:3 392:1 393:2 394:1 395:1 396:1 397:0 398:0 399:0 400:0 401:0 402:2 403:0 404:0 405:0 406:2 407:0 408:0 409:0 410:0 411:0 412:0 413:0 414:1 415:1 416:0 417:2 418:0 419:0 420:0 421:0 422:0 423:0 424:0 425:4 426:0 427:6 428:0 429:0 430:0 431:0 432:0 433:0 434:2 435:1 436:2 437:0 438:1 439:0 440:0 441:0 442:0 443:0 444:0 445:0 446:2 447:2 448:0 449:2 450:0 451:2 452:0 453:0 454:0 455:0 456:1 457:0 458:1 459:0 460:0 461:1 462:1 463:0 464:0 465:0 466:0 467:0 468:4 469:0 470:0 471:0 472:1 473:1 474:0 475:0 476:2 477:0 478:1 479:0 480:2 481:2 482:1 483:0 484:0 485:1 486:0 487:0 
0 0.0001221225732182611 0 0.001496004475689732 1:124.51259 2:74.409383 3:200 4:255 5:3 6:0 7:0 8:8 9:6 10:4 11:0 12:0 13:0 14:0 15:0 16:0 17:0 18:0 19:0 20:0 21:0 22:0 23:1 24:0 25:0 26:0 27:5 28:11 29:4 30:0 31:7 32:0 33:5 34:2 35:0 36:3 37:0 38:3 39:1 40:0 41:0 42:0 43:2 44:0 45:0 46:0 47:1 48:7 49:6 50:6 51:0 52:0 53:0 54:2 55:3 56:0 57:2 58:0 59:4 60:0 61:0 62:0 63:0 64:0 65:1 66:2 67:0 68:4 69:0 70:0 71:0 72:0 73:11 74:0 75:0 76:0 77:1 78:0 79:0 80:6 81:0 82:0 83:0 84:3 85:0 86:2 87:1 88:3 89:1 90:3 91:2 92:9 93:0 94:0 95:2 96:0 97:4 98:0 99:1 100:0 101:0 102:8 103:0 104:0 105:2 106:0 107:3 108:1 109:0 110:0 111:0 112:1 113:0 114:0 115:0 116:0 117:2 118:5 119:2 120:0 121:0 122:1 123:0 124:6 125:0 126:0 127:0 128:0 129:2 130:0 131:1 132:0 133:0 134:0 135:4 136:0 137:0 138:0 139:4 140:0 141:0 142:0 143:0 144:0 145:0 146:2 147:0 148:0 149:4 150:3 151:2 152:2 153:0 154:2 155:3 156:0 157:0 158:4 159:3 160:0 161:0 162:3 163:0 164:3 165:0 166:0 167:4 168:0 169:0 170:0 171:2 172:0 173:0 174:0 175:1 176:3 177:0 178:2 179:0 180:0 181:0 182:0 183:7 184:9 185:2 186:2 187:1 188:0 189:1 190:2 191:4 192:4 193:0 194:2 195:0 196:0 197:0 198:0 199:0 200:1 201:2 202:0 203:0 204:0 205:0 206:0 207:0 208:0 209:4 210:1 211:1 212:4 213:0 214:0 215:2 216:0 217:0 218:0 219:2 220:0 221:1 222:1 223:0 224:0 225:5 226:0 227:2 228:0 229:0 230:6 231:1 232:3 233:0 234:0 235:0 236:0 237:0 238:3 239:2 240:0 241:1 242:0 243:1 244:0 245:0 246:1 247:0 248:6 249:1 250:1 251:6 252:7 253:0 254:0 255:0 256:0 257:0 258:0 259:0 260:0 261:0 262:1 263:1 264:0 265:0 266:0 267:0 268:2 269:4 270:3 271:0 272:0 273:0 274:2 275:0 276:1 277:0 278:4 279:0 280:0 281:1 282:0 283:0 284:0 285:0 286:0 287:1 288:0 289:0 290:0 291:0 292:0 293:0 294:0 295:0 296:0 297:2 298:3 299:3 300:1 301:0 302:0 303:4 304:0 305:0 306:1 307:0 308:2 309:0 310:0 311:2 312:0 313:3 314:0 315:1 316:0 317:0 318:0 319:3 320:0 321:3 322:0 323:2 324:0 325:0 326:0 327:1 328:0 329:2 330:0 331:0 332:2 333:0 334:5 335:0 336:0 337:0 338:1 339:2 340:2 341:0 342:0 343:2 344:0 345:1 346:0 347:3 348:2 349:0 350:0 351:2 352:0 353:0 354:0 355:0 356:7 357:3 358:0 359:0 360:0 361:1 362:0 363:0 364:0 365:1 366:0 367:1 368:1 369:0 370:1 371:0 372:2 373:0 374:0 375:0 376:0 377:0 378:4 379:1 380:0 381:0 382:1 383:0 384:1 385:2 386:0 387:0 388:1 389:0 390:0 391:2 392:0 393:0 394:1 395:0 396:0 397:0 398:0 399:0 400:0 401:0 402:0 403:5 404:0 405:0 406:0 407:2 408:0 409:1 410:3 411:0 412:0 413:0 414:2 415:0 416:0 417:0 418:0 419:2 420:1 421:0 422:0 423:0 424:3 425:1 426:1 427:0 428:0 429:1 430:0 431:0 432:2 433:2 434:3 435:1 436:0 437:0 438:0 439:2 440:0 441:0 442:1 443:0 444:1 445:0 446:5 447:3 448:0 449:0 450:0 451:0 452:0 453:4 454:0 455:1 456:0 457:1 458:0 459:0 460:0 461:0 462:0 463:2 464:1 465:1 466:0 467:0 468:0 469:8 470:1 471:0 472:0 473:0 474:3 475:0 476:1 477:2 478:0 479:0 480:3 481:0 482:1 483:0 484:0 485:0 486:0 487:0 
0.0006829713866124976 0 0.001019889455783563 0.001803059142591477 1:124.8484 2:74.666173 3:200 4:255 5:0 6:9 7:2 8:4 9:0 10:7 11:0 12:3 13:0 14:0 15:1 16:0 17:0 18:5 19:0 20:2 21:0 22:0 23:0 24:0 25:0 26:0 27:0 28:4 29:0 30:3 31:7 32:5 33:0 34:0 35:0 36:2 37:0 38:0 39:0 40:2 41:0 42:0 43:3 44:1 45:0 46:0 47:1 48:0 49:2 50:0 51:4 52:9 53:0 54:2 55:0 56:0 57:1 58:0 59:0 60:3 61:0 62:3 63:1 64:0 65:0 66:4 67:0 68:0 69:0 70:0 71:1 72:0 73:4 74:5 75:0 76:5 77:4 78:3 79:0 80:0 81:2 82:4 83:1 84:0 85:1 86:0 87:0 88:2 89:0 90:3 91:1 92:5 93:0 94:8 95:0 96:0 97:0 98:0 99:0 100:3 101:0 102:0 103:0 104:3 105:0 106:0 107:0 108:0 109:3 110:0 111:0 112:0 113:0 114:2 115:0 116:1 117:0 118:0 119:3 120:0 121:6 122:2 123:2 124:0 125:2 126:4 127:0 128:1 129:0 130:2 131:0 132:1 133:2 134:0 135:0 136:13 137:0 138:8 139:6 140:0 141:4 142:0 143:1 144:2 145:0 146:4 147:0 148:0 149:1 150:0 151:0 152:0 153:0 154:0 155:4 156:0 157:0 158:8 159:0 160:3 161:0 162:1 163:0 164:0 165:0 166:0 167:2 168:4 169:0 170:3 171:7 172:3 173:0 174:0 175:2 176:1 177:2 178:0 179:2 180:0 181:0 182:2 183:0 184:3 185:4 186:0 187:0 188:0 189:2 190:3 191:5 192:0 193:0 194:0 195:0 196:0 197:1 198:0 199:1 200:0 201:0 202:0 203:0 204:3 205:0 206:0 207:0 208:2 209:1 210:0 211:5 212:1 213:1 214:0 215:1 216:0 217:1 218:0 219:0 220:3 221:1 222:0 223:0 224:0 225:1 226:2 227:0 228:0 229:0 230:3 231:1 232:0 233:0 234:4 235:1 236:0 237:4 238:1 239:1 240:0 241:0 242:2 243:0 244:0 245:1 246:4 247:0 248:0 249:0 250:0 251:1 252:2 253:3 254:0 255:0 256:0 257:0 258:0 259:2 260:0 261:2 262:0 263:1 264:0 265:3 266:2 267:0 268:0 269:0 270:0 271:2 272:5 273:2 274:5 275:0 276:0 277:4 278:5 279:6 280:0 281:0 282:1 283:0 284:5 285:0 286:0 287:1 288:0 289:0 290:4 291:0 292:0 293:4 294:0 295:0 296:3 297:0 298:0 299:1 300:4 301:0 302:2 303:0 304:0 305:1 306:1 307:2 308:0 309:0 310:0 311:0 312:0 313:0 314:0 315:2 316:1 317:0 318:0 319:0 320:0 321:0 322:8 323:0 324:0 325:0 326:0 327:2 328:2 329:0 330:0 331:0 332:2 333:3 334:0 335:0 336:0 337:3 338:0 339:0 340:0 341:0 342:1 343:0 344:0 345:1 346:0 347:2 348:3 349:1 350:1 351:0 352:2 353:0 354:2 355:0 356:0 357:0 358:0 359:1 360:0 361:0 362:0 363:0 364:0 365:1 366:1 367:4 368:0 369:0 370:0 371:3 372:0 373:0 374:0 375:0 376:1 377:0 378:3 379:0 380:0 381:2 382:0 383:2 384:4 385:0 386:1 387:0 388:0 389:0 390:3 391:0 392:2 393:0 394:0 395:0 396:2 397:0 398:0 399:1 400:0 401:0 402:2 403:0 404:0 405:3 406:0 407:1 408:1 409:0 410:1 411:3 412:0 413:0 414:2 415:0 416:0 417:1 418:0 419:0 420:2 421:1 422:0 423:2 424:0 425:0 426:4 427:0 428:0 429:5 430:3 431:0 432:1 433:2 434:0 435:0 436:0 437:1 438:0 439:0 440:0 441:0 442:0 443:0 444:3 445:1 446:5 447:0 448:0 449:3 450:1 451:4 452:0 453:0 454:4 455:0 456:3 457:1 458:0 459:0 460:1 461:0 462:1 463:0 464:0 465:0 466:0 467:3 468:1 469:2 470:0 471:0 472:5 473:0 474:0 475:0 476:1 477:1 478:0 479:1 480:0 481:0 482:0 483:2 484:0 485:0 486:2 487:0 
0 0.003522713592813018 0 0.0009619452181471419 1:124.03012 2:74.356049 3:200 4:255 5:0 6:0 7:0 8:0 9:1 10:2 11:0 12:2 13:1 14:0 15:0 16:0 17:0 18:4 19:0 20:0 21:1 22:0 23:0 24:0 25:0 26:13 27:0 28:7 29:10 30:0 31:0 32:2 33:2 34:3 35:1 36:6 37:0 38:3 39:0 40:0 41:0 42:2 43:0 44:0 45:0 46:0 47:0 48:9 49:17 50:3 51:3 52:0 53:1 54:3 55:0 56:9 57:0 58:0 59:1 60:1 61:2 62:0 63:3 64:0 65:2 66:0 67:0 68:4 69:0 70:3 71:0 72:1 73:0 74:0 75:2 76:0 77:0 78:6 79:0 80:0 81:1 82:0 83:0 84:0 85:2 86:0 87:4 88:0 89:0 90:4 91:0 92:0 93:0 94:0 95:0 96:0 97:1 98:7 99:0 100:1 101:0 102:0 103:0 104:5 105:0 106:1 107:2 108:3 109:1 110:4 111:5 112:0 113:1 114:11 115:8 116:6 117:1 118:2 119:6 120:0 121:0 122:9 123:1 124:3 125:0 126:0 127:0 128:3 129:1 130:0 131:3 132:0 133:0 134:0 135:0 136:1 137:5 138:8 139:1 140:0 141:1 142:5 143:1 144:0 145:0 146:2 147:0 148:4 149:0 150:1 151:0 152:0 153:2 154:0 155:0 156:2 157:0 158:0 159:0 160:0 161:0 162:0 163:0 164:0 165:9 166:0 167:6 168:0 169:6 170:0 171:0 172:0 173:0 174:0 175:0 176:2 177:0 178:0 179:0 180:0 181:5 182:1 183:1 184:1 185:0 186:6 187:4 188:0 189:2 190:0 191:0 192:0 193:0 194:1 195:1 196:0 197:0 198:4 199:4 200:0 201:0 202:0 203:0 204:0 205:0 206:8 207:0 208:3 209:0 210:3 211:0 212:3 213:0 214:3 215:0 216:2 217:0 218:0 219:5 220:0 221:0 222:2 223:1 224:0 225:9 226:0 227:0 228:3 229:0 230:3 231:0 232:8 233:5 234:1 235:0 236:0 237:0 238:1 239:1 240:0 241:0 242:0 243:1 244:1 245:0 246:0 247:0 248:0 249:0 250:0 251:0 252:5 253:1 254:0 255:0 256:3 257:0 258:3 259:3 260:0 261:0 262:2 263:0 264:0 265:3 266:0 267:1 268:3 269:0 270:0 271:4 272:0 273:0 274:0 275:4 276:0 277:8 278:0 279:0 280:3 281:1 282:1 283:0 284:0 285:4 286:0 287:0 288:6 289:0 290:0 291:7 292:9 293:1 294:5 295:5 296:2 297:3 298:0 299:0 300:0 301:2 302:1 303:1 304:0 305:2 306:0 307:1 308:0 309:1 310:0 311:0 312:9 313:0 314:0 315:0 316:1 317:0 318:1 319:3 320:0 321:4 322:3 323:3 324:2 325:2 326:0 327:0 328:0 329:3 330:1 331:2 332:0 333:0 334:0 335:0 336:1 337:0 338:0 339:9 340:0 341:1 342:1 343:3 344:0 345:2 346:1 347:0 348:0 349:0 350:0 351:3 352:0 353:0 354:2 355:0 356:0 357:3 358:0 359:6 360:0 361:0 362:0 363:0 364:0 365:0 366:5 367:0 368:2 369:0 370:0 371:0 372:0 373:1 374:0 375:0 376:0 377:0 378:4 379:0 380:0 381:0 382:4 383:1 384:0 385:0 386:0 387:0 388:0 389:0 390:0 391:0 392:0 393:0 394:0 395:0 396:4 397:0 398:0 399:0 400:0 401:0 402:0 403:0 404:2 405:1 406:1 407:7 408:0 409:0 410:0 411:0 412:0 413:5 414:0 415:0 416:0 417:1 418:3 419:3 420:0 421:1 422:4 423:3 424:5 425:0 426:2 427:0 428:5 429:0 430:1 431:0 432:0 433:2 434:5 435:0 436:3 437:0 438:0 439:0 440:0 441:0 442:0 443:0 444:0 445:0 446:2 447:1 448:4 449:0 450:0 451:0 452:2 453:7 454:2 455:3 456:1 457:0 458:0 459:0 460:0 461:1 462:0 463:0 464:1 465:0 466:0 467:1 468:0 469:3 470:0 471:1 472:6 473:0 474:0 475:0 476:0 477:0 478:0 479:2 480:0 481:0 482:2 483:1 484:2 485:2 486:0 487:0 
0 0.001913100464172966 0 0 1:123.79012 2:74.075062 3:200 4:255 5:5 6:3 7:9 8:1 9:5 10:0 11:1 12:2 13:0 14:5 15:0 16:0 17:2 18:0 19:0 20:0 21:0 22:3 23:0 24:2 25:0 26:0 27:6 28:5 29:9 30:0 31:0 32:0 33:3 34:4 35:0 36:0 37:0 38:1 39:0 40:2 41:0 42:0 43:0 44:0 45:0 46:0 47:1 48:21 49:2 50:1 51:6 52:0 53:4 54:1 55:0 56:5 57:0 58:0 59:0 60:1 61:3 62:0 63:2 64:1 65:0 66:0 67:0 68:1 69:3 70:6 71:0 72:0 73:3 74:3 75:3 76:0 77:0 78:0 79:0 80:3 81:3 82:1 83:5 84:0 85:0 86:0 87:0 88:1 89:0 90:4 91:1 92:15 93:0 94:4 95:0 96:0 97:0 98:0 99:3 100:1 101:0 102:1 103:0 104:4 105:2 106:4 107:1 108:0 109:1 110:2 111:0 112:1 113:0 114:8 115:0 116:0 117:6 118:3 119:0 120:0 121:0 122:1 123:0 124:3 125:3 126:4 127:0 128:5 129:1 130:2 131:2 132:0 133:1 134:0 135:1 136:10 137:3 138:0 139:0 140:0 141:4 142:0 143:0 144:7 145:0 146:0 147:4 148:0 149:1 150:0 151:0 152:0 153:0 154:4 155:0 156:4 157:0 158:0 159:0 160:4 161:0 162:4 163:3 164:1 165:0 166:3 167:0 168:0 169:0 170:0 171:2 172:3 173:1 174:2 175:1 176:0 177:0 178:0 179:0 180:0 181:0 182:4 183:0 184:5 185:3 186:1 187:5 188:0 189:2 190:2 191:1 192:0 193:2 194:0 195:0 196:0 197:1 198:0 199:1 200:3 201:1 202:9 203:5 204:0 205:0 206:0 207:0 208:0 209:0 210:5 211:1 212:2 213:0 214:0 215:3 216:0 217:0 218:0 219:1 220:0 221:3 222:0 223:1 224:0 225:1 226:3 227:2 228:10 229:0 230:0 231:2 232:0 233:0 234:0 235:0 236:0 237:1 238:0 239:3 240:0 241:0 242:1 243:0 244:0 245:0 246:0 247:3 248:3 249:0 250:5 251:0 252:0 253:1 254:3 255:2 256:1 257:5 258:0 259:1 260:0 261:1 262:1 263:0 264:1 265:0 266:0 267:0 268:0 269:0 270:5 271:4 272:0 273:0 274:0 275:1 276:5 277:5 278:2 279:0 280:0 281:0 282:0 283:0 284:0 285:1 286:0 287:1 288:0 289:1 290:5 291:0 292:0 293:0 294:3 295:2 296:0 297:0 298:0 299:0 300:0 301:2 302:4 303:0 304:0 305:3 306:0 307:0 308:1 309:0 310:0 311:0 312:0 313:7 314:4 315:0 316:5 317:0 318:1 319:0 320:5 321:0 322:0 323:4 324:4 325:1 326:4 327:2 328:1 329:2 330:0 331:3 332:0 333:0 334:0 335:6 336:8 337:0 338:3 339:0 340:0 341:0 342:0 343:1 344:0 345:0 346:3 347:0 348:0 349:2 350:0 351:0 352:0 353:0 354:0 355:1 356:2 357:0 358:0 359:0 360:0 361:2 362:8 363:0 364:0 365:0 366:0 367:1 368:0 369:0 370:0 371:0 372:0 373:0 374:3 375:0 376:0 377:1 378:0 379:0 380:0 381:3 382:0 383:0 384:4 385:0 386:0 387:2 388:1 389:0 390:3 391:1 392:3 393:0 394:5 395:0 396:0 397:0 398:0 399:0 400:0 401:0 402:7 403:0 404:0 405:2 406:1 407:0 408:0 409:0 410:6 411:3 412:2 413:0 414:2 415:0 416:0 417:2 418:2 419:2 420:1 421:0 422:4 423:0 424:1 425:0 426:0 427:0 428:4 429:0 430:0 431:1 432:0 433:0 434:0 435:2 436:2 437:1 438:0 439:0 440:0 441:0 442:0 443:0 444:0 445:0 446:5 447:0 448:1 449:3 450:2 451:2 452:0 453:2 454:0 455:0 456:0 457:3 458:0 459:0 460:0 461:0 462:0 463:2 464:2 465:0 466:0 467:2 468:5 469:0 470:6 471:0 472:0 473:6 474:0 475:1 476:0 477:2 478:3 479:3 480:3 481:1 482:0 483:0 484:2 485:0 486:0 487:2 
0.0001252500561524863 0.007063789195544126 0.001461142323907483 0.0006045418295313625 1:126.24938 2:75.416296 3:200 4:255 5:0 6:23 7:0 8:1 9:0 10:0 11:0 12:4 13:0 14:1 15:0 16:0 17:0 18:0 19:0 20:0 21:0 22:2 23:0 24:0 25:0 26:0 27:11 28:0 29:4 30:2 31:5 32:0 33:0 34:0 35:3 36:7 37:2 38:0 39:5 40:2 41:0 42:0 43:0 44:3 45:0 46:1 47:0 48:7 49:7 50:0 51:6 52:3 53:4 54:5 55:1 56:0 57:0 58:3 59:0 60:2 61:2 62:0 63:4 64:3 65:3 66:1 67:0 68:0 69:3 70:0 71:6 72:0 73:0 74:11 75:7 76:0 77:0 78:3 79:8 80:1 81:1 82:0 83:4 84:0 85:0 86:0 87:0 88:0 89:2 90:1 91:0 92:5 93:4 94:1 95:10 96:0 97:7 98:0 99:0 100:2 101:0 102:4 103:5 104:0 105:4 106:1 107:0 108:0 109:0 110:1 111:0 112:0 113:0 114:0 115:0 116:0 117:2 118:0 119:8 120:0 121:0 122:1 123:2 124:2 125:0 126:0 127:4 128:3 129:0 130:1 131:0 132:5 133:3 134:0 135:0 136:0 137:0 138:0 139:0 140:4 141:0 142:0 143:0 144:2 145:0 146:0 147:0 148:2 149:0 150:3 151:1 152:2 153:0 154:0 155:4 156:0 157:0 158:8 159:2 160:4 161:0 162:4 163:3 164:0 165:0 166:0 167:0 168:0 169:0 170:2 171:4 172:0 173:0 174:3 175:0 176:0 177:0 178:0 179:0 180:0 181:9 182:3 183:0 184:0 185:5 186:7 187:2 188:0 189:1 190:0 191:0 192:0 193:3 194:0 195:0 196:0 197:1 198:1 199:0 200:0 201:0 202:0 203:0 204:0 205:0 206:0 207:0 208:0 209:2 210:0 211:0 212:0 213:2 214:0 215:2 216:3 217:0 218:0 219:4 220:0 221:2 222:0 223:0 224:0 225:0 226:9 227:3 228:0 229:0 230:0 231:0 232:0 233:0 234:0 235:0 236:2 237:0 238:0 239:2 240:0 241:0 242:0 243:0 244:0 245:0 246:8 247:1 248:0 249:2 250:0 251:1 252:0 253:0 254:0 255:1 256:2 257:0 258:1 259:0 260:0 261:3 262:3 263:0 264:3 265:1 266:0 267:0 268:0 269:4 270:0 271:2 272:2 273:1 274:2 275:7 276:1 277:0 278:6 279:0 280:0 281:2 282:1 283:0 284:1 285:5 286:0 287:0 288:0 289:0 290:0 291:0 292:3 293:1 294:0 295:1 296:0 297:0 298:4 299:0 300:4 301:0 302:0 303:2 304:4 305:3 306:0 307:0 308:0 309:1 310:0 311:0 312:0 313:5 314:6 315:2 316:3 317:0 318:0 319:0 320:0 321:0 322:0 323:2 324:0 325:5 326:0 327:0 328:0 329:0 330:0 331:0 332:0 333:2 334:4 335:9 336:0 337:0 338:1 339:1 340:0 341:0 342:2 343:0 344:0 345:4 346:0 347:0 348:0 349:1 350:4 351:0 352:0 353:1 354:1 355:1 356:0 357:0 358:0 359:2 360:1 361:0 362:0 363:0 364:0 365:3 366:0 367:0 368:0 369:0 370:0 371:2 372:2 373:0 374:0 375:2 376:0 377:0 378:0 379:2 380:5 381:0 382:1 383:0 384:0 385:0 386:0 387:0 388:0 389:6 390:0 391:0 392:0 393:0 394:0 395:0 396:1 397:1 398:0 399:0 400:2 401:1 402:0 403:4 404:1 405:2 406:1 407:0 408:2 409:2 410:1 411:3 412:0 413:0 414:0 415:0 416:2 417:0 418:2 419:0 420:0 421:0 422:3 423:2 424:5 425:5 426:0 427:0 428:0 429:0 430:1 431:2 432:1 433:0 434:0 435:0 436:0 437:0 438:0 439:1 440:1 441:1 442:0 443:0 444:0 445:0 446:0 447:0 448:0 449:0 450:0 451:0 452:0 453:0 454:0 455:0 456:0 457:1 458:1 459:1 460:1 461:4 462:0 463:4 464:0 465:0 466:0 467:0 468:0 469:0 470:0 471:0 472:0 473:2 474:0 475:1 476:0 477:0 478:3 479:0 480:0 481:0 482:0 483:0 484:0 485:0 486:0 487:1 
0 0 0.004823768228451779 0 1:129.29284 2:76.378765 3:200 4:255 5:0 6:0 7:0 8:0 9:0 10:2 11:0 12:0 13:0 14:0 15:2 16:0 17:2 18:0 19:3 20:2 21:2 22:2 23:3 24:1 25:0 26:0 27:1 28:0 29:4 30:3 31:3 32:1 33:0 34:1 35:0 36:0 37:0 38:0 39:3 40:1 41:0 42:1 43:2 44:0 45:4 46:0 47:1 48:0 49:0 50:0 51:2 52:0 53:0 54:0 55:3 56:2 57:0 58:1 59:0 60:2 61:1 62:2 63:4 64:0 65:1 66:0 67:0 68:0 69:0 70:5 71:0 72:0 73:5 74:2 75:6 76:0 77:1 78:1 79:1 80:1 81:0 82:0 83:0 84:0 85:0 86:0 87:0 88:0 89:0 90:0 91:0 92:0 93:8 94:2 95:7 96:1 97:3 98:0 99:1 100:0 101:0 102:2 103:0 104:0 105:2 106:0 107:0 108:2 109:0 110:2 111:0 112:0 113:1 114:0 115:4 116:0 117:7 118:0 119:1 120:4 121:1 122:1 123:1 124:1 125:0 126:0 127:0 128:0 129:0 130:0 131:0 132:1 133:0 134:0 135:0 136:0 137:7 138:1 139:0 140:2 141:1 142:1 143:2 144:0 145:0 146:0 147:0 148:0 149:0 150:3 151:2 152:0 153:0 154:0 155:0 156:0 157:0 158:3 159:5 160:0 161:0 162:2 163:0 164:3 165:1 166:2 167:0 168:0 169:1 170:0 171:0 172:0 173:0 174:0 175:1 176:3 177:1 178:0 179:0 180:3 181:0 182:0 183:0 184:0 185:0 186:0 187:0 188:3 189:0 190:0 191:0 192:1 193:0 194:1 195:2 196:1 197:3 198:0 199:3 200:1 201:0 202:0 203:0 204:2 205:0 206:0 207:4 208:6 209:0 210:4 211:0 212:0 213:0 214:1 215:0 216:0 217:2 218:0 219:1 220:0 221:3 222:0 223:0 224:4 225:3 226:8 227:1 228:0 229:0 230:3 231:0 232:0 233:0 234:0 235:0 236:0 237:0 238:2 239:0 240:1 241:0 242:0 243:1 244:0 245:0 246:1 247:1 248:5 249:2 250:2 251:0 252:0 253:4 254:0 255:0 256:0 257:2 258:1 259:1 260:2 261:2 262:0 263:1 264:0 265:0 266:0 267:0 268:0 269:3 270:4 271:3 272:0 273:0 274:0 275:0 276:3 277:0 278:1 279:0 280:0 281:0 282:2 283:0 284:0 285:0 286:0 287:1 288:0 289:2 290:0 291:0 292:5 293:2 294:4 295:0 296:0 297:0 298:0 299:1 300:0 301:1 302:2 303:0 304:0 305:2 306:0 307:2 308:0 309:0 310:1 311:0 312:0 313:2 314:0 315:0 316:2 317:0 318:0 319:1 320:1 321:0 322:0 323:1 324:0 325:1 326:0 327:0 328:0 329:0 330:1 331:0 332:0 333:1 334:3 335:0 336:0 337:1 338:0 339:0 340:0 341:0 342:1 343:0 344:0 345:0 346:0 347:0 348:2 349:0 350:0 351:0 352:1 353:0 354:1 355:3 356:0 357:0 358:0 359:0 360:0 361:1 362:0 363:2 364:1 365:0 366:0 367:0 368:3 369:0 370:1 371:0 372:1 373:2 374:0 375:0 376:0 377:0 378:0 379:0 380:3 381:3 382:0 383:0 384:3 385:1 386:0 387:0 388:2 389:0 390:1 391:1 392:0 393:0 394:0 395:0 396:0 397:0 398:1 399:1 400:2 401:0 402:0 403:0 404:3 405:2 406:1 407:0 408:0 409:2 410:1 411:0 412:0 413:1 414:0 415:2 416:1 417:0 418:0 419:0 420:0 421:0 422:0 423:0 424:1 425:0 426:2 427:0 428:0 429:0 430:1 431:0 432:0 433:0 434:0 435:0 436:0 437:0 438:0 439:0 440:0 441:0 442:1 443:0 444:0 445:0 446:0 447:2 448:0 449:2 450:0 451:2 452:0 453:0 454:1 455:0 456:0 457:0 458:0 459:0 460:2 461:1 462:0 463:0 464:0 465:0 466:0 467:0 468:0 469:0 470:0 471:0 472:0 473:0 474:0 475:1 476:2 477:1 478:0 479:0 480:0 481:0 482:0 483:1 484:1 485:0 486:0 487:1 
0 0 0.0005218056994761454 0 1:128.38914 2:76.037531 3:200 4:255 5:0 6:0 7:0 8:0 9:0 10:0 11:0 12:0 13:0 14:1 15:7 16:5 17:1 18:1 19:0 20:0 21:5 22:1 23:0 24:0 25:0 26:0 27:0 28:8 29:0 30:0 31:0 32:4 33:3 34:0 35:0 36:0 37:0 38:0 39:0 40:0 41:2 42:0 43:0 44:0 45:1 46:3 47:1 48:0 49:0 50:0 51:0 52:0 53:1 54:8 55:0 56:1 57:0 58:6 59:2 60:0 61:0 62:0 63:0 64:1 65:0 66:1 67:1 68:2 69:1 70:3 71:0 72:2 73:3 74:5 75:5 76:3 77:0 78:0 79:1 80:0 81:1 82:0 83:0 84:0 85:0 86:2 87:4 88:1 89:0 90:0 91:0 92:4 93:0 94:7 95:0 96:4 97:0 98:0 99:0 100:0 101:1 102:0 103:0 104:1 105:1 106:3 107:4 108:0 109:0 110:0 111:0 112:1 113:0 114:0 115:0 116:3 117:2 118:8 119:0 120:0 121:0 122:1 123:3 124:1 125:1 126:0 127:0 128:0 129:0 130:0 131:0 132:1 133:3 134:1 135:0 136:0 137:2 138:0 139:1 140:0 141:0 142:3 143:4 144:1 145:2 146:0 147:0 148:0 149:0 150:2 151:0 152:0 153:0 154:0 155:0 156:0 157:2 158:3 159:1 160:0 161:4 162:4 163:3 164:0 165:0 166:0 167:0 168:0 169:2 170:1 171:2 172:6 173:3 174:0 175:0 176:0 177:0 178:0 179:0 180:0 181:0 182:0 183:3 184:0 185:0 186:2 187:1 188:0 189:1 190:0 191:0 192:0 193:0 194:4 195:0 196:2 197:0 198:0 199:2 200:1 201:1 202:0 203:0 204:0 205:0 206:6 207:0 208:0 209:0 210:0 211:1 212:2 213:0 214:0 215:3 216:4 217:0 218:0 219:1 220:0 221:1 222:0 223:3 224:0 225:1 226:3 227:0 228:3 229:0 230:2 231:0 232:0 233:2 234:0 235:0 236:2 237:5 238:3 239:2 240:1 241:1 242:0 243:0 244:0 245:1 246:0 247:0 248:3 249:0 250:0 251:0 252:0 253:0 254:2 255:1 256:0 257:0 258:0 259:1 260:1 261:0 262:0 263:2 264:0 265:0 266:0 267:0 268:0 269:0 270:0 271:0 272:0 273:1 274:1 275:0 276:2 277:2 278:0 279:0 280:0 281:0 282:0 283:0 284:0 285:0 286:0 287:1 288:3 289:0 290:3 291:0 292:2 293:1 294:0 295:2 296:0 297:0 298:0 299:0 300:0 301:0 302:2 303:3 304:2 305:4 306:0 307:1 308:2 309:0 310:3 311:0 312:0 313:0 314:2 315:0 316:6 317:0 318:1 319:1 320:0 321:2 322:0 323:0 324:0 325:1 326:0 327:0 328:0 329:1 330:0 331:0 332:0 333:0 334:0 335:0 336:5 337:2 338:0 339:4 340:1 341:0 342:0 343:0 344:0 345:0 346:2 347:0 348:2 349:2 350:1 351:2 352:0 353:3 354:0 355:1 356:0 357:1 358:0 359:3 360:0 361:2 362:4 363:0 364:0 365:0 366:0 367:0 368:0 369:3 370:0 371:2 372:1 373:0 374:0 375:0 376:0 377:0 378:2 379:2 380:1 381:0 382:2 383:0 384:0 385:0 386:0 387:0 388:0 389:0 390:0 391:0 392:0 393:1 394:1 395:0 396:2 397:0 398:0 399:0 400:0 401:2 402:0 403:2 404:2 405:0 406:2 407:1 408:2 409:0 410:0 411:0 412:0 413:0 414:0 415:0 416:0 417:0 418:0 419:0 420:0 421:0 422:0 423:2 424:0 425:2 426:3 427:0 428:3 429:2 430:0 431:0 432:0 433:0 434:0 435:0 436:0 437:0 438:0 439:0 440:0 441:3 442:1 443:0 444:1 445:1 446:3 447:2 448:0 449:2 450:2 451:0 452:1 453:0 454:0 455:0 456:0 457:0 458:0 459:0 460:0 461:0 462:1 463:0 464:0 465:0 466:0 467:0 468:0 469:0 470:0 471:1 472:0 473:0 474:0 475:0 476:0 477:1 478:0 479:1 480:0 481:2 482:2 483:1 484:0 485:0 486:0 487:0 
0.0006341841335648713 0 0 0.0005355551410298268 1:123.5121 2:74.028642 3:200 4:255 5:0 6:0 7:1 8:0 9:1 10:0 11:2 12:0 13:0 14:4 15:2 16:1 17:4 18:0 19:3 20:0 21:0 22:0 23:0 24:0 25:0 26:0 27:0 28:0 29:0 30:0 31:0 32:0 33:2 34:3 35:0 36:2 37:2 38:0 39:0 40:2 41:0 42:0 43:0 44:1 45:2 46:0 47:0 48:0 49:4 50:1 51:0 52:3 53:0 54:0 55:1 56:0 57:1 58:5 59:0 60:3 61:0 62:4 63:0 64:2 65:0 66:0 67:0 68:0 69:1 70:0 71:0 72:6 73:11 74:0 75:5 76:2 77:0 78:0 79:4 80:0 81:0 82:0 83:2 84:0 85:2 86:1 87:1 88:1 89:0 90:0 91:0 92:0 93:4 94:0 95:0 96:1 97:5 98:1 99:0 100:2 101:0 102:1 103:0 104:0 105:1 106:0 107:3 108:2 109:2 110:3 111:4 112:1 113:0 114:0 115:0 116:2 117:1 118:7 119:0 120:0 121:5 122:0 123:3 124:0 125:2 126:0 127:0 128:0 129:5 130:1 131:0 132:0 133:1 134:1 135:0 136:8 137:0 138:0 139:0 140:0 141:8 142:5 143:0 144:3 145:0 146:0 147:0 148:0 149:0 150:1 151:0 152:0 153:2 154:2 155:0 156:0 157:1 158:0 159:4 160:4 161:0 162:3 163:0 164:0 165:0 166:10 167:7 168:4 169:2 170:1 171:0 172:0 173:0 174:1 175:0 176:0 177:0 178:0 179:0 180:5 181:0 182:0 183:4 184:0 185:2 186:2 187:8 188:2 189:6 190:2 191:0 192:0 193:0 194:0 195:2 196:0 197:0 198:0 199:2 200:1 201:0 202:0 203:0 204:0 205:8 206:0 207:0 208:5 209:7 210:2 211:2 212:0 213:1 214:0 215:0 216:0 217:2 218:0 219:0 220:0 221:0 222:0 223:0 224:5 225:0 226:0 227:1 228:1 229:0 230:0 231:0 232:1 233:1 234:2 235:0 236:0 237:2 238:1 239:0 240:1 241:0 242:0 243:2 244:0 245:2 246:0 247:0 248:5 249:0 250:0 251:3 252:0 253:2 254:0 255:2 256:0 257:0 258:0 259:0 260:1 261:0 262:1 263:0 264:0 265:0 266:2 267:4 268:0 269:0 270:0 271:10 272:0 273:0 274:0 275:4 276:1 277:0 278:0 279:4 280:4 281:6 282:0 283:0 284:1 285:2 286:0 287:0 288:0 289:0 290:0 291:0 292:4 293:0 294:0 295:0 296:0 297:1 298:3 299:0 300:3 301:0 302:0 303:0 304:0 305:0 306:0 307:6 308:4 309:0 310:1 311:0 312:0 313:0 314:7 315:2 316:1 317:0 318:0 319:0 320:0 321:0 322:0 323:6 324:1 325:0 326:3 327:0 328:0 329:2 330:0 331:0 332:1 333:1 334:2 335:0 336:1 337:0 338:0 339:1 340:3 341:0 342:0 343:0 344:0 345:1 346:0 347:2 348:0 349:0 350:0 351:4 352:2 353:0 354:0 355:0 356:0 357:0 358:1 359:0 360:6 361:4 362:0 363:0 364:0 365:0 366:1 367:0 368:0 369:0 370:0 371:3 372:0 373:3 374:0 375:2 376:2 377:0 378:0 379:4 380:3 381:0 382:0 383:3 384:0 385:5 386:0 387:1 388:1 389:0 390:2 391:2 392:0 393:3 394:0 395:0 396:0 397:0 398:0 399:0 400:3 401:0 402:3 403:0 404:5 405:3 406:0 407:0 408:5 409:0 410:1 411:3 412:0 413:0 414:0 415:0 416:0 417:0 418:0 419:1 420:0 421:0 422:1 423:6 424:0 425:0 426:2 427:2 428:8 429:0 430:0 431:0 432:3 433:3 434:0 435:0 436:1 437:0 438:0 439:0 440:0 441:0 442:0 443:1 444:6 445:0 446:3 447:0 448:2 449:2 450:0 451:7 452:0 453:0 454:0 455:0 456:0 457:4 458:0 459:0 460:0 461:0 462:0 463:0 464:0 465:0 466:0 467:0 468:5 469:0 470:1 471:2 472:2 473:0 474:1 475:4 476:1 477:0 478:1 479:0 480:0 481:0 482:2 483:0 484:0 485:2 486:0 487:0 
0 0.002298292073488318 0 0.002221684188002903 1:124.5358 2:74.186173 3:200 4:255 5:9 6:6 7:0 8:3 9:1 10:0 11:0 12:8 13:0 14:0 15:2 16:0 17:0 18:0 19:0 20:1 21:3 22:2 23:0 24:0 25:0 26:28 27:22 28:2 29:5 30:0 31:0 32:1 33:0 34:2 35:1 36:0 37:0 38:3 39:0 40:0 41:0 42:0 43:6 44:0 45:0 46:0 47:0 48:12 49:0 50:6 51:0 52:0 53:12 54:7 55:3 56:0 57:5 58:3 59:2 60:0 61:0 62:0 63:5 64:0 65:0 66:0 67:0 68:0 69:0 70:5 71:0 72:8 73:0 74:0 75:2 76:0 77:0 78:6 79:4 80:2 81:0 82:0 83:1 84:1 85:0 86:0 87:0 88:2 89:0 90:1 91:0 92:0 93:0 94:3 95:5 96:0 97:2 98:0 99:0 100:2 101:0 102:1 103:0 104:0 105:2 106:3 107:0 108:1 109:0 110:2 111:1 112:0 113:0 114:0 115:2 116:1 117:0 118:5 119:0 120:0 121:3 122:1 123:0 124:0 125:1 126:0 127:5 128:0 129:0 130:3 131:0 132:2 133:0 134:0 135:2 136:5 137:8 138:1 139:3 140:0 141:0 142:0 143:0 144:1 145:2 146:3 147:0 148:4 149:2 150:0 151:1 152:0 153:0 154:0 155:0 156:0 157:0 158:0 159:0 160:0 161:0 162:6 163:1 164:5 165:4 166:0 167:0 168:2 169:0 170:2 171:7 172:0 173:3 174:0 175:0 176:0 177:1 178:1 179:1 180:5 181:9 182:0 183:1 184:4 185:0 186:0 187:2 188:1 189:0 190:0 191:0 192:0 193:0 194:0 195:0 196:0 197:0 198:0 199:1 200:2 201:0 202:0 203:0 204:1 205:2 206:0 207:2 208:1 209:5 210:0 211:1 212:0 213:0 214:2 215:0 216:1 217:1 218:0 219:0 220:0 221:1 222:0 223:0 224:3 225:0 226:6 227:1 228:0 229:4 230:0 231:0 232:0 233:3 234:0 235:0 236:0 237:1 238:0 239:0 240:0 241:0 242:2 243:0 244:0 245:2 246:0 247:0 248:0 249:0 250:0 251:0 252:2 253:0 254:4 255:0 256:2 257:3 258:0 259:1 260:0 261:0 262:0 263:3 264:1 265:1 266:1 267:0 268:1 269:3 270:0 271:0 272:2 273:0 274:1 275:0 276:0 277:1 278:0 279:0 280:0 281:1 282:4 283:3 284:1 285:1 286:0 287:1 288:1 289:0 290:0 291:0 292:7 293:0 294:0 295:9 296:0 297:1 298:0 299:0 300:1 301:6 302:0 303:0 304:0 305:0 306:0 307:0 308:1 309:0 310:0 311:0 312:0 313:1 314:0 315:1 316:0 317:0 318:0 319:1 320:0 321:2 322:0 323:0 324:3 325:0 326:0 327:0 328:1 329:0 330:0 331:0 332:0 333:1 334:2 335:1 336:0 337:4 338:3 339:0 340:0 341:1 342:0 343:0 344:0 345:5 346:0 347:0 348:0 349:0 350:0 351:0 352:0 353:0 354:0 355:0 356:0 357:0 358:0 359:3 360:0 361:7 362:2 363:0 364:1 365:1 366:0 367:1 368:0 369:0 370:0 371:1 372:2 373:5 374:0 375:0 376:0 377:1 378:4 379:2 380:0 381:0 382:0 383:0 384:0 385:0 386:0 387:0 388:2 389:0 390:0 391:0 392:0 393:3 394:0 395:0 396:0 397:3 398:0 399:1 400:0 401:0 402:0 403:0 404:3 405:3 406:0 407:2 408:0 409:1 410:0 411:0 412:3 413:0 414:0 415:0 416:1 417:1 418:0 419:0 420:1 421:1 422:5 423:2 424:0 425:0 426:0 427:1 428:0 429:0 430:0 431:4 432:1 433:0 434:0 435:0 436:1 437:0 438:1 439:0 440:0 441:1 442:0 443:0 444:0 445:0 446:0 447:2 448:0 449:0 450:0 451:0 452:0 453:1 454:0 455:0 456:0 457:4 458:0 459:0 460:1 461:0 462:1 463:0 464:0 465:1 466:0 467:2 468:1 469:0 470:0 471:3 472:0 473:1 474:0 475:0 476:1 477:2 478:1 479:0 480:3 481:2 482:0 483:0 484:0 485:0 486:1 487:0 
0.0004785169961696242 0.004294539561322642 0 8.799211574426979e-05 1:123.85728 2:74.266667 3:200 4:255 5:0 6:0 7:0 8:0 9:4 10:0 11:0 12:0 13:0 14:6 15:6 16:5 17:9 18:0 19:1 20:3 21:0 22:1 23:2 24:2 25:2 26:0 27:0 28:0 29:5 30:3 31:0 32:0 33:0 34:5 35:2 36:0 37:0 38:2 39:2 40:0 41:9 42:0 43:1 44:0 45:2 46:0 47:0 48:6 49:5 50:3 51:0 52:0 53:6 54:0 55:0 56:0 57:3 58:0 59:0 60:0 61:0 62:2 63:0 64:0 65:1 66:0 67:1 68:3 69:0 70:0 71:9 72:0 73:8 74:3 75:0 76:4 77:0 78:0 79:2 80:0 81:0 82:0 83:3 84:0 85:0 86:1 87:0 88:0 89:0 90:0 91:0 92:12 93:7 94:7 95:0 96:0 97:0 98:0 99:0 100:0 101:0 102:0 103:0 104:3 105:0 106:0 107:1 108:0 109:2 110:6 111:1 112:1 113:0 114:14 115:9 116:3 117:3 118:0 119:0 120:0 121:2 122:0 123:4 124:0 125:0 126:1 127:2 128:0 129:0 130:3 131:0 132:2 133:0 134:0 135:2 136:0 137:1 138:7 139:4 140:0 141:0 142:0 143:0 144:0 145:2 146:4 147:3 148:0 149:0 150:1 151:4 152:0 153:0 154:2 155:0 156:0 157:1 158:0 159:0 160:0 161:0 162:2 163:0 164:3 165:5 166:0 167:7 168:4 169:0 170:0 171:0 172:0 173:2 174:1 175:3 176:5 177:3 178:0 179:0 180:4 181:0 182:2 183:0 184:0 185:0 186:2 187:7 188:6 189:0 190:0 191:0 192:0 193:2 194:1 195:0 196:3 197:2 198:0 199:0 200:0 201:0 202:0 203:0 204:0 205:0 206:0 207:3 208:4 209:0 210:1 211:0 212:0 213:2 214:2 215:0 216:0 217:0 218:0 219:2 220:0 221:1 222:4 223:0 224:3 225:0 226:0 227:0 228:2 229:1 230:2 231:0 232:0 233:11 234:3 235:6 236:0 237:0 238:2 239:2 240:0 241:3 242:0 243:1 244:0 245:0 246:0 247:0 248:2 249:4 250:0 251:0 252:5 253:10 254:3 255:0 256:1 257:0 258:0 259:0 260:0 261:2 262:0 263:0 264:2 265:0 266:0 267:0 268:9 269:0 270:5 271:3 272:8 273:0 274:0 275:0 276:0 277:0 278:1 279:6 280:0 281:4 282:0 283:0 284:2 285:0 286:4 287:1 288:0 289:1 290:0 291:12 292:6 293:0 294:7 295:0 296:0 297:0 298:1 299:0 300:1 301:1 302:2 303:0 304:0 305:0 306:3 307:0 308:0 309:0 310:0 311:0 312:5 313:2 314:5 315:4 316:0 317:0 318:1 319:0 320:0 321:5 322:3 323:2 324:0 325:3 326:0 327:0 328:0 329:1 330:0 331:2 332:1 333:0 334:9 335:0 336:0 337:0 338:3 339:0 340:5 341:0 342:2 343:1 344:0 345:0 346:0 347:0 348:0 349:2 350:0 351:2 352:0 353:0 354:2 355:0 356:0 357:0 358:0 359:0 360:4 361:0 362:0 363:0 364:0 365:0 366:1 367:1 368:2 369:0 370:0 371:2 372:1 373:0 374:0 375:2 376:0 377:2 378:2 379:0 380:1 381:0 382:6 383:4 384:5 385:0 386:0 387:0 388:3 389:0 390:0 391:0 392:0 393:0 394:0 395:1 396:0 397:1 398:1 399:0 400:0 401:6 402:0 403:0 404:4 405:3 406:4 407:0 408:0 409:0 410:0 411:2 412:0 413:0 414:0 415:1 416:0 417:1 418:0 419:0 420:0 421:0 422:10 423:6 424:5 425:0 426:0 427:5 428:2 429:0 430:0 431:0 432:2 433:2 434:0 435:1 436:0 437:0 438:0 439:0 440:0 441:0 442:0 443:0 444:1 445:1 446:5 447:0 448:0 449:0 450:0 451:1 452:5 453:2 454:1 455:0 456:0 457:2 458:0 459:0 460:1 461:2 462:5 463:1 464:0 465:0 466:0 467:5 468:2 469:1 470:3 471:0 472:2 473:4 474:4 475:0 476:0 477:0 478:0 479:0 480:0 481:0 482:3 483:3 484:3 485:0 486:0 487:1 
0 0.002535672878660246 0 0 1:128.28889 2:76.437531 3:200 4:255 5:3 6:0 7:0 8:1 9:0 10:4 11:4 12:0 13:0 14:0 15:0 16:0 17:0 18:0 19:0 20:3 21:0 22:5 23:0 24:0 25:1 26:0 27:12 28:0 29:5 30:2 31:3 32:5 33:1 34:0 35:0 36:0 37:1 38:4 39:0 40:5 41:0 42:0 43:1 44:2 45:0 46:0 47:0 48:1 49:3 50:7 51:6 52:2 53:0 54:0 55:0 56:0 57:1 58:1 59:0 60:0 61:3 62:0 63:2 64:2 65:0 66:1 67:0 68:1 69:2 70:0 71:0 72:3 73:3 74:0 75:0 76:0 77:0 78:0 79:0 80:0 81:0 82:0 83:3 84:0 85:3 86:0 87:0 88:0 89:3 90:0 91:0 92:14 93:5 94:0 95:5 96:7 97:4 98:5 99:0 100:1 101:1 102:0 103:1 104:0 105:2 106:2 107:1 108:0 109:0 110:1 111:2 112:0 113:0 114:7 115:1 116:0 117:0 118:1 119:3 120:5 121:0 122:4 123:0 124:0 125:0 126:0 127:0 128:0 129:1 130:0 131:2 132:0 133:0 134:0 135:2 136:1 137:0 138:0 139:2 140:5 141:7 142:4 143:6 144:0 145:0 146:3 147:0 148:3 149:0 150:2 151:1 152:1 153:0 154:0 155:1 156:1 157:1 158:0 159:0 160:0 161:7 162:6 163:2 164:1 165:0 166:0 167:0 168:0 169:3 170:2 171:0 172:3 173:4 174:0 175:0 176:2 177:1 178:0 179:0 180:0 181:2 182:5 183:9 184:4 185:0 186:3 187:0 188:0 189:0 190:0 191:1 192:3 193:3 194:0 195:0 196:0 197:0 198:1 199:0 200:0 201:0 202:4 203:0 204:4 205:1 206:0 207:0 208:2 209:2 210:0 211:0 212:1 213:3 214:0 215:1 216:0 217:4 218:3 219:0 220:2 221:0 222:0 223:0 224:1 225:0 226:6 227:0 228:0 229:0 230:0 231:0 232:0 233:4 234:0 235:2 236:0 237:0 238:3 239:1 240:0 241:0 242:0 243:0 244:0 245:1 246:0 247:1 248:3 249:0 250:0 251:0 252:0 253:2 254:2 255:1 256:1 257:4 258:0 259:0 260:3 261:0 262:0 263:1 264:0 265:1 266:0 267:0 268:0 269:2 270:0 271:3 272:0 273:2 274:2 275:0 276:3 277:0 278:0 279:1 280:3 281:0 282:0 283:0 284:0 285:0 286:2 287:0 288:0 289:0 290:3 291:1 292:0 293:0 294:0 295:1 296:1 297:0 298:0 299:0 300:2 301:0 302:1 303:0 304:2 305:4 306:1 307:0 308:0 309:1 310:0 311:0 312:1 313:0 314:3 315:4 316:0 317:0 318:2 319:0 320:0 321:0 322:2 323:0 324:0 325:0 326:0 327:2 328:3 329:0 330:2 331:0 332:0 333:0 334:0 335:0 336:0 337:0 338:1 339:3 340:0 341:4 342:0 343:8 344:0 345:1 346:0 347:0 348:1 349:0 350:2 351:0 352:0 353:0 354:0 355:0 356:1 357:0 358:3 359:1 360:0 361:0 362:0 363:2 364:0 365:0 366:0 367:1 368:0 369:0 370:2 371:0 372:1 373:0 374:0 375:0 376:0 377:0 378:0 379:4 380:0 381:0 382:0 383:0 384:2 385:0 386:4 387:0 388:3 389:1 390:0 391:3 392:3 393:2 394:0 395:0 396:0 397:0 398:0 399:0 400:2 401:1 402:1 403:3 404:0 405:3 406:0 407:0 408:0 409:1 410:2 411:1 412:0 413:0 414:2 415:0 416:1 417:0 418:0 419:0 420:0 421:0 422:4 423:3 424:0 425:1 426:0 427:5 428:1 429:4 430:0 431:0 432:0 433:0 434:0 435:0 436:0 437:0 438:0 439:0 440:1 441:0 442:0 443:0 444:1 445:1 446:0 447:1 448:0 449:0 450:5 451:0 452:0 453:3 454:0 455:0 456:0 457:0 458:1 459:0 460:0 461:1 462:2 463:1 464:0 465:0 466:1 467:0 468:0 469:0 470:0 471:2 472:0 473:0 474:4 475:1 476:3 477:2 478:0 479:0 480:0 481:1 482:0 483:0 484:0 485:0 486:1 487:2 
0 0 0.001576978697206959 0 1:128.1284 2:75.861728 3:200 4:255 5:0 6:0 7:0 8:0 9:5 10:4 11:6 12:2 13:1 14:0 15:0 16:3 17:2 18:2 19:0 20:0 21:0 22:0 23:0 24:0 25:2 26:0 27:0 28:2 29:0 30:1 31:2 32:0 33:0 34:3 35:1 36:1 37:0 38:0 39:1 40:0 41:2 42:0 43:2 44:0 45:1 46:0 47:0 48:0 49:3 50:0 51:0 52:3 53:5 54:0 55:0 56:0 57:0 58:0 59:1 60:0 61:1 62:0 63:0 64:0 65:0 66:4 67:3 68:0 69:0 70:0 71:0 72:1 73:6 74:8 75:5 76:0 77:0 78:0 79:0 80:0 81:3 82:4 83:2 84:0 85:0 86:4 87:4 88:0 89:0 90:0 91:1 92:5 93:5 94:1 95:0 96:0 97:0 98:0 99:0 100:3 101:2 102:3 103:0 104:0 105:0 106:1 107:0 108:1 109:0 110:0 111:0 112:2 113:2 114:5 115:2 116:5 117:3 118:7 119:0 120:2 121:4 122:1 123:0 124:0 125:0 126:0 127:3 128:0 129:4 130:0 131:0 132:0 133:0 134:0 135:0 136:0 137:5 138:3 139:0 140:0 141:0 142:0 143:2 144:0 145:0 146:3 147:3 148:0 149:0 150:0 151:0 152:0 153:2 154:2 155:0 156:0 157:1 158:0 159:2 160:0 161:0 162:4 163:9 164:1 165:0 166:0 167:0 168:3 169:0 170:1 171:0 172:0 173:0 174:1 175:2 176:1 177:3 178:2 179:0 180:2 181:9 182:0 183:0 184:2 185:0 186:0 187:3 188:1 189:1 190:0 191:1 192:1 193:1 194:0 195:0 196:0 197:2 198:0 199:0 200:0 201:1 202:0 203:0 204:0 205:0 206:3 207:3 208:0 209:0 210:0 211:1 212:1 213:0 214:0 215:0 216:0 217:3 218:0 219:0 220:0 221:1 222:1 223:2 224:1 225:0 226:1 227:0 228:0 229:0 230:1 231:0 232:0 233:2 234:0 235:1 236:0 237:0 238:0 239:0 240:0 241:3 242:1 243:0 244:0 245:0 246:2 247:0 248:0 249:7 250:1 251:3 252:0 253:0 254:0 255:2 256:2 257:1 258:2 259:2 260:0 261:0 262:0 263:1 264:3 265:2 266:0 267:0 268:1 269:0 270:7 271:0 272:0 273:0 274:0 275:1 276:3 277:1 278:0 279:0 280:2 281:2 282:3 283:5 284:0 285:1 286:0 287:0 288:0 289:0 290:0 291:3 292:0 293:0 294:0 295:0 296:1 297:0 298:1 299:1 300:1 301:1 302:1 303:0 304:1 305:0 306:0 307:0 308:0 309:0 310:2 311:1 312:0 313:3 314:5 315:3 316:2 317:0 318:0 319:0 320:1 321:0 322:0 323:0 324:1 325:0 326:0 327:0 328:2 329:0 330:1 331:1 332:1 333:0 334:2 335:0 336:3 337:0 338:0 339:0 340:0 341:1 342:0 343:2 344:0 345:0 346:1 347:2 348:2 349:3 350:1 351:0 352:2 353:0 354:0 355:1 356:1 357:0 358:0 359:3 360:2 361:4 362:0 363:0 364:0 365:0 366:0 367:1 368:0 369:2 370:0 371:1 372:0 373:0 374:1 375:1 376:1 377:0 378:3 379:4 380:0 381:0 382:0 383:0 384:4 385:0 386:0 387:2 388:2 389:1 390:0 391:0 392:0 393:0 394:0 395:0 396:0 397:0 398:2 399:0 400:2 401:1 402:1 403:3 404:0 405:1 406:1 407:0 408:0 409:3 410:1 411:0 412:2 413:0 414:0 415:0 416:0 417:0 418:0 419:0 420:1 421:1 422:0 423:2 424:0 425:4 426:0 427:0 428:0 429:0 430:2 431:1 432:1 433:2 434:0 435:0 436:0 437:0 438:0 439:0 440:4 441:1 442:0 443:0 444:0 445:1 446:0 447:0 448:0 449:0 450:0 451:0 452:3 453:1 454:0 455:1 456:2 457:1 458:0 459:0 460:0 461:0 462:2 463:0 464:0 465:1 466:0 467:0 468:2 469:0 470:0 471:1 472:0 473:0 474:0 475:4 476:4 477:0 478:0 479:1 480:0 481:0 482:0 483:0 484:0 485:0 486:2 487:1 
0 0 0 0.0005202312780366289 1:124.55012 2:74.70321 3:200 4:255 5:0 6:8 7:0 8:2 9:5 10:0 11:1 12:0 13:0 14:3 15:0 16:5 17:0 18:0 19:0 20:0 21:4 22:0 23:0 24:3 25:0 26:0 27:8 28:0 29:0 30:4 31:0 32:0 33:4 34:2 35:0 36:0 37:0 38:0 39:0 40:0 41:2 42:1 43:3 44:0 45:0 46:5 47:0 48:0 49:0 50:1 51:0 52:2 53:3 54:0 55:4 56:2 57:9 58:1 59:0 60:1 61:4 62:6 63:0 64:2 65:0 66:0 67:0 68:1 69:2 70:0 71:3 72:5 73:0 74:0 75:0 76:0 77:0 78:5 79:0 80:2 81:0 82:5 83:0 84:2 85:0 86:0 87:3 88:0 89:2 90:0 91:0 92:6 93:2 94:0 95:0 96:6 97:0 98:3 99:0 100:0 101:1 102:0 103:3 104:0 105:0 106:0 107:2 108:0 109:4 110:4 111:0 112:0 113:0 114:5 115:0 116:0 117:0 118:0 119:5 120:0 121:3 122:4 123:2 124:3 125:0 126:1 127:5 128:0 129:0 130:0 131:0 132:5 133:2 134:0 135:0 136:2 137:0 138:0 139:0 140:0 141:0 142:2 143:0 144:3 145:0 146:0 147:1 148:1 149:0 150:0 151:9 152:2 153:0 154:2 155:0 156:0 157:3 158:4 159:7 160:0 161:0 162:8 163:2 164:0 165:0 166:12 167:0 168:0 169:3 170:2 171:0 172:0 173:3 174:0 175:0 176:0 177:2 178:0 179:3 180:0 181:1 182:0 183:0 184:3 185:0 186:0 187:3 188:0 189:0 190:0 191:2 192:1 193:0 194:1 195:0 196:0 197:0 198:0 199:0 200:0 201:3 202:0 203:0 204:0 205:1 206:0 207:0 208:0 209:5 210:5 211:9 212:0 213:0 214:2 215:3 216:1 217:0 218:1 219:1 220:1 221:0 222:4 223:1 224:5 225:0 226:0 227:1 228:1 229:0 230:0 231:0 232:0 233:0 234:0 235:0 236:3 237:0 238:0 239:1 240:0 241:3 242:4 243:2 244:0 245:0 246:2 247:0 248:4 249:0 250:3 251:0 252:0 253:0 254:0 255:0 256:0 257:0 258:2 259:1 260:0 261:0 262:0 263:1 264:3 265:3 266:0 267:0 268:0 269:0 270:2 271:8 272:8 273:0 274:2 275:5 276:3 277:0 278:3 279:0 280:0 281:1 282:1 283:0 284:0 285:0 286:0 287:2 288:0 289:2 290:0 291:0 292:0 293:0 294:0 295:0 296:7 297:0 298:2 299:0 300:8 301:0 302:0 303:3 304:0 305:0 306:2 307:0 308:0 309:0 310:2 311:5 312:5 313:9 314:0 315:4 316:2 317:0 318:1 319:3 320:1 321:0 322:0 323:0 324:0 325:0 326:2 327:0 328:5 329:0 330:0 331:2 332:0 333:1 334:0 335:0 336:0 337:4 338:0 339:10 340:0 341:0 342:0 343:0 344:0 345:0 346:0 347:0 348:1 349:1 350:0 351:0 352:4 353:0 354:1 355:0 356:0 357:0 358:0 359:0 360:0 361:5 362:2 363:0 364:2 365:0 366:0 367:3 368:0 369:4 370:3 371:0 372:2 373:2 374:0 375:0 376:0 377:0 378:0 379:0 380:5 381:0 382:0 383:0 384:5 385:0 386:0 387:0 388:4 389:0 390:1 391:1 392:0 393:0 394:2 395:0 396:1 397:0 398:0 399:1 400:7 401:0 402:0 403:0 404:0 405:1 406:3 407:0 408:0 409:3 410:0 411:0 412:5 413:4 414:0 415:0 416:0 417:0 418:3 419:3 420:0 421:0 422:0 423:4 424:4 425:0 426:3 427:0 428:0 429:2 430:0 431:4 432:0 433:0 434:0 435:0 436:5 437:0 438:0 439:1 440:0 441:0 442:0 443:0 444:0 445:6 446:0 447:0 448:0 449:0 450:0 451:0 452:0 453:0 454:0 455:0 456:0 457:0 458:3 459:0 460:0 461:0 462:0 463:0 464:3 465:0 466:2 467:2 468:0 469:0 470:0 471:2 472:6 473:0 474:1 475:5 476:0 477:0 478:0 479:0 480:0 481:3 482:1 483:0 484:0 485:0 486:2 487:0 
0 0.00147433572878663 0.001065531379117889 0.002438316851507946 1:124.97284 2:74.260247 3:200 4:255 5:6 6:16 7:6 8:0 9:1 10:2 11:1 12:0 13:0 14:3 15:0 16:0 17:0 18:0 19:0 20:2 21:0 22:1 23:0 24:2 25:0 26:9 27:22 28:0 29:0 30:0 31:5 32:2 33:0 34:1 35:5 36:0 37:0 38:0 39:0 40:1 41:1 42:2 43:0 44:0 45:0 46:0 47:1 48:0 49:0 50:5 51:0 52:0 53:0 54:4 55:2 56:1 57:0 58:1 59:0 60:0 61:1 62:0 63:0 64:2 65:2 66:0 67:1 68:0 69:1 70:0 71:0 72:3 73:5 74:1 75:3 76:0 77:0 78:0 79:0 80:0 81:0 82:0 83:3 84:1 85:2 86:1 87:2 88:0 89:0 90:0 91:0 92:6 93:5 94:0 95:0 96:6 97:0 98:0 99:6 100:3 101:5 102:0 103:0 104:1 105:0 106:0 107:1 108:1 109:0 110:1 111:0 112:2 113:0 114:3 115:1 116:0 117:5 118:2 119:4 120:0 121:0 122:3 123:0 124:0 125:1 126:0 127:4 128:0 129:0 130:2 131:0 132:0 133:0 134:0 135:1 136:6 137:0 138:0 139:0 140:3 141:2 142:0 143:0 144:1 145:0 146:0 147:0 148:0 149:0 150:0 151:0 152:0 153:2 154:1 155:0 156:1 157:1 158:0 159:0 160:0 161:2 162:4 163:0 164:0 165:6 166:2 167:2 168:0 169:0 170:3 171:2 172:0 173:0 174:0 175:0 176:1 177:1 178:0 179:0 180:0 181:0 182:1 183:4 184:0 185:0 186:0 187:3 188:0 189:1 190:0 191:1 192:2 193:0 194:0 195:1 196:1 197:0 198:3 199:0 200:1 201:0 202:2 203:3 204:0 205:0 206:0 207:5 208:0 209:0 210:3 211:0 212:0 213:3 214:0 215:4 216:2 217:0 218:0 219:1 220:0 221:0 222:0 223:0 224:5 225:1 226:0 227:0 228:6 229:7 230:0 231:3 232:7 233:0 234:0 235:0 236:3 237:1 238:0 239:0 240:1 241:2 242:1 243:0 244:0 245:2 246:0 247:0 248:0 249:6 250:2 251:0 252:0 253:0 254:1 255:0 256:0 257:1 258:4 259:2 260:0 261:0 262:0 263:0 264:0 265:0 266:0 267:0 268:0 269:1 270:0 271:0 272:0 273:0 274:0 275:6 276:0 277:3 278:1 279:2 280:2 281:1 282:2 283:0 284:0 285:0 286:0 287:0 288:0 289:0 290:3 291:2 292:0 293:1 294:1 295:1 296:5 297:0 298:0 299:0 300:3 301:0 302:0 303:5 304:0 305:0 306:1 307:1 308:0 309:0 310:0 311:1 312:0 313:0 314:5 315:0 316:0 317:0 318:0 319:2 320:0 321:1 322:0 323:0 324:3 325:3 326:0 327:0 328:0 329:0 330:2 331:0 332:0 333:0 334:0 335:2 336:0 337:1 338:0 339:0 340:4 341:3 342:0 343:0 344:0 345:0 346:2 347:0 348:1 349:0 350:0 351:1 352:0 353:0 354:0 355:0 356:0 357:2 358:0 359:0 360:0 361:3 362:0 363:2 364:1 365:2 366:0 367:0 368:2 369:0 370:0 371:0 372:1 373:0 374:0 375:0 376:1 377:0 378:0 379:0 380:5 381:4 382:0 383:0 384:0 385:5 386:0 387:4 388:0 389:0 390:0 391:0 392:0 393:0 394:2 395:0 396:0 397:0 398:2 399:0 400:1 401:0 402:0 403:0 404:0 405:0 406:5 407:2 408:0 409:0 410:0 411:1 412:1 413:1 414:0 415:0 416:1 417:0 418:0 419:2 420:0 421:0 422:0 423:1 424:1 425:0 426:0 427:0 428:5 429:3 430:0 431:0 432:0 433:1 434:0 435:0 436:0 437:1 438:1 439:1 440:0 441:0 442:1 443:0 444:1 445:2 446:0 447:0 448:0 449:3 450:0 451:0 452:3 453:0 454:0 455:0 456:2 457:0 458:0 459:2 460:0 461:1 462:1 463:0 464:0 465:0 466:1 467:5 468:0 469:0 470:0 471:1 472:0 473:3 474:0 475:0 476:3 477:0 478:0 479:0 480:0 481:1 482:0 483:1 484:0 485:0 486:1 487:0 
0.0006427313670984427 0 0 0.003652306922797576 1:123.39753 2:73.728395 3:200 4:255 5:0 6:0 7:6 8:0 9:5 10:1 11:0 12:0 13:0 14:3 15:0 16:0 17:0 18:0 19:0 20:0 21:0 22:0 23:0 24:1 25:0 26:2 27:12 28:7 29:0 30:2 31:0 32:0 33:0 34:4 35:2 36:0 37:4 38:0 39:2 40:0 41:0 42:1 43:0 44:0 45:0 46:1 47:0 48:6 49:4 50:0 51:1 52:3 53:0 54:0 55:1 56:4 57:2 58:0 59:2 60:0 61:0 62:0 63:0 64:3 65:0 66:2 67:0 68:1 69:0 70:2 71:0 72:0 73:0 74:9 75:3 76:0 77:1 78:0 79:0 80:0 81:0 82:1 83:0 84:1 85:0 86:0 87:0 88:0 89:0 90:0 91:0 92:0 93:4 94:1 95:0 96:5 97:0 98:0 99:0 100:1 101:2 102:0 103:3 104:0 105:0 106:0 107:3 108:6 109:2 110:4 111:0 112:1 113:1 114:0 115:3 116:6 117:4 118:0 119:0 120:5 121:0 122:5 123:0 124:0 125:1 126:0 127:1 128:0 129:2 130:1 131:2 132:0 133:0 134:0 135:1 136:4 137:3 138:2 139:0 140:0 141:0 142:3 143:0 144:7 145:0 146:0 147:0 148:0 149:4 150:0 151:0 152:0 153:0 154:0 155:1 156:2 157:1 158:4 159:0 160:1 161:0 162:0 163:2 164:1 165:0 166:0 167:0 168:4 169:0 170:0 171:0 172:0 173:0 174:1 175:0 176:0 177:0 178:0 179:0 180:1 181:0 182:0 183:2 184:2 185:0 186:4 187:0 188:1 189:2 190:1 191:0 192:0 193:1 194:0 195:0 196:2 197:3 198:0 199:0 200:1 201:0 202:0 203:0 204:1 205:1 206:3 207:0 208:0 209:1 210:1 211:3 212:0 213:0 214:6 215:2 216:2 217:0 218:0 219:0 220:0 221:1 222:1 223:2 224:0 225:3 226:0 227:1 228:6 229:1 230:4 231:0 232:0 233:1 234:6 235:1 236:0 237:0 238:6 239:0 240:0 241:2 242:0 243:3 244:0 245:0 246:0 247:6 248:0 249:2 250:0 251:0 252:0 253:0 254:1 255:0 256:2 257:0 258:0 259:0 260:0 261:0 262:0 263:0 264:0 265:0 266:0 267:0 268:4 269:0 270:0 271:0 272:0 273:2 274:1 275:1 276:4 277:5 278:0 279:2 280:1 281:2 282:0 283:4 284:0 285:0 286:5 287:0 288:1 289:2 290:0 291:0 292:2 293:0 294:2 295:0 296:0 297:4 298:4 299:4 300:2 301:1 302:0 303:1 304:2 305:0 306:0 307:0 308:0 309:0 310:3 311:0 312:0 313:0 314:2 315:0 316:0 317:0 318:2 319:0 320:0 321:0 322:5 323:0 324:0 325:6 326:0 327:0 328:0 329:4 330:0 331:3 332:0 333:2 334:3 335:0 336:0 337:8 338:0 339:0 340:6 341:0 342:0 343:0 344:0 345:0 346:0 347:0 348:1 349:1 350:3 351:3 352:2 353:0 354:0 355:0 356:1 357:0 358:0 359:0 360:0 361:0 362:0 363:0 364:0 365:0 366:0 367:1 368:0 369:0 370:2 371:2 372:0 373:0 374:0 375:2 376:0 377:0 378:0 379:2 380:6 381:4 382:0 383:0 384:0 385:0 386:0 387:0 388:1 389:5 390:2 391:0 392:0 393:0 394:0 395:3 396:0 397:1 398:0 399:2 400:0 401:2 402:1 403:5 404:2 405:0 406:1 407:0 408:2 409:0 410:0 411:0 412:0 413:0 414:0 415:2 416:2 417:3 418:1 419:0 420:0 421:0 422:4 423:0 424:0 425:3 426:0 427:0 428:2 429:4 430:0 431:0 432:1 433:0 434:2 435:0 436:2 437:1 438:0 439:0 440:0 441:1 442:1 443:0 444:0 445:0 446:0 447:0 448:3 449:1 450:3 451:1 452:1 453:5 454:1 455:0 456:0 457:2 458:0 459:0 460:2 461:3 462:0 463:0 464:0 465:1 466:0 467:0 468:0 469:0 470:0 471:2 472:1 473:0 474:0 475:0 476:2 477:1 478:2 479:0 480:0 481:0 482:0 483:1 484:0 485:1 486:0 487:0 
0 0 0.0005962568533013935 0.001752090745045903 1:125.36148 2:74.366914 3:200 4:255 5:18 6:12 7:1 8:0 9:0 10:2 11:0 12:2 13:0 14:5 15:0 16:1 17:0 18:1 19:0 20:1 21:0 22:0 23:2 24:0 25:1 26:3 27:3 28:0 29:0 30:0 31:0 32:0 33:0 34:0 35:2 36:0 37:2 38:0 39:0 40:0 41:1 42:0 43:0 44:2 45:0 46:3 47:0 48:7 49:0 50:0 51:4 52:6 53:1 54:0 55:0 56:2 57:0 58:2 59:0 60:0 61:1 62:0 63:0 64:3 65:0 66:0 67:1 68:0 69:1 70:8 71:5 72:0 73:5 74:0 75:0 76:7 77:3 78:0 79:3 80:0 81:2 82:1 83:0 84:1 85:1 86:0 87:2 88:0 89:0 90:1 91:0 92:0 93:0 94:0 95:5 96:2 97:0 98:3 99:4 100:1 101:2 102:4 103:3 104:0 105:0 106:0 107:0 108:0 109:0 110:1 111:0 112:0 113:1 114:2 115:1 116:0 117:5 118:5 119:5 120:6 121:0 122:3 123:5 124:1 125:0 126:2 127:0 128:3 129:0 130:0 131:3 132:1 133:0 134:0 135:0 136:0 137:0 138:4 139:3 140:7 141:0 142:0 143:0 144:5 145:2 146:1 147:0 148:0 149:0 150:1 151:0 152:0 153:0 154:0 155:0 156:0 157:0 158:0 159:3 160:7 161:0 162:0 163:0 164:0 165:1 166:3 167:0 168:0 169:0 170:4 171:0 172:1 173:2 174:0 175:2 176:0 177:0 178:0 179:1 180:0 181:0 182:7 183:0 184:0 185:5 186:1 187:0 188:0 189:0 190:0 191:4 192:0 193:0 194:0 195:2 196:0 197:0 198:1 199:0 200:1 201:1 202:0 203:0 204:3 205:2 206:0 207:0 208:0 209:5 210:0 211:0 212:5 213:0 214:1 215:0 216:0 217:0 218:3 219:2 220:0 221:1 222:0 223:2 224:3 225:2 226:3 227:0 228:0 229:10 230:0 231:0 232:1 233:0 234:1 235:4 236:0 237:0 238:4 239:0 240:0 241:1 242:1 243:0 244:0 245:0 246:1 247:0 248:0 249:0 250:2 251:3 252:0 253:0 254:4 255:3 256:1 257:0 258:0 259:3 260:3 261:0 262:1 263:1 264:2 265:0 266:0 267:0 268:0 269:6 270:0 271:0 272:0 273:0 274:2 275:2 276:0 277:0 278:0 279:7 280:1 281:0 282:3 283:0 284:0 285:1 286:2 287:0 288:0 289:1 290:0 291:4 292:0 293:1 294:1 295:0 296:3 297:0 298:4 299:0 300:0 301:1 302:2 303:3 304:0 305:0 306:0 307:0 308:0 309:0 310:0 311:0 312:0 313:0 314:0 315:1 316:3 317:1 318:1 319:0 320:0 321:0 322:0 323:2 324:3 325:0 326:0 327:1 328:0 329:1 330:2 331:0 332:0 333:1 334:1 335:0 336:0 337:0 338:4 339:0 340:1 341:2 342:0 343:0 344:0 345:1 346:0 347:0 348:1 349:0 350:1 351:0 352:0 353:0 354:1 355:0 356:0 357:0 358:0 359:1 360:0 361:0 362:0 363:0 364:4 365:0 366:4 367:0 368:2 369:0 370:1 371:0 372:0 373:0 374:0 375:2 376:0 377:0 378:0 379:0 380:0 381:3 382:0 383:0 384:0 385:8 386:0 387:1 388:4 389:1 390:0 391:1 392:0 393:0 394:0 395:1 396:0 397:0 398:0 399:0 400:1 401:0 402:0 403:0 404:0 405:0 406:4 407:2 408:1 409:3 410:0 411:0 412:0 413:4 414:0 415:0 416:2 417:0 418:0 419:0 420:1 421:0 422:1 423:0 424:1 425:2 426:1 427:2 428:0 429:0 430:0 431:3 432:4 433:0 434:0 435:2 436:0 437:0 438:1 439:0 440:0 441:0 442:0 443:0 444:0 445:0 446:0 447:1 448:1 449:0 450:3 451:5 452:0 453:5 454:0 455:0 456:1 457:1 458:0 459:1 460:0 461:0 462:0 463:0 464:0 465:1 466:1 467:4 468:0 469:0 470:0 471:0 472:2 473:0 474:1 475:0 476:0 477:0 478:0 479:0 480:0 481:0 482:2 483:0 484:1 485:1 486:0 487:1 
0 0.0008610383158864416 0 0 1:128.23309 2:76.639506 3:200 4:255 5:17 6:0 7:6 8:9 9:0 10:4 11:0 12:0 13:0 14:4 15:2 16:2 17:0 18:0 19:0 20:2 21:0 22:2 23:0 24:1 25:0 26:10 27:0 28:5 29:15 30:2 31:0 32:0 33:0 34:2 35:0 36:0 37:0 38:4 39:1 40:0 41:3 42:0 43:0 44:0 45:3 46:0 47:4 48:0 49:0 50:0 51:0 52:0 53:0 54:3 55:6 56:1 57:4 58:0 59:0 60:0 61:0 62:0 63:0 64:2 65:0 66:0 67:2 68:1 69:0 70:0 71:5 72:5 73:0 74:0 75:0 76:3 77:0 78:0 79:0 80:0 81:0 82:0 83:4 84:0 85:0 86:0 87:0 88:2 89:0 90:1 91:0 92:0 93:1 94:0 95:0 96:3 97:9 98:3 99:1 100:0 101:0 102:2 103:4 104:0 105:0 106:3 107:0 108:0 109:0 110:0 111:1 112:0 113:0 114:0 115:1 116:7 117:0 118:0 119:0 120:0 121:0 122:0 123:3 124:4 125:0 126:2 127:0 128:0 129:3 130:3 131:0 132:0 133:0 134:0 135:0 136:9 137:0 138:0 139:4 140:0 141:3 142:1 143:0 144:3 145:0 146:0 147:1 148:2 149:1 150:4 151:0 152:2 153:0 154:0 155:2 156:0 157:2 158:0 159:0 160:0 161:9 162:0 163:0 164:5 165:0 166:0 167:5 168:2 169:4 170:1 171:0 172:1 173:0 174:0 175:0 176:3 177:0 178:0 179:0 180:0 181:2 182:2 183:0 184:0 185:0 186:3 187:3 188:6 189:6 190:0 191:0 192:0 193:2 194:0 195:0 196:0 197:0 198:0 199:2 200:1 201:0 202:2 203:0 204:0 205:0 206:4 207:7 208:0 209:0 210:0 211:0 212:0 213:0 214:4 215:0 216:2 217:1 218:2 219:3 220:1 221:0 222:0 223:1 224:1 225:0 226:9 227:0 228:0 229:0 230:0 231:0 232:3 233:0 234:0 235:2 236:0 237:5 238:0 239:1 240:0 241:0 242:0 243:0 244:2 245:2 246:0 247:0 248:1 249:0 250:0 251:2 252:0 253:1 254:1 255:0 256:3 257:2 258:2 259:0 260:1 261:0 262:4 263:2 264:0 265:0 266:2 267:0 268:1 269:0 270:0 271:0 272:2 273:0 274:3 275:0 276:3 277:1 278:0 279:1 280:0 281:1 282:0 283:0 284:0 285:2 286:0 287:3 288:2 289:0 290:2 291:1 292:0 293:1 294:0 295:0 296:0 297:2 298:0 299:0 300:0 301:0 302:1 303:0 304:3 305:0 306:0 307:3 308:0 309:2 310:0 311:5 312:0 313:2 314:0 315:0 316:1 317:0 318:0 319:3 320:0 321:2 322:1 323:0 324:3 325:0 326:0 327:0 328:0 329:0 330:0 331:1 332:1 333:3 334:0 335:5 336:0 337:0 338:0 339:0 340:0 341:0 342:0 343:0 344:5 345:4 346:3 347:0 348:0 349:0 350:2 351:2 352:3 353:1 354:1 355:0 356:0 357:0 358:1 359:1 360:0 361:0 362:3 363:0 364:0 365:0 366:1 367:3 368:0 369:0 370:1 371:5 372:0 373:0 374:1 375:0 376:0 377:1 378:2 379:0 380:1 381:0 382:0 383:2 384:0 385:0 386:1 387:0 388:0 389:0 390:0 391:1 392:1 393:1 394:1 395:0 396:0 397:0 398:0 399:0 400:0 401:0 402:0 403:0 404:2 405:2 406:0 407:0 408:1 409:0 410:0 411:0 412:1 413:0 414:0 415:1 416:1 417:1 418:0 419:3 420:0 421:0 422:0 423:0 424:2 425:3 426:1 427:0 428:0 429:0 430:0 431:0 432:5 433:0 434:2 435:4 436:0 437:0 438:0 439:0 440:0 441:1 442:0 443:1 444:1 445:2 446:0 447:1 448:0 449:3 450:0 451:0 452:1 453:0 454:3 455:0 456:0 457:1 458:2 459:0 460:1 461:0 462:2 463:0 464:0 465:1 466:0 467:2 468:0 469:0 470:1 471:0 472:0 473:2 474:1 475:2 476:0 477:0 478:2 479:0 480:3 481:2 482:0 483:3 484:0 485:0 486:2 487:0 
0.0002753673893225324 0 0 0 1:124.12247 2:73.992099 3:200 4:255 5:0 6:2 7:5 8:0 9:3 10:0 11:1 12:1 13:0 14:0 15:0 16:0 17:0 18:0 19:0 20:0 21:0 22:0 23:1 24:1 25:0 26:22 27:7 28:2 29:0 30:2 31:0 32:0 33:2 34:0 35:2 36:1 37:1 38:2 39:1 40:0 41:1 42:0 43:0 44:0 45:0 46:0 47:0 48:6 49:8 50:0 51:1 52:1 53:8 54:2 55:0 56:0 57:1 58:1 59:0 60:0 61:1 62:1 63:0 64:0 65:0 66:1 67:0 68:0 69:2 70:18 71:0 72:0 73:4 74:1 75:0 76:3 77:2 78:1 79:3 80:1 81:0 82:0 83:0 84:0 85:0 86:0 87:0 88:2 89:0 90:1 91:0 92:0 93:0 94:0 95:6 96:5 97:1 98:0 99:0 100:0 101:0 102:1 103:0 104:3 105:0 106:0 107:2 108:0 109:1 110:0 111:1 112:0 113:0 114:0 115:2 116:0 117:0 118:0 119:0 120:6 121:0 122:0 123:0 124:0 125:2 126:0 127:3 128:2 129:0 130:1 131:0 132:0 133:0 134:0 135:1 136:2 137:6 138:4 139:0 140:2 141:0 142:0 143:2 144:0 145:0 146:0 147:0 148:0 149:0 150:1 151:0 152:0 153:0 154:0 155:1 156:1 157:0 158:3 159:4 160:0 161:0 162:0 163:2 164:1 165:0 166:1 167:0 168:1 169:1 170:1 171:0 172:0 173:0 174:0 175:1 176:0 177:0 178:0 179:0 180:5 181:0 182:5 183:0 184:0 185:0 186:1 187:0 188:0 189:2 190:3 191:1 192:2 193:0 194:0 195:1 196:0 197:0 198:1 199:0 200:0 201:1 202:12 203:0 204:2 205:0 206:4 207:0 208:0 209:0 210:0 211:1 212:0 213:0 214:0 215:0 216:0 217:0 218:0 219:1 220:1 221:0 222:0 223:0 224:0 225:4 226:2 227:7 228:0 229:3 230:0 231:0 232:0 233:0 234:0 235:1 236:0 237:1 238:0 239:1 240:0 241:0 242:0 243:0 244:0 245:0 246:0 247:0 248:1 249:4 250:6 251:4 252:3 253:1 254:3 255:0 256:1 257:0 258:0 259:0 260:0 261:0 262:0 263:1 264:1 265:1 266:0 267:1 268:0 269:0 270:0 271:0 272:5 273:1 274:2 275:2 276:0 277:2 278:0 279:3 280:0 281:1 282:1 283:0 284:1 285:0 286:0 287:0 288:0 289:1 290:1 291:3 292:1 293:0 294:0 295:1 296:0 297:3 298:0 299:1 300:0 301:1 302:1 303:1 304:1 305:1 306:0 307:0 308:1 309:0 310:1 311:0 312:0 313:2 314:0 315:0 316:0 317:0 318:0 319:0 320:0 321:0 322:2 323:1 324:0 325:0 326:0 327:0 328:1 329:1 330:0 331:0 332:0 333:0 334:1 335:3 336:0 337:0 338:1 339:0 340:1 341:0 342:0 343:0 344:1 345:0 346:0 347:0 348:0 349:0 350:0 351:2 352:1 353:0 354:0 355:0 356:3 357:0 358:4 359:3 360:1 361:0 362:2 363:1 364:0 365:0 366:0 367:2 368:0 369:4 370:2 371:0 372:0 373:0 374:0 375:0 376:0 377:0 378:0 379:0 380:0 381:0 382:3 383:0 384:0 385:4 386:0 387:2 388:0 389:0 390:0 391:0 392:0 393:1 394:0 395:0 396:1 397:0 398:1 399:0 400:0 401:1 402:0 403:0 404:0 405:0 406:2 407:2 408:0 409:0 410:0 411:0 412:1 413:1 414:1 415:0 416:0 417:0 418:0 419:0 420:0 421:1 422:0 423:2 424:1 425:2 426:0 427:0 428:1 429:4 430:0 431:1 432:1 433:0 434:1 435:0 436:0 437:1 438:0 439:1 440:1 441:0 442:0 443:1 444:1 445:2 446:3 447:0 448:0 449:1 450:0 451:0 452:0 453:0 454:2 455:1 456:1 457:0 458:0 459:0 460:0 461:1 462:0 463:0 464:0 465:0 466:0 467:3 468:0 469:0 470:0 471:1 472:0 473:0 474:0 475:0 476:0 477:1 478:0 479:0 480:0 481:0 482:0 483:0 484:0 485:0 486:0 487:0 
0 0.0002878478291875935 0 0 1:124.84296 2:74.254815 3:200 4:255 5:20 6:5 7:5 8:0 9:2 10:0 11:0 12:1 13:0 14:0 15:1 16:0 17:0 18:2 19:0 20:1 21:0 22:1 23:0 24:0 25:0 26:15 27:0 28:8 29:0 30:3 31:0 32:1 33:2 34:0 35:2 36:0 37:0 38:0 39:0 40:0 41:0 42:0 43:1 44:0 45:0 46:0 47:0 48:8 49:0 50:0 51:4 52:4 53:4 54:0 55:1 56:0 57:2 58:0 59:0 60:0 61:0 62:1 63:0 64:2 65:0 66:0 67:0 68:0 69:1 70:13 71:17 72:0 73:0 74:0 75:0 76:3 77:0 78:0 79:0 80:0 81:0 82:0 83:0 84:0 85:0 86:0 87:1 88:0 89:0 90:0 91:0 92:0 93:2 94:2 95:1 96:0 97:0 98:4 99:0 100:0 101:0 102:4 103:0 104:0 105:2 106:0 107:1 108:1 109:0 110:0 111:0 112:0 113:0 114:0 115:4 116:0 117:0 118:7 119:0 120:3 121:0 122:0 123:0 124:0 125:0 126:2 127:1 128:1 129:0 130:0 131:0 132:0 133:0 134:0 135:0 136:8 137:0 138:4 139:0 140:0 141:3 142:1 143:1 144:0 145:0 146:0 147:0 148:0 149:1 150:0 151:0 152:0 153:1 154:0 155:1 156:0 157:1 158:4 159:3 160:0 161:0 162:0 163:2 164:3 165:0 166:1 167:0 168:0 169:0 170:0 171:0 172:0 173:1 174:0 175:0 176:1 177:0 178:0 179:0 180:0 181:0 182:6 183:0 184:0 185:1 186:0 187:1 188:0 189:2 190:0 191:2 192:0 193:0 194:3 195:0 196:0 197:0 198:0 199:0 200:0 201:1 202:2 203:4 204:2 205:4 206:2 207:0 208:1 209:0 210:1 211:0 212:1 213:1 214:0 215:2 216:0 217:0 218:0 219:1 220:0 221:0 222:0 223:0 224:0 225:0 226:4 227:1 228:0 229:0 230:0 231:0 232:0 233:0 234:1 235:1 236:0 237:0 238:1 239:1 240:0 241:0 242:0 243:0 244:0 245:0 246:2 247:0 248:0 249:0 250:0 251:2 252:2 253:0 254:3 255:1 256:0 257:0 258:0 259:0 260:0 261:0 262:0 263:1 264:0 265:0 266:0 267:0 268:0 269:1 270:0 271:0 272:0 273:1 274:0 275:3 276:0 277:0 278:1 279:0 280:0 281:0 282:0 283:0 284:0 285:0 286:1 287:0 288:0 289:0 290:0 291:4 292:6 293:2 294:0 295:0 296:2 297:2 298:0 299:0 300:0 301:0 302:0 303:0 304:0 305:1 306:0 307:0 308:0 309:0 310:1 311:0 312:0 313:0 314:0 315:0 316:0 317:0 318:0 319:0 320:0 321:0 322:0 323:1 324:0 325:1 326:0 327:0 328:0 329:1 330:0 331:0 332:0 333:0 334:2 335:0 336:7 337:2 338:2 339:3 340:0 341:0 342:2 343:0 344:0 345:1 346:0 347:1 348:0 349:1 350:0 351:2 352:0 353:0 354:0 355:1 356:0 357:2 358:1 359:0 360:1 361:0 362:0 363:0 364:2 365:0 366:0 367:1 368:0 369:0 370:1 371:0 372:0 373:1 374:0 375:0 376:0 377:0 378:1 379:1 380:2 381:1 382:0 383:2 384:0 385:0 386:0 387:0 388:0 389:1 390:0 391:0 392:0 393:0 394:0 395:0 396:0 397:0 398:0 399:1 400:1 401:0 402:0 403:2 404:0 405:0 406:2 407:1 408:0 409:0 410:0 411:0 412:0 413:0 414:0 415:0 416:0 417:0 418:0 419:1 420:0 421:0 422:0 423:0 424:0 425:0 426:0 427:3 428:0 429:2 430:2 431:0 432:3 433:0 434:0 435:2 436:0 437:1 438:1 439:0 440:1 441:0 442:0 443:0 444:1 445:0 446:0 447:1 448:0 449:3 450:1 451:0 452:0 453:1 454:0 455:1 456:0 457:0 458:2 459:0 460:0 461:0 462:0 463:0 464:1 465:0 466:0 467:0 468:0 469:1 470:0 471:0 472:0 473:0 474:0 475:0 476:0 477:1 478:1 479:1 480:0 481:0 482:0 483:0 484:1 485:1 486:0 487:0 
0.0002240425878170075 0 0 0.002512794459627788 1:124.31407 2:74.116049 3:200 4:255 5:0 6:2 7:0 8:0 9:0 10:0 11:1 12:0 13:0 14:1 15:2 16:0 17:0 18:0 19:0 20:0 21:0 22:0 23:0 24:1 25:0 26:25 27:10 28:0 29:2 30:3 31:0 32:2 33:1 34:2 35:1 36:0 37:0 38:0 39:0 40:0 41:0 42:1 43:1 44:1 45:0 46:1 47:0 48:15 49:5 50:0 51:9 52:5 53:6 54:0 55:0 56:3 57:0 58:0 59:0 60:1 61:0 62:0 63:1 64:0 65:0 66:0 67:0 68:0 69:1 70:11 71:0 72:0 73:5 74:0 75:0 76:3 77:0 78:0 79:0 80:0 81:0 82:0 83:0 84:0 85:0 86:1 87:0 88:1 89:1 90:2 91:0 92:0 93:0 94:0 95:5 96:0 97:0 98:0 99:2 100:2 101:2 102:0 103:1 104:0 105:1 106:0 107:0 108:0 109:1 110:0 111:0 112:0 113:0 114:0 115:5 116:0 117:0 118:0 119:5 120:0 121:0 122:2 123:2 124:4 125:0 126:2 127:0 128:1 129:1 130:1 131:1 132:0 133:0 134:0 135:0 136:2 137:3 138:0 139:0 140:2 141:0 142:0 143:0 144:0 145:0 146:0 147:1 148:0 149:2 150:0 151:0 152:0 153:0 154:0 155:0 156:1 157:0 158:2 159:0 160:0 161:1 162:0 163:5 164:0 165:0 166:1 167:0 168:0 169:0 170:0 171:1 172:1 173:0 174:1 175:0 176:1 177:1 178:0 179:1 180:4 181:0 182:3 183:0 184:0 185:0 186:1 187:0 188:1 189:0 190:0 191:1 192:1 193:1 194:0 195:0 196:0 197:0 198:0 199:1 200:0 201:0 202:0 203:4 204:1 205:5 206:1 207:0 208:0 209:0 210:0 211:1 212:3 213:0 214:1 215:0 216:1 217:0 218:1 219:0 220:0 221:0 222:0 223:0 224:0 225:0 226:5 227:6 228:3 229:2 230:0 231:0 232:0 233:0 234:1 235:0 236:0 237:0 238:0 239:1 240:0 241:0 242:0 243:0 244:0 245:0 246:0 247:1 248:0 249:2 250:5 251:2 252:3 253:0 254:2 255:0 256:0 257:0 258:2 259:0 260:1 261:0 262:0 263:1 264:0 265:1 266:0 267:0 268:3 269:2 270:0 271:0 272:0 273:0 274:4 275:1 276:4 277:2 278:2 279:0 280:0 281:0 282:0 283:1 284:1 285:1 286:0 287:0 288:0 289:0 290:0 291:0 292:0 293:0 294:0 295:2 296:0 297:2 298:1 299:4 300:0 301:1 302:2 303:1 304:1 305:0 306:0 307:0 308:0 309:0 310:0 311:0 312:0 313:0 314:0 315:1 316:0 317:0 318:0 319:0 320:1 321:0 322:0 323:0 324:0 325:1 326:0 327:0 328:0 329:0 330:0 331:0 332:0 333:0 334:3 335:0 336:6 337:1 338:0 339:0 340:2 341:0 342:0 343:0 344:1 345:0 346:0 347:0 348:0 349:1 350:2 351:0 352:0 353:0 354:1 355:1 356:0 357:0 358:0 359:1 360:1 361:0 362:5 363:3 364:0 365:0 366:0 367:2 368:1 369:2 370:0 371:0 372:0 373:0 374:0 375:0 376:1 377:0 378:1 379:3 380:0 381:0 382:0 383:3 384:0 385:1 386:0 387:0 388:0 389:0 390:0 391:1 392:0 393:0 394:0 395:0 396:0 397:0 398:0 399:0 400:1 401:1 402:1 403:0 404:0 405:1 406:0 407:2 408:0 409:0 410:0 411:0 412:0 413:0 414:0 415:0 416:0 417:1 418:1 419:0 420:0 421:0 422:1 423:0 424:0 425:0 426:2 427:0 428:0 429:3 430:2 431:0 432:1 433:0 434:1 435:1 436:0 437:0 438:0 439:1 440:0 441:1 442:0 443:0 444:0 445:0 446:0 447:3 448:0 449:0 450:0 451:2 452:0 453:0 454:3 455:0 456:1 457:0 458:0 459:0 460:1 461:0 462:0 463:0 464:0 465:0 466:1 467:0 468:4 469:1 470:0 471:0 472:1 473:0 474:0 475:0 476:0 477:1 478:0 479:0 480:0 481:0 482:1 483:0 484:1 485:1 486:0 487:0 
0 0.001615204157284849 0.004162857189819437 0 1:126.06963 2:74.988148 3:200 4:255 5:25 6:0 7:0 8:2 9:4 10:0 11:0 12:1 13:0 14:0 15:0 16:1 17:0 18:0 19:0 20:0 21:0 22:0 23:0 24:0 25:0 26:15 27:0 28:1 29:4 30:0 31:2 32:4 33:0 34:3 35:1 36:0 37:1 38:0 39:0 40:0 41:0 42:1 43:0 44:0 45:0 46:0 47:0 48:0 49:0 50:0 51:2 52:5 53:0 54:0 55:2 56:1 57:4 58:1 59:1 60:1 61:1 62:0 63:0 64:0 65:0 66:0 67:0 68:0 69:0 70:0 71:0 72:10 73:0 74:0 75:3 76:0 77:0 78:1 79:1 80:1 81:1 82:1 83:2 84:1 85:0 86:0 87:0 88:0 89:0 90:0 91:0 92:4 93:0 94:0 95:0 96:0 97:1 98:0 99:0 100:1 101:0 102:0 103:1 104:2 105:0 106:0 107:0 108:0 109:0 110:0 111:0 112:0 113:0 114:2 115:2 116:0 117:0 118:1 119:2 120:0 121:3 122:0 123:0 124:0 125:0 126:0 127:0 128:0 129:0 130:0 131:0 132:0 133:1 134:0 135:0 136:7 137:0 138:0 139:1 140:0 141:2 142:3 143:4 144:0 145:0 146:1 147:1 148:1 149:0 150:1 151:0 152:0 153:1 154:0 155:1 156:0 157:1 158:0 159:5 160:0 161:0 162:2 163:0 164:0 165:0 166:2 167:1 168:0 169:0 170:3 171:0 172:1 173:1 174:0 175:0 176:1 177:0 178:0 179:0 180:0 181:2 182:3 183:0 184:0 185:2 186:1 187:0 188:1 189:0 190:0 191:0 192:0 193:0 194:0 195:0 196:0 197:0 198:1 199:0 200:1 201:0 202:0 203:0 204:1 205:5 206:0 207:0 208:4 209:2 210:1 211:0 212:0 213:1 214:0 215:1 216:0 217:0 218:0 219:1 220:1 221:0 222:1 223:0 224:0 225:5 226:0 227:0 228:0 229:1 230:4 231:0 232:0 233:0 234:0 235:0 236:0 237:1 238:0 239:0 240:0 241:0 242:1 243:0 244:0 245:0 246:0 247:0 248:2 249:1 250:0 251:0 252:3 253:0 254:1 255:0 256:1 257:1 258:1 259:0 260:1 261:0 262:0 263:0 264:0 265:0 266:0 267:0 268:1 269:3 270:0 271:2 272:0 273:0 274:0 275:3 276:1 277:0 278:1 279:0 280:1 281:0 282:1 283:0 284:0 285:0 286:0 287:0 288:0 289:0 290:0 291:0 292:0 293:1 294:2 295:0 296:0 297:0 298:0 299:1 300:3 301:0 302:1 303:0 304:2 305:0 306:0 307:0 308:0 309:0 310:0 311:0 312:3 313:0 314:1 315:3 316:0 317:1 318:0 319:0 320:1 321:1 322:0 323:0 324:1 325:0 326:1 327:0 328:0 329:0 330:0 331:1 332:0 333:0 334:2 335:0 336:1 337:2 338:0 339:0 340:0 341:2 342:0 343:2 344:0 345:1 346:1 347:0 348:0 349:1 350:0 351:0 352:0 353:0 354:1 355:0 356:0 357:0 358:0 359:0 360:0 361:1 362:0 363:0 364:1 365:0 366:0 367:0 368:0 369:0 370:1 371:0 372:0 373:0 374:0 375:1 376:0 377:0 378:2 379:1 380:0 381:0 382:0 383:0 384:3 385:0 386:1 387:0 388:2 389:0 390:1 391:0 392:0 393:0 394:0 395:0 396:0 397:0 398:0 399:1 400:1 401:0 402:1 403:0 404:0 405:0 406:0 407:1 408:0 409:1 410:0 411:1 412:0 413:0 414:0 415:0 416:0 417:0 418:0 419:0 420:0 421:0 422:1 423:1 424:0 425:0 426:0 427:0 428:2 429:0 430:1 431:1 432:0 433:0 434:0 435:1 436:0 437:0 438:0 439:0 440:0 441:0 442:0 443:0 444:2 445:1 446:1 447:0 448:2 449:0 450:0 451:0 452:0 453:0 454:1 455:1 456:0 457:0 458:0 459:0 460:1 461:1 462:0 463:0 464:0 465:0 466:0 467:1 468:0 469:0 470:0 471:0 472:1 473:1 474:1 475:0 476:0 477:0 478:0 479:1 480:0 481:1 482:0 483:0 484:1 485:1 486:0 487:0 
0 0 0.001813491547206819 0 1:125.33284 2:74.553086 3:200 4:255 5:18 6:0 7:0 8:0 9:0 10:0 11:2 12:0 13:0 14:0 15:1 16:0 17:0 18:0 19:0 20:0 21:1 22:0 23:0 24:1 25:0 26:20 27:15 28:0 29:0 30:4 31:0 32:1 33:0 34:1 35:1 36:0 37:0 38:0 39:0 40:1 41:1 42:0 43:0 44:0 45:0 46:0 47:0 48:0 49:0 50:11 51:0 52:1 53:0 54:0 55:1 56:0 57:1 58:2 59:0 60:0 61:0 62:0 63:0 64:0 65:0 66:1 67:0 68:0 69:0 70:12 71:0 72:5 73:0 74:5 75:4 76:0 77:2 78:0 79:0 80:0 81:0 82:1 83:0 84:0 85:1 86:0 87:0 88:0 89:0 90:0 91:0 92:6 93:0 94:0 95:9 96:0 97:0 98:1 99:0 100:0 101:0 102:0 103:0 104:1 105:0 106:0 107:0 108:0 109:0 110:0 111:0 112:0 113:0 114:0 115:6 116:0 117:0 118:0 119:0 120:2 121:1 122:0 123:0 124:2 125:0 126:0 127:0 128:0 129:1 130:0 131:0 132:1 133:0 134:0 135:0 136:0 137:0 138:0 139:1 140:1 141:0 142:2 143:3 144:0 145:0 146:0 147:0 148:0 149:0 150:0 151:0 152:0 153:0 154:0 155:0 156:0 157:1 158:0 159:3 160:0 161:0 162:3 163:0 164:0 165:1 166:0 167:3 168:3 169:2 170:0 171:0 172:0 173:0 174:1 175:1 176:3 177:0 178:0 179:0 180:7 181:0 182:0 183:0 184:0 185:0 186:0 187:0 188:1 189:1 190:0 191:0 192:0 193:0 194:1 195:0 196:0 197:0 198:0 199:0 200:0 201:0 202:0 203:0 204:5 205:6 206:0 207:1 208:0 209:0 210:0 211:0 212:1 213:1 214:1 215:0 216:0 217:1 218:1 219:1 220:0 221:0 222:0 223:0 224:1 225:0 226:0 227:0 228:0 229:2 230:4 231:0 232:1 233:1 234:0 235:1 236:0 237:0 238:0 239:0 240:1 241:0 242:0 243:0 244:0 245:0 246:5 247:0 248:3 249:3 250:0 251:0 252:0 253:0 254:0 255:0 256:0 257:1 258:0 259:0 260:0 261:0 262:1 263:0 264:0 265:0 266:0 267:0 268:0 269:3 270:0 271:5 272:7 273:0 274:2 275:0 276:0 277:0 278:0 279:0 280:0 281:0 282:0 283:0 284:0 285:0 286:0 287:0 288:0 289:0 290:1 291:3 292:0 293:0 294:0 295:0 296:0 297:0 298:3 299:2 300:0 301:0 302:1 303:1 304:1 305:1 306:0 307:0 308:1 309:1 310:1 311:0 312:0 313:0 314:4 315:4 316:1 317:0 318:2 319:0 320:0 321:0 322:0 323:0 324:0 325:0 326:0 327:0 328:0 329:0 330:0 331:0 332:0 333:1 334:0 335:2 336:0 337:0 338:1 339:1 340:0 341:1 342:0 343:1 344:0 345:0 346:0 347:0 348:1 349:0 350:0 351:0 352:0 353:0 354:0 355:0 356:1 357:0 358:0 359:0 360:2 361:0 362:0 363:0 364:0 365:1 366:0 367:0 368:0 369:0 370:0 371:0 372:1 373:0 374:1 375:1 376:0 377:0 378:1 379:1 380:0 381:0 382:0 383:0 384:1 385:3 386:0 387:0 388:0 389:2 390:0 391:1 392:1 393:0 394:1 395:1 396:0 397:0 398:0 399:1 400:2 401:1 402:0 403:1 404:2 405:0 406:0 407:0 408:2 409:0 410:0 411:0 412:1 413:1 414:1 415:1 416:0 417:0 418:0 419:0 420:1 421:0 422:1 423:0 424:1 425:2 426:0 427:0 428:3 429:0 430:0 431:0 432:0 433:2 434:1 435:0 436:0 437:0 438:2 439:1 440:0 441:0 442:0 443:1 444:0 445:1 446:0 447:0 448:0 449:2 450:1 451:0 452:0 453:2 454:0 455:0 456:0 457:0 458:0 459:1 460:0 461:0 462:0 463:0 464:0 465:0 466:0 467:0 468:0 469:0 470:0 471:1 472:0 473:1 474:0 475:0 476:2 477:0 478:1 479:0 480:0 481:1 482:0 483:1 484:1 485:0 486:1 487:0 
3.509633347115057e-05 0 0.005441363804943896 0 1:126.60444 2:75.215309 3:200 4:255 5:9 6:0 7:0 8:0 9:3 10:0 11:0 12:0 13:1 14:0 15:0 16:0 17:0 18:2 19:0 20:0 21:0 22:0 23:0 24:0 25:0 26:11 27:5 28:0 29:0 30:3 31:1 32:2 33:0 34:0 35:0 36:1 37:0 38:0 39:0 40:2 41:0 42:0 43:0 44:1 45:0 46:0 47:0 48:6 49:0 50:10 51:0 52:0 53:1 54:2 55:1 56:0 57:0 58:0 59:0 60:0 61:0 62:0 63:0 64:0 65:0 66:0 67:0 68:0 69:2 70:0 71:0 72:0 73:0 74:4 75:2 76:0 77:0 78:0 79:0 80:1 81:1 82:0 83:1 84:0 85:1 86:1 87:1 88:0 89:0 90:0 91:0 92:0 93:10 94:0 95:1 96:1 97:0 98:2 99:0 100:0 101:0 102:1 103:1 104:1 105:0 106:0 107:0 108:0 109:1 110:0 111:0 112:1 113:0 114:1 115:1 116:0 117:0 118:1 119:1 120:0 121:2 122:0 123:0 124:0 125:0 126:1 127:0 128:0 129:0 130:1 131:2 132:0 133:0 134:0 135:1 136:0 137:4 138:0 139:2 140:1 141:1 142:0 143:1 144:1 145:0 146:1 147:0 148:0 149:0 150:0 151:0 152:0 153:0 154:0 155:0 156:1 157:1 158:0 159:0 160:0 161:3 162:5 163:2 164:2 165:0 166:0 167:0 168:1 169:0 170:0 171:0 172:1 173:1 174:0 175:0 176:0 177:1 178:0 179:0 180:0 181:1 182:5 183:0 184:2 185:0 186:2 187:0 188:0 189:0 190:0 191:1 192:1 193:0 194:0 195:0 196:0 197:0 198:0 199:0 200:0 201:0 202:1 203:0 204:0 205:0 206:0 207:0 208:0 209:0 210:0 211:0 212:0 213:0 214:0 215:0 216:0 217:0 218:0 219:0 220:0 221:0 222:0 223:0 224:0 225:0 226:0 227:2 228:0 229:2 230:0 231:0 232:1 233:0 234:0 235:0 236:2 237:1 238:0 239:1 240:2 241:0 242:0 243:0 244:1 245:0 246:0 247:0 248:0 249:0 250:4 251:1 252:0 253:1 254:0 255:0 256:0 257:1 258:0 259:0 260:0 261:0 262:0 263:0 264:0 265:0 266:0 267:1 268:4 269:0 270:0 271:0 272:0 273:2 274:3 275:2 276:0 277:0 278:0 279:0 280:0 281:0 282:0 283:0 284:0 285:0 286:0 287:0 288:1 289:0 290:1 291:0 292:2 293:0 294:1 295:1 296:0 297:0 298:0 299:0 300:0 301:1 302:1 303:1 304:0 305:1 306:0 307:1 308:0 309:0 310:0 311:0 312:0 313:1 314:1 315:1 316:1 317:0 318:0 319:0 320:1 321:0 322:0 323:0 324:0 325:0 326:0 327:0 328:0 329:0 330:0 331:0 332:0 333:0 334:0 335:0 336:0 337:0 338:1 339:0 340:0 341:0 342:0 343:0 344:1 345:1 346:0 347:0 348:0 349:0 350:0 351:0 352:1 353:0 354:0 355:0 356:0 357:1 358:1 359:0 360:1 361:0 362:0 363:0 364:1 365:0 366:0 367:0 368:1 369:1 370:1 371:1 372:1 373:0 374:0 375:0 376:0 377:1 378:0 379:3 380:0 381:1 382:1 383:0 384:0 385:1 386:0 387:1 388:0 389:0 390:1 391:1 392:1 393:0 394:0 395:0 396:0 397:1 398:0 399:0 400:2 401:0 402:1 403:0 404:0 405:2 406:0 407:0 408:2 409:0 410:0 411:0 412:0 413:0 414:0 415:0 416:0 417:0 418:0 419:0 420:0 421:0 422:0 423:0 424:0 425:0 426:0 427:0 428:0 429:1 430:0 431:1 432:0 433:1 434:0 435:0 436:1 437:0 438:0 439:0 440:0 441:1 442:0 443:0 444:0 445:0 446:2 447:2 448:3 449:0 450:0 451:0 452:1 453:1 454:0 455:0 456:0 457:0 458:0 459:0 460:0 461:0 462:0 463:0 464:0 465:0 466:0 467:1 468:0 469:1 470:0 471:0 472:2 473:0 474:1 475:0 476:1 477:1 478:0 479:0 480:0 481:1 482:0 483:0 484:0 485:1 486:0 487:0 
0 0.0005017410831877836 0 0.001973410544407064 1:124.76444 2:74.302222 3:200 4:255 5:8 6:0 7:4 8:0 9:0 10:0 11:3 12:1 13:0 14:0 15:0 16:0 17:0 18:0 19:1 20:0 21:0 22:1 23:1 24:0 25:0 26:20 27:19 28:0 29:1 30:5 31:0 32:0 33:0 34:0 35:3 36:2 37:2 38:0 39:1 40:0 41:0 42:0 43:0 44:0 45:0 46:0 47:0 48:5 49:4 50:0 51:3 52:2 53:0 54:5 55:0 56:1 57:0 58:0 59:0 60:0 61:0 62:0 63:0 64:1 65:0 66:1 67:0 68:0 69:0 70:0 71:2 72:4 73:0 74:0 75:0 76:0 77:0 78:0 79:0 80:1 81:2 82:2 83:0 84:1 85:0 86:0 87:0 88:0 89:0 90:0 91:1 92:0 93:6 94:4 95:0 96:0 97:1 98:2 99:0 100:0 101:0 102:1 103:1 104:0 105:1 106:0 107:0 108:1 109:0 110:0 111:0 112:1 113:0 114:0 115:0 116:2 117:1 118:3 119:1 120:0 121:4 122:1 123:3 124:0 125:0 126:0 127:0 128:0 129:2 130:0 131:2 132:0 133:0 134:0 135:0 136:0 137:0 138:0 139:0 140:0 141:1 142:0 143:0 144:0 145:1 146:1 147:1 148:2 149:1 150:0 151:0 152:0 153:0 154:0 155:0 156:0 157:0 158:0 159:7 160:0 161:0 162:3 163:1 164:0 165:0 166:0 167:0 168:0 169:0 170:1 171:1 172:0 173:0 174:0 175:0 176:0 177:2 178:0 179:0 180:3 181:0 182:0 183:0 184:0 185:0 186:2 187:0 188:2 189:2 190:2 191:0 192:1 193:0 194:1 195:0 196:0 197:0 198:0 199:0 200:0 201:0 202:10 203:1 204:3 205:0 206:3 207:0 208:0 209:0 210:0 211:1 212:0 213:0 214:0 215:0 216:0 217:1 218:0 219:1 220:1 221:0 222:0 223:0 224:0 225:0 226:1 227:7 228:3 229:4 230:1 231:0 232:0 233:0 234:0 235:0 236:0 237:1 238:0 239:0 240:0 241:0 242:0 243:0 244:0 245:0 246:0 247:0 248:0 249:0 250:4 251:0 252:3 253:1 254:2 255:2 256:1 257:0 258:0 259:0 260:0 261:0 262:2 263:0 264:0 265:0 266:0 267:0 268:1 269:1 270:0 271:0 272:0 273:0 274:0 275:0 276:0 277:0 278:0 279:1 280:1 281:1 282:0 283:0 284:0 285:0 286:0 287:0 288:0 289:0 290:0 291:0 292:2 293:3 294:0 295:0 296:0 297:0 298:2 299:0 300:0 301:0 302:0 303:0 304:1 305:0 306:1 307:1 308:1 309:0 310:0 311:1 312:2 313:0 314:6 315:2 316:2 317:1 318:3 319:5 320:1 321:0 322:0 323:2 324:2 325:1 326:0 327:0 328:0 329:0 330:1 331:1 332:0 333:0 334:0 335:0 336:0 337:0 338:0 339:2 340:0 341:1 342:2 343:0 344:1 345:0 346:0 347:0 348:1 349:0 350:2 351:1 352:0 353:0 354:0 355:0 356:2 357:3 358:0 359:0 360:0 361:3 362:1 363:0 364:0 365:0 366:2 367:1 368:0 369:1 370:0 371:0 372:0 373:0 374:0 375:0 376:0 377:1 378:0 379:0 380:2 381:0 382:1 383:0 384:0 385:2 386:0 387:0 388:0 389:0 390:0 391:1 392:0 393:0 394:0 395:0 396:0 397:0 398:0 399:0 400:0 401:2 402:0 403:0 404:0 405:0 406:2 407:2 408:0 409:0 410:0 411:0 412:1 413:0 414:0 415:0 416:0 417:0 418:0 419:1 420:1 421:0 422:0 423:1 424:2 425:0 426:0 427:2 428:0 429:1 430:0 431:1 432:2 433:1 434:0 435:0 436:0 437:0 438:1 439:0 440:0 441:0 442:0 443:0 444:0 445:0 446:0 447:0 448:0 449:3 450:0 451:0 452:1 453:0 454:0 455:0 456:0 457:0 458:0 459:1 460:1 461:0 462:1 463:1 464:0 465:1 466:0 467:0 468:1 469:3 470:0 471:0 472:0 473:1 474:3 475:0 476:0 477:0 478:1 479:1 480:0 481:0 482:0 483:0 484:0 485:0 486:0 487:0 
0 0 0.003273851183031119 0 1:125.38963 2:74.580741 3:200 4:255 5:25 6:3 7:0 8:0 9:3 10:3 11:0 12:2 13:0 14:0 15:0 16:0 17:1 18:0 19:0 20:0 21:0 22:0 23:0 24:0 25:0 26:14 27:5 28:2 29:0 30:0 31:3 32:1 33:3 34:2 35:0 36:0 37:0 38:0 39:0 40:0 41:0 42:0 43:1 44:0 45:0 46:0 47:0 48:4 49:0 50:4 51:5 52:0 53:0 54:2 55:0 56:1 57:1 58:0 59:0 60:0 61:1 62:0 63:0 64:0 65:0 66:0 67:0 68:0 69:0 70:15 71:3 72:0 73:0 74:7 75:1 76:1 77:3 78:1 79:0 80:0 81:1 82:1 83:1 84:0 85:0 86:0 87:0 88:0 89:0 90:0 91:0 92:0 93:4 94:2 95:0 96:3 97:2 98:0 99:1 100:0 101:2 102:2 103:0 104:0 105:0 106:1 107:0 108:1 109:0 110:0 111:0 112:0 113:1 114:1 115:0 116:0 117:3 118:0 119:2 120:1 121:4 122:1 123:0 124:0 125:2 126:0 127:0 128:0 129:1 130:0 131:0 132:0 133:0 134:0 135:0 136:3 137:0 138:1 139:0 140:0 141:0 142:2 143:2 144:2 145:0 146:0 147:1 148:1 149:0 150:0 151:0 152:0 153:0 154:0 155:0 156:0 157:0 158:4 159:0 160:0 161:2 162:3 163:0 164:0 165:1 166:0 167:0 168:0 169:0 170:0 171:1 172:0 173:1 174:1 175:0 176:2 177:1 178:0 179:0 180:0 181:3 182:0 183:0 184:1 185:0 186:0 187:0 188:0 189:0 190:1 191:0 192:0 193:3 194:0 195:1 196:0 197:0 198:0 199:0 200:1 201:0 202:6 203:5 204:3 205:0 206:0 207:2 208:1 209:0 210:0 211:0 212:0 213:0 214:0 215:0 216:0 217:1 218:1 219:1 220:0 221:0 222:0 223:0 224:0 225:0 226:0 227:0 228:0 229:1 230:1 231:0 232:0 233:0 234:2 235:0 236:0 237:1 238:0 239:0 240:1 241:0 242:0 243:0 244:0 245:0 246:4 247:0 248:4 249:3 250:1 251:0 252:0 253:0 254:1 255:1 256:0 257:0 258:0 259:1 260:0 261:0 262:0 263:1 264:0 265:0 266:0 267:0 268:0 269:0 270:0 271:0 272:0 273:1 274:0 275:0 276:2 277:0 278:2 279:0 280:2 281:0 282:0 283:0 284:0 285:0 286:0 287:0 288:1 289:0 290:0 291:6 292:0 293:0 294:2 295:0 296:0 297:3 298:2 299:0 300:0 301:0 302:0 303:1 304:0 305:0 306:1 307:1 308:0 309:0 310:0 311:0 312:0 313:0 314:0 315:0 316:4 317:1 318:0 319:0 320:0 321:0 322:0 323:2 324:0 325:0 326:0 327:1 328:0 329:0 330:0 331:1 332:0 333:1 334:0 335:2 336:2 337:0 338:0 339:0 340:4 341:0 342:1 343:0 344:0 345:0 346:0 347:0 348:0 349:1 350:0 351:1 352:1 353:0 354:0 355:0 356:0 357:1 358:0 359:0 360:1 361:0 362:1 363:0 364:2 365:0 366:0 367:2 368:0 369:1 370:0 371:1 372:0 373:0 374:0 375:0 376:0 377:0 378:1 379:2 380:0 381:0 382:1 383:0 384:2 385:0 386:0 387:0 388:0 389:0 390:0 391:0 392:0 393:0 394:1 395:0 396:0 397:1 398:0 399:0 400:2 401:0 402:1 403:0 404:1 405:1 406:0 407:2 408:0 409:1 410:0 411:1 412:1 413:2 414:0 415:0 416:0 417:0 418:0 419:0 420:0 421:0 422:0 423:1 424:1 425:1 426:0 427:0 428:0 429:0 430:1 431:0 432:1 433:0 434:1 435:0 436:2 437:0 438:1 439:0 440:0 441:0 442:0 443:0 444:1 445:0 446:1 447:0 448:0 449:0 450:3 451:2 452:0 453:1 454:1 455:0 456:0 457:1 458:0 459:2 460:1 461:0 462:0 463:0 464:0 465:0 466:1 467:0 468:1 469:0 470:0 471:2 472:0 473:0 474:0 475:0 476:0 477:1 478:0 479:0 480:0 481:1 482:0 483:0 484:1 485:0 486:0 487:0 
0 0 0.002365028730113353 0 1:125.57185 2:74.712099 3:200 4:255 5:25 6:0 7:0 8:0 9:1 10:4 11:0 12:2 13:2 14:0 15:1 16:0 17:1 18:1 19:0 20:1 21:0 22:1 23:0 24:0 25:0 26:15 27:0 28:5 29:0 30:0 31:0 32:0 33:0 34:2 35:1 36:3 37:0 38:0 39:1 40:1 41:1 42:0 43:0 44:1 45:1 46:0 47:1 48:13 49:0 50:0 51:4 52:0 53:0 54:1 55:1 56:0 57:1 58:0 59:0 60:0 61:1 62:1 63:0 64:1 65:0 66:1 67:1 68:0 69:0 70:7 71:8 72:0 73:0 74:5 75:3 76:0 77:0 78:1 79:0 80:1 81:0 82:0 83:1 84:1 85:1 86:0 87:1 88:0 89:0 90:0 91:0 92:0 93:0 94:4 95:5 96:0 97:1 98:0 99:0 100:1 101:0 102:0 103:1 104:1 105:0 106:0 107:0 108:1 109:0 110:0 111:0 112:0 113:0 114:4 115:0 116:0 117:0 118:0 119:0 120:1 121:0 122:2 123:1 124:0 125:0 126:0 127:0 128:1 129:0 130:1 131:0 132:0 133:1 134:0 135:1 136:2 137:0 138:2 139:0 140:5 141:0 142:1 143:0 144:0 145:0 146:0 147:0 148:0 149:0 150:0 151:0 152:0 153:0 154:0 155:0 156:0 157:0 158:0 159:4 160:1 161:0 162:0 163:0 164:2 165:0 166:0 167:0 168:1 169:1 170:0 171:0 172:1 173:0 174:0 175:0 176:1 177:0 178:0 179:0 180:3 181:0 182:5 183:2 184:0 185:1 186:1 187:0 188:0 189:0 190:1 191:0 192:2 193:1 194:0 195:2 196:0 197:0 198:0 199:0 200:0 201:0 202:0 203:0 204:0 205:1 206:2 207:0 208:0 209:0 210:1 211:0 212:1 213:0 214:1 215:0 216:1 217:1 218:0 219:1 220:0 221:1 222:0 223:0 224:2 225:0 226:0 227:4 228:2 229:0 230:0 231:0 232:0 233:1 234:0 235:0 236:1 237:0 238:0 239:1 240:1 241:0 242:0 243:0 244:0 245:0 246:0 247:1 248:0 249:0 250:0 251:1 252:0 253:1 254:2 255:0 256:1 257:0 258:0 259:0 260:0 261:0 262:0 263:1 264:0 265:0 266:1 267:0 268:0 269:0 270:2 271:3 272:0 273:1 274:0 275:3 276:0 277:2 278:0 279:0 280:0 281:0 282:0 283:0 284:0 285:0 286:1 287:0 288:1 289:0 290:1 291:0 292:0 293:4 294:0 295:0 296:2 297:0 298:0 299:0 300:1 301:0 302:1 303:0 304:0 305:0 306:0 307:1 308:0 309:1 310:0 311:0 312:0 313:3 314:0 315:1 316:0 317:0 318:0 319:1 320:1 321:2 322:2 323:0 324:0 325:0 326:2 327:0 328:0 329:1 330:1 331:0 332:1 333:1 334:0 335:0 336:0 337:1 338:2 339:2 340:0 341:1 342:1 343:0 344:1 345:0 346:0 347:0 348:0 349:0 350:0 351:1 352:0 353:0 354:0 355:0 356:0 357:0 358:3 359:0 360:0 361:0 362:0 363:0 364:0 365:2 366:0 367:1 368:0 369:0 370:0 371:0 372:0 373:0 374:1 375:1 376:1 377:1 378:0 379:3 380:0 381:0 382:1 383:0 384:3 385:0 386:0 387:1 388:0 389:0 390:0 391:0 392:0 393:0 394:1 395:0 396:0 397:0 398:0 399:0 400:1 401:0 402:1 403:0 404:0 405:0 406:0 407:4 408:0 409:1 410:0 411:0 412:0 413:0 414:1 415:0 416:1 417:0 418:0 419:0 420:1 421:0 422:0 423:0 424:0 425:0 426:1 427:0 428:0 429:0 430:1 431:0 432:1 433:0 434:0 435:1 436:0 437:1 438:0 439:0 440:0 441:1 442:0 443:0 444:0 445:0 446:2 447:0 448:0 449:0 450:0 451:3 452:0 453:0 454:1 455:1 456:0 457:0 458:0 459:0 460:0 461:1 462:1 463:0 464:0 465:1 466:1 467:0 468:0 469:0 470:0 471:2 472:0 473:2 474:0 475:0 476:0 477:1 478:0 479:0 480:0 481:0 482:1 483:0 484:0 485:1 486:1 487:0 
