svm_type c_svc
kernel_type linear
nr_class 4
total_sv 193
rho 49.9102 -38.5873 -58.6048 -28.154 -41.9241 -59.0892
label 1 2 3 4
probA -2.25507 -0.882288 -2.58734 -4.03397 -4.02677 -2.53002
probB -0.089443 -0.138231 0.281112 -0.274579 0.338906 0.184319
nr_sv 63 40 53 37
SV
0 0.02769475170669157 0.003087708658051962 1:128.5488 2:74.8416 3:200 4:255 5:0 6:2 7:0 8:0 9:0 10:0 11:1 12:0 13:0 14:0 15:0 16:1 17:0 18:0 19:0 20:0 21:0 22:0 23:1 24:0 25:0 26:0 27:0 28:1 29:1 30:1 31:0 32:1 33:0 34:0 35:0 36:0 37:0 38:0 39:0 40:3 41:0 42:0 43:0 44:0 45:0 46:0 47:0 48:0 49:0 50:0 51:0 52:0 53:0 54:0 55:0 56:2 57:0 58:0 59:0 60:0 61:0 62:0 63:0 64:0 65:0 66:0 67:0 68:1 69:1 70:0 71:0 72:0 73:0 74:0 75:0 76:0 77:0 78:0 79:1 80:1 81:0 82:0 83:0 84:0 85:0 86:0 87:0 88:0 89:0 90:0 91:0 92:1 93:0 94:0 95:0 96:1 97:0 98:0 99:0 100:1 101:0 102:0 103:0 104:0 105:0 106:0 107:1 108:1 109:0 110:0 111:0 112:0 113:0 114:0 115:1 116:1 117:0 118:1 119:0 120:0 121:0 122:0 123:0 124:0 125:1 126:0 127:0 128:0 129:0 130:1 131:0 132:1 133:0 134:0 135:0 136:1 137:0 138:0 139:0 140:0 141:0 142:0 143:1 144:0 145:0 146:0 147:0 
0 0.1033601787965899 0 1:126.7712 2:73.36 3:200 4:255 5:1 6:0 7:0 8:0 9:1 10:0 11:0 12:0 13:0 14:0 15:0 16:0 17:1 18:0 19:0 20:0 21:0 22:0 23:0 24:0 25:0 26:0 27:0 28:0 29:0 30:1 31:0 32:0 33:0 34:1 35:1 36:0 37:0 38:0 39:0 40:0 41:1 42:3 43:0 44:0 45:0 46:0 47:0 48:0 49:0 50:0 51:1 52:0 53:0 54:1 55:1 56:0 57:0 58:0 59:0 60:0 61:0 62:0 63:0 64:1 65:0 66:0 67:1 68:0 69:1 70:0 71:0 72:0 73:0 74:1 75:0 76:0 77:1 78:0 79:0 80:1 81:0 82:0 83:0 84:1 85:0 86:0 87:0 88:0 89:0 90:1 91:1 92:1 93:0 94:1 95:0 96:0 97:1 98:0 99:0 100:3 101:0 102:0 103:1 104:0 105:0 106:0 107:0 108:0 109:0 110:0 111:0 112:0 113:0 114:0 115:0 116:0 117:0 118:0 119:0 120:0 121:0 122:0 123:0 124:1 125:0 126:1 127:0 128:0 129:0 130:0 131:0 132:0 133:0 134:0 135:0 136:1 137:0 138:0 139:1 140:0 141:0 142:1 143:0 144:0 145:0 146:0 147:0 
0.04765613142411056 0 0 1:126.0816 2:74.2368 3:200 4:255 5:3 6:0 7:0 8:0 9:1 10:1 11:1 12:1 13:0 14:0 15:1 16:0 17:2 18:0 19:0 20:0 21:0 22:0 23:0 24:0 25:0 26:0 27:0 28:0 29:0 30:0 31:2 32:1 33:1 34:0 35:0 36:0 37:0 38:0 39:0 40:0 41:3 42:0 43:0 44:3 45:0 46:0 47:0 48:0 49:0 50:0 51:0 52:0 53:0 54:0 55:3 56:1 57:1 58:0 59:1 60:0 61:0 62:1 63:0 64:0 65:0 66:0 67:0 68:0 69:1 70:0 71:0 72:0 73:1 74:0 75:0 76:0 77:0 78:3 79:0 80:1 81:0 82:1 83:0 84:0 85:1 86:0 87:0 88:1 89:0 90:1 91:0 92:2 93:0 94:0 95:0 96:0 97:0 98:0 99:0 100:3 101:0 102:0 103:1 104:0 105:1 106:0 107:0 108:0 109:0 110:0 111:0 112:0 113:2 114:1 115:0 116:0 117:0 118:0 119:0 120:1 121:0 122:0 123:0 124:1 125:1 126:2 127:0 128:1 129:0 130:0 131:0 132:0 133:0 134:0 135:1 136:0 137:1 138:1 139:0 140:0 141:0 142:0 143:1 144:0 145:0 146:0 147:0 
0.01655722952258257 0 0 1:126.4288 2:74.5296 3:200 4:255 5:1 6:1 7:0 8:0 9:0 10:0 11:0 12:0 13:0 14:0 15:0 16:0 17:0 18:0 19:0 20:0 21:0 22:0 23:0 24:0 25:0 26:0 27:0 28:1 29:0 30:0 31:0 32:0 33:0 34:1 35:0 36:0 37:0 38:0 39:0 40:2 41:0 42:0 43:0 44:0 45:0 46:0 47:0 48:0 49:0 50:0 51:0 52:0 53:0 54:0 55:1 56:1 57:0 58:0 59:0 60:1 61:0 62:0 63:0 64:0 65:0 66:0 67:2 68:0 69:0 70:0 71:0 72:0 73:0 74:0 75:0 76:0 77:0 78:0 79:1 80:0 81:0 82:0 83:0 84:1 85:0 86:0 87:0 88:1 89:0 90:0 91:0 92:0 93:0 94:0 95:0 96:0 97:1 98:0 99:0 100:0 101:1 102:0 103:0 104:0 105:0 106:1 107:0 108:0 109:0 110:0 111:0 112:1 113:0 114:2 115:2 116:0 117:0 118:0 119:0 120:0 121:0 122:0 123:0 124:1 125:0 126:0 127:0 128:0 129:1 130:1 131:0 132:0 133:1 134:0 135:0 136:0 137:0 138:0 139:0 140:0 141:0 142:0 143:0 144:0 145:0 146:0 147:0 
0.001960014543537646 0 0 1:126.0336 2:74.3456 3:200 4:255 5:0 6:2 7:1 8:0 9:0 10:0 11:1 12:0 13:0 14:0 15:0 16:8 17:6 18:2 19:0 20:0 21:0 22:2 23:0 24:0 25:0 26:0 27:0 28:2 29:0 30:0 31:0 32:3 33:0 34:0 35:0 36:1 37:1 38:0 39:0 40:0 41:0 42:0 43:0 44:0 45:1 46:1 47:2 48:0 49:0 50:0 51:0 52:0 53:2 54:7 55:4 56:1 57:0 58:0 59:0 60:0 61:0 62:0 63:0 64:0 65:0 66:0 67:0 68:0 69:0 70:1 71:1 72:1 73:0 74:0 75:0 76:1 77:1 78:0 79:0 80:2 81:0 82:0 83:0 84:0 85:0 86:0 87:1 88:1 89:0 90:0 91:1 92:1 93:1 94:1 95:0 96:0 97:0 98:0 99:0 100:0 101:0 102:2 103:0 104:0 105:0 106:0 107:0 108:0 109:0 110:0 111:0 112:1 113:0 114:0 115:0 116:1 117:0 118:0 119:0 120:0 121:0 122:0 123:0 124:0 125:0 126:0 127:1 128:0 129:0 130:1 131:0 132:1 133:0 134:0 135:1 136:1 137:0 138:0 139:0 140:0 141:0 142:0 143:1 144:0 145:0 146:0 147:0 
0.007504784613122726 0.1210152178503472 0 1:126.6352 2:74.3888 3:200 4:255 5:0 6:4 7:0 8:2 9:0 10:1 11:0 12:0 13:0 14:0 15:1 16:2 17:0 18:1 19:0 20:1 21:0 22:0 23:0 24:0 25:0 26:0 27:0 28:2 29:0 30:1 31:2 32:2 33:0 34:0 35:0 36:0 37:0 38:0 39:0 40:0 41:2 42:0 43:0 44:0 45:1 46:0 47:0 48:0 49:0 50:0 51:0 52:0 53:1 54:0 55:2 56:0 57:1 58:0 59:0 60:0 61:0 62:0 63:0 64:0 65:3 66:0 67:0 68:0 69:1 70:0 71:0 72:0 73:0 74:0 75:0 76:0 77:3 78:0 79:0 80:0 81:0 82:1 83:0 84:0 85:0 86:0 87:0 88:0 89:0 90:0 91:1 92:0 93:0 94:0 95:0 96:0 97:0 98:0 99:0 100:0 101:0 102:0 103:0 104:0 105:0 106:0 107:0 108:0 109:0 110:0 111:0 112:0 113:0 114:0 115:1 116:0 117:0 118:0 119:0 120:0 121:0 122:0 123:0 124:0 125:0 126:0 127:0 128:0 129:1 130:1 131:0 132:0 133:0 134:0 135:0 136:0 137:0 138:1 139:0 140:0 141:0 142:0 143:0 144:0 145:0 146:0 147:0 
0.03288246231489855 0 0 1:126.3024 2:74.3056 3:200 4:255 5:0 6:1 7:2 8:0 9:0 10:0 11:0 12:0 13:0 14:0 15:0 16:0 17:0 18:1 19:0 20:3 21:0 22:0 23:1 24:0 25:0 26:0 27:1 28:2 29:4 30:0 31:0 32:2 33:0 34:1 35:1 36:0 37:0 38:0 39:0 40:0 41:1 42:1 43:0 44:0 45:1 46:0 47:0 48:0 49:0 50:0 51:0 52:0 53:0 54:0 55:1 56:0 57:0 58:1 59:1 60:0 61:0 62:1 63:0 64:0 65:1 66:1 67:0 68:1 69:0 70:0 71:0 72:0 73:0 74:0 75:0 76:0 77:0 78:0 79:0 80:0 81:1 82:0 83:0 84:0 85:0 86:0 87:0 88:2 89:0 90:0 91:0 92:1 93:0 94:0 95:1 96:0 97:0 98:0 99:0 100:1 101:0 102:1 103:1 104:1 105:1 106:0 107:0 108:0 109:1 110:0 111:0 112:0 113:1 114:0 115:1 116:1 117:0 118:0 119:0 120:0 121:0 122:0 123:0 124:0 125:1 126:3 127:0 128:1 129:1 130:0 131:0 132:0 133:0 134:0 135:0 136:0 137:0 138:1 139:1 140:1 141:0 142:0 143:0 144:0 145:0 146:0 147:0 
0 0.01212369954085601 0 1:127.5568 2:73.8016 3:200 4:255 5:0 6:0 7:0 8:0 9:0 10:0 11:1 12:0 13:0 14:0 15:0 16:1 17:0 18:1 19:0 20:2 21:0 22:0 23:1 24:0 25:0 26:1 27:0 28:1 29:1 30:0 31:0 32:1 33:0 34:0 35:0 36:0 37:0 38:0 39:0 40:0 41:0 42:1 43:0 44:0 45:0 46:0 47:0 48:1 49:0 50:0 51:0 52:0 53:3 54:1 55:0 56:0 57:0 58:0 59:1 60:0 61:1 62:0 63:0 64:2 65:0 66:1 67:1 68:0 69:0 70:0 71:0 72:0 73:0 74:0 75:1 76:0 77:0 78:0 79:0 80:0 81:1 82:1 83:0 84:1 85:0 86:0 87:0 88:2 89:0 90:0 91:0 92:0 93:0 94:0 95:1 96:0 97:0 98:0 99:0 100:0 101:0 102:0 103:1 104:1 105:0 106:0 107:0 108:0 109:0 110:1 111:0 112:1 113:0 114:0 115:1 116:1 117:0 118:0 119:1 120:0 121:0 122:0 123:0 124:1 125:0 126:0 127:1 128:0 129:0 130:0 131:0 132:0 133:0 134:0 135:0 136:0 137:0 138:0 139:0 140:0 141:1 142:0 143:0 144:0 145:1 146:0 147:0 
0 0.03992089518853444 0 1:126.8544 2:74.6528 3:200 4:255 5:1 6:0 7:1 8:0 9:0 10:1 11:0 12:0 13:0 14:0 15:0 16:3 17:0 18:0 19:2 20:0 21:1 22:0 23:1 24:0 25:0 26:0 27:0 28:0 29:3 30:1 31:0 32:0 33:0 34:0 35:0 36:0 37:0 38:1 39:0 40:0 41:0 42:0 43:1 44:0 45:1 46:0 47:1 48:0 49:1 50:0 51:0 52:0 53:0 54:0 55:0 56:0 57:1 58:1 59:0 60:0 61:0 62:0 63:0 64:0 65:1 66:0 67:0 68:1 69:0 70:0 71:0 72:0 73:0 74:0 75:0 76:2 77:0 78:2 79:0 80:0 81:0 82:1 83:1 84:0 85:1 86:0 87:0 88:0 89:0 90:0 91:0 92:1 93:0 94:0 95:0 96:0 97:0 98:0 99:0 100:1 101:0 102:0 103:0 104:0 105:0 106:0 107:0 108:0 109:0 110:0 111:0 112:0 113:0 114:1 115:0 116:0 117:0 118:0 119:0 120:0 121:0 122:0 123:0 124:0 125:1 126:0 127:0 128:1 129:0 130:1 131:0 132:0 133:0 134:0 135:0 136:0 137:0 138:0 139:0 140:0 141:0 142:0 143:0 144:0 145:0 146:0 147:0 
0 0.04887125924083846 0 1:125.8128 2:73.128 3:200 4:255 5:0 6:0 7:0 8:0 9:0 10:1 11:1 12:0 13:0 14:0 15:0 16:4 17:0 18:0 19:0 20:3 21:1 22:0 23:0 24:1 25:0 26:0 27:0 28:0 29:1 30:2 31:0 32:0 33:0 34:0 35:0 36:0 37:0 38:0 39:1 40:1 41:0 42:2 43:1 44:2 45:0 46:0 47:0 48:0 49:0 50:1 51:0 52:0 53:1 54:2 55:1 56:0 57:1 58:0 59:0 60:0 61:0 62:0 63:1 64:3 65:0 66:0 67:1 68:1 69:1 70:0 71:0 72:0 73:0 74:0 75:0 76:3 77:1 78:0 79:0 80:1 81:1 82:0 83:0 84:0 85:0 86:1 87:0 88:0 89:1 90:1 91:2 92:1 93:0 94:0 95:0 96:0 97:0 98:0 99:0 100:3 101:0 102:1 103:1 104:0 105:1 106:0 107:0 108:1 109:1 110:0 111:0 112:0 113:1 114:0 115:0 116:1 117:2 118:0 119:0 120:0 121:0 122:0 123:0 124:0 125:1 126:0 127:0 128:0 129:1 130:1 131:0 132:0 133:1 134:0 135:0 136:1 137:0 138:0 139:0 140:0 141:1 142:0 143:0 144:0 145:0 146:0 147:0 
0.0216607785922741 0 0 1:122.8144 2:73.9872 3:200 4:255 5:13 6:2 7:0 8:0 9:0 10:0 11:2 12:2 13:0 14:0 15:0 16:4 17:0 18:7 19:0 20:2 21:0 22:0 23:0 24:0 25:1 26:0 27:0 28:5 29:0 30:0 31:0 32:0 33:0 34:0 35:1 36:0 37:0 38:1 39:0 40:0 41:0 42:2 43:1 44:0 45:0 46:0 47:0 48:0 49:0 50:0 51:0 52:2 53:1 54:1 55:0 56:0 57:0 58:0 59:1 60:0 61:0 62:0 63:0 64:2 65:0 66:2 67:4 68:4 69:2 70:0 71:0 72:0 73:0 74:0 75:0 76:0 77:1 78:0 79:0 80:0 81:1 82:1 83:0 84:0 85:0 86:0 87:1 88:0 89:0 90:0 91:0 92:0 93:1 94:0 95:0 96:0 97:0 98:1 99:1 100:1 101:1 102:0 103:0 104:3 105:1 106:0 107:0 108:0 109:0 110:0 111:1 112:4 113:0 114:2 115:1 116:1 117:2 118:0 119:0 120:0 121:0 122:0 123:0 124:0 125:0 126:0 127:0 128:0 129:1 130:0 131:1 132:1 133:0 134:0 135:0 136:0 137:0 138:1 139:0 140:1 141:1 142:0 143:0 144:0 145:0 146:0 147:1 
0 0 0.0323979155151066 1:126.7904 2:75.0048 3:200 4:255 5:11 6:6 7:2 8:0 9:0 10:0 11:0 12:0 13:0 14:0 15:0 16:10 17:8 18:6 19:1 20:0 21:0 22:0 23:1 24:0 25:0 26:0 27:0 28:3 29:1 30:0 31:0 32:1 33:0 34:2 35:0 36:1 37:0 38:0 39:0 40:0 41:0 42:0 43:1 44:1 45:0 46:0 47:0 48:0 49:1 50:1 51:0 52:0 53:0 54:0 55:0 56:0 57:2 58:0 59:2 60:0 61:2 62:0 63:0 64:0 65:0 66:0 67:0 68:1 69:0 70:0 71:0 72:1 73:1 74:1 75:0 76:0 77:0 78:2 79:2 80:1 81:1 82:0 83:0 84:0 85:0 86:0 87:0 88:2 89:2 90:1 91:1 92:0 93:1 94:0 95:1 96:0 97:0 98:0 99:0 100:3 101:5 102:3 103:1 104:0 105:0 106:1 107:0 108:0 109:0 110:0 111:0 112:1 113:0 114:1 115:0 116:0 117:0 118:0 119:0 120:0 121:0 122:0 123:0 124:0 125:0 126:0 127:0 128:0 129:0 130:1 131:0 132:0 133:0 134:0 135:0 136:1 137:0 138:0 139:0 140:0 141:0 142:0 143:0 144:0 145:1 146:0 147:0 
0 0.1000081814475225 0.01905818131893621 1:126.5488 2:73.6704 3:200 4:255 5:3 6:2 7:2 8:0 9:0 10:0 11:2 12:0 13:0 14:0 15:0 16:6 17:0 18:1 19:0 20:0 21:0 22:0 23:0 24:0 25:1 26:0 27:0 28:1 29:2 30:0 31:0 32:0 33:0 34:0 35:0 36:0 37:0 38:1 39:0 40:8 41:0 42:0 43:0 44:0 45:1 46:0 47:0 48:1 49:0 50:0 51:0 52:0 53:0 54:2 55:1 56:0 57:0 58:1 59:1 60:0 61:0 62:0 63:0 64:0 65:0 66:1 67:0 68:0 69:2 70:0 71:0 72:0 73:1 74:0 75:0 76:2 77:0 78:0 79:0 80:1 81:0 82:1 83:0 84:0 85:0 86:0 87:0 88:0 89:1 90:0 91:1 92:0 93:0 94:0 95:0 96:0 97:0 98:1 99:0 100:0 101:1 102:0 103:1 104:1 105:0 106:0 107:0 108:0 109:0 110:0 111:0 112:2 113:0 114:0 115:0 116:0 117:0 118:0 119:0 120:0 121:1 122:0 123:0 124:0 125:0 126:0 127:0 128:0 129:1 130:0 131:0 132:1 133:0 134:0 135:0 136:0 137:0 138:2 139:0 140:1 141:0 142:0 143:0 144:0 145:0 146:0 147:0 
0 0.05706503501557458 0 1:126.0736 2:74.0336 3:200 4:255 5:0 6:2 7:1 8:6 9:2 10:1 11:3 12:0 13:0 14:0 15:0 16:2 17:0 18:1 19:0 20:0 21:0 22:0 23:0 24:0 25:0 26:1 27:1 28:4 29:0 30:0 31:2 32:0 33:0 34:0 35:0 36:1 37:0 38:0 39:1 40:0 41:0 42:0 43:1 44:0 45:0 46:0 47:0 48:2 49:0 50:1 51:0 52:2 53:0 54:0 55:0 56:0 57:2 58:1 59:0 60:0 61:0 62:0 63:0 64:0 65:0 66:2 67:4 68:0 69:0 70:0 71:0 72:1 73:0 74:0 75:0 76:0 77:1 78:0 79:0 80:0 81:1 82:0 83:0 84:0 85:0 86:0 87:0 88:2 89:0 90:0 91:0 92:0 93:1 94:1 95:0 96:0 97:0 98:0 99:0 100:0 101:0 102:0 103:0 104:2 105:0 106:0 107:0 108:1 109:0 110:0 111:0 112:0 113:0 114:0 115:1 116:0 117:1 118:2 119:0 120:0 121:0 122:0 123:0 124:2 125:0 126:2 127:1 128:0 129:1 130:1 131:0 132:0 133:1 134:0 135:0 136:1 137:2 138:0 139:0 140:2 141:1 142:0 143:1 144:0 145:0 146:0 147:0 
0.03282567803347369 0 0 1:125.4688 2:74.3792 3:200 4:255 5:4 6:5 7:3 8:0 9:0 10:0 11:0 12:0 13:1 14:1 15:1 16:3 17:0 18:2 19:0 20:1 21:3 22:0 23:0 24:0 25:0 26:0 27:0 28:0 29:0 30:2 31:0 32:0 33:0 34:1 35:0 36:0 37:0 38:0 39:0 40:0 41:0 42:0 43:0 44:0 45:0 46:2 47:0 48:1 49:0 50:0 51:0 52:1 53:1 54:0 55:2 56:0 57:0 58:2 59:0 60:0 61:0 62:0 63:0 64:0 65:0 66:2 67:0 68:1 69:0 70:0 71:0 72:0 73:0 74:0 75:0 76:1 77:0 78:0 79:2 80:0 81:0 82:1 83:0 84:0 85:0 86:0 87:0 88:2 89:0 90:0 91:2 92:1 93:0 94:0 95:0 96:0 97:0 98:0 99:0 100:0 101:0 102:2 103:1 104:0 105:0 106:0 107:0 108:0 109:0 110:0 111:0 112:2 113:0 114:0 115:0 116:1 117:1 118:1 119:0 120:0 121:0 122:0 123:0 124:0 125:0 126:0 127:3 128:1 129:0 130:0 131:0 132:0 133:0 134:0 135:0 136:0 137:0 138:0 139:2 140:0 141:1 142:0 143:0 144:0 145:1 146:0 147:0 
0 0.007079354475115267 0.01171079908714526 1:127.04 2:74.5824 3:200 4:255 5:0 6:0 7:1 8:0 9:0 10:0 11:0 12:0 13:0 14:0 15:0 16:8 17:1 18:0 19:1 20:0 21:0 22:0 23:0 24:0 25:0 26:0 27:0 28:0 29:3 30:0 31:0 32:0 33:0 34:1 35:0 36:0 37:0 38:0 39:0 40:0 41:0 42:1 43:1 44:2 45:0 46:1 47:0 48:1 49:0 50:1 51:1 52:0 53:0 54:1 55:0 56:0 57:1 58:0 59:0 60:1 61:0 62:0 63:0 64:0 65:0 66:0 67:1 68:2 69:0 70:0 71:0 72:0 73:1 74:0 75:0 76:0 77:0 78:2 79:1 80:0 81:0 82:0 83:0 84:0 85:0 86:1 87:0 88:0 89:0 90:2 91:1 92:0 93:1 94:0 95:0 96:0 97:0 98:0 99:0 100:2 101:0 102:0 103:0 104:0 105:1 106:1 107:1 108:0 109:0 110:0 111:0 112:0 113:0 114:2 115:0 116:0 117:0 118:0 119:0 120:0 121:0 122:0 123:0 124:0 125:1 126:0 127:0 128:0 129:0 130:0 131:0 132:0 133:0 134:0 135:0 136:0 137:0 138:0 139:0 140:0 141:0 142:0 143:1 144:0 145:1 146:0 147:0 
0.05142420125354447 0.01565825497603361 0 1:125.4064 2:73.5856 3:200 4:255 5:0 6:0 7:0 8:2 9:0 10:0 11:0 12:1 13:0 14:0 15:1 16:8 17:3 18:0 19:0 20:0 21:0 22:0 23:0 24:0 25:0 26:0 27:0 28:0 29:0 30:2 31:0 32:0 33:1 34:1 35:1 36:0 37:0 38:0 39:0 40:3 41:1 42:0 43:0 44:0 45:0 46:0 47:1 48:0 49:0 50:0 51:0 52:0 53:0 54:0 55:0 56:0 57:1 58:0 59:0 60:0 61:0 62:0 63:0 64:0 65:0 66:3 67:3 68:2 69:1 70:0 71:0 72:0 73:1 74:0 75:0 76:1 77:2 78:0 79:2 80:0 81:0 82:0 83:0 84:0 85:0 86:0 87:0 88:2 89:3 90:1 91:0 92:0 93:1 94:2 95:0 96:0 97:0 98:0 99:0 100:0 101:0 102:2 103:0 104:2 105:0 106:0 107:1 108:0 109:0 110:0 111:0 112:2 113:0 114:0 115:0 116:2 117:1 118:0 119:1 120:1 121:0 122:0 123:0 124:0 125:0 126:1 127:0 128:0 129:1 130:1 131:0 132:0 133:0 134:0 135:0 136:0 137:0 138:0 139:1 140:1 141:0 142:0 143:0 144:0 145:0 146:0 147:0 
0.004983312535389726 0.03510742549031375 0.0009081568085192266 1:124.2368 2:73.88 3:200 4:255 5:2 6:6 7:0 8:0 9:0 10:0 11:0 12:0 13:0 14:2 15:1 16:1 17:0 18:0 19:1 20:0 21:2 22:0 23:1 24:1 25:0 26:0 27:0 28:0 29:0 30:0 31:0 32:0 33:1 34:0 35:0 36:1 37:0 38:0 39:0 40:7 41:2 42:1 43:0 44:0 45:0 46:0 47:0 48:0 49:0 50:0 51:0 52:0 53:3 54:3 55:0 56:2 57:0 58:0 59:0 60:1 61:0 62:0 63:0 64:0 65:0 66:3 67:4 68:0 69:0 70:0 71:0 72:1 73:1 74:0 75:0 76:1 77:0 78:0 79:0 80:0 81:1 82:0 83:0 84:0 85:0 86:0 87:0 88:0 89:0 90:0 91:0 92:1 93:1 94:2 95:1 96:1 97:0 98:0 99:0 100:3 101:0 102:1 103:0 104:0 105:1 106:1 107:1 108:0 109:0 110:0 111:0 112:2 113:1 114:0 115:1 116:0 117:1 118:1 119:0 120:0 121:1 122:0 123:1 124:0 125:0 126:1 127:0 128:1 129:0 130:0 131:0 132:0 133:0 134:0 135:0 136:1 137:0 138:0 139:0 140:1 141:0 142:0 143:0 144:1 145:0 146:0 147:0 
0.003052940292844723 0.0002478336843212411 0 1:125.776 2:73.2464 3:200 4:255 5:0 6:6 7:1 8:1 9:1 10:0 11:0 12:0 13:1 14:0 15:0 16:7 17:0 18:0 19:2 20:0 21:0 22:1 23:0 24:0 25:0 26:0 27:0 28:0 29:0 30:0 31:2 32:0 33:0 34:0 35:1 36:0 37:0 38:0 39:0 40:0 41:1 42:0 43:0 44:0 45:1 46:0 47:0 48:0 49:1 50:0 51:0 52:0 53:1 54:0 55:0 56:1 57:0 58:1 59:0 60:0 61:0 62:0 63:0 64:0 65:0 66:0 67:0 68:0 69:1 70:0 71:1 72:1 73:1 74:0 75:0 76:2 77:0 78:0 79:1 80:0 81:0 82:0 83:0 84:0 85:0 86:0 87:0 88:0 89:1 90:3 91:0 92:1 93:1 94:1 95:0 96:0 97:0 98:0 99:0 100:0 101:0 102:0 103:0 104:0 105:0 106:1 107:0 108:0 109:0 110:0 111:0 112:1 113:0 114:1 115:0 116:0 117:0 118:0 119:0 120:0 121:0 122:0 123:0 124:2 125:0 126:0 127:1 128:0 129:0 130:0 131:0 132:0 133:1 134:1 135:0 136:0 137:0 138:0 139:0 140:2 141:0 142:1 143:0 144:0 145:0 146:0 147:0 
0.007613732249459711 0.09609478450223356 0.006952903201785739 1:124.92 2:73.288 3:200 4:255 5:0 6:2 7:0 8:0 9:1 10:1 11:0 12:1 13:0 14:0 15:1 16:11 17:0 18:0 19:4 20:0 21:0 22:1 23:0 24:0 25:0 26:1 27:0 28:2 29:3 30:0 31:0 32:1 33:2 34:0 35:0 36:0 37:0 38:0 39:0 40:0 41:0 42:4 43:0 44:2 45:1 46:0 47:0 48:0 49:1 50:0 51:0 52:1 53:0 54:1 55:0 56:0 57:1 58:0 59:0 60:0 61:1 62:0 63:0 64:1 65:0 66:1 67:2 68:0 69:0 70:0 71:0 72:0 73:0 74:0 75:0 76:0 77:1 78:2 79:0 80:1 81:0 82:0 83:0 84:0 85:0 86:0 87:0 88:0 89:0 90:0 91:2 92:0 93:0 94:0 95:0 96:0 97:0 98:0 99:0 100:0 101:0 102:0 103:0 104:1 105:1 106:0 107:0 108:0 109:0 110:0 111:0 112:0 113:0 114:0 115:0 116:0 117:0 118:0 119:0 120:0 121:0 122:0 123:0 124:1 125:0 126:0 127:0 128:0 129:1 130:0 131:0 132:0 133:0 134:0 135:0 136:0 137:0 138:3 139:0 140:0 141:0 142:0 143:0 144:0 145:0 146:0 147:1 
0.1029801804865332 0.2935958753555999 0 1:124.664 2:71.6336 3:200 4:255 5:0 6:1 7:0 8:0 9:0 10:0 11:0 12:0 13:0 14:0 15:0 16:0 17:0 18:0 19:0 20:0 21:1 22:0 23:0 24:0 25:0 26:0 27:0 28:1 29:0 30:0 31:1 32:1 33:0 34:0 35:0 36:0 37:0 38:0 39:0 40:0 41:0 42:0 43:0 44:0 45:0 46:0 47:0 48:0 49:0 50:0 51:0 52:0 53:0 54:0 55:1 56:0 57:0 58:0 59:0 60:0 61:0 62:0 63:0 64:0 65:0 66:1 67:0 68:0 69:0 70:0 71:0 72:0 73:0 74:0 75:0 76:0 77:0 78:0 79:0 80:0 81:0 82:1 83:0 84:0 85:0 86:0 87:0 88:0 89:0 90:0 91:0 92:0 93:0 94:0 95:0 96:0 97:0 98:0 99:0 100:0 101:1 102:0 103:0 104:0 105:0 106:0 107:0 108:0 109:0 110:0 111:0 112:0 113:0 114:0 115:0 116:0 117:0 118:0 119:0 120:0 121:0 122:0 123:0 124:0 125:1 126:0 127:0 128:0 129:0 130:0 131:0 132:0 133:0 134:0 135:0 136:0 137:0 138:0 139:0 140:0 141:0 142:0 143:0 144:0 145:0 146:0 147:0 
0 0.2073572272448872 0 1:125.5488 2:72.1744 3:200 4:255 5:5 6:1 7:1 8:0 9:0 10:0 11:0 12:1 13:0 14:0 15:0 16:4 17:3 18:0 19:1 20:0 21:0 22:0 23:0 24:1 25:0 26:0 27:0 28:0 29:0 30:3 31:1 32:0 33:1 34:0 35:0 36:0 37:0 38:0 39:0 40:0 41:0 42:3 43:0 44:1 45:0 46:1 47:1 48:0 49:0 50:0 51:0 52:0 53:2 54:3 55:0 56:0 57:1 58:0 59:0 60:0 61:0 62:0 63:0 64:0 65:0 66:0 67:1 68:0 69:1 70:1 71:0 72:0 73:0 74:1 75:0 76:2 77:0 78:0 79:0 80:0 81:0 82:0 83:0 84:0 85:0 86:0 87:0 88:1 89:0 90:1 91:0 92:1 93:0 94:0 95:0 96:0 97:1 98:0 99:0 100:1 101:1 102:0 103:0 104:0 105:0 106:0 107:0 108:0 109:0 110:0 111:0 112:0 113:1 114:1 115:0 116:0 117:0 118:0 119:0 120:0 121:0 122:0 123:0 124:1 125:0 126:1 127:0 128:1 129:0 130:0 131:1 132:0 133:0 134:0 135:0 136:0 137:0 138:0 139:1 140:0 141:0 142:0 143:0 144:0 145:0 146:1 147:0 
0 0.1373189483342464 0 1:125.7664 2:72.3376 3:200 4:255 5:3 6:1 7:2 8:0 9:0 10:0 11:0 12:1 13:1 14:1 15:0 16:0 17:0 18:4 19:3 20:2 21:0 22:0 23:0 24:1 25:0 26:0 27:0 28:0 29:0 30:0 31:2 32:1 33:0 34:1 35:0 36:0 37:0 38:0 39:0 40:2 41:0 42:0 43:0 44:0 45:1 46:1 47:0 48:0 49:0 50:0 51:1 52:0 53:1 54:0 55:0 56:0 57:0 58:0 59:0 60:0 61:1 62:0 63:0 64:1 65:0 66:0 67:0 68:0 69:0 70:0 71:0 72:0 73:0 74:0 75:0 76:0 77:1 78:0 79:2 80:0 81:0 82:1 83:0 84:1 85:0 86:0 87:0 88:0 89:1 90:1 91:0 92:0 93:0 94:0 95:1 96:0 97:0 98:0 99:0 100:0 101:0 102:1 103:0 104:0 105:1 106:0 107:0 108:0 109:0 110:0 111:0 112:0 113:1 114:0 115:0 116:0 117:1 118:0 119:1 120:0 121:0 122:1 123:0 124:0 125:0 126:0 127:0 128:0 129:0 130:0 131:0 132:1 133:0 134:0 135:1 136:0 137:0 138:0 139:0 140:1 141:0 142:0 143:0 144:0 145:0 146:0 147:0 
0.003862413210036428 0 0.01761687822900517 1:125.3104 2:74.8064 3:200 4:255 5:4 6:0 7:0 8:0 9:2 10:0 11:1 12:0 13:1 14:1 15:0 16:0 17:0 18:0 19:4 20:2 21:0 22:0 23:0 24:1 25:0 26:0 27:0 28:0 29:0 30:3 31:0 32:0 33:0 34:1 35:0 36:1 37:0 38:1 39:0 40:9 41:0 42:4 43:4 44:0 45:3 46:0 47:0 48:0 49:1 50:0 51:0 52:4 53:0 54:0 55:1 56:1 57:0 58:0 59:1 60:0 61:0 62:0 63:0 64:0 65:2 66:0 67:0 68:0 69:0 70:0 71:0 72:0 73:0 74:1 75:0 76:4 77:0 78:0 79:1 80:0 81:1 82:2 83:0 84:0 85:0 86:0 87:0 88:2 89:1 90:0 91:1 92:0 93:1 94:2 95:0 96:0 97:0 98:0 99:0 100:2 101:2 102:2 103:0 104:0 105:0 106:1 107:0 108:0 109:1 110:0 111:0 112:1 113:0 114:0 115:0 116:0 117:0 118:0 119:0 120:0 121:0 122:0 123:0 124:3 125:0 126:1 127:0 128:0 129:0 130:0 131:0 132:0 133:0 134:1 135:0 136:1 137:0 138:0 139:0 140:0 141:0 142:0 143:0 144:0 145:0 146:0 147:0 
0.0249281511759581 0.02938456956484085 0 1:125.6256 2:74.5232 3:200 4:255 5:1 6:0 7:0 8:0 9:2 10:0 11:1 12:0 13:0 14:0 15:0 16:0 17:0 18:0 19:5 20:0 21:0 22:0 23:0 24:0 25:1 26:0 27:0 28:0 29:3 30:3 31:2 32:0 33:0 34:0 35:0 36:0 37:0 38:1 39:0 40:3 41:0 42:1 43:2 44:1 45:0 46:1 47:0 48:0 49:0 50:0 51:1 52:1 53:3 54:0 55:0 56:0 57:0 58:0 59:0 60:0 61:0 62:0 63:0 64:0 65:0 66:1 67:2 68:1 69:0 70:0 71:0 72:0 73:1 74:1 75:0 76:3 77:0 78:0 79:1 80:0 81:0 82:1 83:1 84:0 85:0 86:0 87:0 88:0 89:3 90:0 91:0 92:0 93:0 94:0 95:0 96:0 97:1 98:0 99:0 100:0 101:0 102:0 103:0 104:2 105:0 106:0 107:0 108:0 109:1 110:0 111:0 112:0 113:1 114:0 115:0 116:0 117:0 118:2 119:1 120:0 121:0 122:0 123:0 124:0 125:0 126:0 127:0 128:1 129:0 130:0 131:0 132:0 133:0 134:0 135:0 136:1 137:0 138:0 139:0 140:0 141:0 142:0 143:0 144:0 145:0 146:0 147:0 
0 0.03325632509565121 0.01379330720616492 1:126.704 2:73.8128 3:200 4:255 5:1 6:0 7:3 8:0 9:1 10:0 11:1 12:0 13:0 14:0 15:0 16:1 17:0 18:1 19:0 20:0 21:0 22:0 23:0 24:0 25:0 26:0 27:0 28:4 29:0 30:3 31:0 32:0 33:0 34:0 35:0 36:0 37:1 38:0 39:1 40:2 41:2 42:1 43:1 44:0 45:0 46:0 47:0 48:0 49:0 50:0 51:0 52:0 53:3 54:2 55:0 56:0 57:0 58:0 59:0 60:1 61:0 62:0 63:0 64:0 65:0 66:0 67:0 68:2 69:0 70:0 71:0 72:0 73:0 74:0 75:0 76:1 77:0 78:0 79:0 80:0 81:2 82:0 83:0 84:0 85:0 86:0 87:0 88:1 89:0 90:1 91:2 92:0 93:1 94:0 95:1 96:0 97:0 98:0 99:0 100:0 101:2 102:0 103:0 104:2 105:0 106:0 107:0 108:0 109:1 110:0 111:0 112:0 113:3 114:0 115:0 116:1 117:0 118:0 119:1 120:0 121:0 122:1 123:0 124:0 125:0 126:1 127:1 128:1 129:0 130:0 131:0 132:0 133:0 134:0 135:0 136:2 137:1 138:0 139:0 140:0 141:0 142:0 143:0 144:1 145:0 146:0 147:1 
0 0.05778971125686774 0.0175720631041557 1:125.656 2:72.7904 3:200 4:255 5:0 6:4 7:3 8:1 9:0 10:0 11:0 12:0 13:0 14:0 15:0 16:9 17:0 18:0 19:0 20:0 21:0 22:0 23:1 24:1 25:1 26:0 27:1 28:0 29:5 30:0 31:0 32:0 33:0 34:0 35:0 36:0 37:1 38:0 39:0 40:0 41:2 42:0 43:1 44:0 45:0 46:0 47:0 48:0 49:0 50:0 51:0 52:0 53:2 54:1 55:0 56:0 57:0 58:0 59:0 60:0 61:0 62:0 63:0 64:0 65:1 66:0 67:2 68:0 69:0 70:0 71:1 72:0 73:0 74:0 75:0 76:0 77:1 78:0 79:0 80:0 81:0 82:0 83:1 84:0 85:0 86:0 87:0 88:1 89:0 90:0 91:0 92:2 93:0 94:1 95:0 96:0 97:1 98:0 99:1 100:0 101:0 102:1 103:0 104:0 105:1 106:0 107:0 108:0 109:0 110:0 111:0 112:0 113:0 114:1 115:1 116:0 117:1 118:1 119:0 120:0 121:0 122:0 123:0 124:0 125:0 126:1 127:0 128:1 129:1 130:0 131:0 132:0 133:0 134:0 135:0 136:0 137:1 138:0 139:0 140:0 141:0 142:0 143:1 144:0 145:1 146:0 147:0 
0.006366001017055084 0.05354587075999302 0 1:125.808 2:72.2768 3:200 4:255 5:0 6:0 7:0 8:0 9:0 10:2 11:0 12:0 13:0 14:1 15:0 16:7 17:0 18:1 19:0 20:0 21:0 22:1 23:0 24:0 25:0 26:0 27:0 28:1 29:1 30:1 31:0 32:1 33:0 34:0 35:1 36:0 37:0 38:0 39:0 40:2 41:1 42:1 43:0 44:0 45:1 46:0 47:1 48:0 49:0 50:0 51:0 52:1 53:0 54:0 55:3 56:1 57:0 58:1 59:1 60:0 61:0 62:0 63:0 64:0 65:1 66:0 67:0 68:0 69:0 70:1 71:0 72:0 73:1 74:0 75:1 76:0 77:2 78:1 79:0 80:0 81:0 82:0 83:0 84:0 85:0 86:1 87:0 88:0 89:0 90:1 91:0 92:2 93:0 94:0 95:0 96:0 97:0 98:0 99:0 100:0 101:0 102:0 103:0 104:0 105:0 106:1 107:0 108:0 109:0 110:1 111:0 112:0 113:0 114:0 115:1 116:1 117:0 118:1 119:0 120:0 121:0 122:0 123:0 124:0 125:0 126:0 127:0 128:0 129:0 130:0 131:0 132:0 133:0 134:0 135:0 136:0 137:1 138:0 139:1 140:1 141:0 142:1 143:0 144:0 145:0 146:0 147:0 
0.02233714069792119 0.02197509443701898 0 1:126.2656 2:74.0432 3:200 4:255 5:2 6:4 7:1 8:0 9:1 10:0 11:0 12:0 13:0 14:0 15:0 16:4 17:2 18:0 19:1 20:1 21:0 22:0 23:0 24:0 25:0 26:0 27:0 28:2 29:0 30:0 31:0 32:1 33:1 34:0 35:0 36:0 37:0 38:0 39:0 40:0 41:0 42:0 43:1 44:0 45:0 46:0 47:1 48:0 49:0 50:0 51:0 52:0 53:0 54:1 55:0 56:0 57:0 58:0 59:0 60:0 61:0 62:0 63:0 64:4 65:0 66:0 67:0 68:0 69:1 70:0 71:0 72:1 73:0 74:0 75:0 76:0 77:0 78:0 79:1 80:2 81:0 82:0 83:0 84:1 85:0 86:0 87:1 88:1 89:1 90:0 91:0 92:1 93:0 94:0 95:0 96:0 97:0 98:1 99:0 100:1 101:0 102:2 103:0 104:0 105:1 106:1 107:0 108:0 109:0 110:1 111:0 112:0 113:0 114:1 115:1 116:0 117:0 118:1 119:0 120:0 121:0 122:0 123:0 124:0 125:0 126:1 127:1 128:0 129:1 130:0 131:1 132:0 133:0 134:0 135:0 136:0 137:1 138:1 139:1 140:0 141:0 142:0 143:0 144:0 145:0 146:0 147:0 
0 0.071624130319245 0 1:124.6256 2:71.6208 3:200 4:255 5:0 6:2 7:2 8:0 9:0 10:0 11:0 12:0 13:1 14:1 15:0 16:3 17:0 18:1 19:1 20:0 21:0 22:0 23:0 24:0 25:0 26:0 27:0 28:1 29:0 30:0 31:0 32:0 33:0 34:0 35:0 36:0 37:0 38:0 39:0 40:0 41:1 42:0 43:0 44:0 45:0 46:1 47:0 48:0 49:0 50:0 51:0 52:0 53:1 54:1 55:0 56:1 57:0 58:0 59:0 60:0 61:0 62:0 63:0 64:0 65:0 66:0 67:0 68:1 69:0 70:0 71:0 72:0 73:0 74:0 75:0 76:0 77:0 78:0 79:0 80:0 81:1 82:0 83:1 84:0 85:0 86:0 87:0 88:2 89:0 90:1 91:1 92:0 93:1 94:1 95:1 96:0 97:0 98:0 99:0 100:0 101:0 102:0 103:0 104:0 105:0 106:0 107:1 108:0 109:0 110:0 111:0 112:0 113:0 114:0 115:0 116:0 117:0 118:0 119:0 120:0 121:0 122:0 123:0 124:0 125:0 126:0 127:1 128:0 129:1 130:1 131:0 132:0 133:0 134:0 135:0 136:1 137:0 138:0 139:0 140:0 141:0 142:0 143:0 144:0 145:0 146:0 147:0 
0.01900029841344789 0 0 1:125.9696 2:74.6144 3:200 4:255 5:0 6:1 7:2 8:0 9:0 10:0 11:0 12:0 13:1 14:0 15:0 16:2 17:0 18:6 19:2 20:2 21:0 22:0 23:1 24:0 25:1 26:0 27:0 28:6 29:2 30:0 31:0 32:0 33:1 34:2 35:0 36:0 37:0 38:0 39:0 40:0 41:0 42:0 43:4 44:1 45:1 46:2 47:0 48:1 49:0 50:0 51:0 52:0 53:2 54:0 55:0 56:2 57:1 58:1 59:0 60:0 61:0 62:0 63:0 64:1 65:1 66:0 67:0 68:0 69:0 70:0 71:1 72:0 73:0 74:0 75:0 76:0 77:0 78:4 79:0 80:0 81:1 82:0 83:0 84:0 85:1 86:0 87:0 88:0 89:0 90:0 91:2 92:0 93:0 94:0 95:0 96:1 97:0 98:0 99:0 100:0 101:2 102:0 103:0 104:2 105:0 106:0 107:0 108:0 109:0 110:0 111:0 112:2 113:0 114:0 115:1 116:0 117:0 118:0 119:1 120:0 121:1 122:0 123:0 124:1 125:1 126:1 127:0 128:0 129:0 130:0 131:0 132:1 133:0 134:0 135:0 136:0 137:0 138:0 139:0 140:1 141:0 142:0 143:0 144:0 145:0 146:0 147:0 
0.0008774756056840565 0 0 1:126.6016 2:74.5808 3:200 4:255 5:0 6:0 7:4 8:2 9:0 10:0 11:2 12:1 13:0 14:0 15:0 16:0 17:5 18:3 19:0 20:0 21:0 22:0 23:0 24:0 25:1 26:1 27:0 28:5 29:1 30:0 31:3 32:0 33:0 34:0 35:0 36:1 37:1 38:0 39:1 40:0 41:0 42:1 43:0 44:1 45:0 46:1 47:0 48:0 49:0 50:0 51:0 52:0 53:2 54:1 55:1 56:0 57:0 58:2 59:0 60:0 61:1 62:0 63:0 64:1 65:2 66:0 67:0 68:1 69:0 70:3 71:0 72:0 73:0 74:0 75:0 76:1 77:2 78:0 79:0 80:0 81:1 82:0 83:0 84:0 85:0 86:0 87:0 88:0 89:0 90:0 91:1 92:2 93:0 94:0 95:1 96:0 97:0 98:0 99:0 100:0 101:3 102:2 103:0 104:0 105:0 106:1 107:0 108:0 109:0 110:0 111:0 112:0 113:0 114:1 115:0 116:0 117:1 118:0 119:0 120:0 121:0 122:0 123:0 124:0 125:0 126:0 127:0 128:0 129:0 130:0 131:1 132:0 133:1 134:0 135:0 136:0 137:3 138:0 139:1 140:0 141:0 142:1 143:0 144:0 145:1 146:0 147:0 
0.005503578861173848 0 0.002293654921505873 1:125.408 2:73.776 3:200 4:255 5:1 6:1 7:1 8:1 9:2 10:0 11:0 12:1 13:0 14:1 15:0 16:3 17:0 18:0 19:1 20:1 21:0 22:0 23:0 24:0 25:0 26:0 27:0 28:0 29:0 30:2 31:3 32:0 33:0 34:1 35:0 36:0 37:0 38:1 39:0 40:0 41:3 42:0 43:0 44:0 45:0 46:0 47:0 48:0 49:0 50:0 51:0 52:3 53:3 54:1 55:0 56:0 57:0 58:0 59:0 60:0 61:0 62:0 63:0 64:0 65:0 66:0 67:3 68:0 69:0 70:2 71:0 72:0 73:0 74:0 75:0 76:0 77:2 78:1 79:1 80:0 81:0 82:1 83:0 84:0 85:0 86:0 87:0 88:5 89:0 90:0 91:0 92:0 93:0 94:0 95:0 96:0 97:1 98:0 99:0 100:0 101:0 102:0 103:0 104:0 105:1 106:0 107:0 108:0 109:1 110:0 111:1 112:0 113:0 114:0 115:0 116:2 117:0 118:2 119:0 120:1 121:0 122:1 123:0 124:1 125:0 126:1 127:0 128:0 129:0 130:0 131:0 132:1 133:0 134:0 135:0 136:0 137:0 138:0 139:0 140:1 141:2 142:0 143:1 144:0 145:1 146:0 147:1 
0.01657688349407507 0.01336652496052079 0 1:125.8176 2:74.0096 3:200 4:255 5:0 6:1 7:0 8:2 9:0 10:1 11:0 12:0 13:0 14:0 15:0 16:7 17:1 18:0 19:0 20:2 21:1 22:2 23:1 24:0 25:0 26:0 27:1 28:1 29:0 30:0 31:0 32:1 33:0 34:0 35:0 36:0 37:1 38:0 39:1 40:0 41:0 42:0 43:0 44:0 45:1 46:2 47:1 48:0 49:0 50:0 51:0 52:6 53:2 54:2 55:0 56:0 57:2 58:0 59:0 60:0 61:0 62:0 63:0 64:0 65:0 66:1 67:0 68:0 69:2 70:1 71:0 72:1 73:0 74:1 75:0 76:0 77:0 78:0 79:1 80:0 81:0 82:0 83:0 84:0 85:0 86:0 87:0 88:0 89:2 90:2 91:1 92:0 93:1 94:0 95:0 96:0 97:0 98:0 99:0 100:1 101:3 102:0 103:0 104:0 105:0 106:0 107:0 108:1 109:0 110:0 111:0 112:1 113:0 114:0 115:2 116:0 117:0 118:0 119:0 120:0 121:1 122:0 123:0 124:0 125:0 126:0 127:0 128:0 129:0 130:1 131:1 132:0 133:0 134:1 135:0 136:0 137:2 138:1 139:0 140:0 141:0 142:0 143:0 144:0 145:0 146:0 147:0 
0 0.03129269563040588 0 1:126.4384 2:74.4112 3:200 4:255 5:1 6:1 7:2 8:0 9:1 10:0 11:1 12:0 13:0 14:0 15:0 16:0 17:7 18:0 19:1 20:0 21:0 22:1 23:0 24:1 25:0 26:0 27:0 28:0 29:3 30:1 31:2 32:0 33:2 34:0 35:1 36:1 37:0 38:1 39:0 40:0 41:0 42:1 43:1 44:0 45:0 46:0 47:0 48:0 49:0 50:0 51:0 52:1 53:3 54:0 55:1 56:0 57:0 58:1 59:0 60:0 61:0 62:0 63:0 64:0 65:0 66:0 67:0 68:1 69:0 70:0 71:1 72:0 73:0 74:0 75:0 76:0 77:3 78:3 79:0 80:0 81:0 82:1 83:0 84:0 85:0 86:0 87:0 88:0 89:0 90:0 91:0 92:1 93:0 94:0 95:0 96:0 97:0 98:0 99:0 100:0 101:0 102:0 103:0 104:1 105:0 106:0 107:0 108:0 109:0 110:0 111:0 112:0 113:0 114:0 115:1 116:1 117:0 118:1 119:0 120:0 121:1 122:0 123:0 124:2 125:0 126:0 127:0 128:0 129:0 130:2 131:1 132:0 133:0 134:0 135:1 136:1 137:0 138:0 139:0 140:1 141:0 142:0 143:0 144:0 145:0 146:0 147:0 
0 0.04732115265532997 0 1:125.3456 2:72.024 3:200 4:255 5:0 6:1 7:0 8:0 9:0 10:0 11:0 12:0 13:1 14:0 15:0 16:1 17:0 18:0 19:0 20:1 21:1 22:2 23:1 24:0 25:0 26:0 27:0 28:0 29:0 30:0 31:2 32:1 33:0 34:2 35:0 36:0 37:2 38:0 39:0 40:0 41:0 42:0 43:0 44:0 45:0 46:0 47:0 48:0 49:0 50:0 51:0 52:0 53:0 54:2 55:0 56:0 57:0 58:0 59:0 60:0 61:0 62:0 63:0 64:0 65:0 66:0 67:0 68:0 69:1 70:0 71:1 72:0 73:0 74:0 75:0 76:0 77:2 78:0 79:0 80:1 81:0 82:0 83:0 84:0 85:1 86:0 87:0 88:0 89:1 90:0 91:0 92:0 93:0 94:0 95:0 96:0 97:1 98:0 99:0 100:0 101:0 102:1 103:0 104:0 105:1 106:0 107:1 108:0 109:0 110:0 111:0 112:0 113:0 114:1 115:0 116:0 117:1 118:0 119:0 120:0 121:0 122:0 123:0 124:0 125:1 126:0 127:0 128:0 129:0 130:0 131:0 132:0 133:0 134:0 135:0 136:0 137:1 138:0 139:0 140:0 141:0 142:0 143:0 144:0 145:0 146:0 147:0 
0.03458370653484654 0.07767335870210078 0 1:125.2992 2:72.0752 3:200 4:255 5:0 6:2 7:1 8:0 9:0 10:0 11:0 12:0 13:0 14:0 15:0 16:0 17:0 18:0 19:0 20:1 21:2 22:0 23:0 24:0 25:0 26:0 27:0 28:0 29:0 30:0 31:0 32:0 33:1 34:0 35:1 36:0 37:0 38:0 39:0 40:2 41:2 42:0 43:1 44:1 45:0 46:0 47:0 48:0 49:0 50:0 51:1 52:0 53:3 54:1 55:1 56:1 57:0 58:1 59:0 60:0 61:0 62:0 63:0 64:0 65:0 66:0 67:0 68:0 69:0 70:0 71:0 72:0 73:0 74:0 75:0 76:3 77:0 78:0 79:1 80:0 81:0 82:1 83:0 84:0 85:0 86:0 87:0 88:0 89:1 90:0 91:1 92:0 93:0 94:0 95:0 96:0 97:0 98:0 99:0 100:1 101:0 102:0 103:0 104:0 105:0 106:0 107:0 108:0 109:0 110:0 111:0 112:0 113:1 114:0 115:0 116:1 117:1 118:0 119:0 120:1 121:0 122:0 123:0 124:0 125:0 126:0 127:0 128:0 129:0 130:0 131:0 132:0 133:0 134:0 135:0 136:1 137:0 138:0 139:1 140:1 141:0 142:1 143:0 144:0 145:0 146:0 147:0 
0.03939005868233648 0.05454840492244216 0 1:125.8016 2:73.8576 3:200 4:255 5:0 6:0 7:0 8:2 9:1 10:1 11:1 12:0 13:0 14:0 15:0 16:0 17:6 18:4 19:0 20:0 21:0 22:0 23:0 24:0 25:1 26:1 27:0 28:1 29:0 30:1 31:1 32:0 33:0 34:1 35:0 36:0 37:0 38:0 39:0 40:0 41:0 42:0 43:0 44:0 45:0 46:2 47:1 48:0 49:1 50:1 51:0 52:0 53:0 54:3 55:0 56:0 57:0 58:0 59:0 60:1 61:0 62:0 63:0 64:2 65:0 66:0 67:0 68:1 69:1 70:0 71:1 72:0 73:0 74:0 75:0 76:2 77:2 78:0 79:0 80:0 81:0 82:0 83:0 84:0 85:0 86:0 87:0 88:0 89:0 90:1 91:1 92:0 93:1 94:0 95:0 96:0 97:0 98:0 99:0 100:0 101:0 102:0 103:0 104:0 105:0 106:0 107:0 108:0 109:0 110:0 111:0 112:0 113:1 114:3 115:0 116:0 117:0 118:0 119:0 120:0 121:0 122:0 123:0 124:1 125:0 126:0 127:0 128:0 129:1 130:0 131:1 132:0 133:0 134:0 135:0 136:1 137:1 138:0 139:0 140:0 141:0 142:0 143:0 144:0 145:0 146:0 147:0 
0 0.02897049936348414 0 1:126.5616 2:74.112 3:200 4:255 5:0 6:0 7:0 8:0 9:0 10:0 11:0 12:0 13:0 14:0 15:1 16:10 17:6 18:2 19:0 20:0 21:1 22:0 23:0 24:0 25:1 26:0 27:0 28:6 29:1 30:0 31:2 32:3 33:0 34:0 35:2 36:0 37:0 38:0 39:0 40:0 41:3 42:0 43:0 44:0 45:1 46:0 47:0 48:1 49:0 50:0 51:0 52:3 53:0 54:0 55:1 56:0 57:0 58:1 59:0 60:1 61:0 62:0 63:1 64:0 65:0 66:1 67:0 68:0 69:1 70:1 71:0 72:0 73:0 74:0 75:0 76:0 77:0 78:3 79:0 80:0 81:0 82:0 83:0 84:0 85:0 86:0 87:0 88:1 89:0 90:0 91:1 92:0 93:2 94:0 95:0 96:0 97:0 98:0 99:0 100:0 101:2 102:2 103:0 104:0 105:0 106:0 107:0 108:0 109:1 110:0 111:0 112:0 113:0 114:1 115:0 116:0 117:0 118:0 119:0 120:0 121:0 122:0 123:0 124:1 125:1 126:0 127:1 128:0 129:0 130:0 131:0 132:0 133:0 134:0 135:0 136:0 137:0 138:1 139:1 140:2 141:0 142:0 143:1 144:0 145:0 146:0 147:0 
0 0.002766250642955935 0 1:125.144 2:71.9296 3:200 4:255 5:0 6:3 7:0 8:0 9:0 10:0 11:0 12:0 13:0 14:0 15:0 16:3 17:0 18:1 19:0 20:0 21:1 22:0 23:1 24:0 25:1 26:0 27:0 28:1 29:0 30:2 31:0 32:1 33:0 34:0 35:0 36:0 37:0 38:0 39:0 40:3 41:0 42:1 43:0 44:1 45:0 46:1 47:0 48:0 49:0 50:0 51:1 52:1 53:0 54:1 55:0 56:0 57:0 58:1 59:0 60:0 61:0 62:0 63:0 64:1 65:0 66:0 67:1 68:0 69:0 70:0 71:0 72:0 73:0 74:1 75:0 76:2 77:0 78:0 79:0 80:0 81:0 82:0 83:0 84:0 85:0 86:0 87:0 88:0 89:1 90:0 91:0 92:0 93:0 94:1 95:1 96:0 97:0 98:0 99:0 100:0 101:0 102:0 103:0 104:2 105:0 106:0 107:0 108:0 109:0 110:0 111:0 112:1 113:0 114:1 115:0 116:1 117:0 118:0 119:0 120:0 121:0 122:0 123:0 124:0 125:0 126:0 127:0 128:0 129:0 130:0 131:1 132:0 133:0 134:0 135:0 136:1 137:0 138:0 139:1 140:0 141:0 142:0 143:0 144:0 145:0 146:0 147:0 
0.009159919130916502 0 0 1:125.6944 2:74.6096 3:200 4:255 5:0 6:1 7:0 8:1 9:2 10:1 11:0 12:0 13:0 14:1 15:0 16:0 17:0 18:2 19:0 20:2 21:2 22:1 23:1 24:0 25:0 26:0 27:0 28:1 29:3 30:1 31:1 32:0 33:0 34:3 35:0 36:1 37:0 38:0 39:0 40:0 41:0 42:3 43:0 44:1 45:0 46:0 47:0 48:0 49:0 50:0 51:0 52:0 53:0 54:1 55:2 56:2 57:0 58:0 59:0 60:0 61:0 62:0 63:0 64:0 65:3 66:2 67:0 68:1 69:0 70:1 71:0 72:0 73:0 74:0 75:0 76:3 77:0 78:0 79:1 80:0 81:0 82:0 83:0 84:0 85:1 86:0 87:0 88:0 89:0 90:0 91:2 92:0 93:0 94:0 95:1 96:1 97:0 98:0 99:0 100:0 101:1 102:2 103:0 104:0 105:3 106:1 107:0 108:0 109:1 110:0 111:0 112:1 113:0 114:0 115:1 116:0 117:0 118:0 119:0 120:1 121:0 122:0 123:0 124:3 125:1 126:0 127:1 128:3 129:0 130:0 131:1 132:0 133:0 134:0 135:0 136:0 137:0 138:0 139:0 140:1 141:1 142:0 143:0 144:1 145:0 146:0 147:0 
0 0.05421534614087788 0 1:125.3808 2:73.8864 3:200 4:255 5:0 6:0 7:0 8:0 9:0 10:0 11:0 12:0 13:0 14:0 15:0 16:11 17:7 18:0 19:0 20:3 21:0 22:0 23:0 24:2 25:0 26:0 27:0 28:0 29:0 30:1 31:0 32:0 33:2 34:1 35:1 36:0 37:0 38:0 39:0 40:1 41:2 42:0 43:0 44:1 45:1 46:0 47:0 48:2 49:0 50:0 51:0 52:8 53:0 54:2 55:0 56:1 57:1 58:0 59:0 60:1 61:0 62:0 63:1 64:0 65:5 66:2 67:0 68:1 69:0 70:1 71:0 72:0 73:0 74:0 75:1 76:0 77:0 78:2 79:1 80:0 81:0 82:1 83:0 84:0 85:0 86:0 87:0 88:1 89:2 90:0 91:0 92:0 93:0 94:0 95:0 96:0 97:0 98:0 99:0 100:0 101:0 102:1 103:0 104:0 105:0 106:0 107:0 108:0 109:0 110:0 111:0 112:2 113:0 114:0 115:0 116:0 117:1 118:0 119:0 120:0 121:0 122:0 123:0 124:1 125:0 126:0 127:0 128:1 129:0 130:1 131:0 132:0 133:0 134:0 135:0 136:2 137:0 138:1 139:0 140:1 141:0 142:0 143:0 144:0 145:0 146:0 147:0 
0 0.05056891123983757 0 1:124.968 2:72.1248 3:200 4:255 5:2 6:0 7:1 8:0 9:0 10:2 11:1 12:0 13:0 14:0 15:0 16:8 17:0 18:1 19:0 20:1 21:0 22:1 23:1 24:0 25:0 26:0 27:0 28:2 29:0 30:2 31:0 32:0 33:0 34:0 35:0 36:0 37:0 38:0 39:0 40:2 41:0 42:0 43:0 44:0 45:0 46:1 47:0 48:0 49:0 50:0 51:0 52:2 53:0 54:0 55:0 56:0 57:0 58:0 59:0 60:0 61:0 62:0 63:0 64:0 65:1 66:0 67:1 68:1 69:1 70:1 71:0 72:1 73:0 74:0 75:0 76:1 77:0 78:0 79:0 80:0 81:0 82:0 83:0 84:0 85:0 86:0 87:0 88:0 89:0 90:0 91:1 92:0 93:0 94:0 95:0 96:0 97:0 98:0 99:0 100:1 101:0 102:0 103:1 104:0 105:0 106:0 107:0 108:0 109:0 110:0 111:0 112:0 113:0 114:1 115:0 116:0 117:0 118:0 119:0 120:0 121:0 122:0 123:0 124:0 125:0 126:1 127:0 128:0 129:0 130:0 131:0 132:0 133:0 134:0 135:0 136:1 137:0 138:0 139:0 140:0 141:0 142:0 143:0 144:0 145:0 146:0 147:0 
0.01949102798643552 0 0.01062515030577956 1:125.9488 2:74.4704 3:200 4:255 5:2 6:1 7:0 8:0 9:0 10:0 11:2 12:0 13:1 14:0 15:0 16:0 17:2 18:0 19:1 20:2 21:0 22:2 23:0 24:0 25:0 26:0 27:0 28:0 29:1 30:0 31:1 32:1 33:0 34:0 35:0 36:1 37:1 38:0 39:1 40:0 41:5 42:1 43:0 44:1 45:0 46:1 47:0 48:1 49:0 50:0 51:0 52:0 53:1 54:0 55:1 56:1 57:0 58:0 59:2 60:0 61:0 62:0 63:0 64:0 65:0 66:0 67:1 68:1 69:0 70:0 71:0 72:1 73:0 74:0 75:0 76:0 77:1 78:1 79:0 80:0 81:0 82:0 83:0 84:0 85:0 86:0 87:0 88:2 89:0 90:0 91:0 92:0 93:0 94:0 95:0 96:0 97:1 98:0 99:0 100:0 101:0 102:0 103:3 104:0 105:0 106:0 107:0 108:0 109:0 110:0 111:0 112:0 113:0 114:0 115:0 116:0 117:0 118:0 119:0 120:1 121:0 122:0 123:0 124:0 125:0 126:1 127:2 128:0 129:0 130:0 131:0 132:0 133:0 134:0 135:0 136:0 137:1 138:0 139:0 140:0 141:1 142:1 143:0 144:0 145:0 146:0 147:0 
0.03541420506451003 0.04529425988724812 0 1:125.0176 2:73.9312 3:200 4:255 5:2 6:0 7:0 8:0 9:0 10:0 11:0 12:1 13:1 14:1 15:1 16:2 17:0 18:4 19:4 20:2 21:0 22:1 23:1 24:0 25:0 26:0 27:0 28:4 29:3 30:1 31:0 32:2 33:3 34:1 35:0 36:0 37:1 38:0 39:0 40:0 41:1 42:0 43:1 44:3 45:0 46:0 47:2 48:1 49:0 50:0 51:0 52:4 53:0 54:0 55:5 56:2 57:1 58:0 59:0 60:1 61:0 62:0 63:0 64:0 65:1 66:0 67:0 68:1 69:0 70:0 71:0 72:0 73:0 74:0 75:0 76:3 77:0 78:1 79:0 80:0 81:0 82:0 83:0 84:1 85:0 86:0 87:0 88:0 89:0 90:2 91:1 92:0 93:0 94:0 95:0 96:0 97:1 98:0 99:0 100:0 101:0 102:1 103:0 104:0 105:1 106:0 107:0 108:0 109:1 110:0 111:0 112:0 113:0 114:1 115:0 116:0 117:0 118:0 119:1 120:0 121:1 122:0 123:0 124:1 125:0 126:0 127:1 128:0 129:0 130:0 131:1 132:1 133:0 134:0 135:0 136:0 137:0 138:0 139:1 140:1 141:0 142:0 143:0 144:0 145:0 146:0 147:1 
0 0.01628096216372898 0 1:125.88 2:74.32 3:200 4:255 5:0 6:0 7:0 8:0 9:1 10:0 11:1 12:0 13:0 14:0 15:0 16:0 17:0 18:0 19:2 20:5 21:1 22:0 23:0 24:2 25:1 26:0 27:0 28:3 29:8 30:0 31:0 32:0 33:0 34:1 35:0 36:0 37:0 38:0 39:1 40:0 41:0 42:2 43:3 44:2 45:0 46:0 47:0 48:1 49:1 50:0 51:0 52:6 53:3 54:0 55:0 56:0 57:0 58:0 59:0 60:0 61:0 62:0 63:1 64:0 65:0 66:2 67:0 68:0 69:0 70:0 71:0 72:0 73:0 74:1 75:0 76:0 77:0 78:0 79:0 80:2 81:0 82:1 83:0 84:0 85:0 86:0 87:0 88:1 89:1 90:0 91:0 92:0 93:0 94:1 95:0 96:0 97:1 98:0 99:0 100:0 101:1 102:3 103:0 104:0 105:0 106:1 107:1 108:0 109:0 110:1 111:0 112:0 113:0 114:0 115:0 116:0 117:1 118:1 119:1 120:0 121:0 122:0 123:0 124:0 125:0 126:0 127:0 128:0 129:0 130:2 131:1 132:0 133:0 134:0 135:0 136:0 137:0 138:1 139:0 140:0 141:0 142:0 143:0 144:0 145:0 146:0 147:0 
0.04233537500154873 0 0 1:125.1712 2:74.0848 3:200 4:255 5:3 6:4 7:0 8:1 9:2 10:0 11:1 12:0 13:0 14:2 15:0 16:0 17:0 18:0 19:0 20:0 21:0 22:0 23:1 24:0 25:0 26:0 27:1 28:0 29:0 30:1 31:0 32:0 33:0 34:1 35:0 36:0 37:0 38:0 39:1 40:3 41:0 42:0 43:0 44:0 45:0 46:0 47:0 48:0 49:0 50:1 51:0 52:1 53:0 54:2 55:0 56:1 57:2 58:0 59:1 60:0 61:0 62:0 63:0 64:3 65:3 66:1 67:2 68:0 69:0 70:0 71:0 72:0 73:0 74:0 75:0 76:0 77:0 78:0 79:0 80:0 81:2 82:1 83:0 84:0 85:1 86:1 87:0 88:1 89:4 90:0 91:0 92:0 93:0 94:0 95:1 96:0 97:0 98:0 99:0 100:0 101:0 102:0 103:0 104:1 105:0 106:1 107:0 108:0 109:0 110:0 111:0 112:1 113:1 114:1 115:0 116:1 117:2 118:2 119:0 120:0 121:0 122:0 123:0 124:1 125:1 126:1 127:1 128:1 129:1 130:1 131:0 132:0 133:0 134:0 135:0 136:1 137:0 138:3 139:0 140:0 141:1 142:0 143:1 144:0 145:0 146:0 147:0 
0.02521088736859472 0 0 1:125.9136 2:74.5328 3:200 4:255 5:0 6:0 7:2 8:0 9:0 10:1 11:1 12:0 13:0 14:0 15:0 16:6 17:2 18:2 19:0 20:0 21:1 22:0 23:0 24:1 25:0 26:0 27:0 28:2 29:2 30:0 31:0 32:0 33:0 34:1 35:2 36:1 37:1 38:1 39:0 40:0 41:1 42:1 43:0 44:1 45:0 46:0 47:0 48:0 49:0 50:0 51:0 52:1 53:1 54:0 55:0 56:0 57:0 58:0 59:2 60:0 61:0 62:0 63:0 64:0 65:0 66:0 67:0 68:1 69:0 70:0 71:1 72:0 73:0 74:1 75:0 76:0 77:2 78:3 79:0 80:0 81:1 82:0 83:0 84:0 85:0 86:0 87:0 88:0 89:0 90:0 91:0 92:0 93:1 94:0 95:0 96:1 97:1 98:0 99:0 100:1 101:2 102:0 103:0 104:0 105:0 106:0 107:0 108:0 109:0 110:0 111:0 112:0 113:3 114:0 115:1 116:1 117:0 118:0 119:0 120:0 121:0 122:0 123:0 124:3 125:1 126:0 127:0 128:1 129:0 130:0 131:0 132:0 133:0 134:0 135:0 136:1 137:1 138:0 139:2 140:0 141:0 142:0 143:0 144:0 145:0 146:1 147:0 
0 0.03003624694033662 0 1:124.848 2:72.0176 3:200 4:255 5:0 6:0 7:2 8:0 9:0 10:0 11:0 12:0 13:0 14:0 15:1 16:0 17:2 18:3 19:0 20:0 21:1 22:0 23:0 24:0 25:0 26:0 27:0 28:0 29:0 30:0 31:0 32:1 33:0 34:0 35:0 36:0 37:0 38:0 39:0 40:0 41:1 42:0 43:0 44:0 45:0 46:0 47:0 48:1 49:0 50:0 51:0 52:0 53:2 54:0 55:0 56:0 57:1 58:0 59:0 60:0 61:0 62:0 63:0 64:0 65:1 66:0 67:1 68:1 69:0 70:0 71:0 72:0 73:0 74:0 75:0 76:0 77:0 78:0 79:0 80:0 81:1 82:0 83:0 84:0 85:0 86:0 87:0 88:0 89:0 90:0 91:0 92:0 93:0 94:0 95:2 96:0 97:1 98:0 99:0 100:1 101:0 102:1 103:0 104:0 105:1 106:1 107:0 108:0 109:0 110:0 111:0 112:1 113:0 114:0 115:2 116:0 117:0 118:0 119:0 120:0 121:0 122:0 123:0 124:0 125:0 126:0 127:0 128:0 129:1 130:0 131:0 132:0 133:1 134:0 135:0 136:0 137:0 138:0 139:1 140:0 141:0 142:1 143:0 144:1 145:0 146:1 147:0 
0.01411910534372272 0.08415118758568578 0 1:125.6864 2:73.6736 3:200 4:255 5:0 6:0 7:2 8:2 9:0 10:3 11:0 12:1 13:1 14:0 15:0 16:1 17:6 18:0 19:0 20:0 21:0 22:1 23:0 24:0 25:0 26:1 27:0 28:1 29:0 30:0 31:1 32:1 33:0 34:0 35:0 36:0 37:0 38:0 39:0 40:0 41:1 42:0 43:2 44:0 45:0 46:1 47:0 48:1 49:1 50:0 51:0 52:0 53:1 54:1 55:0 56:0 57:0 58:2 59:0 60:0 61:1 62:0 63:0 64:3 65:0 66:0 67:0 68:0 69:0 70:0 71:0 72:0 73:0 74:0 75:0 76:2 77:2 78:0 79:0 80:1 81:0 82:0 83:0 84:0 85:0 86:0 87:0 88:0 89:1 90:3 91:0 92:0 93:1 94:0 95:1 96:1 97:0 98:0 99:1 100:1 101:0 102:1 103:0 104:0 105:1 106:0 107:0 108:0 109:0 110:0 111:0 112:3 113:0 114:0 115:1 116:0 117:0 118:0 119:1 120:0 121:0 122:0 123:0 124:0 125:0 126:2 127:0 128:0 129:1 130:0 131:0 132:0 133:1 134:0 135:0 136:0 137:0 138:0 139:0 140:1 141:1 142:0 143:0 144:0 145:0 146:0 147:1 
0.02651707431306436 0 0 1:125.2384 2:74.1072 3:200 4:255 5:2 6:0 7:0 8:5 9:1 10:2 11:0 12:2 13:0 14:0 15:0 16:3 17:0 18:0 19:0 20:0 21:5 22:0 23:2 24:0 25:0 26:1 27:0 28:5 29:0 30:0 31:1 32:0 33:0 34:0 35:0 36:0 37:0 38:0 39:0 40:1 41:1 42:2 43:3 44:0 45:0 46:0 47:0 48:0 49:1 50:1 51:0 52:0 53:0 54:0 55:2 56:1 57:0 58:0 59:0 60:0 61:1 62:0 63:0 64:1 65:0 66:1 67:0 68:2 69:0 70:1 71:0 72:0 73:1 74:0 75:0 76:1 77:0 78:0 79:0 80:4 81:2 82:0 83:0 84:0 85:0 86:0 87:0 88:0 89:0 90:0 91:0 92:1 93:0 94:1 95:0 96:0 97:1 98:0 99:0 100:0 101:0 102:3 103:0 104:0 105:0 106:0 107:0 108:0 109:0 110:1 111:0 112:0 113:0 114:0 115:0 116:0 117:1 118:2 119:1 120:0 121:0 122:0 123:0 124:0 125:1 126:0 127:0 128:0 129:0 130:0 131:0 132:0 133:0 134:0 135:1 136:1 137:2 138:1 139:0 140:0 141:0 142:0 143:0 144:0 145:0 146:0 147:0 
0.02917807131006575 0 0.01948720339204767 1:129.0496 2:77.192 3:200 4:255 5:0 6:1 7:0 8:0 9:3 10:0 11:0 12:0 13:0 14:0 15:0 16:1 17:0 18:2 19:1 20:1 21:0 22:0 23:0 24:0 25:0 26:0 27:0 28:0 29:1 30:0 31:0 32:0 33:1 34:0 35:1 36:0 37:0 38:0 39:0 40:3 41:0 42:1 43:0 44:0 45:1 46:0 47:0 48:0 49:0 50:0 51:0 52:0 53:0 54:0 55:1 56:1 57:0 58:1 59:1 60:0 61:0 62:0 63:0 64:0 65:0 66:0 67:0 68:1 69:0 70:1 71:0 72:0 73:0 74:0 75:0 76:0 77:0 78:0 79:0 80:0 81:1 82:0 83:0 84:0 85:1 86:0 87:0 88:0 89:1 90:0 91:0 92:2 93:1 94:1 95:0 96:0 97:0 98:0 99:1 100:1 101:0 102:0 103:0 104:1 105:1 106:0 107:0 108:0 109:0 110:0 111:1 112:0 113:1 114:0 115:0 116:1 117:1 118:0 119:0 120:0 121:1 122:0 123:1 124:1 125:0 126:0 127:1 128:2 129:0 130:0 131:0 132:0 133:0 134:0 135:0 136:1 137:0 138:0 139:1 140:1 141:0 142:1 143:0 144:0 145:0 146:0 147:0 
0.04294167197569154 0 0.02016068503029699 1:126.6272 2:76.4672 3:200 4:255 5:0 6:0 7:0 8:1 9:3 10:0 11:0 12:0 13:1 14:0 15:1 16:12 17:9 18:0 19:0 20:0 21:0 22:0 23:1 24:1 25:1 26:0 27:0 28:0 29:3 30:2 31:1 32:1 33:1 34:0 35:0 36:0 37:0 38:0 39:0 40:0 41:1 42:3 43:0 44:2 45:0 46:0 47:0 48:0 49:0 50:0 51:0 52:2 53:0 54:3 55:0 56:0 57:0 58:0 59:0 60:0 61:0 62:0 63:1 64:1 65:1 66:0 67:0 68:0 69:0 70:0 71:0 72:1 73:0 74:0 75:0 76:0 77:0 78:0 79:2 80:1 81:0 82:1 83:0 84:0 85:0 86:0 87:0 88:0 89:0 90:0 91:1 92:0 93:0 94:0 95:0 96:0 97:0 98:0 99:0 100:1 101:2 102:0 103:0 104:0 105:0 106:0 107:0 108:1 109:0 110:1 111:1 112:1 113:0 114:2 115:0 116:0 117:0 118:1 119:0 120:0 121:0 122:0 123:0 124:0 125:0 126:1 127:0 128:2 129:0 130:0 131:0 132:0 133:0 134:0 135:0 136:0 137:0 138:0 139:1 140:0 141:0 142:0 143:0 144:0 145:0 146:1 147:0 
0 0 0.02340169789907946 1:128.8384 2:76.8656 3:200 4:255 5:0 6:2 7:3 8:1 9:0 10:0 11:0 12:1 13:0 14:0 15:0 16:0 17:3 18:1 19:0 20:0 21:0 22:0 23:0 24:0 25:0 26:0 27:0 28:0 29:0 30:2 31:0 32:0 33:1 34:0 35:0 36:0 37:0 38:0 39:0 40:0 41:0 42:0 43:1 44:1 45:0 46:0 47:0 48:0 49:0 50:0 51:0 52:1 53:0 54:0 55:0 56:0 57:0 58:1 59:0 60:0 61:0 62:0 63:1 64:2 65:0 66:1 67:0 68:0 69:1 70:0 71:0 72:0 73:0 74:0 75:0 76:1 77:0 78:0 79:0 80:0 81:0 82:0 83:0 84:0 85:0 86:0 87:0 88:0 89:0 90:1 91:0 92:0 93:0 94:0 95:0 96:0 97:0 98:0 99:0 100:0 101:0 102:1 103:0 104:0 105:2 106:1 107:0 108:0 109:0 110:0 111:0 112:0 113:1 114:0 115:0 116:1 117:0 118:0 119:1 120:0 121:0 122:0 123:0 124:0 125:0 126:0 127:0 128:0 129:1 130:0 131:0 132:0 133:0 134:0 135:0 136:0 137:0 138:0 139:1 140:2 141:0 142:0 143:1 144:0 145:0 146:0 147:0 
0.003401801706634731 0.0603147992055497 0 1:127.5856 2:76.3024 3:200 4:255 5:8 6:0 7:0 8:1 9:0 10:0 11:1 12:0 13:0 14:1 15:0 16:0 17:3 18:2 19:0 20:2 21:1 22:0 23:0 24:0 25:0 26:0 27:0 28:2 29:0 30:2 31:1 32:0 33:0 34:0 35:0 36:0 37:0 38:0 39:0 40:0 41:0 42:0 43:0 44:1 45:1 46:0 47:0 48:0 49:0 50:0 51:0 52:3 53:0 54:0 55:0 56:0 57:0 58:0 59:0 60:0 61:1 62:0 63:0 64:1 65:3 66:0 67:0 68:0 69:0 70:0 71:0 72:0 73:0 74:0 75:0 76:0 77:0 78:3 79:1 80:0 81:0 82:0 83:1 84:1 85:0 86:0 87:0 88:0 89:0 90:0 91:2 92:0 93:2 94:1 95:0 96:0 97:0 98:0 99:0 100:0 101:1 102:1 103:0 104:0 105:0 106:0 107:1 108:0 109:1 110:0 111:0 112:0 113:0 114:0 115:0 116:0 117:0 118:1 119:0 120:1 121:0 122:1 123:0 124:0 125:0 126:1 127:0 128:0 129:0 130:0 131:1 132:0 133:0 134:0 135:0 136:0 137:1 138:0 139:0 140:0 141:2 142:1 143:0 144:0 145:0 146:0 147:0 
0 0 0.03315747453806409 1:128.4096 2:76.0992 3:200 4:255 5:0 6:0 7:0 8:0 9:1 10:2 11:0 12:0 13:0 14:0 15:0 16:6 17:4 18:0 19:0 20:1 21:0 22:0 23:1 24:1 25:0 26:0 27:0 28:0 29:0 30:1 31:3 32:0 33:0 34:1 35:0 36:0 37:1 38:0 39:0 40:1 41:1 42:0 43:0 44:0 45:0 46:1 47:0 48:0 49:0 50:0 51:0 52:0 53:3 54:2 55:0 56:0 57:0 58:0 59:0 60:0 61:0 62:0 63:0 64:3 65:0 66:2 67:0 68:0 69:0 70:0 71:1 72:0 73:0 74:0 75:1 76:0 77:0 78:2 79:1 80:0 81:0 82:2 83:0 84:1 85:0 86:1 87:0 88:0 89:0 90:0 91:0 92:1 93:1 94:0 95:1 96:0 97:0 98:0 99:0 100:0 101:2 102:0 103:0 104:1 105:0 106:0 107:0 108:0 109:0 110:0 111:0 112:0 113:0 114:0 115:2 116:0 117:0 118:2 119:0 120:0 121:0 122:0 123:0 124:0 125:0 126:1 127:2 128:0 129:1 130:1 131:1 132:0 133:0 134:1 135:0 136:0 137:0 138:1 139:0 140:1 141:0 142:0 143:1 144:0 145:0 146:1 147:0 
0.002726962119233164 0.007707451725779857 0 1:126.5264 2:74.848 3:200 4:255 5:0 6:0 7:0 8:0 9:1 10:1 11:0 12:0 13:0 14:0 15:1 16:9 17:0 18:0 19:0 20:0 21:1 22:1 23:1 24:1 25:0 26:0 27:0 28:0 29:1 30:3 31:2 32:0 33:0 34:1 35:0 36:0 37:0 38:0 39:0 40:0 41:0 42:0 43:0 44:0 45:0 46:0 47:0 48:1 49:1 50:0 51:0 52:0 53:0 54:3 55:1 56:0 57:1 58:0 59:1 60:0 61:0 62:0 63:0 64:0 65:0 66:0 67:3 68:2 69:0 70:0 71:0 72:1 73:0 74:0 75:0 76:3 77:0 78:0 79:0 80:0 81:0 82:0 83:1 84:0 85:0 86:0 87:1 88:0 89:0 90:0 91:0 92:1 93:1 94:0 95:0 96:0 97:0 98:0 99:0 100:2 101:0 102:1 103:0 104:0 105:0 106:1 107:0 108:0 109:0 110:0 111:0 112:1 113:0 114:0 115:1 116:0 117:1 118:0 119:0 120:0 121:0 122:0 123:0 124:0 125:0 126:1 127:0 128:0 129:0 130:0 131:0 132:1 133:0 134:0 135:0 136:0 137:0 138:0 139:0 140:0 141:0 142:1 143:0 144:0 145:0 146:0 147:0 
0 0.05526532382172771 0 1:126.9232 2:75.3648 3:200 4:255 5:0 6:0 7:2 8:0 9:1 10:0 11:0 12:1 13:0 14:1 15:0 16:6 17:3 18:4 19:0 20:0 21:0 22:0 23:0 24:0 25:0 26:0 27:0 28:0 29:3 30:3 31:2 32:0 33:0 34:0 35:0 36:0 37:1 38:0 39:0 40:1 41:0 42:0 43:0 44:0 45:0 46:0 47:0 48:1 49:1 50:0 51:0 52:4 53:1 54:0 55:1 56:0 57:0 58:0 59:0 60:0 61:0 62:1 63:0 64:0 65:0 66:2 67:0 68:0 69:2 70:0 71:0 72:1 73:1 74:0 75:0 76:2 77:0 78:0 79:0 80:0 81:0 82:0 83:1 84:1 85:1 86:0 87:0 88:2 89:1 90:2 91:1 92:0 93:0 94:0 95:1 96:0 97:0 98:0 99:0 100:2 101:0 102:1 103:3 104:1 105:0 106:0 107:0 108:0 109:0 110:0 111:0 112:0 113:0 114:0 115:0 116:1 117:1 118:0 119:0 120:0 121:0 122:0 123:0 124:0 125:0 126:0 127:0 128:0 129:0 130:0 131:0 132:0 133:0 134:0 135:0 136:0 137:0 138:0 139:0 140:1 141:0 142:0 143:0 144:0 145:1 146:0 147:0 
0 0.05556317224927081 0.03112655014643025 1:128.5632 2:76.2272 3:200 4:255 5:7 6:0 7:0 8:3 9:0 10:0 11:0 12:0 13:1 14:0 15:0 16:0 17:0 18:4 19:1 20:0 21:4 22:0 23:0 24:2 25:0 26:1 27:0 28:12 29:0 30:0 31:0 32:0 33:0 34:1 35:0 36:0 37:0 38:0 39:0 40:5 41:1 42:0 43:0 44:1 45:0 46:0 47:0 48:0 49:0 50:0 51:0 52:0 53:0 54:0 55:0 56:1 57:0 58:0 59:0 60:0 61:1 62:0 63:0 64:0 65:3 66:0 67:0 68:0 69:1 70:1 71:0 72:2 73:1 74:0 75:0 76:0 77:1 78:1 79:0 80:0 81:1 82:0 83:0 84:0 85:0 86:0 87:0 88:3 89:1 90:0 91:0 92:1 93:1 94:0 95:0 96:1 97:0 98:0 99:0 100:0 101:0 102:0 103:0 104:1 105:1 106:0 107:0 108:1 109:0 110:0 111:0 112:0 113:1 114:0 115:1 116:0 117:0 118:0 119:0 120:0 121:0 122:0 123:0 124:0 125:1 126:0 127:1 128:1 129:1 130:0 131:0 132:0 133:1 134:0 135:0 136:0 137:0 138:1 139:0 140:1 141:0 142:1 143:1 144:0 145:0 146:0 147:0 
0.001827998707937414 0 0 1:126.4416 2:75.8976 3:200 4:255 5:1 6:0 7:2 8:0 9:0 10:1 11:0 12:1 13:0 14:0 15:0 16:0 17:2 18:0 19:0 20:0 21:0 22:0 23:0 24:1 25:0 26:0 27:0 28:0 29:4 30:3 31:1 32:0 33:0 34:1 35:0 36:1 37:1 38:1 39:0 40:0 41:0 42:3 43:0 44:0 45:0 46:0 47:0 48:0 49:1 50:0 51:0 52:3 53:0 54:1 55:0 56:0 57:0 58:0 59:1 60:0 61:0 62:0 63:0 64:1 65:0 66:0 67:0 68:1 69:0 70:0 71:0 72:0 73:0 74:0 75:0 76:2 77:0 78:0 79:0 80:0 81:1 82:1 83:0 84:0 85:0 86:0 87:0 88:1 89:0 90:0 91:0 92:1 93:0 94:0 95:1 96:0 97:0 98:0 99:0 100:1 101:1 102:0 103:1 104:1 105:0 106:0 107:1 108:0 109:0 110:0 111:0 112:0 113:0 114:1 115:1 116:1 117:1 118:0 119:0 120:0 121:0 122:0 123:0 124:1 125:0 126:0 127:1 128:0 129:0 130:0 131:0 132:0 133:0 134:0 135:0 136:1 137:0 138:0 139:2 140:0 141:0 142:0 143:0 144:0 145:0 146:0 147:0 
0 0 0.02349892037423419 1:129.0512 2:76.8688 3:200 4:255 5:0 6:0 7:3 8:1 9:0 10:0 11:0 12:0 13:0 14:0 15:0 16:0 17:0 18:3 19:1 20:0 21:0 22:0 23:0 24:0 25:0 26:0 27:0 28:2 29:1 30:0 31:0 32:0 33:0 34:1 35:2 36:0 37:0 38:0 39:1 40:0 41:0 42:0 43:0 44:1 45:1 46:1 47:0 48:1 49:0 50:0 51:0 52:0 53:2 54:0 55:4 56:2 57:1 58:0 59:0 60:0 61:0 62:0 63:0 64:0 65:0 66:0 67:0 68:0 69:1 70:0 71:0 72:0 73:0 74:0 75:0 76:0 77:1 78:0 79:0 80:0 81:0 82:1 83:0 84:0 85:0 86:0 87:1 88:0 89:0 90:1 91:0 92:0 93:1 94:0 95:0 96:0 97:0 98:0 99:0 100:0 101:0 102:0 103:0 104:0 105:1 106:0 107:0 108:0 109:0 110:0 111:0 112:0 113:0 114:1 115:2 116:0 117:0 118:1 119:0 120:0 121:0 122:0 123:0 124:0 125:0 126:0 127:0 128:0 129:0 130:0 131:0 132:1 133:0 134:0 135:0 136:1 137:1 138:2 139:0 140:1 141:0 142:0 143:1 144:0 145:0 146:0 147:0 
0.01959069571553803 0.07027944619594394 0.0005890163422571645 1:126.5696 2:74.9088 3:200 4:255 5:7 6:2 7:0 8:0 9:1 10:0 11:0 12:1 13:0 14:0 15:0 16:4 17:0 18:0 19:4 20:0 21:0 22:0 23:1 24:0 25:0 26:0 27:1 28:0 29:0 30:2 31:0 32:1 33:2 34:0 35:1 36:0 37:0 38:0 39:0 40:0 41:1 42:1 43:0 44:2 45:3 46:0 47:0 48:1 49:0 50:0 51:0 52:0 53:0 54:0 55:0 56:0 57:0 58:0 59:0 60:0 61:0 62:0 63:0 64:0 65:2 66:0 67:0 68:1 69:0 70:1 71:0 72:0 73:0 74:0 75:0 76:0 77:0 78:1 79:0 80:0 81:0 82:0 83:0 84:0 85:0 86:1 87:0 88:1 89:0 90:0 91:3 92:1 93:0 94:2 95:0 96:0 97:0 98:0 99:0 100:0 101:0 102:0 103:2 104:0 105:0 106:0 107:1 108:0 109:0 110:0 111:1 112:0 113:0 114:0 115:0 116:1 117:1 118:0 119:0 120:0 121:1 122:1 123:0 124:0 125:1 126:1 127:0 128:0 129:1 130:0 131:0 132:0 133:0 134:0 135:0 136:2 137:0 138:0 139:0 140:0 141:0 142:0 143:0 144:0 145:0 146:0 147:0 
0 0.001545211719449172 0.004612639203432555 1:125.9664 2:73.888 3:200 4:255 5:0 6:3 7:2 8:0 9:0 10:0 11:1 12:0 13:1 14:0 15:0 16:0 17:0 18:3 19:1 20:0 21:0 22:1 23:1 24:0 25:0 26:0 27:0 28:0 29:0 30:2 31:4 32:0 33:0 34:0 35:1 36:0 37:0 38:1 39:0 40:1 41:1 42:0 43:1 44:1 45:0 46:1 47:0 48:0 49:0 50:0 51:0 52:0 53:0 54:2 55:0 56:0 57:0 58:1 59:0 60:0 61:0 62:0 63:0 64:0 65:1 66:0 67:1 68:0 69:0 70:0 71:0 72:0 73:0 74:0 75:0 76:1 77:4 78:0 79:0 80:0 81:0 82:0 83:0 84:1 85:0 86:0 87:0 88:1 89:3 90:0 91:0 92:0 93:0 94:0 95:0 96:0 97:0 98:0 99:1 100:2 101:1 102:2 103:0 104:0 105:0 106:0 107:0 108:0 109:0 110:0 111:0 112:0 113:0 114:0 115:0 116:1 117:0 118:0 119:0 120:0 121:0 122:0 123:0 124:0 125:2 126:1 127:0 128:0 129:1 130:0 131:0 132:0 133:0 134:0 135:0 136:2 137:0 138:0 139:0 140:0 141:0 142:0 143:0 144:1 145:0 146:0 147:0 
-0.08141841467815307 0.04211500059373473 0.01324014420526151 1:125.52 2:74.376 3:200 4:255 5:0 6:0 7:1 8:1 9:2 10:0 11:1 12:1 13:0 14:0 15:0 16:2 17:4 18:0 19:3 20:0 21:0 22:1 23:0 24:0 25:1 26:0 27:0 28:0 29:1 30:4 31:2 32:0 33:0 34:0 35:1 36:0 37:1 38:1 39:0 40:2 41:2 42:0 43:0 44:2 45:1 46:0 47:1 48:2 49:0 50:0 51:1 52:1 53:3 54:0 55:0 56:1 57:0 58:0 59:0 60:1 61:0 62:0 63:0 64:0 65:2 66:0 67:1 68:0 69:0 70:0 71:0 72:0 73:0 74:0 75:0 76:3 77:1 78:0 79:1 80:0 81:0 82:0 83:0 84:0 85:0 86:0 87:0 88:2 89:0 90:0 91:3 92:0 93:0 94:0 95:0 96:0 97:1 98:0 99:0 100:0 101:1 102:2 103:0 104:0 105:0 106:1 107:0 108:0 109:0 110:0 111:0 112:1 113:0 114:0 115:1 116:0 117:0 118:0 119:0 120:0 121:0 122:0 123:0 124:1 125:0 126:1 127:0 128:0 129:0 130:0 131:0 132:1 133:0 134:0 135:0 136:0 137:0 138:0 139:0 140:0 141:0 142:0 143:0 144:0 145:0 146:1 147:0 
-0.04752596782234115 0.01144285603067895 0 1:124.2816 2:75.8208 3:200 4:255 5:4 6:0 7:0 8:1 9:1 10:0 11:0 12:1 13:0 14:1 15:1 16:8 17:0 18:0 19:0 20:2 21:2 22:0 23:0 24:0 25:0 26:0 27:1 28:1 29:0 30:0 31:0 32:3 33:2 34:0 35:0 36:0 37:0 38:0 39:0 40:3 41:0 42:0 43:0 44:1 45:0 46:0 47:0 48:0 49:0 50:0 51:0 52:2 53:0 54:0 55:1 56:1 57:1 58:0 59:0 60:0 61:0 62:0 63:0 64:0 65:0 66:4 67:1 68:0 69:0 70:1 71:0 72:0 73:1 74:0 75:0 76:0 77:0 78:1 79:0 80:0 81:0 82:0 83:0 84:0 85:1 86:0 87:0 88:1 89:1 90:1 91:0 92:1 93:0 94:0 95:0 96:0 97:0 98:0 99:0 100:1 101:2 102:0 103:0 104:0 105:0 106:0 107:0 108:0 109:0 110:0 111:0 112:0 113:0 114:0 115:1 116:0 117:1 118:0 119:0 120:0 121:0 122:0 123:0 124:2 125:0 126:0 127:0 128:0 129:0 130:0 131:0 132:0 133:0 134:0 135:0 136:1 137:0 138:0 139:0 140:0 141:0 142:0 143:0 144:0 145:0 146:0 147:0 
-0.008844742979680889 0 0 1:124.5632 2:74.6832 3:200 4:255 5:6 6:8 7:0 8:0 9:3 10:2 11:0 12:0 13:0 14:0 15:0 16:2 17:3 18:0 19:0 20:5 21:2 22:0 23:0 24:1 25:0 26:1 27:0 28:0 29:0 30:0 31:0 32:0 33:0 34:0 35:0 36:1 37:1 38:0 39:0 40:1 41:2 42:0 43:0 44:0 45:2 46:0 47:1 48:0 49:0 50:0 51:0 52:0 53:2 54:0 55:1 56:5 57:0 58:1 59:1 60:0 61:0 62:0 63:0 64:2 65:0 66:0 67:2 68:1 69:0 70:1 71:0 72:1 73:0 74:0 75:0 76:2 77:0 78:0 79:3 80:0 81:1 82:0 83:0 84:0 85:0 86:0 87:1 88:3 89:0 90:0 91:1 92:0 93:0 94:0 95:1 96:0 97:0 98:0 99:1 100:0 101:2 102:0 103:0 104:0 105:0 106:1 107:0 108:0 109:0 110:0 111:0 112:1 113:0 114:0 115:1 116:0 117:1 118:1 119:0 120:0 121:1 122:0 123:0 124:0 125:0 126:1 127:1 128:0 129:0 130:0 131:0 132:0 133:0 134:0 135:0 136:0 137:0 138:1 139:0 140:0 141:0 142:0 143:1 144:0 145:1 146:0 147:0 
-0.04403973301161415 0.01765769206190995 0.01153876777541139 1:124.8336 2:74.76 3:200 4:255 5:0 6:4 7:1 8:0 9:0 10:1 11:0 12:0 13:0 14:0 15:0 16:2 17:0 18:0 19:0 20:3 21:0 22:0 23:0 24:0 25:1 26:0 27:0 28:8 29:8 30:0 31:0 32:3 33:0 34:1 35:1 36:0 37:0 38:0 39:0 40:0 41:0 42:0 43:2 44:2 45:0 46:1 47:0 48:0 49:1 50:0 51:0 52:0 53:1 54:0 55:0 56:0 57:0 58:3 59:1 60:1 61:0 62:0 63:0 64:0 65:0 66:3 67:2 68:1 69:0 70:1 71:0 72:0 73:1 74:0 75:0 76:0 77:0 78:2 79:3 80:3 81:0 82:0 83:0 84:1 85:0 86:0 87:0 88:0 89:2 90:0 91:0 92:0 93:0 94:1 95:1 96:0 97:0 98:0 99:0 100:0 101:0 102:0 103:0 104:0 105:0 106:0 107:0 108:0 109:0 110:0 111:0 112:1 113:2 114:2 115:0 116:1 117:0 118:0 119:0 120:0 121:0 122:0 123:0 124:0 125:0 126:0 127:1 128:0 129:0 130:0 131:0 132:0 133:0 134:0 135:0 136:0 137:0 138:0 139:1 140:0 141:0 142:0 143:0 144:0 145:0 146:0 147:0 
-0.02498961294699037 0.01495890640215832 0 1:125.1888 2:75.3456 3:200 4:255 5:0 6:4 7:0 8:0 9:0 10:0 11:0 12:0 13:0 14:0 15:1 16:0 17:0 18:0 19:0 20:0 21:0 22:0 23:1 24:0 25:0 26:0 27:0 28:0 29:1 30:2 31:0 32:0 33:0 34:0 35:0 36:0 37:0 38:0 39:0 40:0 41:0 42:0 43:0 44:0 45:1 46:0 47:0 48:0 49:0 50:0 51:0 52:0 53:0 54:2 55:0 56:1 57:0 58:0 59:1 60:0 61:0 62:0 63:0 64:0 65:1 66:1 67:0 68:0 69:1 70:0 71:1 72:1 73:1 74:1 75:1 76:1 77:0 78:1 79:0 80:1 81:1 82:1 83:1 84:0 85:0 86:0 87:0 88:0 89:1 90:0 91:2 92:2 93:0 94:0 95:0 96:0 97:0 98:0 99:0 100:1 101:0 102:0 103:1 104:0 105:0 106:0 107:0 108:0 109:0 110:0 111:0 112:0 113:1 114:0 115:0 116:0 117:0 118:1 119:0 120:0 121:0 122:0 123:0 124:0 125:0 126:0 127:0 128:0 129:0 130:0 131:0 132:0 133:0 134:0 135:0 136:0 137:2 138:1 139:0 140:1 141:0 142:0 143:0 144:0 145:0 146:0 147:0 
-0.002896866688230502 0 0.0045704914023496 1:124.28 2:74.608 3:200 4:255 5:0 6:0 7:0 8:0 9:0 10:0 11:0 12:0 13:0 14:0 15:0 16:2 17:0 18:3 19:2 20:3 21:0 22:0 23:0 24:0 25:0 26:0 27:0 28:10 29:0 30:0 31:0 32:0 33:0 34:1 35:0 36:1 37:0 38:0 39:0 40:0 41:0 42:2 43:0 44:0 45:2 46:2 47:1 48:0 49:0 50:0 51:0 52:0 53:5 54:2 55:3 56:0 57:1 58:0 59:0 60:0 61:0 62:0 63:0 64:0 65:1 66:0 67:0 68:3 69:0 70:0 71:0 72:0 73:1 74:0 75:0 76:2 77:1 78:0 79:0 80:2 81:0 82:1 83:0 84:0 85:1 86:0 87:0 88:2 89:1 90:2 91:3 92:0 93:0 94:0 95:0 96:0 97:0 98:0 99:0 100:1 101:0 102:0 103:0 104:0 105:0 106:0 107:1 108:0 109:0 110:0 111:0 112:0 113:0 114:0 115:1 116:0 117:0 118:0 119:1 120:1 121:0 122:0 123:0 124:0 125:0 126:2 127:0 128:0 129:0 130:2 131:1 132:0 133:0 134:0 135:0 136:1 137:0 138:0 139:0 140:1 141:1 142:1 143:0 144:0 145:0 146:0 147:0 
-0.1005848846500117 0.01923347555131924 0 1:121.7696 2:71.4288 3:200 4:255 5:0 6:1 7:0 8:0 9:0 10:0 11:0 12:0 13:1 14:0 15:0 16:0 17:0 18:1 19:1 20:0 21:0 22:0 23:1 24:0 25:0 26:0 27:0 28:0 29:0 30:0 31:0 32:1 33:1 34:1 35:0 36:0 37:0 38:0 39:0 40:1 41:1 42:1 43:0 44:0 45:0 46:0 47:0 48:0 49:0 50:0 51:0 52:0 53:0 54:0 55:2 56:0 57:1 58:0 59:0 60:0 61:0 62:1 63:0 64:0 65:1 66:0 67:0 68:1 69:0 70:1 71:0 72:0 73:0 74:0 75:0 76:0 77:0 78:0 79:1 80:1 81:0 82:0 83:0 84:0 85:0 86:0 87:0 88:0 89:1 90:2 91:0 92:0 93:1 94:0 95:0 96:0 97:0 98:0 99:0 100:0 101:1 102:1 103:0 104:1 105:0 106:0 107:0 108:0 109:0 110:0 111:0 112:0 113:0 114:2 115:0 116:1 117:1 118:0 119:1 120:0 121:0 122:0 123:0 124:0 125:0 126:1 127:0 128:0 129:1 130:0 131:0 132:0 133:0 134:0 135:0 136:0 137:1 138:0 139:0 140:1 141:0 142:1 143:0 144:0 145:0 146:0 147:0 
-0.1319803056800832 0.03882262675812598 0.006522936721435855 1:125.6048 2:74.6144 3:200 4:255 5:2 6:0 7:0 8:0 9:2 10:0 11:0 12:1 13:0 14:0 15:0 16:0 17:2 18:2 19:0 20:0 21:1 22:0 23:0 24:0 25:0 26:0 27:0 28:0 29:0 30:0 31:1 32:0 33:0 34:0 35:0 36:0 37:0 38:0 39:0 40:0 41:0 42:1 43:0 44:0 45:1 46:0 47:1 48:0 49:0 50:1 51:0 52:1 53:0 54:1 55:3 56:0 57:0 58:1 59:0 60:0 61:0 62:0 63:0 64:1 65:0 66:0 67:0 68:1 69:0 70:0 71:0 72:0 73:0 74:0 75:0 76:0 77:0 78:0 79:0 80:0 81:2 82:0 83:0 84:0 85:0 86:0 87:0 88:0 89:1 90:0 91:1 92:0 93:0 94:0 95:0 96:0 97:0 98:0 99:0 100:1 101:0 102:0 103:0 104:0 105:1 106:0 107:0 108:0 109:0 110:0 111:0 112:0 113:0 114:0 115:0 116:1 117:0 118:1 119:0 120:0 121:0 122:0 123:0 124:0 125:1 126:2 127:2 128:0 129:0 130:0 131:1 132:0 133:0 134:0 135:0 136:0 137:0 138:0 139:2 140:0 141:0 142:0 143:1 144:0 145:0 146:0 147:0 
-0.009356580174562899 0 0 1:122.5328 2:74.0928 3:200 4:255 5:1 6:1 7:0 8:0 9:0 10:0 11:1 12:0 13:0 14:0 15:0 16:2 17:2 18:0 19:0 20:0 21:0 22:0 23:0 24:0 25:0 26:0 27:0 28:0 29:2 30:1 31:1 32:0 33:1 34:1 35:1 36:1 37:1 38:1 39:1 40:0 41:0 42:4 43:0 44:0 45:0 46:0 47:1 48:0 49:0 50:1 51:0 52:0 53:1 54:0 55:1 56:2 57:0 58:0 59:0 60:1 61:0 62:1 63:0 64:0 65:0 66:0 67:3 68:0 69:0 70:0 71:0 72:0 73:1 74:0 75:0 76:0 77:1 78:0 79:1 80:1 81:0 82:2 83:0 84:1 85:0 86:0 87:0 88:0 89:0 90:0 91:0 92:1 93:0 94:0 95:0 96:1 97:0 98:0 99:0 100:0 101:1 102:1 103:0 104:0 105:0 106:0 107:0 108:0 109:0 110:0 111:0 112:1 113:0 114:0 115:0 116:0 117:1 118:2 119:1 120:0 121:0 122:1 123:0 124:1 125:0 126:1 127:0 128:0 129:1 130:0 131:0 132:0 133:0 134:0 135:0 136:3 137:0 138:2 139:0 140:0 141:0 142:0 143:0 144:0 145:1 146:0 147:0 
-0 0.00723662389497962 0 1:123.328 2:74.3856 3:200 4:255 5:4 6:3 7:3 8:0 9:0 10:0 11:1 12:0 13:0 14:1 15:0 16:1 17:0 18:2 19:1 20:1 21:0 22:0 23:0 24:0 25:0 26:1 27:0 28:0 29:5 30:1 31:0 32:0 33:0 34:1 35:0 36:0 37:0 38:0 39:0 40:1 41:0 42:0 43:3 44:2 45:0 46:0 47:0 48:1 49:2 50:0 51:0 52:0 53:0 54:1 55:1 56:0 57:0 58:0 59:0 60:0 61:0 62:0 63:0 64:0 65:1 66:0 67:0 68:1 69:0 70:1 71:0 72:0 73:0 74:0 75:0 76:1 77:0 78:0 79:1 80:2 81:0 82:0 83:0 84:1 85:0 86:0 87:0 88:0 89:1 90:0 91:2 92:0 93:0 94:0 95:0 96:0 97:0 98:0 99:0 100:0 101:1 102:0 103:0 104:0 105:0 106:2 107:0 108:0 109:0 110:0 111:0 112:1 113:0 114:0 115:0 116:0 117:1 118:1 119:1 120:0 121:0 122:0 123:0 124:0 125:0 126:1 127:0 128:0 129:0 130:0 131:0 132:0 133:0 134:0 135:0 136:0 137:0 138:1 139:0 140:0 141:0 142:0 143:1 144:0 145:0 146:1 147:0 
-0.01995428403743213 0.01939945174012604 0 1:122.6064 2:72.5376 3:200 4:255 5:1 6:1 7:0 8:0 9:0 10:0 11:0 12:0 13:0 14:1 15:0 16:0 17:0 18:2 19:1 20:0 21:1 22:0 23:0 24:0 25:1 26:0 27:0 28:0 29:0 30:0 31:0 32:1 33:0 34:0 35:0 36:0 37:0 38:0 39:0 40:1 41:1 42:0 43:0 44:0 45:0 46:1 47:0 48:0 49:0 50:0 51:0 52:0 53:1 54:0 55:0 56:0 57:0 58:0 59:0 60:0 61:0 62:0 63:0 64:0 65:0 66:0 67:0 68:0 69:1 70:0 71:0 72:0 73:0 74:0 75:0 76:1 77:1 78:0 79:0 80:0 81:0 82:0 83:0 84:0 85:0 86:0 87:0 88:0 89:1 90:0 91:0 92:1 93:0 94:0 95:0 96:0 97:0 98:0 99:0 100:0 101:0 102:0 103:0 104:1 105:1 106:0 107:1 108:0 109:0 110:0 111:0 112:0 113:0 114:0 115:0 116:0 117:0 118:2 119:0 120:0 121:1 122:0 123:0 124:0 125:0 126:1 127:0 128:1 129:0 130:0 131:0 132:0 133:0 134:0 135:0 136:0 137:0 138:0 139:0 140:1 141:0 142:1 143:0 144:0 145:0 146:0 147:0 
-0 0.004207336906839648 0 1:122.112 2:71.8928 3:200 4:255 5:0 6:0 7:0 8:2 9:1 10:1 11:0 12:0 13:0 14:0 15:0 16:1 17:1 18:2 19:0 20:0 21:0 22:1 23:1 24:0 25:0 26:0 27:0 28:0 29:0 30:0 31:0 32:0 33:0 34:0 35:0 36:0 37:0 38:0 39:0 40:0 41:0 42:0 43:0 44:0 45:2 46:0 47:0 48:0 49:0 50:0 51:0 52:0 53:2 54:0 55:0 56:0 57:1 58:0 59:0 60:0 61:0 62:0 63:0 64:0 65:1 66:0 67:1 68:0 69:0 70:1 71:0 72:0 73:0 74:0 75:0 76:0 77:1 78:0 79:0 80:0 81:1 82:0 83:1 84:0 85:0 86:0 87:0 88:0 89:0 90:0 91:0 92:0 93:1 94:0 95:0 96:1 97:0 98:0 99:0 100:0 101:0 102:0 103:1 104:0 105:0 106:0 107:0 108:0 109:0 110:0 111:0 112:2 113:0 114:0 115:0 116:1 117:0 118:0 119:0 120:0 121:0 122:1 123:0 124:1 125:0 126:1 127:0 128:0 129:0 130:0 131:0 132:0 133:0 134:0 135:0 136:1 137:1 138:0 139:0 140:0 141:0 142:0 143:0 144:0 145:0 146:0 147:0 
-0 0.003812216460823035 0.004892412947682207 1:125.9264 2:77.6608 3:200 4:255 5:0 6:0 7:0 8:0 9:2 10:1 11:0 12:0 13:0 14:0 15:0 16:0 17:0 18:0 19:0 20:1 21:2 22:1 23:1 24:0 25:0 26:0 27:0 28:0 29:0 30:0 31:0 32:0 33:1 34:0 35:0 36:0 37:1 38:0 39:0 40:7 41:1 42:0 43:3 44:0 45:0 46:1 47:0 48:0 49:0 50:0 51:1 52:3 53:3 54:0 55:2 56:0 57:0 58:0 59:1 60:0 61:0 62:0 63:0 64:0 65:2 66:1 67:0 68:1 69:0 70:0 71:0 72:0 73:0 74:0 75:0 76:0 77:0 78:1 79:0 80:0 81:0 82:0 83:0 84:0 85:0 86:0 87:0 88:1 89:0 90:1 91:0 92:1 93:0 94:0 95:0 96:0 97:0 98:0 99:0 100:1 101:0 102:1 103:2 104:0 105:0 106:0 107:0 108:0 109:0 110:0 111:0 112:0 113:0 114:1 115:2 116:0 117:0 118:0 119:0 120:0 121:0 122:0 123:0 124:0 125:0 126:0 127:0 128:1 129:0 130:0 131:0 132:1 133:0 134:0 135:0 136:0 137:1 138:0 139:0 140:1 141:0 142:0 143:0 144:0 145:0 146:0 147:0 
-0.03274262362553833 0 0 1:125.6288 2:76.6624 3:200 4:255 5:0 6:5 7:1 8:2 9:1 10:0 11:0 12:0 13:0 14:0 15:0 16:12 17:8 18:3 19:0 20:0 21:1 22:0 23:1 24:0 25:0 26:0 27:0 28:0 29:0 30:0 31:1 32:1 33:0 34:0 35:0 36:0 37:0 38:0 39:0 40:0 41:0 42:1 43:2 44:1 45:1 46:0 47:0 48:0 49:0 50:0 51:0 52:0 53:0 54:1 55:0 56:0 57:0 58:1 59:1 60:1 61:0 62:0 63:0 64:1 65:0 66:0 67:0 68:2 69:0 70:0 71:0 72:0 73:0 74:0 75:0 76:4 77:6 78:0 79:0 80:0 81:0 82:2 83:0 84:0 85:0 86:0 87:0 88:0 89:0 90:0 91:0 92:0 93:0 94:1 95:0 96:0 97:1 98:0 99:0 100:0 101:1 102:2 103:0 104:0 105:1 106:0 107:0 108:0 109:0 110:0 111:0 112:0 113:0 114:0 115:0 116:1 117:0 118:0 119:0 120:1 121:0 122:0 123:0 124:0 125:1 126:1 127:0 128:1 129:1 130:0 131:0 132:0 133:0 134:0 135:0 136:0 137:3 138:0 139:0 140:0 141:0 142:0 143:0 144:0 145:0 146:0 147:0 
-0 0 5.135317818934801e-05 1:127.5392 2:79.2864 3:200 4:255 5:0 6:2 7:0 8:0 9:0 10:1 11:0 12:0 13:0 14:0 15:0 16:1 17:1 18:0 19:0 20:0 21:2 22:0 23:0 24:0 25:0 26:0 27:1 28:1 29:0 30:0 31:1 32:0 33:1 34:0 35:0 36:0 37:0 38:1 39:0 40:0 41:0 42:0 43:0 44:0 45:0 46:0 47:0 48:0 49:0 50:0 51:1 52:0 53:0 54:2 55:0 56:0 57:0 58:0 59:0 60:0 61:0 62:0 63:0 64:0 65:0 66:0 67:1 68:0 69:0 70:1 71:0 72:0 73:0 74:0 75:0 76:0 77:0 78:0 79:1 80:0 81:1 82:0 83:1 84:0 85:0 86:0 87:0 88:0 89:0 90:0 91:1 92:0 93:0 94:1 95:0 96:0 97:0 98:0 99:0 100:2 101:0 102:0 103:0 104:0 105:1 106:0 107:1 108:1 109:0 110:0 111:0 112:1 113:0 114:0 115:1 116:0 117:0 118:0 119:0 120:0 121:0 122:0 123:0 124:1 125:0 126:1 127:0 128:1 129:0 130:0 131:0 132:0 133:0 134:0 135:0 136:0 137:1 138:1 139:0 140:0 141:0 142:0 143:0 144:0 145:0 146:0 147:0 
-0 0.007474648472815367 0.004633387215135514 1:125.8816 2:77.2704 3:200 4:255 5:0 6:0 7:0 8:2 9:0 10:1 11:0 12:0 13:0 14:0 15:0 16:0 17:2 18:2 19:0 20:1 21:0 22:0 23:0 24:0 25:0 26:0 27:0 28:4 29:0 30:1 31:0 32:0 33:3 34:0 35:0 36:0 37:0 38:0 39:0 40:0 41:0 42:0 43:1 44:0 45:1 46:0 47:0 48:0 49:0 50:0 51:0 52:2 53:0 54:0 55:0 56:0 57:0 58:0 59:0 60:0 61:0 62:0 63:0 64:2 65:4 66:0 67:0 68:0 69:1 70:1 71:1 72:0 73:0 74:0 75:0 76:0 77:1 78:2 79:0 80:0 81:0 82:0 83:0 84:0 85:0 86:0 87:0 88:0 89:0 90:2 91:0 92:0 93:2 94:0 95:0 96:1 97:0 98:0 99:0 100:3 101:2 102:0 103:1 104:0 105:0 106:1 107:0 108:0 109:0 110:0 111:0 112:0 113:0 114:1 115:0 116:0 117:1 118:0 119:0 120:0 121:0 122:0 123:0 124:0 125:1 126:1 127:0 128:0 129:0 130:0 131:0 132:0 133:0 134:0 135:0 136:0 137:0 138:0 139:0 140:1 141:0 142:1 143:0 144:0 145:0 146:0 147:0 
-0.001895558290764728 0.003283070790141909 0 1:125.9216 2:77.4064 3:200 4:255 5:0 6:1 7:1 8:0 9:2 10:0 11:1 12:0 13:0 14:0 15:0 16:0 17:2 18:0 19:0 20:0 21:0 22:1 23:0 24:1 25:0 26:1 27:0 28:0 29:0 30:1 31:1 32:0 33:1 34:0 35:0 36:0 37:0 38:0 39:0 40:0 41:0 42:2 43:0 44:0 45:0 46:0 47:0 48:0 49:0 50:0 51:0 52:1 53:0 54:0 55:0 56:0 57:0 58:0 59:0 60:0 61:0 62:0 63:0 64:0 65:0 66:0 67:0 68:0 69:1 70:1 71:0 72:0 73:0 74:0 75:0 76:0 77:2 78:0 79:0 80:0 81:1 82:1 83:0 84:0 85:0 86:0 87:0 88:0 89:0 90:0 91:0 92:0 93:2 94:0 95:0 96:0 97:1 98:0 99:0 100:0 101:0 102:0 103:0 104:0 105:0 106:1 107:0 108:0 109:0 110:0 111:0 112:1 113:0 114:0 115:0 116:0 117:1 118:0 119:2 120:0 121:0 122:0 123:0 124:0 125:0 126:0 127:2 128:2 129:0 130:2 131:1 132:0 133:0 134:0 135:0 136:0 137:1 138:0 139:0 140:0 141:0 142:0 143:0 144:0 145:0 146:0 147:0 
-0 0 0.009756061342314659 1:125.6656 2:76.6944 3:200 4:255 5:0 6:4 7:1 8:1 9:2 10:1 11:0 12:1 13:0 14:0 15:0 16:11 17:7 18:3 19:1 20:0 21:1 22:0 23:1 24:1 25:1 26:0 27:0 28:0 29:0 30:0 31:0 32:1 33:1 34:1 35:0 36:0 37:0 38:0 39:0 40:0 41:0 42:1 43:2 44:1 45:2 46:0 47:0 48:0 49:0 50:0 51:0 52:0 53:0 54:1 55:0 56:0 57:0 58:0 59:0 60:1 61:0 62:0 63:0 64:2 65:0 66:0 67:0 68:2 69:0 70:1 71:0 72:0 73:0 74:0 75:1 76:4 77:5 78:1 79:0 80:0 81:0 82:1 83:1 84:0 85:0 86:0 87:0 88:0 89:0 90:0 91:0 92:1 93:0 94:0 95:0 96:0 97:0 98:1 99:0 100:0 101:1 102:2 103:1 104:0 105:0 106:0 107:0 108:0 109:0 110:0 111:0 112:0 113:1 114:0 115:0 116:0 117:1 118:0 119:0 120:0 121:1 122:0 123:0 124:0 125:1 126:1 127:0 128:1 129:1 130:0 131:0 132:0 133:0 134:0 135:0 136:0 137:4 138:0 139:0 140:0 141:0 142:0 143:0 144:0 145:0 146:0 147:0 
-0.02654496971412186 0.001777057270388133 0.004298127499090397 1:124.6112 2:76.2464 3:200 4:255 5:0 6:0 7:1 8:3 9:1 10:1 11:0 12:0 13:1 14:1 15:0 16:7 17:1 18:0 19:0 20:1 21:0 22:1 23:0 24:0 25:0 26:0 27:1 28:7 29:0 30:0 31:1 32:0 33:0 34:1 35:0 36:0 37:0 38:0 39:1 40:6 41:0 42:0 43:2 44:0 45:0 46:1 47:0 48:0 49:0 50:0 51:0 52:0 53:0 54:3 55:0 56:1 57:1 58:0 59:2 60:0 61:0 62:0 63:0 64:4 65:0 66:0 67:0 68:2 69:2 70:0 71:0 72:0 73:0 74:1 75:0 76:0 77:0 78:2 79:0 80:0 81:0 82:0 83:0 84:0 85:0 86:0 87:0 88:0 89:2 90:0 91:1 92:1 93:1 94:0 95:0 96:0 97:0 98:0 99:0 100:2 101:0 102:0 103:0 104:1 105:0 106:0 107:0 108:0 109:1 110:0 111:0 112:0 113:0 114:0 115:1 116:0 117:0 118:1 119:0 120:0 121:0 122:0 123:0 124:0 125:2 126:0 127:0 128:1 129:0 130:0 131:0 132:0 133:0 134:0 135:0 136:0 137:1 138:2 139:2 140:0 141:0 142:1 143:0 144:0 145:0 146:0 147:0 
-0 0 0.00143563791496893 1:126.7712 2:78.2192 3:200 4:255 5:1 6:0 7:0 8:1 9:0 10:1 11:0 12:0 13:1 14:0 15:0 16:1 17:2 18:1 19:1 20:1 21:0 22:1 23:1 24:0 25:0 26:0 27:0 28:0 29:0 30:3 31:1 32:0 33:2 34:0 35:0 36:0 37:0 38:0 39:0 40:0 41:0 42:1 43:0 44:0 45:1 46:0 47:0 48:0 49:0 50:0 51:0 52:0 53:2 54:0 55:2 56:0 57:0 58:0 59:0 60:0 61:0 62:0 63:0 64:4 65:0 66:0 67:1 68:0 69:1 70:0 71:0 72:0 73:0 74:0 75:0 76:0 77:1 78:1 79:1 80:1 81:0 82:1 83:0 84:0 85:0 86:0 87:0 88:1 89:3 90:2 91:2 92:0 93:0 94:0 95:0 96:1 97:0 98:0 99:0 100:0 101:0 102:0 103:0 104:0 105:0 106:0 107:0 108:0 109:0 110:0 111:0 112:2 113:0 114:0 115:1 116:0 117:1 118:0 119:0 120:0 121:0 122:0 123:0 124:2 125:0 126:0 127:0 128:0 129:1 130:0 131:0 132:0 133:0 134:0 135:0 136:3 137:1 138:0 139:2 140:0 141:0 142:1 143:0 144:0 145:0 146:0 147:0 
-0 0 0.003526092110590434 1:126.3248 2:77.4992 3:200 4:255 5:3 6:0 7:0 8:0 9:1 10:0 11:0 12:0 13:0 14:0 15:0 16:0 17:3 18:0 19:0 20:2 21:1 22:0 23:0 24:0 25:1 26:1 27:0 28:0 29:0 30:1 31:2 32:0 33:0 34:0 35:1 36:0 37:0 38:0 39:0 40:7 41:0 42:1 43:1 44:0 45:0 46:0 47:0 48:0 49:0 50:0 51:0 52:0 53:0 54:0 55:2 56:3 57:1 58:1 59:0 60:0 61:1 62:1 63:1 64:0 65:0 66:2 67:0 68:0 69:0 70:0 71:0 72:0 73:0 74:0 75:0 76:2 77:0 78:0 79:3 80:1 81:1 82:0 83:0 84:0 85:0 86:0 87:0 88:4 89:1 90:0 91:2 92:0 93:0 94:0 95:0 96:0 97:0 98:0 99:0 100:3 101:1 102:0 103:0 104:0 105:0 106:0 107:0 108:1 109:0 110:0 111:0 112:1 113:1 114:0 115:1 116:1 117:0 118:0 119:0 120:0 121:0 122:1 123:0 124:0 125:2 126:0 127:0 128:0 129:1 130:0 131:0 132:0 133:0 134:0 135:0 136:0 137:0 138:1 139:0 140:1 141:1 142:0 143:0 144:0 145:0 146:0 147:0 
-0.0074055194257763 0.0008827555457738222 0 1:123.2304 2:74.6064 3:200 4:255 5:0 6:0 7:0 8:1 9:0 10:0 11:1 12:1 13:0 14:0 15:0 16:0 17:0 18:2 19:0 20:0 21:0 22:0 23:0 24:0 25:1 26:1 27:1 28:0 29:0 30:0 31:0 32:0 33:0 34:0 35:0 36:1 37:0 38:1 39:0 40:0 41:0 42:1 43:1 44:0 45:0 46:1 47:0 48:0 49:0 50:0 51:0 52:3 53:1 54:3 55:0 56:0 57:1 58:0 59:0 60:0 61:0 62:0 63:0 64:0 65:0 66:0 67:2 68:2 69:0 70:0 71:0 72:1 73:0 74:0 75:0 76:0 77:0 78:2 79:0 80:0 81:2 82:1 83:1 84:0 85:0 86:0 87:0 88:1 89:2 90:1 91:0 92:2 93:0 94:0 95:0 96:0 97:0 98:0 99:0 100:0 101:0 102:0 103:0 104:3 105:0 106:0 107:1 108:0 109:1 110:0 111:1 112:0 113:0 114:1 115:0 116:2 117:0 118:0 119:2 120:0 121:0 122:0 123:0 124:0 125:1 126:0 127:0 128:0 129:0 130:0 131:0 132:0 133:1 134:0 135:0 136:0 137:0 138:0 139:0 140:0 141:1 142:0 143:0 144:0 145:0 146:0 147:0 
-0.04265459730240043 0.04221616321252226 0 1:122.9136 2:72.5376 3:200 4:255 5:4 6:0 7:0 8:0 9:1 10:0 11:0 12:0 13:0 14:0 15:0 16:0 17:0 18:2 19:0 20:1 21:0 22:0 23:0 24:0 25:0 26:0 27:0 28:1 29:1 30:0 31:0 32:1 33:0 34:0 35:0 36:0 37:0 38:0 39:0 40:0 41:2 42:0 43:0 44:0 45:0 46:0 47:0 48:0 49:0 50:0 51:0 52:0 53:0 54:1 55:0 56:1 57:0 58:1 59:0 60:0 61:0 62:0 63:0 64:2 65:0 66:0 67:0 68:1 69:0 70:0 71:0 72:0 73:1 74:0 75:0 76:0 77:1 78:0 79:0 80:0 81:0 82:1 83:0 84:0 85:0 86:0 87:0 88:0 89:0 90:0 91:0 92:0 93:0 94:0 95:0 96:0 97:0 98:0 99:0 100:0 101:0 102:1 103:1 104:0 105:0 106:0 107:0 108:0 109:0 110:0 111:0 112:0 113:0 114:0 115:0 116:0 117:0 118:0 119:0 120:0 121:0 122:0 123:0 124:0 125:0 126:0 127:1 128:2 129:1 130:0 131:0 132:1 133:0 134:1 135:0 136:0 137:0 138:1 139:0 140:0 141:0 142:0 143:0 144:0 145:0 146:0 147:0 
-0.00716073988079261 0 0.003317090986797157 1:127.1344 2:78.1856 3:200 4:255 5:0 6:0 7:0 8:0 9:0 10:0 11:0 12:0 13:0 14:0 15:0 16:8 17:4 18:1 19:0 20:1 21:1 22:0 23:0 24:0 25:0 26:0 27:0 28:0 29:2 30:1 31:0 32:1 33:0 34:0 35:0 36:1 37:0 38:0 39:0 40:1 41:0 42:0 43:0 44:0 45:0 46:0 47:0 48:1 49:0 50:0 51:0 52:0 53:0 54:2 55:1 56:0 57:0 58:0 59:0 60:0 61:0 62:0 63:0 64:2 65:0 66:0 67:1 68:0 69:0 70:1 71:0 72:0 73:0 74:0 75:0 76:3 77:0 78:2 79:1 80:0 81:0 82:1 83:1 84:0 85:0 86:0 87:0 88:1 89:0 90:1 91:0 92:0 93:0 94:0 95:1 96:0 97:0 98:0 99:0 100:0 101:0 102:0 103:0 104:1 105:0 106:0 107:1 108:0 109:0 110:0 111:0 112:2 113:1 114:1 115:0 116:0 117:0 118:0 119:0 120:0 121:0 122:0 123:0 124:0 125:2 126:0 127:0 128:0 129:0 130:1 131:0 132:0 133:0 134:0 135:0 136:2 137:0 138:0 139:0 140:1 141:0 142:0 143:0 144:0 145:0 146:0 147:0 
-0.01081253662188625 0 0.009017786405309978 1:125.2512 2:77.4336 3:200 4:255 5:5 6:0 7:0 8:1 9:0 10:0 11:0 12:0 13:0 14:0 15:0 16:0 17:6 18:0 19:0 20:1 21:0 22:0 23:1 24:0 25:0 26:0 27:0 28:14 29:0 30:0 31:0 32:1 33:0 34:0 35:0 36:0 37:0 38:0 39:0 40:0 41:3 42:4 43:0 44:1 45:0 46:0 47:1 48:1 49:0 50:0 51:0 52:0 53:0 54:1 55:0 56:3 57:1 58:1 59:0 60:0 61:0 62:0 63:0 64:2 65:0 66:0 67:1 68:0 69:0 70:0 71:0 72:0 73:0 74:0 75:0 76:2 77:5 78:2 79:1 80:0 81:0 82:0 83:0 84:0 85:0 86:0 87:0 88:3 89:0 90:0 91:0 92:3 93:1 94:1 95:0 96:0 97:0 98:0 99:0 100:1 101:3 102:0 103:0 104:1 105:0 106:0 107:1 108:0 109:0 110:0 111:0 112:0 113:0 114:1 115:0 116:0 117:1 118:0 119:1 120:0 121:0 122:0 123:1 124:0 125:0 126:0 127:0 128:3 129:0 130:1 131:1 132:0 133:0 134:0 135:0 136:0 137:0 138:1 139:0 140:1 141:0 142:0 143:1 144:0 145:0 146:0 147:0 
-0.0126151069456385 0.008667837698758257 0.005639445683913458 1:126.104 2:77.512 3:200 4:255 5:4 6:1 7:0 8:2 9:0 10:0 11:0 12:0 13:0 14:0 15:0 16:19 17:2 18:0 19:0 20:0 21:0 22:1 23:0 24:1 25:0 26:0 27:0 28:0 29:0 30:0 31:1 32:0 33:0 34:0 35:0 36:0 37:0 38:0 39:0 40:0 41:3 42:1 43:0 44:0 45:0 46:0 47:1 48:0 49:0 50:0 51:0 52:0 53:0 54:4 55:0 56:0 57:0 58:0 59:1 60:0 61:0 62:0 63:0 64:9 65:0 66:0 67:1 68:0 69:0 70:0 71:0 72:1 73:0 74:1 75:0 76:0 77:0 78:1 79:0 80:1 81:0 82:0 83:0 84:0 85:1 86:0 87:0 88:1 89:2 90:0 91:1 92:1 93:1 94:0 95:0 96:0 97:0 98:0 99:0 100:0 101:0 102:1 103:0 104:1 105:1 106:0 107:0 108:0 109:0 110:0 111:0 112:2 113:0 114:1 115:0 116:0 117:0 118:0 119:0 120:0 121:0 122:0 123:0 124:5 125:4 126:0 127:0 128:0 129:0 130:0 131:0 132:0 133:0 134:0 135:1 136:0 137:0 138:0 139:0 140:0 141:0 142:1 143:0 144:0 145:0 146:0 147:0 
-0.01058857047502861 0 0.01155020322398941 1:125.9008 2:77.2528 3:200 4:255 5:2 6:2 7:0 8:0 9:0 10:0 11:1 12:0 13:0 14:0 15:1 16:2 17:0 18:0 19:2 20:0 21:1 22:0 23:0 24:0 25:0 26:0 27:0 28:0 29:4 30:0 31:0 32:0 33:0 34:0 35:0 36:1 37:0 38:0 39:0 40:6 41:6 42:0 43:0 44:0 45:0 46:0 47:1 48:0 49:0 50:0 51:1 52:0 53:0 54:0 55:0 56:2 57:0 58:0 59:0 60:1 61:1 62:0 63:0 64:0 65:3 66:0 67:1 68:0 69:0 70:0 71:0 72:0 73:0 74:0 75:0 76:1 77:0 78:3 79:2 80:0 81:1 82:2 83:0 84:0 85:0 86:0 87:0 88:0 89:0 90:0 91:0 92:0 93:0 94:0 95:0 96:0 97:0 98:0 99:0 100:4 101:0 102:0 103:0 104:0 105:0 106:0 107:0 108:0 109:0 110:0 111:0 112:3 113:0 114:0 115:0 116:0 117:0 118:0 119:0 120:0 121:0 122:1 123:0 124:3 125:0 126:2 127:0 128:0 129:0 130:1 131:0 132:0 133:0 134:0 135:0 136:1 137:1 138:2 139:0 140:0 141:0 142:0 143:0 144:0 145:0 146:0 147:0 
-0.03528522151022114 0.001210465096282923 0.008820107638495658 1:126.6848 2:77.744 3:200 4:255 5:0 6:4 7:1 8:0 9:1 10:0 11:0 12:0 13:0 14:0 15:0 16:0 17:0 18:3 19:0 20:1 21:0 22:0 23:0 24:0 25:0 26:0 27:0 28:0 29:0 30:0 31:0 32:0 33:0 34:1 35:0 36:0 37:0 38:0 39:0 40:0 41:0 42:0 43:0 44:0 45:0 46:0 47:0 48:0 49:1 50:0 51:0 52:1 53:2 54:0 55:0 56:2 57:1 58:0 59:0 60:0 61:0 62:0 63:0 64:1 65:0 66:3 67:2 68:1 69:0 70:0 71:0 72:0 73:0 74:0 75:0 76:1 77:0 78:1 79:1 80:1 81:0 82:2 83:0 84:0 85:0 86:0 87:0 88:0 89:0 90:1 91:0 92:2 93:0 94:1 95:0 96:1 97:0 98:0 99:0 100:0 101:1 102:0 103:0 104:2 105:0 106:1 107:0 108:1 109:0 110:0 111:0 112:2 113:1 114:2 115:0 116:0 117:0 118:0 119:0 120:0 121:0 122:0 123:0 124:0 125:0 126:1 127:0 128:0 129:0 130:1 131:1 132:0 133:0 134:0 135:0 136:1 137:0 138:0 139:0 140:0 141:0 142:0 143:0 144:1 145:0 146:0 147:0 
-0.01707893801258221 0 0 1:126.1552 2:77.7008 3:200 4:255 5:0 6:1 7:0 8:0 9:0 10:0 11:0 12:0 13:0 14:0 15:0 16:0 17:0 18:0 19:0 20:0 21:1 22:0 23:1 24:1 25:1 26:0 27:0 28:3 29:0 30:0 31:0 32:0 33:0 34:0 35:0 36:0 37:0 38:1 39:0 40:0 41:0 42:0 43:2 44:1 45:0 46:0 47:0 48:0 49:0 50:0 51:0 52:2 53:0 54:0 55:0 56:0 57:1 58:0 59:0 60:0 61:0 62:0 63:1 64:0 65:1 66:0 67:0 68:0 69:0 70:0 71:0 72:0 73:0 74:0 75:0 76:1 77:0 78:0 79:0 80:0 81:1 82:1 83:0 84:1 85:0 86:0 87:1 88:1 89:0 90:0 91:0 92:0 93:0 94:1 95:0 96:0 97:0 98:0 99:0 100:0 101:0 102:0 103:3 104:0 105:0 106:0 107:1 108:0 109:0 110:0 111:0 112:1 113:0 114:0 115:0 116:2 117:0 118:0 119:0 120:0 121:0 122:0 123:0 124:1 125:0 126:0 127:1 128:1 129:0 130:0 131:1 132:0 133:0 134:0 135:0 136:2 137:0 138:1 139:0 140:0 141:0 142:0 143:0 144:0 145:0 146:0 147:0 
-0.004992456690623201 0 0.01404369249252628 1:126.3536 2:77.7056 3:200 4:255 5:2 6:2 7:0 8:0 9:2 10:0 11:0 12:0 13:1 14:0 15:0 16:11 17:0 18:0 19:0 20:1 21:0 22:0 23:1 24:0 25:1 26:1 27:0 28:1 29:0 30:1 31:0 32:0 33:0 34:0 35:0 36:0 37:0 38:0 39:0 40:0 41:1 42:0 43:2 44:0 45:0 46:0 47:0 48:0 49:1 50:0 51:0 52:0 53:4 54:1 55:2 56:1 57:0 58:0 59:0 60:1 61:1 62:1 63:0 64:2 65:1 66:2 67:0 68:0 69:0 70:0 71:0 72:0 73:0 74:0 75:0 76:0 77:0 78:0 79:1 80:1 81:0 82:0 83:1 84:0 85:0 86:0 87:0 88:0 89:3 90:1 91:0 92:0 93:2 94:0 95:0 96:0 97:0 98:0 99:0 100:1 101:0 102:0 103:1 104:0 105:0 106:0 107:0 108:0 109:0 110:0 111:0 112:3 113:1 114:2 115:0 116:1 117:0 118:0 119:0 120:0 121:0 122:0 123:0 124:0 125:0 126:0 127:0 128:0 129:2 130:0 131:0 132:0 133:0 134:0 135:0 136:2 137:0 138:0 139:0 140:1 141:0 142:0 143:0 144:0 145:0 146:0 147:0 
-0 0.006547472917037938 0 1:125.9712 2:77.224 3:200 4:255 5:0 6:1 7:0 8:0 9:0 10:1 11:0 12:0 13:0 14:0 15:0 16:0 17:2 18:0 19:0 20:0 21:1 22:2 23:1 24:0 25:0 26:0 27:0 28:0 29:2 30:3 31:4 32:0 33:1 34:0 35:0 36:0 37:0 38:0 39:0 40:4 41:1 42:0 43:0 44:1 45:0 46:0 47:1 48:0 49:0 50:0 51:1 52:1 53:1 54:2 55:0 56:2 57:0 58:0 59:0 60:0 61:0 62:0 63:1 64:1 65:1 66:0 67:0 68:0 69:0 70:1 71:0 72:0 73:0 74:0 75:0 76:0 77:0 78:2 79:1 80:0 81:0 82:0 83:0 84:0 85:0 86:0 87:0 88:1 89:0 90:4 91:0 92:0 93:2 94:1 95:0 96:0 97:0 98:0 99:0 100:0 101:0 102:0 103:0 104:0 105:0 106:1 107:0 108:0 109:0 110:0 111:0 112:1 113:0 114:0 115:1 116:0 117:0 118:0 119:1 120:0 121:0 122:0 123:0 124:0 125:0 126:1 127:0 128:0 129:1 130:0 131:0 132:0 133:1 134:0 135:0 136:0 137:0 138:0 139:0 140:0 141:0 142:0 143:0 144:0 145:0 146:0 147:1 
-0.0309023486980083 0.0002590898545347372 0.0008421896839186845 1:125.944 2:77.3248 3:200 4:255 5:6 6:1 7:1 8:0 9:0 10:0 11:2 12:1 13:0 14:0 15:0 16:4 17:0 18:1 19:0 20:2 21:2 22:0 23:0 24:0 25:1 26:0 27:0 28:0 29:2 30:1 31:0 32:1 33:0 34:0 35:1 36:0 37:0 38:0 39:1 40:0 41:0 42:0 43:0 44:1 45:0 46:0 47:1 48:0 49:1 50:0 51:0 52:3 53:0 54:0 55:0 56:0 57:0 58:0 59:1 60:0 61:0 62:0 63:1 64:0 65:1 66:2 67:0 68:0 69:1 70:0 71:0 72:0 73:1 74:0 75:0 76:0 77:1 78:1 79:0 80:0 81:0 82:1 83:0 84:0 85:0 86:0 87:0 88:3 89:2 90:0 91:3 92:1 93:1 94:0 95:0 96:0 97:0 98:0 99:0 100:0 101:0 102:0 103:0 104:0 105:0 106:0 107:1 108:0 109:0 110:0 111:0 112:4 113:1 114:0 115:1 116:0 117:1 118:0 119:0 120:0 121:0 122:0 123:0 124:0 125:2 126:0 127:0 128:1 129:0 130:0 131:0 132:0 133:0 134:0 135:1 136:0 137:0 138:2 139:0 140:0 141:1 142:0 143:0 144:0 145:0 146:0 147:0 
-0 0.005502402079695314 0.00649965685942946 1:125.8096 2:77.1712 3:200 4:255 5:0 6:2 7:3 8:0 9:0 10:0 11:0 12:1 13:0 14:0 15:0 16:8 17:0 18:0 19:0 20:0 21:0 22:0 23:1 24:0 25:0 26:0 27:1 28:9 29:3 30:1 31:0 32:1 33:0 34:0 35:0 36:1 37:0 38:1 39:0 40:0 41:3 42:0 43:0 44:2 45:1 46:1 47:0 48:1 49:0 50:0 51:1 52:0 53:0 54:3 55:0 56:1 57:0 58:0 59:0 60:1 61:0 62:0 63:0 64:0 65:0 66:0 67:0 68:1 69:0 70:1 71:0 72:0 73:0 74:0 75:0 76:0 77:2 78:0 79:0 80:0 81:0 82:2 83:0 84:0 85:0 86:0 87:0 88:0 89:2 90:3 91:1 92:0 93:0 94:0 95:0 96:0 97:1 98:1 99:1 100:0 101:1 102:0 103:2 104:1 105:0 106:1 107:0 108:1 109:0 110:0 111:0 112:0 113:0 114:0 115:0 116:0 117:1 118:1 119:1 120:0 121:0 122:0 123:0 124:0 125:0 126:2 127:0 128:0 129:1 130:0 131:1 132:0 133:0 134:0 135:0 136:0 137:1 138:0 139:0 140:0 141:0 142:0 143:0 144:0 145:0 146:0 147:0 
-0.002364736759695655 0 0 1:125.6816 2:77.488 3:200 4:255 5:5 6:1 7:0 8:0 9:0 10:1 11:0 12:0 13:0 14:1 15:0 16:0 17:1 18:2 19:0 20:0 21:0 22:0 23:0 24:0 25:1 26:0 27:0 28:1 29:1 30:0 31:0 32:3 33:0 34:1 35:0 36:0 37:0 38:0 39:0 40:4 41:1 42:0 43:1 44:2 45:1 46:0 47:0 48:0 49:0 50:0 51:0 52:0 53:0 54:0 55:1 56:0 57:0 58:0 59:0 60:0 61:0 62:0 63:0 64:0 65:0 66:0 67:2 68:0 69:0 70:0 71:0 72:0 73:1 74:0 75:0 76:0 77:0 78:1 79:1 80:0 81:0 82:2 83:0 84:0 85:0 86:0 87:0 88:0 89:0 90:0 91:0 92:0 93:1 94:0 95:0 96:0 97:0 98:0 99:0 100:0 101:0 102:1 103:2 104:0 105:1 106:0 107:1 108:0 109:0 110:1 111:0 112:0 113:0 114:0 115:0 116:0 117:2 118:0 119:0 120:0 121:0 122:0 123:0 124:1 125:0 126:1 127:0 128:0 129:0 130:0 131:0 132:1 133:1 134:1 135:0 136:0 137:0 138:1 139:1 140:0 141:1 142:0 143:0 144:0 145:0 146:0 147:0 
-0 0 0.009246751102107596 1:127.2576 2:78.2928 3:200 4:255 5:0 6:0 7:0 8:0 9:0 10:1 11:0 12:0 13:0 14:0 15:0 16:0 17:2 18:0 19:0 20:1 21:0 22:0 23:0 24:1 25:0 26:0 27:0 28:0 29:0 30:2 31:0 32:3 33:2 34:0 35:0 36:1 37:0 38:0 39:0 40:7 41:3 42:0 43:2 44:0 45:1 46:0 47:1 48:0 49:0 50:0 51:0 52:0 53:0 54:3 55:0 56:0 57:1 58:1 59:0 60:0 61:0 62:1 63:0 64:0 65:0 66:0 67:0 68:1 69:0 70:0 71:0 72:0 73:0 74:0 75:0 76:0 77:0 78:1 79:0 80:1 81:1 82:0 83:0 84:0 85:0 86:0 87:0 88:1 89:3 90:0 91:0 92:0 93:0 94:1 95:0 96:0 97:0 98:0 99:1 100:0 101:1 102:1 103:0 104:0 105:0 106:1 107:0 108:0 109:1 110:0 111:0 112:0 113:0 114:2 115:0 116:0 117:0 118:2 119:0 120:0 121:0 122:0 123:0 124:0 125:0 126:0 127:1 128:0 129:0 130:0 131:0 132:0 133:1 134:1 135:0 136:1 137:2 138:1 139:0 140:0 141:0 142:1 143:0 144:0 145:0 146:0 147:0 
-0 0.005771267609923711 0 1:126.0384 2:78.3472 3:200 4:255 5:0 6:0 7:1 8:0 9:0 10:0 11:2 12:1 13:0 14:0 15:0 16:0 17:0 18:0 19:2 20:0 21:0 22:0 23:1 24:0 25:0 26:1 27:1 28:7 29:2 30:0 31:0 32:0 33:0 34:0 35:0 36:1 37:0 38:0 39:0 40:0 41:1 42:0 43:0 44:0 45:0 46:0 47:0 48:1 49:0 50:0 51:0 52:1 53:3 54:0 55:0 56:0 57:0 58:0 59:0 60:0 61:0 62:1 63:0 64:0 65:2 66:1 67:1 68:0 69:0 70:0 71:1 72:1 73:0 74:0 75:0 76:0 77:0 78:0 79:1 80:0 81:0 82:0 83:0 84:1 85:0 86:0 87:0 88:0 89:2 90:1 91:0 92:0 93:0 94:0 95:1 96:0 97:1 98:0 99:0 100:0 101:0 102:0 103:0 104:1 105:0 106:0 107:0 108:0 109:0 110:0 111:0 112:0 113:0 114:0 115:0 116:0 117:0 118:0 119:1 120:1 121:0 122:0 123:0 124:0 125:2 126:0 127:0 128:0 129:0 130:1 131:0 132:0 133:1 134:0 135:0 136:2 137:0 138:3 139:1 140:0 141:0 142:0 143:1 144:0 145:0 146:0 147:0 
-0 0 0.0008201207929847677 1:125.8624 2:78.2272 3:200 4:255 5:0 6:2 7:1 8:0 9:0 10:0 11:0 12:0 13:0 14:0 15:0 16:0 17:2 18:0 19:0 20:0 21:0 22:1 23:0 24:0 25:0 26:0 27:0 28:9 29:0 30:0 31:0 32:0 33:0 34:0 35:0 36:0 37:0 38:0 39:0 40:6 41:0 42:0 43:2 44:1 45:0 46:0 47:0 48:1 49:0 50:0 51:0 52:1 53:0 54:0 55:0 56:1 57:0 58:0 59:0 60:0 61:1 62:0 63:0 64:8 65:0 66:0 67:0 68:0 69:0 70:1 71:1 72:0 73:0 74:0 75:0 76:0 77:0 78:0 79:0 80:2 81:0 82:0 83:1 84:0 85:0 86:0 87:0 88:2 89:0 90:0 91:2 92:0 93:0 94:0 95:0 96:0 97:0 98:0 99:0 100:0 101:1 102:1 103:2 104:0 105:0 106:1 107:0 108:0 109:0 110:0 111:0 112:0 113:0 114:1 115:0 116:0 117:0 118:0 119:0 120:0 121:0 122:0 123:0 124:0 125:0 126:0 127:2 128:1 129:0 130:0 131:0 132:0 133:0 134:0 135:0 136:1 137:1 138:0 139:0 140:2 141:0 142:0 143:0 144:0 145:0 146:0 147:0 
-0.000601942314845751 0 0 1:125.6656 2:77.504 3:200 4:255 5:0 6:0 7:0 8:1 9:0 10:0 11:0 12:1 13:0 14:0 15:0 16:9 17:4 18:0 19:2 20:2 21:0 22:1 23:0 24:1 25:1 26:0 27:0 28:6 29:0 30:0 31:2 32:0 33:0 34:0 35:0 36:0 37:0 38:0 39:0 40:1 41:2 42:0 43:0 44:0 45:0 46:0 47:0 48:0 49:0 50:0 51:0 52:1 53:2 54:0 55:0 56:0 57:0 58:0 59:0 60:0 61:0 62:0 63:0 64:0 65:0 66:3 67:0 68:0 69:0 70:0 71:0 72:0 73:0 74:0 75:0 76:0 77:0 78:0 79:3 80:2 81:0 82:0 83:1 84:1 85:0 86:0 87:0 88:1 89:1 90:0 91:0 92:0 93:2 94:0 95:0 96:0 97:0 98:0 99:0 100:0 101:0 102:1 103:1 104:0 105:0 106:0 107:0 108:0 109:0 110:0 111:0 112:0 113:1 114:0 115:0 116:0 117:0 118:1 119:0 120:0 121:1 122:0 123:0 124:0 125:0 126:2 127:0 128:0 129:1 130:0 131:0 132:0 133:0 134:0 135:0 136:0 137:0 138:1 139:1 140:0 141:0 142:0 143:1 144:0 145:0 146:0 147:0 
-0 0 0.004300500514821484 1:126.2912 2:78.4688 3:200 4:255 5:6 6:1 7:2 8:0 9:0 10:0 11:0 12:0 13:1 14:0 15:0 16:0 17:0 18:0 19:0 20:0 21:1 22:0 23:0 24:1 25:0 26:0 27:0 28:8 29:0 30:0 31:0 32:1 33:0 34:2 35:0 36:0 37:1 38:0 39:0 40:0 41:2 42:0 43:2 44:0 45:0 46:0 47:0 48:0 49:0 50:0 51:0 52:0 53:0 54:0 55:0 56:1 57:0 58:0 59:0 60:1 61:0 62:0 63:0 64:4 65:1 66:0 67:1 68:1 69:0 70:0 71:0 72:0 73:1 74:0 75:0 76:0 77:3 78:2 79:2 80:0 81:0 82:1 83:1 84:0 85:0 86:1 87:0 88:0 89:1 90:3 91:0 92:0 93:0 94:0 95:0 96:0 97:0 98:1 99:1 100:1 101:0 102:0 103:1 104:0 105:1 106:0 107:0 108:0 109:0 110:0 111:0 112:0 113:2 114:0 115:0 116:0 117:0 118:2 119:0 120:0 121:0 122:0 123:0 124:0 125:0 126:0 127:1 128:0 129:1 130:0 131:0 132:1 133:0 134:0 135:0 136:1 137:0 138:0 139:1 140:1 141:0 142:0 143:0 144:1 145:1 146:0 147:0 
-0.0612046903611756 0.0318698177585784 0.0005137261638844363 1:125.2448 2:74.344 3:200 4:255 5:0 6:0 7:0 8:2 9:0 10:3 11:0 12:0 13:0 14:0 15:0 16:4 17:0 18:1 19:0 20:0 21:1 22:0 23:0 24:0 25:0 26:0 27:0 28:0 29:0 30:2 31:0 32:0 33:2 34:0 35:1 36:0 37:0 38:0 39:0 40:0 41:1 42:0 43:0 44:3 45:0 46:0 47:0 48:2 49:0 50:0 51:0 52:0 53:0 54:0 55:0 56:0 57:0 58:0 59:0 60:0 61:0 62:0 63:0 64:0 65:0 66:0 67:1 68:0 69:2 70:0 71:1 72:0 73:0 74:0 75:0 76:1 77:0 78:1 79:0 80:0 81:0 82:0 83:0 84:0 85:0 86:0 87:0 88:1 89:0 90:1 91:0 92:0 93:0 94:1 95:0 96:0 97:0 98:0 99:0 100:1 101:0 102:0 103:0 104:1 105:1 106:0 107:0 108:0 109:0 110:0 111:0 112:0 113:3 114:0 115:0 116:1 117:0 118:0 119:0 120:1 121:0 122:0 123:1 124:0 125:0 126:0 127:0 128:1 129:0 130:0 131:0 132:1 133:0 134:0 135:0 136:1 137:1 138:1 139:0 140:0 141:1 142:2 143:0 144:0 145:0 146:0 147:0 
-0.00730337110290787 -0.002684064797095386 0.01493180814044677 1:126.6592 2:74.016 3:200 4:255 5:0 6:0 7:0 8:2 9:1 10:2 11:0 12:1 13:0 14:1 15:0 16:2 17:0 18:6 19:0 20:2 21:0 22:0 23:0 24:1 25:0 26:1 27:0 28:10 29:0 30:5 31:0 32:0 33:0 34:0 35:1 36:1 37:0 38:0 39:0 40:9 41:0 42:0 43:0 44:1 45:1 46:0 47:0 48:0 49:1 50:0 51:1 52:4 53:0 54:0 55:3 56:0 57:0 58:1 59:1 60:0 61:0 62:0 63:1 64:2 65:0 66:0 67:3 68:1 69:0 70:1 71:1 72:0 73:0 74:0 75:1 76:0 77:2 78:0 79:1 80:1 81:0 82:0 83:1 84:1 85:0 86:0 87:0 88:1 89:1 90:0 91:2 92:0 93:0 94:1 95:0 96:0 97:1 98:0 99:0 100:0 101:0 102:0 103:1 104:1 105:0 106:1 107:0 108:0 109:0 110:1 111:0 112:4 113:0 114:1 115:0 116:0 117:0 118:0 119:1 120:0 121:0 122:0 123:0 124:0 125:0 126:0 127:0 128:0 129:0 130:0 131:0 132:0 133:0 134:0 135:0 136:0 137:0 138:0 139:0 140:0 141:0 142:0 143:0 144:0 145:0 146:0 147:0 
-0 -0 0.006991172132074921 1:128.1184 2:74.7488 3:200 4:255 5:13 6:0 7:8 8:0 9:4 10:2 11:0 12:2 13:0 14:2 15:0 16:17 17:9 18:0 19:0 20:0 21:1 22:0 23:0 24:0 25:1 26:3 27:1 28:0 29:9 30:14 31:0 32:6 33:0 34:0 35:1 36:0 37:2 38:0 39:1 40:0 41:0 42:2 43:0 44:3 45:0 46:0 47:0 48:0 49:2 50:0 51:1 52:0 53:0 54:0 55:2 56:0 57:0 58:1 59:0 60:2 61:0 62:0 63:0 64:0 65:0 66:0 67:1 68:1 69:0 70:0 71:0 72:2 73:0 74:0 75:0 76:2 77:1 78:0 79:2 80:1 81:0 82:0 83:1 84:0 85:0 86:0 87:0 88:0 89:0 90:0 91:3 92:0 93:0 94:0 95:0 96:0 97:0 98:0 99:0 100:1 101:0 102:0 103:0 104:0 105:0 106:0 107:1 108:0 109:0 110:0 111:0 112:0 113:0 114:0 115:1 116:3 117:0 118:0 119:0 120:0 121:0 122:0 123:0 124:0 125:0 126:0 127:0 128:0 129:0 130:1 131:1 132:1 133:0 134:1 135:0 136:1 137:1 138:1 139:0 140:0 141:0 142:2 143:0 144:0 145:0 146:0 147:0 
-0.02528880185733331 -0 0 1:126.576 2:73.6208 3:200 4:255 5:0 6:0 7:0 8:0 9:0 10:0 11:0 12:0 13:1 14:0 15:0 16:0 17:1 18:4 19:1 20:0 21:2 22:0 23:0 24:0 25:0 26:0 27:0 28:9 29:0 30:0 31:0 32:0 33:0 34:1 35:0 36:1 37:0 38:0 39:0 40:0 41:0 42:5 43:0 44:0 45:2 46:0 47:0 48:0 49:0 50:0 51:0 52:7 53:0 54:0 55:0 56:0 57:1 58:0 59:0 60:1 61:1 62:0 63:0 64:0 65:3 66:3 67:0 68:0 69:1 70:0 71:0 72:1 73:0 74:0 75:0 76:5 77:0 78:0 79:1 80:1 81:0 82:0 83:0 84:0 85:0 86:0 87:0 88:0 89:0 90:0 91:1 92:0 93:0 94:1 95:0 96:0 97:0 98:0 99:0 100:0 101:0 102:0 103:0 104:0 105:0 106:0 107:0 108:0 109:0 110:0 111:0 112:0 113:0 114:1 115:0 116:0 117:1 118:0 119:0 120:0 121:0 122:0 123:0 124:1 125:0 126:0 127:1 128:1 129:0 130:0 131:0 132:0 133:0 134:1 135:0 136:0 137:0 138:0 139:0 140:0 141:0 142:0 143:0 144:0 145:0 146:0 147:0 
-0 -0.005681809228020969 0 1:126.192 2:73.2432 3:200 4:255 5:0 6:0 7:0 8:1 9:2 10:0 11:0 12:0 13:0 14:0 15:0 16:4 17:0 18:0 19:0 20:1 21:0 22:0 23:0 24:0 25:1 26:1 27:0 28:0 29:2 30:4 31:0 32:0 33:0 34:0 35:0 36:1 37:0 38:0 39:0 40:0 41:3 42:1 43:0 44:0 45:0 46:0 47:1 48:0 49:0 50:0 51:0 52:1 53:0 54:0 55:0 56:1 57:0 58:0 59:0 60:0 61:0 62:0 63:0 64:0 65:2 66:2 67:0 68:1 69:1 70:0 71:0 72:0 73:0 74:0 75:0 76:1 77:0 78:0 79:1 80:0 81:0 82:0 83:1 84:0 85:0 86:0 87:0 88:0 89:1 90:0 91:0 92:2 93:0 94:1 95:0 96:0 97:0 98:0 99:0 100:0 101:0 102:0 103:0 104:0 105:0 106:0 107:0 108:0 109:0 110:0 111:0 112:0 113:0 114:0 115:0 116:0 117:0 118:0 119:0 120:0 121:0 122:0 123:0 124:0 125:1 126:1 127:1 128:0 129:0 130:0 131:1 132:0 133:0 134:0 135:0 136:1 137:0 138:0 139:0 140:0 141:0 142:0 143:0 144:0 145:0 146:0 147:0 
-0.2983677254550052 -0.04446744048620856 0 1:125.8336 2:72.976 3:200 4:255 5:0 6:0 7:0 8:0 9:1 10:0 11:0 12:1 13:0 14:0 15:0 16:0 17:0 18:0 19:1 20:0 21:1 22:0 23:0 24:0 25:0 26:1 27:0 28:0 29:1 30:0 31:1 32:0 33:0 34:0 35:1 36:0 37:0 38:0 39:0 40:0 41:0 42:0 43:0 44:1 45:0 46:1 47:0 48:0 49:0 50:0 51:0 52:0 53:1 54:0 55:0 56:0 57:0 58:0 59:0 60:0 61:1 62:0 63:0 64:0 65:0 66:0 67:1 68:1 69:1 70:0 71:0 72:0 73:0 74:0 75:0 76:0 77:0 78:0 79:0 80:0 81:0 82:0 83:1 84:1 85:0 86:0 87:0 88:0 89:0 90:1 91:1 92:0 93:1 94:0 95:0 96:0 97:0 98:0 99:0 100:0 101:0 102:0 103:0 104:0 105:1 106:0 107:0 108:0 109:0 110:0 111:0 112:0 113:1 114:0 115:0 116:0 117:0 118:0 119:0 120:0 121:0 122:0 123:0 124:0 125:0 126:0 127:0 128:0 129:0 130:0 131:0 132:0 133:0 134:0 135:0 136:0 137:0 138:0 139:0 140:0 141:0 142:0 143:0 144:0 145:0 146:0 147:0 
-0.1883353655138381 -0.03833932470013806 0 1:126.0048 2:73.0256 3:200 4:255 5:0 6:0 7:0 8:0 9:0 10:0 11:0 12:0 13:0 14:0 15:0 16:0 17:0 18:1 19:0 20:2 21:0 22:0 23:0 24:0 25:0 26:0 27:1 28:1 29:0 30:1 31:0 32:0 33:0 34:0 35:0 36:0 37:0 38:0 39:0 40:1 41:0 42:0 43:0 44:0 45:1 46:0 47:0 48:1 49:0 50:0 51:0 52:1 53:0 54:1 55:0 56:0 57:0 58:0 59:0 60:0 61:0 62:0 63:0 64:0 65:0 66:1 67:0 68:1 69:1 70:0 71:0 72:0 73:0 74:0 75:0 76:1 77:1 78:0 79:0 80:0 81:0 82:0 83:0 84:0 85:0 86:0 87:0 88:0 89:0 90:1 91:0 92:0 93:0 94:0 95:0 96:0 97:0 98:0 99:0 100:0 101:0 102:0 103:1 104:0 105:0 106:0 107:0 108:0 109:0 110:0 111:0 112:0 113:0 114:0 115:0 116:0 117:1 118:0 119:0 120:0 121:0 122:0 123:0 124:1 125:0 126:0 127:0 128:0 129:0 130:0 131:1 132:0 133:0 134:0 135:0 136:0 137:0 138:0 139:0 140:0 141:1 142:0 143:0 144:0 145:0 146:0 147:0 
-0.1233936873519896 -0.02860116982702847 0 1:126.1152 2:73.16 3:200 4:255 5:0 6:0 7:1 8:0 9:0 10:1 11:0 12:0 13:0 14:0 15:0 16:0 17:0 18:2 19:1 20:0 21:1 22:1 23:0 24:1 25:1 26:0 27:0 28:0 29:4 30:0 31:0 32:0 33:0 34:0 35:0 36:0 37:0 38:0 39:0 40:0 41:2 42:0 43:0 44:2 45:0 46:0 47:1 48:0 49:0 50:0 51:0 52:0 53:0 54:0 55:0 56:0 57:0 58:1 59:0 60:0 61:0 62:0 63:0 64:0 65:3 66:0 67:1 68:0 69:1 70:1 71:0 72:0 73:0 74:0 75:0 76:0 77:0 78:0 79:0 80:1 81:0 82:0 83:1 84:0 85:0 86:0 87:0 88:0 89:1 90:1 91:0 92:0 93:1 94:1 95:0 96:0 97:0 98:0 99:0 100:0 101:0 102:0 103:0 104:1 105:0 106:0 107:0 108:0 109:0 110:0 111:0 112:0 113:0 114:1 115:0 116:0 117:0 118:0 119:0 120:0 121:0 122:0 123:0 124:1 125:0 126:0 127:0 128:1 129:0 130:0 131:1 132:0 133:0 134:0 135:0 136:1 137:0 138:1 139:0 140:0 141:0 142:0 143:0 144:0 145:0 146:0 147:0 
-0 -0.01120307411248933 0.009938393551229201 1:124.8656 2:74.3024 3:200 4:255 5:0 6:0 7:5 8:0 9:1 10:4 11:0 12:0 13:2 14:1 15:0 16:0 17:0 18:1 19:8 20:0 21:0 22:0 23:0 24:0 25:1 26:1 27:0 28:0 29:6 30:0 31:0 32:0 33:3 34:0 35:3 36:0 37:0 38:0 39:1 40:4 41:0 42:2 43:1 44:0 45:0 46:0 47:0 48:0 49:1 50:0 51:0 52:0 53:0 54:0 55:0 56:0 57:1 58:1 59:0 60:1 61:0 62:0 63:0 64:0 65:2 66:3 67:0 68:2 69:0 70:0 71:0 72:1 73:0 74:0 75:0 76:0 77:0 78:0 79:0 80:1 81:2 82:0 83:0 84:1 85:0 86:0 87:0 88:0 89:1 90:1 91:0 92:0 93:1 94:1 95:0 96:0 97:0 98:0 99:1 100:3 101:0 102:1 103:0 104:1 105:0 106:0 107:0 108:0 109:0 110:0 111:0 112:0 113:0 114:0 115:1 116:0 117:0 118:1 119:0 120:0 121:0 122:0 123:0 124:0 125:1 126:1 127:0 128:1 129:0 130:0 131:0 132:0 133:0 134:0 135:0 136:0 137:1 138:0 139:0 140:0 141:0 142:1 143:0 144:0 145:0 146:0 147:0 
-0 -0 0.03862609548025298 1:128.7536 2:75.4976 3:200 4:255 5:1 6:0 7:0 8:2 9:2 10:0 11:0 12:0 13:1 14:0 15:1 16:0 17:7 18:1 19:0 20:0 21:0 22:1 23:0 24:0 25:1 26:0 27:0 28:0 29:4 30:5 31:0 32:0 33:0 34:0 35:1 36:1 37:0 38:0 39:0 40:2 41:2 42:4 43:2 44:0 45:0 46:0 47:1 48:1 49:0 50:0 51:0 52:2 53:1 54:0 55:1 56:0 57:0 58:0 59:0 60:1 61:0 62:0 63:0 64:2 65:1 66:0 67:0 68:0 69:0 70:0 71:0 72:0 73:0 74:0 75:0 76:0 77:0 78:0 79:0 80:0 81:1 82:0 83:0 84:0 85:0 86:1 87:0 88:0 89:0 90:0 91:0 92:1 93:0 94:0 95:0 96:0 97:0 98:0 99:0 100:0 101:0 102:0 103:1 104:0 105:0 106:0 107:0 108:0 109:0 110:0 111:0 112:0 113:0 114:0 115:0 116:0 117:0 118:0 119:0 120:1 121:0 122:0 123:0 124:0 125:0 126:0 127:2 128:0 129:0 130:0 131:0 132:0 133:0 134:0 135:0 136:0 137:0 138:0 139:0 140:1 141:0 142:0 143:0 144:0 145:0 146:0 147:0 
-0.02003245473058574 -0.0122766381512818 0 1:125.5664 2:74.2144 3:200 4:255 5:0 6:0 7:0 8:4 9:0 10:0 11:0 12:2 13:0 14:0 15:0 16:5 17:0 18:0 19:2 20:0 21:0 22:1 23:0 24:0 25:0 26:0 27:0 28:9 29:0 30:0 31:0 32:1 33:1 34:0 35:1 36:1 37:0 38:0 39:0 40:1 41:7 42:0 43:0 44:0 45:1 46:0 47:0 48:0 49:0 50:0 51:1 52:3 53:0 54:3 55:0 56:1 57:0 58:0 59:0 60:0 61:0 62:0 63:1 64:3 65:2 66:0 67:0 68:0 69:0 70:0 71:0 72:0 73:0 74:0 75:0 76:0 77:0 78:0 79:1 80:0 81:0 82:1 83:0 84:1 85:1 86:0 87:0 88:0 89:0 90:0 91:1 92:0 93:0 94:2 95:1 96:0 97:0 98:0 99:0 100:0 101:2 102:1 103:0 104:0 105:0 106:1 107:0 108:0 109:1 110:0 111:0 112:0 113:0 114:0 115:0 116:0 117:0 118:0 119:0 120:0 121:0 122:1 123:0 124:0 125:3 126:0 127:0 128:1 129:0 130:3 131:0 132:0 133:0 134:0 135:0 136:0 137:0 138:1 139:0 140:0 141:0 142:0 143:0 144:0 145:0 146:0 147:0 
-0.05287579741378434 -0.000963956020789756 0.006694262019903969 1:126.2848 2:71.9344 3:200 4:255 5:6 6:4 7:0 8:2 9:0 10:0 11:1 12:1 13:0 14:0 15:0 16:11 17:6 18:0 19:0 20:2 21:1 22:0 23:0 24:0 25:0 26:0 27:0 28:3 29:6 30:0 31:0 32:2 33:0 34:1 35:0 36:0 37:0 38:1 39:0 40:0 41:0 42:0 43:0 44:0 45:1 46:2 47:0 48:0 49:0 50:0 51:1 52:0 53:0 54:0 55:0 56:0 57:2 58:2 59:0 60:0 61:0 62:0 63:0 64:0 65:3 66:0 67:0 68:0 69:0 70:0 71:0 72:0 73:0 74:0 75:0 76:1 77:2 78:0 79:0 80:0 81:0 82:0 83:0 84:0 85:0 86:0 87:0 88:2 89:1 90:1 91:0 92:0 93:0 94:0 95:0 96:0 97:1 98:0 99:0 100:0 101:2 102:0 103:0 104:1 105:0 106:0 107:1 108:0 109:0 110:0 111:0 112:0 113:1 114:0 115:2 116:1 117:0 118:0 119:0 120:1 121:0 122:0 123:0 124:1 125:0 126:0 127:2 128:0 129:0 130:0 131:0 132:0 133:1 134:0 135:0 136:0 137:0 138:0 139:2 140:0 141:0 142:0 143:0 144:1 145:0 146:0 147:0 
-0.06424878067375502 -0.01078159697550596 0.004102386390867761 1:124.8752 2:73.3904 3:200 4:255 5:0 6:8 7:1 8:1 9:2 10:1 11:1 12:1 13:0 14:0 15:2 16:0 17:7 18:0 19:0 20:2 21:1 22:2 23:0 24:0 25:1 26:0 27:0 28:3 29:1 30:0 31:7 32:0 33:2 34:0 35:0 36:3 37:0 38:1 39:0 40:1 41:0 42:1 43:1 44:2 45:0 46:0 47:0 48:0 49:1 50:0 51:0 52:1 53:0 54:0 55:0 56:1 57:0 58:0 59:1 60:0 61:1 62:0 63:0 64:0 65:1 66:0 67:1 68:0 69:1 70:0 71:0 72:0 73:0 74:0 75:0 76:0 77:3 78:0 79:0 80:0 81:0 82:0 83:0 84:0 85:0 86:1 87:0 88:1 89:0 90:0 91:1 92:0 93:1 94:0 95:0 96:0 97:0 98:1 99:0 100:0 101:0 102:2 103:0 104:0 105:1 106:1 107:0 108:0 109:0 110:0 111:0 112:1 113:0 114:0 115:0 116:0 117:0 118:0 119:0 120:0 121:0 122:0 123:0 124:0 125:2 126:0 127:0 128:1 129:1 130:0 131:1 132:0 133:0 134:0 135:0 136:0 137:0 138:0 139:0 140:1 141:0 142:0 143:1 144:0 145:0 146:0 147:0 
-0.01224462102084886 -0.006602397513478314 0 1:127.0896 2:73.8368 3:200 4:255 5:0 6:0 7:0 8:0 9:2 10:0 11:1 12:0 13:0 14:0 15:0 16:0 17:0 18:0 19:0 20:0 21:3 22:1 23:1 24:0 25:0 26:0 27:0 28:6 29:0 30:0 31:1 32:0 33:0 34:0 35:0 36:0 37:0 38:0 39:0 40:0 41:3 42:2 43:1 44:0 45:0 46:0 47:0 48:0 49:0 50:0 51:0 52:2 53:1 54:2 55:2 56:0 57:0 58:0 59:0 60:0 61:0 62:0 63:1 64:0 65:1 66:0 67:0 68:1 69:0 70:2 71:0 72:1 73:0 74:0 75:0 76:0 77:0 78:0 79:0 80:1 81:0 82:0 83:0 84:0 85:0 86:0 87:0 88:0 89:0 90:0 91:0 92:0 93:0 94:1 95:0 96:0 97:0 98:0 99:0 100:0 101:0 102:0 103:0 104:0 105:0 106:0 107:0 108:0 109:0 110:0 111:0 112:0 113:0 114:0 115:0 116:1 117:0 118:1 119:0 120:0 121:0 122:0 123:0 124:0 125:0 126:0 127:1 128:1 129:0 130:1 131:0 132:0 133:0 134:0 135:0 136:0 137:0 138:0 139:0 140:0 141:1 142:1 143:0 144:0 145:0 146:0 147:1 
-0 -0 0.006415666977528705 1:126.4992 2:73.9104 3:200 4:255 5:5 6:5 7:3 8:2 9:2 10:1 11:0 12:1 13:1 14:0 15:1 16:0 17:0 18:0 19:0 20:0 21:0 22:0 23:0 24:0 25:0 26:0 27:0 28:2 29:0 30:0 31:0 32:0 33:0 34:0 35:0 36:0 37:0 38:0 39:0 40:0 41:0 42:0 43:3 44:2 45:2 46:1 47:1 48:1 49:0 50:0 51:0 52:4 53:0 54:2 55:1 56:0 57:1 58:0 59:0 60:0 61:0 62:0 63:0 64:3 65:2 66:0 67:0 68:0 69:1 70:0 71:0 72:0 73:0 74:0 75:0 76:3 77:0 78:0 79:0 80:2 81:0 82:1 83:1 84:0 85:0 86:0 87:0 88:1 89:0 90:0 91:0 92:1 93:1 94:1 95:0 96:0 97:0 98:0 99:0 100:0 101:0 102:0 103:0 104:1 105:0 106:0 107:0 108:0 109:0 110:0 111:0 112:0 113:0 114:2 115:0 116:0 117:1 118:0 119:0 120:0 121:0 122:0 123:0 124:2 125:0 126:0 127:1 128:0 129:1 130:0 131:0 132:0 133:0 134:0 135:0 136:0 137:1 138:0 139:0 140:1 141:0 142:0 143:0 144:0 145:0 146:0 147:0 
-0.0630240612011831 -0.01871572922014924 0 1:126.2256 2:73.2704 3:200 4:255 5:7 6:0 7:0 8:0 9:1 10:0 11:0 12:0 13:2 14:1 15:0 16:6 17:8 18:0 19:0 20:0 21:0 22:0 23:0 24:0 25:1 26:0 27:0 28:0 29:0 30:3 31:2 32:0 33:0 34:0 35:1 36:0 37:0 38:0 39:0 40:0 41:0 42:1 43:1 44:0 45:0 46:0 47:0 48:0 49:0 50:0 51:0 52:1 53:0 54:0 55:0 56:0 57:1 58:0 59:0 60:0 61:0 62:0 63:0 64:1 65:1 66:0 67:0 68:0 69:0 70:0 71:0 72:0 73:0 74:0 75:0 76:0 77:0 78:1 79:0 80:0 81:0 82:0 83:0 84:0 85:0 86:0 87:0 88:0 89:0 90:0 91:2 92:1 93:0 94:0 95:0 96:0 97:0 98:0 99:0 100:0 101:0 102:0 103:0 104:0 105:0 106:0 107:0 108:0 109:0 110:0 111:0 112:0 113:0 114:0 115:1 116:0 117:0 118:0 119:0 120:0 121:0 122:0 123:0 124:0 125:0 126:1 127:0 128:0 129:0 130:0 131:0 132:0 133:0 134:0 135:0 136:0 137:1 138:0 139:1 140:0 141:0 142:0 143:0 144:0 145:0 146:0 147:0 
-0.2368894409292494 -0 0 1:125.5488 2:72.4896 3:200 4:255 5:0 6:0 7:2 8:2 9:0 10:0 11:0 12:0 13:0 14:1 15:1 16:0 17:0 18:3 19:3 20:0 21:0 22:0 23:0 24:0 25:0 26:1 27:1 28:0 29:0 30:1 31:0 32:0 33:0 34:0 35:1 36:0 37:0 38:0 39:0 40:3 41:1 42:0 43:0 44:0 45:0 46:0 47:1 48:0 49:0 50:0 51:0 52:2 53:1 54:1 55:0 56:0 57:0 58:0 59:0 60:0 61:0 62:0 63:0 64:2 65:0 66:0 67:0 68:0 69:0 70:0 71:0 72:0 73:0 74:0 75:0 76:1 77:0 78:0 79:0 80:0 81:0 82:1 83:0 84:0 85:0 86:0 87:0 88:1 89:0 90:0 91:0 92:0 93:0 94:1 95:1 96:0 97:0 98:0 99:0 100:2 101:1 102:0 103:0 104:0 105:0 106:0 107:1 108:0 109:0 110:0 111:0 112:1 113:0 114:0 115:0 116:0 117:0 118:0 119:0 120:0 121:0 122:0 123:0 124:0 125:0 126:0 127:0 128:0 129:1 130:1 131:0 132:0 133:0 134:0 135:0 136:1 137:0 138:0 139:0 140:2 141:1 142:0 143:0 144:0 145:1 146:1 147:0 
-0 -0.005639079741593479 0 1:125.0832 2:73.408 3:200 4:255 5:22 6:0 7:0 8:5 9:2 10:0 11:2 12:0 13:0 14:1 15:1 16:0 17:0 18:4 19:3 20:0 21:1 22:3 23:0 24:0 25:0 26:0 27:0 28:0 29:0 30:5 31:0 32:0 33:0 34:1 35:0 36:0 37:1 38:0 39:0 40:1 41:0 42:0 43:0 44:8 45:1 46:0 47:0 48:0 49:0 50:1 51:1 52:3 53:0 54:0 55:0 56:0 57:0 58:1 59:0 60:0 61:1 62:0 63:0 64:4 65:2 66:0 67:0 68:0 69:0 70:0 71:0 72:1 73:1 74:0 75:0 76:0 77:0 78:0 79:2 80:0 81:1 82:0 83:0 84:0 85:0 86:0 87:0 88:0 89:0 90:0 91:0 92:0 93:0 94:0 95:0 96:0 97:0 98:0 99:0 100:0 101:0 102:4 103:1 104:0 105:1 106:1 107:0 108:0 109:0 110:0 111:0 112:0 113:0 114:1 115:0 116:0 117:1 118:0 119:0 120:0 121:0 122:0 123:0 124:0 125:1 126:0 127:0 128:0 129:0 130:0 131:0 132:0 133:1 134:1 135:0 136:0 137:1 138:0 139:0 140:0 141:1 142:0 143:0 144:0 145:0 146:0 147:0 
