svm_type c_svc
kernel_type linear
nr_class 4
total_sv 96
rho 440.994 -291.011 -1029.22 -238.603 -403.809 -681.453
label 1 2 3 4
probA -0.34248 -0.147641 -0.214759 -0.292041 -0.644731 -0.273344
probB -0.0129034 -0.0637824 -0.0251935 -0.113046 -0.443801 0.0675417
nr_sv 41 8 32 15
SV
0 0 1024 1:128.5488 2:74.8416 3:200 
0 1024 1024 1:126.7712 2:73.36 3:200 
0 1024 1024 1:126.0976 2:74.168 3:200 
0 1024 0 1:126.6352 2:74.3888 3:200 
0 1024 1024 1:127.5568 2:73.8016 3:200 
0 1024 0 1:128.1056 2:75.4096 3:200 
0 1024 0 1:125.8128 2:73.128 3:200 
1024 0 0 1:122.8144 2:73.9872 3:200 
0 1024 1024 1:126.5488 2:73.6704 3:200 
0 1024 0 1:125.944 2:73.904 3:200 
1024 0 0 1:124.2368 2:73.88 3:200 
0 1024 0 1:125.7984 2:73.2432 3:200 
0 1024 1024 1:125.776 2:73.2464 3:200 
0 1024 0 1:125.5488 2:72.1744 3:200 
0 1024 0 1:125.7664 2:72.3376 3:200 
1024 0 0 1:125.3104 2:74.8064 3:200 
0 1024 0 1:126.2544 2:73.8912 3:200 
0 1024 19.91704575049861 1:126.704 2:73.8128 3:200 
0 1024 0 1:125.656 2:72.7904 3:200 
0 1024 1024 1:125.808 2:72.2768 3:200 
0 1024 0 1:124.6256 2:71.6208 3:200 
1024 0 0 1:125.9696 2:74.6144 3:200 
0 1024 0 1:126.6016 2:74.5808 3:200 
0 669.9221670251134 0 1:125.408 2:73.776 3:200 
0 1024 0 1:125.8176 2:74.0096 3:200 
0 1024 0 1:125.3456 2:72.024 3:200 
0 1024 0 1:125.2992 2:72.0752 3:200 
1024 0 0 1:126.1184 2:74.3456 3:200 
0 1024 0 1:126.5616 2:74.112 3:200 
0 1024 0 1:125.144 2:71.9296 3:200 
0 1024 0 1:125.32 2:73.6976 3:200 
0 0 688.1736744551525 1:125.9488 2:74.4704 3:200 
0 1024 0 1:125.6864 2:73.6736 3:200 
0 1024 0 1:125.1056 2:72.1088 3:200 
0 0 1024 1:129.0496 2:77.192 3:200 
693.2710116273191 0 0 1:126.6272 2:76.4672 3:200 
0 0 1024 1:128.8384 2:76.8656 3:200 
0 0 1024 1:127.5856 2:76.3024 3:200 
0 0 1024 1:128.4096 2:76.0992 3:200 
0 0 1024 1:128.5632 2:76.2272 3:200 
0 0 1024 1:129.0512 2:76.8688 3:200 
-1024 1024 8.565604453615329 1:125.52 2:74.376 3:200 
-1024 0 0 1:124.8336 2:74.76 3:200 
-1024 0 0 1:125.1888 2:75.3456 3:200 
-1024 252.6166610847583 0 1:125.6048 2:74.6144 3:200 
-213.2370942248969 0 0 1:125.6288 2:76.6624 3:200 
-480.0339174024228 439.4902390486798 0 1:122.9136 2:72.5376 3:200 
-0 0 2.724715498511995 1:127.2576 2:78.2928 3:200 
-1024 0 0 1:125.2448 2:74.344 3:200 
-1024 -0 0 1:126.6592 2:74.016 3:200 
-0 -0 1024 1:128.1184 2:74.7488 3:200 
-1024 -0 0 1:126.576 2:73.6208 3:200 
-1024 -0 0 1:126.192 2:73.2432 3:200 
-1024 -0 0 1:126.0048 2:73.0256 3:200 
-1024 -0 0 1:126.4912 2:73.4832 3:200 
-1024 -0 0 1:126.1152 2:73.16 3:200 
-1024 -1024 391.7400015048819 1:124.8656 2:74.3024 3:200 
-0 -0 1024 1:128.7536 2:75.4976 3:200 
-1024 -0 679.5047118347228 1:125.5664 2:74.2144 3:200 
-1024 -692.1069001334384 0 1:124.8752 2:73.3904 3:200 
-1024 -0 0 1:126.4992 2:73.9104 3:200 
-263.8395643367951 -0 0 1:126.496 2:72.7792 3:200 
-1024 -0 1024 1:126.2256 2:73.2704 3:200 
-1024 -0 0 1:125.5488 2:72.4896 3:200 
-1024 -0 0 1:125.0512 2:73.0704 3:200 
-1024 -0 0 1:125.0832 2:73.408 3:200 
-1024 -0 0 1:125.3344 2:71.7728 3:200 
-970.943990611521 -0 0 1:124.464 2:71.5152 3:200 
-1024 -0 0 1:124.7664 2:72.6368 3:200 
-1024 -0 1024 1:126.4112 2:74.2128 3:200 
-1024 -0 0 1:125.7488 2:72.496 3:200 
-905.3055546283819 -0 336.381758621994 1:126.0208 2:73.1632 3:200 
-0 -0 1024 1:127.472 2:74.4064 3:200 
-577.8330574484145 -0 1024 1:129.2352 2:76.0032 3:200 
-1024 -0 0 1:125.592 2:72.4624 3:200 
-1024 -0 0 1:126.5744 2:73.3088 3:200 
-1024 -0 0 1:126.8336 2:73.7248 3:200 
-1024 -0 0 1:127.1056 2:73.9872 3:200 
-1024 -0 0 1:127 2:73.6816 3:200 
-0 -0 874.1683199653269 1:126.9712 2:73.52 3:200 
-1024 -0 0 1:126.2768 2:72.6704 3:200 
-1024 -0 -1024 1:127.4336 2:75.0288 3:200 
-1024 -0 -1024 1:127.6208 2:74.0592 3:200 
-1024 -0 -0 1:127.9712 2:76.08 3:200 
-1024 -11.29031995212732 -558.5636644199316 1:126.3248 2:75.1504 3:200 
-1024 -0 -1024 1:127.3008 2:74.6176 3:200 
-0 -0 -1024 1:128.672 2:74.5456 3:200 
-1024 -0 -1024 1:126.2016 2:73.568 3:200 
-756.0118636709961 -0 -0 1:129.8448 2:76.5392 3:200 
-1024 -0 -0 1:128.3104 2:75.7136 3:200 
-1024 -0 -1024 1:126.7376 2:74.0448 3:200 
-1024 -0 -1024 1:126.752 2:74.2144 3:200 
-1024 -0 -0 1:127.8 2:75.3472 3:200 
-1024 -0 -0 1:127.2592 2:74.88 3:200 
-976.0788565346527 -0 -0 1:128.0384 2:75.2192 3:200 
-1024 -0 -699.2311275069915 1:128.1024 2:75.4848 3:200 
