svm_type c_svc
kernel_type linear
nr_class 5
total_sv 870
rho 983114 -589482 -1020.87 93.0608 -53.8345 -99.8127 -19.8691 756874 126.137 36.3527
label 1 2 3 4 5
probA -0.0700848 -0.00184279 -0.210333 -0.995876 -2.03164 -1.1322 -1.51908 -0.127982 -0.898155 -3.12178
probB -0.419852 -0.0202177 0.0233388 -0.0432811 0.274209 0.195385 0.206296 0.226932 0.220386 0.213526
nr_sv 235 120 190 157 168
SV
0 520281.6174618687 0 0.08163227373481678 1:128.0816 2:77.4432 3:200 4:255 5:0 6:0 7:0 8:1 9:0 10:0 11:2 12:0 13:0 14:0 15:1 16:3 17:0 18:0 19:0 20:0 21:0 22:3 23:1 24:0 25:0 26:0 27:2 28:0 29:0 30:1 31:0 32:1 33:0 34:0 35:1 36:0 37:4 38:0 39:2 40:1 41:9 42:7 43:0 44:2 45:0 46:0 47:0 48:0 49:3 50:0 51:1 52:0 53:7 54:3 55:0 56:2 57:0 58:4 59:5 60:1 61:0 62:0 63:1 64:6 65:3 66:1 67:4 68:6 69:4 70:0 71:0 72:2 73:0 74:0 75:0 76:0 77:0 78:6 79:7 80:4 81:1 82:0 83:0 84:0 85:2 86:2 87:1 88:3 89:6 90:0 91:8 92:0 93:0 94:0 95:1 96:0 97:0 98:0 99:0 100:0 101:1 102:0 103:2 104:0 105:0 106:1 107:4 108:0 109:2 110:2 111:0 112:0 113:0 114:0 115:2 116:5 117:0 118:0 119:2 120:0 121:3 122:3 123:0 124:1 125:4 126:0 127:0 128:0 129:0 130:4 131:0 132:0 133:0 134:0 135:0 136:2 137:3 138:6 139:1 140:0 141:0 142:0 143:0 144:1 145:0 146:0 147:0 
0 0 0 0.02957383060885305 1:126.8288 2:76.9792 3:200 4:255 5:0 6:5 7:5 8:2 9:1 10:0 11:0 12:1 13:1 14:3 15:0 16:1 17:0 18:0 19:0 20:0 21:6 22:0 23:0 24:0 25:4 26:1 27:2 28:0 29:0 30:0 31:2 32:1 33:0 34:0 35:0 36:3 37:2 38:0 39:1 40:0 41:8 42:0 43:1 44:1 45:0 46:4 47:2 48:0 49:0 50:0 51:0 52:0 53:3 54:0 55:0 56:1 57:3 58:2 59:0 60:0 61:0 62:1 63:0 64:0 65:3 66:6 67:0 68:3 69:0 70:3 71:1 72:0 73:0 74:0 75:0 76:6 77:2 78:0 79:0 80:3 81:0 82:0 83:0 84:1 85:0 86:0 87:0 88:5 89:0 90:4 91:4 92:0 93:0 94:0 95:0 96:0 97:0 98:0 99:2 100:0 101:0 102:0 103:0 104:0 105:0 106:0 107:0 108:1 109:1 110:0 111:1 112:0 113:3 114:0 115:2 116:4 117:0 118:2 119:0 120:1 121:0 122:3 123:0 124:0 125:3 126:0 127:0 128:4 129:1 130:0 131:2 132:0 133:2 134:1 135:0 136:3 137:0 138:0 139:3 140:0 141:0 142:0 143:1 144:0 145:0 146:1 147:0 
0 106322.9849978445 0 0.01068741986947576 1:128.0528 2:77.2656 3:200 4:255 5:0 6:0 7:0 8:0 9:0 10:4 11:4 12:0 13:1 14:1 15:0 16:10 17:0 18:2 19:0 20:0 21:0 22:1 23:0 24:0 25:2 26:1 27:1 28:3 29:5 30:2 31:3 32:3 33:0 34:0 35:0 36:0 37:0 38:1 39:0 40:6 41:3 42:2 43:0 44:1 45:1 46:0 47:0 48:0 49:3 50:1 51:0 52:0 53:0 54:3 55:1 56:4 57:2 58:0 59:0 60:0 61:2 62:0 63:1 64:3 65:0 66:0 67:4 68:0 69:1 70:1 71:3 72:0 73:0 74:0 75:1 76:5 77:0 78:3 79:3 80:0 81:8 82:0 83:0 84:0 85:0 86:1 87:0 88:0 89:0 90:0 91:0 92:4 93:2 94:0 95:0 96:0 97:2 98:0 99:0 100:1 101:0 102:3 103:2 104:1 105:0 106:0 107:0 108:3 109:2 110:0 111:0 112:3 113:1 114:3 115:0 116:0 117:0 118:1 119:1 120:0 121:1 122:0 123:2 124:0 125:0 126:1 127:4 128:2 129:1 130:2 131:0 132:0 133:0 134:1 135:2 136:0 137:2 138:5 139:1 140:0 141:0 142:1 143:0 144:0 145:0 146:0 147:1 
75705.09350688824 0 0 0 1:127.4112 2:77.5888 3:200 4:255 5:0 6:0 7:6 8:0 9:1 10:0 11:0 12:0 13:0 14:3 15:1 16:1 17:0 18:0 19:0 20:0 21:0 22:4 23:0 24:0 25:1 26:2 27:0 28:0 29:0 30:0 31:1 32:4 33:0 34:2 35:0 36:2 37:0 38:0 39:0 40:0 41:8 42:0 43:0 44:3 45:2 46:0 47:0 48:2 49:0 50:0 51:0 52:4 53:3 54:0 55:1 56:2 57:0 58:0 59:4 60:1 61:0 62:1 63:0 64:0 65:0 66:5 67:2 68:0 69:0 70:0 71:0 72:0 73:0 74:1 75:0 76:0 77:0 78:5 79:0 80:1 81:0 82:0 83:0 84:0 85:4 86:1 87:2 88:0 89:0 90:1 91:2 92:4 93:0 94:0 95:0 96:0 97:2 98:1 99:0 100:1 101:2 102:0 103:0 104:1 105:0 106:0 107:1 108:0 109:1 110:2 111:0 112:2 113:1 114:0 115:0 116:1 117:0 118:0 119:4 120:0 121:1 122:0 123:0 124:0 125:0 126:0 127:2 128:0 129:0 130:3 131:0 132:0 133:1 134:0 135:0 136:0 137:0 138:0 139:1 140:0 141:0 142:2 143:1 144:0 145:0 146:0 147:1 
0 130610.8386489778 0 0 1:127.7744 2:77.664 3:200 4:255 5:0 6:0 7:2 8:1 9:0 10:0 11:0 12:0 13:1 14:0 15:0 16:15 17:11 18:0 19:0 20:0 21:2 22:0 23:2 24:3 25:0 26:0 27:0 28:10 29:8 30:0 31:0 32:2 33:0 34:0 35:0 36:4 37:0 38:0 39:1 40:4 41:8 42:3 43:4 44:2 45:0 46:3 47:0 48:0 49:2 50:0 51:0 52:0 53:0 54:5 55:4 56:0 57:0 58:0 59:2 60:5 61:2 62:0 63:1 64:1 65:0 66:1 67:2 68:0 69:0 70:0 71:2 72:1 73:0 74:1 75:0 76:0 77:0 78:3 79:0 80:0 81:0 82:1 83:5 84:0 85:0 86:0 87:0 88:0 89:0 90:1 91:4 92:0 93:0 94:1 95:0 96:1 97:0 98:0 99:0 100:0 101:0 102:0 103:2 104:1 105:5 106:3 107:0 108:0 109:0 110:3 111:2 112:2 113:4 114:1 115:0 116:0 117:0 118:1 119:0 120:0 121:0 122:0 123:0 124:0 125:3 126:7 127:0 128:0 129:1 130:0 131:0 132:4 133:3 134:0 135:0 136:3 137:1 138:0 139:0 140:0 141:5 142:0 143:0 144:2 145:2 146:0 147:0 
520673.2575151413 60364.15831923636 0 0 1:130.4496 2:78.2608 3:200 4:255 5:3 6:1 7:0 8:0 9:0 10:1 11:0 12:0 13:0 14:0 15:0 16:0 17:0 18:0 19:2 20:4 21:0 22:1 23:0 24:0 25:0 26:0 27:0 28:0 29:0 30:3 31:2 32:4 33:0 34:0 35:2 36:0 37:0 38:5 39:0 40:6 41:0 42:0 43:0 44:0 45:2 46:1 47:4 48:0 49:0 50:0 51:1 52:1 53:4 54:0 55:0 56:1 57:0 58:0 59:2 60:0 61:0 62:0 63:0 64:0 65:3 66:0 67:0 68:1 69:1 70:0 71:0 72:0 73:2 74:0 75:0 76:0 77:5 78:0 79:1 80:0 81:2 82:0 83:1 84:0 85:1 86:0 87:0 88:0 89:0 90:0 91:0 92:0 93:1 94:2 95:3 96:1 97:0 98:1 99:0 100:0 101:0 102:4 103:0 104:0 105:0 106:1 107:0 108:2 109:0 110:1 111:1 112:0 113:1 114:1 115:0 116:0 117:1 118:2 119:0 120:1 121:1 122:1 123:0 124:0 125:0 126:0 127:1 128:0 129:0 130:0 131:2 132:0 133:0 134:0 135:0 136:0 137:2 138:0 139:0 140:0 141:0 142:1 143:0 144:0 145:2 146:0 147:0 
45328.50434356121 0 0 0 1:125.664 2:75.5664 3:200 4:255 5:8 6:4 7:0 8:1 9:2 10:0 11:2 12:1 13:0 14:1 15:0 16:0 17:3 18:0 19:3 20:4 21:0 22:1 23:1 24:0 25:0 26:0 27:0 28:0 29:1 30:0 31:0 32:0 33:2 34:0 35:0 36:0 37:0 38:1 39:0 40:0 41:0 42:2 43:3 44:0 45:2 46:0 47:0 48:0 49:0 50:2 51:0 52:0 53:2 54:7 55:0 56:0 57:2 58:0 59:0 60:0 61:1 62:0 63:0 64:0 65:3 66:0 67:0 68:1 69:2 70:0 71:0 72:0 73:0 74:1 75:0 76:0 77:1 78:0 79:3 80:1 81:0 82:0 83:0 84:0 85:0 86:1 87:0 88:0 89:0 90:0 91:0 92:3 93:0 94:0 95:0 96:0 97:1 98:1 99:1 100:0 101:0 102:1 103:3 104:0 105:0 106:1 107:2 108:1 109:0 110:1 111:0 112:0 113:0 114:0 115:0 116:0 117:0 118:0 119:2 120:0 121:0 122:0 123:1 124:1 125:0 126:3 127:0 128:0 129:0 130:0 131:1 132:2 133:0 134:0 135:0 136:0 137:0 138:3 139:0 140:0 141:0 142:0 143:3 144:1 145:0 146:0 147:1 
0 426604.2320920689 0 0 1:130.9168 2:78.4208 3:200 4:255 5:0 6:0 7:0 8:3 9:5 10:1 11:0 12:1 13:0 14:1 15:0 16:1 17:0 18:0 19:0 20:0 21:1 22:3 23:0 24:0 25:0 26:1 27:0 28:5 29:2 30:0 31:0 32:0 33:0 34:3 35:0 36:0 37:0 38:1 39:1 40:0 41:0 42:7 43:0 44:3 45:0 46:0 47:0 48:0 49:1 50:2 51:0 52:0 53:1 54:1 55:0 56:0 57:0 58:0 59:2 60:0 61:0 62:0 63:0 64:0 65:0 66:1 67:0 68:0 69:0 70:3 71:0 72:5 73:3 74:4 75:1 76:0 77:0 78:6 79:0 80:0 81:3 82:0 83:0 84:0 85:1 86:0 87:0 88:0 89:4 90:4 91:3 92:2 93:2 94:0 95:0 96:0 97:0 98:2 99:0 100:2 101:0 102:3 103:3 104:0 105:1 106:0 107:0 108:0 109:0 110:0 111:1 112:1 113:1 114:0 115:0 116:0 117:0 118:0 119:1 120:0 121:0 122:1 123:0 124:0 125:0 126:0 127:1 128:0 129:0 130:4 131:3 132:4 133:0 134:0 135:0 136:0 137:0 138:0 139:1 140:1 141:3 142:0 143:0 144:0 145:0 146:1 147:2 
71868.33672423869 0 0 0 1:125.2352 2:76.0112 3:200 4:255 5:19 6:0 7:8 8:0 9:0 10:4 11:0 12:2 13:0 14:1 15:0 16:9 17:7 18:4 19:0 20:0 21:0 22:2 23:5 24:1 25:0 26:1 27:0 28:0 29:0 30:2 31:4 32:5 33:0 34:1 35:0 36:0 37:0 38:0 39:0 40:7 41:4 42:0 43:0 44:6 45:0 46:0 47:0 48:0 49:1 50:0 51:0 52:0 53:0 54:0 55:8 56:8 57:5 58:0 59:5 60:0 61:0 62:0 63:0 64:4 65:0 66:0 67:5 68:0 69:0 70:1 71:0 72:4 73:0 74:0 75:2 76:2 77:0 78:2 79:0 80:0 81:0 82:0 83:3 84:0 85:2 86:0 87:0 88:0 89:1 90:0 91:1 92:0 93:0 94:3 95:0 96:0 97:2 98:0 99:0 100:1 101:3 102:0 103:0 104:1 105:1 106:3 107:1 108:0 109:0 110:0 111:2 112:2 113:0 114:5 115:0 116:3 117:0 118:3 119:2 120:0 121:0 122:1 123:1 124:0 125:1 126:0 127:2 128:0 129:0 130:0 131:0 132:1 133:0 134:0 135:0 136:0 137:2 138:0 139:4 140:1 141:2 142:0 143:0 144:0 145:1 146:1 147:0 
69711.13664619482 0 0 0 1:125.136 2:76.0016 3:200 4:255 5:0 6:0 7:8 8:0 9:0 10:1 11:0 12:0 13:2 14:5 15:0 16:0 17:0 18:0 19:0 20:3 21:0 22:0 23:1 24:3 25:0 26:0 27:2 28:0 29:4 30:1 31:4 32:0 33:5 34:1 35:0 36:0 37:0 38:0 39:1 40:6 41:0 42:5 43:0 44:3 45:3 46:0 47:0 48:0 49:5 50:0 51:0 52:4 53:3 54:0 55:1 56:0 57:0 58:0 59:0 60:1 61:0 62:0 63:1 64:0 65:0 66:3 67:0 68:0 69:1 70:1 71:0 72:0 73:0 74:2 75:1 76:0 77:2 78:1 79:5 80:0 81:3 82:1 83:0 84:2 85:0 86:1 87:0 88:4 89:1 90:0 91:0 92:1 93:0 94:0 95:3 96:0 97:0 98:2 99:0 100:1 101:0 102:1 103:0 104:0 105:0 106:2 107:4 108:0 109:1 110:0 111:0 112:0 113:0 114:0 115:1 116:0 117:4 118:0 119:2 120:0 121:0 122:0 123:0 124:0 125:0 126:0 127:0 128:0 129:2 130:1 131:0 132:0 133:2 134:0 135:0 136:0 137:2 138:0 139:0 140:1 141:0 142:0 143:0 144:2 145:0 146:0 147:0 
0 0 0 0.04328134377583359 1:128.4752 2:77.4896 3:200 4:255 5:0 6:0 7:0 8:0 9:0 10:2 11:2 12:0 13:4 14:2 15:0 16:0 17:0 18:0 19:0 20:0 21:0 22:7 23:3 24:1 25:0 26:2 27:0 28:0 29:11 30:8 31:0 32:0 33:0 34:0 35:1 36:3 37:0 38:0 39:0 40:8 41:1 42:0 43:4 44:0 45:3 46:1 47:0 48:0 49:1 50:0 51:1 52:2 53:0 54:2 55:3 56:1 57:3 58:0 59:4 60:1 61:3 62:0 63:1 64:0 65:0 66:0 67:0 68:0 69:3 70:5 71:1 72:4 73:1 74:1 75:0 76:0 77:0 78:0 79:0 80:6 81:5 82:0 83:0 84:0 85:0 86:0 87:0 88:0 89:2 90:5 91:1 92:3 93:0 94:0 95:0 96:3 97:2 98:2 99:0 100:3 101:2 102:0 103:0 104:0 105:0 106:0 107:0 108:0 109:1 110:2 111:0 112:0 113:0 114:0 115:6 116:1 117:0 118:3 119:0 120:2 121:0 122:0 123:0 124:2 125:4 126:0 127:0 128:0 129:3 130:1 131:0 132:1 133:0 134:2 135:0 136:3 137:0 138:2 139:0 140:0 141:1 142:0 143:6 144:2 145:0 146:1 147:0 
0 83078.98697680971 0 0.1610539973374774 1:122.8112 2:74.8368 3:200 4:255 5:15 6:0 7:0 8:1 9:3 10:0 11:0 12:0 13:3 14:0 15:0 16:0 17:0 18:3 19:1 20:1 21:0 22:0 23:2 24:0 25:0 26:0 27:0 28:0 29:1 30:2 31:0 32:10 33:4 34:4 35:0 36:0 37:1 38:0 39:0 40:9 41:0 42:2 43:0 44:4 45:0 46:0 47:0 48:2 49:3 50:0 51:2 52:5 53:0 54:4 55:0 56:0 57:1 58:0 59:0 60:2 61:1 62:2 63:0 64:3 65:0 66:1 67:0 68:1 69:3 70:2 71:0 72:0 73:2 74:0 75:0 76:0 77:0 78:2 79:0 80:3 81:0 82:0 83:2 84:4 85:0 86:0 87:0 88:2 89:0 90:0 91:1 92:0 93:5 94:4 95:0 96:0 97:0 98:0 99:0 100:0 101:3 102:2 103:1 104:4 105:4 106:1 107:0 108:0 109:0 110:0 111:0 112:0 113:2 114:1 115:0 116:0 117:0 118:0 119:0 120:2 121:2 122:0 123:1 124:3 125:3 126:0 127:0 128:0 129:0 130:0 131:3 132:0 133:2 134:2 135:0 136:0 137:0 138:0 139:5 140:0 141:0 142:0 143:0 144:0 145:0 146:0 147:3 
0 297976.1369729844 0 0 1:128.6064 2:77.2 3:200 4:255 5:0 6:0 7:0 8:0 9:0 10:4 11:2 12:0 13:0 14:0 15:0 16:0 17:3 18:1 19:1 20:0 21:1 22:0 23:0 24:1 25:1 26:0 27:0 28:0 29:0 30:2 31:6 32:0 33:0 34:0 35:5 36:0 37:0 38:0 39:0 40:0 41:0 42:0 43:0 44:7 45:0 46:1 47:1 48:0 49:0 50:0 51:0 52:2 53:4 54:3 55:10 56:5 57:1 58:3 59:0 60:0 61:1 62:0 63:0 64:2 65:4 66:0 67:2 68:4 69:1 70:0 71:0 72:0 73:0 74:0 75:1 76:3 77:2 78:0 79:0 80:4 81:3 82:1 83:4 84:0 85:0 86:2 87:1 88:8 89:0 90:3 91:0 92:1 93:1 94:3 95:1 96:0 97:0 98:2 99:2 100:6 101:0 102:0 103:0 104:2 105:0 106:0 107:0 108:0 109:0 110:2 111:2 112:2 113:0 114:2 115:0 116:0 117:0 118:0 119:0 120:0 121:1 122:2 123:1 124:2 125:0 126:2 127:0 128:0 129:0 130:0 131:1 132:0 133:0 134:0 135:1 136:0 137:0 138:0 139:0 140:0 141:0 142:0 143:2 144:1 145:1 146:0 147:0 
101100.3634093021 0 0 0 1:126.656 2:76.1616 3:200 4:255 5:8 6:1 7:0 8:0 9:1 10:1 11:0 12:0 13:0 14:0 15:1 16:7 17:3 18:0 19:1 20:0 21:0 22:2 23:0 24:0 25:0 26:1 27:0 28:0 29:1 30:0 31:0 32:3 33:5 34:2 35:0 36:0 37:0 38:0 39:0 40:1 41:1 42:0 43:3 44:1 45:1 46:2 47:0 48:1 49:0 50:2 51:1 52:0 53:0 54:0 55:0 56:5 57:0 58:0 59:0 60:0 61:0 62:0 63:0 64:0 65:1 66:0 67:0 68:0 69:0 70:0 71:0 72:1 73:0 74:0 75:1 76:0 77:0 78:1 79:0 80:0 81:4 82:1 83:1 84:0 85:2 86:0 87:0 88:0 89:1 90:1 91:3 92:1 93:0 94:0 95:0 96:0 97:1 98:0 99:1 100:1 101:0 102:0 103:5 104:0 105:0 106:0 107:0 108:0 109:0 110:0 111:1 112:0 113:1 114:3 115:0 116:0 117:0 118:0 119:1 120:0 121:1 122:1 123:0 124:0 125:0 126:0 127:0 128:0 129:0 130:2 131:0 132:1 133:0 134:0 135:0 136:0 137:0 138:0 139:1 140:0 141:1 142:0 143:0 144:1 145:1 146:0 147:0 
0 59006.4698323557 0 0.08927420275101382 1:121.5728 2:74.3376 3:200 4:255 5:0 6:0 7:0 8:0 9:0 10:0 11:0 12:0 13:3 14:2 15:0 16:0 17:5 18:0 19:13 20:0 21:0 22:0 23:0 24:1 25:0 26:5 27:0 28:0 29:1 30:0 31:5 32:4 33:0 34:3 35:3 36:2 37:0 38:0 39:0 40:0 41:0 42:0 43:6 44:0 45:1 46:3 47:5 48:3 49:0 50:0 51:1 52:14 53:0 54:0 55:0 56:0 57:0 58:0 59:3 60:6 61:0 62:0 63:2 64:0 65:6 66:0 67:0 68:0 69:5 70:0 71:0 72:4 73:0 74:0 75:0 76:4 77:4 78:0 79:3 80:0 81:0 82:0 83:0 84:0 85:0 86:0 87:5 88:0 89:0 90:1 91:0 92:4 93:0 94:1 95:1 96:0 97:1 98:0 99:4 100:3 101:0 102:0 103:7 104:3 105:4 106:0 107:0 108:0 109:0 110:3 111:1 112:0 113:3 114:4 115:7 116:0 117:0 118:0 119:0 120:4 121:0 122:1 123:0 124:0 125:0 126:1 127:0 128:3 129:0 130:1 131:0 132:0 133:2 134:0 135:0 136:0 137:0 138:0 139:0 140:0 141:1 142:2 143:0 144:2 145:0 146:2 147:1 
298242.2601827218 0 0 0 1:126.3056 2:75.9936 3:200 4:255 5:3 6:2 7:0 8:4 9:0 10:0 11:0 12:0 13:0 14:1 15:0 16:2 17:4 18:0 19:0 20:1 21:0 22:0 23:0 24:0 25:1 26:0 27:0 28:1 29:6 30:0 31:0 32:3 33:1 34:0 35:0 36:0 37:1 38:0 39:0 40:0 41:3 42:3 43:0 44:0 45:0 46:0 47:0 48:0 49:0 50:1 51:0 52:1 53:0 54:1 55:0 56:0 57:1 58:0 59:2 60:2 61:0 62:1 63:0 64:0 65:1 66:0 67:2 68:0 69:4 70:0 71:2 72:1 73:2 74:0 75:0 76:1 77:0 78:5 79:0 80:1 81:0 82:0 83:5 84:0 85:1 86:0 87:0 88:0 89:0 90:2 91:0 92:0 93:0 94:2 95:2 96:0 97:1 98:0 99:0 100:0 101:0 102:0 103:1 104:1 105:4 106:0 107:0 108:0 109:1 110:0 111:1 112:0 113:0 114:0 115:0 116:3 117:0 118:0 119:1 120:0 121:0 122:1 123:0 124:0 125:3 126:1 127:0 128:1 129:0 130:1 131:0 132:0 133:1 134:0 135:0 136:1 137:0 138:0 139:3 140:0 141:0 142:1 143:0 144:0 145:0 146:0 147:1 
519214.0030240456 0 0 0 1:127.0272 2:76.928 3:200 4:255 5:0 6:4 7:0 8:3 9:5 10:0 11:0 12:1 13:0 14:3 15:0 16:0 17:0 18:0 19:0 20:4 21:1 22:4 23:0 24:0 25:1 26:0 27:0 28:0 29:2 30:3 31:0 32:2 33:1 34:3 35:0 36:0 37:2 38:0 39:0 40:0 41:2 42:3 43:3 44:2 45:1 46:0 47:0 48:3 49:0 50:2 51:0 52:0 53:1 54:1 55:1 56:5 57:4 58:0 59:2 60:0 61:2 62:0 63:0 64:7 65:1 66:0 67:4 68:0 69:0 70:0 71:1 72:1 73:0 74:0 75:0 76:0 77:0 78:0 79:3 80:0 81:0 82:0 83:3 84:0 85:0 86:1 87:0 88:0 89:0 90:2 91:0 92:0 93:2 94:0 95:0 96:0 97:1 98:0 99:0 100:2 101:0 102:0 103:2 104:0 105:0 106:0 107:0 108:0 109:0 110:0 111:1 112:3 113:0 114:0 115:0 116:0 117:2 118:0 119:0 120:1 121:0 122:0 123:1 124:0 125:5 126:2 127:0 128:0 129:0 130:0 131:0 132:1 133:1 134:0 135:0 136:3 137:0 138:0 139:0 140:2 141:1 142:0 143:1 144:0 145:0 146:0 147:1 
75054.70056983085 0 0 0 1:129.8832 2:78.304 3:200 4:255 5:2 6:1 7:3 8:0 9:0 10:0 11:5 12:0 13:4 14:0 15:0 16:0 17:3 18:0 19:3 20:7 21:0 22:0 23:0 24:0 25:0 26:0 27:2 28:0 29:2 30:6 31:0 32:0 33:4 34:0 35:2 36:1 37:1 38:0 39:0 40:0 41:8 42:0 43:0 44:0 45:2 46:0 47:2 48:4 49:2 50:0 51:0 52:0 53:0 54:1 55:2 56:0 57:0 58:0 59:1 60:0 61:0 62:0 63:0 64:2 65:0 66:0 67:0 68:1 69:0 70:4 71:0 72:0 73:0 74:1 75:2 76:6 77:0 78:0 79:3 80:0 81:0 82:3 83:0 84:0 85:4 86:1 87:0 88:2 89:1 90:0 91:2 92:0 93:0 94:0 95:0 96:0 97:0 98:2 99:0 100:3 101:2 102:0 103:1 104:0 105:0 106:0 107:0 108:0 109:2 110:0 111:0 112:0 113:0 114:2 115:1 116:0 117:1 118:2 119:3 120:0 121:0 122:0 123:1 124:0 125:2 126:2 127:1 128:1 129:0 130:0 131:0 132:0 133:1 134:0 135:1 136:0 137:0 138:1 139:0 140:0 141:0 142:0 143:0 144:1 145:2 146:0 147:0 
129555.2006280317 363624.453518805 0 0 1:130.3168 2:78.192 3:200 4:255 5:0 6:0 7:3 8:0 9:0 10:7 11:1 12:0 13:2 14:0 15:0 16:4 17:3 18:0 19:0 20:0 21:0 22:2 23:0 24:0 25:4 26:4 27:0 28:0 29:8 30:3 31:0 32:0 33:3 34:0 35:0 36:0 37:0 38:2 39:0 40:2 41:0 42:4 43:3 44:1 45:0 46:0 47:0 48:2 49:0 50:2 51:0 52:5 53:0 54:1 55:0 56:0 57:0 58:0 59:0 60:0 61:0 62:0 63:1 64:0 65:0 66:1 67:1 68:4 69:0 70:0 71:0 72:1 73:2 74:0 75:0 76:0 77:3 78:4 79:0 80:4 81:0 82:4 83:0 84:1 85:3 86:0 87:0 88:3 89:6 90:3 91:0 92:0 93:1 94:1 95:0 96:0 97:0 98:2 99:0 100:1 101:0 102:0 103:1 104:1 105:0 106:0 107:1 108:4 109:2 110:0 111:0 112:0 113:0 114:0 115:0 116:0 117:0 118:1 119:0 120:0 121:0 122:0 123:0 124:2 125:0 126:0 127:0 128:2 129:2 130:0 131:1 132:0 133:0 134:0 135:1 136:0 137:0 138:0 139:2 140:2 141:0 142:0 143:2 144:0 145:0 146:0 147:1 
0 82461.15272398513 0 0 1:127.9184 2:76.888 3:200 4:255 5:10 6:6 7:0 8:0 9:2 10:0 11:2 12:3 13:0 14:1 15:0 16:0 17:5 18:3 19:3 20:0 21:1 22:0 23:0 24:2 25:0 26:0 27:1 28:0 29:0 30:0 31:0 32:3 33:0 34:0 35:0 36:0 37:2 38:0 39:0 40:1 41:0 42:3 43:1 44:1 45:0 46:3 47:2 48:0 49:2 50:2 51:0 52:0 53:1 54:10 55:0 56:0 57:0 58:0 59:0 60:0 61:2 62:2 63:0 64:3 65:3 66:0 67:0 68:3 69:0 70:0 71:0 72:3 73:1 74:0 75:4 76:4 77:0 78:0 79:0 80:4 81:3 82:0 83:5 84:0 85:0 86:1 87:0 88:8 89:4 90:0 91:2 92:1 93:4 94:0 95:0 96:0 97:0 98:1 99:0 100:4 101:0 102:0 103:1 104:3 105:0 106:0 107:0 108:0 109:1 110:1 111:0 112:0 113:0 114:0 115:0 116:0 117:3 118:0 119:0 120:1 121:1 122:1 123:0 124:0 125:0 126:4 127:3 128:0 129:0 130:1 131:0 132:0 133:0 134:0 135:0 136:2 137:0 138:1 139:2 140:0 141:2 142:0 143:0 144:0 145:0 146:0 147:1 
837223.9665476233 0 0 0 1:126.7872 2:76.4256 3:200 4:255 5:0 6:2 7:0 8:0 9:0 10:0 11:4 12:0 13:0 14:0 15:0 16:0 17:0 18:6 19:2 20:1 21:5 22:0 23:0 24:0 25:0 26:1 27:2 28:3 29:6 30:0 31:0 32:0 33:0 34:0 35:0 36:2 37:0 38:1 39:0 40:4 41:0 42:0 43:5 44:0 45:1 46:0 47:0 48:0 49:0 50:0 51:0 52:0 53:1 54:1 55:1 56:2 57:0 58:0 59:0 60:0 61:1 62:0 63:0 64:2 65:1 66:0 67:0 68:0 69:0 70:0 71:1 72:1 73:0 74:0 75:0 76:3 77:0 78:2 79:1 80:0 81:0 82:0 83:0 84:0 85:0 86:0 87:1 88:0 89:4 90:2 91:0 92:0 93:1 94:1 95:0 96:0 97:0 98:0 99:1 100:0 101:0 102:0 103:1 104:1 105:2 106:0 107:0 108:0 109:0 110:0 111:0 112:0 113:0 114:0 115:0 116:2 117:0 118:0 119:0 120:0 121:0 122:0 123:1 124:1 125:1 126:0 127:2 128:0 129:0 130:0 131:0 132:1 133:0 134:0 135:0 136:0 137:2 138:0 139:0 140:0 141:0 142:0 143:0 144:0 145:0 146:1 147:0 
0 0 0 0.05524266462172957 1:127.0384 2:76.6176 3:200 4:255 5:0 6:8 7:4 8:4 9:0 10:3 11:3 12:2 13:0 14:0 15:2 16:0 17:0 18:0 19:2 20:0 21:4 22:5 23:0 24:0 25:4 26:2 27:0 28:0 29:5 30:0 31:0 32:0 33:0 34:2 35:3 36:0 37:0 38:2 39:0 40:0 41:1 42:1 43:8 44:0 45:0 46:2 47:0 48:0 49:0 50:2 51:0 52:2 53:6 54:0 55:0 56:6 57:4 58:0 59:1 60:0 61:0 62:1 63:0 64:5 65:1 66:1 67:0 68:0 69:2 70:0 71:0 72:3 73:0 74:0 75:1 76:1 77:2 78:10 79:6 80:0 81:1 82:0 83:0 84:1 85:0 86:1 87:0 88:5 89:0 90:0 91:0 92:0 93:0 94:0 95:5 96:3 97:0 98:0 99:2 100:3 101:0 102:1 103:0 104:1 105:0 106:0 107:2 108:3 109:3 110:0 111:0 112:0 113:2 114:0 115:0 116:0 117:1 118:3 119:1 120:0 121:1 122:0 123:0 124:0 125:0 126:1 127:0 128:0 129:0 130:0 131:1 132:0 133:2 134:2 135:0 136:0 137:0 138:1 139:0 140:5 141:1 142:1 143:0 144:2 145:3 146:0 147:1 
0 107910.0535253164 0 0 1:128.968 2:77.76 3:200 4:255 5:10 6:0 7:7 8:0 9:0 10:2 11:0 12:1 13:0 14:0 15:0 16:0 17:0 18:4 19:0 20:6 21:2 22:0 23:0 24:1 25:0 26:2 27:1 28:0 29:1 30:6 31:0 32:0 33:0 34:0 35:0 36:0 37:0 38:0 39:0 40:0 41:6 42:0 43:0 44:1 45:0 46:0 47:0 48:0 49:2 50:3 51:2 52:1 53:0 54:9 55:0 56:0 57:6 58:0 59:0 60:3 61:0 62:0 63:2 64:0 65:0 66:0 67:1 68:2 69:2 70:0 71:0 72:1 73:0 74:0 75:1 76:5 77:0 78:0 79:0 80:1 81:0 82:0 83:0 84:3 85:0 86:0 87:0 88:1 89:0 90:0 91:0 92:0 93:3 94:0 95:1 96:2 97:1 98:0 99:0 100:1 101:0 102:0 103:0 104:0 105:0 106:5 107:0 108:0 109:2 110:0 111:0 112:1 113:1 114:4 115:1 116:0 117:3 118:0 119:1 120:2 121:0 122:0 123:0 124:2 125:0 126:2 127:2 128:0 129:0 130:2 131:0 132:0 133:1 134:3 135:3 136:3 137:0 138:1 139:2 140:0 141:0 142:0 143:0 144:1 145:0 146:0 147:0 
210811.396297487 0 0 0 1:126.2064 2:76.6672 3:200 4:255 5:0 6:0 7:0 8:8 9:3 10:0 11:0 12:1 13:4 14:4 15:1 16:1 17:3 18:0 19:0 20:0 21:0 22:0 23:0 24:4 25:2 26:2 27:0 28:3 29:0 30:1 31:0 32:0 33:5 34:2 35:4 36:2 37:0 38:0 39:1 40:0 41:9 42:5 43:1 44:0 45:4 46:3 47:1 48:0 49:0 50:0 51:1 52:0 53:2 54:0 55:0 56:8 57:3 58:0 59:0 60:0 61:0 62:0 63:0 64:3 65:0 66:2 67:4 68:0 69:0 70:1 71:0 72:0 73:1 74:0 75:1 76:0 77:0 78:4 79:3 80:3 81:2 82:0 83:0 84:0 85:1 86:1 87:1 88:0 89:0 90:0 91:0 92:4 93:0 94:0 95:0 96:1 97:0 98:0 99:0 100:0 101:2 102:0 103:0 104:0 105:0 106:2 107:1 108:0 109:0 110:0 111:1 112:1 113:0 114:0 115:1 116:0 117:0 118:0 119:2 120:0 121:0 122:0 123:0 124:0 125:0 126:1 127:0 128:0 129:0 130:0 131:0 132:1 133:1 134:0 135:0 136:1 137:3 138:0 139:0 140:0 141:0 142:0 143:0 144:0 145:0 146:1 147:1 
0 0 0 0.03997103199603624 1:123.384 2:75.088 3:200 4:255 5:7 6:0 7:0 8:0 9:10 10:1 11:0 12:0 13:1 14:0 15:2 16:0 17:12 18:2 19:2 20:0 21:2 22:0 23:0 24:0 25:0 26:0 27:1 28:0 29:3 30:0 31:0 32:8 33:3 34:0 35:5 36:3 37:0 38:2 39:0 40:0 41:2 42:2 43:0 44:0 45:5 46:0 47:4 48:2 49:0 50:0 51:0 52:0 53:0 54:0 55:2 56:0 57:0 58:2 59:2 60:3 61:1 62:2 63:3 64:0 65:0 66:2 67:0 68:0 69:0 70:0 71:0 72:1 73:0 74:0 75:0 76:2 77:3 78:0 79:0 80:0 81:0 82:2 83:0 84:0 85:0 86:5 87:0 88:2 89:0 90:4 91:0 92:0 93:6 94:0 95:5 96:0 97:1 98:0 99:0 100:0 101:1 102:0 103:3 104:3 105:0 106:0 107:0 108:0 109:0 110:0 111:1 112:0 113:0 114:1 115:3 116:0 117:0 118:1 119:2 120:1 121:0 122:2 123:0 124:0 125:1 126:2 127:1 128:0 129:3 130:2 131:2 132:0 133:0 134:0 135:0 136:0 137:0 138:0 139:0 140:1 141:0 142:6 143:0 144:0 145:0 146:0 147:1 
0 0 0 0.03829230872484696 1:127.4896 2:77.2912 3:200 4:255 5:0 6:0 7:0 8:8 9:4 10:0 11:0 12:0 13:1 14:0 15:0 16:0 17:0 18:0 19:3 20:0 21:0 22:0 23:0 24:2 25:0 26:0 27:1 28:0 29:0 30:0 31:7 32:0 33:0 34:6 35:2 36:0 37:0 38:2 39:0 40:0 41:5 42:2 43:0 44:0 45:0 46:0 47:0 48:1 49:0 50:0 51:1 52:1 53:0 54:2 55:4 56:1 57:3 58:0 59:0 60:0 61:1 62:0 63:0 64:1 65:5 66:1 67:3 68:0 69:2 70:2 71:0 72:0 73:0 74:3 75:0 76:0 77:0 78:0 79:0 80:0 81:0 82:0 83:0 84:1 85:4 86:2 87:3 88:5 89:0 90:0 91:0 92:0 93:0 94:4 95:0 96:4 97:2 98:0 99:2 100:2 101:4 102:5 103:3 104:0 105:1 106:0 107:0 108:0 109:1 110:1 111:1 112:3 113:0 114:3 115:0 116:5 117:0 118:1 119:2 120:0 121:0 122:0 123:0 124:0 125:2 126:5 127:0 128:0 129:0 130:2 131:1 132:3 133:2 134:1 135:0 136:1 137:4 138:0 139:1 140:1 141:3 142:1 143:0 144:0 145:0 146:1 147:3 
228955.8227572904 599397.9665132854 0 0 1:126.8784 2:76.6544 3:200 4:255 5:0 6:4 7:0 8:0 9:0 10:0 11:0 12:0 13:4 14:0 15:0 16:0 17:0 18:10 19:0 20:8 21:0 22:1 23:1 24:2 25:1 26:0 27:2 28:0 29:13 30:10 31:0 32:4 33:0 34:0 35:3 36:2 37:3 38:0 39:0 40:2 41:1 42:0 43:1 44:0 45:0 46:0 47:1 48:0 49:0 50:2 51:1 52:1 53:2 54:0 55:0 56:14 57:1 58:0 59:0 60:0 61:0 62:1 63:0 64:7 65:0 66:0 67:0 68:0 69:0 70:4 71:2 72:0 73:0 74:0 75:0 76:5 77:0 78:0 79:1 80:1 81:3 82:2 83:3 84:4 85:0 86:0 87:0 88:0 89:2 90:8 91:0 92:1 93:4 94:3 95:0 96:0 97:0 98:1 99:0 100:0 101:0 102:3 103:3 104:0 105:0 106:0 107:0 108:0 109:2 110:0 111:0 112:0 113:0 114:0 115:2 116:0 117:1 118:0 119:0 120:0 121:0 122:0 123:0 124:0 125:0 126:2 127:0 128:0 129:1 130:2 131:0 132:0 133:2 134:2 135:0 136:1 137:1 138:0 139:1 140:0 141:0 142:0 143:0 144:1 145:0 146:2 147:0 
0 0 0 0.002041748354648011 1:129.1456 2:77.7808 3:200 4:255 5:4 6:3 7:2 8:3 9:0 10:0 11:2 12:0 13:0 14:0 15:2 16:0 17:0 18:1 19:8 20:2 21:0 22:1 23:0 24:0 25:0 26:0 27:1 28:1 29:1 30:0 31:0 32:3 33:3 34:0 35:3 36:0 37:0 38:1 39:1 40:0 41:0 42:1 43:0 44:6 45:1 46:6 47:0 48:2 49:1 50:0 51:0 52:0 53:0 54:0 55:0 56:3 57:2 58:3 59:0 60:0 61:0 62:0 63:0 64:1 65:0 66:2 67:0 68:4 69:2 70:0 71:2 72:0 73:2 74:0 75:0 76:0 77:0 78:0 79:0 80:7 81:0 82:0 83:1 84:0 85:3 86:2 87:0 88:0 89:7 90:1 91:1 92:0 93:2 94:0 95:1 96:2 97:0 98:0 99:0 100:0 101:0 102:0 103:1 104:0 105:2 106:2 107:4 108:2 109:1 110:0 111:0 112:0 113:1 114:3 115:0 116:0 117:0 118:0 119:0 120:1 121:3 122:1 123:0 124:0 125:5 126:2 127:0 128:2 129:0 130:2 131:0 132:0 133:0 134:1 135:1 136:2 137:3 138:0 139:0 140:0 141:0 142:3 143:0 144:1 145:0 146:0 147:1 
0 0 0 0.01823610571689147 1:126.1744 2:76.3168 3:200 4:255 5:2 6:0 7:3 8:2 9:0 10:0 11:3 12:0 13:0 14:0 15:0 16:0 17:4 18:4 19:0 20:5 21:0 22:0 23:1 24:0 25:1 26:0 27:0 28:0 29:7 30:0 31:0 32:0 33:2 34:0 35:0 36:0 37:1 38:0 39:1 40:0 41:4 42:0 43:0 44:4 45:0 46:0 47:6 48:5 49:0 50:2 51:0 52:6 53:0 54:3 55:2 56:1 57:1 58:0 59:4 60:0 61:2 62:1 63:0 64:6 65:0 66:5 67:0 68:0 69:0 70:0 71:0 72:0 73:1 74:2 75:4 76:3 77:0 78:5 79:1 80:1 81:0 82:3 83:0 84:0 85:4 86:0 87:2 88:0 89:1 90:0 91:0 92:0 93:0 94:2 95:0 96:1 97:0 98:0 99:0 100:5 101:1 102:0 103:1 104:0 105:4 106:0 107:1 108:2 109:0 110:0 111:0 112:2 113:3 114:0 115:5 116:3 117:0 118:0 119:0 120:0 121:0 122:0 123:0 124:0 125:5 126:3 127:3 128:3 129:0 130:0 131:2 132:0 133:0 134:1 135:0 136:0 137:2 138:0 139:2 140:0 141:4 142:0 143:0 144:0 145:0 146:0 147:0 
0 83756.64450657558 58.24162549596511 0 1:126.4512 2:74.0096 3:200 4:255 5:0 6:4 7:0 8:0 9:0 10:0 11:0 12:0 13:0 14:0 15:0 16:0 17:7 18:0 19:0 20:3 21:1 22:1 23:2 24:2 25:0 26:0 27:1 28:3 29:0 30:0 31:0 32:0 33:0 34:2 35:0 36:0 37:0 38:0 39:0 40:0 41:1 42:0 43:6 44:0 45:2 46:2 47:1 48:0 49:0 50:0 51:0 52:0 53:3 54:0 55:0 56:2 57:0 58:1 59:0 60:2 61:2 62:1 63:0 64:1 65:5 66:1 67:0 68:0 69:0 70:0 71:0 72:1 73:0 74:0 75:0 76:0 77:3 78:1 79:1 80:0 81:0 82:2 83:1 84:0 85:1 86:0 87:0 88:0 89:0 90:4 91:0 92:1 93:0 94:0 95:0 96:0 97:0 98:1 99:1 100:0 101:0 102:5 103:1 104:0 105:1 106:0 107:0 108:0 109:1 110:0 111:0 112:0 113:0 114:4 115:1 116:0 117:1 118:0 119:0 120:1 121:0 122:0 123:0 124:1 125:0 126:1 127:0 128:1 129:0 130:1 131:0 132:0 133:0 134:1 135:0 136:2 137:0 138:0 139:1 140:1 141:0 142:0 143:1 144:0 145:0 146:1 147:0 
0 83568.59054754632 132.6530719111944 0 1:129.7728 2:76.5392 3:200 4:255 5:0 6:9 7:6 8:0 9:2 10:1 11:0 12:0 13:0 14:0 15:0 16:0 17:1 18:3 19:4 20:0 21:0 22:1 23:0 24:1 25:1 26:0 27:0 28:4 29:11 30:0 31:1 32:0 33:0 34:4 35:1 36:0 37:0 38:0 39:0 40:0 41:0 42:0 43:6 44:1 45:0 46:2 47:0 48:0 49:1 50:0 51:0 52:0 53:0 54:0 55:3 56:0 57:0 58:0 59:1 60:1 61:0 62:0 63:1 64:6 65:0 66:0 67:0 68:2 69:1 70:0 71:2 72:0 73:0 74:0 75:0 76:0 77:1 78:0 79:1 80:1 81:0 82:0 83:1 84:1 85:1 86:0 87:0 88:0 89:2 90:0 91:0 92:1 93:0 94:0 95:2 96:0 97:0 98:0 99:1 100:0 101:0 102:0 103:0 104:1 105:0 106:0 107:1 108:1 109:0 110:0 111:1 112:2 113:0 114:0 115:0 116:2 117:1 118:1 119:1 120:0 121:0 122:0 123:1 124:1 125:0 126:1 127:0 128:0 129:0 130:0 131:1 132:0 133:0 134:0 135:0 136:1 137:1 138:1 139:1 140:1 141:0 142:0 143:0 144:0 145:0 146:0 147:1 
0 800224.3206920322 0 0 1:129.8496 2:76.6464 3:200 4:255 5:9 6:0 7:8 8:2 9:3 10:0 11:1 12:2 13:0 14:0 15:2 16:0 17:14 18:0 19:2 20:0 21:2 22:0 23:0 24:0 25:0 26:0 27:0 28:0 29:0 30:3 31:0 32:0 33:3 34:1 35:1 36:3 37:0 38:0 39:0 40:11 41:0 42:4 43:0 44:0 45:1 46:0 47:1 48:0 49:0 50:0 51:0 52:3 53:0 54:1 55:0 56:0 57:3 58:0 59:0 60:0 61:1 62:0 63:1 64:0 65:2 66:2 67:0 68:3 69:2 70:0 71:0 72:0 73:0 74:1 75:0 76:0 77:0 78:0 79:4 80:1 81:2 82:0 83:0 84:0 85:0 86:1 87:0 88:2 89:0 90:0 91:2 92:0 93:2 94:1 95:0 96:0 97:2 98:0 99:0 100:1 101:0 102:0 103:1 104:0 105:2 106:0 107:0 108:0 109:0 110:0 111:0 112:1 113:3 114:0 115:0 116:1 117:1 118:3 119:0 120:0 121:0 122:0 123:0 124:0 125:3 126:0 127:0 128:1 129:2 130:1 131:0 132:0 133:0 134:0 135:0 136:0 137:3 138:0 139:1 140:0 141:0 142:1 143:0 144:0 145:1 146:0 147:0 
0 192816.7277203619 132.7412254710656 0 1:130.3104 2:76.7504 3:200 4:255 5:0 6:4 7:4 8:2 9:4 10:1 11:0 12:2 13:1 14:0 15:0 16:0 17:8 18:0 19:3 20:3 21:0 22:0 23:2 24:0 25:0 26:0 27:0 28:0 29:10 30:0 31:0 32:0 33:2 34:1 35:0 36:0 37:0 38:0 39:0 40:0 41:2 42:0 43:2 44:2 45:0 46:2 47:0 48:1 49:1 50:0 51:0 52:0 53:6 54:0 55:0 56:2 57:0 58:1 59:0 60:1 61:0 62:1 63:1 64:0 65:0 66:2 67:0 68:3 69:1 70:1 71:0 72:1 73:0 74:0 75:0 76:0 77:0 78:0 79:3 80:1 81:0 82:0 83:0 84:2 85:0 86:0 87:0 88:0 89:2 90:0 91:0 92:0 93:1 94:1 95:0 96:0 97:1 98:1 99:0 100:1 101:1 102:1 103:2 104:0 105:0 106:0 107:0 108:0 109:0 110:0 111:1 112:0 113:0 114:0 115:1 116:0 117:0 118:0 119:0 120:0 121:1 122:1 123:0 124:0 125:0 126:0 127:1 128:0 129:1 130:0 131:0 132:0 133:1 134:0 135:0 136:0 137:1 138:0 139:2 140:0 141:0 142:0 143:1 144:0 145:0 146:1 147:0 
0 0 8.841416636414802 0 1:130.6976 2:77 3:200 4:255 5:0 6:0 7:0 8:0 9:0 10:1 11:0 12:2 13:1 14:0 15:0 16:0 17:4 18:0 19:3 20:0 21:0 22:0 23:0 24:0 25:0 26:0 27:0 28:10 29:0 30:8 31:2 32:2 33:0 34:0 35:1 36:0 37:1 38:0 39:0 40:0 41:5 42:1 43:0 44:4 45:4 46:0 47:0 48:2 49:0 50:1 51:0 52:0 53:2 54:0 55:2 56:1 57:1 58:2 59:0 60:0 61:0 62:0 63:0 64:3 65:0 66:0 67:4 68:1 69:0 70:1 71:0 72:0 73:0 74:0 75:0 76:0 77:0 78:0 79:0 80:4 81:1 82:0 83:1 84:0 85:0 86:0 87:1 88:0 89:0 90:0 91:0 92:2 93:0 94:0 95:1 96:0 97:0 98:0 99:1 100:0 101:0 102:0 103:0 104:1 105:0 106:2 107:0 108:1 109:0 110:0 111:0 112:0 113:2 114:0 115:0 116:0 117:1 118:2 119:1 120:0 121:1 122:0 123:0 124:0 125:0 126:0 127:2 128:0 129:0 130:2 131:0 132:0 133:1 134:0 135:0 136:0 137:2 138:0 139:0 140:1 141:0 142:1 143:1 144:0 145:0 146:0 147:0 
0 0 62.26479013744819 0 1:130.7104 2:77.056 3:200 4:255 5:10 6:5 7:2 8:1 9:1 10:0 11:0 12:0 13:0 14:2 15:1 16:0 17:0 18:2 19:0 20:0 21:0 22:0 23:0 24:0 25:0 26:1 27:1 28:3 29:0 30:0 31:0 32:0 33:0 34:0 35:0 36:1 37:4 38:1 39:1 40:0 41:0 42:0 43:0 44:1 45:2 46:2 47:0 48:0 49:0 50:0 51:0 52:3 53:0 54:3 55:2 56:3 57:0 58:1 59:1 60:0 61:0 62:0 63:0 64:2 65:5 66:0 67:0 68:0 69:0 70:2 71:1 72:3 73:1 74:0 75:0 76:3 77:4 78:0 79:0 80:0 81:2 82:2 83:1 84:1 85:1 86:1 87:0 88:0 89:0 90:1 91:0 92:2 93:2 94:0 95:1 96:0 97:0 98:0 99:0 100:0 101:0 102:2 103:3 104:0 105:1 106:0 107:0 108:0 109:0 110:1 111:0 112:2 113:3 114:0 115:0 116:0 117:0 118:0 119:0 120:0 121:1 122:1 123:0 124:2 125:1 126:0 127:0 128:1 129:0 130:0 131:0 132:0 133:0 134:0 135:1 136:0 137:0 138:0 139:0 140:0 141:1 142:1 143:0 144:0 145:0 146:2 147:0 
0 906575.6695759634 0 0 1:130.7344 2:77.0448 3:200 4:255 5:12 6:3 7:0 8:0 9:1 10:0 11:0 12:1 13:4 14:0 15:0 16:0 17:0 18:0 19:0 20:1 21:0 22:2 23:2 24:2 25:1 26:0 27:0 28:0 29:0 30:0 31:2 32:1 33:5 34:3 35:3 36:3 37:0 38:0 39:1 40:0 41:4 42:2 43:2 44:2 45:1 46:0 47:0 48:0 49:0 50:1 51:1 52:5 53:3 54:2 55:2 56:0 57:0 58:2 59:0 60:0 61:0 62:1 63:1 64:5 65:4 66:0 67:0 68:0 69:5 70:1 71:1 72:0 73:0 74:0 75:1 76:0 77:0 78:0 79:1 80:2 81:0 82:0 83:0 84:0 85:0 86:0 87:0 88:0 89:0 90:5 91:0 92:2 93:0 94:0 95:0 96:1 97:2 98:1 99:1 100:2 101:1 102:1 103:0 104:0 105:2 106:0 107:1 108:1 109:0 110:0 111:0 112:2 113:1 114:0 115:0 116:0 117:0 118:1 119:0 120:0 121:0 122:1 123:0 124:0 125:0 126:1 127:0 128:1 129:1 130:0 131:0 132:0 133:1 134:0 135:0 136:0 137:0 138:1 139:0 140:0 141:1 142:0 143:0 144:0 145:0 146:0 147:1 
0 0 88.09196105329504 0 1:130.704 2:77.048 3:200 4:255 5:0 6:7 7:1 8:0 9:4 10:0 11:0 12:3 13:0 14:0 15:0 16:0 17:0 18:0 19:5 20:1 21:0 22:0 23:3 24:0 25:2 26:0 27:2 28:10 29:4 30:0 31:0 32:0 33:0 34:0 35:0 36:0 37:0 38:0 39:0 40:0 41:1 42:1 43:2 44:0 45:2 46:0 47:0 48:0 49:1 50:0 51:1 52:1 53:0 54:0 55:1 56:0 57:0 58:2 59:1 60:1 61:0 62:0 63:0 64:0 65:7 66:2 67:0 68:0 69:2 70:1 71:0 72:0 73:2 74:0 75:1 76:0 77:5 78:3 79:0 80:1 81:0 82:0 83:0 84:0 85:0 86:0 87:0 88:0 89:0 90:1 91:2 92:0 93:0 94:0 95:1 96:1 97:0 98:1 99:0 100:0 101:0 102:0 103:0 104:0 105:0 106:0 107:0 108:0 109:0 110:0 111:0 112:0 113:1 114:1 115:0 116:0 117:1 118:0 119:0 120:0 121:0 122:0 123:0 124:1 125:3 126:0 127:1 128:0 129:0 130:1 131:1 132:0 133:0 134:1 135:0 136:0 137:0 138:0 139:0 140:1 141:1 142:0 143:0 144:1 145:0 146:0 147:0 
0 1048576 0 0 1:125.6128 2:73.312 3:200 4:255 5:0 6:0 7:5 8:0 9:0 10:1 11:0 12:0 13:1 14:1 15:0 16:0 17:1 18:7 19:1 20:2 21:2 22:0 23:0 24:1 25:0 26:0 27:1 28:0 29:0 30:2 31:4 32:0 33:0 34:1 35:0 36:0 37:1 38:0 39:0 40:11 41:0 42:0 43:2 44:0 45:3 46:3 47:0 48:2 49:0 50:0 51:1 52:6 53:1 54:0 55:4 56:0 57:0 58:1 59:0 60:0 61:0 62:1 63:0 64:2 65:6 66:2 67:0 68:4 69:0 70:1 71:0 72:0 73:1 74:0 75:0 76:0 77:0 78:1 79:0 80:2 81:0 82:0 83:0 84:0 85:1 86:0 87:0 88:3 89:1 90:3 91:0 92:1 93:0 94:0 95:0 96:0 97:0 98:1 99:0 100:0 101:2 102:2 103:1 104:0 105:1 106:0 107:0 108:0 109:0 110:0 111:0 112:0 113:3 114:0 115:1 116:0 117:0 118:0 119:0 120:0 121:0 122:0 123:0 124:0 125:0 126:0 127:1 128:0 129:0 130:0 131:1 132:0 133:0 134:0 135:0 136:0 137:0 138:0 139:0 140:1 141:0 142:0 143:2 144:0 145:0 146:0 147:0 
0 0 94.03531674801403 0 1:125.1344 2:73.0416 3:200 4:255 5:0 6:1 7:0 8:3 9:2 10:0 11:2 12:1 13:0 14:1 15:0 16:0 17:0 18:0 19:0 20:0 21:3 22:2 23:1 24:0 25:0 26:0 27:0 28:0 29:19 30:0 31:2 32:0 33:0 34:1 35:0 36:0 37:0 38:0 39:0 40:0 41:0 42:2 43:0 44:3 45:1 46:2 47:0 48:1 49:0 50:0 51:2 52:4 53:0 54:0 55:1 56:2 57:0 58:0 59:0 60:0 61:2 62:0 63:1 64:1 65:1 66:1 67:0 68:0 69:0 70:0 71:0 72:0 73:1 74:1 75:0 76:2 77:0 78:0 79:0 80:0 81:0 82:0 83:0 84:0 85:1 86:0 87:0 88:3 89:4 90:0 91:0 92:0 93:2 94:0 95:0 96:0 97:0 98:0 99:0 100:0 101:1 102:1 103:1 104:2 105:2 106:0 107:0 108:0 109:0 110:0 111:0 112:2 113:1 114:0 115:0 116:0 117:2 118:2 119:0 120:0 121:1 122:0 123:0 124:0 125:1 126:2 127:0 128:0 129:0 130:1 131:0 132:1 133:1 134:0 135:0 136:1 137:0 138:0 139:0 140:0 141:0 142:1 143:0 144:0 145:0 146:0 147:1 
0 27168.69945621011 164.9170788640147 0 1:123.48 2:72.0944 3:200 4:255 5:4 6:0 7:3 8:1 9:0 10:0 11:3 12:0 13:0 14:1 15:0 16:0 17:0 18:0 19:0 20:0 21:0 22:0 23:0 24:0 25:0 26:0 27:0 28:3 29:0 30:2 31:7 32:4 33:4 34:0 35:0 36:2 37:0 38:0 39:1 40:3 41:0 42:0 43:1 44:0 45:0 46:0 47:1 48:0 49:0 50:2 51:0 52:0 53:2 54:4 55:0 56:1 57:0 58:0 59:0 60:0 61:0 62:1 63:1 64:1 65:2 66:0 67:2 68:0 69:0 70:1 71:0 72:0 73:1 74:0 75:0 76:6 77:1 78:0 79:0 80:3 81:0 82:1 83:1 84:0 85:0 86:0 87:1 88:2 89:0 90:1 91:0 92:1 93:1 94:0 95:0 96:1 97:0 98:0 99:0 100:0 101:0 102:0 103:1 104:0 105:1 106:1 107:0 108:0 109:0 110:0 111:0 112:0 113:0 114:0 115:2 116:1 117:0 118:0 119:2 120:1 121:0 122:0 123:1 124:0 125:0 126:0 127:0 128:1 129:0 130:0 131:2 132:0 133:0 134:1 135:2 136:0 137:0 138:1 139:0 140:0 141:0 142:0 143:0 144:1 145:0 146:1 147:0 
0 0 0.687332678663208 0 1:129.8224 2:76.8752 3:200 4:255 5:0 6:14 7:2 8:1 9:0 10:1 11:8 12:2 13:0 14:0 15:0 16:0 17:6 18:1 19:0 20:3 21:0 22:7 23:0 24:4 25:1 26:1 27:0 28:0 29:0 30:0 31:0 32:1 33:0 34:0 35:0 36:1 37:0 38:5 39:4 40:1 41:3 42:0 43:3 44:0 45:0 46:2 47:0 48:1 49:0 50:0 51:0 52:2 53:5 54:0 55:3 56:0 57:3 58:0 59:1 60:0 61:1 62:0 63:0 64:7 65:2 66:3 67:1 68:2 69:0 70:1 71:1 72:0 73:0 74:0 75:2 76:0 77:0 78:6 79:0 80:1 81:0 82:0 83:0 84:1 85:2 86:0 87:0 88:4 89:0 90:0 91:0 92:0 93:0 94:0 95:0 96:0 97:1 98:0 99:1 100:2 101:1 102:0 103:0 104:0 105:0 106:1 107:0 108:1 109:1 110:1 111:0 112:3 113:1 114:0 115:0 116:1 117:2 118:0 119:0 120:0 121:0 122:2 123:0 124:0 125:2 126:0 127:0 128:1 129:2 130:0 131:0 132:0 133:0 134:0 135:0 136:1 137:0 138:1 139:0 140:0 141:0 142:0 143:1 144:1 145:0 146:0 147:0 
709785.9366390251 0 130.4173234511972 0 1:130.7328 2:77.0464 3:200 4:255 5:13 6:2 7:6 8:0 9:1 10:1 11:1 12:0 13:0 14:0 15:0 16:0 17:19 18:4 19:5 20:2 21:0 22:3 23:0 24:0 25:1 26:0 27:0 28:12 29:0 30:0 31:0 32:0 33:3 34:0 35:0 36:1 37:0 38:0 39:0 40:0 41:10 42:0 43:4 44:0 45:0 46:0 47:0 48:0 49:0 50:0 51:0 52:0 53:0 54:6 55:0 56:1 57:0 58:2 59:0 60:0 61:0 62:1 63:0 64:0 65:0 66:0 67:1 68:0 69:0 70:0 71:2 72:0 73:1 74:0 75:0 76:1 77:0 78:0 79:1 80:0 81:0 82:0 83:0 84:0 85:2 86:2 87:0 88:0 89:0 90:1 91:0 92:0 93:1 94:0 95:0 96:0 97:0 98:0 99:1 100:0 101:4 102:0 103:2 104:2 105:0 106:0 107:0 108:0 109:0 110:0 111:0 112:3 113:2 114:4 115:0 116:1 117:0 118:0 119:0 120:0 121:0 122:0 123:0 124:0 125:0 126:0 127:0 128:0 129:0 130:0 131:1 132:0 133:0 134:0 135:0 136:0 137:0 138:0 139:0 140:0 141:1 142:2 143:0 144:0 145:0 146:0 147:0 
0 398147.3735324193 0 0 1:129.248 2:76.0752 3:200 4:255 5:2 6:14 7:5 8:1 9:3 10:0 11:0 12:0 13:5 14:0 15:0 16:0 17:20 18:0 19:0 20:3 21:0 22:0 23:2 24:0 25:2 26:0 27:1 28:28 29:2 30:0 31:0 32:2 33:0 34:0 35:5 36:1 37:1 38:1 39:1 40:1 41:0 42:0 43:0 44:0 45:6 46:3 47:0 48:0 49:1 50:2 51:0 52:2 53:0 54:0 55:0 56:0 57:0 58:1 59:0 60:1 61:0 62:0 63:0 64:0 65:1 66:0 67:0 68:2 69:0 70:0 71:0 72:1 73:0 74:0 75:1 76:2 77:0 78:0 79:3 80:2 81:0 82:0 83:0 84:0 85:0 86:0 87:0 88:0 89:0 90:0 91:7 92:1 93:1 94:0 95:2 96:0 97:1 98:1 99:0 100:0 101:0 102:0 103:0 104:1 105:2 106:3 107:0 108:0 109:0 110:2 111:1 112:3 113:0 114:0 115:0 116:0 117:0 118:0 119:0 120:0 121:1 122:1 123:1 124:4 125:3 126:0 127:0 128:0 129:0 130:0 131:1 132:0 133:0 134:1 135:0 136:0 137:0 138:0 139:1 140:1 141:0 142:1 143:0 144:0 145:0 146:1 147:0 
0 0 22.95072760689869 0 1:125.4832 2:73.448 3:200 4:255 5:27 6:7 7:2 8:0 9:0 10:4 11:0 12:1 13:0 14:0 15:0 16:24 17:16 18:0 19:0 20:4 21:0 22:0 23:0 24:0 25:0 26:0 27:1 28:12 29:0 30:0 31:0 32:0 33:0 34:1 35:0 36:0 37:1 38:0 39:0 40:4 41:0 42:0 43:0 44:0 45:0 46:0 47:0 48:0 49:0 50:0 51:0 52:0 53:0 54:0 55:0 56:4 57:2 58:0 59:0 60:0 61:0 62:0 63:0 64:0 65:1 66:0 67:1 68:1 69:0 70:0 71:1 72:0 73:0 74:0 75:0 76:2 77:0 78:0 79:2 80:3 81:2 82:1 83:0 84:0 85:0 86:0 87:0 88:0 89:0 90:1 91:0 92:1 93:0 94:3 95:1 96:0 97:0 98:0 99:1 100:0 101:2 102:0 103:0 104:0 105:0 106:2 107:0 108:0 109:1 110:1 111:1 112:0 113:0 114:0 115:2 116:0 117:0 118:1 119:2 120:0 121:1 122:0 123:0 124:2 125:0 126:0 127:2 128:1 129:0 130:0 131:1 132:0 133:1 134:0 135:1 136:0 137:0 138:0 139:0 140:0 141:0 142:0 143:1 144:0 145:0 146:0 147:0 
0 536700.7525360299 47.5862752877236 0 1:129.3744 2:76.1664 3:200 4:255 5:0 6:7 7:1 8:0 9:0 10:1 11:2 12:1 13:0 14:2 15:0 16:0 17:0 18:0 19:0 20:6 21:4 22:0 23:0 24:0 25:0 26:2 27:0 28:0 29:0 30:1 31:0 32:2 33:2 34:0 35:2 36:1 37:0 38:0 39:0 40:0 41:0 42:4 43:3 44:0 45:0 46:1 47:0 48:0 49:2 50:0 51:2 52:0 53:0 54:3 55:0 56:0 57:0 58:0 59:0 60:0 61:0 62:0 63:1 64:0 65:6 66:4 67:0 68:2 69:0 70:0 71:0 72:1 73:1 74:0 75:2 76:0 77:3 78:1 79:0 80:0 81:0 82:1 83:0 84:0 85:1 86:0 87:0 88:4 89:1 90:0 91:2 92:0 93:0 94:0 95:0 96:0 97:0 98:0 99:0 100:2 101:5 102:1 103:0 104:2 105:0 106:1 107:0 108:0 109:1 110:1 111:0 112:1 113:2 114:0 115:0 116:0 117:0 118:0 119:0 120:0 121:1 122:0 123:0 124:1 125:0 126:0 127:0 128:0 129:0 130:0 131:0 132:1 133:1 134:0 135:0 136:1 137:1 138:0 139:0 140:0 141:0 142:1 143:0 144:0 145:0 146:0 147:0 
0 159426.4895668736 109.3172406918597 0 1:125.392 2:73.496 3:200 4:255 5:14 6:0 7:3 8:2 9:2 10:2 11:0 12:0 13:0 14:0 15:0 16:0 17:0 18:2 19:7 20:0 21:2 22:0 23:0 24:1 25:0 26:0 27:0 28:10 29:0 30:3 31:3 32:1 33:2 34:0 35:1 36:0 37:0 38:0 39:0 40:0 41:1 42:2 43:2 44:0 45:3 46:0 47:1 48:0 49:0 50:0 51:0 52:0 53:1 54:2 55:0 56:0 57:0 58:3 59:0 60:1 61:0 62:1 63:0 64:0 65:0 66:0 67:1 68:0 69:0 70:2 71:0 72:3 73:0 74:1 75:0 76:1 77:0 78:0 79:0 80:0 81:0 82:3 83:0 84:0 85:0 86:0 87:0 88:1 89:1 90:2 91:2 92:0 93:0 94:2 95:0 96:0 97:0 98:1 99:1 100:0 101:0 102:0 103:0 104:0 105:1 106:0 107:2 108:0 109:0 110:0 111:0 112:0 113:0 114:0 115:2 116:1 117:0 118:0 119:0 120:0 121:0 122:0 123:0 124:2 125:0 126:0 127:0 128:1 129:0 130:0 131:0 132:1 133:1 134:1 135:0 136:0 137:1 138:1 139:0 140:1 141:0 142:1 143:0 144:0 145:0 146:0 147:0 
0 497645.3746355228 46.40655113007512 0 1:124.1056 2:72.1104 3:200 4:255 5:26 6:0 7:2 8:0 9:0 10:0 11:0 12:2 13:0 14:0 15:0 16:1 17:0 18:0 19:5 20:2 21:1 22:3 23:0 24:0 25:0 26:1 27:0 28:2 29:0 30:0 31:1 32:0 33:0 34:4 35:1 36:0 37:0 38:0 39:0 40:1 41:4 42:0 43:0 44:0 45:4 46:2 47:0 48:2 49:0 50:0 51:0 52:0 53:0 54:2 55:0 56:1 57:3 58:1 59:0 60:0 61:2 62:2 63:0 64:5 65:6 66:1 67:0 68:0 69:0 70:0 71:2 72:0 73:3 74:1 75:0 76:0 77:3 78:1 79:4 80:0 81:0 82:0 83:0 84:2 85:0 86:0 87:1 88:0 89:2 90:0 91:1 92:4 93:0 94:0 95:0 96:0 97:0 98:0 99:2 100:3 101:0 102:1 103:0 104:0 105:0 106:0 107:3 108:0 109:0 110:0 111:0 112:1 113:0 114:0 115:2 116:0 117:0 118:0 119:0 120:2 121:1 122:1 123:1 124:2 125:0 126:0 127:1 128:0 129:1 130:0 131:0 132:0 133:1 134:1 135:1 136:1 137:1 138:0 139:1 140:0 141:2 142:0 143:0 144:0 145:0 146:0 147:0 
0 250507.0533502684 43.5509092251888 0 1:129.4896 2:76.1888 3:200 4:255 5:7 6:17 7:0 8:1 9:0 10:0 11:0 12:3 13:0 14:0 15:1 16:0 17:18 18:0 19:2 20:1 21:0 22:2 23:0 24:1 25:0 26:0 27:0 28:27 29:5 30:0 31:0 32:4 33:0 34:6 35:2 36:0 37:0 38:0 39:0 40:3 41:0 42:5 43:0 44:5 45:3 46:0 47:0 48:0 49:0 50:0 51:1 52:3 53:0 54:0 55:0 56:0 57:4 58:0 59:0 60:0 61:0 62:0 63:2 64:0 65:1 66:0 67:0 68:1 69:0 70:1 71:2 72:0 73:0 74:2 75:0 76:0 77:0 78:0 79:0 80:1 81:0 82:0 83:0 84:1 85:1 86:2 87:0 88:3 89:2 90:5 91:2 92:0 93:0 94:0 95:0 96:0 97:0 98:0 99:1 100:0 101:0 102:2 103:4 104:2 105:1 106:0 107:0 108:0 109:2 110:0 111:0 112:0 113:0 114:2 115:1 116:3 117:1 118:0 119:0 120:1 121:1 122:0 123:0 124:3 125:0 126:0 127:0 128:0 129:0 130:1 131:1 132:1 133:0 134:0 135:0 136:3 137:0 138:0 139:0 140:0 141:0 142:1 143:0 144:0 145:2 146:0 147:1 
0 0 154.4014129479549 0 1:123.6848 2:71.7808 3:200 4:255 5:27 6:5 7:0 8:3 9:0 10:1 11:0 12:0 13:1 14:0 15:0 16:0 17:1 18:5 19:0 20:3 21:2 22:2 23:1 24:0 25:0 26:0 27:0 28:3 29:0 30:0 31:0 32:2 33:2 34:0 35:0 36:1 37:0 38:0 39:0 40:1 41:0 42:0 43:0 44:2 45:2 46:0 47:0 48:1 49:2 50:0 51:0 52:4 53:6 54:1 55:0 56:4 57:0 58:0 59:0 60:0 61:0 62:0 63:0 64:0 65:3 66:1 67:3 68:3 69:0 70:0 71:0 72:0 73:1 74:1 75:0 76:0 77:0 78:0 79:0 80:4 81:1 82:1 83:2 84:0 85:1 86:2 87:0 88:0 89:2 90:0 91:0 92:1 93:1 94:0 95:2 96:2 97:0 98:1 99:0 100:2 101:0 102:1 103:0 104:0 105:0 106:0 107:1 108:2 109:1 110:0 111:2 112:0 113:0 114:0 115:0 116:0 117:1 118:0 119:0 120:0 121:1 122:0 123:0 124:0 125:2 126:0 127:0 128:1 129:0 130:0 131:0 132:0 133:1 134:0 135:0 136:1 137:0 138:0 139:0 140:0 141:1 142:0 143:1 144:0 145:0 146:0 147:0 
0 484525.27402867 85.03233354823148 0 1:128.8672 2:76.0992 3:200 4:255 5:0 6:0 7:2 8:2 9:1 10:0 11:3 12:4 13:0 14:0 15:0 16:14 17:7 18:9 19:0 20:0 21:0 22:0 23:2 24:1 25:0 26:4 27:0 28:0 29:0 30:0 31:0 32:4 33:1 34:0 35:1 36:1 37:0 38:1 39:3 40:7 41:0 42:0 43:1 44:0 45:0 46:0 47:0 48:2 49:1 50:0 51:0 52:5 53:6 54:4 55:0 56:0 57:3 58:0 59:0 60:0 61:3 62:0 63:0 64:3 65:0 66:0 67:0 68:0 69:0 70:0 71:3 72:1 73:0 74:0 75:1 76:0 77:0 78:1 79:1 80:0 81:2 82:0 83:0 84:0 85:0 86:0 87:1 88:0 89:1 90:0 91:0 92:1 93:2 94:0 95:0 96:0 97:0 98:0 99:0 100:0 101:0 102:3 103:1 104:0 105:0 106:1 107:0 108:0 109:0 110:0 111:0 112:0 113:0 114:0 115:0 116:1 117:0 118:0 119:1 120:0 121:0 122:0 123:0 124:0 125:1 126:0 127:2 128:1 129:0 130:0 131:0 132:0 133:0 134:0 135:1 136:0 137:0 138:0 139:0 140:0 141:2 142:0 143:1 144:0 145:1 146:0 147:0 
0 0 162.5438786070154 0 1:126.7024 2:74.08 3:200 4:255 5:26 6:1 7:3 8:2 9:0 10:3 11:0 12:0 13:1 14:0 15:1 16:0 17:0 18:2 19:0 20:3 21:5 22:0 23:3 24:0 25:2 26:0 27:0 28:0 29:0 30:0 31:0 32:0 33:1 34:2 35:2 36:1 37:0 38:1 39:0 40:0 41:0 42:0 43:3 44:0 45:0 46:1 47:1 48:1 49:0 50:1 51:0 52:0 53:1 54:0 55:0 56:0 57:0 58:0 59:0 60:2 61:0 62:0 63:0 64:4 65:0 66:5 67:0 68:0 69:0 70:0 71:2 72:1 73:0 74:0 75:0 76:4 77:1 78:1 79:4 80:0 81:1 82:0 83:0 84:2 85:0 86:0 87:0 88:0 89:3 90:1 91:0 92:2 93:0 94:0 95:0 96:0 97:0 98:1 99:1 100:0 101:0 102:0 103:0 104:0 105:1 106:0 107:0 108:1 109:0 110:0 111:1 112:1 113:0 114:0 115:0 116:0 117:0 118:0 119:0 120:0 121:0 122:1 123:0 124:1 125:0 126:1 127:0 128:0 129:0 130:1 131:0 132:0 133:0 134:0 135:0 136:1 137:0 138:1 139:0 140:0 141:0 142:0 143:0 144:0 145:1 146:0 147:1 
0 663210.2622492309 184.8501765570579 0 1:123.6144 2:72.1408 3:200 4:255 5:3 6:0 7:0 8:3 9:0 10:0 11:0 12:3 13:0 14:0 15:0 16:3 17:0 18:2 19:0 20:1 21:1 22:0 23:0 24:0 25:1 26:0 27:0 28:4 29:0 30:0 31:5 32:0 33:2 34:1 35:0 36:0 37:2 38:0 39:1 40:5 41:0 42:4 43:0 44:1 45:0 46:0 47:0 48:0 49:0 50:0 51:1 52:0 53:5 54:5 55:2 56:0 57:0 58:0 59:0 60:0 61:0 62:1 63:0 64:6 65:1 66:0 67:0 68:0 69:0 70:0 71:1 72:0 73:0 74:1 75:0 76:0 77:0 78:2 79:0 80:0 81:4 82:0 83:0 84:0 85:2 86:0 87:0 88:0 89:0 90:0 91:3 92:0 93:0 94:2 95:0 96:1 97:0 98:0 99:1 100:0 101:0 102:2 103:0 104:1 105:0 106:0 107:0 108:0 109:0 110:0 111:0 112:1 113:1 114:3 115:0 116:0 117:0 118:2 119:0 120:0 121:0 122:0 123:0 124:0 125:3 126:2 127:0 128:0 129:0 130:2 131:0 132:0 133:0 134:1 135:1 136:0 137:2 138:0 139:1 140:0 141:1 142:1 143:1 144:0 145:0 146:2 147:0 
0 725166.695853544 172.9316890819499 0 1:125.2992 2:73.44 3:200 4:255 5:4 6:5 7:0 8:0 9:1 10:0 11:0 12:1 13:3 14:0 15:1 16:0 17:0 18:8 19:7 20:0 21:0 22:0 23:0 24:0 25:0 26:0 27:0 28:2 29:2 30:2 31:1 32:8 33:2 34:0 35:1 36:2 37:0 38:1 39:2 40:0 41:4 42:0 43:0 44:0 45:0 46:2 47:1 48:1 49:1 50:0 51:0 52:0 53:2 54:1 55:3 56:0 57:0 58:0 59:0 60:0 61:0 62:0 63:1 64:2 65:0 66:0 67:0 68:0 69:1 70:0 71:0 72:0 73:0 74:2 75:0 76:6 77:0 78:5 79:1 80:0 81:1 82:0 83:0 84:0 85:2 86:0 87:0 88:3 89:0 90:0 91:0 92:0 93:0 94:1 95:4 96:0 97:2 98:2 99:0 100:2 101:0 102:4 103:2 104:3 105:0 106:0 107:0 108:2 109:0 110:1 111:1 112:0 113:0 114:1 115:0 116:0 117:1 118:0 119:2 120:1 121:0 122:0 123:1 124:0 125:0 126:0 127:0 128:0 129:0 130:0 131:0 132:1 133:0 134:0 135:1 136:1 137:0 138:0 139:0 140:1 141:0 142:0 143:1 144:0 145:0 146:0 147:0 
0 0 54.54032203696099 0 1:128.9392 2:75.6112 3:200 4:255 5:26 6:0 7:4 8:0 9:0 10:0 11:0 12:0 13:0 14:0 15:0 16:0 17:0 18:8 19:0 20:0 21:1 22:3 23:2 24:0 25:0 26:0 27:0 28:0 29:10 30:9 31:5 32:7 33:0 34:0 35:0 36:0 37:2 38:1 39:0 40:0 41:6 42:0 43:1 44:2 45:1 46:0 47:0 48:2 49:0 50:0 51:0 52:4 53:0 54:0 55:1 56:0 57:3 58:1 59:0 60:1 61:1 62:0 63:0 64:0 65:0 66:3 67:2 68:0 69:0 70:4 71:2 72:0 73:0 74:0 75:1 76:0 77:1 78:2 79:0 80:2 81:0 82:0 83:1 84:0 85:0 86:0 87:0 88:0 89:1 90:1 91:0 92:1 93:3 94:0 95:0 96:0 97:0 98:0 99:0 100:0 101:1 102:0 103:0 104:0 105:0 106:1 107:0 108:1 109:0 110:0 111:0 112:0 113:0 114:2 115:1 116:0 117:0 118:0 119:1 120:0 121:0 122:0 123:0 124:0 125:0 126:0 127:3 128:0 129:1 130:0 131:0 132:0 133:0 134:0 135:0 136:0 137:0 138:1 139:2 140:0 141:0 142:0 143:0 144:1 145:0 146:0 147:0 
0 1048576 34.61468618500344 0 1:131.5008 2:77.8704 3:200 4:255 5:15 6:0 7:0 8:0 9:0 10:2 11:4 12:0 13:1 14:0 15:1 16:41 17:0 18:0 19:1 20:0 21:1 22:0 23:0 24:1 25:1 26:0 27:0 28:0 29:6 30:1 31:1 32:0 33:0 34:4 35:0 36:0 37:0 38:0 39:0 40:3 41:2 42:3 43:4 44:1 45:0 46:4 47:0 48:0 49:1 50:0 51:0 52:3 53:2 54:0 55:0 56:0 57:2 58:0 59:0 60:1 61:0 62:0 63:0 64:0 65:0 66:0 67:0 68:2 69:0 70:0 71:0 72:0 73:0 74:0 75:0 76:1 77:0 78:2 79:0 80:2 81:0 82:0 83:3 84:0 85:0 86:0 87:0 88:0 89:5 90:0 91:0 92:0 93:0 94:0 95:1 96:1 97:0 98:2 99:1 100:3 101:0 102:1 103:1 104:0 105:0 106:0 107:0 108:2 109:0 110:1 111:1 112:0 113:0 114:1 115:1 116:4 117:0 118:0 119:0 120:1 121:1 122:0 123:0 124:2 125:0 126:0 127:0 128:2 129:1 130:1 131:0 132:0 133:0 134:0 135:0 136:1 137:0 138:0 139:2 140:0 141:0 142:1 143:0 144:1 145:0 146:0 147:0 
0 786105.8401350566 72.89380866015742 0 1:128.5296 2:75.8352 3:200 4:255 5:30 6:0 7:1 8:1 9:3 10:0 11:0 12:1 13:0 14:2 15:0 16:0 17:5 18:5 19:0 20:0 21:3 22:0 23:2 24:1 25:1 26:0 27:1 28:0 29:0 30:0 31:9 32:3 33:0 34:0 35:0 36:0 37:0 38:0 39:0 40:6 41:2 42:0 43:0 44:7 45:1 46:1 47:0 48:0 49:0 50:0 51:0 52:0 53:4 54:3 55:0 56:0 57:2 58:0 59:0 60:1 61:1 62:1 63:1 64:2 65:0 66:9 67:6 68:0 69:4 70:3 71:0 72:0 73:2 74:0 75:0 76:3 77:0 78:1 79:3 80:0 81:0 82:3 83:1 84:0 85:0 86:0 87:0 88:3 89:1 90:0 91:2 92:0 93:0 94:0 95:0 96:0 97:0 98:0 99:0 100:2 101:0 102:0 103:0 104:1 105:1 106:0 107:1 108:0 109:0 110:1 111:0 112:1 113:0 114:0 115:0 116:0 117:0 118:0 119:1 120:0 121:0 122:0 123:0 124:0 125:0 126:4 127:0 128:0 129:0 130:0 131:1 132:0 133:0 134:0 135:0 136:0 137:0 138:1 139:1 140:0 141:1 142:0 143:0 144:1 145:0 146:1 147:0 
0 0 14.48457159161236 0 1:129.6 2:76.7168 3:200 4:255 5:4 6:7 7:0 8:0 9:1 10:0 11:0 12:7 13:0 14:0 15:1 16:0 17:3 18:2 19:4 20:3 21:0 22:0 23:2 24:0 25:1 26:0 27:0 28:0 29:7 30:0 31:0 32:0 33:0 34:2 35:0 36:0 37:2 38:1 39:0 40:0 41:0 42:4 43:4 44:3 45:2 46:0 47:0 48:0 49:0 50:4 51:3 52:0 53:0 54:0 55:0 56:0 57:1 58:0 59:0 60:1 61:2 62:0 63:0 64:0 65:0 66:1 67:2 68:3 69:1 70:1 71:0 72:0 73:2 74:0 75:0 76:3 77:0 78:0 79:4 80:0 81:3 82:1 83:1 84:1 85:0 86:3 87:1 88:2 89:0 90:0 91:1 92:2 93:0 94:0 95:2 96:1 97:1 98:1 99:0 100:0 101:0 102:0 103:3 104:1 105:0 106:0 107:1 108:1 109:1 110:2 111:0 112:1 113:0 114:0 115:2 116:0 117:0 118:2 119:1 120:0 121:0 122:2 123:0 124:0 125:0 126:1 127:1 128:0 129:0 130:1 131:1 132:0 133:0 134:0 135:0 136:0 137:0 138:1 139:1 140:0 141:0 142:0 143:0 144:0 145:0 146:0 147:0 
0 0 6.948870187722555 0 1:124.6864 2:72.8192 3:200 4:255 5:0 6:5 7:2 8:0 9:1 10:0 11:2 12:1 13:1 14:0 15:0 16:1 17:8 18:0 19:0 20:0 21:0 22:0 23:2 24:0 25:1 26:0 27:0 28:0 29:7 30:0 31:0 32:0 33:2 34:0 35:2 36:0 37:0 38:0 39:0 40:0 41:0 42:0 43:2 44:2 45:0 46:0 47:1 48:0 49:0 50:0 51:0 52:0 53:0 54:0 55:4 56:0 57:3 58:2 59:0 60:1 61:0 62:1 63:0 64:0 65:1 66:0 67:0 68:1 69:0 70:0 71:0 72:0 73:0 74:1 75:0 76:7 77:1 78:3 79:0 80:0 81:0 82:0 83:0 84:1 85:0 86:0 87:0 88:5 89:1 90:1 91:4 92:1 93:0 94:1 95:0 96:0 97:0 98:0 99:1 100:0 101:0 102:2 103:1 104:1 105:1 106:0 107:0 108:0 109:1 110:0 111:0 112:0 113:0 114:0 115:0 116:1 117:0 118:0 119:0 120:0 121:2 122:1 123:0 124:0 125:1 126:1 127:0 128:1 129:0 130:0 131:0 132:0 133:0 134:2 135:0 136:0 137:1 138:1 139:0 140:0 141:0 142:1 143:0 144:0 145:0 146:0 147:0 
0 0 56.38713464926028 0 1:127.9568 2:75.1552 3:200 4:255 5:22 6:0 7:0 8:0 9:4 10:2 11:1 12:0 13:0 14:0 15:0 16:0 17:0 18:4 19:5 20:0 21:3 22:1 23:1 24:1 25:0 26:0 27:0 28:4 29:0 30:0 31:6 32:6 33:0 34:0 35:0 36:0 37:1 38:0 39:1 40:3 41:0 42:0 43:0 44:2 45:3 46:0 47:0 48:0 49:0 50:1 51:1 52:3 53:0 54:0 55:4 56:0 57:3 58:4 59:1 60:0 61:1 62:1 63:0 64:0 65:0 66:0 67:2 68:0 69:0 70:3 71:0 72:0 73:1 74:0 75:0 76:0 77:0 78:0 79:0 80:0 81:1 82:0 83:0 84:0 85:0 86:0 87:0 88:0 89:0 90:0 91:0 92:0 93:0 94:0 95:0 96:1 97:1 98:1 99:0 100:0 101:1 102:1 103:0 104:0 105:0 106:1 107:0 108:1 109:1 110:0 111:0 112:0 113:0 114:0 115:0 116:0 117:0 118:0 119:0 120:1 121:0 122:0 123:0 124:0 125:0 126:0 127:0 128:0 129:0 130:1 131:1 132:0 133:0 134:0 135:0 136:0 137:0 138:0 139:0 140:0 141:0 142:0 143:0 144:1 145:1 146:0 147:0 
0 5746.103209038805 34.52522331650744 0 1:125.3504 2:73.2656 3:200 4:255 5:5 6:0 7:5 8:0 9:0 10:1 11:0 12:0 13:0 14:0 15:0 16:0 17:9 18:1 19:0 20:2 21:0 22:0 23:1 24:0 25:1 26:0 27:0 28:0 29:0 30:4 31:0 32:0 33:2 34:1 35:0 36:2 37:0 38:0 39:1 40:0 41:0 42:0 43:1 44:2 45:0 46:0 47:0 48:0 49:1 50:0 51:1 52:0 53:0 54:3 55:0 56:0 57:0 58:0 59:2 60:0 61:0 62:0 63:0 64:6 65:0 66:0 67:0 68:1 69:0 70:0 71:2 72:0 73:1 74:0 75:0 76:0 77:1 78:2 79:0 80:2 81:2 82:0 83:0 84:0 85:1 86:0 87:1 88:0 89:2 90:1 91:1 92:0 93:0 94:0 95:1 96:0 97:0 98:0 99:0 100:0 101:1 102:1 103:2 104:0 105:0 106:0 107:0 108:1 109:0 110:1 111:0 112:0 113:2 114:1 115:0 116:1 117:1 118:1 119:0 120:0 121:0 122:1 123:1 124:1 125:0 126:2 127:0 128:1 129:0 130:0 131:1 132:0 133:0 134:0 135:0 136:0 137:0 138:1 139:1 140:0 141:1 142:0 143:0 144:0 145:0 146:0 147:0 
0 0 99.43344273587694 0 1:129.744 2:76.56 3:200 4:255 5:0 6:1 7:5 8:0 9:0 10:1 11:0 12:2 13:0 14:0 15:0 16:0 17:1 18:5 19:0 20:3 21:1 22:0 23:1 24:0 25:0 26:4 27:0 28:0 29:0 30:0 31:1 32:1 33:1 34:0 35:0 36:1 37:0 38:0 39:0 40:0 41:2 42:5 43:1 44:0 45:0 46:0 47:0 48:0 49:0 50:0 51:0 52:0 53:0 54:7 55:0 56:0 57:0 58:1 59:0 60:0 61:2 62:0 63:0 64:0 65:3 66:0 67:0 68:0 69:0 70:1 71:0 72:2 73:0 74:0 75:0 76:4 77:1 78:0 79:0 80:0 81:0 82:0 83:0 84:0 85:0 86:0 87:0 88:2 89:0 90:0 91:0 92:1 93:0 94:0 95:1 96:1 97:0 98:0 99:0 100:0 101:0 102:0 103:2 104:1 105:1 106:0 107:0 108:0 109:1 110:0 111:1 112:0 113:0 114:1 115:0 116:0 117:1 118:0 119:1 120:0 121:0 122:0 123:0 124:0 125:0 126:0 127:2 128:1 129:0 130:0 131:0 132:0 133:1 134:1 135:1 136:0 137:0 138:2 139:0 140:0 141:0 142:0 143:0 144:0 145:0 146:1 147:0 
0 0 21.12604827268917 0 1:130.6704 2:77.1792 3:200 4:255 5:10 6:1 7:5 8:0 9:0 10:0 11:1 12:0 13:5 14:1 15:0 16:9 17:4 18:0 19:1 20:0 21:0 22:0 23:0 24:0 25:1 26:0 27:0 28:12 29:0 30:1 31:0 32:4 33:0 34:1 35:0 36:2 37:0 38:1 39:1 40:9 41:0 42:0 43:0 44:0 45:0 46:0 47:1 48:4 49:0 50:0 51:0 52:2 53:2 54:0 55:3 56:0 57:0 58:0 59:0 60:0 61:0 62:0 63:0 64:2 65:0 66:0 67:3 68:0 69:2 70:1 71:0 72:0 73:1 74:2 75:1 76:4 77:4 78:0 79:0 80:0 81:3 82:0 83:0 84:0 85:0 86:1 87:0 88:0 89:5 90:0 91:0 92:0 93:0 94:1 95:0 96:0 97:0 98:0 99:0 100:0 101:5 102:1 103:0 104:0 105:0 106:3 107:0 108:1 109:0 110:0 111:0 112:0 113:0 114:2 115:0 116:0 117:0 118:3 119:0 120:0 121:0 122:0 123:0 124:0 125:0 126:2 127:0 128:1 129:0 130:2 131:0 132:1 133:0 134:1 135:1 136:0 137:0 138:0 139:0 140:2 141:0 142:0 143:0 144:0 145:0 146:1 147:0 
0 0 21.63287516269301 0 1:130.9712 2:77.1024 3:200 4:255 5:0 6:0 7:0 8:2 9:0 10:0 11:1 12:0 13:0 14:0 15:0 16:0 17:0 18:0 19:0 20:0 21:0 22:2 23:0 24:0 25:0 26:1 27:1 28:4 29:2 30:5 31:0 32:0 33:0 34:2 35:0 36:2 37:0 38:0 39:1 40:13 41:3 42:0 43:0 44:0 45:0 46:0 47:1 48:0 49:1 50:0 51:0 52:0 53:3 54:5 55:0 56:0 57:2 58:0 59:1 60:0 61:0 62:1 63:0 64:0 65:0 66:0 67:0 68:1 69:0 70:2 71:1 72:0 73:1 74:0 75:0 76:1 77:0 78:1 79:0 80:0 81:0 82:1 83:0 84:0 85:0 86:1 87:1 88:1 89:0 90:3 91:0 92:0 93:2 94:0 95:2 96:0 97:0 98:0 99:0 100:2 101:0 102:1 103:0 104:2 105:0 106:0 107:0 108:0 109:1 110:0 111:0 112:0 113:0 114:0 115:1 116:1 117:0 118:0 119:1 120:0 121:0 122:0 123:0 124:0 125:0 126:1 127:1 128:0 129:1 130:0 131:1 132:1 133:0 134:0 135:0 136:0 137:0 138:1 139:1 140:0 141:0 142:0 143:0 144:0 145:0 146:1 147:0 
0 71549.89579787733 0 0 1:132.3328 2:78.592 3:200 4:255 5:0 6:0 7:0 8:0 9:3 10:0 11:1 12:0 13:0 14:0 15:0 16:0 17:0 18:6 19:2 20:0 21:0 22:0 23:0 24:0 25:1 26:0 27:0 28:0 29:5 30:4 31:1 32:3 33:0 34:2 35:0 36:0 37:0 38:0 39:4 40:0 41:2 42:0 43:6 44:0 45:0 46:0 47:1 48:3 49:1 50:0 51:0 52:0 53:1 54:5 55:1 56:5 57:2 58:0 59:0 60:1 61:1 62:0 63:0 64:0 65:1 66:0 67:0 68:1 69:0 70:2 71:0 72:0 73:1 74:1 75:0 76:0 77:0 78:0 79:0 80:1 81:0 82:0 83:2 84:1 85:0 86:0 87:0 88:2 89:1 90:0 91:1 92:1 93:0 94:0 95:0 96:0 97:0 98:0 99:0 100:0 101:0 102:1 103:2 104:0 105:1 106:1 107:0 108:0 109:1 110:1 111:0 112:1 113:2 114:0 115:1 116:1 117:1 118:0 119:0 120:0 121:0 122:0 123:0 124:0 125:0 126:0 127:1 128:1 129:1 130:0 131:0 132:0 133:0 134:0 135:1 136:0 137:0 138:0 139:0 140:1 141:1 142:0 143:1 144:0 145:0 146:0 147:1 
0 86915.71739547784 0 0 1:130.1744 2:76.6304 3:200 4:255 5:2 6:6 7:0 8:6 9:0 10:0 11:5 12:0 13:0 14:0 15:0 16:0 17:3 18:0 19:0 20:3 21:0 22:0 23:3 24:0 25:0 26:0 27:0 28:5 29:0 30:0 31:6 32:0 33:0 34:5 35:0 36:2 37:1 38:0 39:1 40:1 41:0 42:0 43:6 44:0 45:0 46:1 47:0 48:1 49:0 50:0 51:0 52:0 53:2 54:3 55:0 56:1 57:3 58:0 59:0 60:1 61:0 62:0 63:0 64:0 65:1 66:0 67:0 68:2 69:0 70:0 71:3 72:0 73:0 74:0 75:0 76:0 77:2 78:0 79:0 80:0 81:0 82:1 83:0 84:0 85:0 86:0 87:0 88:0 89:0 90:0 91:1 92:0 93:1 94:1 95:0 96:2 97:0 98:0 99:0 100:0 101:0 102:0 103:1 104:0 105:0 106:0 107:0 108:2 109:0 110:0 111:1 112:0 113:0 114:0 115:0 116:0 117:1 118:0 119:0 120:0 121:0 122:0 123:1 124:0 125:0 126:0 127:0 128:0 129:0 130:1 131:1 132:0 133:1 134:0 135:0 136:0 137:0 138:0 139:1 140:0 141:0 142:1 143:0 144:0 145:1 146:1 147:0 
0 37196.0163482049 0 0 1:130.2992 2:76.8576 3:200 4:255 5:0 6:3 7:11 8:3 9:0 10:0 11:0 12:0 13:0 14:0 15:0 16:0 17:0 18:2 19:0 20:2 21:2 22:1 23:1 24:0 25:2 26:0 27:0 28:0 29:0 30:0 31:1 32:0 33:1 34:2 35:0 36:1 37:0 38:1 39:1 40:0 41:0 42:8 43:0 44:0 45:1 46:1 47:0 48:0 49:1 50:0 51:0 52:0 53:5 54:7 55:0 56:0 57:0 58:0 59:0 60:0 61:0 62:0 63:0 64:0 65:3 66:0 67:0 68:1 69:0 70:0 71:0 72:2 73:1 74:0 75:0 76:0 77:0 78:0 79:5 80:1 81:0 82:0 83:0 84:0 85:1 86:1 87:0 88:1 89:1 90:1 91:0 92:0 93:1 94:2 95:0 96:0 97:0 98:0 99:0 100:0 101:0 102:0 103:0 104:0 105:0 106:2 107:0 108:0 109:0 110:0 111:1 112:0 113:0 114:0 115:0 116:0 117:0 118:0 119:1 120:1 121:1 122:0 123:0 124:0 125:0 126:1 127:1 128:1 129:1 130:0 131:2 132:0 133:0 134:0 135:0 136:0 137:1 138:1 139:1 140:0 141:0 142:0 143:1 144:0 145:1 146:1 147:0 
0 1048576 91.72176438697366 0 1:128.7744 2:75.7968 3:200 4:255 5:0 6:9 7:9 8:3 9:0 10:0 11:1 12:0 13:0 14:0 15:0 16:0 17:0 18:1 19:0 20:0 21:5 22:0 23:1 24:0 25:0 26:0 27:1 28:20 29:4 30:5 31:0 32:0 33:1 34:0 35:0 36:0 37:0 38:0 39:0 40:12 41:4 42:0 43:2 44:7 45:0 46:0 47:2 48:0 49:0 50:0 51:0 52:12 53:1 54:0 55:0 56:0 57:1 58:3 59:1 60:0 61:0 62:0 63:0 64:0 65:9 66:2 67:0 68:1 69:0 70:1 71:0 72:0 73:2 74:0 75:0 76:0 77:4 78:0 79:4 80:3 81:1 82:0 83:0 84:0 85:1 86:0 87:0 88:0 89:2 90:2 91:0 92:1 93:2 94:4 95:0 96:0 97:0 98:0 99:0 100:0 101:0 102:0 103:2 104:0 105:0 106:0 107:2 108:1 109:1 110:0 111:0 112:2 113:0 114:0 115:0 116:0 117:0 118:0 119:0 120:0 121:0 122:1 123:0 124:1 125:0 126:0 127:0 128:0 129:0 130:0 131:0 132:1 133:0 134:0 135:1 136:0 137:1 138:0 139:0 140:0 141:0 142:0 143:1 144:0 145:0 146:0 147:0 
0 0 38.48874311705882 0 1:123.0096 2:71.048 3:200 4:255 5:0 6:5 7:0 8:0 9:3 10:2 11:0 12:0 13:0 14:0 15:1 16:0 17:0 18:5 19:0 20:2 21:0 22:2 23:0 24:2 25:1 26:0 27:0 28:16 29:0 30:0 31:0 32:1 33:0 34:0 35:0 36:0 37:0 38:0 39:1 40:6 41:0 42:0 43:4 44:0 45:0 46:1 47:0 48:1 49:0 50:0 51:0 52:11 53:0 54:0 55:0 56:0 57:0 58:0 59:0 60:1 61:0 62:0 63:0 64:0 65:5 66:0 67:0 68:0 69:0 70:0 71:0 72:0 73:0 74:0 75:0 76:0 77:0 78:0 79:1 80:3 81:0 82:0 83:0 84:0 85:1 86:0 87:0 88:3 89:4 90:2 91:0 92:0 93:0 94:2 95:0 96:0 97:1 98:0 99:0 100:0 101:1 102:6 103:0 104:0 105:1 106:0 107:4 108:0 109:0 110:1 111:0 112:0 113:0 114:0 115:4 116:0 117:1 118:0 119:0 120:0 121:0 122:1 123:0 124:0 125:0 126:0 127:0 128:1 129:0 130:2 131:2 132:0 133:0 134:1 135:0 136:0 137:1 138:0 139:0 140:0 141:0 142:0 143:0 144:0 145:0 146:1 147:0 
8288.037826664537 0 0 0 1:118.16 2:69.856 3:200 4:255 5:2 6:2 7:2 8:0 9:0 10:2 11:0 12:2 13:0 14:0 15:0 16:6 17:0 18:0 19:2 20:2 21:0 22:1 23:0 24:0 25:0 26:0 27:0 28:11 29:8 30:0 31:0 32:1 33:0 34:1 35:0 36:0 37:0 38:0 39:1 40:0 41:5 42:2 43:0 44:0 45:0 46:0 47:0 48:0 49:1 50:0 51:0 52:1 53:0 54:1 55:1 56:1 57:1 58:0 59:1 60:0 61:0 62:0 63:0 64:0 65:0 66:0 67:3 68:0 69:1 70:0 71:0 72:1 73:2 74:1 75:0 76:2 77:0 78:0 79:0 80:1 81:0 82:0 83:0 84:1 85:0 86:0 87:1 88:1 89:2 90:0 91:0 92:0 93:0 94:0 95:1 96:0 97:0 98:0 99:0 100:0 101:0 102:0 103:0 104:0 105:0 106:1 107:0 108:0 109:1 110:0 111:0 112:1 113:0 114:0 115:0 116:1 117:0 118:1 119:2 120:0 121:0 122:0 123:0 124:1 125:0 126:0 127:1 128:0 129:0 130:0 131:1 132:0 133:1 134:1 135:1 136:0 137:0 138:1 139:0 140:0 141:0 142:1 143:0 144:1 145:0 146:0 147:0 
493193.0434116038 0 0 0 1:118.7024 2:70.1472 3:200 4:255 5:6 6:0 7:0 8:0 9:2 10:0 11:0 12:0 13:0 14:2 15:1 16:0 17:0 18:0 19:3 20:0 21:0 22:1 23:3 24:0 25:2 26:0 27:1 28:10 29:1 30:0 31:0 32:0 33:0 34:2 35:1 36:1 37:0 38:0 39:0 40:0 41:0 42:0 43:1 44:0 45:0 46:1 47:0 48:2 49:0 50:0 51:0 52:0 53:2 54:1 55:0 56:0 57:1 58:0 59:0 60:0 61:1 62:0 63:2 64:0 65:5 66:2 67:0 68:0 69:0 70:0 71:0 72:0 73:0 74:1 75:1 76:0 77:0 78:0 79:0 80:3 81:1 82:1 83:0 84:0 85:0 86:0 87:0 88:0 89:0 90:3 91:0 92:0 93:0 94:2 95:0 96:0 97:0 98:0 99:0 100:1 101:1 102:3 103:0 104:0 105:0 106:0 107:1 108:1 109:1 110:0 111:1 112:0 113:0 114:0 115:0 116:1 117:1 118:0 119:0 120:0 121:1 122:0 123:0 124:0 125:0 126:0 127:1 128:2 129:0 130:0 131:1 132:0 133:1 134:0 135:0 136:1 137:1 138:0 139:0 140:0 141:0 142:0 143:0 144:0 145:0 146:0 147:0 
631182.1620341822 0 0 0.03635110886941186 1:122.008 2:72.16 3:200 4:255 5:2 6:0 7:2 8:2 9:0 10:0 11:0 12:0 13:0 14:1 15:1 16:23 17:20 18:1 19:0 20:0 21:1 22:0 23:0 24:0 25:2 26:1 27:0 28:1 29:6 30:0 31:0 32:1 33:0 34:2 35:0 36:1 37:0 38:0 39:1 40:3 41:0 42:0 43:0 44:2 45:3 46:0 47:0 48:0 49:0 50:0 51:0 52:0 53:0 54:4 55:3 56:0 57:0 58:3 59:0 60:0 61:0 62:0 63:0 64:0 65:0 66:2 67:2 68:2 69:0 70:0 71:2 72:0 73:1 74:1 75:1 76:0 77:3 78:0 79:2 80:1 81:1 82:0 83:1 84:0 85:0 86:0 87:0 88:0 89:2 90:2 91:4 92:0 93:0 94:1 95:0 96:0 97:0 98:0 99:0 100:0 101:0 102:2 103:0 104:0 105:1 106:0 107:1 108:0 109:0 110:1 111:1 112:1 113:0 114:0 115:0 116:0 117:0 118:1 119:0 120:1 121:0 122:0 123:0 124:1 125:0 126:0 127:0 128:1 129:2 130:0 131:0 132:0 133:0 134:1 135:0 136:0 137:1 138:0 139:0 140:0 141:0 142:0 143:0 144:1 145:0 146:1 147:0 
55298.82103171325 0 0 0 1:119.7296 2:70.5456 3:200 4:255 5:0 6:4 7:0 8:2 9:0 10:1 11:0 12:1 13:0 14:0 15:1 16:6 17:0 18:7 19:0 20:1 21:0 22:2 23:0 24:2 25:0 26:0 27:0 28:1 29:0 30:0 31:1 32:3 33:0 34:0 35:2 36:0 37:1 38:1 39:0 40:2 41:3 42:0 43:0 44:0 45:1 46:0 47:3 48:0 49:0 50:1 51:0 52:0 53:0 54:2 55:0 56:0 57:2 58:0 59:2 60:0 61:0 62:0 63:0 64:3 65:0 66:3 67:1 68:0 69:2 70:1 71:0 72:0 73:1 74:0 75:0 76:1 77:0 78:0 79:2 80:0 81:1 82:0 83:0 84:0 85:1 86:1 87:0 88:0 89:1 90:0 91:1 92:0 93:0 94:2 95:0 96:0 97:0 98:0 99:0 100:0 101:1 102:1 103:0 104:1 105:0 106:2 107:0 108:0 109:0 110:0 111:1 112:4 113:0 114:0 115:2 116:0 117:0 118:0 119:1 120:0 121:0 122:0 123:0 124:1 125:1 126:0 127:0 128:0 129:0 130:2 131:1 132:0 133:1 134:0 135:0 136:0 137:0 138:0 139:0 140:1 141:0 142:0 143:1 144:0 145:1 146:0 147:0 
56447.40371378872 0 0 0 1:120.5056 2:70.7776 3:200 4:255 5:4 6:0 7:0 8:1 9:2 10:0 11:0 12:0 13:0 14:0 15:0 16:0 17:7 18:5 19:0 20:0 21:0 22:2 23:2 24:2 25:1 26:1 27:0 28:0 29:2 30:0 31:2 32:0 33:0 34:0 35:0 36:0 37:0 38:0 39:1 40:1 41:0 42:0 43:0 44:0 45:0 46:0 47:0 48:0 49:0 50:0 51:0 52:0 53:3 54:0 55:0 56:0 57:0 58:0 59:0 60:1 61:0 62:1 63:1 64:0 65:0 66:2 67:3 68:0 69:3 70:0 71:0 72:0 73:0 74:0 75:1 76:0 77:2 78:2 79:2 80:2 81:1 82:1 83:0 84:0 85:0 86:0 87:0 88:0 89:0 90:4 91:0 92:2 93:1 94:0 95:0 96:0 97:0 98:0 99:0 100:0 101:0 102:0 103:0 104:1 105:0 106:1 107:0 108:1 109:0 110:0 111:0 112:1 113:0 114:0 115:0 116:3 117:0 118:1 119:1 120:0 121:1 122:0 123:1 124:0 125:1 126:0 127:1 128:0 129:0 130:0 131:0 132:0 133:0 134:0 135:0 136:0 137:0 138:0 139:0 140:0 141:0 142:0 143:0 144:1 145:0 146:0 147:0 
507427.810519454 0 0 0 1:118.1024 2:70.0352 3:200 4:255 5:7 6:0 7:0 8:2 9:0 10:3 11:1 12:1 13:0 14:0 15:0 16:2 17:2 18:2 19:1 20:0 21:2 22:0 23:0 24:0 25:0 26:0 27:0 28:6 29:2 30:4 31:0 32:0 33:0 34:0 35:0 36:0 37:0 38:1 39:1 40:0 41:2 42:0 43:2 44:1 45:0 46:0 47:1 48:0 49:0 50:0 51:0 52:0 53:0 54:0 55:0 56:2 57:0 58:0 59:1 60:1 61:0 62:0 63:0 64:0 65:0 66:2 67:0 68:0 69:0 70:0 71:0 72:1 73:0 74:0 75:1 76:0 77:2 78:0 79:0 80:1 81:0 82:0 83:0 84:0 85:0 86:1 87:0 88:1 89:0 90:1 91:0 92:1 93:0 94:0 95:2 96:0 97:0 98:0 99:0 100:0 101:1 102:0 103:0 104:0 105:0 106:0 107:1 108:1 109:0 110:0 111:0 112:0 113:0 114:2 115:1 116:0 117:1 118:0 119:0 120:0 121:0 122:1 123:0 124:0 125:1 126:0 127:0 128:0 129:1 130:0 131:1 132:0 133:0 134:0 135:0 136:0 137:0 138:0 139:0 140:0 141:0 142:2 143:1 144:1 145:0 146:0 147:0 
0 0 0 0.0642719834043854 1:118.7584 2:70.2864 3:200 4:255 5:0 6:5 7:3 8:0 9:4 10:0 11:0 12:2 13:0 14:1 15:0 16:0 17:16 18:0 19:0 20:1 21:0 22:0 23:2 24:0 25:1 26:0 27:0 28:16 29:0 30:3 31:0 32:1 33:0 34:2 35:0 36:1 37:0 38:0 39:1 40:0 41:0 42:1 43:2 44:0 45:3 46:0 47:1 48:0 49:1 50:0 51:0 52:0 53:2 54:1 55:0 56:4 57:0 58:3 59:0 60:0 61:0 62:1 63:0 64:8 65:0 66:0 67:0 68:0 69:3 70:0 71:0 72:0 73:0 74:1 75:1 76:0 77:0 78:3 79:1 80:0 81:1 82:0 83:0 84:1 85:0 86:0 87:0 88:3 89:0 90:0 91:1 92:3 93:0 94:2 95:0 96:0 97:0 98:0 99:0 100:1 101:0 102:1 103:0 104:1 105:0 106:0 107:1 108:0 109:0 110:0 111:1 112:1 113:0 114:0 115:2 116:0 117:0 118:0 119:0 120:1 121:0 122:0 123:0 124:0 125:3 126:1 127:0 128:0 129:1 130:1 131:0 132:0 133:0 134:0 135:0 136:0 137:0 138:1 139:0 140:0 141:0 142:0 143:1 144:0 145:1 146:0 147:0 
0 330737.8518090447 78.2255459598218 0 1:122.0352 2:71.7024 3:200 4:255 5:2 6:0 7:2 8:0 9:1 10:1 11:0 12:0 13:0 14:1 15:0 16:0 17:14 18:0 19:2 20:2 21:0 22:2 23:0 24:0 25:0 26:0 27:0 28:0 29:1 30:5 31:0 32:0 33:1 34:0 35:0 36:0 37:0 38:1 39:0 40:0 41:4 42:4 43:7 44:0 45:0 46:0 47:0 48:2 49:0 50:1 51:0 52:0 53:0 54:0 55:3 56:6 57:4 58:1 59:0 60:1 61:0 62:0 63:0 64:0 65:0 66:2 67:0 68:0 69:1 70:3 71:2 72:1 73:0 74:0 75:1 76:0 77:2 78:1 79:3 80:0 81:0 82:0 83:0 84:2 85:0 86:1 87:0 88:1 89:0 90:0 91:0 92:0 93:0 94:0 95:0 96:0 97:0 98:0 99:0 100:1 101:0 102:0 103:0 104:0 105:0 106:0 107:2 108:0 109:0 110:0 111:0 112:0 113:1 114:0 115:1 116:1 117:0 118:0 119:0 120:2 121:0 122:1 123:0 124:2 125:0 126:1 127:0 128:0 129:0 130:0 131:0 132:0 133:1 134:1 135:1 136:1 137:0 138:0 139:0 140:0 141:0 142:0 143:0 144:0 145:0 146:0 147:0 
0 0 0 0.0341427381398022 1:120.552 2:71.0448 3:200 4:255 5:0 6:5 7:0 8:0 9:0 10:0 11:0 12:3 13:1 14:0 15:0 16:0 17:13 18:0 19:0 20:0 21:3 22:2 23:1 24:0 25:0 26:1 27:0 28:0 29:11 30:6 31:0 32:0 33:1 34:0 35:1 36:2 37:0 38:0 39:1 40:0 41:0 42:7 43:4 44:0 45:1 46:0 47:0 48:1 49:1 50:0 51:0 52:0 53:0 54:0 55:7 56:0 57:2 58:1 59:1 60:0 61:1 62:2 63:1 64:4 65:0 66:0 67:0 68:0 69:0 70:3 71:1 72:0 73:0 74:0 75:0 76:0 77:1 78:0 79:0 80:4 81:1 82:1 83:1 84:0 85:0 86:1 87:0 88:1 89:3 90:1 91:0 92:0 93:0 94:0 95:0 96:0 97:0 98:1 99:0 100:3 101:1 102:1 103:3 104:0 105:2 106:0 107:0 108:0 109:0 110:0 111:1 112:0 113:0 114:0 115:0 116:0 117:1 118:0 119:1 120:0 121:0 122:0 123:0 124:4 125:0 126:0 127:1 128:0 129:0 130:0 131:0 132:0 133:0 134:0 135:0 136:0 137:1 138:0 139:0 140:0 141:0 142:0 143:0 144:1 145:1 146:0 147:0 
630715.0368234288 0 0 0 1:118.2496 2:69.8384 3:200 4:255 5:0 6:8 7:0 8:1 9:0 10:3 11:0 12:2 13:1 14:1 15:0 16:0 17:3 18:1 19:1 20:0 21:1 22:2 23:1 24:0 25:0 26:0 27:1 28:0 29:6 30:0 31:3 32:0 33:2 34:0 35:1 36:0 37:1 38:0 39:0 40:2 41:2 42:0 43:0 44:0 45:0 46:0 47:0 48:0 49:1 50:0 51:0 52:6 53:0 54:4 55:1 56:1 57:0 58:0 59:0 60:0 61:0 62:0 63:0 64:1 65:0 66:0 67:0 68:3 69:0 70:1 71:0 72:1 73:1 74:0 75:0 76:0 77:4 78:2 79:0 80:1 81:0 82:0 83:0 84:0 85:0 86:0 87:1 88:1 89:0 90:3 91:0 92:0 93:0 94:0 95:0 96:0 97:1 98:0 99:0 100:2 101:1 102:0 103:0 104:0 105:0 106:0 107:0 108:0 109:0 110:0 111:0 112:0 113:2 114:0 115:0 116:0 117:0 118:0 119:0 120:0 121:0 122:0 123:0 124:0 125:1 126:3 127:0 128:0 129:1 130:0 131:0 132:0 133:0 134:0 135:0 136:1 137:0 138:2 139:0 140:0 141:1 142:0 143:0 144:0 145:0 146:0 147:0 
817212.6469239433 0 0 0 1:119.3728 2:70.9216 3:200 4:255 5:7 6:0 7:0 8:2 9:0 10:1 11:0 12:1 13:0 14:0 15:0 16:10 17:0 18:0 19:2 20:1 21:0 22:1 23:0 24:0 25:0 26:0 27:0 28:0 29:0 30:2 31:0 32:1 33:1 34:0 35:0 36:0 37:0 38:0 39:0 40:0 41:0 42:1 43:0 44:1 45:1 46:0 47:0 48:0 49:0 50:0 51:0 52:3 53:0 54:0 55:0 56:0 57:1 58:0 59:0 60:0 61:0 62:0 63:0 64:2 65:3 66:3 67:1 68:0 69:0 70:0 71:0 72:0 73:0 74:0 75:0 76:0 77:1 78:1 79:0 80:0 81:1 82:2 83:1 84:0 85:0 86:1 87:0 88:1 89:1 90:0 91:1 92:0 93:1 94:0 95:1 96:0 97:0 98:0 99:0 100:0 101:0 102:0 103:0 104:1 105:0 106:0 107:1 108:1 109:0 110:0 111:0 112:0 113:1 114:1 115:0 116:0 117:0 118:0 119:0 120:0 121:0 122:0 123:0 124:0 125:2 126:0 127:0 128:0 129:0 130:0 131:0 132:1 133:0 134:0 135:0 136:0 137:0 138:0 139:1 140:2 141:0 142:0 143:0 144:0 145:1 146:0 147:0 
0 0 0 0.1299089740154485 1:120.104 2:70.608 3:200 4:255 5:0 6:2 7:1 8:0 9:0 10:0 11:0 12:0 13:0 14:1 15:1 16:10 17:0 18:1 19:3 20:0 21:0 22:0 23:0 24:0 25:0 26:1 27:0 28:0 29:1 30:0 31:4 32:0 33:1 34:0 35:0 36:0 37:0 38:0 39:0 40:1 41:4 42:4 43:0 44:1 45:3 46:0 47:1 48:0 49:0 50:0 51:0 52:0 53:0 54:0 55:2 56:2 57:0 58:1 59:0 60:2 61:0 62:0 63:0 64:2 65:0 66:0 67:0 68:1 69:0 70:1 71:0 72:0 73:0 74:1 75:0 76:0 77:0 78:1 79:0 80:1 81:0 82:3 83:0 84:1 85:0 86:0 87:1 88:0 89:0 90:0 91:0 92:0 93:0 94:0 95:0 96:0 97:0 98:0 99:1 100:1 101:2 102:0 103:0 104:2 105:0 106:0 107:0 108:0 109:1 110:0 111:0 112:0 113:0 114:0 115:0 116:2 117:1 118:1 119:0 120:0 121:1 122:0 123:0 124:0 125:0 126:2 127:0 128:0 129:0 130:0 131:0 132:0 133:0 134:0 135:0 136:2 137:3 138:1 139:0 140:0 141:0 142:0 143:0 144:0 145:1 146:0 147:0 
0 0 0 0.07912495975998332 1:120.2576 2:71.12 3:200 4:255 5:0 6:2 7:0 8:1 9:0 10:2 11:1 12:0 13:2 14:0 15:0 16:14 17:0 18:1 19:0 20:1 21:4 22:0 23:2 24:0 25:2 26:0 27:0 28:0 29:9 30:2 31:0 32:0 33:0 34:0 35:0 36:1 37:0 38:1 39:0 40:0 41:16 42:4 43:0 44:1 45:0 46:0 47:0 48:0 49:0 50:0 51:0 52:2 53:2 54:5 55:0 56:0 57:0 58:2 59:0 60:0 61:0 62:0 63:0 64:0 65:0 66:5 67:1 68:1 69:0 70:3 71:0 72:1 73:1 74:0 75:0 76:0 77:0 78:0 79:3 80:1 81:2 82:0 83:0 84:1 85:0 86:1 87:0 88:3 89:0 90:0 91:0 92:1 93:1 94:0 95:1 96:1 97:0 98:0 99:1 100:2 101:0 102:0 103:0 104:0 105:0 106:0 107:0 108:0 109:2 110:0 111:0 112:1 113:0 114:0 115:0 116:0 117:0 118:0 119:1 120:0 121:0 122:1 123:0 124:0 125:0 126:3 127:2 128:0 129:1 130:0 131:0 132:1 133:0 134:1 135:0 136:1 137:0 138:1 139:1 140:0 141:0 142:1 143:0 144:0 145:0 146:0 147:1 
0 0 66.85447267450937 0 1:121.4496 2:71.4512 3:200 4:255 5:1 6:5 7:0 8:0 9:0 10:3 11:3 12:0 13:0 14:0 15:0 16:1 17:0 18:0 19:5 20:1 21:2 22:2 23:4 24:4 25:0 26:0 27:0 28:0 29:2 30:0 31:2 32:1 33:0 34:0 35:0 36:1 37:0 38:1 39:0 40:4 41:0 42:2 43:0 44:2 45:0 46:0 47:0 48:0 49:0 50:1 51:0 52:1 53:1 54:0 55:0 56:0 57:4 58:2 59:2 60:1 61:2 62:0 63:0 64:0 65:3 66:0 67:2 68:0 69:0 70:0 71:0 72:1 73:0 74:1 75:1 76:0 77:0 78:2 79:0 80:1 81:1 82:0 83:1 84:1 85:0 86:0 87:0 88:4 89:0 90:0 91:0 92:1 93:1 94:0 95:0 96:0 97:1 98:0 99:1 100:0 101:0 102:2 103:0 104:0 105:0 106:0 107:1 108:0 109:0 110:0 111:0 112:0 113:0 114:0 115:0 116:0 117:2 118:0 119:0 120:0 121:0 122:0 123:0 124:1 125:0 126:0 127:0 128:1 129:0 130:0 131:0 132:0 133:0 134:0 135:1 136:2 137:0 138:1 139:1 140:0 141:0 142:0 143:1 144:0 145:0 146:0 147:0 
0 0 0 0.01708174291428789 1:119.192 2:70.3696 3:200 4:255 5:7 6:4 7:6 8:1 9:3 10:0 11:0 12:0 13:0 14:1 15:0 16:0 17:1 18:4 19:0 20:1 21:2 22:0 23:1 24:0 25:1 26:0 27:0 28:0 29:0 30:0 31:0 32:0 33:0 34:2 35:0 36:1 37:0 38:0 39:0 40:1 41:0 42:0 43:0 44:0 45:0 46:0 47:0 48:0 49:0 50:0 51:2 52:0 53:0 54:0 55:0 56:1 57:3 58:1 59:3 60:1 61:0 62:0 63:0 64:0 65:0 66:0 67:0 68:3 69:0 70:0 71:0 72:1 73:0 74:1 75:2 76:0 77:1 78:0 79:0 80:0 81:0 82:0 83:0 84:0 85:0 86:0 87:0 88:0 89:0 90:0 91:1 92:2 93:1 94:0 95:0 96:0 97:1 98:1 99:0 100:1 101:2 102:2 103:0 104:1 105:0 106:1 107:0 108:0 109:0 110:0 111:0 112:0 113:1 114:1 115:2 116:2 117:0 118:1 119:0 120:0 121:0 122:0 123:0 124:0 125:0 126:1 127:0 128:0 129:2 130:2 131:1 132:1 133:1 134:0 135:0 136:0 137:0 138:0 139:0 140:0 141:0 142:0 143:1 144:1 145:0 146:0 147:1 
0 0 24.48297529066409 0 1:120.1808 2:70.8112 3:200 4:255 5:0 6:0 7:0 8:0 9:1 10:0 11:0 12:1 13:0 14:1 15:0 16:0 17:0 18:4 19:0 20:2 21:0 22:0 23:1 24:0 25:0 26:0 27:0 28:0 29:2 30:0 31:5 32:0 33:0 34:0 35:2 36:0 37:1 38:0 39:0 40:0 41:2 42:0 43:2 44:3 45:0 46:1 47:0 48:0 49:0 50:1 51:0 52:3 53:0 54:3 55:0 56:1 57:0 58:0 59:0 60:0 61:0 62:0 63:1 64:0 65:0 66:1 67:0 68:0 69:0 70:0 71:0 72:1 73:0 74:0 75:0 76:0 77:0 78:2 79:3 80:0 81:2 82:0 83:0 84:0 85:0 86:0 87:0 88:1 89:1 90:1 91:0 92:2 93:2 94:0 95:0 96:0 97:1 98:0 99:0 100:0 101:2 102:3 103:0 104:0 105:1 106:1 107:1 108:0 109:0 110:0 111:0 112:0 113:0 114:0 115:2 116:0 117:0 118:0 119:0 120:1 121:0 122:2 123:0 124:0 125:0 126:0 127:0 128:0 129:0 130:0 131:0 132:0 133:0 134:0 135:0 136:1 137:0 138:2 139:2 140:1 141:0 142:0 143:0 144:0 145:0 146:0 147:0 
754906.147341317 0 0 0 1:118.8112 2:70.5632 3:200 4:255 5:7 6:0 7:0 8:1 9:0 10:1 11:0 12:0 13:0 14:0 15:0 16:14 17:1 18:0 19:1 20:0 21:0 22:1 23:1 24:1 25:0 26:0 27:0 28:0 29:0 30:0 31:2 32:0 33:0 34:1 35:1 36:0 37:0 38:0 39:1 40:2 41:2 42:1 43:0 44:0 45:0 46:0 47:0 48:0 49:1 50:0 51:0 52:0 53:1 54:2 55:1 56:0 57:0 58:2 59:0 60:0 61:0 62:1 63:1 64:0 65:0 66:0 67:0 68:0 69:0 70:0 71:1 72:0 73:0 74:0 75:0 76:2 77:0 78:0 79:0 80:0 81:0 82:0 83:0 84:0 85:0 86:0 87:0 88:1 89:0 90:0 91:1 92:2 93:0 94:0 95:0 96:1 97:0 98:0 99:0 100:0 101:0 102:0 103:0 104:2 105:0 106:0 107:0 108:0 109:1 110:0 111:0 112:0 113:0 114:2 115:0 116:0 117:0 118:0 119:0 120:0 121:0 122:0 123:0 124:0 125:2 126:0 127:0 128:0 129:0 130:1 131:0 132:1 133:0 134:0 135:0 136:0 137:0 138:0 139:0 140:0 141:0 142:0 143:0 144:0 145:0 146:0 147:0 
256407.5052335964 0 0 0 1:119.7712 2:70.6224 3:200 4:255 5:0 6:2 7:0 8:1 9:0 10:0 11:0 12:0 13:1 14:0 15:0 16:2 17:0 18:6 19:0 20:2 21:0 22:0 23:0 24:0 25:0 26:0 27:0 28:7 29:0 30:0 31:0 32:0 33:2 34:0 35:0 36:0 37:0 38:0 39:0 40:0 41:0 42:0 43:1 44:2 45:0 46:0 47:0 48:0 49:0 50:0 51:1 52:3 53:0 54:0 55:0 56:1 57:0 58:0 59:0 60:0 61:0 62:0 63:0 64:2 65:3 66:1 67:2 68:0 69:0 70:0 71:2 72:1 73:0 74:0 75:0 76:0 77:1 78:2 79:0 80:0 81:0 82:1 83:1 84:0 85:2 86:0 87:0 88:0 89:0 90:0 91:2 92:0 93:0 94:0 95:1 96:0 97:1 98:0 99:0 100:1 101:0 102:0 103:1 104:0 105:0 106:0 107:0 108:1 109:0 110:0 111:0 112:0 113:2 114:0 115:0 116:1 117:0 118:0 119:0 120:0 121:1 122:0 123:0 124:0 125:3 126:0 127:1 128:0 129:0 130:0 131:0 132:0 133:0 134:0 135:0 136:0 137:1 138:0 139:0 140:0 141:2 142:1 143:0 144:1 145:0 146:0 147:0 
769701.8036703949 0 0 0 1:118.552 2:70.4224 3:200 4:255 5:5 6:5 7:0 8:0 9:1 10:0 11:0 12:0 13:0 14:0 15:0 16:14 17:1 18:0 19:0 20:1 21:2 22:1 23:0 24:1 25:0 26:0 27:0 28:1 29:1 30:0 31:0 32:0 33:2 34:0 35:0 36:0 37:0 38:0 39:0 40:0 41:2 42:0 43:3 44:0 45:0 46:0 47:1 48:0 49:1 50:0 51:1 52:0 53:0 54:0 55:1 56:2 57:2 58:0 59:0 60:0 61:0 62:0 63:0 64:0 65:0 66:2 67:0 68:1 69:0 70:0 71:1 72:0 73:0 74:0 75:0 76:4 77:0 78:2 79:0 80:2 81:0 82:0 83:0 84:0 85:0 86:0 87:0 88:2 89:0 90:0 91:0 92:0 93:0 94:0 95:1 96:1 97:0 98:1 99:0 100:3 101:0 102:1 103:0 104:0 105:0 106:0 107:1 108:1 109:0 110:0 111:0 112:0 113:0 114:0 115:1 116:0 117:0 118:0 119:0 120:0 121:0 122:0 123:0 124:0 125:0 126:0 127:0 128:0 129:0 130:0 131:0 132:0 133:0 134:0 135:0 136:0 137:0 138:2 139:1 140:2 141:1 142:0 143:0 144:0 145:0 146:0 147:1 
0 0 0 0.09914707843836405 1:119.0096 2:70.184 3:200 4:255 5:6 6:2 7:1 8:0 9:0 10:0 11:0 12:0 13:0 14:0 15:0 16:3 17:0 18:0 19:3 20:4 21:1 22:2 23:2 24:2 25:1 26:0 27:0 28:15 29:12 30:2 31:0 32:0 33:2 34:0 35:0 36:0 37:0 38:0 39:0 40:0 41:0 42:1 43:1 44:3 45:0 46:0 47:2 48:2 49:0 50:1 51:1 52:4 53:1 54:1 55:0 56:0 57:1 58:0 59:0 60:0 61:0 62:0 63:1 64:0 65:0 66:1 67:5 68:0 69:0 70:0 71:2 72:0 73:1 74:1 75:0 76:0 77:0 78:0 79:1 80:3 81:2 82:1 83:1 84:1 85:0 86:0 87:0 88:0 89:0 90:1 91:1 92:0 93:0 94:0 95:1 96:1 97:0 98:0 99:0 100:0 101:0 102:0 103:0 104:3 105:1 106:0 107:0 108:0 109:1 110:0 111:0 112:0 113:2 114:0 115:0 116:1 117:0 118:0 119:1 120:0 121:0 122:0 123:0 124:1 125:2 126:0 127:2 128:1 129:1 130:0 131:0 132:0 133:0 134:1 135:0 136:0 137:1 138:0 139:0 140:1 141:0 142:1 143:0 144:0 145:0 146:0 147:0 
0 69193.8788161635 0 0.04287474161589994 1:120.4064 2:71.1568 3:200 4:255 5:0 6:2 7:0 8:4 9:0 10:0 11:2 12:3 13:0 14:0 15:0 16:31 17:3 18:0 19:1 20:0 21:0 22:0 23:2 24:1 25:2 26:1 27:0 28:9 29:8 30:0 31:0 32:1 33:0 34:0 35:0 36:0 37:2 38:0 39:0 40:10 41:4 42:5 43:0 44:2 45:0 46:1 47:0 48:0 49:0 50:0 51:0 52:1 53:0 54:2 55:0 56:0 57:2 58:0 59:2 60:0 61:0 62:0 63:1 64:1 65:0 66:3 67:5 68:1 69:1 70:0 71:0 72:0 73:0 74:0 75:1 76:1 77:1 78:0 79:3 80:0 81:0 82:0 83:0 84:0 85:0 86:0 87:0 88:0 89:0 90:0 91:1 92:0 93:1 94:0 95:0 96:0 97:0 98:0 99:0 100:1 101:0 102:2 103:2 104:0 105:0 106:1 107:0 108:0 109:0 110:1 111:0 112:1 113:0 114:2 115:0 116:0 117:1 118:1 119:1 120:1 121:1 122:0 123:1 124:0 125:0 126:2 127:0 128:0 129:1 130:0 131:2 132:1 133:1 134:0 135:1 136:0 137:0 138:1 139:0 140:0 141:0 142:0 143:1 144:0 145:1 146:0 147:1 
513289.1019951384 0 0 0 1:121.2768 2:71.4464 3:200 4:255 5:2 6:0 7:0 8:0 9:0 10:0 11:0 12:1 13:1 14:1 15:0 16:0 17:1 18:0 19:3 20:0 21:0 22:2 23:1 24:0 25:0 26:1 27:1 28:0 29:8 30:0 31:0 32:1 33:0 34:1 35:2 36:2 37:0 38:0 39:0 40:4 41:6 42:0 43:0 44:0 45:3 46:0 47:0 48:0 49:0 50:0 51:0 52:0 53:5 54:3 55:0 56:0 57:0 58:3 59:0 60:1 61:0 62:0 63:0 64:1 65:1 66:0 67:0 68:1 69:0 70:1 71:0 72:0 73:0 74:3 75:1 76:0 77:0 78:0 79:0 80:0 81:2 82:0 83:0 84:0 85:0 86:0 87:1 88:2 89:2 90:1 91:1 92:2 93:1 94:1 95:0 96:0 97:0 98:0 99:0 100:0 101:0 102:2 103:0 104:0 105:0 106:0 107:0 108:0 109:0 110:0 111:0 112:0 113:0 114:0 115:2 116:0 117:1 118:0 119:0 120:0 121:0 122:0 123:0 124:1 125:0 126:1 127:0 128:0 129:1 130:1 131:0 132:0 133:0 134:0 135:0 136:0 137:1 138:2 139:1 140:0 141:1 142:0 143:1 144:1 145:0 146:0 147:0 
0 0 0 0.07246537820908412 1:119.2832 2:70.5568 3:200 4:255 5:0 6:0 7:7 8:0 9:1 10:1 11:0 12:1 13:1 14:0 15:2 16:7 17:3 18:0 19:4 20:3 21:0 22:0 23:0 24:1 25:1 26:0 27:0 28:0 29:9 30:4 31:0 32:8 33:0 34:0 35:4 36:0 37:0 38:2 39:0 40:0 41:1 42:10 43:0 44:0 45:0 46:0 47:3 48:0 49:0 50:3 51:0 52:0 53:0 54:7 55:3 56:0 57:1 58:0 59:0 60:1 61:0 62:0 63:3 64:0 65:0 66:0 67:0 68:0 69:3 70:2 71:0 72:0 73:0 74:0 75:0 76:0 77:5 78:0 79:0 80:0 81:0 82:1 83:0 84:0 85:1 86:0 87:0 88:1 89:3 90:3 91:1 92:0 93:1 94:0 95:2 96:0 97:0 98:0 99:0 100:1 101:0 102:2 103:4 104:0 105:1 106:0 107:0 108:1 109:0 110:0 111:0 112:0 113:0 114:0 115:3 116:0 117:0 118:2 119:0 120:0 121:1 122:0 123:0 124:0 125:0 126:0 127:0 128:1 129:0 130:1 131:2 132:0 133:0 134:0 135:0 136:1 137:0 138:0 139:0 140:0 141:0 142:0 143:1 144:0 145:0 146:1 147:1 
917377.7527587856 0 0 0 1:118.872 2:70.296 3:200 4:255 5:11 6:5 7:4 8:0 9:0 10:2 11:0 12:1 13:1 14:0 15:0 16:1 17:0 18:0 19:0 20:3 21:2 22:0 23:0 24:0 25:0 26:0 27:1 28:19 29:11 30:4 31:0 32:0 33:0 34:0 35:2 36:0 37:1 38:1 39:0 40:0 41:0 42:3 43:2 44:2 45:1 46:0 47:0 48:0 49:0 50:0 51:0 52:2 53:0 54:1 55:0 56:0 57:0 58:2 59:1 60:1 61:1 62:1 63:0 64:4 65:3 66:4 67:5 68:1 69:0 70:0 71:0 72:1 73:0 74:0 75:0 76:0 77:0 78:0 79:2 80:0 81:0 82:0 83:0 84:1 85:1 86:0 87:0 88:0 89:0 90:0 91:0 92:0 93:0 94:0 95:0 96:0 97:1 98:0 99:0 100:1 101:0 102:0 103:3 104:2 105:0 106:0 107:0 108:0 109:0 110:0 111:0 112:0 113:0 114:0 115:2 116:0 117:2 118:0 119:1 120:0 121:0 122:0 123:1 124:1 125:0 126:1 127:0 128:0 129:0 130:0 131:0 132:0 133:0 134:0 135:0 136:0 137:0 138:0 139:1 140:0 141:1 142:1 143:0 144:0 145:0 146:1 147:0 
0 0 44.92442016924105 0 1:124.2656 2:72.7744 3:200 4:255 5:0 6:0 7:0 8:0 9:2 10:4 11:1 12:0 13:1 14:2 15:0 16:0 17:21 18:0 19:0 20:0 21:1 22:1 23:1 24:1 25:0 26:0 27:0 28:0 29:6 30:3 31:0 32:0 33:0 34:2 35:0 36:0 37:0 38:2 39:0 40:1 41:0 42:0 43:9 44:1 45:0 46:0 47:1 48:0 49:0 50:1 51:1 52:0 53:0 54:2 55:5 56:0 57:0 58:0 59:0 60:0 61:0 62:0 63:1 64:0 65:0 66:2 67:0 68:1 69:0 70:1 71:0 72:0 73:0 74:0 75:0 76:2 77:6 78:0 79:0 80:0 81:0 82:2 83:0 84:0 85:0 86:0 87:0 88:1 89:0 90:0 91:3 92:0 93:0 94:1 95:1 96:0 97:0 98:0 99:1 100:4 101:3 102:2 103:0 104:0 105:0 106:0 107:0 108:0 109:1 110:0 111:0 112:0 113:0 114:3 115:1 116:1 117:0 118:0 119:0 120:0 121:0 122:1 123:0 124:0 125:1 126:0 127:2 128:2 129:1 130:0 131:1 132:0 133:0 134:1 135:0 136:1 137:1 138:0 139:0 140:0 141:0 142:0 143:1 144:0 145:0 146:0 147:1 
593833.0065423939 389190.4517115773 1.043087081079974 0.05387604311040321 1:119.12 2:70.4928 3:200 4:255 5:1 6:0 7:0 8:4 9:0 10:3 11:3 12:0 13:0 14:2 15:0 16:0 17:2 18:16 19:0 20:0 21:6 22:0 23:0 24:0 25:0 26:0 27:0 28:0 29:0 30:8 31:9 32:0 33:0 34:0 35:0 36:0 37:0 38:1 39:0 40:22 41:5 42:0 43:0 44:3 45:0 46:1 47:3 48:0 49:0 50:0 51:0 52:0 53:3 54:4 55:0 56:0 57:6 58:0 59:0 60:1 61:1 62:0 63:0 64:0 65:0 66:0 67:4 68:0 69:0 70:0 71:1 72:0 73:0 74:2 75:0 76:0 77:5 78:4 79:1 80:0 81:0 82:0 83:0 84:1 85:0 86:0 87:1 88:1 89:0 90:0 91:3 92:1 93:1 94:0 95:0 96:0 97:0 98:0 99:0 100:0 101:0 102:1 103:0 104:1 105:1 106:0 107:0 108:0 109:0 110:0 111:0 112:0 113:1 114:3 115:0 116:0 117:1 118:2 119:0 120:0 121:1 122:0 123:0 124:0 125:0 126:0 127:2 128:1 129:0 130:1 131:2 132:0 133:0 134:0 135:0 136:0 137:0 138:0 139:0 140:0 141:0 142:0 143:0 144:1 145:0 146:0 147:0 
68087.5488990868 0 0 0 1:123.8512 2:73.0752 3:200 4:255 5:0 6:0 7:1 8:0 9:0 10:0 11:3 12:1 13:2 14:0 15:0 16:14 17:0 18:0 19:0 20:2 21:3 22:0 23:0 24:0 25:0 26:2 27:0 28:0 29:8 30:0 31:0 32:1 33:0 34:3 35:0 36:0 37:0 38:0 39:1 40:6 41:6 42:4 43:1 44:1 45:0 46:1 47:1 48:0 49:0 50:0 51:0 52:0 53:0 54:4 55:7 56:0 57:0 58:0 59:1 60:0 61:1 62:1 63:1 64:0 65:0 66:0 67:0 68:1 69:1 70:2 71:1 72:1 73:0 74:0 75:0 76:1 77:2 78:6 79:0 80:0 81:0 82:0 83:0 84:0 85:0 86:0 87:0 88:0 89:1 90:7 91:0 92:0 93:0 94:1 95:1 96:0 97:1 98:0 99:0 100:0 101:1 102:0 103:0 104:1 105:0 106:0 107:0 108:0 109:0 110:1 111:0 112:0 113:0 114:0 115:0 116:0 117:2 118:0 119:0 120:0 121:0 122:0 123:0 124:0 125:0 126:0 127:0 128:0 129:0 130:1 131:1 132:0 133:1 134:1 135:0 136:0 137:3 138:0 139:0 140:0 141:0 142:0 143:0 144:0 145:0 146:1 147:0 
1048576 0 0 0 1:118.696 2:70.4512 3:200 4:255 5:5 6:0 7:2 8:0 9:0 10:0 11:0 12:0 13:0 14:0 15:0 16:13 17:1 18:0 19:0 20:0 21:0 22:0 23:0 24:0 25:0 26:1 27:0 28:1 29:0 30:0 31:2 32:0 33:1 34:0 35:0 36:0 37:0 38:0 39:0 40:2 41:0 42:1 43:0 44:2 45:0 46:1 47:0 48:0 49:0 50:1 51:0 52:3 53:3 54:0 55:0 56:0 57:0 58:0 59:1 60:0 61:0 62:0 63:1 64:0 65:3 66:3 67:0 68:1 69:1 70:0 71:0 72:1 73:0 74:0 75:0 76:0 77:1 78:0 79:0 80:1 81:1 82:0 83:0 84:0 85:0 86:1 87:0 88:0 89:1 90:1 91:0 92:1 93:0 94:0 95:0 96:1 97:0 98:0 99:0 100:1 101:0 102:1 103:0 104:0 105:0 106:0 107:0 108:0 109:0 110:0 111:0 112:1 113:0 114:0 115:2 116:0 117:0 118:0 119:0 120:0 121:0 122:0 123:0 124:0 125:0 126:0 127:0 128:0 129:0 130:2 131:0 132:0 133:0 134:1 135:0 136:0 137:0 138:1 139:2 140:0 141:0 142:0 143:0 144:1 145:0 146:0 147:0 
0 0 0 0.007819593217842306 1:125.2624 2:75.5072 3:200 4:255 5:4 6:0 7:0 8:3 9:0 10:2 11:0 12:0 13:0 14:0 15:1 16:0 17:0 18:0 19:0 20:4 21:4 22:4 23:2 24:0 25:2 26:1 27:3 28:7 29:0 30:1 31:0 32:0 33:2 34:0 35:1 36:1 37:0 38:1 39:1 40:0 41:0 42:8 43:2 44:0 45:0 46:0 47:1 48:3 49:1 50:0 51:0 52:5 53:0 54:3 55:1 56:0 57:0 58:0 59:1 60:3 61:1 62:0 63:0 64:7 65:0 66:0 67:3 68:2 69:0 70:0 71:0 72:0 73:1 74:0 75:0 76:10 77:0 78:1 79:1 80:2 81:2 82:0 83:1 84:0 85:0 86:0 87:0 88:2 89:0 90:3 91:0 92:3 93:0 94:0 95:0 96:0 97:0 98:0 99:1 100:0 101:0 102:2 103:0 104:2 105:0 106:7 107:0 108:0 109:3 110:0 111:2 112:0 113:3 114:4 115:0 116:0 117:0 118:0 119:0 120:0 121:0 122:0 123:0 124:1 125:1 126:0 127:0 128:3 129:0 130:0 131:0 132:0 133:0 134:0 135:1 136:2 137:0 138:2 139:0 140:0 141:1 142:0 143:1 144:0 145:0 146:0 147:0 
0 111955.9902031386 0 0 1:124.8544 2:75.0528 3:200 4:255 5:0 6:4 7:0 8:0 9:0 10:0 11:2 12:0 13:1 14:0 15:0 16:0 17:0 18:4 19:0 20:0 21:4 22:0 23:1 24:0 25:0 26:0 27:2 28:0 29:0 30:0 31:3 32:1 33:0 34:1 35:1 36:0 37:0 38:0 39:0 40:0 41:2 42:0 43:0 44:2 45:3 46:3 47:0 48:4 49:0 50:2 51:0 52:1 53:1 54:0 55:6 56:2 57:0 58:0 59:0 60:1 61:0 62:0 63:0 64:5 65:2 66:3 67:4 68:0 69:2 70:0 71:0 72:0 73:0 74:1 75:2 76:4 77:0 78:0 79:1 80:0 81:1 82:1 83:3 84:0 85:2 86:0 87:0 88:7 89:2 90:3 91:2 92:1 93:0 94:0 95:0 96:1 97:0 98:1 99:0 100:1 101:3 102:0 103:1 104:1 105:0 106:0 107:0 108:0 109:0 110:0 111:0 112:0 113:1 114:0 115:2 116:0 117:0 118:2 119:0 120:0 121:0 122:1 123:0 124:0 125:0 126:0 127:0 128:1 129:0 130:0 131:2 132:0 133:2 134:0 135:0 136:1 137:0 138:2 139:0 140:0 141:0 142:0 143:0 144:1 145:0 146:1 147:1 
0 0 0 0.06447161755954446 1:124.9328 2:75.184 3:200 4:255 5:4 6:4 7:0 8:0 9:5 10:3 11:2 12:2 13:0 14:1 15:1 16:0 17:7 18:6 19:0 20:5 21:4 22:0 23:1 24:2 25:0 26:1 27:1 28:7 29:4 30:0 31:1 32:5 33:5 34:4 35:0 36:0 37:2 38:0 39:0 40:0 41:9 42:4 43:1 44:4 45:7 46:0 47:0 48:4 49:1 50:0 51:0 52:0 53:2 54:7 55:0 56:1 57:1 58:0 59:0 60:0 61:0 62:0 63:0 64:6 65:2 66:0 67:0 68:0 69:4 70:2 71:0 72:0 73:0 74:0 75:0 76:8 77:0 78:4 79:0 80:0 81:0 82:4 83:5 84:0 85:3 86:1 87:1 88:2 89:0 90:2 91:0 92:0 93:0 94:1 95:0 96:3 97:0 98:2 99:1 100:4 101:0 102:1 103:0 104:3 105:2 106:3 107:0 108:0 109:2 110:1 111:1 112:0 113:0 114:0 115:2 116:0 117:1 118:0 119:3 120:3 121:0 122:1 123:2 124:1 125:0 126:5 127:0 128:4 129:4 130:0 131:1 132:0 133:0 134:2 135:1 136:0 137:0 138:1 139:0 140:0 141:3 142:4 143:0 144:0 145:1 146:0 147:0 
245880.4476065924 241244.9187037558 0 0 1:126.4896 2:75.3728 3:200 4:255 5:7 6:6 7:8 8:0 9:0 10:0 11:0 12:0 13:0 14:0 15:0 16:10 17:4 18:0 19:0 20:0 21:0 22:0 23:0 24:0 25:0 26:0 27:0 28:0 29:0 30:4 31:0 32:0 33:0 34:0 35:2 36:0 37:1 38:0 39:1 40:2 41:0 42:0 43:0 44:0 45:0 46:4 47:3 48:1 49:4 50:0 51:0 52:4 53:0 54:0 55:0 56:0 57:3 58:2 59:4 60:3 61:1 62:1 63:0 64:4 65:0 66:0 67:1 68:0 69:0 70:1 71:0 72:0 73:2 74:0 75:1 76:1 77:2 78:0 79:2 80:4 81:0 82:0 83:1 84:0 85:1 86:0 87:1 88:1 89:2 90:0 91:0 92:0 93:2 94:3 95:2 96:0 97:2 98:0 99:0 100:1 101:5 102:0 103:0 104:0 105:0 106:0 107:0 108:0 109:0 110:1 111:0 112:0 113:3 114:0 115:0 116:2 117:2 118:2 119:0 120:2 121:0 122:1 123:0 124:1 125:1 126:1 127:0 128:0 129:0 130:0 131:0 132:0 133:0 134:0 135:0 136:0 137:0 138:1 139:0 140:3 141:1 142:0 143:0 144:1 145:0 146:0 147:0 
0 475445.4440267395 0 0 1:126.4128 2:75.4816 3:200 4:255 5:0 6:6 7:1 8:0 9:0 10:2 11:1 12:0 13:0 14:2 15:1 16:3 17:0 18:1 19:0 20:1 21:2 22:1 23:0 24:1 25:0 26:0 27:0 28:5 29:0 30:0 31:0 32:0 33:5 34:2 35:0 36:0 37:0 38:0 39:0 40:10 41:0 42:6 43:7 44:0 45:2 46:0 47:0 48:1 49:3 50:0 51:2 52:7 53:0 54:0 55:5 56:0 57:0 58:3 59:0 60:1 61:0 62:0 63:0 64:0 65:0 66:0 67:2 68:0 69:2 70:1 71:0 72:0 73:1 74:0 75:2 76:0 77:1 78:0 79:0 80:2 81:0 82:1 83:0 84:1 85:0 86:1 87:0 88:3 89:0 90:0 91:2 92:1 93:0 94:0 95:0 96:1 97:1 98:0 99:1 100:5 101:0 102:2 103:0 104:0 105:0 106:1 107:1 108:0 109:0 110:0 111:0 112:0 113:4 114:5 115:0 116:0 117:0 118:2 119:1 120:0 121:0 122:0 123:0 124:0 125:1 126:2 127:2 128:1 129:1 130:0 131:3 132:0 133:0 134:0 135:0 136:0 137:1 138:0 139:3 140:0 141:0 142:0 143:1 144:0 145:0 146:1 147:0 
16355.23655458539 0 0 0.0594447993348445 1:124.8608 2:75.4976 3:200 4:255 5:10 6:14 7:0 8:0 9:0 10:2 11:0 12:2 13:2 14:2 15:1 16:0 17:0 18:5 19:9 20:0 21:0 22:5 23:0 24:2 25:0 26:0 27:0 28:0 29:0 30:0 31:5 32:1 33:2 34:1 35:3 36:0 37:0 38:2 39:0 40:0 41:1 42:5 43:6 44:2 45:3 46:0 47:0 48:2 49:2 50:2 51:0 52:0 53:0 54:0 55:6 56:1 57:0 58:0 59:2 60:0 61:3 62:1 63:0 64:6 65:0 66:0 67:2 68:0 69:0 70:0 71:0 72:0 73:5 74:0 75:1 76:10 77:0 78:0 79:0 80:4 81:6 82:0 83:1 84:1 85:4 86:0 87:0 88:0 89:2 90:3 91:0 92:6 93:2 94:0 95:0 96:0 97:0 98:2 99:0 100:0 101:1 102:7 103:0 104:1 105:4 106:0 107:0 108:0 109:0 110:0 111:1 112:0 113:0 114:2 115:0 116:0 117:3 118:4 119:2 120:0 121:0 122:2 123:0 124:0 125:0 126:1 127:0 128:1 129:3 130:5 131:0 132:1 133:0 134:0 135:1 136:0 137:0 138:6 139:0 140:0 141:2 142:2 143:0 144:0 145:0 146:0 147:1 
0 48914.38957581798 0 0 1:127.6256 2:76.7104 3:200 4:255 5:0 6:0 7:0 8:0 9:0 10:7 11:1 12:0 13:2 14:1 15:0 16:0 17:8 18:0 19:0 20:3 21:1 22:1 23:1 24:3 25:1 26:0 27:0 28:0 29:0 30:5 31:1 32:3 33:0 34:0 35:2 36:5 37:0 38:1 39:0 40:5 41:0 42:1 43:1 44:0 45:0 46:0 47:0 48:0 49:0 50:0 51:4 52:6 53:0 54:1 55:0 56:0 57:0 58:3 59:0 60:0 61:5 62:0 63:1 64:0 65:0 66:0 67:2 68:3 69:1 70:0 71:0 72:1 73:1 74:0 75:0 76:0 77:1 78:0 79:3 80:0 81:0 82:1 83:0 84:0 85:2 86:2 87:0 88:0 89:2 90:0 91:1 92:0 93:0 94:2 95:0 96:0 97:0 98:3 99:0 100:0 101:3 102:1 103:2 104:1 105:0 106:2 107:0 108:0 109:0 110:0 111:0 112:2 113:4 114:1 115:0 116:0 117:1 118:0 119:2 120:1 121:0 122:0 123:2 124:4 125:0 126:0 127:2 128:1 129:0 130:3 131:2 132:0 133:0 134:0 135:0 136:2 137:0 138:2 139:1 140:0 141:2 142:0 143:0 144:0 145:0 146:0 147:1 
0 30990.91083158245 0 0.003733369653689623 1:126.2432 2:75.8496 3:200 4:255 5:3 6:3 7:0 8:6 9:2 10:5 11:2 12:0 13:0 14:0 15:0 16:0 17:11 18:0 19:0 20:0 21:0 22:0 23:0 24:0 25:0 26:1 27:0 28:0 29:0 30:0 31:0 32:1 33:2 34:5 35:4 36:3 37:0 38:0 39:1 40:0 41:1 42:0 43:0 44:0 45:0 46:0 47:0 48:1 49:0 50:0 51:0 52:2 53:3 54:0 55:0 56:4 57:0 58:2 59:0 60:1 61:0 62:0 63:1 64:4 65:5 66:0 67:0 68:5 69:0 70:6 71:2 72:0 73:0 74:0 75:0 76:5 77:0 78:0 79:0 80:2 81:0 82:0 83:0 84:0 85:1 86:3 87:0 88:3 89:1 90:1 91:2 92:0 93:0 94:3 95:0 96:0 97:1 98:1 99:0 100:1 101:0 102:0 103:0 104:0 105:2 106:1 107:0 108:4 109:0 110:0 111:3 112:2 113:5 114:0 115:0 116:0 117:0 118:0 119:2 120:0 121:1 122:1 123:0 124:1 125:3 126:0 127:0 128:2 129:0 130:0 131:2 132:0 133:0 134:1 135:0 136:0 137:7 138:0 139:0 140:3 141:2 142:3 143:0 144:0 145:0 146:0 147:0 
0 101921.1419685408 0 0 1:126.2736 2:76.4608 3:200 4:255 5:5 6:0 7:5 8:0 9:0 10:0 11:0 12:0 13:0 14:0 15:0 16:0 17:4 18:1 19:2 20:3 21:0 22:0 23:0 24:0 25:0 26:0 27:0 28:2 29:0 30:3 31:0 32:0 33:0 34:0 35:0 36:0 37:0 38:0 39:0 40:1 41:10 42:2 43:0 44:0 45:2 46:5 47:0 48:0 49:0 50:0 51:0 52:0 53:5 54:0 55:0 56:0 57:3 58:0 59:0 60:6 61:0 62:0 63:0 64:7 65:0 66:0 67:6 68:0 69:3 70:3 71:2 72:3 73:1 74:0 75:0 76:0 77:0 78:3 79:3 80:0 81:0 82:2 83:0 84:0 85:2 86:2 87:0 88:4 89:0 90:0 91:0 92:0 93:0 94:6 95:0 96:3 97:1 98:0 99:1 100:0 101:0 102:2 103:2 104:7 105:2 106:0 107:0 108:0 109:0 110:2 111:3 112:0 113:4 114:0 115:0 116:0 117:0 118:1 119:4 120:2 121:0 122:1 123:0 124:0 125:1 126:2 127:3 128:4 129:2 130:2 131:0 132:0 133:0 134:0 135:1 136:1 137:0 138:3 139:1 140:0 141:0 142:1 143:1 144:0 145:0 146:2 147:0 
183472.3295607356 0 0 0 1:127.4832 2:77.1824 3:200 4:255 5:0 6:5 7:4 8:0 9:0 10:0 11:0 12:0 13:0 14:0 15:0 16:0 17:0 18:6 19:5 20:0 21:0 22:0 23:1 24:0 25:1 26:0 27:0 28:0 29:7 30:0 31:2 32:4 33:3 34:0 35:2 36:0 37:0 38:0 39:0 40:4 41:0 42:0 43:2 44:3 45:1 46:0 47:2 48:2 49:0 50:0 51:0 52:4 53:2 54:0 55:2 56:0 57:6 58:1 59:0 60:0 61:1 62:0 63:2 64:3 65:0 66:4 67:1 68:1 69:4 70:0 71:0 72:3 73:0 74:0 75:0 76:0 77:0 78:5 79:4 80:0 81:5 82:4 83:0 84:1 85:0 86:0 87:0 88:0 89:2 90:4 91:0 92:1 93:6 94:0 95:0 96:2 97:1 98:0 99:1 100:0 101:0 102:3 103:2 104:0 105:0 106:1 107:0 108:3 109:0 110:0 111:1 112:0 113:1 114:1 115:1 116:0 117:0 118:0 119:1 120:0 121:2 122:0 123:0 124:0 125:0 126:0 127:0 128:2 129:0 130:0 131:0 132:4 133:0 134:0 135:1 136:0 137:0 138:0 139:0 140:0 141:0 142:4 143:2 144:0 145:0 146:0 147:0 
0 207073.0547935441 0 0.01308575777404922 1:127.096 2:76.88 3:200 4:255 5:5 6:0 7:0 8:0 9:0 10:0 11:3 12:0 13:0 14:0 15:2 16:0 17:3 18:0 19:2 20:0 21:0 22:0 23:0 24:1 25:0 26:0 27:0 28:4 29:0 30:2 31:3 32:1 33:3 34:2 35:0 36:2 37:3 38:0 39:0 40:0 41:4 42:0 43:0 44:0 45:1 46:5 47:0 48:0 49:2 50:0 51:0 52:4 53:0 54:0 55:2 56:0 57:0 58:0 59:3 60:0 61:1 62:0 63:0 64:0 65:0 66:3 67:0 68:2 69:3 70:0 71:1 72:1 73:0 74:1 75:0 76:0 77:0 78:4 79:0 80:0 81:1 82:3 83:1 84:1 85:0 86:1 87:1 88:0 89:2 90:0 91:0 92:3 93:0 94:1 95:0 96:1 97:1 98:1 99:0 100:0 101:2 102:0 103:0 104:4 105:0 106:2 107:0 108:0 109:1 110:0 111:0 112:6 113:0 114:0 115:7 116:2 117:0 118:0 119:0 120:1 121:3 122:0 123:0 124:4 125:4 126:0 127:0 128:1 129:0 130:0 131:0 132:0 133:0 134:0 135:0 136:1 137:0 138:0 139:5 140:3 141:0 142:0 143:0 144:0 145:0 146:0 147:0 
0 0 0 0.01071048582546621 1:126.0896 2:76.072 3:200 4:255 5:1 6:0 7:0 8:4 9:0 10:0 11:0 12:1 13:0 14:0 15:0 16:0 17:4 18:6 19:0 20:5 21:0 22:0 23:0 24:0 25:0 26:0 27:1 28:0 29:2 30:0 31:2 32:1 33:0 34:2 35:0 36:0 37:0 38:0 39:0 40:0 41:0 42:1 43:0 44:0 45:0 46:4 47:0 48:0 49:0 50:0 51:0 52:0 53:0 54:0 55:0 56:0 57:1 58:0 59:5 60:0 61:1 62:0 63:1 64:0 65:0 66:0 67:0 68:1 69:0 70:0 71:4 72:3 73:0 74:1 75:0 76:0 77:0 78:0 79:2 80:0 81:1 82:0 83:1 84:0 85:2 86:1 87:0 88:0 89:3 90:0 91:2 92:3 93:0 94:3 95:1 96:1 97:2 98:1 99:0 100:0 101:0 102:1 103:2 104:3 105:1 106:5 107:0 108:0 109:0 110:0 111:1 112:0 113:0 114:1 115:2 116:2 117:0 118:1 119:0 120:1 121:0 122:0 123:1 124:0 125:0 126:0 127:3 128:2 129:1 130:1 131:1 132:0 133:4 134:0 135:0 136:0 137:0 138:1 139:4 140:0 141:0 142:0 143:1 144:2 145:0 146:1 147:2 
0 80047.47760187613 0 0 1:128.2576 2:77.072 3:200 4:255 5:0 6:0 7:0 8:2 9:4 10:0 11:2 12:0 13:0 14:2 15:0 16:0 17:0 18:0 19:1 20:0 21:3 22:0 23:2 24:1 25:0 26:2 27:0 28:7 29:1 30:3 31:5 32:2 33:0 34:0 35:2 36:1 37:1 38:0 39:1 40:2 41:0 42:0 43:0 44:0 45:3 46:1 47:0 48:0 49:2 50:0 51:1 52:0 53:0 54:0 55:1 56:2 57:0 58:0 59:6 60:3 61:0 62:3 63:0 64:0 65:3 66:0 67:0 68:0 69:0 70:2 71:0 72:0 73:1 74:1 75:1 76:0 77:4 78:0 79:0 80:0 81:0 82:0 83:0 84:2 85:0 86:2 87:1 88:0 89:1 90:0 91:0 92:4 93:4 94:0 95:0 96:0 97:1 98:0 99:2 100:0 101:1 102:0 103:1 104:0 105:2 106:0 107:0 108:2 109:1 110:0 111:0 112:3 113:5 114:2 115:8 116:4 117:0 118:0 119:0 120:0 121:0 122:1 123:1 124:3 125:0 126:5 127:2 128:0 129:0 130:0 131:0 132:0 133:0 134:0 135:0 136:0 137:3 138:0 139:1 140:1 141:0 142:2 143:1 144:0 145:0 146:0 147:0 
0 0 0 0.07086327495691863 1:122.3248 2:73.3712 3:200 4:255 5:4 6:0 7:0 8:0 9:4 10:3 11:0 12:2 13:0 14:0 15:1 16:0 17:0 18:0 19:3 20:10 21:1 22:2 23:0 24:0 25:2 26:0 27:1 28:4 29:0 30:0 31:0 32:4 33:5 34:5 35:0 36:0 37:2 38:0 39:0 40:9 41:2 42:0 43:2 44:3 45:0 46:0 47:0 48:0 49:0 50:0 51:0 52:6 53:6 54:3 55:0 56:1 57:0 58:0 59:0 60:1 61:0 62:0 63:0 64:0 65:0 66:3 67:3 68:0 69:7 70:0 71:1 72:2 73:2 74:2 75:1 76:3 77:10 78:0 79:0 80:0 81:0 82:1 83:0 84:1 85:1 86:2 87:0 88:3 89:0 90:0 91:5 92:0 93:0 94:2 95:0 96:0 97:0 98:0 99:0 100:1 101:0 102:0 103:3 104:3 105:0 106:0 107:2 108:0 109:1 110:0 111:2 112:0 113:0 114:0 115:0 116:1 117:0 118:1 119:1 120:0 121:4 122:1 123:1 124:0 125:0 126:0 127:3 128:0 129:1 130:1 131:0 132:0 133:3 134:0 135:1 136:2 137:7 138:0 139:0 140:0 141:0 142:6 143:1 144:1 145:0 146:1 147:0 
0 105883.0120153683 0 0 1:126.6128 2:76.3008 3:200 4:255 5:0 6:3 7:1 8:0 9:6 10:0 11:0 12:1 13:0 14:2 15:0 16:0 17:0 18:0 19:4 20:6 21:0 22:0 23:0 24:3 25:0 26:1 27:0 28:0 29:4 30:0 31:5 32:0 33:1 34:4 35:0 36:3 37:0 38:0 39:1 40:0 41:0 42:0 43:0 44:0 45:0 46:0 47:0 48:2 49:5 50:0 51:2 52:0 53:2 54:2 55:2 56:6 57:0 58:0 59:0 60:0 61:0 62:1 63:0 64:0 65:0 66:1 67:4 68:3 69:0 70:3 71:0 72:1 73:2 74:0 75:1 76:3 77:0 78:2 79:2 80:0 81:0 82:0 83:0 84:0 85:0 86:0 87:1 88:3 89:4 90:0 91:0 92:0 93:0 94:1 95:1 96:0 97:1 98:2 99:0 100:1 101:0 102:0 103:0 104:0 105:0 106:0 107:1 108:0 109:0 110:1 111:0 112:0 113:0 114:1 115:0 116:2 117:0 118:0 119:0 120:2 121:1 122:0 123:1 124:0 125:1 126:2 127:0 128:0 129:2 130:2 131:0 132:0 133:1 134:0 135:2 136:1 137:0 138:0 139:0 140:1 141:2 142:2 143:0 144:2 145:0 146:0 147:1 
0 0 0 0.02863151613068694 1:126.8048 2:75.928 3:200 4:255 5:0 6:0 7:0 8:1 9:0 10:0 11:0 12:1 13:2 14:2 15:2 16:0 17:0 18:0 19:0 20:0 21:0 22:1 23:0 24:3 25:0 26:0 27:0 28:0 29:3 30:0 31:0 32:0 33:1 34:1 35:0 36:0 37:3 38:1 39:1 40:2 41:0 42:0 43:0 44:0 45:0 46:2 47:3 48:0 49:0 50:0 51:0 52:2 53:3 54:0 55:0 56:3 57:0 58:0 59:0 60:2 61:4 62:3 63:2 64:0 65:0 66:4 67:0 68:1 69:3 70:2 71:0 72:1 73:3 74:0 75:0 76:0 77:1 78:0 79:1 80:3 81:1 82:0 83:0 84:2 85:0 86:0 87:0 88:2 89:0 90:0 91:0 92:0 93:0 94:0 95:0 96:0 97:2 98:0 99:0 100:0 101:0 102:0 103:0 104:0 105:2 106:0 107:0 108:0 109:2 110:1 111:0 112:2 113:0 114:0 115:0 116:0 117:4 118:0 119:0 120:2 121:2 122:0 123:0 124:0 125:0 126:0 127:3 128:2 129:0 130:0 131:0 132:1 133:1 134:2 135:1 136:2 137:4 138:0 139:1 140:0 141:0 142:1 143:3 144:1 145:0 146:2 147:2 
311637.2594604634 0 0 0 1:127.8512 2:77.0336 3:200 4:255 5:0 6:0 7:4 8:0 9:0 10:4 11:3 12:2 13:0 14:0 15:1 16:2 17:0 18:1 19:0 20:1 21:0 22:0 23:1 24:0 25:0 26:0 27:2 28:0 29:0 30:1 31:0 32:1 33:0 34:0 35:1 36:0 37:0 38:0 39:0 40:6 41:0 42:0 43:0 44:0 45:1 46:0 47:0 48:0 49:0 50:0 51:2 52:0 53:1 54:0 55:0 56:0 57:0 58:0 59:1 60:0 61:0 62:0 63:0 64:0 65:4 66:3 67:0 68:0 69:0 70:3 71:0 72:0 73:0 74:0 75:0 76:3 77:3 78:8 79:0 80:0 81:0 82:0 83:0 84:0 85:1 86:0 87:0 88:0 89:0 90:3 91:0 92:0 93:0 94:2 95:0 96:0 97:0 98:0 99:0 100:0 101:0 102:0 103:0 104:3 105:1 106:0 107:0 108:0 109:1 110:0 111:1 112:0 113:0 114:0 115:2 116:0 117:0 118:0 119:0 120:0 121:0 122:0 123:0 124:0 125:0 126:0 127:0 128:2 129:5 130:1 131:0 132:0 133:2 134:0 135:0 136:0 137:0 138:3 139:0 140:0 141:0 142:0 143:0 144:0 145:1 146:0 147:0 
10326.52817864791 0 0 0 1:127.44 2:76.9136 3:200 4:255 5:1 6:0 7:3 8:0 9:0 10:3 11:0 12:1 13:0 14:0 15:1 16:0 17:2 18:3 19:0 20:0 21:0 22:1 23:2 24:1 25:0 26:0 27:0 28:0 29:1 30:0 31:0 32:8 33:0 34:0 35:0 36:0 37:0 38:0 39:1 40:0 41:0 42:0 43:0 44:0 45:4 46:0 47:0 48:0 49:0 50:3 51:1 52:0 53:4 54:0 55:0 56:0 57:7 58:1 59:0 60:1 61:0 62:0 63:0 64:4 65:1 66:0 67:3 68:0 69:0 70:2 71:2 72:3 73:1 74:0 75:0 76:3 77:0 78:5 79:0 80:1 81:0 82:0 83:0 84:0 85:1 86:2 87:2 88:2 89:0 90:0 91:3 92:0 93:0 94:0 95:0 96:1 97:1 98:2 99:1 100:0 101:0 102:0 103:0 104:2 105:0 106:0 107:1 108:1 109:1 110:0 111:0 112:4 113:0 114:0 115:0 116:2 117:0 118:0 119:3 120:0 121:0 122:2 123:0 124:2 125:0 126:0 127:3 128:0 129:0 130:1 131:2 132:2 133:1 134:0 135:0 136:2 137:0 138:1 139:0 140:5 141:1 142:0 143:0 144:0 145:0 146:0 147:1 
0 382395.5146034391 0 0 1:123.1536 2:73.8896 3:200 4:255 5:10 6:10 7:5 8:0 9:0 10:0 11:2 12:1 13:0 14:1 15:4 16:0 17:0 18:0 19:0 20:0 21:0 22:0 23:6 24:5 25:0 26:0 27:4 28:0 29:0 30:0 31:4 32:0 33:0 34:0 35:9 36:0 37:0 38:0 39:1 40:7 41:5 42:1 43:9 44:0 45:0 46:0 47:2 48:1 49:0 50:0 51:2 52:3 53:0 54:0 55:3 56:0 57:0 58:0 59:1 60:0 61:0 62:0 63:1 64:2 65:0 66:0 67:1 68:7 69:4 70:2 71:0 72:0 73:0 74:0 75:0 76:3 77:3 78:0 79:0 80:2 81:0 82:3 83:0 84:3 85:0 86:0 87:0 88:5 89:0 90:0 91:3 92:1 93:0 94:0 95:0 96:1 97:0 98:0 99:2 100:0 101:0 102:0 103:0 104:9 105:9 106:3 107:2 108:0 109:0 110:0 111:0 112:0 113:0 114:0 115:6 116:3 117:1 118:0 119:0 120:0 121:0 122:0 123:0 124:7 125:4 126:0 127:5 128:0 129:0 130:0 131:2 132:0 133:0 134:0 135:0 136:2 137:0 138:0 139:4 140:0 141:2 142:5 143:1 144:0 145:0 146:0 147:0 
563756.5568735058 0 0 0 1:124.9296 2:75.0336 3:200 4:255 5:0 6:0 7:0 8:2 9:2 10:0 11:1 12:0 13:2 14:0 15:0 16:5 17:0 18:0 19:0 20:1 21:4 22:1 23:0 24:0 25:3 26:0 27:0 28:4 29:0 30:0 31:0 32:0 33:0 34:0 35:0 36:5 37:1 38:4 39:0 40:0 41:0 42:0 43:0 44:0 45:3 46:3 47:2 48:0 49:0 50:0 51:0 52:0 53:5 54:0 55:5 56:3 57:0 58:1 59:0 60:1 61:0 62:1 63:0 64:0 65:5 66:5 67:0 68:0 69:0 70:0 71:1 72:0 73:2 74:0 75:1 76:3 77:0 78:5 79:3 80:0 81:0 82:0 83:2 84:1 85:0 86:2 87:1 88:0 89:3 90:0 91:3 92:3 93:0 94:1 95:0 96:0 97:0 98:0 99:0 100:2 101:0 102:0 103:0 104:0 105:2 106:0 107:0 108:0 109:0 110:0 111:0 112:5 113:1 114:0 115:0 116:0 117:2 118:0 119:0 120:0 121:0 122:0 123:0 124:1 125:0 126:3 127:0 128:0 129:4 130:0 131:0 132:0 133:0 134:0 135:0 136:0 137:3 138:4 139:1 140:0 141:0 142:1 143:1 144:0 145:0 146:0 147:0 
0 1024292.712127401 0 0 1:124.8992 2:74.6768 3:200 4:255 5:1 6:1 7:0 8:0 9:1 10:5 11:0 12:1 13:0 14:0 15:0 16:0 17:11 18:2 19:4 20:0 21:0 22:0 23:2 24:0 25:0 26:1 27:1 28:14 29:3 30:0 31:0 32:4 33:0 34:0 35:5 36:0 37:0 38:1 39:0 40:0 41:0 42:0 43:7 44:4 45:0 46:0 47:0 48:0 49:1 50:1 51:0 52:5 53:8 54:0 55:0 56:6 57:0 58:0 59:0 60:0 61:2 62:3 63:0 64:2 65:0 66:0 67:0 68:1 69:0 70:0 71:2 72:0 73:0 74:2 75:0 76:6 77:9 78:3 79:0 80:0 81:0 82:1 83:1 84:0 85:0 86:0 87:1 88:2 89:0 90:3 91:0 92:0 93:5 94:0 95:1 96:0 97:0 98:0 99:0 100:0 101:0 102:5 103:0 104:3 105:7 106:0 107:0 108:0 109:2 110:0 111:0 112:0 113:1 114:6 115:0 116:2 117:4 118:0 119:0 120:1 121:2 122:0 123:0 124:2 125:0 126:3 127:1 128:2 129:2 130:0 131:0 132:0 133:2 134:0 135:0 136:3 137:0 138:1 139:0 140:0 141:2 142:0 143:0 144:0 145:1 146:0 147:0 
414726.2074442016 124651.2354195041 0 0 1:125.3648 2:75.3936 3:200 4:255 5:1 6:5 7:0 8:0 9:0 10:0 11:0 12:0 13:0 14:0 15:0 16:19 17:0 18:0 19:4 20:5 21:3 22:0 23:0 24:1 25:0 26:0 27:1 28:0 29:1 30:0 31:5 32:0 33:0 34:3 35:0 36:0 37:3 38:0 39:0 40:0 41:0 42:0 43:1 44:2 45:0 46:4 47:0 48:1 49:1 50:0 51:1 52:2 53:5 54:3 55:0 56:1 57:0 58:0 59:1 60:1 61:1 62:0 63:1 64:6 65:0 66:0 67:1 68:0 69:1 70:3 71:0 72:0 73:0 74:0 75:0 76:3 77:0 78:0 79:2 80:0 81:0 82:0 83:1 84:2 85:0 86:0 87:0 88:0 89:0 90:2 91:1 92:1 93:2 94:1 95:0 96:0 97:0 98:1 99:1 100:3 101:0 102:1 103:2 104:0 105:0 106:0 107:0 108:0 109:0 110:1 111:0 112:6 113:0 114:2 115:0 116:0 117:1 118:0 119:0 120:0 121:0 122:0 123:0 124:1 125:0 126:0 127:1 128:1 129:1 130:1 131:0 132:0 133:0 134:1 135:0 136:5 137:0 138:0 139:0 140:0 141:0 142:1 143:2 144:2 145:2 146:0 147:0 
0 396184.1602443389 0 0 1:125.544 2:75.408 3:200 4:255 5:1 6:0 7:3 8:0 9:0 10:0 11:5 12:1 13:0 14:0 15:0 16:0 17:12 18:0 19:4 20:2 21:1 22:0 23:1 24:0 25:0 26:0 27:0 28:1 29:0 30:0 31:10 32:6 33:0 34:0 35:1 36:0 37:0 38:0 39:2 40:1 41:3 42:0 43:1 44:2 45:1 46:0 47:1 48:2 49:0 50:0 51:0 52:0 53:4 54:3 55:0 56:3 57:0 58:0 59:0 60:0 61:0 62:0 63:0 64:0 65:6 66:0 67:0 68:0 69:0 70:0 71:0 72:0 73:0 74:0 75:0 76:0 77:4 78:0 79:1 80:1 81:4 82:0 83:1 84:0 85:0 86:0 87:0 88:0 89:0 90:2 91:2 92:0 93:0 94:0 95:0 96:0 97:0 98:1 99:0 100:0 101:1 102:0 103:0 104:0 105:2 106:4 107:2 108:1 109:2 110:0 111:0 112:4 113:0 114:0 115:3 116:2 117:0 118:4 119:0 120:1 121:1 122:1 123:1 124:4 125:0 126:2 127:0 128:0 129:0 130:0 131:0 132:0 133:0 134:0 135:0 136:3 137:0 138:3 139:0 140:3 141:0 142:0 143:0 144:0 145:0 146:0 147:0 
0 515907.8269153895 0 0 1:128.616 2:77.1792 3:200 4:255 5:1 6:3 7:0 8:2 9:2 10:0 11:0 12:0 13:1 14:1 15:0 16:4 17:0 18:0 19:0 20:0 21:5 22:2 23:0 24:0 25:0 26:0 27:0 28:1 29:5 30:4 31:0 32:0 33:0 34:0 35:0 36:2 37:1 38:0 39:2 40:0 41:0 42:5 43:4 44:0 45:0 46:0 47:3 48:3 49:0 50:3 51:0 52:5 53:3 54:0 55:0 56:2 57:0 58:1 59:1 60:0 61:0 62:0 63:0 64:5 65:1 66:0 67:0 68:2 69:0 70:1 71:0 72:0 73:0 74:0 75:0 76:6 77:0 78:0 79:4 80:0 81:4 82:1 83:0 84:0 85:0 86:0 87:0 88:1 89:3 90:0 91:0 92:0 93:1 94:3 95:3 96:0 97:0 98:0 99:0 100:1 101:0 102:0 103:3 104:0 105:0 106:0 107:2 108:2 109:0 110:0 111:1 112:0 113:0 114:0 115:0 116:6 117:0 118:0 119:2 120:1 121:0 122:0 123:0 124:0 125:0 126:0 127:3 128:2 129:0 130:0 131:0 132:0 133:0 134:1 135:0 136:3 137:7 138:1 139:2 140:0 141:1 142:1 143:0 144:0 145:1 146:0 147:0 
0 0 0 0.02246694790734202 1:124.8208 2:75.3168 3:200 4:255 5:2 6:1 7:3 8:0 9:0 10:0 11:0 12:0 13:0 14:0 15:0 16:0 17:1 18:0 19:3 20:0 21:0 22:2 23:5 24:0 25:2 26:1 27:0 28:0 29:6 30:3 31:0 32:3 33:0 34:0 35:0 36:6 37:0 38:0 39:4 40:0 41:6 42:0 43:0 44:1 45:3 46:3 47:0 48:3 49:0 50:0 51:2 52:0 53:0 54:5 55:1 56:0 57:0 58:1 59:1 60:2 61:0 62:0 63:1 64:0 65:6 66:4 67:0 68:6 69:0 70:0 71:0 72:0 73:0 74:0 75:0 76:8 77:0 78:0 79:0 80:0 81:0 82:2 83:1 84:0 85:1 86:1 87:0 88:0 89:0 90:3 91:0 92:0 93:3 94:1 95:0 96:0 97:0 98:1 99:0 100:0 101:0 102:0 103:0 104:0 105:0 106:2 107:2 108:1 109:0 110:0 111:1 112:1 113:0 114:4 115:0 116:2 117:1 118:0 119:0 120:1 121:1 122:1 123:1 124:3 125:0 126:0 127:0 128:0 129:1 130:0 131:0 132:1 133:0 134:0 135:1 136:3 137:0 138:3 139:1 140:3 141:0 142:2 143:0 144:1 145:0 146:1 147:1 
